classes:
0 Apples 4 Kiwi 1 Bananas 3 Grapes 5 Lemon 2 Cherry 6 Onion 8 Tomato 7 Orange 9 Watermelon 

kern1:
0.173821 -0.0287563 -0.0408247 0.238448 -0.375952 0.157192 0.153413 0.10282 -0.305024 -0.256776 0.285679 0.165984 0.247408 0.254265 -0.0883793 0.265005 0.132053 -0.00670642 -0.238329 -0.382217 0.0295068 0.142795 0.26182 -0.118031 
0.594353 0.00579264 0.314888 -0.0357517 -0.172338 -0.148501 -0.437676 -0.109684 0.18264 -0.529178 0.28692 -0.0119363 0.321392 -0.0271545 0.0628184 -0.382342 0.157565 0.305069 0.0418656 0.0574173 -0.300452 -0.276836 -0.0286313 -0.197911 
0.113235 -0.249042 -0.0393093 0.0242622 -0.162575 -0.175987 0.00755278 -0.144901 0.0976967 -0.0914701 -0.180401 -0.171583 -0.0243674 0.206476 0.212441 0.151115 0.0441005 -0.130476 0.189465 -0.258037 -0.0972977 0.0580205 0.0370225 0.109391 
0.0980307 -0.324364 0.0992884 -0.143511 0.235101 -0.274436 -0.111077 -0.113582 0.0888907 0.114017 -0.104374 0.260208 -0.0235678 0.091866 0.100522 0.039326 0.0184824 0.142003 -0.0301417 -0.198384 -0.0840155 -0.165761 -0.115371 0.279908 
-0.313691 -0.0772773 -0.0114156 -0.258644 -0.0827319 -0.247419 0.259151 -0.115535 0.314004 -0.240544 0.161734 0.33698 -0.20495 0.140102 0.246542 0.100214 -0.0367552 -0.196496 -0.0402772 -0.375722 0.00330115 0.132952 0.270045 -0.123561 
-0.0210558 -0.0028738 -0.144455 -0.0603727 -0.549383 -0.0297862 0.015282 -0.221229 0.233025 0.28193 0.0821525 0.188896 0.0896303 0.125074 0.0206011 0.225176 -0.198972 0.0928616 -0.325089 -0.236055 -0.239616 -0.352943 -0.442927 -0.0477267 
0.156932 -0.142733 -0.02976 0.319954 0.283401 -0.0269546 -0.133548 0.390765 -0.335595 -0.208496 -0.0931294 -0.471269 -0.156693 -0.13906 0.371806 0.00194129 0.0854908 -0.0339419 0.177321 0.185829 0.142413 -0.432079 -0.051785 0.078834 
0.325055 -0.0647635 -0.491734 0.147837 0.0562132 -0.180625 0.0970772 -0.102632 -0.145457 -0.187532 0.0293591 -0.260631 -0.479423 -0.0385213 -0.260769 -0.193605 0.178954 -0.109395 -0.0795596 -0.138956 -0.00874652 0.235279 0.14414 0.00697194 
-0.113546 0.0162722 -0.0735042 -0.147702 -0.104449 -0.106962 0.0735956 -0.159223 0.01373 -0.450173 0.113432 0.0868461 -0.356757 0.188359 0.118588 -0.279494 -0.392946 0.125875 -0.126049 0.0588314 -0.0434158 -0.0283421 -0.173568 0.130822 
0.07583 0.574698 -0.133624 0.196677 0.0123608 0.0460576 0.161844 -0.188814 0.000235252 0.0100067 -0.128659 0.0432269 -0.0512333 -0.393922 -0.141038 -0.0361016 -0.178796 -0.328924 0.0917096 -0.0539511 -0.159415 0.137879 -0.046509 0.016948 
-0.0874822 0.269349 -0.1007 -0.0199511 0.10753 0.127394 0.173805 -0.0999247 -0.144245 -0.291644 0.15207 0.216075 -0.177265 -0.427148 -0.363105 0.209278 0.0991328 0.0603802 0.163214 -0.248711 0.269481 -0.363419 -0.0240507 -0.306188 
-0.097335 -0.000218846 -0.0904288 0.131182 0.0769849 -0.0154258 0.0413759 0.209286 0.0505903 -0.0538151 -0.134551 -0.0400802 -0.145112 0.0088918 -0.0958997 -0.0296488 0.269691 0.183638 0.198848 -0.108726 -0.125195 -0.360666 0.0764233 -0.270633 
0.107306 -0.111771 0.119815 -0.0188769 -0.0693916 -0.150525 0.0722614 0.205016 -0.203475 -0.189748 0.241832 0.0974812 0.0752304 -0.015961 -0.0190808 -0.0274372 -0.100144 -0.0415831 0.0135387 0.175734 -0.137343 -0.125174 -0.109565 0.200901 
-0.0053719 0.377044 -0.00976391 -0.0736154 0.136998 -0.171631 0.268234 -0.0574958 0.0593633 0.0835829 -0.158694 0.0648693 -0.0850014 -0.124581 0.107429 -0.122854 0.231137 -0.327044 -0.068938 0.147514 0.0796724 0.396535 -0.0358377 -0.21781 
-0.277964 -0.277405 -0.0562047 0.0777384 0.5098 0.104192 0.0174786 -0.0406141 0.0379842 -0.0343409 0.0367869 -0.168084 0.155207 0.0678833 0.062437 0.144602 -0.162835 -0.326789 0.0551916 0.102196 0.0716625 -0.00813637 0.145339 0.362174 
0.0633773 -0.133329 -0.0496697 -0.195239 0.343944 -0.207546 -0.0860361 0.0381235 0.127758 -0.102175 0.232226 -0.0105745 -0.230021 -0.0303499 0.167435 0.0471384 -0.169585 -0.039957 -0.242194 -0.0279099 -0.338138 0.211791 0.261008 -0.213541 
0.198715 -0.584461 -0.132981 -0.251083 0.116244 -0.152018 -0.250991 -0.0231421 0.0844543 -0.0661616 -0.0122552 -0.280158 0.300812 -0.159591 -0.0189725 -0.433496 0.255286 0.14898 0.0716214 -0.151408 -0.170602 -0.0385288 -0.198739 -0.025792 
0.0136709 0.142563 -0.0844898 -0.321451 -0.320376 -0.0241707 -0.552027 -0.0431264 -0.0556432 -0.145779 0.295526 0.121961 -0.243896 -0.0560706 0.108813 0.0683586 0.333517 -0.167023 -0.104379 0.190998 -0.273255 -0.0970579 -0.0417175 -0.112239 
-0.114384 -0.150992 -0.13979 -0.0562437 0.0252748 -0.197228 -0.179688 -0.0480925 -0.347231 0.170273 -0.156632 0.239573 0.0468481 -0.187427 0.158814 -0.208974 0.184754 -0.311407 -0.0274961 0.25449 0.0340365 -0.360205 0.195796 -0.0381214 
-0.189554 -0.151868 0.259186 -0.0462867 -0.293384 -0.253725 -0.26876 0.126137 -0.0949365 -0.134665 0.232389 0.111231 -0.221594 0.0863527 -0.336724 -0.162587 -0.485794 -0.44255 0.144403 -0.305038 -0.196798 -0.0777956 -0.217397 0.0278978 
0.0986343 0.0298373 -0.130133 -0.0532537 0.0356839 -0.0297288 -0.232336 -0.164365 -0.140754 -0.119596 0.0202647 -0.225932 -0.161936 -0.0677308 -0.355383 -0.398347 -0.273447 -0.0839567 0.14394 0.0538958 -0.0400692 0.0851079 -0.339244 -0.220775 
0.000235394 -0.175591 0.490578 -0.0158459 -0.0205154 0.0296031 -0.525133 -0.227393 -0.0880829 -0.142084 -0.110199 -0.189924 -0.116867 -0.0305971 0.0207204 0.294493 0.089588 0.0809306 -0.113938 -0.127016 -0.15088 0.225029 0.503551 -0.383543 
-0.00756401 0.129551 0.223719 0.428485 0.00122334 -0.0756431 -0.0282296 0.121182 -0.276433 0.0467147 0.0142004 -0.240713 0.25307 0.226623 -0.242475 0.108886 -0.0309742 0.105597 0.25188 0.000196222 0.332888 -0.467001 -0.212053 -0.0934332 
0.0588242 -0.310142 0.314182 0.314331 0.10436 0.234105 -0.0934142 0.0295745 0.0521121 -0.00938292 -0.308383 -0.289757 -0.0895731 -0.394628 0.00758491 -0.220154 0.166569 0.156663 0.2726 0.183316 -0.0218821 0.0385684 -0.0873155 -0.275045 
-0.0293564 -0.0593412 -0.152456 0.21432 -0.21687 -0.381656 -0.0573846 0.0672045 -0.0363181 0.0384684 -0.34295 0.260063 0.101396 -0.04652 0.00702257 -0.0788417 -0.131859 -0.0727078 -0.636813 0.391019 -0.402419 -0.419937 0.141262 -0.0146661 
0.00815988 -0.0153542 0.0799071 0.019554 -0.0457977 -0.278495 0.110278 0.233263 -0.142916 -0.300087 0.250723 -0.0765717 0.162194 -0.136756 0.0167922 0.342902 -0.306546 -0.099273 0.207748 0.113122 -0.158244 0.0448972 -0.131798 0.0335127 
-0.100744 0.134253 -0.353807 0.317897 -0.00599077 0.177525 0.280008 0.354179 0.0367772 -0.226733 0.107032 0.0415657 0.0244001 -0.0798705 -0.262002 0.126992 0.137995 0.167983 0.247417 -0.185757 -0.0349066 -0.149335 0.143961 -0.0194519 
-0.083327 -0.342502 -0.248301 0.242431 -0.246697 0.0165372 -0.166515 0.0294997 0.140888 -0.156504 -0.10002 -0.172944 -0.0676581 -0.270406 0.0471466 -0.0945239 0.117153 -0.228488 0.346145 -0.000905499 0.161168 -0.113485 0.0850424 0.18774 
-0.189818 0.10671 0.112094 -0.324204 -0.166023 0.107411 -0.0469516 -0.0859855 -0.489597 0.041383 -0.0695493 0.0716125 -0.163136 -0.0322179 -0.272674 0.126461 -0.00801244 0.225421 -0.0136538 -0.164911 -0.206669 0.372117 -0.223869 -0.137796 
-0.176518 -0.0934657 -0.00451203 0.0491376 0.0719493 -0.202878 0.0256309 0.162136 0.491969 -0.0782684 -0.0457702 -0.0261317 0.0264286 0.0400344 -0.238899 -0.723172 -0.273183 -0.205437 0.0722696 0.190896 0.00647083 0.0207339 0.130233 -0.378296 
0.0969573 -0.0571034 0.0255698 -0.100918 0.0511207 -0.0435325 0.148684 -0.321166 -0.267547 0.38605 -0.0410121 0.210946 -0.0126986 -0.186943 -0.067891 -0.002439 -0.283253 0.040873 -0.118314 0.140808 -0.160764 0.304359 -0.0364811 -0.0242188 
-0.417951 -0.0548856 0.0782847 0.21196 0.357389 0.0506681 -0.294716 -0.0844547 -0.0718868 0.0169722 -0.236779 -0.370258 0.119795 0.597535 -0.000310831 -0.0480644 -0.012292 0.424981 -0.0205436 -0.267168 0.105465 0.0259244 -0.105093 0.194558 
-0.0721386 -0.166188 0.168928 -0.115817 -0.0964946 0.0740873 0.12535 0.343911 0.27086 -0.0037072 0.0909072 -0.0614872 -0.184 -0.0102283 0.0175268 -0.0565144 -0.0992518 0.150217 -0.00250235 -0.00980524 -0.151755 -0.0886438 0.115907 0.127037 
0.111611 -0.393938 -0.042368 0.227539 0.264474 -0.201952 0.302315 -0.144178 -0.399078 0.0377285 0.0223168 -0.131171 0.241711 -0.150825 0.0501964 -0.0784887 -0.0233312 0.153676 -0.220023 0.283723 -0.0299418 -0.280266 0.150704 -0.0241798 
0.0173636 -0.0921545 0.0949158 -0.123731 -0.242771 0.187597 0.297363 -0.0159619 -0.306974 0.0950739 0.307755 -0.268379 -0.33689 -0.108889 -0.0488613 0.0597659 0.0559442 -0.0514574 -0.116377 -0.184757 0.202302 -0.164462 0.0539339 -0.135668 
0.218575 0.295589 -0.119811 -0.092817 0.133575 -0.14379 0.114687 -0.117441 -0.18813 0.044061 -0.417937 -0.0572462 0.161505 -0.171843 -0.154921 -0.0951362 -0.0740995 0.0789603 0.107562 -0.237786 -0.0159781 -0.184587 0.0438904 0.0553926 

bias1:
0.000356888 -0.00060102 0.000282509 0.000956655 0.00174425 0.00134395 -0.0012769 0.000933475 0.000373473 0.00245365 0.00109903 -0.000267416 0.00028831 -0.000571006 0.000753424 0.000881147 0.000942955 0.000858453 -0.00101653 0.000683173 0.000817529 0.00106312 0.00140292 0.000534461 0.000143049 -0.000738943 0.000579031 0.00123074 0.000882489 0.000641524 0.000897389 0.00209969 

kern2:
-0.0878859 0.0815519 0.00924875 0.0570768 -0.0654423 -0.0483139 0.0546708 0.00815891 0.0658852 -0.0754984 0.0613996 -0.107366 0.0810781 0.129056 -0.0190689 0.0483765 -0.0345955 0.0146643 0.0131506 -0.0269555 -0.0452298 -0.0577442 -0.0119177 0.0229185 0.0141271 -0.0538296 0.00382025 -0.00446466 0.043046 0.0615822 0.0233134 0.078673 0.00601031 -0.0314929 -0.0051137 -0.0136062 0.000452184 -0.0721731 -0.020536 0.00770788 0.0919666 -0.063683 0.0176691 -0.0292062 0.0205835 0.0316217 -0.033124 0.000168742 -0.0430833 0.0683398 0.0508365 -0.0625704 -0.0327386 0.0238129 0.0101342 0.0642542 -0.0242605 -0.0810193 0.0463173 -0.0016311 0.0283552 -0.0688116 0.137176 -0.0625489 -0.0347387 -0.101006 0.0105244 -0.00886404 0.112413 -0.0268266 -0.0440055 -0.00198339 0.0596517 0.0175602 -0.00930273 -0.0288536 -0.0251358 0.0367705 0.0889857 0.0879648 0.0397515 0.0973849 0.111554 0.0642895 0.018958 -0.0703962 -0.0444731 0.0515255 0.0425251 -0.111114 -0.0266009 0.00784339 0.0870987 -0.0388927 0.0983516 0.0471061 
0.0669166 0.105929 0.0594937 -0.0994003 -0.06593 -0.0985903 0.0165405 0.0172764 -0.0144168 0.0240919 0.11095 0.0863661 0.116642 0.0200368 -0.0900396 0.116676 0.132125 0.141602 -0.0393459 -0.149272 -0.00132554 -0.0296299 -0.00384827 0.0670895 0.0542484 0.04175 0.149268 0.0155958 -0.0175113 0.154007 0.0269393 0.179292 0.0628875 -0.00225309 -0.0252508 0.0459407 0.00670103 -0.0895349 -0.183326 0.0614969 0.0353443 0.0187801 0.0283322 0.0885578 0.0873993 -0.00120619 0.0100318 0.0309154 -0.163846 -0.0526405 -0.165029 0.0786016 -0.0347801 -0.0837705 -0.103996 -0.0757149 -0.0377545 0.0336343 0.0643781 0.0411403 0.0248725 0.0534102 -0.000818033 0.0261772 -0.107694 -0.0657866 0.0584122 -0.0277689 -0.0709967 -0.00334634 -0.00185289 -0.0303597 -0.0419896 0.0873364 -0.0578989 -0.0141826 0.0726095 0.035261 -0.0335653 -0.0164943 -0.0120171 -0.0610858 -0.0542306 0.0652236 -0.00728585 -0.0363772 -0.0283378 -0.156877 0.0271905 -0.108843 0.0575254 -0.0521211 0.0749813 0.105322 0.0849456 0.0647832 
0.0156564 0.0614923 -0.0493115 0.10996 -0.0414579 0.0332111 -0.122383 0.0666757 -0.0446891 -0.00870962 -0.0122826 0.0826221 -0.278186 -0.147585 -0.339158 0.0332013 0.00984991 -0.0860477 0.0014655 0.0555233 -0.0158255 0.0648748 0.0809293 0.0368914 0.0751 0.0559682 0.0412141 -0.0678274 -0.00755997 -0.0551944 0.064269 0.0973998 0.0560216 0.0150421 0.0973867 0.0312295 -0.0473595 0.0214592 0.0542792 -0.196827 -0.0661293 -0.0602326 0.0409177 0.00786928 0.0410572 0.116922 -0.0245942 0.00962052 0.0456859 0.0366694 -0.0335998 -0.0656893 -0.158594 -0.228448 -0.0191992 0.00601573 -0.0297491 0.0566928 0.0330241 0.0989925 0.157669 0.028759 -0.0552372 0.0105511 -0.0997932 -0.017056 -0.0970295 -0.0893775 -0.015653 0.0772056 0.0007115 0.0715359 0.056612 0.00130829 -0.0449461 -0.00987974 -0.0714472 -0.13934 -0.0330892 -0.0273669 -0.0144192 -0.00787128 0.0904806 0.0116609 -0.0500562 0.143396 0.0666605 0.0889408 0.030477 0.0520884 -0.0604292 0.0997446 -0.0161686 0.000902016 -0.0766711 -0.00709679 
-0.0406572 -0.0189524 0.136188 -0.0212137 0.0616511 -0.0627195 -0.0377304 -0.0617215 -0.0111312 -0.0199585 -0.000923983 -0.0954033 -0.0661339 0.108939 0.12715 -0.00740855 0.0480711 -0.00633265 -0.0382786 -0.125056 -0.0488186 0.137226 -0.0343526 0.0199429 -0.0330832 0.0583618 0.104067 0.0168382 0.0489166 -0.0198237 0.0541195 -0.0482199 -0.0838662 0.0598338 -0.0131176 0.0348099 0.0385419 -0.0663578 0.0294534 -0.0564915 -0.0357233 0.0732455 -0.025588 0.0686383 0.0105139 0.0999747 0.0189552 0.0102511 0.0153064 0.115533 0.046317 0.024578 -0.0758267 -0.0493944 0.0506256 -0.0469583 -0.137725 -0.0228389 -0.0722703 0.0218874 0.0579439 -0.0836291 -0.0648671 0.048591 -0.0328126 0.0278937 -0.0495492 -0.0969509 -0.0272544 -0.0193532 -0.0280874 -0.0558899 0.0708215 0.107898 0.0790558 -0.0557115 -0.0486548 -0.0116061 0.133886 0.0165576 0.0458012 0.0265384 -0.0505401 0.0848974 -0.02544 -0.0791746 -0.040379 0.0424917 -0.0625153 -0.0424497 -0.0914373 0.0708902 0.0423187 0.0330923 0.114246 -0.0285824 
-0.0115382 0.0105462 -0.00852662 -0.0734819 0.0480761 -0.0290289 -0.0308529 -0.065126 -0.00524464 -0.00608133 -0.126063 0.0144492 -0.0590463 -0.00672067 -0.0586645 0.0556275 -0.0535527 -0.112699 0.0171103 0.0708559 0.00562554 -0.0159061 0.00191785 0.0255032 -0.0734383 0.0128336 0.00241284 -0.0834516 0.0335762 -0.02693 -0.0131683 0.00912939 0.0870033 -0.0378018 -0.141001 0.107471 -0.00701886 -0.0818316 0.00165861 -0.0161506 -0.038305 -0.0450567 0.0440225 0.0406146 -0.0216349 0.0323707 0.0931864 -0.0579568 -0.0216475 -0.0145745 -0.00290747 -0.0957396 -0.0664407 0.0100507 -0.0278329 -0.00203341 0.0163835 0.00963107 -0.00411878 0.0367313 0.0284997 -0.0389259 -0.00086275 -0.0745832 -0.120698 -0.00121902 -0.0281428 -0.0397902 -0.00110466 0.0400598 0.150674 0.0255682 -0.0314297 0.210294 0.0519768 -0.0601682 -0.0624881 -0.015563 0.0158142 -0.00829395 -0.0805741 -0.0433515 0.112356 0.0382527 -0.0112271 0.0577118 -0.108719 -0.0599981 -0.17956 -0.00438714 0.0315052 -0.012671 -0.0295558 -0.0329752 -0.0933826 0.0852613 
0.0241379 0.0356042 -0.0129389 -0.0113817 -0.0584139 0.0710342 0.0339002 0.0417365 -0.0373538 -0.0125145 -0.101742 -0.130702 -0.0342504 -0.0354359 -0.0736165 0.000922541 0.0927263 -0.00370358 0.0140571 0.0293399 0.0599911 -0.0282268 0.0602116 -0.0187696 -0.0239712 0.034615 0.0373837 -0.0974465 -0.0422425 -0.0503566 -0.0233534 -0.000974277 0.026634 0.0692729 -0.0415741 0.0416891 -0.0570495 0.0472808 0.0315525 -0.0407489 0.0598659 0.0206421 0.0803535 0.0135693 0.0602181 0.0266483 -0.035274 -0.00988006 0.0268838 0.0438956 0.0402083 -0.0517366 0.0396437 0.0127437 -0.0157292 0.119578 -0.0237402 -0.00473237 0.0295615 0.0191319 0.0963988 -0.0350462 0.059349 0.0015527 0.0508273 0.119687 0.0300544 -0.0192252 0.00903894 0.0412994 0.146067 0.139419 -0.061397 0.0381439 -0.0367946 0.0133596 -0.0722316 0.0467595 0.0811301 -0.0236767 -0.0131468 0.00625804 -0.0638165 0.0634698 0.0369909 -0.0101092 -0.0342469 0.0300822 -0.0335067 -0.0426135 0.0489189 0.0596871 0.0266888 -0.00942158 -0.0576984 -0.0557394 
-0.0177446 -0.0374223 0.00683415 -0.0193768 0.0862399 0.0700523 -0.021792 0.0953665 -0.0459938 -0.031931 -0.0672424 0.140537 -0.169227 -0.0715881 -0.117899 -0.0365784 -0.00113803 -0.124104 0.00841216 -0.0959444 -0.0199914 0.0503856 -0.012306 -0.0494468 -0.0575032 -0.0883523 -0.0752982 -0.0466063 -0.021054 -0.0560498 -0.0323377 0.0691893 -0.0159283 -0.0335539 0.073957 -0.0839309 0.00400802 0.249643 0.0368231 -0.0845486 -0.122228 -0.0385236 -0.0242017 0.0578461 -0.0497602 -0.00711914 -0.0697601 0.0573311 -0.0280531 -0.0369252 0.00295529 -0.17277 -0.0471977 -0.0590898 -0.0339664 0.0918097 -0.0337354 0.11307 -0.0243033 -0.00955546 0.0116723 -0.0279559 -0.032796 -0.0593034 -0.0526467 -0.0549975 -0.0723294 0.0502543 -0.124464 0.0220269 0.0339043 0.00472524 0.00518688 0.120989 0.0173619 -0.0237241 -0.0428059 -0.0209783 0.0231763 -0.0207267 -0.0423504 0.0569107 -0.189283 0.0289944 0.027396 -0.0354546 0.00767736 0.0356427 0.0592822 -0.0797069 -0.0314225 -0.0118422 -0.0211667 0.00350694 -0.115399 -0.115014 
0.0333492 -0.0477242 -0.0742031 0.00126209 0.106589 0.0215383 -0.0184895 -0.0197652 -0.0706292 0.0624906 0.0586698 -0.0238661 -0.0607606 -0.0251009 0.0190518 0.0286381 0.102715 0.0758817 -0.0436331 -0.0263443 0.0481439 0.0878393 -0.0320957 0.0317468 -0.0173383 0.0600754 0.0345901 -0.0708667 -0.0700673 -0.00374857 0.0169438 -0.0435265 -0.0832442 -0.0522452 -0.0109175 -0.0698189 -0.00847237 0.041222 0.0363206 0.056615 -0.0216795 -0.0104269 0.109907 0.0782838 -0.064685 0.00438318 0.0961786 -0.00154714 -0.044068 -0.196587 0.0332803 -0.0542768 -0.00683293 -0.0297965 -0.0312709 0.0502345 -0.0464922 0.029664 -0.035108 -0.0335121 -0.0426007 -0.114534 0.0777126 -0.0234496 -0.115036 -0.041789 -0.085612 0.0312275 -0.0960834 -0.00617289 -0.0451839 0.0794855 -0.0489765 -0.0138594 0.0216247 -0.0942814 -0.085239 0.087457 -0.0613561 0.00937389 0.0611354 0.0593977 0.00861266 -0.0262958 -0.00204343 -0.0735786 0.0981705 -0.00798561 0.0200285 0.0122124 0.0428615 0.0521068 0.0226291 -0.0544483 -0.0604185 0.0236173 
-0.0879283 -0.011009 0.0196763 -0.0835102 0.0659321 0.0434269 -0.0204951 0.0133945 0.0225693 0.0614057 0.0153312 0.0663472 -0.122752 -0.03546 -0.00578746 -0.00175059 -0.0679003 -0.0111374 -0.114882 -0.00814315 -0.00468738 0.123174 0.0613899 0.0334213 0.0168855 -0.0643205 0.0307049 -0.0323711 0.0284712 -0.0872427 0.0533355 0.0367686 -0.00558914 0.0243474 0.0103867 0.0962574 -0.104824 -0.0913527 0.0634258 -0.00858651 -0.0776755 -0.0546725 0.0616599 -0.0863191 -7.04802e-05 0.0126976 -0.065679 0.11199 -0.00787139 0.066313 -0.0450218 -0.188186 -0.0298336 0.00467834 -0.0831047 -0.0947684 -0.0982773 0.095234 0.181463 0.0443338 0.0120584 -0.0533092 -0.040567 0.0766873 -0.116215 -0.0686138 -0.0623064 -0.0980604 -0.0553004 0.162857 0.0744108 0.0357704 0.102892 -0.0489147 -0.0063711 0.031537 -0.109794 -0.00705474 -0.0976821 -0.0188283 0.067368 -0.0767915 0.00624438 0.0754154 0.0648632 0.0352053 0.0177549 -0.0737612 0.052121 0.0160153 0.0306214 -0.0438254 -0.035795 -0.10167 -0.0301947 -0.0947004 
0.0278427 -0.00570439 -0.0253112 0.00637214 -0.0663998 -0.0965814 -0.00181101 -0.00802102 0.00511218 -0.0423988 0.00560588 -0.0769101 0.0109054 -0.0556633 -0.071844 0.0120765 -0.00725834 0.0265665 -0.0538641 0.0229229 0.032804 -0.0230754 0.0724309 -0.0477817 -0.023442 0.0252074 -0.0150777 0.0725587 0.0655814 -0.0109789 -0.0180097 0.0991728 0.0468609 0.112473 0.0639526 0.028731 -0.115196 0.0259016 -0.0533399 -0.00549649 0.0416539 0.0406812 -0.0331994 0.0486596 -0.0421758 0.0380788 -0.0989205 0.0944101 -0.067661 -0.0780944 0.0567219 -0.060934 -0.114522 -0.0172432 -0.125761 -0.0111671 -0.111858 0.0273954 0.0665784 -0.0250121 0.00179042 -0.0826951 -0.0686377 -0.00198343 0.116813 -0.0476643 -0.14848 0.0552889 -0.046501 0.169814 0.149426 -0.0611828 -0.0197825 -0.0636398 0.0580749 0.0203554 -0.0323621 -0.0611668 -0.00279844 -0.0479803 -0.0687817 -0.151948 -0.0230752 0.00609234 0.0645955 0.0430273 -0.0455356 0.0225551 0.0489493 0.046143 0.0767088 0.0211908 -0.0397209 0.106998 -0.149809 0.00185834 
0.12422 0.0224718 0.0929521 -0.074338 0.093597 -0.00224093 0.0676737 0.00889249 0.0503974 -0.0266818 -0.0257695 0.070003 0.0295824 -0.0286596 -0.0120977 -0.12584 0.0957349 0.0927429 -0.00603269 -0.000622939 0.0183567 -0.0581655 0.0393927 -0.0372988 0.0166589 -0.00801624 -0.0387382 0.0155711 0.0174491 0.00586071 -0.0321441 0.0193522 -0.0174776 0.0303952 -0.0680347 -0.0604095 -0.0425626 -0.0814015 -0.0118982 0.0231343 -0.0135385 -0.0541386 0.017073 -0.00749097 0.00584535 0.0459883 -0.0457562 -0.0708019 0.0897171 0.104047 0.0473999 0.0230311 -0.0366927 -0.0533509 0.0159163 0.0954907 -0.041848 -0.0510183 0.0225748 0.00949588 -0.0377383 0.00598476 -0.0422901 -0.0616553 -0.118131 -0.0329382 0.0328148 -0.106978 -0.0778275 0.00460355 0.0143286 0.0373476 0.156496 0.00595863 0.0771366 -0.0854799 -0.0175181 -0.0953256 -0.0298192 -0.0455405 -0.0187448 -0.0636837 0.0435462 0.0166812 -0.0220196 0.038309 -0.0248139 -0.0277113 0.117047 -0.0241097 -0.0261601 -0.0649418 -0.0463461 0.0382702 -0.0763195 0.0388765 
0.0215205 0.0338912 0.0718355 0.0344689 0.0592449 -0.0970644 0.00232641 -0.0309556 -0.157601 0.0798077 0.0677946 -0.0232776 -0.069204 -0.0540325 0.00772678 0.0348461 -0.0249089 -0.00452575 -0.105332 -0.0341966 0.076193 0.0316649 0.0151982 0.0404265 0.0064691 -0.010849 0.0438224 0.0154346 0.0948921 0.0844311 0.0662627 -0.085887 0.0120181 0.0343058 -0.0160589 0.0902558 -0.017924 0.0196834 0.0155308 -0.0356114 -0.0604895 -0.00582252 0.100658 0.0223085 -0.0202971 -0.0212704 0.0283609 0.0300365 -0.0422834 0.0864132 0.0824914 -0.0120987 0.0195859 -0.0459903 -0.0276564 0.012514 0.00114238 0.0987608 -0.102938 0.00502885 -0.0426309 -0.0998292 0.0120544 -0.0566661 0.00438042 0.021488 0.0557557 -0.0168357 0.0301102 0.0429039 0.0523267 -0.0257233 0.028636 -0.0223583 0.0322568 -0.0793279 0.0883171 -0.122254 0.113714 0.0485249 0.00216448 0.0102162 0.0658711 0.032849 0.01447 0.0189102 -0.00270938 -0.00637664 -0.0553822 -0.0929365 -0.0323054 0.0120219 0.0253135 0.0554063 -0.00627469 -0.081377 
0.00706591 -0.193045 0.0575976 -0.0599859 -0.0991816 -0.0236981 0.0901445 -0.0301812 -0.00260139 0.0186318 0.0904269 -0.0699451 -0.0807737 0.0252619 -0.0756967 -0.0232923 -0.00627052 -0.03438 -0.0764853 0.0225064 0.0314024 -0.015131 -0.0025523 -0.112234 -0.0137417 -0.0712607 0.0226246 -0.0269008 0.0130738 0.0227141 0.0685206 0.0234536 -0.0336705 0.037934 0.23658 0.00082253 -0.0594239 -0.00123052 -0.0667794 -0.00548424 0.133796 0.0132901 0.0732066 0.0771607 -0.0174803 -0.142042 -0.0187209 -0.00853708 -0.0494274 -0.0146739 -0.0358129 0.00776036 -0.0571116 0.00221168 -0.0762127 -0.0888611 0.0347051 0.0461607 -0.00603188 -0.00650874 -0.00942624 -0.0665657 0.0328913 -0.0839023 -0.0700162 -0.039472 -0.0573493 -0.0398252 0.0960111 0.0258141 -0.0458764 0.00315562 -0.0367477 -0.0316584 -0.0143428 0.0642073 0.0354697 0.0484648 0.141498 0.0956665 -0.0352285 0.0494579 0.00635519 -0.0110494 0.0423082 -0.0773513 -0.0480527 0.0585098 -0.0827551 0.0333176 0.00508212 0.0498327 0.0447159 -0.0359709 -0.0933507 0.015365 
0.0941147 0.13499 0.0986975 0.0679893 0.0140199 0.0214173 -0.00925844 0.0252293 0.0947436 0.0521239 0.0867424 -0.0518027 0.0649828 0.100321 -0.0514893 0.147359 0.0341377 0.0772956 0.0566684 0.121789 -0.0812523 -0.0392426 -0.0599465 0.0298476 -0.0236946 0.170173 0.0841177 -0.00134754 0.105765 0.196092 0.0701782 0.0175592 0.0410408 0.0130882 -0.0420309 0.0373218 -0.0677179 -0.116837 0.0464473 0.0601167 0.0799243 -0.082479 0.1327 0.0384422 -0.020318 -0.0384451 -0.0678402 -0.00141711 0.130249 0.0136424 0.0542985 0.0240882 -0.0386939 -0.0869755 0.0175152 -0.128641 -0.00616159 0.118931 0.0051988 0.0966527 0.0355173 0.0574144 0.0367265 -0.0324581 -0.0749164 -0.0437836 0.0750891 -0.0288496 -0.000400797 0.0307648 -0.0259681 0.0338292 -0.029443 0.0289382 0.0622691 -0.14097 0.011363 0.100414 0.122323 -0.015098 -0.0260934 0.0702082 -0.0260126 -0.0770142 -0.0112486 -0.064931 -0.00454546 -0.0779373 0.0366547 -0.00412088 -0.0786466 0.0785582 0.0885658 0.0147731 -0.0114616 -0.0965491 
0.112111 0.0139497 -0.0262108 0.0327316 0.133126 0.0241003 -0.11136 -0.0433196 0.0469114 -0.0389918 0.0702275 -0.105874 0.00527559 0.019294 -0.261752 0.0514506 0.136866 -0.0805221 -0.0946231 -0.098909 -0.0739907 0.0346834 0.0488122 -0.0137313 0.0949445 0.142939 -0.0363199 0.0922182 0.034188 -0.0214782 0.061597 0.0857315 -0.0656155 -0.0505814 -0.0104165 0.0276203 -0.0543505 -0.0168061 -0.0821755 -0.00419194 -0.0115444 0.00944408 -0.0683576 0.0497901 0.0255315 0.0635184 0.0946478 0.13353 -0.0224943 -0.0074864 0.0377105 0.148856 0.010201 -0.0172912 -0.0849514 -0.154666 0.0235726 0.0681108 0.0218015 0.111236 0.0350739 0.0290893 -0.0643418 0.023506 -0.0375661 -0.064595 -0.0152734 0.199456 0.103089 0.0583728 0.0995568 -0.0377332 -0.0913368 -0.117032 -0.0417647 0.110217 -0.0922931 -0.102994 -0.0191052 0.170331 0.120397 -0.0749365 -0.0497188 0.0597675 0.0464126 -0.0273947 0.0342771 0.145714 -0.00766807 -0.103232 0.0191897 0.0307141 0.0204134 0.0255681 0.0327977 -0.144353 
0.0893228 -0.0677293 0.0724543 -0.0285576 -0.0185182 0.0394103 0.0416574 -0.0350449 0.0264735 0.0691386 -0.00483108 0.0442091 -0.0747008 -0.0822678 -0.0617663 0.0488785 0.0921968 0.0586741 0.00185455 -0.104954 -0.0627749 -0.123625 0.0253183 0.0205964 0.0394397 -0.0859516 -0.0330884 0.103334 -0.025238 0.046172 -0.00487103 0.102016 -0.00984681 0.0317146 -0.127273 0.101147 -0.0577854 0.0139696 -0.00738514 0.033999 0.0282363 -0.0011206 0.00891191 0.010913 0.105348 -0.139027 0.00283913 -0.0163832 0.0326512 0.015581 0.0457228 -0.0431495 -0.00387402 -0.00263918 -0.0916111 0.0125658 -0.0552188 -0.0568361 0.073059 -0.0874377 -0.119173 0.00139676 -0.00645915 -0.0271653 -0.0368628 -0.0165705 0.0381196 0.0161544 0.0615476 0.0642816 0.0714181 0.0021356 -0.120261 -0.044185 0.0290659 0.00398693 -0.0759001 -0.0236674 -0.0459966 -0.00642076 0.128548 -0.0190748 -0.0587598 0.000741217 0.0535428 -0.0188297 0.0252708 0.00187088 -0.0365427 -0.0667603 0.082122 0.0587227 -0.0595823 -0.101748 -0.0063659 0.0860329 
0.0576789 0.127845 -0.00357173 0.06496 -0.076632 0.0530909 0.113066 0.0628667 -0.0205073 -0.0181513 -0.0601914 0.0530467 -0.00543121 0.0728065 0.0261436 0.0224736 0.0261274 0.0753282 0.0433057 -0.0427196 -0.0542282 -0.0213119 0.0260294 0.00117947 -0.0299851 -0.0454358 -0.0268713 -0.00180224 0.127534 0.0142229 0.00911064 0.0587328 -0.0210048 -0.0914638 0.0325842 -0.0587518 -0.00485087 -0.0274692 0.0460178 0.102033 0.0245376 0.0581817 -0.0505718 0.0294425 -0.019319 0.0605174 0.0320496 -0.0110766 0.00299694 0.0143246 -0.0319172 -0.0156301 -0.0811153 -0.0322711 0.0289145 0.126979 0.0459992 0.0625113 0.0142397 0.147609 -0.0197456 0.0364443 0.0714839 -0.0275038 -0.070813 -0.0158361 -0.0567516 -0.0658943 -0.108436 0.0315335 0.0821796 0.0322183 -0.0762133 -0.113643 0.0210955 -0.0323355 -0.172832 -0.0979107 -0.0914889 0.0159784 -0.0652142 -0.0722758 -0.054185 0.0558298 0.0252526 0.106802 0.0279316 0.133653 0.105229 0.0262109 -0.0290062 -0.0609466 0.0641718 -0.0448357 0.0581852 -0.0147706 
-0.0237193 0.0603646 0.0989178 0.01633 0.0575299 0.00606944 -0.0434054 -0.0617484 0.0322636 0.0521416 -0.0800785 -0.0415905 -0.128162 -0.053903 -0.0282803 0.0371889 0.0199536 -0.0414884 0.0727547 -0.0264078 0.0510591 0.0545194 0.0747045 -0.00635627 -0.0231819 -0.0200606 -0.0174119 -0.0694044 0.0546557 -0.118883 -0.0396846 -0.0410866 -0.0118114 0.018237 0.0907405 0.0392775 0.0687777 0.0197916 0.0120095 0.00313008 0.00355689 0.0374412 0.0561905 0.0274016 0.0491505 0.0454626 -0.0481134 0.0512657 0.0290956 -0.0426193 -0.103236 -0.0388137 -0.0136933 -0.0818573 0.0488813 -0.0494524 -0.0909923 -0.0064939 0.0639108 0.0749206 -0.0652366 -0.0489331 -0.0805429 -0.0011384 0.00506595 -0.0702497 0.00310318 0.061785 0.0491404 -0.0113569 -0.124754 -0.00327253 -0.00309284 -0.0128381 0.0505266 0.00272856 -0.0490304 -0.0150071 -0.0537348 0.102244 0.0442193 -0.0055494 -0.0716185 -0.0255031 0.0225194 0.0646277 0.0643578 0.0777709 0.0908408 -0.00119988 0.0273238 -0.0361832 0.0770528 -0.0769444 -0.0298142 -0.0125719 
0.00868151 0.0370323 -0.0140657 0.0503764 0.099876 0.0664274 -0.0623324 0.0743092 0.062561 0.0598586 0.0917716 0.0670153 0.121413 0.11544 -0.0247364 0.133518 -0.0476416 0.0120944 -0.0795357 0.0474289 0.016737 -0.0563971 0.115641 0.0316929 0.0242029 0.000922755 0.0509034 0.0458352 0.097463 0.0420389 0.0372408 0.0556024 0.00870397 0.0915817 -0.0553922 -0.0628313 0.0298342 0.0398941 -0.0222041 0.00367318 -0.0469984 0.0587332 0.0291192 -0.0318944 -0.101231 -0.0702974 -0.0363657 -0.0640087 -0.0950291 0.0287832 0.0376401 -0.0445018 -0.0325912 0.0060786 -0.0349081 -0.0111918 -0.00477799 0.0997669 -0.0572522 0.062866 -0.0137722 0.0157252 -0.019055 -0.0223331 0.0674771 -0.0878865 -0.0366722 -0.0470922 0.0164379 -0.0082669 -0.0111852 0.0104312 0.0331995 -0.0353444 -0.0501273 -0.00431272 -0.0770323 -0.0303416 0.0604848 0.0229216 0.0148309 -0.077806 -0.079502 0.10175 -0.103968 0.00859323 -0.0517109 -0.0170901 -0.0170638 0.0115828 0.16882 0.0246242 0.105153 0.00493459 0.00331992 -0.0937115 
-0.10906 0.0409655 -0.00894542 0.0839736 -0.134941 -0.0155165 -0.0404039 -0.000919065 0.0211822 -0.000524675 0.0938773 0.030464 -0.0975334 -0.0699352 -0.128698 0.0505591 -0.103776 -0.0256384 -0.0184947 0.0211403 0.0772854 -0.157973 -0.0191134 0.0761513 0.0476867 0.0562789 -0.032192 -0.124248 0.00300841 -0.0399875 -0.0115727 -0.0139448 -0.145452 -0.00582768 -0.00539685 0.0280004 0.0238179 0.0364519 0.00422001 0.0228946 0.00235004 -0.134625 0.0209925 0.000961321 0.0843127 0.0035212 -0.017956 -0.0351459 0.0148541 -0.0185707 0.0511396 -0.0137091 -0.113523 -0.106347 -0.0397762 -0.0546831 -0.105678 0.0680966 -0.0760128 0.0872468 -0.0217332 0.00406007 0.0373244 0.00843934 -0.0610162 -0.0782516 -0.0381389 -0.0305095 -0.0282162 0.0158576 0.0683069 -0.0260614 -0.0433656 -0.0364624 0.0192139 -0.0537072 0.0217337 -0.0311372 0.142613 -0.00580458 0.0124976 -0.0128953 -0.0527895 -0.0242502 -0.0630431 0.0694593 0.107777 0.0707064 -0.0645645 -0.0169856 -0.00055972 0.000626217 0.0241299 0.109021 -0.0750391 -0.124313 
0.0030925 0.0453059 -0.108886 -0.00248635 -0.114623 -0.0326472 0.00358113 -0.0030708 -0.00913421 -0.00551414 0.0494767 -0.0589198 0.00415787 0.0533745 0.0331225 -0.0337056 -0.0492766 -0.0227828 0.0184483 -0.0131386 -0.0310988 0.0991484 -0.0857597 -0.0379001 0.0163529 0.0711809 0.0746424 0.00992412 0.0924369 0.00761374 -0.0025392 0.042884 0.0499851 -0.00156757 -0.115615 -0.153357 0.0530114 0.0452166 -0.0190427 5.4603e-05 0.0983865 -0.0618581 0.10143 0.031567 -0.112368 0.0553517 0.0332535 0.0481603 -0.0190458 0.0307221 -0.0904812 -0.0545123 -0.0939643 -0.0519615 0.0151788 0.0415353 0.0511346 0.000841378 0.0482592 0.00458276 0.155419 0.0499916 0.0210889 -0.041883 -0.0678721 -0.114272 -0.057617 -0.133336 -0.0161215 -0.00352834 0.0176627 0.016068 -0.0222106 0.0343278 0.0994204 -0.00702542 -0.0636611 -0.038848 -0.0682201 -0.138927 0.0327391 0.0162943 0.143847 0.00747074 0.0842478 0.012957 -0.0645619 0.0638349 -0.0193305 0.101898 0.020181 0.0595502 0.0462124 -0.0567292 -0.137028 -0.0608041 
-0.134815 0.0115393 -0.0359751 0.0507564 0.0608976 0.0210042 -0.0346429 0.135699 0.132136 -0.0252894 0.0231138 0.042104 -0.0557419 -0.116711 -0.101525 -0.00420069 0.0514729 -0.0216018 -0.0128342 -0.0100216 0.046737 0.0968392 0.0271579 0.0943702 0.0019777 -0.0612995 -0.053054 -0.15559 -0.0591513 0.0197227 0.0652785 -0.0164421 0.000799766 -0.0188406 -0.00997606 -0.0322126 0.0769332 -0.0359714 -0.109785 -0.0105626 -0.10785 -0.000845467 -0.0626982 -0.0133347 -0.087726 0.0428718 0.0121861 0.118453 -0.169997 -0.00375165 -0.0870698 -0.112279 -0.0783007 0.0664135 -0.0700288 -0.0544385 -0.0488331 0.0110958 -0.0794224 -0.0271405 -0.00109809 -0.0394893 -0.0098167 0.00550408 0.0625468 0.00456675 -0.022662 0.0529812 -0.0521115 0.0235604 0.0708338 0.0101681 -0.00711221 -0.0550142 0.0594497 -0.00422217 0.113282 -0.0467934 0.00503405 -0.0713991 -0.0583762 0.000635121 -0.0789922 0.030356 -0.0209502 0.0608145 0.131913 0.14419 0.0286459 -0.118844 -0.0365762 0.0467643 0.0319046 -0.0643357 0.017028 0.0497002 
-0.00892475 -0.0597481 -0.14156 -0.00658652 -0.0310906 -0.0103873 -0.117139 0.0876832 -0.0437535 -0.0319324 0.0631985 -0.111125 -0.13916 -0.029924 -0.217191 -0.0755972 -0.0170694 -0.0753691 -0.0163809 0.0753828 -0.0354089 -0.00242787 0.0658683 0.0402472 0.0328897 -0.111493 -0.0822389 -0.0688935 0.0224516 0.144365 -0.0438026 0.018215 0.0158384 0.0359343 -0.0672801 0.0306568 0.131632 -0.0582127 -0.0547351 -0.0281722 0.0262107 -0.0545154 0.116655 0.136959 -0.0146735 -0.0327745 -0.069074 -0.0860415 -0.0391509 0.0600219 -0.0864302 -0.027602 0.0461315 -0.0397045 0.102266 0.0400565 0.0255727 -0.0974899 0.0225494 0.0464424 -0.0302819 0.0253399 -0.00727119 -0.129724 0.0762123 -0.00898824 -0.00250306 -0.16197 0.0135512 0.0113876 0.0501252 -0.113876 0.0650536 0.0588806 0.0578956 -0.150029 -0.109407 -0.0896881 -0.0674107 -0.0651939 0.0763334 -0.0959738 0.00551052 -0.0232653 -0.0695495 -0.00514024 0.00322619 -0.0129495 -0.0548517 -0.0250969 -0.0245288 -0.0129563 0.0171717 -0.00915842 0.0648948 -0.0763319 
-0.0289418 -0.0530093 0.0706478 0.125824 -0.0572266 0.0128753 -0.035093 0.0575086 -0.13109 0.0169316 0.00142891 -0.0488426 -0.0548434 0.0522574 -0.00984147 -0.0366274 0.00354173 0.0466006 0.097665 -0.00883096 0.0305884 0.0188808 0.0128609 -0.00397643 -0.0536067 -0.0592898 0.0676967 -0.0857231 -0.038573 -0.0856489 0.0395808 -0.003571 -0.0440299 0.102827 0.0105214 0.069732 0.0180953 0.0542792 0.0310638 0.00743118 -0.00595664 0.125675 -0.0753272 -0.0557044 0.00927675 -0.0565192 0.0594808 -0.0202393 0.051212 0.00162492 0.094446 0.0303007 -0.0259347 0.0106959 0.124341 0.127619 0.116725 0.111431 0.108176 -0.030728 0.144517 -0.0110948 -0.0376087 -0.0345927 -0.145655 0.0620923 0.162858 -0.000735322 -0.0297057 -0.0217616 0.00606423 0.0195672 0.0395112 -0.00301925 7.46369e-05 0.0779075 0.100122 -0.0492502 -0.0650408 0.0157085 0.0293782 -0.0134106 -0.0105912 0.00638892 0.0450265 0.0670203 0.0536349 -0.0138339 -0.107449 0.0156033 0.0224752 0.0332933 -0.0949455 -0.139611 0.0233732 -0.14328 
0.0279456 -0.0654208 -0.00266369 -0.0501331 -0.06965 -0.0391617 0.0923415 -0.0225193 0.0779578 -0.0117415 -0.0527847 -0.00285534 -0.0889429 -0.136144 0.0128494 0.0625135 0.0329764 0.0263052 -0.101766 -0.105732 -0.0855786 -0.119258 -0.0247138 -0.0790387 -0.016682 0.0923316 -0.0352311 0.00576864 0.0392834 0.0451586 0.0614467 -0.0531402 0.148101 0.00323394 -0.101935 -0.0239227 -0.0750529 -0.155852 0.00951512 0.0659974 0.0208323 -0.0268446 0.0513302 0.0318825 0.167443 0.0420371 -0.0199729 -0.033205 0.12295 -0.0488989 -0.0420727 0.00399071 -0.136527 -0.0697115 0.00410123 -0.102288 -0.0839189 -0.0317013 0.0532595 0.0324092 -0.0413838 -0.0503652 -0.079653 -0.0322378 -0.111813 -0.0670041 -0.0340136 0.133422 -0.023482 0.0396951 -0.118226 0.0555303 -0.111203 -0.0753591 -0.054142 -0.0675832 -0.099764 -0.0458006 0.114067 0.120759 -0.0550551 -0.0146349 0.0954908 -0.0130441 0.0659532 -0.0456444 0.0352476 0.0245549 0.0398383 -0.121204 0.00834391 -0.0512494 0.00346066 -0.0714634 0.0907447 0.0749829 
0.012375 -0.104326 -0.0528742 -0.0478083 -0.0754955 -0.0543508 -0.0230833 0.0500426 -0.10821 0.0341508 0.0434302 -0.00294398 0.0248171 -0.0892506 -0.0408326 0.0364324 0.012289 0.0293942 -0.0496059 0.0219897 -0.0239858 -0.0265649 0.00827749 -0.0663913 0.0436156 0.0975075 0.0232284 0.0709528 0.0863395 0.0466234 0.0161119 -0.011451 -0.0374445 0.0110041 -0.0857913 0.0529144 0.00471408 0.0460184 -0.0536414 -0.0576451 -0.0670904 0.0359407 0.0664868 0.103627 0.0402638 0.00536381 -0.077763 0.0555422 -0.00558965 0.0185649 -0.0960688 -0.0860043 -0.04597 -0.00949804 -0.00385098 -0.0480011 0.0131068 0.00708504 0.039793 -0.0469344 0.0535309 -0.0638983 0.0188857 0.0627391 0.0446109 -0.0483523 0.0572829 -0.0469935 0.0471876 -0.0397258 -0.0344396 -0.0180562 0.00595859 -0.0323057 -0.00902546 -0.0691649 -0.0208017 -0.0151418 -0.00102933 -0.0629641 -0.0356852 -0.01403 0.0204568 -0.0265797 -0.0276917 0.0785831 0.0118715 -0.0514201 0.0478511 0.0562567 0.0159615 0.0674214 -0.0224935 -0.0453136 0.0594346 0.17601 
-0.0351937 -0.0381326 0.0421552 -0.1055 -0.0682895 -0.0905924 0.0238433 -0.0724908 -0.0126893 0.0778291 0.0448832 -0.0154346 -0.141361 0.0394746 0.0438145 0.0611196 0.0548321 0.107067 0.0387102 0.0147489 -0.161197 0.0506767 0.0552586 -0.0274412 -0.112696 0.0681699 0.0879991 -0.011627 -0.0618009 0.111086 -0.0155913 0.0275716 0.0292273 0.0550463 0.0991038 0.1275 -0.0530098 0.0260319 -0.00720945 -0.149986 -0.150145 0.0121242 -0.031281 -0.101134 0.0758776 0.0938618 -0.120567 0.0471387 0.0619269 0.110027 -0.0105713 -0.0272912 -0.127465 -0.00288314 -0.0285965 -0.0741 0.040298 0.0212798 0.0708881 -0.0520811 -0.00111725 0.0158121 0.0504042 -0.174272 -0.120443 0.0299107 0.029264 -0.0122719 -0.00429377 0.0123445 -0.0438485 -0.00830912 0.0568726 -0.0756893 -0.0439666 -0.0600618 0.0549741 0.0175453 -0.124606 0.171887 -0.0863148 -0.0251126 -0.00476461 -0.0846606 -0.0404498 0.00367323 0.0842533 0.0822782 -0.0189634 -0.0386993 -0.0532464 0.0923371 0.0498621 -0.0847129 -0.0610017 0.0746653 
0.0489723 0.0467491 0.0401196 0.093241 0.0416468 -0.0145253 0.00874827 -0.0280353 0.142013 -0.0648831 -0.0373617 -0.0123753 -0.0241007 -0.0582418 0.210601 0.0444812 -0.0775902 0.0829696 0.0189282 -0.103352 -0.0913311 -0.0477637 -0.0569469 -0.0129043 0.052171 -0.0936951 -0.078683 -0.0704527 0.0493743 0.0271384 -0.0333023 0.0800913 -0.0798386 0.127644 0.0111445 -0.130755 0.02591 -0.00376104 -0.0227492 -0.112618 -0.0349348 0.0387167 0.0220544 0.056476 -0.0481695 -0.089035 -0.0717441 0.0165599 -0.00235248 -0.0192163 0.0277125 -0.00754217 -0.0807037 0.0492629 -0.060081 -0.118002 -0.0260149 0.0134861 -0.0442115 0.172961 -0.0310549 -0.0867329 0.0537601 -0.0139445 -0.0257413 -0.0920961 -0.0224834 -0.00575102 0.0185071 -0.00870014 0.0113556 0.00992075 0.0194809 0.02056 0.00746152 0.00662331 -0.0277683 -0.01975 0.0638427 0.0611041 0.0721167 0.00125682 -0.0159841 -0.0372484 -0.0496252 -0.0471518 0.0365975 -0.0559832 0.0243166 0.00467563 -0.112917 -0.00866918 -0.00665027 -0.0496915 0.0121985 -0.00919033 
-0.168527 0.00634785 0.0224775 -0.00363367 -0.0736533 -0.02694 -0.0292737 0.0727751 0.0230878 0.125829 0.0354918 0.0383109 0.00403327 -0.116036 -0.072606 0.010415 -0.0517189 -0.047872 0.10169 0.042091 0.0885182 0.00266663 0.0555362 0.0709438 0.0122507 -0.0176405 -0.0497446 0.16593 0.0616956 -0.0626646 0.0297532 0.0169762 0.0179526 0.104151 -0.0414187 -0.167047 -0.0917513 -0.0835824 0.00680379 0.0286218 -0.106906 -0.0357467 -0.0338737 -0.0495969 0.0512644 -0.0232996 0.0961676 0.0603259 0.0268447 -0.00276666 -0.0507584 -0.118431 -0.0909912 0.0160123 0.064796 0.0715431 -0.0521747 0.00425975 0.0158675 0.0541651 0.0654077 0.0828272 -0.123035 -0.105104 -0.137385 0.103468 0.0894607 0.053437 0.00805394 0.0470906 -0.064353 0.101167 0.00757919 -0.108364 -0.0137423 -0.0756125 -0.000438721 0.091079 -0.054681 0.0848738 -0.0233675 -0.063562 0.0112686 0.0345413 0.0630533 -0.017145 0.0512067 -0.125182 -0.0534729 0.0400877 -0.0397026 -0.092296 -0.0242664 -0.00773332 -0.073633 -0.0393098 
0.0343973 0.0299126 0.0723749 -0.0517542 -0.0518114 0.0523609 0.0135286 0.00184511 0.0235503 -0.0177422 0.042869 0.0798214 0.0504359 -0.0882462 -0.0189114 0.0315292 -0.11918 0.0659783 0.0537637 -0.0130165 -0.000718391 -0.100848 -0.0114577 0.0656344 -0.0336008 -0.0356435 0.0462615 -0.0095755 0.0334807 -0.0459384 -0.0140824 -0.107013 0.0137562 0.0316084 -0.0612851 -0.0111105 -0.0193128 -0.0435817 0.0459227 -0.0107678 -0.0290391 0.0376428 -0.0166609 0.0464267 -0.0439618 -0.0320633 0.0248939 -0.0269921 -0.0133856 -0.0217795 0.116594 0.0954471 0.0210643 0.00404431 -0.103992 -0.0533582 -0.034722 0.0507913 -0.0748764 0.0286746 0.0190079 -0.0136927 0.0291146 0.0410769 -0.0430734 0.0205024 -0.0403315 -0.138962 0.0476291 0.0596506 0.00769305 0.0350368 -0.0498196 -0.0502732 0.0161331 -0.0966994 -0.0640074 0.0876493 0.0609434 0.0179957 0.11442 0.0251659 -0.0346098 -0.0566094 -0.000507662 0.0315363 0.0395445 -0.0626872 -0.0324105 -0.00909484 -0.0852068 -0.00654287 -0.0151811 0.0158824 -0.0400433 -0.0357295 
-0.0330151 -0.0765022 0.0322381 0.0901751 -0.0159154 -0.0361964 0.107676 -0.0563432 -0.0214734 0.111579 0.0442836 -0.0255046 -0.0774348 0.0179476 0.111737 -0.0555586 0.0237841 0.0742229 0.0158818 -0.0278516 0.0363261 -0.00473826 0.0930639 0.0935462 0.054391 0.0879344 -0.0588075 0.013258 0.124424 0.0208693 0.0882411 0.00996526 0.172612 0.0543306 0.00674919 0.0884592 0.103958 -0.0155142 0.0614856 0.0297672 -0.0600674 -0.128832 0.0506959 0.0407878 0.000596254 0.0861449 -0.0597848 -0.0630038 0.102717 -0.00775808 -0.0158583 0.0195554 -0.000995179 0.116747 -0.00773306 -0.0547119 -0.0736892 -0.106434 -0.0423663 -0.00127725 0.0224556 0.0152991 0.0287034 -0.0398846 -0.0852618 0.0415629 0.0294521 0.0984273 0.0113422 -0.0219938 0.0015557 -0.0179037 0.0810356 0.0022235 0.0267908 -0.097114 0.0119225 -0.0456089 0.0204345 0.107064 0.0696519 0.0322999 0.0583811 0.0555174 0.085571 -0.0436617 -0.0230729 0.106295 0.0299481 0.0777623 -0.124099 0.127058 0.0457422 -0.121128 0.0348281 0.0784313 
-0.0502875 0.10509 -0.067189 -0.0758435 -0.0511237 -0.0521865 0.0691384 0.0364168 0.0363656 0.00485317 0.094314 0.119931 -0.0394361 -0.0188927 0.150987 0.0736379 0.0103559 0.0618815 0.0362027 -0.195816 0.0744794 0.0832059 -0.0119421 0.0220331 0.00685134 0.0516798 -0.0150454 -0.019328 -0.0349981 -0.0223758 0.0503709 -0.00912105 -0.00967806 0.114747 0.0682836 0.104017 -0.018887 -0.121389 -0.106557 -0.0325646 0.0303096 -0.0236103 0.00398474 -0.0510891 0.136164 -0.051577 0.0528799 -0.0340021 0.0410635 -0.00685583 0.0850902 -0.00979095 -0.0118371 0.0417068 -0.0560234 -0.0791352 0.0263364 0.0219476 -0.0330497 0.0358751 -0.0189324 -0.0331723 -0.00987277 -0.0768359 0.0261949 -0.0784394 -0.0794733 -0.0144078 -0.0643523 0.124094 0.0301173 -0.0347247 0.0540208 -0.099969 -0.0137707 -0.00603027 0.005967 0.0428689 0.0207454 0.0576478 -0.114489 -0.0444881 -0.0892102 0.0190041 -0.00631661 -0.00276659 -0.042881 -0.00460929 0.0280652 -0.019617 -0.0934089 0.0554977 0.0147626 -0.0343263 0.0341633 -0.0170705 
0.000510676 -0.0665261 -0.0447501 -0.0023032 0.0582619 0.0553242 -0.00590037 0.0704608 -0.103883 -0.0628165 0.089212 0.0935735 -0.0336982 0.0173976 -0.107033 -0.069832 0.113612 -0.062141 -0.0629435 -0.026414 -0.0176833 0.0251471 -0.0786059 0.0968732 -0.0163972 0.0334126 0.0660184 -0.0875723 0.0429232 0.0482847 0.0166253 -0.0140211 -0.0431531 -0.0476963 0.0424617 0.131156 0.00554816 -0.0253265 0.00958093 -0.0225951 -0.0616662 -0.0532568 0.0259967 0.024142 0.0430959 -0.0196725 0.0867009 -0.0289039 -0.0433808 0.0326126 0.060335 0.0533398 -0.0669067 -0.0609456 -0.0124731 0.00734436 0.02087 0.00684932 0.0522466 -0.00644349 -0.0521957 -0.0130643 0.109942 0.0730129 0.00379013 0.0169953 0.0466097 0.072345 -0.0320472 0.0128076 0.0395143 0.00626013 0.0218252 0.122371 -0.0351319 -0.107592 -0.0835243 -0.0107586 0.0983087 0.0743073 -0.0818933 0.0660452 0.0997555 -0.0986535 -0.0279756 0.145045 0.0213591 -0.0714146 -0.0362353 0.0542901 -0.00654512 -0.0588152 0.0733683 -0.0425571 -0.0747388 -0.0515743 
0.165807 -0.112583 0.132947 0.104516 -0.0297162 -0.0438235 -0.139537 -0.0212878 0.0110495 0.0914826 -0.0243012 -0.0294657 -0.138766 -0.0651535 0.0308284 -0.0247322 -0.014212 0.0638313 -0.0538339 -0.058874 0.00947298 0.00874792 0.0268484 -0.0980332 0.0877479 -0.0367895 0.0487082 -0.0270626 -0.0253223 0.000400619 -0.0274427 -0.0463542 0.0630007 0.00541237 0.0365954 -0.141827 -0.0626396 0.03273 -0.0622653 0.0365901 -0.0641682 -0.120783 -0.0496352 0.00286952 0.109102 -0.0538024 0.128109 -0.0853215 0.0334653 0.0829795 0.09224 -0.0494924 -0.069327 -0.0465971 -0.0243875 0.0600202 0.0298276 0.0150964 0.0278361 -0.0526712 0.00492175 -0.066099 0.0310763 0.0600312 0.000678606 0.0037749 -0.0176153 -0.0650678 0.111432 -0.025626 -0.00343389 -0.0892995 0.0403251 -0.0149472 0.113764 0.0374932 -0.0893556 0.0332209 0.00953235 0.0783295 0.0711953 -0.0406047 -0.0416025 -0.0646778 0.0433661 0.0473417 0.0228703 0.01094 -0.0487888 -0.0251093 -0.0134248 -0.0648064 -0.00441415 -0.116844 -0.0205777 0.0359985 
0.0180649 -0.0328062 -0.118633 0.106248 0.00781147 0.0717703 -0.0192678 -0.0241686 0.0913368 0.00674424 0.00779878 0.0402585 -0.104064 -0.0153335 0.016618 -0.056313 -0.0238855 0.0550954 0.0128499 -0.0541689 0.0905865 -0.149553 0.0410515 0.0811538 -0.101721 0.0187926 0.0504471 0.013348 -0.00525176 -0.0661523 0.0359191 -0.00674393 -0.0268817 -0.0522474 -0.107632 -0.0863166 0.0640208 0.0165046 0.05004 -0.0289126 -0.0729507 0.0496196 0.0513235 0.0113848 0.00956541 -0.0105009 0.0219501 0.022067 -0.0195456 0.00217579 -0.0526015 -0.0720852 -0.0369417 -0.0647192 -0.082894 0.0285512 -0.0457246 0.142899 -0.0266849 0.122978 -0.0810492 -0.0325236 0.0448757 -0.0767896 -0.143602 -0.0230521 -0.0143704 -0.0656574 0.0270693 0.0405322 -0.0424564 -0.0687914 0.0324823 0.0180128 -0.027257 0.0667807 -0.0602454 0.0644596 0.0257672 -0.0209891 0.0600787 0.0166245 -0.0203314 0.0110847 0.0265131 -0.0458297 0.0716519 -0.0352895 -0.0268217 0.0665656 -0.037453 0.0310338 -0.015794 -0.0648561 0.0148435 0.0805452 
-0.0543544 -0.0243058 -0.0533513 -0.0901815 0.103111 0.0575431 0.0966866 -0.0476652 -0.0492549 0.158452 0.00560604 0.0194073 0.0681597 -0.0411431 -0.0835662 0.014693 -0.0734972 0.0156533 -0.0213804 -0.0322404 -0.0914305 -0.0677627 0.0748123 -0.120792 -0.0571639 0.0255293 -0.0560004 -0.0183803 -0.00509773 -0.105121 -0.0972576 0.0192345 -0.0571963 -0.016717 0.024984 -0.0492165 0.0753585 0.053447 -1.87008e-05 0.106208 -0.0360737 -0.00239079 0.021951 0.0751388 -0.0361513 -0.0366949 0.0756653 -0.0193636 -0.00723618 0.119824 -0.0789634 0.0239577 0.0495139 0.023681 -0.0423715 0.0256969 -0.025116 0.052739 0.0832902 0.0363189 -0.0918079 0.0146257 -0.0382087 -0.0106132 -0.0751592 -0.207355 0.0136128 -0.00179475 -0.0322406 0.0252166 0.0473484 0.101251 0.117792 0.0368237 0.162853 -0.0449998 0.0328847 -0.124358 -0.0421919 0.038675 0.0590184 -0.0328214 0.00593132 -0.0469952 0.0520057 -0.0271521 -0.0298886 -8.02759e-05 0.00749802 0.00183612 -0.0880597 -0.0446334 -0.0017546 0.0270596 0.0737453 0.0891602 
-0.0214809 0.026672 0.088997 0.029302 -0.0928264 -0.0367046 0.0385538 -0.00449545 0.0163831 0.000511783 0.0076484 -0.0331968 0.0721385 0.0110714 -0.00365441 0.0758171 0.0205341 0.0527197 -0.0862658 -0.015296 -0.00370624 -0.141498 0.0216529 -0.0582877 -0.04081 0.0256521 -0.0613279 -0.124106 0.0506854 -0.0616756 -0.123529 -0.102259 0.0161269 -0.0359651 -0.0259959 -0.03394 0.0056764 0.0326616 -0.0647131 -0.0292187 0.0817957 0.0193973 -0.0740169 0.0328978 0.0329286 0.0164219 -0.0873356 -0.119765 -0.0886979 -0.0206947 0.0296294 -0.00975245 0.0764242 0.0456474 -0.00628573 -0.0607932 -0.016026 0.0354445 0.0698979 -0.00250296 0.00700454 -0.0531768 0.0326292 -0.0956396 -0.068983 -0.0169862 -0.0116453 0.0172473 0.0821751 0.0335617 0.0641048 -0.0183454 0.0218528 -0.020797 0.0407539 -0.133784 -0.042715 0.0296226 -0.0163714 0.0952231 -0.00444376 0.0459349 0.0389066 -0.0206192 0.00308423 -0.0610018 0.00432079 0.0363541 -0.0325045 0.00465347 -0.0608207 0.00314321 0.010867 0.00745524 0.0457215 -0.109219 
0.172549 -0.00890383 0.0689014 0.0568892 -0.0228776 -0.043206 -0.00498726 -0.0681223 -0.0435128 0.00096594 -0.0162716 -0.0876478 -0.00623328 0.0197363 -0.0428007 0.0171795 -0.0463009 0.02876 -0.0350679 -0.0296611 -0.00163628 -0.00207354 -0.0615819 0.00422097 0.0581333 0.0516623 0.0695605 0.0163222 0.0142412 -0.00195996 0.0110414 0.0121726 -0.0368035 -0.0192007 -0.0549993 0.00784326 0.00208727 0.0596692 0.0149866 0.0128943 0.0811462 0.0623917 0.00432564 -0.0946114 0.0409751 0.146143 -0.0469085 -0.0831295 0.106765 -0.0642249 0.0326803 0.113213 -0.0164732 0.00812358 -0.144473 0.0167306 -0.0682059 0.191958 -0.126788 -0.026863 -0.00119844 0.0150037 -0.0422607 0.038304 -0.0830221 0.00555172 0.0884208 -0.135696 -0.0275657 0.045012 -0.0412258 0.0601809 -0.0538442 0.101363 0.0262227 -0.0854204 0.0309657 -0.00277363 -0.0654019 0.0135586 0.0638196 -0.015385 -0.058228 -0.0729077 -0.00489757 0.0403765 -0.0302765 0.0129283 -0.0362889 0.119128 -0.065158 0.0574735 0.0286102 -0.00410511 0.0140311 -0.00337907 
0.097223 0.00704691 0.0153034 0.00810257 0.0903347 0.0823872 -0.046113 -0.0385699 0.0473487 -0.00132371 -0.0216866 0.00760263 0.064176 -0.0247345 -0.148568 0.0105013 0.022998 -0.0770826 0.0121973 0.0084507 0.0450162 0.0874017 -0.0330291 -0.0417058 0.0215364 0.0310486 0.0282023 -0.00830431 -0.0159268 0.0594475 0.0200705 0.102738 -0.0131933 -0.00809121 -0.00626489 0.0465985 -0.0459414 0.0281482 0.0195458 0.0214992 -0.0111443 0.0229644 -0.0537016 0.0446332 0.0636194 0.0870964 -0.0115457 -0.0363988 0.0592722 -0.0892536 0.0113577 0.00965727 -0.0329939 -0.0979165 -0.0213098 0.0199709 0.0368218 0.00453671 0.0030277 0.126997 -0.0310313 0.0412875 -0.075997 -0.046818 -0.0579946 -0.114844 0.0859012 -0.14627 -0.0972771 0.0437713 0.0795522 0.0215815 -0.0212303 -0.0422545 0.00535947 -0.0336792 -0.0812849 0.044727 0.0239241 0.0350178 -0.0540471 0.0968425 0.0719372 0.0690823 0.024716 0.0482199 0.0687622 0.0264812 -0.0573648 0.142608 0.0270502 0.0129859 0.056364 0.0390486 -0.142017 -0.0902477 
0.0149811 -0.0127658 -0.0140186 -0.0785544 -0.0793137 -0.0730824 -0.0206952 0.0461583 -0.0765582 -0.00448074 0.144147 0.021228 0.100376 0.108013 0.254901 0.223487 -0.00293503 -0.0342566 -0.0676176 0.0218188 -0.0351329 0.0430628 0.0375125 -0.0635215 -0.00569898 -0.00228027 -0.0522821 0.00993086 0.0640048 0.132714 0.0469198 0.00510183 0.00930432 -0.0733431 0.0810278 0.043039 -0.126911 -0.033134 -0.134189 -0.0925833 -0.11435 -0.0517777 0.0316654 0.0278613 -0.0521048 -0.0541473 0.0189048 -0.105237 0.0484315 0.0816164 -0.10113 -0.0862574 0.0293285 0.0239058 -0.0162515 0.0340748 -0.0591646 0.00464441 -0.0685615 0.00987569 -0.0240424 -0.120636 -0.125623 -0.130833 -0.0616802 -0.105871 -0.146156 0.148287 0.105456 0.0170673 0.0308807 0.109477 0.0889984 -0.0056109 -0.0954937 -0.0295104 -0.110998 0.0880454 -0.0217998 -0.0593364 -0.0369066 0.0279924 0.0499711 -0.056152 0.0255743 0.143866 -0.0333875 0.0392101 0.00153493 -0.0536218 0.00478325 -0.074612 -0.106251 -0.0759707 0.100727 0.149241 
-0.0461198 -0.0248575 0.0826745 -0.0100671 -0.0439475 -0.00954408 0.0105944 0.0494682 -0.0605596 0.0752686 -0.0294665 -0.024898 -0.0519545 0.199594 0.00735025 0.0132481 0.0484409 -0.154372 0.0634283 -0.10204 -0.0226963 -0.0722432 0.0831207 0.0730075 0.0201126 -0.0435638 -0.0383625 -0.021974 -0.0554473 0.0608455 0.0649389 0.0842725 -0.0328151 0.108208 0.108873 0.0639534 -0.0811688 -0.0803498 0.0491764 0.00576515 -0.032104 0.0650823 0.0350265 0.011379 0.0413634 0.00019227 -0.0514969 -0.0645608 -0.00389643 0.0953468 0.0606759 -0.111228 -0.0513912 -0.0578188 -0.10667 -0.0317159 -0.0516962 -0.00260363 0.000763436 -0.050895 -0.00582368 -0.0286056 0.041327 -0.130133 -0.110633 -0.00311874 -0.0105788 -0.0121547 0.0642883 -0.033077 -0.010019 -0.114773 0.067139 -0.162112 0.0329616 0.0413219 -0.0125231 0.0763636 0.107034 0.0538273 0.0549135 0.0482014 0.00072172 -0.00394856 -0.0219638 -0.0869491 -0.0514402 0.00516117 0.0513827 -0.0167734 0.0213498 -0.0641782 -0.0833815 0.047295 0.0146217 0.0825111 
-0.00583862 0.040184 0.0282348 -0.0583938 0.0778007 0.11631 0.0397582 0.00681646 -0.0631684 0.00595773 -0.0222525 0.0588752 -0.000806835 -0.130533 -0.0766446 -0.0334744 -0.0103446 0.0517263 0.0634974 -0.0265768 0.0529386 -0.0681521 0.0687157 0.0139052 -0.0366264 0.0565931 -0.0266525 -0.00463599 -0.0199252 -0.0434835 0.0348535 0.0492977 0.000693219 0.0287059 0.00388234 -0.0305757 -0.0795665 0.0666928 0.0137797 -0.00235826 -0.0967782 -0.0344715 0.0589896 -0.0428152 -0.0620543 -0.0506256 -0.0110741 -0.0575398 -0.00695349 0.0526443 -0.0394822 -0.122765 -0.0101391 0.00967968 0.00129231 0.0586305 -0.0128099 -0.116087 -0.00911934 0.0982858 -0.0799761 -0.0348251 0.0181829 -0.051552 -0.0344134 0.0372684 -0.0308326 0.03612 -0.0353792 -0.0290417 -0.0599826 0.0729852 -0.0439179 0.00966969 -0.044183 -0.12565 -0.05406 -0.042159 -0.0198946 -0.00252722 -0.0717103 0.00223748 0.00611543 0.0133536 -0.0423428 -0.0130216 0.0369256 -0.0106013 -0.0127091 -0.0276781 0.00357194 0.106074 0.0230463 -0.0438952 -0.102832 0.00745583 
-0.0258602 -0.0488369 -0.0807495 0.037804 0.000389321 -0.0378046 -0.0848531 -0.0245283 0.0289077 0.0290295 -0.100853 -0.0438529 -0.0504048 -0.007854 -0.0513832 0.0827084 0.00473616 0.0679269 0.0196614 -0.00908411 -0.0495743 0.0489794 0.0817359 0.0562149 0.0736686 0.0194649 0.056325 0.031855 -0.0898148 -0.0389565 -0.0227727 -0.026056 -0.0726424 0.0128006 0.0406965 -0.0864539 0.0191457 -0.0699652 0.0195268 -0.066174 -0.0504106 0.0509509 0.099457 0.0301738 -0.0304985 0.12692 -0.0349601 -0.0239762 -0.04036 0.110364 -0.0939127 -0.0411797 -0.0782237 0.00544823 -0.0494016 0.0145201 0.000657372 0.0584101 -0.00198089 0.00245895 0.0364999 -0.136939 -0.144579 0.0185304 -0.0835886 0.0306635 -0.0517673 0.0178843 0.0215323 0.0218354 0.0742969 0.0518069 0.0661442 -0.0607387 0.0297274 -0.0126841 0.0589822 -0.0208028 -0.0900295 0.0810246 -0.0084765 -0.00424328 0.0689194 0.0546626 -0.0285546 -0.0394528 0.0255474 -0.0758185 0.0368842 -0.0904021 -0.01495 0.101538 0.0133271 -0.00143226 -0.166711 0.00996167 
0.0036255 0.0593818 -0.0244279 0.0543162 -0.00579573 -0.00562707 0.0952042 -0.00860232 0.0634293 -0.150347 -0.0259077 0.0862046 0.11628 0.0271924 -0.0774612 0.00178235 0.0168002 0.000777883 -0.0869363 -0.0228745 -0.117894 -0.0341725 -0.0377114 -0.0130326 0.00487029 0.0726794 -0.0216494 0.0541367 0.105081 0.00664951 -0.0189329 0.0197632 0.081616 -0.0476623 -0.0565078 0.0025969 -0.0368579 -0.0757375 -0.00311561 -0.0296251 -0.0741995 0.0454527 0.0330598 0.0313104 -0.0706335 -0.0276288 0.0972317 0.0108758 -0.020239 0.0440302 0.169655 -0.0686028 0.0385347 0.00532447 0.0533503 -0.0181427 0.00480355 -0.0518531 0.0058006 0.0140338 -0.0265604 0.0294216 0.0889276 -0.0248499 -0.0474792 -0.0229699 -0.0875694 -0.0177902 -0.0203069 0.05396 0.12104 0.0317751 0.0634446 -0.0250616 0.0672784 -0.00257812 0.0618007 -0.0544242 0.148162 0.139702 -0.0731933 -0.0369233 -0.0126633 -0.0468668 0.0244111 0.0399023 0.0299913 0.0722337 -0.0397086 0.0872465 0.0517999 -0.0515818 0.0262815 -0.0895924 0.00367398 0.0278524 
0.0189295 0.0498833 0.00111712 0.0242951 0.00733729 0.0266873 -0.0235787 -0.0224153 -0.018138 -0.0173796 0.0736501 0.0329826 -0.109317 -0.0381785 0.0691606 -0.132214 -0.0460792 0.0529266 0.114132 0.00355957 0.0733772 -0.00289784 0.00990745 -0.0488498 0.0288927 -0.115109 0.057444 0.0334549 -0.0741386 0.0634247 0.0408297 -0.0502697 -0.0402849 -0.0742903 0.00916976 0.0627264 -0.00982083 -0.0660179 0.0117775 0.0092844 0.0580901 0.11609 0.055245 0.0538754 0.0474898 -0.00374343 0.105193 0.0427003 0.0294911 0.060292 0.0138125 -0.0552897 -0.0422309 0.0457291 0.0311074 -0.095493 -0.0255053 -0.0336554 -0.0359186 0.0467765 0.00479105 0.0397069 0.0362875 -0.00776072 -0.0588109 -0.0299931 -0.11286 -0.0253579 0.00762926 -0.0831522 -0.0204335 0.130415 0.0950392 0.0270082 0.0939152 -0.0145667 -0.0215388 -0.0701399 -0.109134 0.061553 0.0121424 0.0196288 -0.00428024 -0.00846701 0.0829691 0.0755726 0.0807722 -0.03768 0.0913373 0.0866378 -0.100141 -0.0554555 0.0408918 0.0301874 -0.0530002 0.0394697 
-0.0198045 0.0180416 0.0344208 0.00798778 0.0143657 -0.0136278 0.0469695 -0.0799324 0.0662912 0.078966 -0.045598 0.013904 -0.127275 -0.0774216 -0.063941 0.0678678 -0.0534553 0.0280787 0.0546057 -0.006966 0.0841092 -0.0533312 -0.000705392 -0.0412425 -0.0271776 -0.0134417 0.143109 -0.0603784 -0.0854868 -0.00306718 0.0401521 -0.0175405 0.0239566 0.0202751 0.0346505 0.092601 0.0144588 0.0398613 -0.0547699 0.0919688 0.0346307 -0.0280057 0.0326734 -0.0596453 -0.062563 -0.0380532 0.0965864 0.0621944 0.0785505 -0.0643456 0.0754373 -0.150594 -0.00318488 -0.00771053 0.0563984 -0.0149924 0.00297758 0.0813186 -0.0246855 -0.066035 -0.0119094 0.000779237 0.0414893 -0.0369612 -0.00938183 -0.0313214 0.0055976 -0.00632289 -0.0475341 -0.0393952 0.0475843 0.0180911 0.0118614 -0.0423496 0.11505 -0.0930022 -0.0824999 0.00342545 0.0450613 0.0874192 -0.00804682 -0.00576086 -0.0183682 -0.0182627 0.0459953 -0.0513903 -0.0488532 -0.0526706 -0.0981177 -0.0712477 -0.0173879 -0.000790526 -0.101162 -0.0292574 -0.0238202 -0.0690002 
-0.0413942 -0.0545063 -0.0481403 0.0367439 -0.155554 -0.0741505 -0.0151263 0.0847231 0.0401175 0.0350012 -0.0335518 -0.0899533 0.00470994 -0.0620373 -0.0570468 -0.0143977 -0.0262457 -0.0313906 0.0897677 0.0102221 0.0374832 0.0682306 0.072675 -0.098278 -0.0666268 -0.0295868 -0.0442451 -0.039305 0.0342908 0.039277 -0.0492504 -0.034995 -0.0723573 -0.0641038 0.0315926 0.0894149 -0.184551 -0.0364257 -0.0550876 0.00124107 0.0650574 -0.0241417 0.0447083 0.00926202 0.105882 -0.0664839 -0.0340577 -0.0472075 -0.0361737 -0.0591607 -0.103863 -0.035859 -0.0454107 0.147942 0.0286843 0.0212644 0.0178919 0.120101 -0.0126742 -0.000849775 -0.10976 -0.0566312 -0.046011 0.0546688 -0.00535543 0.0519048 0.0263203 0.0975169 0.132038 0.0476468 -0.109471 0.0110856 0.0334543 -0.0894968 -0.0333879 0.0836514 0.0089012 -0.0371241 0.0479598 0.021132 0.0566882 -0.0327448 0.0250616 0.00842586 0.0146966 0.0360996 0.00124955 -0.0995214 0.0153805 -0.0221242 0.127725 0.0293043 -0.0489304 -0.00936686 0.0477518 -0.0784408 
0.0343185 0.00720903 0.103388 0.0589253 -0.0342415 -0.0367615 0.0165857 0.0180142 0.0622311 -0.0184007 -0.00749247 -0.0679776 0.0646294 -0.00838149 -0.120844 0.0141962 -0.047652 -0.0455346 -0.0317567 -0.0603345 0.033032 -0.0401055 -0.0926848 -0.00984547 -0.0715354 -0.122686 0.00721002 0.0349872 0.0564672 0.00250949 0.104481 0.00820547 -0.0399297 0.0315231 0.0617489 -0.0266926 -0.0203887 0.0215538 -0.0105338 -0.0938125 -0.0293235 -0.0968192 0.0601018 -0.0324619 0.0111397 -0.0116235 0.019834 0.0815561 -0.026375 0.00497159 0.0319184 -0.0303781 0.0219388 0.0884512 0.0240951 -0.0231103 -0.00184505 0.000400422 0.0254789 -0.118683 0.00187138 -0.0434581 -0.0375461 -0.0409037 0.0892265 0.0586314 -0.0697747 0.128757 -0.027746 0.0585249 -0.00017787 -0.0526308 -0.076262 -0.00990561 0.0802787 0.0655368 -0.121601 -0.00655161 0.00880393 0.0181497 0.187106 0.00492095 0.0860585 0.00383948 0.156791 -0.0299136 -0.08301 -0.048725 -0.0025165 -0.0679879 -0.0368853 0.0481591 -0.0185192 0.00619473 0.076427 0.0124942 
0.0749496 -0.0495996 0.0366662 0.141115 -0.0223403 -0.0511335 0.0302793 -0.116508 -0.101306 -0.0390841 0.0304836 0.0783326 0.0985957 0.064397 0.0337057 0.0126842 -0.00715775 0.0807314 0.0254045 -0.0169073 0.0162548 0.00546662 -0.017671 -0.086209 -0.00327438 0.0142465 0.00362429 -0.0345789 0.0251362 -0.031969 0.0614965 0.0447478 0.0620391 0.0571838 0.0262586 -0.00980008 0.0797267 0.13556 -0.0452187 0.0805547 -0.0362743 0.0208729 -0.0583476 -0.0419697 0.0400235 -0.0594286 -0.0441407 -0.0537073 -0.0442756 -0.0880048 0.0607959 -0.0276012 -0.0496409 -0.0308273 -0.0769535 0.024362 -0.0305903 -0.0592445 0.117071 0.0194213 0.134089 -0.0445285 -0.108916 -0.0142935 0.0615424 0.0405049 -0.035064 0.0863111 0.0893813 0.0190948 0.0150174 -0.00974707 -0.0217227 -0.0269902 -0.021789 0.0519172 0.0592477 -0.0318973 0.013033 0.0171124 -0.0377864 0.0756698 0.102753 0.0496532 -0.0324911 0.0197416 0.0301348 0.11277 0.0380814 -0.0324085 0.088622 -0.00866328 0.0108514 -0.0199337 0.0594896 -0.000521646 
0.0449383 0.014381 -0.118368 -0.128753 -0.0706663 -0.0220715 0.0693725 0.0447129 0.0180435 0.0455011 -0.0928179 -0.0938335 -0.0420419 0.0901291 -0.0193074 -0.0531803 0.0299487 -0.125784 0.106586 -0.00862795 -0.0187892 0.182666 0.046057 0.0123906 -0.022759 0.0785358 -0.0302649 0.0363884 0.00189641 0.0367165 0.032955 0.0530498 0.0646273 0.0396006 0.0567258 0.00124727 -0.0166736 0.0550743 -0.0219651 0.0210796 0.0125514 0.0528724 -0.01301 -0.0579591 0.0432719 -0.0340253 -0.0525831 -0.0383703 -0.000770217 -0.00472281 0.126387 0.0518404 0.0179635 -0.0385727 -0.0353364 0.053365 -0.0654607 0.0451774 0.028522 -0.0373435 0.0101054 -0.0147804 -0.105093 0.0196988 -0.0385438 -0.0385092 -0.0104439 0.0804017 -0.0234022 0.0763664 -0.0484639 0.078777 -0.0579661 0.000535132 -0.041965 0.0396079 -0.0669145 0.00211458 0.0744963 0.0402727 -0.110894 0.137701 -0.00979681 0.0774289 0.0933626 0.00583451 0.0246076 -0.126872 -0.00108421 0.0208066 -0.0222209 0.05563 -0.0156164 0.0202015 0.0177951 0.0209895 
-0.117288 -0.112208 0.0940176 -0.068001 0.063939 0.0517281 -0.0644967 -0.0174416 -0.0959644 0.0645923 -0.0608766 0.0800416 -0.134518 -0.0262596 -0.0322371 0.115951 0.0573362 -0.0272975 0.0260502 0.0744161 0.0332235 -0.0183925 -0.0531111 0.043643 0.0191803 -0.025166 0.030963 0.0274278 -0.109648 -0.00437654 0.104164 0.00517698 -0.0614172 -0.0884026 0.0997562 -0.0102054 0.00173017 0.00700653 -0.0582085 0.00922098 -0.0741963 -0.0121447 -0.0766343 -0.0208431 -0.0208182 0.0991727 0.0616105 0.0511012 -0.0173505 0.080135 0.0546554 -0.0400034 -0.0721749 -0.0684582 0.0593612 -0.000671717 -0.0857891 0.0420882 -0.0351337 0.0180224 -0.0331191 0.0329471 -0.030101 0.0589116 0.0321427 -0.0118796 -0.037196 0.00264378 -0.0219228 0.136438 -0.0538604 0.0170279 0.0264361 0.0330029 -0.0544529 -0.0411922 -0.0184885 -0.028352 -0.134133 0.00751429 0.0347108 0.0241181 0.0355159 -0.0365777 0.0542341 0.0855234 -0.0978666 -0.0664719 -0.0162838 -0.135672 -0.0132103 -0.00556914 -0.0779812 -0.01672 -0.129173 -0.065243 
0.112759 0.0208508 -0.0311963 -0.0637418 -0.0868689 0.00154262 0.0271222 -0.0341554 -0.0643403 0.100707 -0.0178542 -0.0633876 -0.0309722 -0.020709 -0.0706729 0.0251067 -0.0681309 0.0499764 -0.0522689 -0.0629894 0.112655 -0.00803427 0.012439 0.0787004 0.0484201 -0.00688398 0.0559188 0.00518989 -0.116367 0.0278513 0.130944 0.0847325 0.10154 -0.13506 0.0356802 0.0265966 0.0146607 0.0459276 -0.134162 0.0710173 -0.00267223 -0.0565368 0.101366 0.0743277 -0.0504847 -0.00688913 -0.036951 0.0209451 -0.0151411 0.0423046 -0.1232 0.0373974 -0.136614 -0.0642403 -0.0645259 0.0745196 -0.0681766 0.0175343 0.0379672 0.087514 -0.0301601 -0.0213487 -0.00350061 -0.0407051 -0.00809332 -0.00680227 0.0187138 -0.0306721 -0.0175508 0.0668401 0.102623 -0.0977075 0.00193061 -0.0138246 -0.0460333 -0.0157686 -0.0310558 -0.0161754 -0.0646562 -0.08359 0.0445159 0.0696182 0.0113661 -0.0513766 -0.0634719 -0.0125991 0.0523543 -0.00678085 -0.0585451 0.0229388 -0.0143771 0.0229234 -0.0500093 -0.0806373 -0.0505105 -0.0305979 
0.0316942 -0.0215805 -0.0111592 0.0625839 0.0239037 -0.0534496 -0.0079688 0.0856735 0.00909181 -0.0283139 -0.0452062 0.078928 -0.0556154 -0.0562695 -0.0369037 -0.00629346 -0.0253085 -0.0605167 0.0295305 0.0230811 -0.0359631 -0.0209168 0.00522588 -0.137905 -0.0530131 0.0608415 -0.0506679 -0.0617357 -0.00165827 -0.0189806 0.110804 0.113369 -0.115838 -0.0324691 -0.0507772 0.103004 0.000644915 -0.0514115 -0.0153623 -0.0401683 0.036849 0.0603631 0.0326029 -0.0441361 -0.0685631 0.0643925 0.0268943 -0.0094196 -0.00718026 0.0856815 -0.0962131 0.105205 -0.0490198 -0.0841359 0.0509073 0.00309138 0.0680303 -0.0498888 -0.0403444 0.0923197 -0.0597783 -0.0246611 -0.186319 -0.0924916 0.0150541 0.0213274 0.00266263 -0.000711541 0.0214897 -0.0450782 -0.0432533 0.0177345 0.104277 0.02069 -0.0889436 0.00420597 0.0314244 -0.0372052 -0.0374704 -0.0565897 -0.00521301 -0.0260256 -0.023754 0.0875765 0.0509168 0.028278 -0.014374 -0.0327294 -0.106305 -0.103857 -0.0218061 0.101283 0.0142007 -0.0572093 -0.00845638 0.0072837 
0.0405199 -0.0129516 0.115281 0.0111295 0.0973605 -0.0397908 0.040583 0.0575814 0.0136494 0.0579671 -0.0161999 0.0395354 0.0309276 -0.0531818 -0.0459197 -0.0408578 -0.0786952 0.0281089 -0.0630768 -0.0331004 0.152401 -0.0729279 0.0675496 0.0715914 -0.0109667 -0.0344643 0.0698141 0.10984 0.00471083 0.0102039 0.0741921 -0.0283414 0.114231 0.127248 -0.0466948 -0.0311486 -0.0291069 -0.0226111 -0.0225841 -0.0173634 0.0257095 0.110117 -0.0425554 0.0775015 0.013949 -0.00914685 -0.0934076 -0.0651442 -0.00497291 0.0165513 -0.0431395 -0.152353 -0.0342404 0.0215653 0.0643829 0.0942898 0.0566415 0.105707 -0.00458878 -0.00707157 -0.0741452 0.00518318 0.0670244 -0.0321963 0.0107845 -0.0801827 -0.045784 -0.0422346 -0.0943008 0.0391907 0.193957 0.0205027 -0.0317269 -0.0502279 0.0129669 -0.0922938 0.0684106 -0.106184 -0.0261274 0.041915 -0.00765488 0.0399196 0.0982562 0.0806287 -0.0137538 -0.0436043 -0.0400007 -0.0477354 -0.0454761 0.052179 -0.00983685 -0.0568849 -0.105553 -0.0843682 -0.108125 -0.0990554 
-0.0997684 -0.121009 -0.00783877 0.027301 -0.0478084 -0.0509052 0.000309816 0.0825459 0.095953 0.0384268 0.0391522 -0.0301508 -0.0329506 0.0261567 0.0475025 -0.0249702 -0.071693 -0.045453 0.030911 -0.00845969 0.0784372 -0.00760551 -0.0307041 -8.85999e-05 0.079279 0.0802741 -0.0211815 -0.0310675 -0.0385127 -0.0988294 0.0070465 0.020706 0.0587235 -0.0040038 0.00810548 0.0281706 0.0408133 0.0262326 -0.021877 -0.0164215 0.0199432 -0.0724643 0.0175131 -0.00259559 0.0247917 -0.0319663 -0.105152 -0.0252202 0.0708856 -0.0467839 -0.0193021 -0.0664564 0.0419718 -0.0815361 -0.0533062 -0.0159088 -0.065072 -0.000175832 0.138771 0.0498808 -0.0341579 0.198377 -0.0995596 0.0216268 0.130448 -0.00983525 -0.104819 0.00599872 0.145457 -0.0486681 -0.0749622 0.0710335 0.107425 -0.0217486 0.0249218 -0.0223469 -0.0260701 0.0775911 0.0734403 -0.0169244 0.0265856 0.0212361 0.0879584 0.0196755 0.0756473 -0.0513901 -0.0855683 0.0635798 -0.0179014 0.0766936 -0.0687282 -0.0509572 -0.109937 0.0650298 -0.068862 -0.0632842 
-0.0692132 -0.103266 0.0874448 0.00258086 0.0406222 0.0240492 -0.0306799 -0.0504131 0.104852 0.0577063 0.0425895 0.138631 -0.0631496 -0.0557264 -0.053791 -0.0418813 0.00547931 0.0197657 0.163281 0.0305613 0.0270712 -0.0509526 0.0813828 -0.0346376 -0.0580026 -0.0758068 -0.010713 -0.0225871 -0.0152204 -0.0359223 0.0624548 0.0801771 0.0680055 0.096108 0.0380179 0.00798357 0.0318017 0.0696656 0.0755784 -0.0197899 -0.0854083 0.00507049 -0.0843645 0.0315177 0.0982059 -0.100882 0.00497063 0.0512217 0.118941 0.118809 0.0654204 -0.077841 -0.0245598 -0.0090745 0.00579662 -0.0546906 0.0165324 0.016085 0.0195109 0.0168569 -0.00126622 0.00666098 0.0236344 -0.0953241 -0.0270391 -0.0348534 -0.0343221 -0.0108544 0.0190269 0.127931 0.0559372 -0.038748 0.0368678 -0.011868 0.0580468 -0.0169504 -0.0387204 -0.0513972 -0.00109337 -0.0657293 0.090914 -0.025025 0.0438539 0.0678437 0.0199733 -0.011329 0.0513588 0.0758092 -0.0633654 -0.00215312 -0.00280077 0.0341139 -0.0318476 -0.0128456 -0.102025 0.0607655 
-0.016013 -0.0325587 0.0201104 -0.00191547 -0.0340889 -0.107494 -0.0432112 0.00443846 0.00271613 0.0826665 -0.0887358 0.088012 -0.050885 -0.0581352 -0.0322093 -0.0444945 0.0132019 0.00155785 0.00986946 -0.0285552 -0.0305988 -0.0228346 -0.0827722 0.015949 0.025538 0.0149766 -0.0409887 0.00875139 -0.0824258 0.0304245 0.140063 -0.0408441 -0.0181314 0.020209 -0.0319017 0.0338507 0.0961336 0.0267354 0.068848 -0.0128702 0.0322316 -0.00685415 0.0470314 0.0439899 0.0270977 0.0518458 0.0660246 -0.0475039 0.0384337 0.00288677 0.0774318 0.0433902 0.0383075 0.0532081 0.0773289 -0.064693 -0.0402267 0.0186168 0.0225901 -0.0237331 0.0557411 -0.105339 -0.00301075 0.0725428 -0.0147813 0.0111312 -0.008687 0.0553248 0.0788736 0.0777434 -0.0315289 0.0856107 0.0103988 0.0653044 -0.0205286 -0.0333493 0.0769834 0.134328 -0.0466968 -0.014595 0.0323115 -0.127891 0.00993763 -0.0466503 0.0160141 0.112818 -0.0163068 -0.0101049 0.00272092 -0.0177809 -0.023671 -0.00923089 -0.0608394 -0.199831 0.0193048 -0.0244205 
-0.0181019 -0.0737136 0.0252568 0.0890835 0.0880469 0.047638 0.0446757 -4.12674e-05 -0.00603647 0.106271 0.025345 0.0037289 -0.0986762 -0.0512092 -0.0321939 -0.0874577 0.0697959 0.0167824 0.0755533 -0.042366 0.00871514 -0.00697434 0.0869225 -0.116353 0.0100593 -0.00563469 -0.0541347 0.0536798 -0.0149712 0.00912995 -0.0662707 0.00222736 -0.00870657 0.0599892 0.036913 0.0243139 0.0332459 -0.0323427 0.107561 0.052981 0.0427919 0.0432718 -0.0707214 0.0583132 0.0619496 0.0229587 -0.0192561 0.0100751 -0.00801261 0.035993 -0.0503255 0.0439813 0.000491957 0.0772933 -0.0221548 -0.107906 -0.0164082 0.136693 -0.0497924 0.0392187 0.0662049 0.0390637 -0.108855 0.0592061 -0.0420307 0.0267723 -0.0555369 0.0897023 0.0428664 0.193223 -0.027997 -0.0109937 0.0375306 0.0382307 0.0340915 0.00229349 -0.00717014 -0.0400126 0.0293724 -0.0184398 -0.0368523 0.047316 0.118891 0.0388912 -0.0394913 0.0218785 -0.0143273 -0.0511159 -0.0239818 0.0356157 -0.0382433 0.00609971 -0.0166785 -0.0229496 0.0276592 0.0481973 
0.0632505 -0.0380958 0.0912394 -0.053611 0.121843 0.0072291 0.105168 -0.050806 -0.0348066 0.0946496 0.0296564 0.0953719 -0.0730913 0.0227682 0.0255878 -0.0262892 -0.0261869 0.00493579 0.0100951 -0.0888428 0.00635935 0.00624077 0.0363784 -0.00522933 0.0173743 -0.160092 -0.0116059 -0.103537 -0.173205 0.0390803 -0.131553 0.0656792 0.0414568 -0.0219314 -0.059918 0.0163513 0.0379211 0.0255908 -0.0112952 0.0112295 -0.0361429 -0.150824 -0.0210413 0.00848639 -0.0599395 0.156698 0.0935189 -0.0128725 -0.0131229 -0.01805 -0.0666444 -0.0628394 -0.0576014 -0.0662947 -0.0225267 -0.0146593 -0.0424755 -0.00961111 -0.017944 0.0703298 0.0259572 0.021755 0.00895505 0.082123 -0.0509107 -0.0153289 -0.0192078 0.00428284 -0.106786 0.0994207 -0.0110309 0.099862 0.0489074 -0.141787 0.0496246 -0.0120675 0.0670163 0.0187887 0.0804442 -0.0410999 -0.0177809 -0.0346781 0.00409383 0.0638241 -0.00132107 -0.0595433 0.0304198 -0.0156454 0.0232323 -0.0378883 -0.0390067 -0.0516612 -0.0352593 -0.0552235 0.0422071 -0.0503284 
-0.00909144 0.074423 0.0160615 0.0492558 -0.0627721 -0.0482677 0.00534054 0.0985936 0.115604 -0.0362323 -0.0164125 0.176348 -0.147379 -0.076293 -0.000628286 0.0471331 -0.0556911 -0.0794808 -0.0670059 0.0182452 -0.0271024 0.0462149 -0.0723154 0.023159 0.0952748 0.0356107 0.0902725 -0.0607145 0.0147892 -0.0628916 0.0413659 0.050847 0.0022458 0.0842741 0.00982247 -0.0939541 0.142627 0.0404912 -0.0262018 -0.0680201 -0.0138257 0.0433906 0.0416729 0.00986394 -0.022092 0.0646518 -0.0149374 -0.0310573 0.141839 0.0104369 0.0153965 -0.000880075 -0.003567 0.0940163 0.0795579 0.0612928 0.0334526 0.0959613 0.0319904 -0.0209267 -0.00272034 -0.011764 -0.00356316 -0.0161088 -0.0797021 -0.0114162 -0.0124712 0.00288466 -0.055702 0.0895536 -0.0171324 -0.00861157 0.0461513 0.0853684 0.130164 0.00933473 -0.0440651 -0.0443242 0.0817837 0.03443 0.211139 0.0521681 -0.0244843 0.0102796 -0.0279945 0.0291501 0.0646424 0.045001 0.0342256 0.0240996 -0.103358 -0.000704699 0.0844949 -0.062938 -0.0434555 -0.135208 
0.000819253 0.112727 0.0770922 -0.0867 0.0299525 0.0314273 -0.00856023 -0.00374782 -0.0413823 -0.023745 0.0592534 -0.0251805 0.146576 0.097753 -0.156587 -0.0466656 0.0927646 -0.0298803 0.0418956 0.0752993 -0.00151107 0.0659825 0.139864 0.0278197 0.0157561 0.0771295 -0.0150308 0.0364341 0.0526885 -0.0553109 -0.0317982 -0.0507041 -0.0666577 -0.00454637 0.0243122 0.0311011 -0.0263695 0.0124382 -0.0788066 0.0111754 0.0131731 -0.0379341 -0.0210804 -0.134364 -0.0252758 -0.149968 0.0651424 -0.0165066 -0.0258325 0.058056 -0.0304528 0.0891557 0.0601777 -0.13283 -0.198921 0.00935951 -0.105734 0.10591 -0.0338121 0.115808 -0.089402 0.085793 0.051272 0.0660683 -0.0383623 -0.164457 0.00157147 0.045721 0.0676179 -0.0895745 -0.0709143 0.108786 0.0296442 -0.0207317 0.0632845 0.0220494 0.0742192 -0.0874608 0.0829574 -0.074319 0.0766759 -0.0756108 0.0490015 0.0664145 -0.0906446 0.0399571 -0.054714 -0.119746 -0.10733 -0.0756268 0.0384395 0.0168811 -0.00647108 0.0179818 0.0820907 -0.0298235 
0.074897 0.0264267 -0.00169448 0.111904 -0.019138 0.0666761 0.00517722 0.0786767 0.0822861 0.0629961 0.02008 -0.0767229 0.0497562 -0.169238 -0.100045 -0.0383713 0.0293064 0.0139422 -0.0476364 0.0493889 0.0070032 -0.0849488 0.106759 0.00417305 0.108901 0.0933363 -0.0141969 0.0736539 0.051851 -0.108337 0.0654373 -0.0852361 -0.0575052 -0.0388598 0.0194438 -0.0790971 0.0673597 0.0777135 -0.0509827 -0.0272153 -0.0499866 0.0806055 -0.0417997 -0.063081 0.0329058 0.0258344 -0.00141055 0.0673355 0.00957391 -0.0473955 -0.0117327 0.0581662 -0.0952529 -0.120672 -0.142967 0.0227687 0.0644994 0.000724803 0.0290309 0.081734 0.101776 0.0374231 0.00957436 0.106498 -0.088176 -0.124606 0.0845023 -0.0312769 -0.0178837 -0.00433674 -0.0553781 0.0339355 0.0852219 0.00542274 0.103161 0.102876 -0.0519904 -0.0842515 0.00651939 -0.0169417 -0.0532244 -0.0215967 -0.0919445 0.0122292 0.014732 0.0762225 0.0327855 0.00745029 -0.0511739 -0.00827078 0.0716595 0.0619913 0.0411098 0.0883956 0.0197587 -0.0186986 
0.0630373 0.0746921 0.0530571 -0.0302084 -0.0528059 0.0795613 0.0564365 0.0793582 0.0453102 0.0515584 0.0525746 -0.0573454 -0.160401 -0.147717 -0.121427 -0.109781 -0.0234961 -0.00423577 0.0360352 0.0461636 0.100084 0.0208287 -0.0223552 0.000485852 0.0145145 -0.0147978 -0.0268809 -0.0428967 -0.0426905 -0.0516611 -0.108702 -0.0857081 -0.00920847 -0.0175913 0.0172318 0.0100032 -0.0732494 0.0518569 0.060701 0.019921 0.0165412 -0.158782 -0.0897276 0.000621899 0.0981308 0.0460162 -0.103678 -0.0454283 -0.0914404 -0.0381371 -0.0394394 -0.115292 -0.0833545 -0.0458643 -0.0321599 0.0425912 -0.106535 -0.00677535 -0.0645409 0.124524 0.0207457 -0.0951183 -0.124978 0.077668 -0.167257 0.0343517 -0.23462 -0.0156229 -0.0278991 0.12417 0.0151586 -0.00229014 0.0543029 -0.0757667 0.125488 0.0322291 0.017062 -0.0381893 -0.0178676 0.00671565 -0.0427569 0.0267441 -0.0406204 -0.0488512 -0.0636627 0.0304099 0.103953 0.0311368 -0.00803703 -0.0908174 0.102733 0.0181994 -0.0930355 0.0422378 -0.0805489 -0.109365 
-0.0467085 0.0865848 0.10807 -0.0253787 0.0156567 0.0150617 0.0270581 0.0345822 -0.0337059 0.0382491 0.0298375 -0.0362516 -0.170299 -0.0268137 -0.146059 0.00162654 -0.0364471 0.0109826 0.0573659 0.000207798 0.0507099 0.0870383 0.107363 0.000768145 0.0355315 0.0619303 0.0664058 -0.0586454 -0.0314073 -0.0216065 -0.0979023 0.0286618 -0.053842 -0.0281721 -0.0523744 0.0148743 0.0773568 0.0874422 0.0733356 0.0453475 0.078368 -0.0456484 0.0676178 -0.0717447 0.0319683 -0.0340189 -0.0920157 -0.0524452 -0.039151 0.0782047 -0.0910319 -0.06681 -0.114191 0.0618758 -0.0352 -0.0812766 -0.0266355 -0.00135553 0.0672767 -0.00799394 -0.0830177 -0.0310273 -0.0237449 0.120601 0.0583933 0.0486157 -0.0148842 -0.0189015 -0.0906481 0.076095 0.02924 -0.0775406 0.0549919 -0.0615657 0.0420495 0.0329837 -0.107954 -0.065404 0.0739016 -0.0177083 0.0167309 0.0525125 0.0600229 0.0903025 0.0551057 0.0525207 0.0202011 0.0220646 0.0229464 -0.00159379 -0.0284876 0.0403324 0.0557735 0.0599593 -0.0118587 0.00378494 
0.0435378 -0.0644938 0.0112693 0.0194236 -0.0338086 0.0270266 -0.0155919 0.0374139 0.0806675 -0.0267994 0.119226 -0.0127489 -0.0314864 -0.235375 -0.101342 -0.0556594 -0.0162608 0.0500085 -0.0882179 0.0677336 0.076428 0.0685698 -0.0475536 -0.0450037 -0.0820857 0.103067 0.00149211 0.0582382 -0.0238216 -0.00925622 0.0257626 0.00736116 -0.0476555 0.0406174 0.0345738 0.0170385 0.067898 0.0346652 0.0488693 -0.0122223 -0.0882882 0.0374113 0.0365937 0.101354 -0.000489557 -0.0477311 -0.0785542 -0.0111939 -0.113045 -0.0306794 -0.0378986 -0.0427543 0.0320957 0.018801 0.0283587 0.12267 0.0239796 0.111296 0.0222994 0.000824953 -0.0237958 -0.0798049 0.0145402 -0.0530361 -0.00803337 0.058615 -0.0826725 0.00539589 -0.0240644 0.021708 -0.025366 0.0263167 -0.02704 -0.0176503 0.031962 -0.0536036 0.0519688 0.0311399 -0.10465 -0.0022078 0.0027535 0.0287072 0.134066 -0.0246827 0.0120716 0.125114 0.0471026 -0.0729971 0.10754 0.0853507 -0.0968874 0.00623004 0.0163523 -0.00788666 0.0268407 -0.0331744 
0.049267 0.0407198 0.0593387 0.0713062 0.036226 -0.00584602 -0.0951765 -0.0226871 -0.0322953 0.0587674 -0.0922886 0.0924266 -0.105187 0.0164226 9.46623e-05 0.0253026 0.0359164 -0.0729402 -0.163566 0.0042963 -0.0755907 -0.0449353 -0.0545201 0.0112886 -0.00790118 0.0492072 0.0225914 -0.0257437 -0.0809204 -0.0117158 0.0926141 -0.0679971 -0.0716863 -0.00671151 -0.153084 -0.0233937 -0.00606588 0.0677983 -0.0124539 -0.125746 0.0167542 0.0109993 -0.0601457 -0.0364366 0.0234752 0.044837 -0.0737998 -0.0441341 0.0298273 -0.0456942 -0.0122116 -0.110835 -0.0389912 -0.105116 0.0431427 -0.0756832 -0.0418386 0.00454927 0.0418548 -0.0483845 0.0697122 -0.078318 0.0336526 -0.0786345 -0.0662236 -0.180997 -0.0600664 0.0264015 -0.0392572 0.0720871 0.101195 0.0688842 -0.0303434 0.110173 0.140613 -0.112217 0.0601453 -0.0471066 0.0139852 -0.00724305 -0.10835 -0.0304999 0.0712938 0.0949235 -0.0011482 0.0016308 0.167073 0.0461909 -0.0129975 0.0263725 -0.0600367 0.0977855 0.0349756 -0.110714 -0.0671535 0.0574114 
0.0459626 -0.0162431 -0.00526957 0.0588684 0.0180631 -0.125073 0.0246735 0.00467303 0.0530211 0.0426887 -0.0111891 0.0306594 -0.056342 -0.0433625 0.0317365 0.0304072 -0.0695831 0.0479146 -0.0287434 0.0350908 0.00935576 -0.0385975 0.00149081 0.0902965 -0.0238162 0.0410833 0.088926 -0.0415854 0.0107311 0.0144148 0.0403357 -0.0316643 0.0462951 -0.0156894 0.0605796 0.0168704 -0.0314903 -0.0733866 -0.0995219 0.0229334 -0.00864133 -0.113375 0.0158725 -0.013603 -0.0504302 0.0255514 -0.0813665 -0.0644588 0.0678338 -0.0934391 0.00727357 0.00670175 0.0864579 0.0438501 0.0409648 0.00280431 -0.0285825 0.105354 0.0191203 -0.0197835 0.0597037 0.0176314 -0.0517487 -0.0968834 0.0952385 -0.0396678 0.0327123 0.0426999 -0.00162579 0.0389221 0.0713359 -0.0762787 0.0569114 0.0649257 0.062727 -0.0304874 -0.0817332 -0.00979808 0.0149864 0.0632143 0.0168832 -0.0577771 4.18182e-05 -0.105924 0.153175 0.0172568 -0.0171181 0.0957976 -0.0547512 -0.0222827 0.000401106 -0.0267789 0.0342235 0.0143877 -0.0703602 -0.0984444 
0.0481239 -0.0719007 -0.0201765 -0.0330718 0.045314 -0.0465773 -0.090894 -0.0141218 0.0856952 0.110318 0.110049 0.0312082 -0.0944192 -0.0164127 -0.0765596 -0.0294811 0.0458596 0.0179626 -0.0451786 0.0294097 -0.00734382 0.0460438 0.0387521 0.0547453 0.0365178 0.0662821 0.0671944 -0.0608395 0.106039 -0.00467853 0.0616827 0.0188979 -0.0408569 0.0160779 0.0887354 0.0207342 -0.0512056 0.00201036 0.00821388 -0.0946139 0.0237684 0.0354611 0.0792485 -0.0431399 -0.0812257 0.0722327 0.047442 -0.00207335 -0.0175957 0.0230154 0.0629965 0.00212938 -0.0822551 -0.0204562 -0.0312424 0.0409948 -0.0385942 -0.0151386 0.192404 0.0256489 0.000801649 -0.0701104 0.03655 0.0454352 -0.169928 -0.0618386 0.013379 -0.0779399 0.101219 -0.0260775 -0.0356088 -0.0117595 -0.014745 0.0603336 -0.121373 -0.00724863 -0.0309823 -0.0596366 0.0616726 -0.0165575 -0.0573276 0.0029326 -0.00837345 -0.0163335 -0.0251214 -0.0166066 -0.124851 -0.0435366 0.0931321 -0.15233 0.116703 0.0590275 -0.0162991 0.0889382 -0.0578225 -0.0842247 
-0.0225752 0.0433837 0.0549106 -0.0376949 0.0209284 0.176221 -0.0831648 0.0407472 0.00839497 0.0501299 0.0122754 0.0849562 0.0794125 -0.144646 0.0285107 -0.0144229 0.0272114 0.103028 -0.069296 0.00519107 0.0191153 0.124894 -0.0680654 0.00349268 0.0245215 0.0612031 0.0143921 -0.0243535 -0.0062012 0.0421575 0.0242794 -0.0631563 -0.0221548 0.043307 0.0732205 0.0680476 -0.0467336 -0.0855212 -0.0495462 -0.0160618 0.0841511 0.00448814 0.147074 0.0907951 0.0443611 0.0303695 -0.0526405 -0.0617247 -0.017282 0.0393797 0.102272 -0.0261969 -0.0334795 0.0141686 -0.0457786 0.0326037 -0.0852218 -0.0184952 -0.0252849 0.0570468 0.021405 -0.0131565 -0.0215653 -0.0729844 0.00149554 0.0456133 -0.0699445 0.0495697 -0.000840737 0.0838565 -0.0287415 -0.0134482 0.0404448 0.0170873 -0.0656563 0.135101 -0.0107902 0.0482896 0.049349 0.0451832 0.0138759 0.0157709 -0.0159407 0.0602388 0.0214091 0.0325282 0.0797625 -0.077129 0.0960957 0.0300088 0.0228316 0.0713139 0.0973447 -0.0703737 0.0232436 -0.0386728 
-0.0198675 0.0258125 0.0418896 0.0395891 0.046602 -0.207146 0.0654411 0.0852366 0.0170457 0.0909168 0.00368469 -0.064081 0.00792532 0.0383893 -0.163607 0.0190944 0.0105046 -0.0224837 -0.0793644 0.00350817 0.0312316 0.0954648 0.112831 -0.103014 0.00160572 -0.0181404 -0.00567159 -0.0665703 0.015755 -0.00960311 -0.0179742 -0.0404785 -0.0305504 -0.0413247 0.0443343 -0.0825352 -0.0679227 0.0221278 0.0440393 -0.0827498 0.0152325 0.0195484 -0.0059357 -0.00406702 -0.09338 -0.0169283 0.00938197 -0.0889582 -0.0694414 0.0384832 0.116822 0.0383541 0.0544527 -0.0259259 -0.0754662 -0.065518 -0.0099493 0.102206 0.0151205 0.0828441 0.0496863 -0.0830488 -0.0277464 0.00105281 0.012149 -0.0391129 0.0564765 -0.0724991 0.05503 -0.0375468 0.0581651 0.066643 0.0150821 -0.0280165 0.00069851 0.0823934 -0.0341941 -0.0282349 0.0570941 0.0351875 0.031309 0.0648907 -0.0103154 -2.67028e-05 0.0279177 0.0366819 0.0889056 0.0822838 -0.00770901 -0.0263001 -0.0849274 -0.061415 -0.0252832 0.0578205 -0.101975 -0.0426142 
0.0667633 -0.0822268 0.110241 0.0764752 -0.0188205 0.0662324 0.0315031 0.06042 0.0331085 0.00995465 -0.0438552 0.0458106 0.0853388 0.0970155 -0.10712 -0.0579866 0.0281106 -0.0586949 -0.054381 0.0831921 -0.0561956 -0.0859676 0.0119779 0.0257793 -0.047038 -0.0490459 -0.018843 0.0268665 -0.0333816 -0.0313457 0.0681608 0.116257 0.0213352 -0.0606056 0.0107512 0.0886231 -0.0318052 0.022933 -0.0125406 0.00724974 0.0715718 -0.0887697 0.0248015 -0.00192723 -0.0867281 0.0679322 -0.0236787 -0.0846317 0.0332392 0.117459 0.034898 -0.0129632 -0.0624677 -0.0100425 -0.0389891 0.042329 0.0794212 -0.00100333 -0.0568105 0.062476 0.0528471 -0.0622086 -0.0544831 -0.0461664 -0.085519 0.0294005 0.0139826 -0.115603 -0.010849 0.0119784 -0.147786 -0.0320966 0.0302424 -0.00489032 0.0374566 0.016953 -0.0282384 0.186621 -0.0878004 0.0379374 -0.0605709 -0.0373809 0.116638 0.0419606 -0.0200965 -0.00711063 -0.0389675 0.0140689 -0.157337 -0.0668665 -0.0759981 -0.0131707 -0.0673408 0.0748448 0.00907932 -0.138578 
0.122864 0.118518 0.0425899 0.142634 -0.0590724 -0.014386 0.0266148 -0.0251926 -0.0138966 0.113468 0.0507627 -0.0555396 -0.00255964 -0.136535 -0.00836819 0.0636589 -0.0251432 0.0559622 0.113353 -0.0909096 0.0247651 -0.00239942 -0.0860623 -0.01721 -0.0549458 0.0836283 -0.0406733 -0.0156231 0.00448777 -0.0656759 -0.0425371 0.0110127 0.113743 -0.0125896 -0.0505939 0.0689089 0.0266867 -0.100416 0.0892645 0.0047919 -0.0384656 -0.0351567 0.0938363 0.0629391 0.010899 -0.00396792 0.0968879 0.00697186 0.0981128 -0.0225012 -0.0945086 0.0494589 -0.0673972 -0.0257519 0.0243057 0.0493799 -0.0137705 0.0436571 0.0631848 0.0443381 -0.0452748 -0.0765046 0.00531716 -0.06291 -0.0256307 -0.102683 0.0407638 0.0365315 -0.0676959 0.0363049 0.0183228 0.0113493 0.0642962 -0.0756996 0.00410648 -0.0717837 0.00804028 -0.160009 -0.0127423 -0.0259657 -0.112564 0.00343337 -0.0429827 -0.0185575 -0.0439612 0.0594177 0.0368105 -0.0216625 0.0083719 0.0179464 0.0375081 0.00956395 -0.0451979 0.00238221 -0.0138504 0.00592876 
0.0532582 -0.0832092 0.0972699 -0.0542516 -0.0139209 0.0699938 0.0412227 -0.0577358 -0.0397931 0.0706506 0.0107921 -0.0819156 -0.0340811 -0.150865 -0.0630342 0.0838532 -0.0254294 -0.0752517 -0.1089 -0.0423089 0.010432 -0.118508 -0.108941 0.108917 -0.0749616 0.119164 0.00826577 -0.0363602 -0.00819498 -0.0546479 -0.0819111 -0.00218719 -0.0135782 -0.0500423 -0.0292912 2.10339e-05 0.0293649 0.008486 -0.143964 -0.159091 -0.0797659 -0.0263064 -0.0116116 0.013871 0.0441052 -0.0544845 -0.0473033 0.115318 0.00759457 -0.000406027 0.0290987 -0.0790788 -0.0376216 -0.0215818 -0.041078 -0.0134897 0.0914145 0.0354073 0.0973784 0.0812244 0.018077 -0.0118788 -0.0490442 -0.0761909 -0.0801958 -0.0986989 -0.0648519 -0.0883699 -0.111761 -0.0727759 -0.0220476 0.0575956 -0.030206 -0.0173129 -0.12838 0.050318 0.0805491 0.0868431 0.0302022 -0.0450158 -0.0686792 0.111568 -0.0800406 0.0205397 -0.0281467 -0.0967524 -0.0357715 -0.140206 0.0606072 0.0118209 0.0456448 0.0211789 0.0181789 0.0241438 -0.0180785 0.0473591 
0.0625637 -0.103592 -0.047439 -0.00204698 0.0645914 -0.0766623 0.0842512 0.00132589 0.0626299 0.00262615 0.0448938 -0.0798011 -0.0744316 -0.0782586 -0.108605 0.0507068 -0.0842649 0.0642766 0.0208022 0.0589726 -0.00553672 0.113313 -0.000934761 0.0509866 0.0240277 -0.1805 0.00781252 -0.0658079 -0.0190918 -0.101286 -0.00135915 0.100418 0.0702484 -0.0441107 -0.108775 0.065553 0.0720395 0.00669619 -0.0399373 -0.116819 0.0466222 -0.0682614 -0.0598821 0.00134197 0.027998 -0.0272855 -0.0385579 0.00991173 -0.0571817 -0.117702 -0.0167322 0.0105852 -0.0280786 -0.0879567 -0.046036 -0.0574307 0.004515 0.0304027 0.0830266 -0.00742084 -0.0130434 -0.00292846 -0.0282769 -0.0313137 -0.00846516 -0.0623033 0.00527788 0.0226682 0.0226554 0.00826971 0.00353864 0.109956 0.100775 0.046836 0.00411055 -0.00945378 -0.0880636 0.0210358 -0.0403372 -0.0785098 -0.0788004 -0.025322 0.0237231 -0.0304381 0.0336345 0.0520137 -0.017833 0.0808008 -0.0052588 -0.0221341 -0.0610709 0.0259817 0.0914259 0.00728977 0.0389377 0.0269986 
-0.0454719 -0.00311963 0.160523 -0.0740726 -0.00520844 0.0093817 -0.0366101 0.00401933 0.0534776 -0.0711479 -0.00550648 -0.00763157 0.0260001 -0.0313528 -0.0191327 -0.0178022 -0.122171 -0.0135241 -0.0610872 -0.0416298 -0.091358 0.00319192 0.0368474 -0.0403993 0.0616559 -0.0175971 0.0657092 -0.168701 -0.00137802 -0.0849355 0.00386806 -0.0553956 -0.102249 -0.0310872 0.00664065 -0.0646657 0.139852 -0.00979478 -0.0480881 0.0724387 -0.0429294 -0.0282884 0.0202988 -0.0376245 -0.0831631 0.0392534 0.0124096 -0.00315365 -0.048132 -0.0315056 -0.0199535 -0.0286913 -0.107745 -0.0687824 0.0243822 -0.0391601 0.0438375 -0.0690075 0.101181 0.0370208 0.0649899 -0.101565 0.0708251 -0.00324034 -0.00638237 -0.0742061 -0.0496582 -0.0327405 -0.0217674 0.18957 0.0120733 -0.0172573 0.0287632 0.0419994 0.0777686 -0.0340776 0.0194115 -0.102542 0.073194 0.0562757 0.154591 -0.0626169 -0.0319983 0.0680851 0.00657125 -0.014693 0.15905 0.0712298 -0.0793758 0.0615517 -0.00653906 0.0793416 -0.0201822 0.0626352 0.0529013 -0.073734 
0.0897044 0.0718395 0.0679705 0.0535876 0.109243 -0.031963 -0.0319751 0.0188753 0.0452399 0.0443066 -0.0781583 0.0779835 -0.0764211 -0.0811761 -0.0699504 -0.0669593 -0.0391268 -0.0148318 0.024034 0.0431469 -0.0555275 -0.041821 0.0427006 -0.0502234 -0.0535496 0.125625 -0.0231527 -0.02906 -0.0447416 0.0209679 -0.135658 0.0849426 -0.0534281 0.0949326 -0.0225082 0.0577739 0.00121749 0.10092 0.0439781 -0.00620375 0.0105108 0.0355216 -0.0849797 0.0527158 -0.0698269 0.0153169 -0.0480384 0.0494877 -0.0613784 0.0669197 0.082649 -0.051101 0.0175652 -0.106978 -0.0456515 -0.12829 0.0346142 -0.0342535 0.0706413 0.0263919 -0.0346472 0.0361384 -0.0408304 0.0244665 0.00874492 0.00417574 0.0052437 0.0284643 0.0237616 0.0253797 0.00878985 0.0387188 0.048274 -0.00353082 0.0778109 -0.0782893 -0.111039 -0.0741322 -0.0597145 -0.0395544 -0.0581955 -0.0733458 0.0732882 0.0145927 -0.0189425 -0.0166522 0.0791942 0.0784281 -0.0118168 -0.0229805 -0.1473 0.0263737 0.0789542 0.00559321 0.00211984 0.0277109 
-0.0305064 0.0504432 -0.0415182 -0.0569173 0.109257 -0.069522 -0.0145373 0.0256393 0.0357313 -0.0715754 0.0207249 0.12999 -0.0637103 -0.156733 -0.0894205 -0.0729689 0.0222759 -0.0560207 -0.0332353 0.0103538 0.0270112 -0.0465772 0.032051 -0.00833851 -0.0480278 -0.0134535 -0.00100214 -0.0677488 0.00588079 -0.0554836 0.0190937 -0.0369863 0.130801 -0.00445527 -0.00777579 0.0282731 0.0798337 0.0200793 0.0101963 -0.0431812 -0.0987394 -0.0635452 0.0207507 -0.0358118 0.0400333 -0.0407464 -0.0303341 -0.083351 0.01809 0.02497 -0.0475896 -0.0545816 -0.0354456 0.0292106 -0.0346106 -0.0196774 -0.011957 0.0913651 -0.0278601 0.0692998 -0.0253118 0.0693718 0.0884495 0.0372374 0.0649323 -0.0634198 0.0451079 0.0704783 0.0180093 0.013379 -0.0430889 -0.032264 0.0106521 -0.0286356 0.111444 -0.00271159 0.0740264 -0.0805662 0.0366551 0.0067417 -0.101311 -0.118323 0.00991282 0.124581 0.0768479 -0.0632783 0.09286 -0.0294531 0.0654384 0.0567929 -0.031983 0.0480965 -0.102476 -0.134562 0.034074 0.0337913 
0.00418157 -0.0127013 0.0161474 0.108088 0.0424207 0.026051 0.0197867 0.0854429 -0.0353561 -0.0860524 0.146537 0.0453085 -0.00925749 -0.010492 -0.0856418 -0.0640114 -0.00394884 -0.013158 -0.0831875 0.00897961 0.0614856 0.100249 0.0210584 -0.0687974 0.0271923 -0.0200499 0.0514617 0.0156343 -0.0113633 0.0438824 0.0389964 -0.00776099 -0.00682707 0.0818724 0.00667135 0.0362957 -0.0277439 0.0392082 -0.143995 -0.00709077 -0.019391 -0.106004 0.0610197 0.0951781 -0.032729 0.0335026 0.0275405 -0.0560364 0.0697849 -0.0461038 0.0728795 -0.0652516 -0.0746285 -0.0628431 -0.00368959 -0.0614558 -0.0209151 0.0470005 0.105546 -0.0721641 0.0204564 0.0702754 -0.0420969 -0.0274083 0.0713121 -0.0985548 -0.0329195 0.0152013 0.0446151 0.0619552 0.137088 0.0228844 0.0594396 0.107856 0.0606684 -0.0191999 0.0110112 -0.0114851 -0.0352501 -0.0912845 -0.0269229 0.0738879 -0.0467956 -0.00287338 -0.0247128 0.0596197 0.0335859 -0.090257 0.0325818 -0.0608924 0.0492362 0.0256834 -0.0464356 0.0554745 -0.0296969 0.00873058 
0.0400633 0.0441534 0.0501679 -0.0827269 -0.0139355 0.0698153 -0.0316149 0.054447 0.00776046 0.00553156 0.0412857 -0.04499 -0.0206981 -0.103613 0.00656402 -0.0600628 0.0186322 0.0437414 0.0201691 0.0178366 -0.0212429 -0.0156543 0.0216637 0.00454327 0.0270238 0.0443103 -0.0926001 -0.0534773 0.0960495 -0.0670454 0.102943 0.0940221 -0.033595 -0.00206658 -0.0787756 0.0341436 0.134243 0.0274497 0.0405433 -0.00749334 0.0489149 -0.0398227 0.0295961 0.131486 0.0849435 -0.0239261 -0.0313898 -0.0458621 0.0603811 -0.0851439 -0.0564447 -0.0199739 -0.121384 0.0925476 0.00390321 -0.0616725 -0.0306059 0.023445 0.186065 -0.00543084 0.0665654 0.0550791 -0.0535317 -0.0818222 -0.056675 -0.0110145 -0.0476102 0.000963858 0.071475 0.0592152 0.0574657 0.0912537 -0.0763252 0.0246114 0.0298405 -0.142423 0.0901729 0.014732 -0.000146132 0.0593186 0.054587 0.0770946 0.0147245 0.133217 0.0491647 -0.112406 -0.059425 0.0565826 -0.106071 0.000740791 0.0145432 0.0612439 -0.050467 -0.181835 -0.0682202 -0.0586391 
0.0391287 -0.043255 0.0471904 0.0826247 -0.059283 0.0882649 0.0196407 0.16123 0.0506694 -0.001731 -0.119448 0.0232351 -0.0730731 -0.14489 -0.0532677 -0.0276128 -0.018992 0.0909962 0.0338759 0.0209614 0.0631106 0.0831821 -0.0364839 -0.0414955 -0.098207 0.0186567 0.0130103 0.0265646 -0.115012 -0.0227685 -0.0605263 -0.000644659 0.106612 0.018412 -0.127924 0.121241 -0.031456 -0.0250602 0.00755641 -0.0639786 0.0564058 -0.0323873 0.0229284 0.00485144 -0.0756901 -0.0656886 0.0600104 -0.0703715 0.0392567 -0.0198178 0.0396127 -0.0569767 0.0356826 0.0141879 0.0328301 -0.147124 0.0214776 0.0617024 0.00660894 0.0177294 -0.0238189 -0.0802901 -0.0287959 -0.000421194 -0.0413072 -0.0294438 0.0914076 -0.0868585 0.0383741 0.0674747 -0.00611193 0.0614064 -0.134273 -0.00128862 -0.0759232 -0.00610754 -0.0315613 -0.127152 0.0312482 0.0708662 -0.0573466 -0.00161856 -0.0192294 0.0302012 0.0309508 -0.0235876 -0.043497 -0.0340376 0.0190592 -0.0181103 0.024909 -0.0585003 0.0195056 -0.0057372 0.0247365 -0.0894196 
-0.0849624 -0.0295815 -0.0305243 0.052525 0.036081 -0.0518703 -0.0348488 -0.0836776 0.0979868 -0.0171271 0.0568629 0.157258 0.0366986 -0.0859207 0.00782755 0.033455 0.019659 0.0671087 -0.029798 -0.00265189 -0.0884689 0.0566669 0.0557776 -0.0615291 0.126181 -0.0219772 -0.088285 0.0464039 -0.0244709 -0.0794145 0.0326345 -0.0396515 -0.00897889 0.0546519 0.00421624 0.0515283 -0.0489023 0.076635 -0.0221192 0.0211295 0.0139081 -0.0548275 -0.0415698 -0.0590604 -0.077443 -0.0686058 0.115164 0.0160983 -0.0495019 -0.0433785 0.0750142 0.0276964 -0.0628374 -0.152011 -0.0609327 0.0100058 0.101173 0.0119346 -0.0491661 0.06483 -0.0198879 -0.0217205 -0.0369114 0.0029541 0.00290787 -0.0736037 0.0726786 -0.0371627 -0.155336 0.0795657 0.0647488 0.0284234 -0.110317 0.00428532 0.0131613 -0.0191734 -0.0159072 -0.0539764 0.0784902 0.061007 -0.0780411 0.0570371 0.0346444 -0.146281 0.0303963 -0.0549426 0.00416796 0.0292863 -0.0222634 0.00994541 0.0317287 0.0418353 0.0926226 -0.0316941 -0.0436525 -0.035006 
-0.0374484 -0.00462051 0.0536271 0.180511 -0.113365 0.0356074 -0.0689173 0.146156 0.0280608 -0.0685558 -0.0358012 0.112408 -0.117373 -0.0586049 0.0314294 -0.0288757 -0.07931 0.0556056 0.0312371 0.0703151 0.0020634 -0.0340718 0.00908272 -0.0209873 -0.0444803 -0.0917344 0.0497083 -0.081736 -0.024709 0.0539077 -0.0526626 -0.0748944 -0.0446032 0.00322916 -0.00144536 0.0944964 0.0718539 -0.0132164 0.0743889 -0.0292427 0.0494706 -0.010941 0.0252901 0.00964784 0.016097 -0.0427686 -0.0239112 0.103282 -0.0206851 -0.0146887 0.0958864 -0.0482739 -0.0480387 -0.0851801 0.0578834 0.00954576 -0.0861295 -0.0196877 0.177781 -0.0146395 0.00437278 0.0151913 0.00217773 0.0170256 -0.0938286 -0.0521493 -0.0270934 0.0160539 -0.0552434 -0.0829866 0.0127926 -0.0775278 -0.00563412 -0.0289122 0.0265175 -0.00875492 -0.019331 -0.101137 -0.00311113 -0.0374256 0.0299921 0.0128736 -0.0498024 -0.0108962 0.0936683 0.043779 0.0336584 0.0595693 0.07312 0.0530005 -0.0409498 -0.0161397 -0.0077323 -0.0960074 -0.115475 -0.0161121 
-0.0109565 0.0463309 0.0207586 -0.0443055 0.0126701 -0.0798136 0.0372089 0.0265873 0.0745137 0.161078 0.0458405 -0.0692882 -0.0112289 -0.0920461 0.172601 -0.0456847 -0.100943 0.103374 0.02381 0.0192617 0.000890966 0.0138069 -0.100706 0.0164871 0.115232 -0.0661073 -0.0430597 -0.104 0.00678426 0.0747314 -0.0118173 -0.067629 0.0918115 0.060716 0.104345 0.0852767 0.023422 0.0351147 0.0346039 0.0107942 -0.018458 -0.0672065 -0.0127232 -0.076446 0.0119461 0.0650299 0.0544913 -0.0301416 -0.108189 0.0316169 0.0614084 -0.0146874 -0.0643254 -0.0385683 0.107793 -0.00173002 0.0209655 -0.104864 -0.0156584 -0.0594133 -0.0216233 0.0351415 0.0310603 0.0290633 0.00757126 0.0296078 -0.132581 0.0833808 0.030859 -0.0597066 -0.0653828 0.0817655 -0.0364493 0.0870968 -0.0406867 0.0451737 0.0593313 0.0205772 0.0568851 0.0361809 0.0431754 -0.0560791 0.0328743 0.0282349 -0.0525023 -0.045775 0.0553896 -0.0220462 -0.0562512 0.111902 0.0760478 0.00504882 0.00533194 -0.0241026 -0.0594645 0.0580133 
-0.0459224 0.0165777 -0.0827482 0.0179756 0.040678 -0.0745259 -0.0449295 0.0168341 -0.017705 0.0987881 0.079127 -0.0183996 -0.126448 -0.0081609 -0.102598 -0.0332063 0.010386 0.0671771 0.00799943 -0.0446835 -0.101161 0.0251382 0.0290227 -0.0285747 0.15798 0.0915604 0.0169925 -0.0744344 0.0280042 -0.011986 0.0283168 0.095185 0.0247587 -0.035197 0.00365847 0.0224591 -0.0648689 -0.031608 0.0283194 -0.026905 0.0454608 -0.020805 -0.0277088 -0.00769709 -0.00336343 -0.0350899 0.0677634 0.0495316 0.00602009 0.0431805 -0.0239802 0.101314 0.0212509 -0.0363785 -0.0151762 0.149756 -0.0476919 -0.0222563 0.0432432 -0.0455259 0.00695307 -0.0826562 -0.0231849 -0.0620955 0.00969749 -0.122949 -0.0388519 -0.0658366 -0.0646534 0.120288 -0.067262 0.0105534 0.0566427 0.0920125 -0.0399164 -0.00847941 -0.0395802 -0.0736095 -0.0427579 0.00629778 0.0226461 -0.0373465 0.0757402 -0.0273728 0.0290632 0.00797489 -0.119149 -0.0177621 -0.0362304 -0.0304939 -0.0256064 -0.0900726 -0.0760227 0.0464422 -0.0411744 0.0546284 
0.0442629 0.099995 -0.0226258 0.0620632 0.0749556 0.00983185 -0.0386227 -0.00876076 0.0453883 -0.0344195 -0.0053158 -0.0401419 0.0528638 -0.0538966 -0.0244639 0.123499 0.0458246 -0.099453 -0.0287071 -0.00488276 -0.105048 0.0231446 -0.0740966 -0.0426046 0.108288 -0.113693 0.0990754 0.0509745 0.06329 -0.0313043 -0.0885861 0.128994 0.0558388 -0.0500165 0.00327345 0.0304766 0.0189937 0.103972 -0.158257 -0.0448758 0.0732679 -0.0401914 0.0257364 0.0917135 0.0183583 0.014648 -0.0429614 0.112877 0.0433012 -0.00182932 -0.039525 0.0115719 0.0546638 -0.000285721 -0.082217 -0.0858283 0.0467696 -0.0991656 -0.0063536 0.0317598 0.102414 0.0399888 0.047406 0.0702914 0.0741918 -0.0661766 -0.0346675 -0.0219774 -0.0287387 -0.0282343 0.0419302 0.0101038 0.0443131 0.0383471 0.0351675 0.0130502 0.0617046 -0.00435469 0.152284 0.0615339 0.103646 -0.00369191 0.0433105 0.0245934 0.0443538 -0.0664614 0.0833122 0.033747 0.0440174 0.00637357 -0.100299 0.0988612 -0.015198 0.0568549 0.0765637 -0.0536039 
0.0424922 -0.00751223 0.00591827 0.0950671 -0.0384256 -0.0657299 0.0526813 0.0456565 -0.0256638 0.0175989 -0.0215278 0.030488 -0.0365004 0.0136628 -0.0562178 0.0257005 -0.074059 -0.0052137 -0.0371583 -0.0173474 -0.05445 -0.0307245 0.0428665 0.000931049 0.162604 0.00108892 -0.0165392 0.0455575 -0.131896 -0.0869448 0.0579663 -0.0659466 0.0197503 0.0649834 -0.0948739 -0.0779623 0.161705 -0.0686286 -0.128859 0.0104271 -0.0974394 -0.0167659 0.0217949 0.0265648 0.016409 0.0346202 0.126148 0.0846748 0.056969 -0.0247827 -0.0612165 -0.0387803 -0.0280978 -0.010234 0.012357 -0.146345 -0.15571 0.040825 0.117064 0.148127 0.0992184 0.0600709 -0.138434 0.144951 -0.00641064 -0.0279899 -0.0758792 0.108216 0.0219148 -0.0436117 0.0319043 0.0463003 0.0650529 -0.029547 -0.00135357 0.065785 -0.0439056 0.00198749 0.128544 -0.076483 -0.0157168 -0.00279482 -0.0888099 -0.00231937 -0.0364109 -0.0270753 -0.0293806 0.0980889 -0.0046589 -0.0793684 -0.0791626 -0.059663 0.0150425 0.0775765 -0.0473874 -0.0761309 
-0.0374663 0.0424532 -0.0163746 0.0201102 0.0258174 -0.0960766 0.0104591 0.0261713 -0.010789 -0.0437701 -0.00342218 0.00843965 -0.0548932 0.080259 -0.223834 0.0487309 -0.0376618 0.0514851 -0.0540037 0.0119408 0.0348843 -0.141814 -0.0341492 0.0242041 -0.115159 -0.0269147 0.111229 -0.0295792 -0.0691469 0.0898139 0.067963 -0.0120721 0.0597573 -0.0192909 0.0215294 -0.0464399 -0.128987 0.0541579 0.0690375 -0.0971736 0.0537634 0.0163971 -0.0187957 -0.00657689 0.0296249 -0.0303382 0.0379847 0.0102474 -0.0307283 -0.106889 -0.101634 -0.134328 -0.158341 -0.0274036 0.023895 0.0552244 0.0321187 0.0224242 -0.037748 0.0508957 0.0439093 -0.0201271 -0.113413 -0.0921799 -0.0932931 -0.0378031 -0.0376803 -0.0981571 -0.0303315 0.0590089 -0.0518965 0.0491023 -0.0020785 0.0365723 0.0444263 -0.105349 -0.0473213 -0.0294067 0.0209865 -0.035056 -0.0774454 0.0692896 0.067879 0.0574396 0.0112903 -0.0341432 -0.031327 -0.0445124 0.0561547 0.0521265 0.0122831 -0.0138303 0.0472463 -0.0245302 0.0520795 -0.038811 
0.0553134 -0.0130364 -0.036815 -0.0607726 0.0186689 -0.0652001 -0.0403905 0.017773 -0.082218 0.0405775 0.0592723 0.0196041 0.0186995 -0.156066 -0.0386042 0.0864092 -0.00993862 -0.0608787 0.0161061 0.0145715 0.0674592 -0.0915043 0.0924676 -0.0233371 -0.0218348 -0.105609 -0.0959309 -0.0640496 -0.0516409 0.0589324 0.00725663 0.0369126 -0.0188959 -0.0214883 -0.0566087 -0.0318553 -0.0214818 -0.108941 0.00551544 -0.0206183 -0.174664 0.0789656 -0.0571007 -0.0997691 -0.00112668 -0.011417 -0.0261128 0.0061821 0.0588763 -0.0920929 -0.0375473 -0.153426 -0.0600968 0.0232992 -0.0820157 0.0847294 0.0372463 -0.0282044 -0.0882376 0.0495737 -0.0724547 0.0164222 -0.0748966 -0.149592 -0.0430121 0.0035743 -0.0317355 0.0665718 -0.00885603 -0.00844144 0.0780208 -0.0738826 -0.0227907 -0.0214179 -0.0275177 -0.0999337 -0.0145748 -0.0135494 0.104067 0.063677 -0.100401 -0.0853354 -0.0419235 0.00935766 0.132477 -0.0190385 -0.0634488 -0.133206 -0.0128698 -0.0429985 0.0710231 -0.0744478 -0.0665687 -0.0410513 -0.00429645 0.00840425 
0.0382805 0.0774056 0.0221149 -0.0901923 -0.0307656 0.0346272 -0.0956245 -0.0365745 0.00839462 -0.0131187 0.108377 0.0632097 0.0207048 0.00986386 -0.0738988 -0.0561692 -0.0604274 -0.0307866 0.0568073 0.0140987 0.0139577 -0.0208117 -0.0433682 0.0404225 0.0195384 -0.00842224 0.0680151 0.0448677 0.0782987 0.109221 -0.0152851 -0.00534029 0.0462781 -0.0683727 -0.00523407 -0.055006 -0.0501263 -0.108124 -0.0403511 -0.0893909 -0.00890028 -0.0561923 -0.00177555 -0.00165048 -0.000853338 -0.072531 0.047224 -0.039528 -0.130479 0.0473041 -0.00717105 0.0476436 -0.0740586 0.0224486 -0.0669155 -0.0247132 0.0168604 -0.0407784 0.0162493 -0.011478 -0.0254447 -0.00938337 0.0711491 -0.0035567 -0.126067 0.018879 -0.0235809 -0.0313808 0.00173911 0.0237301 -0.0616352 -0.0301536 0.051816 -0.0514919 -0.0375411 -0.0218247 -0.105203 0.10157 -0.0538788 -0.13393 -0.00307757 0.045266 0.0536898 -0.00424809 -0.0742375 -0.000395305 -0.0558259 0.0615276 -0.120399 -0.0384438 0.0212237 0.0168776 -0.00380042 -0.00985702 -0.0433422 -0.000796281 
0.114431 -0.00191038 0.0429685 -0.117488 0.0442628 0.0753893 0.0528423 -0.0420169 -0.0176939 -0.0535681 0.0535708 -0.0385423 0.0338864 -0.0576392 -0.120822 0.0216961 -0.0685139 -0.0750264 -0.0497089 0.0190826 0.0823708 0.0060789 -0.0566289 0.0623419 -0.0194742 0.119628 -0.050328 -0.0851812 0.0791933 -0.0342878 0.0461737 -0.00916841 -0.0308106 -0.0677476 -0.0499277 0.0300371 -0.113809 -0.0145171 -0.0351819 -0.039204 0.0418521 -0.0101218 -0.0431882 -0.0258075 -0.0823397 0.148939 0.0384111 -0.0028458 -0.0259569 -0.015435 0.0136397 -0.113004 -0.0238827 -0.0148248 -0.0757587 -0.00643873 0.0288134 0.0424002 0.16788 0.039132 -0.0174494 0.12125 -0.00757788 0.0587239 -0.0763145 -0.0698859 0.0325682 0.089911 -0.0523323 -0.0207598 0.0158617 0.0209773 -0.0971537 -0.0985356 -0.00791524 0.0865537 0.00373471 -0.101805 -0.0455784 0.0482124 -0.119471 -0.0389858 -0.0703286 0.0700494 -0.0607007 -0.0154271 -0.0113739 -0.14469 0.0529999 0.00472317 0.0040855 0.0841745 0.061458 -0.0654167 -0.0186345 0.0903934 
