[[[[[-0.0260262154,0.0975053608,0.1461450756,-0.0674985051,0.0313294902,-0.0674216524,-0.0290124211,0.0722550973,0.0583647713,0.10041783,0.0634302497,-0.0834441781,-0.0822766274,-0.1214116365,-0.1095654517,-0.109171927,0.1059453413,0.1137022823,0.0731816888,0.0185715016,0.0498697311,-0.0061530471,-0.0682894364,0.0289982222,0.0511751771,-0.0547863841,0.11286401,-0.0741860121,0.0589639917,0.1436972618,-0.0980107486,-0.122640118],[-0.1412893236,-0.0866286233,-0.134164542,0.016457865,0.1235322803,-0.065214999,-0.1106671318,-0.1392131299,0.0311753694,-0.0227942076,-0.0430663973,-0.1119645759,-0.0620793328,0.1295568049,-0.0083895782,0.0802173167,0.043796666,0.0880277604,-0.0954121351,-0.1458191872,0.1194612458,0.1161803976,-0.0730157942,0.1152191684,-0.0135091115,-0.0328037515,-0.1329272091,-0.0754727721,-0.0763073787,0.0813901722,0.0637583882,-0.1032365635],[0.1121552885,0.0230164323,-0.1725738794,0.1162495092,-0.0792946294,0.1125910208,0.0147634642,-0.0550350621,-0.0091296835,0.0371442959,-0.0074092955,-0.0170898922,0.0422193818,0.119968906,-0.0617741942,-0.1007978991,-0.0088696741,-0.0507181026,-0.1632451713,0.148257792,-0.0878150314,-0.0711982995,-0.1377393901,0.0068234573,0.1019945294,-0.1356583685,0.1042441651,0.0407218188,-0.0015998643,0.0923169553,0.117304638,0.0548306257]],[[0.0442532189,-0.1293909103,0.0657855719,-0.1113448888,0.0504585281,-0.0850918368,0.1115222052,0.0483646654,0.0621695183,0.0794250295,0.0723855495,0.0863466635,0.0273302197,0.0451237857,0.042751193,0.1143255606,0.0369358286,-0.0103853168,0.1098043919,-0.043399971,-0.1060372964,-0.0674050376,-0.1263156831,-0.0761361048,-0.0974823982,0.0618961006,0.0911609158,-0.0808506384,-0.0769862607,-0.1227059737,0.0896650404,0.0528313592],[0.0069032577,-0.0905973688,-0.1392240077,0.0274728835,-0.1192844361,0.0027593083,0.1087924242,0.0180249196,0.0912771821,-0.0277023222,-0.0065860162,-0.0360380411,-0.057796821,0.0421781316,-0.1384534985,0.0055148508,0.1132122204,-0.1543222666,-0.0459983684,0.0034977328,-0.0497650802,0.0242041163,0.1299837381,-0.0135249291,0.1253967583,-0.0378987491,0.1143754199,0.0526923575,0.0310060922,-0.0332466289,-0.1477165073,-0.0364657864],[-0.0147539992,0.0930715278,-0.0430461541,0.1005458832,-0.1335308701,-0.0475923382,0.0233259108,-0.1475742459,0.0417886972,-0.0999671593,-0.0561223105,-0.0967834219,0.1605393589,-0.0959341899,0.0746635422,0.0997969285,0.1114455312,-0.1202883944,-0.0784591958,0.1012199521,-0.1160285547,-0.0609966032,0.06619481,-0.108239308,-0.0698002502,0.0326504782,-0.0071700457,-0.0977460444,-0.0260647796,0.1388464868,-0.0071020303,0.0343483798]],[[-0.0507890433,-0.1361657828,0.101029478,-0.0433567129,-0.0381646752,0.0932862312,0.0327456892,0.1364401877,0.0428578109,0.0070297271,0.1164591536,-0.0607688054,0.0924481899,0.1051805243,-0.0716753826,-0.0758839548,-0.0448955856,0.0943531469,-0.0007889243,-0.0221006665,-0.0791385993,-0.0233435519,-0.1200535446,-0.1117335781,-0.1087748334,0.0664609447,-0.1350359768,-0.0520035662,0.1060904562,-0.1237781867,0.0925045013,0.0411284789],[0.0296941902,-0.0816770568,0.013036944,0.0269802883,-0.0505191162,0.0568053536,-0.0522737317,0.0697454959,-0.1490705162,0.0294369161,0.065485999,0.0317551345,0.1162056029,-0.0754224807,0.0743959621,-0.1023861691,-0.0713943914,0.0218004733,0.1048755795,-0.080620043,0.0822362378,-0.0642744452,-0.0091481898,0.0014308305,0.0773333535,-0.1110575497,-0.0546618439,-0.0713303834,-0.0070650252,0.0320510827,0.0304559879,-0.12408299],[-0.0035797539,0.1246856302,-0.0476936139,0.0072193695,0.0878597796,-0.0442102775,0.010801333,-0.1005959287,-0.0005272966,0.0894408673,-0.135409385,0.0359334275,0.1237284839,0.0313448645,0.0623976402,0.0146398507,0.060462676,0.1006254181,-0.175479874,0.1527508497,0.0615560226,-0.0985491797,-0.0738680661,-0.1593830287,-0.0006785201,-0.1406680197,-0.0373196974,-0.0169437137,-0.0627925619,0.1485174149,0.0124647552,-0.0088797631]]],[[[0.0193931051,0.0986952037,0.0087529579,-0.0786626339,0.0565058775,-0.1107175425,0.0883413926,0.111015819,0.0865859017,0.0428199358,0.0116385212,-0.004450765,-0.0165012833,-0.0198606141,-0.0945720002,0.1277814209,-0.1569435745,-0.0333832875,0.0084684342,0.0457483493,-0.0356685594,0.0327889435,0.0602507442,0.0776765868,-0.0421146341,0.1020341739,0.121879451,0.064587377,0.0325521156,0.1014706418,0.030815674,-0.0322682634],[-0.0150400074,0.0930029601,-0.0124418223,0.098372072,-0.0044826036,0.0411739238,-0.0588376187,0.007824582,-0.0279078707,0.0601424091,0.0104321754,0.096584402,-0.1049920544,0.022902051,0.0695334449,0.1114239022,0.0496962816,-0.1272023171,-0.0626284033,-0.0175787006,0.085822463,-0.0535145812,0.1098252758,0.1196020693,0.0197284296,0.1062890142,0.0092890244,-0.0678088665,-0.1067340523,-0.1290181577,-0.1046929806,0.0985938832],[-0.0190975312,-0.030585466,-0.0986782834,0.0421673767,0.1095506176,-0.0092085386,0.094259195,-0.0945052356,-0.180134207,-0.1273926795,-0.1315935552,-0.0485947803,-0.0429475196,0.0715265051,-0.0529330745,-0.1141226739,0.0642712787,-0.1165084913,-0.0236564651,0.1491493881,0.1185067445,0.0198151898,-0.057006292,-0.0962134898,0.1078336537,-0.1112562343,0.1133290976,-0.0792602748,0.0772413611,-0.0591854714,-0.0631795749,-0.0134657957]],[[-0.111602053,0.0844084471,0.0230052546,0.1029957682,0.0111973342,0.0647394434,0.0081936205,0.0271794219,0.0711956173,-0.1242739111,0.0131685408,0.0465541258,0.142095089,-0.1156469136,-0.0142206457,-0.0397408009,0.0951106772,0.1097772941,0.070798941,-0.0055815279,-0.0425438993,-0.1491291672,-0.1085280627,0.0662440732,0.021817226,0.0654015988,-0.0902844518,-0.0053771883,0.0044417172,0.1386252642,0.0280666016,0.0487268567],[-0.1407144517,0.080609493,0.0397823602,0.0783038735,-0.1191188842,-0.1433065832,0.1222210377,0.1317226291,0.1034187376,0.0808570683,0.0021068631,-0.134250477,-0.1113313437,-0.045255255,-0.0586831458,0.0080254497,0.1202568859,-0.1045953035,-0.0997557715,-0.1446773708,0.1274796128,-0.0228160508,0.0931652114,0.1115804613,-0.0013647752,-0.1472042054,0.0515404269,-0.0445630476,-0.0357712582,-0.0172376893,-0.1506692767,0.0545211062],[-0.0920808837,0.0886612162,-0.1705874503,0.0968735069,-0.0296224169,0.0560093634,-0.094126001,-0.1486889869,-0.0817926899,-0.0727634802,-0.1013875455,-0.1160980016,-0.0328191705,0.0293431282,0.147108987,0.1081601009,-0.1212751791,-0.0812061802,-0.1040179357,0.1395741552,-0.1458193213,-0.0365156494,-0.1081724018,-0.1632797122,-0.040798109,0.0510807782,-0.08525718,-0.0037545576,-0.0015197155,0.096064195,0.0026326331,-0.0820988715]],[[-0.0889008716,0.0784417242,0.1278483272,-0.119196482,-0.0849130526,0.0324577056,-0.0987616852,-0.1050007865,0.0980020985,0.0967743471,0.0015095429,-0.0296590663,-0.0792467892,0.0174338426,0.0506877042,-0.117140159,-0.0037141577,0.0151640233,-0.0184238181,-0.0646285564,-0.0819736272,0.0711612403,-0.0316204205,-0.0015962955,-0.0075818999,0.041703362,-0.1279717833,-0.1169764102,0.0662874952,-0.1328410953,0.1024424657,-0.0830684677],[0.0667137802,0.0624054223,0.0115685686,0.0635478497,-0.061866533,0.0260736588,0.0077000111,-0.0783505961,-0.1510090083,0.0303004049,-0.0747842193,0.0132961497,-0.1325120628,-0.089771688,-0.0658627823,0.0781369656,0.0472845957,0.004838503,0.0869070441,-0.032647524,-0.1179720834,0.0133590568,-0.0460002646,0.1213135347,-0.0765207782,0.0834508538,-0.1607802361,-0.0257382542,-0.1408073753,-0.0620907582,-0.0345457084,-0.1055664197],[-0.0875490978,0.0582752153,-0.0358202681,-0.0112597654,-0.0094439099,0.0811036155,-0.1273719817,-0.0376540236,-0.1396388412,0.0420694724,-0.0177277029,0.0730290711,-0.0774297044,-0.0970639288,-0.0014613754,-0.1088986173,-0.0284038596,-0.0030780304,-0.113346681,0.0510312319,0.0145571074,0.0407586321,0.100771673,0.0889375135,0.0428864621,-0.0655079857,0.0489237756,-0.1541652381,-0.1165542826,-0.0080238786,-0.085894987,0.0160540622]]],[[[0.0559881553,-0.0585080422,-0.0612208173,0.0544362776,-0.0242348164,0.124838993,0.0213832837,-0.0335069597,-0.0363874026,0.0677611232,0.0323282108,-0.0284344796,-0.0693841875,0.114280127,0.076759778,0.0069880839,-0.1561771333,0.0493381098,0.0647807792,0.0966247097,0.0997561514,0.0682485849,0.0397083722,-0.0422920287,0.1031368449,-0.1000087112,0.0712118223,0.1463271379,0.0543048456,-0.0169065688,0.1166685745,-0.0660833865],[0.0647233799,-0.0074772593,-0.0670232996,-0.0955386832,-0.1322245747,0.00527371,-0.0996828377,0.1194482371,0.0660793483,0.0193609912,0.059529908,0.0751296058,-0.0484491885,0.0215295739,-0.0103608537,0.0860398114,-0.0952148885,-0.0210281741,0.0090986723,0.0197182316,0.0537288412,0.0877814963,-0.0507355705,0.1145887077,-0.1203911453,-0.0900776461,-0.1438214779,0.0751847252,0.0883838013,-0.0247365311,-0.0884458795,-0.0659786388],[-0.1094671637,0.009495751,-0.0579961464,-0.1383122504,0.0994553715,0.1020457745,0.0302902795,-0.0808529258,-0.1249985769,-0.0568729527,-0.1543226391,0.1093289405,0.1148996651,0.0214118659,0.0062819291,-0.0304952841,-0.0857962817,0.0301104281,0.0146143213,0.0487304591,0.0931339711,0.0862307996,-0.1164482087,-0.064164333,0.0621867292,-0.1437032521,0.1185452342,-0.166958943,-0.1057554483,-0.0602098666,0.0248897634,0.08385434]],[[0.1168133393,0.0837293416,0.0562146381,-0.1639138013,0.0510616712,0.0120330453,-0.1047042236,-0.0976779386,0.0686400235,-0.0262791365,0.0940398723,0.0706657097,-0.069820866,0.0720429718,0.1276592761,-0.0739937425,-0.1148619056,0.0275784899,-0.1269319057,-0.0603784248,-0.1235481799,-0.016986588,0.0642300993,-0.0527054071,0.0216949247,0.1105956733,-0.0376508683,0.1435857862,0.1051019207,-0.0545502193,0.0115446337,0.0660906658],[-0.009380158,-0.068302609,-0.064627558,0.0285122115,-0.0770688653,-0.0969066992,-0.0014513604,-0.0308097228,-0.0859132558,-0.0202404205,0.1133266091,-0.0151746962,-0.0668422878,-0.1196870357,-0.0958764479,-0.1134591997,-0.0405322015,-0.1222465411,0.0903052241,0.0519867614,0.116856128,0.1483300328,0.109540835,0.0557165071,-0.0728931651,0.0339761302,0.0076943855,-0.1104881465,0.0109209139,-0.0966981649,-0.1103748605,0.102146171],[0.0794471502,0.1154652163,-0.0999709442,0.0496598631,-0.1410140097,0.0964816064,0.1236532852,-0.0927861705,-0.1839399785,0.0152577171,0.0226022955,-0.1084930524,-0.0585450493,-0.0005402056,0.0627517551,0.0160812326,-0.0239957869,0.0526225008,0.0524266697,0.0590279661,-0.0523180366,0.117090933,0.0750828609,-0.1560206413,-0.0327854268,0.0299154688,-0.1004938334,-0.0763776898,-0.133279413,0.1413778365,0.0000453262,0.1122463122]],[[-0.1038908362,-0.0908339247,0.0027320855,0.0604342222,-0.0420965739,-0.0419522412,0.1003477797,-0.0449250564,-0.0671307221,-0.1453373134,-0.0284403898,-0.0052612969,-0.1031728685,-0.0836308748,-0.140096575,-0.1201740876,-0.1258870959,-0.0604785122,0.0703791901,-0.116082944,0.0062295888,-0.1167646796,-0.0074088513,-0.1377071738,-0.0964622274,0.1189426258,-0.0238223281,0.1261185706,0.1309782416,-0.0150805404,0.0067879185,0.1102273613],[-0.0434823036,-0.1261385977,-0.0748153701,0.1269718409,-0.1521026194,-0.1140274778,0.048579026,0.0302534588,-0.1596002281,0.0695994571,-0.0770232603,0.1475595534,0.0086333882,0.1143083349,0.1411101073,-0.0784768015,0.1011899933,-0.0812841281,-0.1270564795,-0.0605792589,-0.0484896861,0.0156376865,0.1574062109,0.1137798727,-0.0628759414,-0.078197211,0.0608648881,-0.0209985003,-0.0619182475,-0.1150452271,0.0097767115,0.0725606009],[0.0725215822,-0.111821495,0.0464656614,0.0876916945,0.0387016945,-0.0964814797,-0.0562528297,0.0076517793,-0.1946304739,-0.0359959118,-0.0601240881,0.1396540105,0.1213012934,-0.0145029891,0.1681536287,0.1256915629,0.0071720243,-0.010321714,-0.0150435939,-0.0202876497,-0.1301467568,-0.1265683025,-0.0780499652,0.0225206558,0.0193637274,0.044834096,0.1273879707,0.0763031319,0.0987141877,-0.0030923989,0.055079028,0.1473927796]]]],[0.0890385136,0.005564122,-0.0133826109,-0.0080112042,0.0565203838,0.0335991532,-0.089095749,-0.0254294686,-0.0333180726,-0.0587491132,-0.066985935,-0.0305224918,0.0653716475,-0.0364909768,0.0397997238,0.0862631276,0.0477657057,-0.0029873394,-0.0250859261,0.0371653773,0.0435486212,0.0230563693,0.0239578355,-0.0093081435,0.0604882315,-0.0635609925,0.0376180969,0.0288036987,-0.0601091795,0.0348366983,-0.0134233553,-0.0548433363],[[[[0.1159076989,0.0400622487,0.0485678986,0.0127486959,0.0519818664,0.0827471912,0.029777931,0.078968361,-0.0078894477,0.0982519016,0.0823082253,0.079169251,-0.1016093865,0.0236988626,-0.0217142291,-0.0453476049,-0.0813950822,-0.0251712352,0.055064261,-0.0572554506,-0.0370697491,0.0877607763,-0.0160559434,0.0992615297,0.0148187615,-0.0128056509,0.0783857554,-0.0194350146,0.0102816811,0.0612920001,-0.0741867349,0.0759682283,-0.0158415306,-0.049970448,-0.1053981036,-0.0875781402,-0.0413972326,-0.0740650818,0.0128620677,0.0408145823,-0.0296162907,0.1161411181,-0.0111562796,0.0714073703,0.0478887744,-0.0298117157,0.0462315753,-0.0534279905,-0.0618708655,-0.0670360327,0.0884720534,0.0119969919,-0.0293821041,-0.0027507499,-0.0705326498,0.023150377,0.1068358123,-0.0909687355,-0.0374150164,-0.061114125,0.0057860967,-0.0679121986,0.0438284352,-0.0185403693],[0.0429984443,0.0262571294,0.0571083277,-0.1025554836,0.0476163849,-0.0760638267,0.0284304824,0.0800703093,0.0109005533,0.0165734906,0.0434182398,0.015782699,-0.0755123496,-0.106444329,-0.0070663546,-0.00477261,0.0205907691,0.0756305456,0.0242531952,0.0593533143,-0.0192330088,-0.0370281711,0.0683671385,0.018232774,0.0120817283,-0.0310779344,0.0721635669,-0.0782549828,0.057856936,-0.0590460934,0.0507991575,0.0207447149,-0.034017656,-0.0682459027,0.0236459654,0.0634127855,-0.0384355597,-0.0277894586,0.0474220328,0.0770531818,0.0274851937,-0.0308024064,0.0032081765,-0.0621324591,0.0601049252,0.0460259914,0.0663930401,-0.0048108171,0.028449595,-0.069854781,-0.0419299677,-0.08060202,-0.0464775711,0.0601367727,-0.0056052189,0.0338534079,-0.0445424952,-0.0053385873,-0.0844679698,-0.0347064994,0.0595258847,-0.0670743212,0.074607864,-0.0029573971],[0.0461756065,-0.0238584001,-0.0456955582,-0.0597880967,0.0182099603,0.0492303073,0.0067450283,-0.0392540731,-0.0421868041,0.0500087477,0.0013540387,-0.0028569445,0.0026022627,0.0609433651,-0.0709360763,0.0871981755,0.0415279008,-0.1013337001,0.009411742,0.0224198848,-0.0393755175,-0.0345301814,-0.0484216921,0.0236946493,0.0137885679,0.0975910798,0.0133963395,-0.001873613,-0.0052600708,0.0194760226,0.0693098828,-0.0037220651,-0.0647367388,0.0140721295,-0.0516737886,0.0859626085,0.0096066408,0.0393063538,0.1442999244,0.0342188515,0.0037559639,-0.0148792276,-0.0460408255,0.095852226,-0.0456687398,0.0419201888,0.0851974711,0.0042995168,0.002200437,-0.0104052033,-0.0233203396,0.0010305084,0.0348997265,-0.0501382388,-0.0473424047,0.1194995269,0.0469435304,-0.0087382207,-0.0058558639,0.0740508437,-0.0115090068,-0.0013452573,0.0682764426,-0.0382606052],[0.0537075102,0.0317985639,-0.0847690329,-0.0570226535,0.0373408832,-0.0087306965,-0.0128352847,-0.056540858,0.0581209734,0.0363417454,0.0471751988,0.0033791931,-0.0519320555,-0.0394078568,-0.0049664653,0.0028677816,0.036186371,0.0616243184,0.0509868115,0.0231345277,-0.0099670598,-0.0698347464,-0.0339223035,-0.0939182788,-0.0036730403,0.0144945905,0.0226473585,-0.0078406241,0.0241143927,0.0834124833,0.0078084636,0.0335037932,-0.0256978609,-0.0757741481,0.031258896,0.0311159622,-0.0545072518,-0.0144879781,-0.0473001897,-0.0989749655,0.0662022233,-0.0047094384,-0.0640403479,0.0941617414,0.033060886,-0.0415215455,0.023988802,0.0108523751,0.0114098741,0.0861942172,-0.0440823473,0.0730376467,-0.0262961984,0.0750278607,-0.041612044,0.0039022556,0.0108999889,0.0013177375,0.069222942,0.0521722957,-0.0145307668,-0.0540149137,0.0160221923,0.0612522513],[0.0864245743,0.0501121096,0.0472043864,-0.0515869893,0.0091930935,0.0521407984,-0.0092447167,-0.030473968,-0.0405537412,0.0251685865,0.1412629932,-0.0101810358,0.0605401695,0.0525611453,0.0316257216,0.041135855,-0.0375398137,0.0189091004,-0.0404910706,-0.0515427999,-0.0016215341,-0.0252392776,-0.0762650222,0.1519947648,-0.0271239188,0.0158352256,0.0240739938,-0.1038322225,-0.032632865,-0.0395780541,0.0562913083,0.040336173,-0.0271948483,-0.0361469425,-0.0909913853,0.0484435372,0.0658750162,0.0457943976,-0.0040555131,-0.0373870358,-0.0687764809,0.1100040749,0.0037221489,0.0446560532,0.009675825,0.1119613424,0.035994079,-0.0822748691,-0.0360699221,-0.0165808946,0.0311285984,-0.0455805846,0.0784587264,0.0319900662,0.0521089919,-0.0101064276,-0.0574074909,-0.0071053077,0.08403451,-0.0433818661,0.1003578231,-0.065172039,0.0709067732,0.0821935162],[0.0725519583,0.0359655544,-0.0127289481,0.0217420068,0.0295828804,-0.0422709696,0.0455533192,0.0595467053,0.0114302048,-0.0709185451,0.0946962014,0.0274591465,0.021173181,-0.0726459622,0.0835900009,0.0262311772,0.082930401,0.1253526062,0.0830757469,-0.0758320093,-0.0205930043,0.0438349023,0.0202159546,0.0644539744,-0.0421827286,0.0950152576,0.0036811463,-0.0770852044,-0.0046705017,-0.0522873998,0.0255410485,0.0233608056,0.0478115231,-0.0410648845,0.0069944724,-0.0058148,-0.0577142127,-0.0160853323,-0.0267059132,-0.0344903283,-0.0324081443,0.074702166,-0.0635233074,0.0287557617,0.0128656616,-0.0334297046,-0.0204728451,-0.0402091853,-0.015801182,0.0759814754,-0.0160084497,0.0832288638,-0.052719079,0.0457152538,0.0225033239,0.0378799625,-0.0037369989,0.0827536508,-0.1101306826,-0.0974377319,0.0105710393,0.0531022958,0.0909575224,-0.0330980122],[-0.0120911673,0.0205718577,-0.0500507466,-0.0160536077,-0.0544283167,0.169850871,0.107173264,0.0584398508,-0.0635407194,0.0750105157,0.014012075,0.0014136008,-0.039923165,0.0229852069,0.040839605,0.0637001991,-0.0699547455,0.0505023599,0.0902987123,0.036593426,0.0174787194,-0.0218829811,0.0430724397,-0.1040157527,0.0119131086,0.0826882571,-0.0476451516,0.0642522126,0.0764148235,0.0681796744,0.0672941506,-0.1003711745,0.0493416302,0.002333865,0.0244368594,0.0275116973,-0.1090109348,0.071556434,0.0874100327,0.0431855544,0.0017553151,0.0137595832,0.0465657115,-0.0055847648,0.0120590776,-0.0550490096,-0.0745150521,0.00315795,0.0132384086,-0.0083565507,0.0980243608,0.0761077106,0.0723943785,0.0372905582,-0.06507276,0.0833134726,0.0511860736,-0.0236593615,0.0198392775,0.0311654452,-0.044204995,-0.030045623,-0.0328575969,0.0169881117],[-0.0058937585,0.0067140469,0.0539428517,0.0943988189,-0.0519579053,0.038492009,-0.0191287827,0.0110872947,0.0725185126,-0.0655031651,-0.0116228033,-0.031920433,-0.0795366541,-0.0183183458,0.0084470017,0.0139202876,0.0322237909,-0.0391080491,-0.1042476818,0.1770836264,0.02727497,-0.0615643822,0.0422740541,0.0097472202,-0.0094098086,0.0084804706,0.0607333258,-0.0156592112,0.073702164,0.0332735553,0.0042859348,0.0944485813,-0.0769946352,-0.0161105804,-0.0833279639,0.1059125513,-0.0471541807,-0.0733978674,0.1137496606,0.0646033287,0.1023379937,0.0740002692,0.0029522902,0.021148432,0.0104402611,-0.0411628783,-0.0096023185,0.0208723117,0.0210767705,-0.0980719849,0.0318507589,0.0533832274,-0.0573410839,-0.0544776693,0.026658345,0.0466266982,-0.0567058735,-0.0937213004,0.0797334462,0.0963460505,0.0490950868,-0.0149553996,0.0153738661,0.1014571339],[-0.0534340665,0.0268912613,-0.0346114077,-0.0612982363,0.0731163174,-0.0085412432,0.0292689931,0.0392750278,0.0507441722,0.080745697,0.0589625835,0.0638709515,-0.0609322973,0.0598905943,-0.0783629045,-0.0618401393,-0.0604592115,0.0099558569,-0.0103773987,-0.0349119641,-0.0030122609,-0.0483496785,-0.0358245969,0.0989985242,0.1112137884,0.069343701,0.0137358485,0.0027961596,-0.0371502861,0.0201665852,0.0795501694,0.0105644278,-0.082195513,0.0272457004,0.0204483066,0.0150897698,0.0655846894,0.0460453108,0.0597695671,0.0880876109,0.0436075926,-0.0276144799,0.0503050499,0.0764691383,-0.0949226394,-0.0514850579,-0.0487817302,-0.0410848409,-0.0026827182,-0.0182118695,0.0793936998,0.0672758967,0.0223310273,0.008152537,-0.04290656,0.0302651934,0.0825853571,-0.0637407228,0.1102747917,0.0952317789,-0.0175526086,0.1099717468,-0.044364579,0.045877628],[-0.0397746526,-0.0351392515,0.0340248831,0.0445587225,0.0086128181,0.0038806295,0.0685982257,0.0699736401,0.0079470072,-0.040086247,-0.0594916753,0.012922748,0.051900018,0.0259546842,-0.0209397767,-0.064134419,0.032074701,-0.0853700563,0.0195335913,-0.0341027044,-0.0542737953,-0.018966889,0.01230489,-0.0883745104,-0.0069242464,0.0612565614,-0.052366361,0.0497662276,0.0044041104,0.0455473773,-0.0640517846,-0.0674163103,-0.0486084819,-0.005005463,-0.0287923068,0.0793963149,0.0385746025,0.0221468825,0.0303483028,-0.0360243805,0.0165323932,0.0454880446,0.03005483,0.0151913054,0.076772429,-0.0620548911,-0.091299735,-0.0053383806,0.0358365104,-0.0173896439,-0.0071193567,-0.0327933021,0.0680576339,-0.0602809824,-0.0515878722,0.082514517,-0.098692812,-0.0983804837,-0.0366346836,0.0380226523,0.0253492072,0.0553131066,0.0760974586,-0.0524358414],[-0.0314692259,0.0781086534,0.0704386532,-0.0490256399,0.083370775,-0.0275766663,-0.0423830859,0.0725948736,-0.057533104,0.0616105795,0.0329006128,-0.0817617327,-0.0756883696,-0.0749637336,-0.1101190671,-0.0178242419,-0.0054575824,-0.0395336971,-0.0538136028,0.0114250388,0.0306596085,-0.057521306,-0.082570076,-0.0949948058,0.050091479,-0.0379311144,-0.0187105741,0.1037752256,0.021422239,-0.0084515829,-0.0083326297,0.0120451571,0.0526789315,0.0527898893,-0.0821135119,0.0480166152,-0.0194704048,0.0681323931,-0.0247690864,-0.0864948109,-0.004573904,-0.006726481,-0.0580280684,-0.0328897424,0.042365279,-0.0245461967,-0.0282651521,0.0569599457,-0.061734017,-0.039996542,0.0414693877,-0.0072602984,-0.0591646731,0.050902158,-0.0079403026,0.0800822452,0.0140841641,-0.0761980042,0.0744215995,0.0988379791,0.0272903908,-0.0057420358,0.0736324936,0.0538134463],[-0.0305073857,-0.0221023969,-0.0609799623,0.0520566814,0.0765752196,0.0830840096,0.0720243528,0.0303168986,-0.0680879876,0.0289930571,0.0327737257,0.0127656581,0.0055162366,0.001368429,0.0101369219,0.0602777153,0.0716837272,-0.0672982186,0.0052720872,0.0462240204,-0.043322593,-0.1040455773,-0.0138339484,0.043837361,0.0703667849,0.1494264305,-0.0085944952,0.0865514353,0.0203315541,0.0458210073,-0.0015817652,-0.0368051864,-0.0394073278,-0.0090340199,-0.0040790881,-0.0021446375,-0.0332120471,0.1123152599,-0.035681881,0.0403451435,0.0210818872,-0.0783606321,0.0555279516,0.0160178933,0.0030829594,-0.0370152555,-0.0109448265,0.0015068185,0.0443370305,0.0316497013,0.0087302634,-0.0755934268,0.0277120192,0.0386442728,0.0502749793,0.0268422663,0.028025642,0.0581007637,0.0107705798,-0.0449239127,-0.0984966978,-0.0064964769,0.0478530712,0.0825413093],[0.0475856848,0.038536299,0.0362381451,0.0365723632,0.061043635,0.0996964201,0.1031737104,0.1136951521,-0.0708854571,0.0549198166,0.0395059399,-0.0522676483,0.0179891139,-0.0657640472,0.0044434546,0.0299708247,0.0194252115,0.0288219526,-0.0138612036,0.0197063144,-0.034534432,0.0207168516,-0.0442348383,0.1162125245,0.0774116665,0.052378267,0.0204265639,-0.0624569133,0.0266876537,-0.0507853776,-0.01165679,0.014560285,0.0200200006,-0.0406363755,-0.014249444,-0.0304601211,-0.0412470363,-0.0143985106,0.0514145754,0.130430311,-0.1176727414,-0.0114772553,0.0001268738,-0.048728127,-0.0508320183,0.0006347706,0.0368291102,-0.0992430151,-0.0734256133,-0.066500552,0.0596855432,-0.0065385229,-0.0299272444,0.0212849155,0.0252126548,0.015384513,0.0291120727,0.0118107786,-0.0363791995,-0.0815111101,0.0864735916,-0.0490496382,0.012925148,-0.0086063091],[0.1158072725,-0.0877812952,0.0286427364,-0.0036124804,-0.021305779,-0.0450372435,0.0513425693,0.0424545631,-0.0447421893,0.0578402989,0.0755247846,-0.0100905728,-0.0796958208,-0.0117912013,0.0160709955,0.0306180548,0.0827761292,-0.0196039453,0.0732146949,0.0091015324,-0.0464088507,-0.0081409877,-0.0627213493,0.0581833199,0.0926502496,-0.0719027147,0.0244728848,0.0483761169,-0.0687403157,0.0010700588,-0.0277662259,0.0070506074,-0.0702525601,0.023805324,0.0818036869,0.0025592395,0.0509266853,-0.0179786999,0.0325779133,-0.0331264362,-0.0556693263,-0.0111839734,-0.0113005042,0.0969555005,-0.0437413082,0.0610575862,0.0854817629,-0.0745831132,0.0503297001,-0.0055412836,0.0107452068,0.0191661399,0.084762536,-0.0306395404,-0.0801839456,0.0619862713,-0.0704525709,0.0192235187,-0.0216583814,-0.0512300655,0.0081969183,0.0414102264,0.0219935067,-0.0623089857],[-0.0522577204,0.1001805216,-0.068442598,0.0026774514,0.0091699781,0.0465509668,0.049089849,-0.0188167058,-0.043043308,0.0419425964,0.0120219579,-0.0632345155,0.0424469151,-0.049253501,0.0396764092,-0.0596861467,-0.0545079,0.0880813971,-0.0832836553,-0.0923780277,0.0470304005,0.0169843938,-0.0645165965,-0.0523469448,-0.0771950707,0.0182602014,0.1413450837,0.0282707196,0.0364472009,0.048292987,0.0787549242,-0.0454950556,0.0339062773,-0.0760927498,-0.0599282719,-0.0730923712,0.009952575,0.0143228509,-0.0459133051,-0.002387871,0.066180639,0.0456095599,-0.0748206675,0.1068457365,0.0489132553,-0.0942299142,0.0843668953,-0.0571840368,0.0412172452,0.1125069335,0.0206086673,-0.0577098578,-0.0081331115,0.0486615449,0.0585571155,-0.0127313985,-0.0534043834,0.0084075332,-0.0398866124,-0.0845512748,-0.0121477386,-0.045587223,-0.0290580243,-0.0426643975],[0.0898554251,-0.0367371254,-0.0095630502,0.090898037,-0.036349535,-0.1108033881,0.0057498575,-0.0053481199,-0.0637502894,0.0181548651,0.0670943707,0.0494765975,-0.0123857316,0.0075090611,0.0724838376,-0.0757848546,-0.0954774767,-0.0543740578,-0.0201700926,0.0438797958,-0.028740678,0.0384075046,0.025422696,0.1167119741,0.112263836,-0.0352247171,-0.0621729903,0.0512359366,0.0554583147,0.0636364743,-0.0975751877,0.1186714396,-0.0596549027,-0.0657258555,-0.0828309879,0.0387573466,0.0433270559,-0.0865734965,-0.0034098658,0.0992434472,-0.054949373,-0.0320774466,0.0776327103,-0.0278434101,-0.0096920654,0.0131495008,0.0094224997,-0.0833453834,-0.0261647534,-0.0487278029,0.0818072781,-0.0942940414,0.0334007628,0.0557300933,-0.0424763002,-0.0664827302,-0.0189194512,-0.1014515758,-0.0944609195,-0.0444662012,0.0885519832,-0.0020592054,-0.032536868,-0.0539524183],[0.0068849986,0.0530710444,0.0462789237,-0.0229341537,-0.0034629025,-0.0046428181,0.1184657738,0.115966849,0.049495291,0.056716539,0.0716212541,0.1265014112,-0.0993081331,0.0118803335,0.0099444101,-0.0343884341,-0.005685315,0.123010695,0.0620351918,-0.0105028413,0.0276953802,-0.0062118252,0.0189898796,-0.0662837997,-0.0005325823,-0.0313213803,-0.0242678933,-0.0426858142,0.1220981106,-0.0177785307,-0.0284917653,0.0208825283,0.1016749516,-0.0639910251,0.0868189707,0.0301262159,-0.0127115976,0.0359975919,-0.0717544556,-0.0135960011,0.0231937524,-0.0232684817,0.1286529154,0.0275936127,-0.0330817923,-0.016949093,-0.0608709902,-0.067984581,-0.0504845828,0.0273854211,0.032716345,-0.0690956637,0.0681845993,0.0066050119,-0.0609880798,-0.0596455671,0.0097333267,-0.0978686213,-0.0799658224,-0.0658310279,0.0213341862,-0.0537578836,-0.0602200329,0.0071965237],[0.0715070516,0.0615575537,-0.0454730988,-0.057744693,0.0643654391,-0.0058507649,-0.0427540392,-0.0009995248,-0.0233682264,0.0808432549,0.0005079082,-0.0126537755,0.0114887562,-0.0499434732,-0.0306725055,-0.0464399531,-0.0875805691,0.0026544547,0.1205472574,0.0304753836,-0.0882246047,0.0764140412,-0.0762070119,0.0619569272,0.0370842777,0.0784530863,-0.0443366803,-0.095818609,0.0400027148,-0.0141912578,0.0459346212,-0.0221328046,-0.0641055778,-0.0156006953,-0.0380568653,-0.0106069725,0.0554419868,0.0050919699,0.1072020009,0.1199379861,0.0601576567,0.100467056,0.0461503416,0.1046856567,0.0132338349,0.0194891691,0.0701095536,-0.058406204,-0.0728514642,-0.0661909133,-0.0148869175,0.0329670385,0.0315158553,-0.0191824585,-0.0828825086,0.0742104053,0.0300863571,0.044691842,0.0137413535,-0.0565237068,0.0640498251,0.0840659067,0.0105764996,0.0736441016],[0.0255364552,-0.0288402867,0.0670409724,-0.0463690609,0.0513433591,0.1038422361,0.063159503,-0.0191641971,0.0838905424,0.0105433799,-0.0449270345,0.0795526132,0.0563434996,0.0152264945,-0.0444631912,-0.0015559378,0.0075419554,0.0265426189,0.073408328,0.0957569852,-0.0149355698,-0.0758401826,0.0696704909,-0.0422490276,0.0392787829,0.1242138073,-0.0574504025,-0.0205636285,-0.0723883137,-0.0576465093,0.1041895375,0.0334281549,-0.0497482345,0.041627463,-0.0449213497,0.014545463,-0.0420771353,0.0119229592,0.1044639945,0.0284225289,-0.0035999883,0.0038974429,0.0236276034,0.050079979,-0.0801276788,-0.0466225408,-0.0077588009,-0.0350975096,-0.0434858538,-0.0096021043,-0.0026831701,0.050679829,0.0642597377,0.0421669148,0.0314821005,-0.0044781039,0.0192159601,0.0338988081,0.0891138539,0.0388068296,-0.0100416299,-0.0020934078,0.0179756079,-0.0166398119],[-0.001103909,0.0289269239,-0.07580176,-0.1224042326,0.0571249537,-0.0175185818,0.1104189903,-0.0301503185,-0.0585551448,0.0911016464,-0.0238777772,0.0455151275,0.0618278868,-0.0176948663,0.0458321944,-0.0774954408,-0.0349523313,0.0650081262,-0.0417778566,-0.1132492051,-0.0499579646,0.1022960842,0.0386243947,0.066092059,0.0163217224,-0.0057045855,0.0206389651,0.0131380223,-0.0694547594,-0.0469325706,-0.0498092957,0.061391402,-0.0192108676,-0.0386746563,0.0188831333,-0.022769032,-0.0217329208,-0.0033284454,-0.1186187491,0.0846963376,-0.0875313058,-0.0290583968,0.0341530368,0.0411621667,-0.0491205901,0.1087804437,0.0783818662,-0.0438444465,-0.0158149023,0.0252128914,0.0117996233,-0.0619662553,-0.0782742947,0.1040930226,0.0849597752,-0.0260052159,0.0267187376,-0.0804041028,0.0289938338,-0.043683812,0.0014933194,0.072843425,0.0990464911,-0.062344905],[0.1206141487,-0.0070354366,0.0798886269,-0.0493884906,-0.0521936119,0.0245879013,0.1137042046,-0.0716220662,0.0128188338,0.1128269136,0.0478520058,0.0816402808,-0.0639383048,0.06027814,0.1067956835,-0.0314151123,-0.0920632556,-0.0221683308,-0.0419845805,0.0406668,0.0037084264,0.0851181448,0.0438003466,-0.0203432199,0.0070570535,0.0610995069,0.046492897,0.0040964205,0.0252602343,0.0198780522,-0.0356720462,0.1025664955,-0.0390616171,-0.0083087711,-0.0961819291,-0.0337142199,0.0191203561,-0.092922397,0.061280746,0.0548902377,-0.0546875,-0.0131261097,0.0926771536,-0.0384022668,0.0407092012,0.023594588,-0.0612004213,0.0633388981,-0.0331246555,0.0794855133,0.0530609153,0.0281797145,0.075834401,0.0778354332,-0.0105033945,-0.0643712655,0.0241749045,-0.108014904,-0.0047880365,0.02680034,-0.0638632104,0.092893675,0.062830165,-0.0158198271],[-0.0026908915,-0.0347587541,-0.0264545437,0.0605756193,-0.0747802705,0.0085175065,0.0596165992,-0.0881930143,-0.0759747326,-0.0236028694,-0.0110417148,0.0501178913,-0.0476533957,-0.050792966,0.0677697957,0.0200279076,-0.0265871435,0.0383232199,-0.012951686,-0.0409987532,-0.0313501954,0.0275406893,-0.008079065,0.014081452,0.0725408196,-0.0500790253,0.0068430952,0.0089202058,0.0657334849,0.0762473717,-0.0673873723,0.026628986,0.0709614307,0.0418822914,-0.028409509,0.0326992273,-0.079580538,-0.0168311652,0.0171278249,-0.0412748754,-0.026531253,-0.0796830952,0.0048168488,0.0565683469,0.0478723794,-0.0153712258,-0.0437714234,0.0472257771,-0.0344924107,0.0894940868,-0.0374211892,-0.0591210909,0.0576492548,-0.0090896031,0.0287692379,-0.0276964344,-0.051002346,-0.0318045355,0.0069820741,-0.0485939756,-0.059490554,0.0843227953,0.1176258102,0.0897594467],[0.0488689207,-0.0597997531,0.0811393037,0.1044659317,0.0591396168,-0.0078171715,0.0179463048,-0.0174641758,0.0087675601,0.0913179368,0.0510595851,-0.0110190632,-0.0086442772,-0.0230094418,0.1071544215,-0.1047079638,0.0145064546,0.0449117385,-0.0438936502,-0.0231237467,-0.0431861579,-0.0666440651,0.0377103016,0.0207553077,0.0172327608,-0.0126401642,-0.0363385901,0.1006421819,-0.0252406914,-0.0690176859,0.0768368319,0.0169129707,-0.0327658281,-0.0733349398,-0.1094741747,-0.0680453703,-0.0345268771,-0.0333034247,0.094576776,-0.0409089662,-0.0493217371,-0.0144877871,0.122121349,-0.0776300505,0.0202106386,-0.0547485501,-0.018373929,0.06623514,0.0734672993,0.0836276338,0.1193102077,-0.0927353799,0.0952824131,0.0705074072,-0.0855425447,-0.097010985,0.0119297858,0.0031206857,0.0107745491,-0.0445301048,-0.0420177951,0.0720124692,0.0627778098,-0.0093169855],[0.1260790378,-0.0026020412,0.0925858989,0.019488696,-0.0139378496,-0.0134845432,-0.0705581084,-0.008380603,-0.017952431,-0.0674422681,-0.0067499569,0.0702073053,-0.0071918974,-0.0505519919,-0.032690011,0.0154195931,-0.0275841765,-0.0357944183,-0.1525406986,0.0159996487,0.0905005932,-0.0417724513,0.0845214128,-0.014952438,0.0097123012,0.1150242761,0.0550561324,0.1461050808,-0.036917787,0.0217624251,0.0512038954,0.1009919867,0.0024332199,0.0175212119,0.0208060984,0.0925650224,-0.0061127516,-0.0665774569,0.0177490637,-0.0880740061,0.0386382975,-0.1463469416,0.0958805755,0.0244912449,0.0306901447,-0.0107316636,-0.0904139951,0.1049306318,-0.0195382815,-0.0881900042,0.0918818638,0.071621798,0.0467346422,0.0295726005,-0.0936067849,-0.0906033292,0.1063990071,0.0319428854,-0.0402141102,0.0109306667,-0.0937481299,0.0653854385,-0.0732412785,0.0750674531],[-0.0010941233,0.0203089751,-0.0757743716,0.0355396084,-0.0484699793,0.0222392399,0.1187660396,-0.0318379328,0.0186723545,-0.0142532624,0.0358950347,0.0556906238,-0.0285983272,-0.1074774712,0.0346133262,-0.0000414057,0.053260684,0.0804958045,0.0499098524,0.050134141,0.0402730443,-0.0505368002,0.0713843852,-0.0361753888,0.0541656762,0.0499637984,0.0389220901,-0.0957003459,-0.009608482,-0.0184298009,-0.0342618041,-0.0088930018,0.0424664468,-0.0544663966,0.0529754236,0.0328035727,0.0434706844,-0.0126379523,0.0306999125,0.042805776,-0.0486217923,0.0743174553,0.0611217022,0.0660837516,-0.0521377251,0.0271348972,0.1153780371,0.0025452501,-0.08563146,0.0564213246,0.104867138,-0.1138920635,-0.0692245662,-0.033743538,0.0451811627,-0.0312934443,-0.057730522,0.0756095871,-0.1032600328,-0.0863352418,0.0723165795,-0.0774525106,-0.0335380919,-0.0828614011],[-0.0054800757,0.0541967042,-0.0167577621,-0.0119175669,0.0173217207,0.0253232177,-0.0447663441,-0.0774359182,-0.0592782982,0.0667682663,-0.0129815815,-0.0384509042,0.0109927393,-0.0530805774,0.0242668819,0.0421701111,-0.05964664,-0.0531096347,0.0143171363,0.05298049,-0.0021067576,0.0022931481,-0.0150701161,-0.0078051952,0.0174396206,0.0344164409,-0.0211841296,0.0484186485,-0.0489724614,0.0061437907,0.013497998,-0.0764718801,0.0036474084,-0.0247932971,0.0240014754,0.0046107369,0.0687034056,-0.0337695926,0.053536728,0.0189415794,0.0038819639,0.012465029,0.003802646,-0.0487645715,-0.0200785305,-0.0289387107,0.0357304066,0.0733838156,0.0349662378,-0.0907479823,-0.0051481519,0.0558293276,0.0068800487,0.0296596307,0.0304183085,0.0462230742,-0.0320034213,0.0481362976,0.0427400768,0.0685900822,0.0581369214,0.0497308522,0.0406776704,-0.0258214343],[-0.0264777318,-0.0078384737,-0.0332156271,-0.0647709817,0.0077209431,0.0300827101,0.1231233701,0.0712633803,-0.0188968331,-0.0352530815,-0.0308988802,-0.0744010434,0.0373682715,-0.0527247377,0.0697388947,0.0468978509,-0.0570036322,0.0378674455,0.0725542307,0.0461407341,-0.0272995215,0.059259966,0.0608381182,0.0645851418,0.0391491018,0.0804792047,0.0294617675,0.0163020715,-0.0660935789,-0.0397445783,0.0327061117,-0.0112951649,-0.0645617619,0.0096797533,-0.064772509,-0.0682016984,0.0350046791,0.0493517406,-0.0161326192,0.0418699309,0.0418131426,-0.0692174211,-0.0035179402,0.0334007591,-0.0972135887,0.0221060086,0.0560347587,0.0120703103,-0.0432264097,0.0251328014,0.0910585076,-0.0425120033,0.0890158266,0.0428302586,-0.0320589468,-0.0484911427,0.0039775451,0.058641877,0.0394389927,0.0301511735,-0.0421003066,-0.0105132628,0.0011262866,-0.0816847458],[0.0799103677,0.0377479978,-0.0372604094,-0.0202960074,0.1260365546,0.061300505,0.0095525654,-0.0036768569,0.0285981782,0.0591626428,0.0553492531,-0.0072349184,0.0024067461,0.071215868,0.0594496727,-0.0466682017,-0.0980383083,0.0068617556,0.0418863781,0.0721677765,0.0159583483,-0.0796539187,-0.0019418729,0.0381807014,-0.0107608298,0.0666496605,0.0387964137,-0.0694314241,0.0275867172,0.0425999947,0.0411276445,0.0049176323,0.0128091956,0.0731176212,-0.0458166078,0.0589815304,0.0329529196,0.0554846637,0.0563506968,-0.0109035987,0.0331450291,0.0996379182,-0.0221034605,-0.0462764576,-0.066469714,0.044165764,-0.023475077,0.0806471929,-0.0279778205,0.0151968841,0.0340449549,0.061592713,0.0169325545,0.0778291449,-0.0817643255,-0.0242480524,0.014755507,0.0338675715,0.0765777454,0.0182439871,0.1082500294,0.0684757084,0.0713005736,-0.0182358734],[-0.0096333288,-0.0499444529,-0.0229961053,0.0337196775,0.0801484436,0.0509622172,0.0947337076,0.0637250617,-0.0609905832,-0.0746075362,-0.0364317112,-0.0532619432,0.0687643439,-0.0239351839,-0.1114623919,0.0200833566,0.0698875114,-0.013229196,-0.0553447716,0.053464707,-0.0072650239,-0.0225655977,-0.0438420065,0.0289423522,-0.0241078362,0.0785787553,0.090445362,-0.0454895198,-0.0413063988,0.0829071105,-0.025683295,0.0120525891,0.0573609583,0.0466103926,0.0701971874,0.0045100981,0.0463014171,-0.0486549623,0.0119835092,0.0646843985,0.0801620707,-0.0819473416,-0.0559852682,-0.0545621403,0.0765087381,-0.0195164476,-0.020586228,0.0469981842,-0.099615708,-0.0185226612,-0.0390469544,0.0166095775,0.086664699,0.0098827556,-0.0054934956,0.0849261656,-0.0932284817,-0.0847313404,0.0820626467,-0.0426850915,-0.0337012,-0.0448492765,-0.0439854376,0.0513020307],[-0.0323541053,0.0235693268,0.0327713713,-0.0209311284,0.0656436384,0.0701159909,-0.0239711087,0.1071398854,-0.1095925644,-0.0434940793,0.0670359731,-0.0583140999,-0.021900855,-0.037093889,0.0244554505,-0.0449614152,-0.0197048336,0.0514854118,0.0664488673,-0.0625552014,0.0062060654,0.0748234689,-0.0966099799,0.0256441273,0.0135528808,0.0139244888,0.0771224797,-0.0738052577,-0.0621117465,0.0152179589,-0.0956710652,-0.0094744489,0.0768955946,0.0074352701,0.0617102832,0.0014550483,0.0733158663,0.0079347771,-0.029484842,0.0381063446,-0.1400964856,0.0186153855,-0.0567511134,0.1061049104,-0.0195506122,-0.000901204,0.1152972057,-0.1002776772,0.0436881483,0.0056680492,0.0635434687,-0.0794649944,0.0487333685,0.1383701414,-0.0251294561,-0.0465775244,0.0021053068,-0.0142680742,-0.0680233836,-0.0530092753,0.0756228715,-0.0802583694,-0.0044635423,0.016872637],[0.0781672373,0.0559577569,-0.0638694838,-0.1150902286,-0.0245596021,-0.0105834538,0.0623910651,0.0308743007,-0.0189404823,0.0618210807,0.1029905453,0.0008840546,-0.0418122038,0.0910531059,-0.0848925114,0.0817322657,0.0324297696,0.0805712119,0.0295460746,-0.0044315071,0.0318026505,-0.0758203119,0.0496322028,0.1024112403,0.0270906538,-0.0012404317,-0.0051847114,-0.0299029518,-0.0643936172,0.0924588367,0.0087933978,0.0096795466,0.0072130756,0.0181369353,0.0280322488,-0.0184635557,0.1106700897,-0.0027469646,0.0100696497,0.0448836796,-0.0061032185,0.0256616976,-0.0963696763,0.0512362346,0.0268912613,0.065303579,0.0971019492,0.0242920965,-0.0215215851,-0.0594763197,-0.0320386253,-0.0524669327,0.0415694378,0.084741272,-0.028500814,0.1252707541,0.002317071,-0.0667721406,0.0550005287,-0.0597013272,0.1097437069,0.1145063117,0.0646657422,0.1030592844],[-0.0454233438,0.0903263614,-0.0439810269,-0.0212316662,0.0135143222,0.0478139929,-0.0734134018,-0.00795516,0.0248454642,0.0013258929,0.0910666957,-0.0781133845,0.0151102543,-0.0182691365,0.0283311401,-0.0032161102,0.0975963399,0.0859250203,0.0520904623,-0.1005740464,0.055838462,0.013725399,0.1081425548,0.0106470874,-0.054382816,0.0835416764,-0.0234945808,-0.0925365984,0.0573486686,-0.024644278,-0.0418238752,-0.0404835865,-0.0480088107,-0.0163036529,0.0831879452,0.0631211028,0.0069200937,0.1106099635,0.0367391817,-0.081354849,-0.0714819953,-0.099514842,0.0663975179,0.072106503,-0.0216233376,-0.0193732474,-0.0468198247,0.0082396343,0.0004440736,0.015537479,0.0439687297,0.0182730332,0.0404919311,0.0317758806,-0.0784344152,0.0557288304,-0.0574326254,0.0208792202,-0.0903048813,0.0635384172,0.0566161312,0.0174214337,0.0734801888,0.0753198192]],[[0.0748512447,0.0562627986,0.0466221236,0.0784423202,-0.0654473081,0.0789227635,0.0883106738,-0.0224297419,-0.0098802559,0.0922703743,0.0798449814,0.0359544046,-0.0431521721,-0.033646971,-0.010064967,-0.0511601269,-0.1200922802,0.0247529186,0.0203052685,0.0618419908,-0.0523041897,0.0439293683,-0.0238205977,0.1139528379,-0.0411249883,0.0526337214,-0.0292406976,0.0178013444,0.0179747045,0.0112496056,-0.0837834254,0.1595321894,-0.0439893641,0.0506337322,-0.0785592496,0.0028879689,-0.0647405908,0.0052979151,-0.0232233237,0.029215971,-0.0944561884,0.0823147446,0.0402237885,-0.0277163945,-0.0076467753,0.0611617044,0.1087587625,-0.0707964152,0.0749081448,0.0283642784,0.0768060088,-0.0373240933,0.0232679229,-0.023001384,-0.060694091,-0.0470654145,0.0610284097,-0.0769783035,-0.0252592023,-0.0785186142,0.0139113367,-0.0136924945,0.0890798271,-0.0222709738],[0.0910732001,-0.046148438,-0.0553347059,0.0041656638,0.0768043101,0.0319227017,-0.0080511216,-0.0467819273,-0.0507103279,0.0233629122,0.0389744751,-0.0389799103,-0.0931199193,0.0071859662,-0.0151681844,0.0174713526,0.0127973417,0.033068493,-0.0731485114,-0.0405475423,-0.0239157304,-0.0358788632,-0.0653063059,-0.0383942537,0.0218305755,0.051115375,0.0942503139,0.0593780689,-0.0748586059,0.0571238846,-0.0340051576,-0.0088883396,0.0865609199,0.0481839962,0.0990277529,-0.0883423313,0.04965996,0.0007450114,0.0485306419,-0.0410583913,-0.0316986218,-0.0410554111,0.0420785919,0.0001576268,-0.0124537637,0.0497013777,0.0520340018,0.0465787873,0.0252094455,0.0737128556,-0.0545720384,0.0153678684,0.0202820599,-0.049555283,-0.084557496,0.0125949215,-0.0055373423,-0.0795728639,0.0032526543,0.0599687472,-0.0081935124,-0.0746425241,0.0034682567,-0.0253084227],[0.0510095917,0.0261278357,-0.0906276852,-0.0045700618,-0.0387654044,-0.0405656323,0.0767330229,0.0080481023,-0.0401686281,0.0571592338,0.093403466,0.0039971969,0.0876843333,-0.0543669499,-0.0083220741,-0.0024115392,0.0279895701,0.0751608834,0.0050027734,-0.0283648372,-0.0147713153,0.0621549897,-0.0597064868,-0.0254739467,0.0722639263,-0.0023053738,0.0629590303,0.0195890293,-0.0887373984,-0.0126875481,-0.0475663878,0.0271315034,-0.0945416391,0.0153879048,-0.026641462,-0.0051724878,0.0752152503,-0.1035687998,0.0578905791,-0.0146809984,0.0401366837,0.0777438059,0.0177045744,0.041012045,-0.000325323,0.0750056133,0.0219435208,0.0734808296,-0.0540545397,-0.0740577057,-0.0119142085,0.1096130237,-0.0251139756,-0.0943172127,-0.1032148823,0.0461316109,-0.1020377651,0.0061354768,-0.0490345135,0.050332997,0.1257237941,0.0274369475,0.0249520838,0.0125980806],[-0.0604713075,0.0400311388,0.0156188244,0.0669704676,0.148283422,-0.0104765166,-0.0664179176,0.0625159666,-0.0328451954,-0.0784738362,0.0076790806,-0.0563419163,-0.0057822131,0.025813967,-0.0376711972,-0.068956092,-0.0067697749,-0.0315752029,-0.0326443315,-0.0038148086,-0.0542812981,0.0527776927,-0.0198962372,-0.0228170026,0.0218205303,0.0006913031,0.1482971907,0.0930771604,0.0264363308,-0.0153374579,0.0192395039,-0.0972366855,0.1215952635,-0.0506722033,0.0221532881,0.0470650122,-0.0019368525,-0.0842681676,-0.0210245289,-0.0816870779,-0.0197309963,-0.0090033216,0.0312192589,0.0638545528,-0.0112636536,0.0272864699,0.039235875,0.0191455018,0.0243974086,0.1124475971,-0.0257570799,-0.0680793896,0.0034958995,-0.0084644686,-0.1001645476,0.0017009141,-0.093738094,0.0420187712,0.0854142979,-0.063731201,-0.0624137446,-0.0436940826,0.0132754277,-0.0608225428],[0.0766833797,-0.0793347284,0.0514760427,-0.0195105132,-0.0537109412,-0.0529816076,0.0408410169,0.0924868882,-0.0010403008,-0.0197689049,-0.0021418375,0.023640221,0.0515198857,-0.068336919,0.0399073809,0.0076365424,-0.022213256,-0.0393676907,0.0702498406,0.080165714,0.0457692593,0.0422706492,-0.0392368436,0.081273146,-0.0404062532,-0.0298618134,0.0436497852,-0.001207052,0.034726344,-0.0520816594,-0.0324808471,0.0135415448,-0.0253070649,0.0044349562,-0.0682163313,-0.0380053297,-0.0534929633,0.0186446141,0.0726816356,0.1129183397,-0.0157899521,0.0001910414,0.040777117,0.0800269097,0.0617250949,0.0129685812,0.1206335723,-0.0107128425,0.0559996963,-0.05821817,0.0184171665,-0.0980809107,0.0447563715,0.0964687914,0.0019181239,0.0068066698,0.0511527248,-0.0963496938,0.0458963886,-0.044353202,0.0786758289,-0.0475246161,-0.0003304587,0.0056831362],[0.0474233292,-0.0564984754,-0.0312818475,-0.0028893827,0.0206063557,0.0187197402,0.0471466854,-0.0594295077,-0.0673873723,0.0512849614,0.0326241851,-0.0816959366,-0.0153537644,-0.0201037899,0.037199419,-0.0567232035,-0.0469282158,0.10596212,0.0268388744,0.0059441472,0.0161819384,-0.073556155,-0.0548570827,0.0116172954,0.0485278219,0.052120667,0.1023809016,-0.0628625676,-0.0641964525,-0.0467091054,-0.0430117995,0.0103132864,-0.0706828535,-0.0402490459,0.0851238742,-0.0897987783,-0.0855366215,-0.026990965,0.0276533253,0.0720904768,-0.0080872541,0.0236075986,0.0081700124,0.0358255953,-0.0506414436,0.0783261731,0.1023259908,-0.0659943298,-0.1025317535,-0.0140113654,-0.0369171724,0.0639270395,0.056284871,0.0747123212,0.0003759867,-0.0031862298,-0.0420807451,0.0218731649,-0.0720690042,-0.0250788815,0.0043845768,-0.0094780428,0.0607000105,-0.0322718546],[-0.047710076,0.0781756565,0.0363315232,-0.0295060165,-0.0271524545,0.0385117792,-0.0049884017,-0.0191045702,-0.0488709323,0.0118468609,-0.0339919962,-0.0127830058,0.0217933413,0.0142235635,0.0884404331,-0.0653776899,-0.0806761459,0.0607832931,-0.0396685414,0.0036101202,0.0639052764,0.0085536027,-0.0324137509,0.0472760014,0.11328879,0.0956820101,-0.0395129398,-0.0609877594,-0.0437607244,0.043147888,0.0517472178,-0.0111777419,-0.0461247116,-0.0745817199,0.0863206908,-0.021735115,0.0500547104,0.0682814717,0.0545890518,-0.0367685594,-0.0208582468,-0.0218529459,0.0603823625,0.0653901026,0.0588405877,-0.0047245589,0.0213695727,0.0317787454,-0.0782243982,-0.0614085346,0.0579882897,0.0708490312,0.0353647694,0.0645692423,0.0304136444,0.0850294754,0.0239694919,-0.0183687676,0.008830009,-0.0702017471,-0.0841520354,-0.0088721206,0.0169357955,-0.0519079939],[-0.0599073321,-0.0050111068,-0.0281292889,0.0510256775,-0.0702026784,-0.0343124643,-0.0530203618,0.021652773,0.0653209835,0.0089018922,0.0344689414,0.104557462,-0.0611137971,0.0066563361,-0.047265783,0.0169058107,0.0179768093,0.0021908549,0.0434732176,0.1740931422,0.0401558429,0.0822045356,-0.0124392342,-0.0280596875,0.0098335864,0.1402126849,-0.0264423359,0.0534882098,0.0787973553,-0.0552882701,0.1245980263,0.0591942444,-0.1165078729,0.0863874629,-0.0483119227,0.0590457059,0.0533735082,0.0439494997,0.0880038068,-0.0415279642,-0.0228787791,0.0680884421,-0.0443956405,-0.0351334251,-0.0697242692,-0.0262708515,-0.013059089,0.0864669457,0.0456731133,-0.0099881859,0.0280435178,0.1028995439,0.0526135713,-0.0850377381,-0.1154173687,0.0788500309,0.0457439646,0.0234317891,0.0210097358,0.000166061,0.1034331843,0.0564721525,0.0488317534,0.1034932435],[0.042697683,-0.0598504022,-0.0647134483,0.054631494,0.0355236754,0.0345424488,0.0509495884,-0.055187609,-0.0665674284,0.0784553066,-0.0713218972,-0.0510453433,0.0397852324,-0.0630121976,-0.069861792,-0.0648482591,-0.0555524491,0.0197885893,-0.0306695718,0.0748376548,-0.0180117674,-0.0715904459,0.0474336781,-0.0085013099,0.0759813786,0.0382388681,0.0556978509,-0.0004454868,-0.0432141908,0.02204616,0.0901428685,0.0365231186,-0.10405536,0.104565993,-0.0518943965,0.0970988646,0.0239502266,-0.0787059516,0.1091820374,0.0741970018,-0.0628872663,0.0160418637,-0.0664754957,-0.0217886716,-0.0400048122,0.0752203166,0.0044158623,0.0418652408,-0.0815249607,0.0072618457,0.0551549159,0.0191104729,0.0838557035,-0.0558991097,-0.0755678117,0.0936453789,0.0021053324,-0.0813024342,0.0910449326,-0.0104334364,0.1135795191,-0.043062795,0.017333949,0.0505999289],[0.0576182008,0.0372657739,0.0129935835,-0.0913061425,-0.0060334615,-0.0265806112,0.0513687655,-0.0674608797,0.0433956124,0.0485181436,-0.0230371971,-0.0255395174,0.0076499954,0.0036184806,-0.0042801723,0.0760501921,0.0765736178,0.0587127507,0.0609625615,-0.0460681915,0.0295977443,0.0103665479,0.0169962868,0.0069567859,0.0779595897,-0.0353635252,-0.0329167135,-0.0646848753,0.0648714304,0.0007634503,-0.053897839,-0.0736054257,0.0020543919,0.0241879635,-0.0681722313,-0.0394227281,-0.072179243,0.056118913,-0.0365250111,-0.0859713182,-0.007736376,-0.0893624574,-0.0640229434,0.0759744272,-0.0220384914,0.0205144212,0.0040558516,-0.0425297618,-0.013593087,-0.0009043174,0.0603209808,0.0832743272,0.0348083563,-0.0781271905,-0.0990718454,-0.0229604989,-0.0770537406,-0.0529125556,0.0408368185,0.0680533051,0.018494796,-0.0261576921,0.0567196645,-0.014991153],[0.0732036158,0.0499398783,0.0439921208,-0.0415470637,0.0478629172,0.0787847191,0.0294033401,-0.0321546495,0.0169936959,-0.025910832,0.0231554322,-0.0213862732,-0.0709156096,0.0697859004,0.0509311594,0.0875390992,-0.0083644837,-0.0175133329,0.0313844346,-0.0417273976,-0.0197881367,0.0205661934,-0.0117168734,0.0320157856,0.0162839945,-0.010131795,-0.0476010293,0.061229296,0.0752423257,0.0680870041,-0.0336950012,0.0540683717,-0.0527327135,0.0927785635,-0.0517230108,0.0270100087,0.0034668474,-0.0024176673,0.0044969288,-0.0756279528,-0.0282105338,-0.0683081672,-0.01786834,-0.0045062322,0.0763160661,-0.0775040761,-0.0553996488,-0.0080723576,0.0459089093,-0.0301245935,-0.0277675111,0.0040448834,0.0124904448,-0.0310577787,-0.0755252242,0.0746618286,-0.0440802984,0.0474785119,-0.0182340816,0.0362339839,-0.0405098163,-0.0274348017,-0.0182639621,0.0943200141],[-0.0164843425,0.1008549482,-0.029555643,0.0217653178,0.0991393328,0.1180420667,-0.0427278392,0.0129883289,0.0212160014,0.0561256371,0.0402715281,-0.0059529953,-0.0078169787,0.034381263,0.0180690382,0.0657345131,-0.0260468088,0.0063537825,-0.0595673658,-0.0387334973,-0.0816457421,-0.0558024421,0.0355330631,-0.0405377261,-0.0044772937,0.0220436696,-0.0836918503,-0.055044964,-0.0365115032,0.0372657105,-0.0429528244,-0.1187656149,0.060434144,0.0996944308,0.0339763761,0.0621212758,-0.0896324068,0.1103729904,0.0665532351,-0.0356520191,-0.0266954787,-0.0499143414,0.0142164035,-0.0487484597,0.0316007733,0.0136836516,-0.0335926265,0.053704299,-0.0109194675,-0.0174086913,0.0855924711,0.0102101266,0.054114759,-0.0051389746,-0.0553380921,-0.0316471905,-0.0119498223,-0.058243975,-0.0222910885,0.0495918281,0.0395957045,0.0346570425,0.0210168939,-0.0154646812],[0.0400683768,-0.0383072644,0.03102744,-0.0339099504,-0.0158815775,0.0582846776,0.0083917743,0.0096604507,-0.0531370454,0.007910776,0.1403777748,-0.0163276978,0.0196758099,0.007608003,0.0893122703,-0.0624899156,0.0187346805,-0.0030224053,0.0166163798,-0.0325459205,-0.0787121207,0.096764721,0.0065150857,0.097767204,-0.0696036443,0.0361343324,-0.0303425677,0.0195784178,-0.010800736,-0.0133493599,-0.0037704562,0.051411368,-0.0124831777,0.0295189489,0.0228700638,-0.0973911285,-0.0116473362,-0.0463696942,-0.0416777879,0.0474551618,-0.0930234641,0.0906149969,-0.0032435958,-0.0349796675,-0.0885235518,0.069985494,0.0450153388,-0.0888718516,0.0392827056,-0.0659998953,0.0725919157,0.030444365,-0.0460864455,-0.0381630883,-0.0898468122,-0.0590216927,0.0713866428,-0.0653479174,0.0660129562,-0.114836134,0.0757745653,0.0578219071,-0.0228597447,-0.064466998],[0.0522650406,-0.0093877912,-0.0171022322,0.0230291188,0.0345635675,0.0526898168,-0.1033058316,0.0091890572,-0.0286074951,-0.0263794102,-0.0219667405,0.0691132322,0.0163964946,-0.0623947494,-0.0295101833,-0.0423258245,0.0474263281,0.0820535496,0.0116494419,-0.0459168591,0.0161398221,0.0079079093,-0.0441894718,-0.0228205509,0.0649330243,0.0760226622,0.0584939755,-0.0275853928,-0.0427263528,0.0679949746,-0.0699794665,-0.0603902526,-0.038202174,-0.074878253,0.1025537401,-0.0298047513,0.036415115,-0.0603207201,-0.0059630903,-0.1049563736,0.031998679,-0.086963743,0.0126744267,0.0381499454,0.0840881765,-0.0261087436,0.0796340853,-0.0346571319,-0.1017344967,0.1154757515,-0.0115330461,0.0305913389,-0.0393948928,0.0552351922,0.0042519071,-0.0159022491,-0.0169489495,-0.0798245594,-0.0237428043,0.0622448996,-0.053720247,-0.0331888013,0.0043144324,-0.05471275],[0.0494308583,-0.0205617771,0.0409362838,-0.0774403363,0.0400483534,-0.0147958118,0.0356014743,0.0695689917,-0.0581561737,-0.0227825344,-0.0744170398,-0.0743243545,-0.1080682874,0.0093770847,-0.0398162641,0.0394200645,-0.0655946657,-0.0392143279,-0.0599046312,0.0503966548,-0.0641436204,-0.0093875267,-0.0307421684,0.0211364105,0.0329314694,-0.0564800985,0.0940236822,-0.0037612917,-0.0117789954,0.0469451137,0.0534580424,0.0437810458,0.0986908227,-0.0495713986,0.08587493,-0.0243496876,-0.06317693,0.0493186302,-0.0951914564,-0.020492522,-0.0533430763,0.0632251576,-0.0344469137,0.012828378,-0.0387264229,-0.0018569026,-0.0048775384,-0.0656374469,-0.1007809117,-0.0564135872,0.0574018396,0.026214065,-0.0184219107,0.0026825811,-0.0015556952,-0.0069307657,0.0153220547,-0.0876502618,0.0770571157,-0.0103913434,0.0672842413,-0.0645731762,0.0418609269,-0.0778742209],[0.0167506747,-0.0908523649,0.0931843966,-0.0604213625,0.0812380016,0.0031893156,0.0376251638,-0.077395618,0.0593236089,-0.0535197221,0.0136582535,0.1142100245,-0.0862276778,-0.0179371852,0.1096503288,-0.0503128804,-0.0276866145,0.053848844,0.0470558144,-0.06985908,-0.0468048155,0.0810072273,-0.0534576178,0.0282429643,0.098996684,-0.0081997914,0.0589509085,-0.057133615,0.0104899388,-0.0226568207,0.0154712144,0.0885759741,0.000539221,0.009164216,-0.0401880555,0.0276987068,-0.0434599183,-0.0764702186,0.0519671254,0.0565033704,0.0582144484,0.0515893959,0.0348363221,-0.0713223219,-0.0204976611,-0.0566679537,0.0025061639,-0.0381733999,0.0529863238,-0.0375133902,-0.0031464167,-0.0986374915,0.067466259,0.0857906193,-0.0101667857,-0.0590581223,0.0690278336,-0.0112426775,-0.0590807684,-0.0991024598,0.0557157248,-0.0730866715,0.0402185582,-0.019144129],[0.0871714279,-0.060912054,0.1597648263,0.0555869676,0.114517644,0.0115460139,-0.0192873441,0.0669798106,0.0962797925,0.099426426,-0.0331478305,0.1554513425,-0.1069891006,-0.0470592044,0.1191982031,0.0260273479,-0.0099321939,0.0323745087,-0.0845234096,-0.0338670388,0.0389031284,0.085174039,0.0867092684,0.0348906517,0.0023683859,0.0372634269,0.0365889668,-0.0290870331,0.1233161762,0.0593258515,-0.0178473685,0.0540948324,0.0553520843,-0.0377363861,0.038559597,-0.0121061429,-0.0174237154,0.0012253057,0.0077050067,0.0925000012,0.0162117928,0.0661887005,-0.0417979956,0.0923602059,0.0754243135,0.0635381788,0.0608905107,0.0409452952,-0.0312395487,0.0161784459,0.0440246053,-0.1164434031,0.1221932173,0.0354940742,-0.0946021006,-0.0776746124,0.0376687087,-0.1082125157,-0.04954537,-0.0251983795,-0.0174448546,-0.0900210887,0.0541127473,-0.0293769632],[-0.0122130159,-0.0128732724,0.0208048522,-0.0386722051,0.0551681295,0.0424257703,-0.0624915399,-0.0299527459,-0.0676425174,-0.0283348672,0.1178884283,0.0083386563,0.0290226154,0.0762705803,0.0104955398,-0.0376989134,-0.0385927483,-0.0589215904,-0.0213926844,0.0772423893,-0.0683086589,0.0034278112,0.0548974238,-0.016389586,-0.0735374317,-0.0020593738,-0.023097299,-0.1002149209,0.0596678555,0.0073157661,0.0299503114,0.1102329716,-0.0354069769,0.1084814221,-0.0249933023,-0.0664197356,0.0273311976,0.0528941862,0.0014534332,0.109443374,0.0255893748,0.0812200531,0.0474024341,0.0369012058,0.0093341162,0.1015643477,0.0364140868,-0.0611328334,-0.119967103,-0.0057342043,0.0606106147,-0.0390560925,0.018380383,0.0499345176,-0.0639451444,0.1121921167,-0.058992289,0.062570639,-0.0105333365,-0.005474451,-0.0242795683,-0.0415848494,0.0880279243,0.1052821353],[0.0130402287,-0.0407737121,-0.0877401978,-0.006681704,-0.0231647324,-0.0117421355,0.0695733279,-0.0157674495,0.04754043,0.0463496111,0.0737846345,0.0767164454,-0.0654137209,0.071456939,0.0581657365,0.0031421441,0.0343448184,0.0890416652,0.0304450896,0.0274171587,-0.0256701205,0.0419018902,-0.0613703132,-0.0067121042,-0.0315020196,0.1284912378,-0.0644890666,-0.0858679637,-0.0164817236,0.0927078724,0.0176906548,0.029660685,-0.1119119525,0.0186436195,-0.0516823679,-0.0200672187,-0.0499879718,0.033719983,0.0682487488,0.0304025598,0.0857295245,-0.006700288,0.0293839294,-0.0087915836,-0.054243464,-0.0114465877,0.0833348483,0.0615394488,0.0450000092,-0.0687198415,0.0054869475,0.0984649435,-0.0281586312,0.0727314427,-0.0875115469,0.1000564098,0.0625360683,0.0562252887,-0.0227863416,0.0568293296,-0.0276855584,0.0494190045,0.0157300252,0.1240297928],[0.0026100122,0.0819529966,0.0083950628,-0.0602458231,0.140827626,0.0288357232,0.005086856,0.0552302822,-0.1405881196,0.053698875,0.0571567938,0.0501996465,-0.0126441224,0.0175608639,0.0241875574,-0.0651241094,-0.1200237349,0.0818750039,0.0979059711,-0.0350552462,-0.0344445296,-0.0059465393,-0.0632917285,0.1008284241,-0.0730414167,-0.0733742714,0.112300396,-0.1136060506,0.0461882241,-0.0689728409,-0.0338371955,-0.0493173301,0.0494067073,-0.112311177,0.0795925856,-0.1048074886,-0.0766879469,-0.0072784079,-0.1205508634,-0.0380300395,0.0151037648,-0.0197816938,0.009230217,0.1280617118,0.0471991971,-0.0406775437,-0.0280777048,-0.1130216196,-0.0587054752,0.1128854305,-0.0394635722,-0.106829755,0.0262496881,-0.0044114161,0.0753901526,0.0175344888,-0.0783448145,0.0316839851,-0.0535624176,0.0306704398,0.0143327303,-0.0510004014,0.0364463255,-0.0843463615],[0.1056290567,0.022881519,0.0279903319,0.0420982242,0.0857256353,-0.0841392204,-0.0497980975,-0.0442933105,0.0847560912,-0.0074183107,0.020530235,-0.012721057,-0.070674479,-0.0844732374,0.1321720779,-0.100016959,-0.0920620114,-0.0379134268,-0.0539760664,0.0568957292,-0.0113644116,0.0481937937,-0.01972799,0.0101048285,0.062790215,0.0017750454,-0.0423798598,-0.0079822829,0.0397707894,0.008602635,0.0132323448,0.0951161981,0.104789041,-0.0313719362,-0.099259235,0.0808431134,-0.0175458081,-0.0000283168,-0.0621784031,0.0312559158,-0.0468883365,-0.0674312338,0.0425100438,0.0076175351,0.0136512555,-0.0284493249,-0.0163665581,-0.0498815887,0.0541857928,-0.0909545571,0.0963619426,-0.0932573006,0.0801400244,0.1223071143,-0.1240474805,-0.0521791279,0.0784988552,-0.0496790446,0.0655181333,0.0434972234,-0.0677065477,-0.0311709922,0.0227331929,0.0850120783],[-0.0075783706,0.0282458942,0.0599743463,-0.0201074276,0.0602800213,0.0155481705,0.0238939896,-0.0135521116,-0.0577077083,0.0991548002,0.0029187726,0.066472359,-0.0666075274,-0.0003998599,0.0793572292,0.0395461395,-0.0233375058,-0.0106794843,0.0556302071,-0.0782982633,0.0528368168,0.0677988231,0.0769496188,-0.0492732115,0.1117721498,0.1082763895,-0.0322858803,-0.0623992868,0.0339455679,-0.0116612241,-0.07037884,0.0467797518,0.0696576312,0.0419698767,-0.1099255681,0.0326227248,-0.1050205976,0.0625303239,0.0049417331,-0.0132163186,-0.0502184182,0.0204230305,0.0317362063,-0.0246473812,-0.0195065904,-0.0039557829,0.0223782137,0.0387235619,-0.067884326,0.04142363,0.0368557908,0.0701488331,-0.027838856,0.0696432739,-0.0196580943,-0.0205813181,-0.0314603522,-0.1083424464,0.080232501,0.0677901655,0.02691135,-0.0065970123,0.0959970355,-0.0230746828],[0.1052557528,0.0136336163,0.1288364679,0.1064625829,0.0913151503,0.0451719873,0.051305104,-0.0026605972,-0.0097690085,0.0517035276,-0.0179878008,0.057934422,-0.0703639314,-0.0245700143,-0.014771875,-0.1031929702,-0.0763518587,0.0203212593,-0.0050012209,0.033772666,0.0881196409,-0.0539905205,0.0373122096,-0.0691032335,-0.0486899652,0.1586619169,0.0993338823,0.0426666401,0.0281473957,0.0726756081,0.0802608803,0.0098254858,-0.0360934138,0.0537273809,0.0183123518,0.0384132452,-0.016630346,0.0519282408,0.0108185783,0.0170278028,0.0121359508,-0.0258529391,0.0318030752,-0.0761841163,-0.0376173072,-0.0999057069,0.0000199029,0.05636473,0.1088784784,-0.0787795559,0.0440566689,0.0672140941,-0.0174719654,0.0479085408,-0.098823525,0.0475661159,0.0534009524,-0.0636102036,0.1397907138,0.0425976291,-0.0486023575,0.0197434332,-0.0123196943,0.049626004],[-0.0216367282,-0.1141161993,0.0798631832,0.0530321635,-0.0144396126,-0.0898494273,0.0683140531,-0.0054395064,0.0435307473,-0.0920129493,-0.0456599854,-0.0300572198,-0.0259129405,-0.0528718717,0.0694182813,-0.0477787927,-0.0753948614,0.0006185618,-0.1530307978,0.083724767,0.0525658317,-0.0169116687,0.1090700924,0.0151903164,0.0317302383,0.1342021972,-0.0297202542,0.108128272,-0.0115377074,0.0635629073,0.0214296468,-0.007925258,0.0365283005,0.0115645798,-0.10642685,0.0678969249,-0.0771038681,0.0284121819,0.0381986834,0.0432514548,0.0607823133,-0.0472857431,0.0832526535,-0.0603545047,0.0717214644,-0.0713839605,0.0003882239,-0.0433684923,0.0204334352,-0.058435075,0.070967108,-0.0264410004,0.092490308,-0.0027574138,-0.122835055,-0.0778490007,0.1126522347,-0.1070232093,0.039621152,-0.014175592,-0.0619877577,-0.0076794093,0.0245836955,-0.0117668156],[0.0643790513,0.0652541667,0.0768225491,-0.021184152,0.1171682104,-0.0759930089,-0.0069458117,0.089658156,0.0484747104,-0.0502266102,0.0404028781,0.0341627561,-0.0960401148,0.0046348744,0.0221131369,-0.056742914,-0.0920470804,-0.0231457222,0.0189526211,-0.0942920372,-0.0103804879,0.0452512987,0.030795671,0.031451717,-0.0714241564,0.0134844249,0.107684359,-0.0957805812,-0.0542764999,-0.0696681291,-0.0349603705,-0.0410824977,0.00557,0.0037485841,-0.0723104849,-0.0345963836,-0.0748202279,-0.0147337439,-0.0556301586,-0.0410306901,0.0222105309,0.0393338129,-0.0671600252,0.0062068254,-0.0632249787,0.0244435947,-0.0245565139,0.0420305803,0.0126151973,-0.0452129617,-0.0027460232,0.0635296628,0.0646085888,0.0459092297,-0.0208090562,-0.0140360855,0.0371191055,0.0713607594,0.078447789,-0.0294475239,-0.0628965572,0.027742153,0.0261933915,0.0685118735],[-0.0153879141,-0.0641128123,0.0290552601,-0.0603917167,-0.0371152312,0.0782849863,0.0854352713,0.0727494657,0.019652335,0.0238179658,-0.0174570382,0.0807662755,-0.0434730276,0.0826430917,-0.0618692897,-0.0274192039,-0.0146062402,0.0851421878,-0.0103771565,0.0636386499,-0.0320222601,-0.074966453,0.021451626,0.0648064613,0.0405431129,0.0482222065,-0.0272756387,-0.016778674,-0.0087147243,-0.0459659062,0.0739853904,-0.0440393724,0.0088432152,0.0622517131,0.0771919638,0.0575891025,0.0272712838,0.0492246523,0.0193537194,-0.0365947634,0.0469196998,0.0483729728,-0.0242880452,0.032481052,0.0227714479,-0.0359217338,-0.0194946956,0.05910258,-0.0049188938,-0.0308395755,-0.0599699318,-0.0285633411,0.0754639879,0.0107631553,0.0452980176,0.11882817,0.0388351157,0.0721187517,0.0594855957,0.064091824,0.0889453217,0.0251654647,0.0880159512,0.1156945527],[0.0687316731,0.0540249012,-0.0072152819,-0.0898292214,-0.0181367602,-0.0172222182,-0.034334749,0.0406466164,-0.0562316887,0.0114746559,-0.073584199,0.0019796733,-0.0794722438,-0.1009229496,0.0996238738,0.0335869826,0.0266529508,-0.0385450907,0.0660457611,-0.015219952,-0.0524907298,-0.0583600476,0.050773453,0.0086707268,0.0064529241,0.0562666878,0.0162058808,0.0520452559,0.0373541638,-0.0465686806,0.0531568192,0.033204522,-0.0344262533,-0.0845649987,0.03095988,-0.1075282171,-0.0614096485,0.0197988637,-0.0952943936,-0.0083730845,-0.0562911928,-0.0518447757,-0.0480637811,-0.0676515475,-0.0017442178,-0.0035861759,0.0459429696,-0.060229715,0.0380920991,-0.0303076543,-0.044604104,0.0612600371,-0.0480399095,-0.0041045463,-0.0943565741,-0.0611011907,-0.0120222438,-0.0324561112,-0.0092403665,-0.012393631,-0.0004719949,-0.0918561444,-0.0138542838,-0.0875867754],[0.0927335918,-0.0007011376,-0.0529516935,0.0950064212,0.0418794639,0.0990791842,-0.0171560682,0.0433466509,0.0261427369,0.0482122637,0.1101908088,-0.0432204008,-0.0179434735,0.0760495216,0.0133755952,-0.0250330362,-0.040110819,-0.0274335574,-0.0307602696,0.0173992645,0.0680566281,-0.0646914467,0.0397252068,-0.0081808763,-0.0036712061,0.14274849,-0.0437981784,0.0029413775,0.0172505882,0.0286572911,-0.0532879308,0.1132217497,-0.0060661356,0.104135558,0.0331829824,0.0411867835,-0.0347828567,-0.0058811642,0.171095252,-0.0333385915,0.0016145161,0.0664612874,-0.0468418896,-0.0478104614,0.0520472974,0.0307060611,0.1339702457,0.012427154,-0.0418756008,-0.0305703077,-0.0300104301,0.048972223,0.0152636459,0.0374859832,-0.0860015824,0.0677307025,0.0522779524,-0.0163733102,0.0182013102,0.0550183244,0.1093878224,0.0160645396,0.0592720099,0.0433391854],[-0.0265446585,0.0446824059,-0.0307214726,-0.0512637571,0.0851272047,0.0221856683,0.000271055,0.0643219277,-0.0599314049,0.0462662503,-0.0753921121,-0.076103352,0.0083169285,-0.0589625649,-0.0133031355,0.0158629864,0.0036000228,0.1022032946,0.0114220027,0.0801506266,-0.05114986,-0.0888428167,0.0531833693,0.0264107268,-0.0441233888,0.0147540616,-0.0377430208,0.0530177616,-0.0771506876,0.0521393903,-0.0205099937,0.0134358807,0.0190554243,-0.0193793457,0.0703366622,0.0567592792,-0.0186929069,-0.0491750985,-0.0421585925,-0.0825293735,0.0333553292,0.0656367838,-0.0818183795,-0.0472382344,-0.0048081172,-0.0770152286,-0.0281450823,-0.0329234339,-0.0714057833,-0.0447403044,0.0240619592,0.0764477104,0.0415659659,-0.0642276108,0.0044117016,-0.0245097,-0.0004256726,-0.0447419062,0.042514313,0.075689353,0.0501353778,0.0386131629,0.0655262992,0.0283810385],[0.0640799552,0.0528760403,-0.0657065436,-0.0902370214,0.0440419093,0.0380819701,0.0868813246,0.0679288357,-0.0691614375,0.0712678432,0.0360302366,-0.0875921845,0.0427542925,-0.0407440066,0.0242747329,-0.0343854912,-0.0815948695,0.0170747973,-0.0160644725,-0.0715464577,-0.0452097915,-0.0428136066,0.0054049585,0.0168801285,0.0559053048,-0.0125473747,0.0946348086,-0.0846282914,-0.028041929,0.0751424432,-0.0615310818,0.0672172531,0.1029568017,-0.0781934783,-0.0100868782,-0.1109620854,-0.0557795353,-0.036674317,-0.033127401,0.0837580487,-0.1308903694,0.1348878294,0.0496339686,0.0922995061,0.0632109195,0.1259539276,0.0343883708,-0.0047127507,0.0136097986,0.0697965845,-0.0432850532,-0.0579644814,0.0350060351,0.0859964266,0.0694873929,-0.0181605667,-0.0400857106,-0.0205549318,-0.0081224246,-0.1053214446,0.0316157416,-0.0683850944,-0.0023015868,-0.0252661929],[0.0250318181,0.0848533437,0.0097477334,-0.0324654765,-0.062308304,0.097196877,-0.0519953296,-0.023256911,0.0430180654,0.0729316249,0.0430603214,-0.0435832329,-0.0003832223,0.0754761398,-0.0100966226,0.0091332486,-0.0006673517,0.0398512669,0.1179820374,0.0246354062,-0.0154400198,0.0110292323,0.047314316,0.0638332143,-0.043102704,-0.030314127,-0.0303921085,-0.098850511,-0.0105731804,0.0653791428,0.0082931211,-0.0364034846,-0.0761535913,0.014234514,0.0220137388,0.0594098531,0.0654732436,0.0426020548,0.0520260856,0.0700635239,-0.0490563214,0.0948713124,-0.1411585063,0.0488919988,0.0226330161,0.1255557537,0.0149969971,-0.0085822651,-0.0636089072,0.0373643041,-0.08489687,0.1018356606,0.0192864053,0.083754532,-0.0383261815,0.1413563341,-0.097750105,0.0694968104,-0.0151480408,0.0622689873,-0.03575233,0.0414680541,0.0336879119,-0.0243358035],[-0.0139330598,0.0584881604,-0.0310828555,-0.0440155677,0.1077201441,0.1622608453,-0.0254748203,0.0659311041,-0.0840818807,-0.073639445,-0.0134650478,-0.0788528249,0.051616542,-0.023580119,0.0678760335,0.0019088686,0.0808776617,0.0846861452,-0.0690695271,0.0262361243,0.0452021696,0.0615696795,0.0953901857,0.005994,-0.053878054,-0.0492161065,0.0433131382,-0.0923989043,0.0291944146,0.0537481494,-0.0545378476,-0.0725344718,0.0068022315,0.0415775999,0.0781552494,0.0496579707,-0.0771527439,0.0049636229,0.0083455462,0.0010156914,-0.0867143571,-0.0289909299,-0.0660605654,0.0927153081,-0.0188948996,-0.0391225964,-0.0204651132,0.0672948882,-0.0502342507,0.0648996755,-0.103132695,-0.0799108371,-0.0260847248,-0.0529634096,0.0192610752,0.0402274989,0.0713577271,-0.0467063487,0.0061647659,-0.0080230283,0.0150804184,0.0244768579,0.0005881728,0.0022310715]],[[-0.0270365551,-0.0437768623,0.0736744851,0.060673248,0.0132869808,0.0475600474,0.0603799522,0.0812452286,0.0101285884,-0.0427936465,0.0837402493,-0.0470324196,-0.0891690925,-0.027787406,0.0814152658,0.0168263614,-0.1058570519,0.0490363277,0.0210988186,0.0484765619,-0.072709091,-0.0433938615,-0.0075187115,-0.0029875375,0.0268846862,0.1180950627,0.049825307,-0.0475419573,-0.0524005443,0.0314421207,-0.0039984565,0.0869390741,-0.0384089127,-0.0351230539,0.0048707705,0.0459142998,0.0064474447,-0.0572394505,0.0911022425,0.1216845214,-0.0965853706,-0.0233880468,0.0642467141,0.0601347014,-0.0904996768,-0.0089949798,0.0528849475,-0.0867026672,-0.0223707017,-0.025369959,0.0797281936,-0.0880980715,-0.0634647459,-0.0085153216,-0.0286715999,0.0615797788,0.0482722148,0.0086526936,0.0535423867,-0.0552480854,0.087510474,-0.0593931787,-0.047434561,0.074798435],[-0.0092805633,-0.0616616495,-0.0345930271,-0.0132238464,0.0945902467,0.0794495419,-0.0479743443,0.0821522474,-0.0678556561,0.0072994307,0.0831713974,-0.0695109367,0.0025396468,-0.0101573747,0.0300382487,-0.0726228207,-0.0774390996,0.0271340627,0.0627038926,-0.0553922616,0.0571467392,-0.0622485094,-0.0469051078,0.086471118,0.0182540771,0.0613683648,0.0854589641,0.0246268511,0.047466699,0.0711017698,0.0091508748,-0.0033575092,-0.05273268,-0.0178508963,0.0903230757,-0.0487909801,-0.0447864681,0.0617456213,0.0242309365,-0.0911680087,-0.06709259,0.0490077212,-0.0498435237,0.015731262,-0.0128444862,-0.0472697467,0.0315139182,-0.0650453418,-0.0322152302,-0.0282369256,-0.0889604762,0.037642397,-0.0119578708,-0.0719486624,0.0284280553,-0.0204833411,-0.0872703791,0.0295232125,-0.0693534762,0.0003403138,0.0878656432,-0.0723372921,0.0638752729,0.096087575],[-0.0388815366,-0.0184141528,-0.0806551874,-0.0513251163,0.0075226091,-0.0468144491,-0.0724493861,0.0471923985,0.0680426583,0.0782743916,0.0239237193,-0.0468043312,0.0715822205,0.0506315231,0.077128537,-0.0433799662,-0.0497511327,-0.0103746764,0.0560677759,0.0733000785,-0.0284895357,-0.0506510995,0.0108238542,0.0736140683,0.0038312674,-0.0296164285,-0.0269751623,-0.0204239562,-0.0805875063,-0.0166643597,-0.0444228277,-0.0220600553,-0.1179693416,-0.0254390109,-0.004142365,0.0380829945,0.0871241167,-0.0566740371,0.0962774828,0.0671738684,0.002648789,0.0843906403,-0.0703659803,0.0161167011,0.058512073,0.0632501841,0.0303212535,-0.0042696996,-0.0624527484,0.0313934647,-0.0233406872,-0.0238939058,0.0569436215,0.0047140634,0.0487240441,0.0092976261,-0.1052943319,0.0086449971,-0.122147426,0.0047393059,0.097808443,-0.010475629,-0.0623706914,0.0134231439],[-0.0358735435,-0.0428967103,0.0537848994,0.0271894261,0.0244682766,-0.0349627286,-0.0219856314,-0.0763992146,0.0446236692,0.0730509013,-0.0221574884,0.0411899164,-0.0571777523,-0.0311825573,0.0782610103,-0.0188174583,-0.0676271245,-0.0575271696,0.0049126744,-0.0272774193,-0.0378614143,-0.081892252,0.0040148553,0.0694305599,-0.0777085647,-0.0512430482,-0.0418868326,-0.0342225321,0.0273716524,0.1383090615,0.0416279845,-0.0095052598,-0.0213746503,0.0469537005,-0.0916005149,-0.0444550626,0.0131830657,0.0526869856,-0.0372793451,0.0746848136,-0.0613824427,0.0569613241,-0.0184793547,-0.0633605346,0.1154388785,0.0194080938,-0.001386165,-0.0569545664,-0.0152889639,0.0542548746,-0.0703525916,-0.030581655,0.0298108142,-0.0166152213,-0.0355611593,0.1116120666,0.0018188233,-0.0070956522,0.0748179778,0.0364244319,0.1134796217,-0.011100797,0.0192101691,0.1108614728],[-0.0595391579,0.087315768,-0.0335420258,0.0399140567,-0.0506647304,0.0061539789,-0.0443562046,-0.0089699104,0.0166787189,0.0142026888,0.1263519824,-0.0569204688,0.033245977,0.067735903,0.0005996984,0.036009375,-0.055017218,-0.0587508455,-0.0056982939,0.0422956049,-0.0029157565,0.0912043378,0.0114432098,0.0980141908,0.0765404031,0.1073852181,0.0532828569,-0.0151982568,-0.0166588034,0.0188634824,0.0340107009,0.0142960958,0.0649473071,0.0052973032,-0.0288832076,0.0275356472,0.0745004192,-0.0905235112,0.017089108,0.0200294685,-0.0854838118,0.0281420648,0.0913741514,0.0043790019,-0.0662233457,-0.0247169249,0.0007808832,-0.049594257,-0.0189845506,0.0199539252,-0.0239316113,0.008719977,0.0433221683,-0.0214666016,-0.0412507355,-0.080229193,-0.0638522357,-0.0039937031,-0.0715103671,0.0247045755,0.0507347025,0.0301071387,-0.0305138417,-0.0608338714],[0.0175630096,0.0165145937,0.0173628796,-0.0804236308,-0.0177406259,0.0266397987,-0.0080827298,-0.0672688186,-0.0929628015,-0.0142977489,-0.0437531881,-0.0723374635,-0.0255017877,-0.0522848815,0.0536162667,0.0507121719,-0.0944312215,0.0109413266,-0.0562383868,-0.0494896062,-0.0545099229,-0.0510801487,-0.0000230076,0.0635795742,-0.0961915106,0.0174233187,0.0284482874,0.022673985,-0.0386226028,0.0467123874,-0.0785733387,0.0477953814,-0.0734237283,-0.0774478763,0.0623833314,-0.1063410491,0.0081685279,-0.0819756389,-0.0697066039,0.0399048477,-0.0330870003,-0.0533601791,-0.078738831,0.023361994,-0.0216890145,-0.0306728873,0.0987822488,-0.0622363538,0.0579155162,-0.0759830698,0.0461024903,-0.0689014345,-0.0730636567,-0.0361367837,-0.1013555378,-0.0558709092,0.0055907294,-0.0211933572,0.055101037,-0.0237966515,-0.0857083723,0.0466146655,-0.0574367084,-0.0763275623],[-0.0494979806,0.0067110625,-0.0694378763,0.0273904148,-0.0694610476,0.0511049852,0.0693398267,0.1107946038,0.0544159114,-0.0097722458,0.0703898445,-0.0553893261,-0.0316568725,0.0561200865,-0.0242907889,0.0528543591,0.0108227897,0.070886977,-0.0714410618,0.0228252579,0.0547623262,0.0382694155,0.0376103483,0.083675079,-0.0144833401,-0.028390605,0.1006423533,-0.082207188,-0.0166190155,0.0082713235,0.0209467225,0.0007549784,-0.0230145585,-0.0092143994,0.0248191524,0.0452642478,0.0097073289,-0.0595679842,0.0068853828,0.040205583,0.006009792,-0.0576437972,-0.0287110228,-0.0444346294,-0.0287694316,0.0109674493,-0.0521267317,-0.0057386514,0.0689861774,0.0474847741,-0.0038477217,0.0180168282,0.0208069235,0.0717738792,0.0529719442,0.0637235194,-0.0348236933,0.0578232221,-0.1456286609,-0.0821743906,-0.0298612788,-0.035971649,-0.0687274709,-0.1041573361],[-0.0571109876,0.0426044427,-0.0496644899,-0.0405022688,0.0069573978,-0.0295673423,0.0819115117,0.0709838495,-0.0462786295,-0.0365362912,0.0214339551,0.0268761162,-0.0292172637,-0.0259608347,-0.0589187033,-0.0768601224,-0.0082662804,0.0631127879,-0.0781299695,0.0642051771,0.0066682929,0.0390845127,0.0185224097,0.0367941782,0.015212331,0.120443061,0.0923499092,-0.0144810406,-0.0123113682,-0.0071597323,0.1120188758,0.0737335831,-0.0599295646,0.1077630445,0.0748541057,0.0817142799,0.0896940157,-0.0265430808,0.1309913099,-0.0424130112,0.0959381908,-0.0474591106,-0.0288824607,-0.0547041185,0.031339556,-0.0440810658,-0.0143382726,0.015173424,-0.014681479,-0.0377532765,0.0847900286,0.0701261908,0.0906934664,0.0332390405,-0.0017735194,-0.0709366202,-0.0454990342,0.0629046857,-0.0315964893,-0.0071054427,0.0310920235,0.0028562527,-0.0636500418,0.028218165],[-0.057060644,0.1026086137,0.0350427553,0.0432754494,-0.0958201215,-0.05285386,-0.0294948909,-0.0455146097,-0.0774126053,-0.0527958386,0.0121419039,-0.0666585714,-0.0828713104,-0.0368592925,0.053878922,0.026702676,0.0338231996,0.0989916474,-0.0033114897,0.0432103053,0.0026625011,-0.033335261,-0.0706768334,0.061495401,-0.045918379,0.0258842502,0.0897879899,0.0301629528,-0.0220813975,0.0239559151,0.0515544415,0.1012033597,-0.0365627334,0.0574109592,-0.0601910576,0.0177663099,0.0990267769,-0.0059026987,0.0465782247,-0.0407610573,0.050609421,0.0109454608,-0.0420237333,0.0436579883,0.0678181648,-0.0665610954,-0.0125011317,0.0588059984,0.0408733673,0.0301482193,-0.0336255841,-0.056658607,0.1050998718,-0.0297469813,0.0121981539,0.0657628551,-0.069523558,0.0700752735,-0.0886153355,0.0246009231,-0.0511167049,0.0408137329,-0.0555487834,0.0139951007],[0.01066544,0.0364125967,0.0424366929,0.0054912833,-0.0461415946,-0.0817964822,-0.0324770883,-0.024253916,0.0613691844,0.0161101855,-0.0845540389,0.0494529083,0.0474702306,-0.0834774673,-0.0765806139,0.0117056295,-0.0235829148,0.008015871,0.0034481396,-0.062632069,0.0803708509,0.0304963607,-0.0408065394,-0.0802536681,-0.0531583205,0.0590543486,0.0233928338,-0.0539385155,0.005969191,-0.0233087372,0.0300550666,-0.0082398131,0.0882535875,0.020594405,0.0037413901,0.0243487004,0.0834463537,-0.033593148,0.0673374981,0.0810720101,0.0099596614,-0.0132099111,0.0267896485,-0.0434899367,-0.039820876,-0.0438329168,0.0141100194,0.0729037747,-0.0787678063,0.07000117,-0.0262632575,-0.0182593148,-0.0167567655,-0.0873177275,-0.0741274208,0.0094278408,0.02990124,0.0088703148,-0.0719168782,-0.0166884065,0.0617322326,-0.0407236665,-0.0504474416,0.0778719261],[0.0715165883,0.0638076589,0.0400297344,0.0138278585,-0.1030600592,0.0678724721,0.0095617939,0.0344758928,0.0438602306,0.0240406021,0.0045738849,-0.0589545295,0.0240081437,0.0633529425,0.0639904141,0.0346367359,0.0923664644,0.0932136029,-0.0608483851,0.0341355838,0.0608677194,-0.0177815855,-0.0737109631,0.0168820061,-0.0149095282,0.0192981977,0.1018012762,-0.0580666736,-0.051329229,0.0739308447,-0.0287746619,0.0773493424,-0.0178753808,0.0351847187,0.0641590655,-0.0368331112,0.0754175708,0.0514299311,-0.0177922584,-0.0308719184,-0.0125514306,0.0433100052,-0.091531992,-0.0225935765,0.0420749672,-0.0082671139,0.0597294979,0.0143051445,-0.0631889626,-0.0103194946,-0.0103808334,0.0924207494,0.0869346634,-0.0673282743,0.0213576928,-0.0343095697,0.0059638969,-0.0835505202,-0.015691163,-0.0307147931,0.0494603999,0.0979455337,0.0612106137,0.0361892246],[0.0595839731,-0.0034238144,-0.1016658098,0.034392029,-0.0145262117,0.1531031132,0.0111177703,0.0006619309,-0.0898146182,0.0534247532,0.0094438484,0.0795807019,0.0207054354,0.0424698219,-0.0481906645,0.014215555,0.048421789,0.0126018114,-0.0462831482,0.0623188168,-0.0061910693,-0.0260123443,-0.0383049734,-0.1140456647,-0.0840977952,0.1188604385,-0.0246040914,-0.0508623235,-0.0152625656,0.0420855805,-0.0333246551,0.0724830627,0.0637390837,0.0530995689,-0.0185117386,0.0068232492,-0.047015164,0.0255765803,0.0640236512,-0.0247531943,0.0876275301,0.0933292285,-0.0277986694,0.0803185552,-0.0555559993,0.0903479382,0.0128300786,-0.0581630468,-0.0466896854,0.0253593493,0.0651709437,0.053752996,0.0320218913,0.0478622094,-0.0740583986,-0.0480804965,0.0752571523,0.041813422,0.0652688146,-0.0105699142,0.0551333539,-0.0489326678,0.0270407423,-0.0215292908],[0.0267864242,-0.0083571235,0.0750516206,-0.0274888128,0.0655334145,0.008887887,-0.031689249,-0.0403624736,0.0177743025,0.0489489511,0.105871059,-0.0287958737,-0.0519495681,-0.0664052814,-0.0126975244,-0.0428915359,-0.0081527866,0.0349481814,-0.0240907334,0.0605005026,-0.0838764608,0.0810379386,0.0817792565,0.1128867567,0.066297926,-0.0124501772,-0.0527576283,-0.0387280919,0.0160248224,0.0533926897,-0.0916930139,0.0357584395,-0.0545626469,0.0586939417,-0.001146535,-0.0991296619,0.0294507742,-0.0787352249,-0.0409201458,0.0817134902,-0.0516104139,0.1069737971,-0.0485246889,0.0288152918,-0.0442032032,0.0141549101,0.1439367682,-0.0082113743,-0.038158644,-0.0922104642,0.0205289237,-0.0875273198,0.0436240733,-0.010246912,0.0426711962,0.0328635611,-0.0296917409,-0.0178016983,0.0156780891,0.0377602689,0.1212249622,0.0278945006,-0.020463096,-0.0415751673],[0.0169960968,0.0225888751,0.0653472021,-0.0169846024,0.0323367044,0.0988646448,-0.106599547,-0.0452141203,0.0554892682,-0.0296501797,-0.0085348794,0.0009317099,-0.0197614376,0.0003811855,0.033637777,-0.0388207324,-0.0229858086,-0.0026371649,0.0370138772,0.0101337656,0.0235760268,-0.008285624,-0.0636844113,0.0244998485,0.0409200713,0.0134209013,0.0676155388,0.0568655133,0.0302346628,-0.0358995125,-0.0094200186,-0.1151914671,0.0885169581,-0.0587119907,0.0005154423,0.0474845581,0.0150394775,0.0060028331,0.0471886732,-0.029194029,-0.0238761716,-0.0642720461,0.0559814945,0.0020124137,0.0982692391,-0.0215090215,-0.07079418,-0.0801327378,-0.0668207556,0.0681349039,-0.0880420879,-0.0503115989,-0.0741808116,0.0384859443,-0.068974711,0.04801495,-0.0161243156,0.0613737218,0.0355066694,-0.0241712462,0.0113818971,0.0241068136,-0.0183122698,-0.0569591932],[0.025789611,-0.0485066585,-0.0214008205,-0.0778951496,0.0778535604,-0.000095482,-0.0609299578,-0.051362846,0.0085647255,-0.0759590864,0.0170336943,-0.0748111606,-0.0893772021,-0.1002649814,-0.0225706212,0.0487942584,0.029508343,-0.0743370578,-0.0423060581,0.0235038251,-0.0742632523,-0.0068275435,0.0666819289,0.0364660472,0.0414692648,-0.0314860605,0.0319489464,-0.0543056093,-0.0151264537,0.0701997057,-0.0078265695,-0.0905562192,-0.0028291394,0.0045371158,0.0556508116,-0.1016959772,-0.0822291449,0.0022604745,0.0302932672,0.0341186225,-0.0771104097,-0.0197345298,0.0240218975,-0.0739380643,0.0914255157,0.0479578041,-0.0615538657,-0.0230419207,-0.0428156219,0.0522333011,-0.0867571309,0.0647380799,-0.0374179594,0.0016636952,-0.0394030288,-0.0484684259,-0.0019783671,0.0141716991,0.1055559218,0.0624565296,-0.0333777182,0.0408075936,-0.0379289091,0.095021382],[-0.011478411,-0.0187417846,0.0127950273,0.0034180232,-0.0352707915,-0.0962677673,-0.0821102634,0.0109299123,0.0296963677,-0.0585200489,-0.0242604837,0.077356413,-0.0751666501,0.0374110118,0.1033131406,0.0250257738,-0.0695413873,-0.0614430234,-0.0366196707,0.0484727658,-0.0193101522,0.0610735044,-0.0574138686,0.086022079,0.0594957173,0.1267456561,0.0950985327,-0.0785011873,-0.0566868819,-0.0849526525,0.0084994724,0.0952901691,0.0837975293,0.0595259629,-0.1292405725,-0.0542008057,0.0362901092,-0.0698108748,-0.062985383,0.1162350476,0.046933908,0.0236963406,0.0863772109,0.0765832812,-0.0155026726,-0.0184703413,0.0533613786,0.0373827294,0.0658991039,0.0490418114,0.0501405261,-0.0747116953,-0.0397124626,0.0720660985,-0.0465274416,-0.0585501119,0.0873647407,-0.0925152153,0.0392323397,0.028571222,0.0966408923,-0.0681651011,0.0482927188,0.0954369456],[0.072792165,-0.0723446161,0.0002576771,0.0276757237,0.0539652519,0.0295436867,-0.021582678,-0.0086046485,-0.0582678057,0.0374409519,-0.0277027227,0.0643761978,-0.1208111346,0.01814395,0.0680698231,-0.0410423204,-0.0606714487,0.0966676623,-0.0055404864,-0.0438278019,-0.0563606955,0.1038402468,0.0255318619,0.0470158048,0.1404551268,-0.0376527794,0.0269893929,-0.0389362909,0.0436628386,0.0604583062,-0.0231957771,0.0291872006,0.0215393975,0.000182061,-0.0103400489,0.0439342223,-0.0877319425,-0.1191543713,0.0109991319,0.1509101242,-0.0473507605,-0.0582192652,0.0716762021,0.0492142849,0.0465907194,0.0701833814,0.0131669287,-0.0105641373,-0.0312328264,-0.0823180974,0.0988512933,0.0198684745,0.0659546256,0.1095594093,-0.1479473412,-0.0164239686,0.0312500894,-0.0317758285,0.0724158511,-0.06088835,0.1201750413,-0.0165846422,-0.0463929102,0.0836541429],[0.0761035904,0.1006381139,-0.047912091,-0.0988598391,-0.088268131,0.0351643674,-0.0054105525,0.0260295644,0.0473494269,0.0579982214,0.0954396948,0.0667562634,-0.0515757054,-0.0171253476,-0.0295700338,0.1082559749,-0.0444833264,0.061004132,-0.0040512835,-0.0320958681,-0.0113138109,-0.0536617488,0.0783689693,0.0943069831,0.0655997396,0.0518423989,0.0002572231,-0.1044877321,-0.0226668213,-0.0252734292,0.0535512306,-0.0297738463,-0.06077246,-0.0286553558,-0.0142649841,0.1051333547,0.042734053,-0.0027990062,0.0248800404,-0.0501567423,0.0143798068,0.0814391896,-0.0234676078,-0.0359895565,0.0505842604,0.1232625619,0.0959087312,-0.070311211,-0.0832882375,-0.0220276099,-0.076171197,-0.0734034255,0.0115686329,-0.0733332634,0.0194552727,0.104216136,-0.0803670138,-0.0177146234,-0.1085029617,0.0582163259,0.1051831022,0.1139567718,0.0543673784,0.0465751253],[0.0141705712,-0.0245944019,0.0598605052,-0.0231479295,0.0200465545,0.0534839481,-0.0722502843,-0.0631991848,-0.0675241575,-0.0063619604,-0.0110444259,0.0586253181,0.0809832588,0.0988074541,0.0094131939,-0.0506105348,-0.0165963322,-0.007244797,0.0227819122,0.0390968584,-0.0061039436,-0.0350056961,0.0110822888,0.0606382675,-0.0009075077,0.0513001867,0.0327099115,-0.0539759994,0.0482674465,0.0718690678,0.0982563719,0.0298467427,0.0211296491,0.0264978912,-0.0672987998,0.1411242485,0.0889956728,0.0704152361,0.0230240729,0.0382458791,-0.0218306165,0.0300581288,-0.0645709038,0.0324900895,-0.0221259017,-0.0017688591,0.0620711707,0.0062265065,0.0731409043,-0.0427258238,0.0198415406,0.0179793909,0.0629852861,-0.0261452384,-0.0613671243,0.0258905608,0.070422411,-0.0025604318,-0.0941796601,-0.0409943089,0.0464008488,0.0284921993,0.0004412611,0.0597008057],[-0.0337940603,-0.0554396398,0.0011268734,-0.0960893929,0.1722377241,0.0081399847,0.014830349,-0.0242749918,-0.0716898069,0.0022776278,0.073599115,0.0203470513,0.03521768,0.002225406,0.0949947387,0.0489254259,-0.1043482721,-0.0701227188,0.0476008356,-0.0658725724,0.0533327647,0.0434847325,-0.0973554626,-0.0015498413,-0.0575744025,-0.0334417224,0.0415799432,-0.0400884077,0.0557528846,0.0595704354,-0.0290452093,-0.0927583054,0.0529030301,0.0797963664,0.0309077986,-0.1223426387,0.0665279627,-0.0160154719,-0.0402352363,-0.0031069275,0.0118381605,0.0772148296,-0.0593082085,-0.0323692746,0.0401284285,0.0480309278,-0.0023051249,-0.0387458913,-0.0508595146,0.038699355,-0.0599667281,-0.0261509828,-0.0176522993,0.0509800911,0.0330737792,-0.0125199035,-0.0363591202,-0.0236554611,0.0389200896,0.0109818866,0.0928891525,-0.0638239384,0.0448233113,0.0532105416],[0.073793821,0.0189279765,0.0714566261,-0.0485015921,-0.0121098887,-0.0424308367,0.0595290437,-0.0991490781,0.0684067234,-0.0854689404,-0.0570225567,0.0073639359,-0.0523419119,-0.1080406383,0.0846248493,-0.0493924357,0.0142287044,0.0640784204,0.0029757144,-0.025814198,-0.0652067214,0.1055648699,0.0184289664,-0.0002315396,-0.0050577824,0.1314678937,0.1138210371,0.0127397021,0.0727873892,0.0407423303,-0.0303096995,0.0488908105,0.119803071,0.0083407219,-0.0331585817,-0.0542828515,-0.0388802812,-0.0101661207,0.0559602641,-0.0183515046,0.0573774166,-0.0896578655,0.0141660981,0.0834338143,0.073206611,-0.0731012821,-0.0035195828,0.0080023482,0.0356941894,-0.080267489,0.005260393,0.0556767955,0.0183944684,0.0661021918,-0.1356964558,-0.0021730037,0.0152866747,-0.0124970898,0.1302394718,0.0535539463,0.0384353548,-0.0491892286,-0.0126585197,0.0044290675],[-0.0740651786,0.0232802965,-0.0618294924,0.0731687471,0.0008315439,0.1199733168,0.0513099879,-0.0705078468,0.0017230209,-0.0377741642,0.0516195558,-0.0125285229,0.0268206131,0.0707452968,0.0616310723,0.0760976523,-0.0816990882,-0.0632492676,-0.0643482655,0.0275692623,0.0560122319,0.0377299376,-0.0327479243,-0.04792073,0.0877692774,0.0680981502,-0.043875251,-0.0317304097,-0.0884508267,0.0857195482,-0.0065884348,-0.0585926957,0.163194418,-0.0661589205,-0.109805584,-0.0466743447,-0.0406618714,-0.0431583039,0.0236032363,-0.0292283092,0.0047237654,-0.088781178,0.0813756213,0.0547757149,0.0396224707,-0.0079787476,-0.088832207,-0.0233150069,0.0551835932,-0.0280027855,0.0616748109,0.0803313106,0.0735523701,0.0707706362,0.0467854589,0.0410100333,-0.0063106092,0.0404456183,0.0007580305,0.004037397,-0.0732025877,0.0624368899,0.0449630134,0.0277802832],[0.0001863115,-0.0937076285,0.0492656194,0.042922616,0.0886872336,0.0245181359,-0.0431403369,-0.0755612925,0.0829927698,-0.0146908043,-0.0272364244,0.079350397,-0.1205062121,0.0039474694,0.0689626187,-0.0990484506,-0.0046239072,-0.0616220832,-0.0395336859,0.1176768169,-0.0394973084,-0.0328800865,0.0366619267,-0.0593179725,0.0104919551,0.1297293752,-0.0240400806,0.0265136305,-0.0507869199,-0.0058444715,0.0410866514,-0.0530550145,0.1149905771,0.0389441177,0.0104384515,0.0001777332,-0.0524485968,-0.0189958569,0.0995569676,0.1329412311,0.0423490778,-0.0191519745,0.0185016561,-0.0671048686,0.0371292979,-0.0237293951,-0.0478061438,0.0381254889,0.0262234788,-0.0489960946,0.0611912049,-0.0322999917,-0.0225247201,0.0375255272,-0.0896697342,-0.0564493686,-0.0169852376,-0.0068455166,0.0575404987,-0.0118376436,0.0007072651,0.0095961653,0.0557854846,0.0382920504],[0.0543203279,-0.1198026985,0.0084238574,0.0200070813,-0.0701645762,-0.0789301097,-0.0100322654,-0.101706937,0.0451219827,-0.0525548011,0.0015905609,0.054272376,0.0251820832,-0.0216597971,0.0409072563,-0.101047948,0.0555868074,0.0030299115,-0.139530167,0.0955507755,0.0345344394,0.0201532822,0.1115289927,-0.0824126601,0.0619042777,0.1428738385,0.0738334879,-0.0051854872,0.0122558884,-0.0041739047,0.0579717308,0.0425100364,-0.033295244,0.0872747675,0.0429252684,-0.0258682016,-0.0074920831,-0.0736913681,-0.0255053751,0.0260065626,0.1389456391,-0.0921841636,0.0599713065,0.015150859,-0.0253193825,-0.1303905994,0.0065109418,-0.0109144924,0.0645386949,-0.0691058412,-0.0269210134,-0.0343226232,0.0674369782,0.0449104793,-0.0990207121,-0.0004655821,-0.0298126489,-0.0254279058,0.0147499088,0.004238084,-0.0964091048,-0.0262074769,0.0292637218,0.002122693],[0.0516884886,-0.00846266,0.0140696997,-0.0581200719,0.021265462,-0.0709475949,-0.022362275,-0.0218617152,0.0649240762,0.0558832735,0.0677868575,0.0431833491,-0.1204226688,0.0158081949,0.0143534606,0.059475176,-0.0930401683,0.0186469704,-0.0332175344,-0.058219444,-0.0830082968,0.0908413678,0.0140311103,0.0295287874,-0.0787669569,0.0679769814,-0.0145292198,0.0415087603,0.0565184131,0.066063486,-0.0102739558,0.059284471,0.0641642883,0.0503969193,-0.0919403583,0.0262349062,0.0395357497,-0.0210634973,0.0443533808,0.0512210913,-0.0002582457,0.0713284314,-0.0019811811,-0.0224815253,0.0620656982,0.0338506401,0.0542278178,0.0142504554,-0.0005384668,0.0021526567,-0.0107117668,0.0529878922,-0.0897551924,0.0047801835,0.0071881721,-0.0146994516,-0.0368653499,0.0848635063,0.0432144627,-0.0240180269,-0.0102028614,0.0068530738,-0.018659642,-0.0666011721],[0.0409661978,0.0999850407,0.0417750627,-0.0002880867,-0.0990331322,0.0756534189,0.0119686024,-0.0314327441,0.0124310032,-0.0400974527,0.059253972,-0.0682072788,0.0329120681,-0.0461351015,0.039620582,0.09454263,0.0433063097,0.0014483655,-0.0148497159,0.0223324616,0.0083649652,-0.0476069078,-0.0117314439,-0.006801947,-0.0597328879,0.0070719444,0.075823307,0.0291231647,-0.0610070787,0.0276655182,-0.0347378068,-0.0335147008,-0.0760191232,0.0844227225,-0.0003530245,0.037683025,-0.0368267447,0.05556814,0.0461038463,0.0735418275,-0.0446427912,0.0591607653,0.0220131818,-0.0028143129,0.0516591258,-0.0230128895,0.044275865,-0.0411697142,-0.0346353613,0.0309185386,-0.0105380109,-0.0331008025,0.1121747047,-0.0314826854,0.0644745976,0.0328582525,-0.0151267285,0.0263592266,0.0198170636,0.0443642549,0.0026561494,0.0326576307,-0.0282178186,-0.0676277652],[0.0368720219,-0.0826614574,0.0567229912,-0.0410038903,0.0457918905,0.0180341471,-0.0972704142,-0.0540729761,0.0340930074,-0.0730654523,-0.0371431559,0.0684013739,0.0472673848,0.0411682799,0.0397362672,-0.0030937833,0.0398047082,-0.0424294695,-0.0339312442,0.0701808408,-0.0864483789,0.0893998444,-0.0053531639,0.0949950144,0.0256406926,0.1179700494,0.0716404691,-0.011271039,-0.0543107428,-0.02551491,0.0671898201,0.1097397506,0.0675244927,-0.0745220408,-0.0824725851,0.0508157983,-0.0797204152,-0.0221877303,-0.0101289572,-0.0122211156,0.0083994279,-0.0529159307,-0.0962476507,0.0560153052,0.0930536017,0.0599485226,0.0529692583,-0.0178428739,-0.0717207044,-0.0537170134,-0.0947188139,0.0180086121,0.0096760625,0.0031739813,-0.0105330022,0.0822639316,0.0048231124,0.0579908453,0.0091029927,0.0821155906,0.0906037837,-0.0682498366,-0.0284704957,0.0273958519],[-0.0053284275,0.08421579,0.056824591,-0.0022459095,-0.0152433189,0.065183349,-0.0001343703,0.0205528401,0.0623842552,0.0244851504,0.0421187021,-0.0600303449,0.0068116463,0.0772946253,0.0946785435,-0.0838078931,0.0484526083,-0.0338415727,0.0523840748,-0.0404086523,0.0159848239,0.0031320706,-0.0537005961,0.0478935055,-0.0846108869,0.1383884251,0.0422002859,-0.0246186052,-0.0411656462,0.0177458152,0.0115895849,-0.0169372931,-0.1131188124,0.0272525586,0.0093109757,0.0165669546,0.0262000039,0.066868335,0.0253102072,0.0233463012,-0.0296659507,-0.043719016,-0.0433448702,-0.0158619191,0.0402774774,0.0477424525,0.1234870628,-0.0015125989,-0.059914954,0.0080164419,0.0708223134,0.0690654442,0.0023884366,-0.026651131,-0.061522942,-0.0086824158,0.0174012445,-0.0727675855,0.0167999323,-0.0637290478,0.017319914,0.0516355149,0.0958809406,0.1260145605],[0.0350984968,0.0470954292,-0.0605626963,0.0276861545,-0.0559811369,0.1107306108,-0.0071416772,0.0158362892,0.0634506419,0.0791291222,0.0454512574,-0.0445764512,0.027616905,0.040783301,-0.0256587118,0.0735859945,-0.0011037167,0.0978766978,-0.0078019979,-0.0639632344,-0.0272697899,-0.0857432336,0.0768878087,-0.0451053828,0.061299853,0.0108174728,0.0820743218,0.0508519672,-0.1011134014,-0.0264503323,0.0477474742,0.0180385467,-0.0146059729,0.0509473197,0.0677679405,0.0466175452,-0.0043867826,-0.0252731871,-0.0058962596,-0.0599631667,0.040137738,-0.0705248713,-0.1028451994,0.010426105,-0.0267636012,0.0589241236,0.0032855328,0.0524103418,-0.0508099943,0.0184876695,-0.0130158961,-0.0189842489,0.1101876944,-0.0813399553,0.0426985733,0.053840179,0.0172097608,-0.0728803799,-0.1112506539,0.0184847973,0.0302090142,-0.0339105614,0.048806686,-0.0183820669],[-0.071791999,0.0580139086,0.0775868446,-0.0944459811,0.0646660179,-0.0661927313,0.0240126457,0.0340404399,-0.1048931703,0.0791070908,0.0304322895,-0.0684313104,-0.0217188094,-0.0547408015,0.1324182749,-0.0038000471,0.0390145294,-0.0699458271,0.0785768256,-0.0075748991,-0.0600082576,0.0726144016,0.0256431922,0.1150161996,0.0236109532,-0.0302815549,0.0346349552,-0.0050287871,-0.0553507023,0.0019167926,-0.0868867412,-0.0719428584,-0.0266573653,-0.0356192924,0.0299603324,-0.0765184164,0.0370588228,-0.1016219929,-0.064669475,-0.0366604775,-0.0278474893,0.1030041948,-0.0129188579,-0.0605711564,0.0695405751,-0.0298647638,0.0775159225,0.0542394631,-0.0710731521,0.0794856772,-0.0886764824,0.0191184077,-0.0390241146,0.0569720864,-0.0208842698,-0.0483467467,-0.0320433453,0.0246107243,-0.0493635461,-0.0627674609,0.0394586548,-0.0195951257,0.0191868301,0.0186496042],[-0.0011668564,0.0906168967,-0.0404521786,-0.1313530058,-0.0955307037,0.0808851048,-0.0499922223,0.0689794347,-0.029725261,0.0773572847,0.0529542565,-0.0082259839,0.0074979626,0.0777992159,-0.0586520582,0.0685408264,-0.0303713679,0.0496191569,0.085119389,-0.0396512002,-0.0102678407,0.0216785576,0.0696747825,-0.0173680205,0.0059876498,-0.0748944804,0.0208815988,0.0355046652,-0.0976393744,0.0769254193,-0.0754685253,0.0829353705,-0.0661297068,-0.0640660152,0.103412807,-0.0230157748,0.1288324893,-0.0332941934,0.0504306853,-0.0470054001,-0.0801278129,-0.0299614985,-0.0124427276,0.0207276437,-0.0709425136,0.0595233627,0.0043354719,0.068707265,-0.1224589795,0.0606903471,0.0461815707,0.0151759423,-0.0044157812,0.0847425163,0.0504340492,0.0679058656,-0.0536673293,-0.0426388495,-0.1204133034,-0.0082741687,-0.0146608083,0.0680545866,-0.0023513013,-0.0370512828],[-0.008312095,0.068717055,-0.0067699826,-0.0289343148,0.1012258157,0.1315607429,0.0231519099,0.0646804497,0.0314883552,-0.0313531943,-0.0674217045,-0.0213035382,0.0582463518,-0.0429954566,-0.0782055259,0.0147489952,-0.0213772189,-0.0282500293,-0.0189924929,-0.0112409675,-0.0605726689,-0.0772584453,-0.0445448644,-0.0179560017,-0.0345294438,-0.0482592098,-0.0009365358,0.0310365334,-0.0179874264,-0.0178294387,0.0237136148,-0.0530787744,0.0164300911,-0.0855807215,0.0457438193,-0.0520103648,-0.0569211096,0.0197826196,0.058822792,0.0467358641,-0.0804072842,0.0785370544,-0.0904390737,-0.0116570015,0.0044135437,-0.0616694726,-0.0761704743,-0.0744556636,-0.065231137,-0.0133294482,0.0144342128,0.077292867,0.0422863886,0.0249227211,0.0077135297,0.0262324288,0.0344636776,-0.0562795848,-0.0085036298,-0.0777435303,0.033065293,-0.0647768378,0.0163839981,-0.0312877893]]],[[[-0.0003753523,-0.0815557763,-0.0217612311,-0.0668431967,-0.0370046236,-0.0135220997,0.0748405606,0.0056732008,-0.0445212126,0.0486780964,0.1272819489,-0.0021591806,-0.0523401573,0.0384003483,-0.0160612781,-0.0147840511,-0.0418589041,0.0703837574,0.045418825,0.0630062521,0.0112086674,0.1064361855,-0.0632598773,0.1381020546,-0.0034465955,0.0890225917,-0.0471194461,-0.0930650011,-0.0168704744,-0.0815146714,-0.0953048989,0.0000315047,0.064187929,-0.0949966684,-0.0158967469,0.0028854769,0.0778771937,-0.070614934,0.0652020425,0.1329417974,-0.1052022725,0.0030293027,-0.0040545966,-0.0351443738,-0.0762132257,-0.0101982411,0.0947458297,-0.0976719856,-0.0256559048,-0.001147077,0.1474339664,-0.1124147996,0.1134822443,-0.0329316556,0.0239358041,-0.0934866369,-0.0336625539,-0.0022921001,0.0212673694,-0.0256500561,0.1235449314,-0.0796996877,0.0450378768,-0.0581970178],[0.0994825214,0.0533132441,0.0844890401,0.043683555,-0.0266843475,-0.0448127054,-0.0009885663,-0.0530088916,0.0499301888,-0.0668128505,0.0010254038,-0.0631676614,0.0002029561,-0.0330390744,0.0907269791,-0.0509413742,-0.0014084949,0.0703520626,0.0536497533,-0.1194486097,0.0078021344,-0.0825705752,-0.099744685,0.045889508,0.0205864161,-0.0100292936,0.0121727567,-0.106474258,-0.0584706813,-0.0530628599,0.0640855357,-0.0178354699,0.099175714,0.013827919,0.1187919155,-0.0837170109,-0.0776978731,0.0336325392,-0.1305380911,-0.038651105,-0.0877400041,-0.0000392207,-0.0883464292,-0.0702118203,0.0380407907,0.0359607786,-0.0041232775,0.0201139301,-0.0665846094,-0.0293716639,0.0745681673,0.0047815284,0.0245858971,0.0979368389,0.0375976078,-0.0338801593,-0.0607152916,-0.0210411232,0.0289668068,-0.0093176914,-0.0786217526,0.0709151179,-0.0333808586,0.0072196191],[-0.0420177393,0.0502296537,0.0324427038,-0.0359484926,0.0774362385,-0.0751036853,-0.0912881866,-0.0101220543,0.0259305481,-0.0884846672,0.0037753978,0.008005375,-0.0902515724,-0.0099163847,-0.061282143,-0.0386584923,-0.0267192367,-0.0293464754,0.0903456956,-0.0196354762,0.0553430058,-0.0610424653,-0.0873993039,0.107096225,0.003405699,0.0492900424,0.1330071688,0.0330483578,-0.0346140899,0.0042575211,-0.0285430513,0.0331268422,0.1038393825,0.1109187678,-0.0166985095,-0.0073633678,0.028352106,-0.0725392029,0.1422611177,0.0661821291,0.0160906762,-0.0568377748,-0.065800041,0.0348405242,0.0431398451,0.0834805071,0.0987185612,0.0862117037,-0.0875739455,-0.0748787597,-0.0584753565,0.0817320347,-0.1039039567,0.0478545614,-0.0260218717,0.0290105939,-0.0085264323,-0.0372028165,0.0893044919,0.0340579264,0.0559170619,-0.0002052925,-0.0501654334,0.0078125289],[0.0778424814,0.0263851825,-0.0147018945,0.0035580518,0.0078451978,-0.0204481296,-0.0163097419,0.0706006289,0.0100124525,0.0605268441,-0.0144650303,-0.0135985743,-0.0142701678,0.01074991,-0.0022181722,-0.0823159218,0.0850635916,0.0094349869,0.0276830196,-0.0417306162,0.0103079397,0.0178498607,-0.0105101159,0.0464559607,-0.0533083007,0.0147400843,0.0419204049,0.0225354414,0.0914781839,0.1148373112,-0.0169110186,0.0834524482,-0.0512109511,-0.0978166088,0.0608445518,0.0141045889,-0.0739821419,0.0412870459,-0.105755724,-0.0655342862,0.0478591025,-0.0187335461,-0.0024608411,0.0418760516,0.0678893104,-0.1155649722,-0.0414935984,-0.0683477595,0.0300137028,-0.0152707258,-0.0258513596,-0.1006771103,0.0701698661,-0.0127823325,0.018697096,-0.0886106864,0.0374402329,-0.0800057799,-0.1106553003,0.0403004736,-0.0734167323,0.0507072695,-0.0238557644,0.0756809562],[0.0726851895,-0.0441029295,-0.0267309416,-0.005223074,0.0019797066,0.0648530573,0.0803634301,-0.0114404522,0.0762799382,-0.0770163015,0.0655993074,0.0686920062,-0.0695400015,-0.0706148073,0.0156158088,0.0079825493,0.0012264581,0.0371832848,-0.0130672539,-0.0454449654,-0.0469483957,0.0199055076,-0.0621624589,0.0789145976,0.090061523,-0.0619719401,0.0137343835,-0.0618596524,-0.0163109582,0.059394531,-0.0866346061,0.0494345315,0.0744496584,-0.0126833348,-0.0580896065,-0.0442041829,-0.0554508269,-0.0982094035,0.0860578045,0.0718111321,0.0057116104,0.0757239908,0.0074650818,0.0845507234,0.0589490011,0.0675534457,0.0251901653,-0.0233304519,-0.0491650626,-0.0538805909,0.0949181244,-0.0983010158,-0.0072027491,-0.0368924737,-0.0758728608,-0.0277977064,0.0329909511,-0.0390174165,0.042200733,-0.029942112,0.0802053735,-0.0098172519,0.041662287,0.0112085082],[-0.0690516979,-0.0046020672,0.0166035667,-0.0196034331,-0.0752646476,-0.0743074119,0.1119653881,0.0646784529,-0.0546440892,-0.0148689216,0.1145494953,-0.0733461902,0.0352474824,-0.0168313552,0.1095728353,-0.0625139922,-0.042369809,0.0413383543,0.0055660661,-0.0022020382,-0.0625865832,0.0356854722,-0.0479789414,0.0145870764,0.0458465777,0.0243413765,-0.0635276735,-0.037155468,-0.0750487447,0.0564946756,0.0075315316,0.0634384304,0.0774720609,-0.044780992,0.0810142085,0.0726851448,0.0249074213,-0.0655411258,-0.0534639172,-0.0516039245,-0.0173918717,-0.0741891414,-0.0937124416,0.0282576066,0.0992367417,0.1046314538,0.1151887253,-0.0217249934,0.0316575952,0.0705474317,-0.0032688789,0.0138869733,-0.0707798377,-0.0366368182,-0.0052603986,0.0751504228,-0.0465939008,-0.0118596461,0.0125649981,-0.0769716129,-0.0689233318,-0.0607470423,0.0868860185,0.0807005167],[0.0910051912,-0.0135252569,-0.0731445998,-0.0820233375,0.0179227814,0.1468434185,-0.0361188017,-0.0290685818,0.0379831605,0.0068073096,0.0437116139,0.0006466625,-0.0050595449,0.1011619642,-0.0702058971,-0.0305376463,0.0606436618,-0.037492495,-0.0523815975,0.0427369885,-0.047003068,0.0746021941,0.0325927436,0.0112549961,-0.0010430937,0.0698246881,0.096990779,0.0003548701,-0.0827391967,0.0173481647,0.0036161919,0.0381564796,0.026102839,0.0069985441,0.1133149117,-0.059537448,-0.0092730494,0.0788140073,0.028276125,