[[[[[0.0158823617,-0.1012485996,0.0616351366,0.1423946917,-0.049965933,0.0505139083,0.0662290305,0.0785715058,0.0687621683,-0.0296683591,-0.0202385634,0.1444462836,-0.0698980689,0.0877811238,0.1358811408,-0.1130715609,0.0410369486,-0.098049283,-0.0540341623,0.0951573178,0.0728434846,-0.1441334933,0.0538595729,0.0612946041,-0.1182371154,0.0079072397,0.031448435,-0.0941594765,-0.1045372561,-0.044375997,-0.1205099002,-0.069701083],[-0.1168742031,0.165363133,0.0557522252,0.0753821135,-0.0956313461,0.0230180528,-0.0648061261,-0.0116328392,0.1097152382,0.1487058997,0.0810134858,-0.0948067084,-0.076658532,-0.0471019335,-0.0525144152,0.0825655088,-0.089332968,-0.0748551413,0.0128575116,0.0324347466,-0.0668820813,0.0008879844,-0.0303655639,0.0241569877,0.063304536,0.1324114949,0.0370982103,0.1166357324,-0.0729626417,-0.0963593423,-0.1550769061,0.1020959914],[0.0621812567,0.1175628304,-0.0376521572,0.097015135,-0.0819430724,-0.1014469564,-0.0292267222,-0.1152075902,-0.0280162971,-0.0009870791,-0.0792224929,-0.0420678817,-0.0150136268,-0.0366513357,0.1538391411,-0.1622797847,-0.0033641418,0.1247628778,-0.039679803,0.0614484958,-0.1409245282,0.0167188607,0.0791584104,0.0190260112,-0.1875250787,-0.0926766917,-0.0013495028,0.0208498091,0.0013908029,-0.111808382,0.1535039097,0.1054387242]],[[-0.0075553376,-0.0996360332,-0.1569200903,0.0915741771,0.1435928941,0.1254628599,-0.0674672723,0.1186938733,0.094446294,0.0464018956,0.10189417,-0.044941891,-0.1079227254,0.0186648965,0.1141285747,0.0184638742,-0.0163578987,0.0424157567,0.0641004965,-0.1296977252,-0.027732417,-0.110701248,0.0038440463,0.026031971,-0.0792030469,-0.0532673113,0.0495936088,0.0263882503,-0.0301461481,0.1379617751,-0.0705137327,0.0782679319],[0.0424948893,0.1676799953,0.0554279052,-0.1103993505,0.0081789326,0.0612000711,-0.1090481952,0.063938342,-0.1143504977,-0.0951733962,0.0927196369,-0.0948358104,-0.0123175634,-0.049043566,-0.0804072917,-0.05884194,-0.1212874651,0.0097130742,-0.1440348923,-0.066171281,-0.0378626958,0.1388085634,0.0796886086,-0.1115539521,-0.0952315107,0.1404729784,0.0457998626,-0.02723841,-0.097239241,0.0341204964,0.081795752,-0.0579998605],[0.1358542442,-0.0813949406,0.0685173869,-0.0214149673,0.117958039,-0.0613841414,0.0063082436,-0.0685633123,0.0627566651,0.1073418409,-0.1568267047,-0.1653423011,0.0382076912,0.149493441,0.0100548724,-0.0252161454,0.1363079548,-0.0055242623,0.1304058731,-0.0374114923,0.0273029041,-0.0259419736,0.13970384,-0.1035261974,0.0140654966,-0.1120422706,0.0101691214,0.0027081675,0.1289359927,0.1270394921,-0.0251239967,0.0239002109]],[[-0.0848600492,-0.0103892479,0.1104649082,-0.0034800749,-0.0106530599,-0.0055030561,-0.0314145051,0.0067384243,-0.1231641173,-0.0344922692,-0.1062042341,-0.0860821605,-0.067286022,0.0390978567,0.00262423,0.0670570731,-0.0971124023,-0.1109318584,0.1319096833,-0.0878518,-0.0779305324,-0.1434701532,-0.0714486986,0.0073173414,0.0524719171,-0.1025661826,0.0372793786,0.0905887261,-0.0298858322,-0.0699031129,0.0048014806,-0.1262650937],[-0.0587946102,-0.0415517502,0.0742792487,-0.1013464853,0.1141488627,-0.0764881074,-0.0981575102,-0.0875237286,-0.123105593,-0.1095054001,-0.0848956555,0.1356894225,-0.1014828756,0.0210893229,-0.1312098652,0.1045304984,-0.0184730515,0.0111279059,-0.1447676122,0.043028947,0.0764166489,-0.1137961,-0.1189659461,-0.1049220562,-0.1378667206,0.1345137209,-0.1585295647,-0.0636563301,0.0598827526,-0.0728040934,-0.0987588242,0.0730831847],[-0.0686925352,0.1212570891,0.1480822116,-0.0394266844,-0.0676441044,0.0710956231,-0.1453647912,-0.1112683415,-0.0054786806,-0.1664545536,-0.1081043705,-0.0787128136,-0.0485894792,0.1332865953,-0.0485322289,-0.1465343237,0.0760023072,-0.0106953559,-0.0585863069,-0.0150872916,-0.0464736149,-0.0716363713,0.0377534553,-0.0809453726,-0.2004176825,0.0761379227,-0.0032482033,0.0984811857,-0.0544302352,-0.0634814873,-0.1211735979,0.0907734782]]],[[[0.1076386124,-0.0883974805,0.0671866089,-0.0249753911,-0.0903366283,0.0611541159,0.0543604642,0.1301822811,0.0562040582,-0.1272328198,0.1078903973,0.1442681104,-0.0973982587,0.0837578848,-0.1320923269,-0.1157976389,0.0628667995,-0.0235993806,0.0912398025,-0.1054771319,-0.0859298781,-0.1408103704,-0.0988508165,-0.0313038602,0.062618956,0.1105114147,0.0552525185,-0.0906006172,-0.0117293131,-0.069740586,0.0699240416,-0.119452849],[0.0172765516,-0.0935491249,-0.0715954453,-0.0971387923,0.135139063,-0.1430025399,0.1135880724,-0.136443004,-0.1017246023,0.1303282827,-0.0620979182,-0.100100182,0.120688349,-0.1251160651,0.1216680706,0.0351743959,-0.0542992018,-0.0830600113,0.0176524241,0.0974812359,-0.0481186733,-0.017450545,0.011592079,-0.0150613086,0.0608310886,0.1055037826,-0.0928681344,-0.0288823023,-0.1159494445,0.0965258703,-0.0398561135,0.0966393128],[0.0802404583,0.0589809678,0.05839926,0.1287803203,0.0909068733,-0.1282483637,-0.1312582493,-0.0061852951,0.0878151134,0.0648911148,-0.0655883327,-0.1548494846,0.0871278048,-0.0143510951,0.1246749014,-0.0251799244,-0.1108032763,0.0391811281,0.0819031075,-0.1757286191,-0.0646914393,0.1214833856,0.0135720884,-0.1352149248,-0.1366923153,-0.0093590533,0.060104996,-0.1088862643,0.1224717721,-0.0878018737,0.0247495398,0.0792364851]],[[0.007005509,0.0879452005,0.0066297203,0.0723458454,-0.1310021728,0.1309253871,-0.0776541904,-0.0235739537,0.0121650752,0.1248822436,0.077362895,0.0229814462,-0.0558066331,0.0884495825,0.0880907774,0.1451017559,0.105282031,0.1465169489,0.005149968,0.0082296096,0.0919971913,0.0961077288,0.0845267177,-0.0796378255,0.0090331268,-0.0446006395,-0.025813939,-0.0943633616,-0.0288841967,0.0869508982,0.1233273447,-0.0359230563],[-0.0653891638,-0.0965262949,0.03834223,-0.0822776482,-0.0290245079,-0.0073833838,0.003470632,-0.0238587949,-0.1565109491,0.1441910267,0.0931126997,-0.0177438185,0.012227172,-0.0235793889,-0.1094899625,-0.0185633395,-0.0739440247,-0.062836349,-0.088160634,0.1274852157,-0.0293407217,0.1162704527,-0.1107624993,-0.0797698051,-0.0473214313,-0.0683368742,-0.1657490432,0.0214632247,-0.0507154502,0.0162426643,-0.0785895661,-0.0413754359],[0.0579447523,0.0226418059,0.0716915652,-0.0696396008,-0.1070906743,-0.0093674529,0.0500114895,-0.0036855342,0.086932689,-0.0929728225,0.0718917921,-0.0154044237,0.0030660545,-0.0447561815,-0.0142134558,-0.1089121699,-0.0594445542,-0.0055347718,-0.0461977124,-0.1217041612,-0.1481556594,0.0653844327,0.1509634852,-0.0310660005,-0.1204259843,0.0245641246,0.1277922094,-0.071800068,-0.0429784842,0.0799562037,0.1270727366,-0.0895273089]],[[-0.1246020794,-0.0559779182,-0.1487616301,-0.0829265639,-0.1137245297,-0.1001861468,-0.143147096,0.0575700998,0.1077795699,0.1432528049,-0.007489983,0.0477120653,-0.0671930611,0.1090238988,-0.0326958336,0.050801836,0.1345401704,0.0928403363,0.0109774284,-0.0165940914,0.0964679122,-0.1237324029,-0.083327949,0.091192238,0.0673647448,0.0735007077,0.0838241652,0.0175079741,0.0717803836,-0.0772761181,0.0878674313,0.027691396],[-0.1522992551,0.1473931819,0.1111668497,-0.0530283079,0.1168376431,-0.0931653827,0.0375235118,0.0249316115,0.0521154776,-0.0445466116,0.0070721544,0.1350427568,0.1210343167,0.040626131,-0.0612209961,-0.0463256314,-0.1361110061,0.01582692,-0.0569924526,-0.0939663351,0.0186725445,0.1078320891,-0.0820834562,-0.1004285216,0.0607905276,0.1185164973,0.0606959611,0.1237427816,-0.1137699857,-0.0900222436,-0.002154151,-0.1117950454],[0.0508290082,-0.1014384553,0.1140273586,0.1540327072,0.1215373352,-0.0824608505,0.0791185945,-0.1341383457,-0.0191823505,-0.0939054713,0.0269295368,-0.0816303119,-0.1510109454,0.0517689735,0.1248172149,-0.004161994,-0.025371559,0.0670638904,0.0427931361,-0.0054490422,0.0776084214,0.0779743195,0.0193715487,-0.0409625359,-0.0612496175,-0.1595787257,0.1183997765,0.0007176597,0.079732798,0.1222850084,0.0460630059,0.0378668383]]],[[[0.0898132995,0.1007166132,-0.1467537582,-0.0419619232,-0.1050146967,-0.0074765943,0.0912855044,-0.1013665348,-0.0995690003,-0.0294896197,0.0897749215,0.0567245334,-0.0251300801,-0.0374225155,-0.1171780452,0.1026724055,-0.0100499634,-0.1008736789,0.1344540417,0.0772120059,-0.0645114854,0.112125285,-0.102234669,-0.0349784978,-0.0066150129,0.0972475335,0.0783783123,0.0254078787,-0.0755976662,-0.0698642284,0.0291022286,-0.0088797817],[-0.0270418059,-0.0546164066,-0.1471730173,-0.0967140943,0.1392922103,0.029204024,0.0961742476,-0.0708139688,-0.0470586084,-0.0669704899,-0.1164669916,0.1341232061,0.1275951862,-0.1672725677,-0.0099047478,-0.0136634894,-0.0658368468,0.0807793513,-0.14915362,-0.0137069542,-0.0368441753,0.0365639105,-0.1492329687,-0.0964428857,0.0395678058,0.1083894148,0.0752189085,0.0869642347,-0.1072559431,0.0898946151,-0.137675643,0.0503060073],[0.0690008625,-0.020715408,0.033924751,-0.0137744946,-0.0893681571,-0.0008967721,0.0318760276,0.0118000815,-0.0114016635,-0.154625982,-0.1594187915,-0.1650902182,-0.0677126348,-0.0135167651,-0.1191637293,-0.0225163009,0.0815811381,-0.0896123797,-0.0426507331,-0.1283872128,-0.1658454537,0.0062764818,0.0986707211,-0.1281131208,0.0693175644,-0.1508166641,0.0594337508,-0.1691832393,-0.0909758881,0.0096653737,0.123214148,0.1502578706]],[[-0.0027918913,-0.1413781792,-0.0683319718,-0.1175335571,-0.030135477,0.1223564968,-0.1074457318,0.0724137351,-0.114727363,-0.1152644828,-0.1236166507,-0.0239592269,0.1215338632,-0.0721795708,-0.0559532233,0.0865385383,-0.0307099707,-0.0241391324,0.0010027433,0.0882155448,0.0670285597,0.0797604695,-0.0389136076,0.0205669161,0.0262693129,0.0896934345,0.030273214,-0.1111376658,0.0836194307,-0.0071578436,0.0574073344,-0.1514561623],[0.0682358965,-0.0118803941,0.0972670317,0.043031469,-0.1223970354,-0.0865014344,0.1416468322,0.0497480631,-0.0223277528,0.0724320412,0.0614230819,-0.0912261009,0.0109081352,-0.1575618237,0.091473937,-0.1055025309,-0.0922251865,-0.1304364204,0.107311748,0.0970116705,0.0533231236,0.0476540402,-0.0288575049,0.1070187315,0.0817634761,-0.106255278,-0.0890151858,0.1177748367,0.0141954646,-0.0165695809,-0.0577534661,-0.0600515679],[-0.1276372671,0.0188108981,0.0907530189,-0.0196288843,-0.0530884713,-0.0796780288,0.1348945349,-0.0971910879,-0.1211579442,-0.0708956569,-0.050479643,-0.1004605964,0.093142271,0.0240581147,-0.0151918018,-0.1646167785,-0.0600189157,0.1160517558,-0.0892777294,-0.0918838978,-0.1777719855,0.0429788083,-0.1119995341,0.1356096119,0.0966292322,-0.1730829626,0.0803484023,-0.0533239171,0.0285794102,0.1510161161,0.1491223425,0.0424621105]],[[0.1139530465,-0.1085875034,-0.0045949668,-0.0658353642,0.0233989749,-0.1053973958,0.0717096105,-0.0591384061,0.044672817,-0.0044131749,0.041655384,0.0757721663,0.1088036895,0.039260745,-0.1367764324,0.1289351434,0.0508533679,-0.1126986817,0.1330707818,-0.1241846457,0.147265926,-0.1058751717,0.144397229,0.1058900803,0.0183170009,0.0199147426,-0.0727672502,-0.0629324615,0.1247459725,0.0075732255,-0.1112784371,-0.0528543852],[0.0492592677,0.0280348863,-0.0584176369,-0.0865592733,0.0181255862,-0.033536423,-0.1098445207,0.0405808911,0.1093137935,-0.0236062761,0.1159724295,-0.0497843437,0.042989336,-0.0860918239,-0.0144854635,-0.0035072719,-0.1404460818,0.0934958085,-0.0966570377,0.1015496179,-0.1077390015,0.0125180194,-0.1235983372,-0.0737708956,0.0942665711,0.1281195134,0.0054608271,0.0122833345,0.0752989724,-0.1223853678,-0.1460873634,0.0974918157],[0.003676157,-0.1147507131,0.1004882902,0.005971815,0.1349484921,0.0189189706,-0.1205055863,0.0518091209,-0.0695117489,-0.068076618,-0.1395961791,-0.1454026848,0.1065502986,0.0932821035,-0.0610032789,-0.1747190058,0.0050804573,0.1167252436,-0.1048798487,-0.0201032739,-0.112548314,0.0736657605,0.1126338243,-0.0608511791,0.1171552613,-0.1111966744,-0.0427908748,0.0522935204,-0.0347549282,-0.1263796538,-0.0836411193,0.0687091053]]]],[-0.0503399484,0.0869903117,-0.0391041525,0.0545510203,0.0618718714,-0.0269027837,0.0515567139,-0.0400371291,0.0368206166,0.008991072,-0.0478218943,-0.04527523,0.022429347,-0.0148542626,0.0535598882,-0.0518820137,0.0302735511,0.0573877692,-0.0373161361,0.0563057438,0.0046338774,0.0538199358,0.04753704,0.0394463651,-0.0296750944,-0.0497282967,-0.0684449673,0.0328538157,0.0496633872,0.0688571781,0.0302506965,0.0494193956],[[[[-0.0226413105,-0.0081525361,-0.0357069001,0.0210850295,-0.0046187392,0.0673207194,0.1089154333,-0.0770220309,-0.0303217433,0.0506762452,-0.0675640106,0.003782908,-0.0478489511,0.0247923099,0.0947890133,-0.0136169009,0.0129587026,0.0572288744,0.068971768,0.0139600029,0.0453258865,-0.0247512031,0.0175539106,0.0278571434,-0.0363290757,-0.0552205481,0.0446794592,0.0811105371,0.0136750722,-0.0510991476,0.0545314476,0.0428441949,0.0042671948,0.0565156117,0.0523432419,0.077437453,-0.0158324242,0.0054457369,0.0497511253,0.073369965,0.026782833,0.0329665318,-0.0521625839,0.0809128433,-0.0032950691,0.0052221278,0.0553603172,-0.0709921494,0.0316584073,-0.0569951795,0.0157179255,0.0280605126,0.024272196,0.0853814781,-0.0202241726,0.0589058325,-0.0156624392,-0.0382689796,-0.0939507633,-0.0190191995,0.0317872204,-0.0233398303,0.0813921541,0.086161755],[0.0251321699,0.0404310301,-0.033636339,-0.0646475628,0.1515019238,0.0446448773,-0.0204718169,0.0894414932,-0.0335919186,-0.0512862541,-0.0309400968,0.0024845449,0.0286307223,0.0519186258,-0.0796889886,0.092713818,-0.022696564,0.0685916841,-0.0858384445,0.0743317902,0.0592844933,-0.075996086,0.0801550895,-0.0249079186,-0.0160992853,-0.0666400269,-0.0095486501,0.0723109245,-0.0250795409,0.065577291,-0.0259675365,0.0314780958,-0.0445018224,0.1111017093,0.0266577397,-0.0167309958,-0.0337078199,-0.096117124,-0.0205728039,0.1199958995,0.0436383151,0.0697404444,0.0754056051,0.0658608153,-0.0070111481,0.0654285401,0.0415337719,0.0547494553,-0.0271467939,-0.058773715,0.0074326564,0.0133394916,0.0591664426,-0.0138637312,0.0564888231,0.1285771579,0.0825692043,0.026443135,-0.0515168793,0.0561279468,0.0093826726,-0.0281460192,0.065676257,0.0326913446],[-0.0590467528,0.0275899339,-0.0349987075,0.1069665477,-0.0247303899,-0.0390062369,-0.0371818468,0.023339333,-0.0139539745,-0.0619758181,0.0577199571,0.0333253294,-0.013490974,-0.0306231473,-0.0636951253,-0.0037822234,-0.0560147353,-0.0016229065,0.0706931353,-0.0859220996,0.0941304341,-0.0534571074,0.0764217973,0.0538610779,-0.0076979725,0.0747384503,0.0312714428,0.014209331,0.0686409697,-0.0761631727,0.0710333437,-0.0477209948,0.0012117445,-0.0520137511,-0.0425296016,-0.0327318124,-0.0726133958,-0.0856763273,0.0108067226,-0.0558612272,0.027063027,-0.016262915,-0.0532713532,-0.0463070944,0.0696320459,0.0309839752,-0.0338411257,-0.0838482752,-0.0128016118,-0.0685511008,-0.1183481216,-0.0509650148,-0.0618078001,-0.0712846294,0.0805100948,-0.0449177064,-0.0189445391,-0.01825325,0.0467377119,0.0643758923,0.0276317168,0.0160995424,-0.0556449741,-0.1040909588],[-0.0603075512,-0.0656203702,0.0031664195,0.0852504149,-0.0247236192,-0.0845670402,0.0524779595,-0.0220844764,0.0365243219,0.1392294317,-0.0441731848,-0.0311232433,0.0530253313,0.057390444,-0.049760703,0.1062197089,-0.12034031,0.0288946629,-0.0134846717,0.045776289,-0.0229647681,-0.0182637423,-0.0479707271,0.0099073052,0.0231330544,-0.0330673233,-0.0933923572,0.0657717288,-0.0015169608,-0.0455480441,0.0415917821,0.0973780975,0.0233927593,-0.0804174393,-0.0925846621,0.0439394489,0.0573550612,0.0391258039,0.0535738766,0.0755286366,-0.0464869402,0.0606824607,0.0483679026,0.0178645421,-0.0554490723,-0.0725913197,-0.0665780157,0.0681023225,0.053328,-0.0214007013,-0.0432730429,-0.002562202,0.0565199442,-0.0458798446,-0.0671382099,-0.0160868037,-0.0448723733,-0.0902727619,-0.0251924992,-0.0494856946,0.0395729765,0.0331412368,-0.0534917824,-0.0063723754],[0.0252076983,-0.0699494779,0.0823849589,-0.0231106691,0.0944207162,0.0502141267,-0.0007857328,0.0519114695,-0.008865457,0.0707678497,-0.0711107254,-0.037588235,-0.0098264664,-0.0191194806,-0.0513710976,0.0389625132,0.0045781806,-0.0885420814,-0.0219003633,-0.0585654527,0.0456425697,0.0810992345,0.0512547977,-0.0042107487,0.05855003,0.0736418813,0.0131620253,0.0423860773,0.0903119445,-0.0185860414,0.0536789857,-0.0097852871,-0.0332953557,0.0020250117,-0.0942221582,0.0648191944,0.044740811,-0.0886349007,-0.0208032429,0.0201932676,-0.080145523,-0.0224010088,-0.0467394069,0.1427979618,0.0391554236,-0.0066782469,0.0455781855,-0.099940449,-0.0833806172,0.0039685853,-0.0605245642,0.0596531965,0.0570609272,0.097622484,-0.0177469589,0.0265104119,0.0567997247,0.0304956082,-0.0286029261,-0.0080417953,0.0106829386,0.0650817528,-0.0439369604,-0.0370815359],[0.0711693466,0.0187811647,-0.0353467911,0.0939677879,0.0408296511,0.0236145128,-0.0413827673,-0.007762895,-0.0047923294,-0.0203838944,0.0254438445,-0.0759692118,0.0161588918,0.0848049372,-0.0470229983,0.0144514982,0.0342930891,0.106724523,-0.0074766311,-0.0316759124,0.0256965011,0.0861825347,-0.01333501,0.0559436604,-0.028458735,-0.0592455529,0.0256537292,0.0969993398,0.0296711009,0.1024672091,0.024437815,0.0368380845,0.0783687681,-0.0364423357,-0.0393888913,-0.0001024784,-0.019331323,0.0025143367,-0.0151191587,-0.0544794053,-0.0460695922,0.0065491069,0.0322360732,-0.1064651385,-0.038842719,-0.0525436252,0.004605236,-0.0379825495,0.0187656917,0.0426048711,0.0279354155,-0.0540102459,0.0623731315,0.0091573037,0.0096288454,-0.0177720077,-0.0959223509,0.076047197,0.0220277868,-0.0438743792,0.04399487,-0.0110576097,-0.0694354177,-0.0229271892],[0.0673207492,-0.0384712145,0.0644350275,-0.0527446494,0.1803028733,-0.0850539356,-0.0994091257,0.0622347035,0.0469865464,-0.0056779115,0.0905431882,0.110889256,0.0287469812,-0.0155648785,-0.0464329347,-0.0383182019,-0.108364664,-0.0977636352,0.0782219246,-0.0301408172,0.0168460291,0.0583741479,0.0267761387,0.0035209812,-0.0643415153,-0.0663737282,-0.1026029214,0.130115509,0.0643141419,-0.052053526,0.0744454041,-0.0956684574,0.1092230752,-0.0106511638,-0.043958813,-0.0154831354,0.0054146433,-0.0431687161,0.0738349631,0.0389152952,-0.0525129177,0.0773488581,0.0066637751,0.140239954,0.0057690404,-0.0793558508,0.015887592,0.0383044854,0.0292675439,-0.0493586808,0.0082745077,-0.0274026729,-0.0777786896,0.0087703094,0.0006665853,0.0660137609,-0.0041462951,0.0099176839,-0.0078588463,0.0662285239,-0.0805787742,-0.0739556849,-0.0632971823,-0.0046171518],[-0.0183864683,0.0572328903,0.0311052576,0.0337199382,0.0526573211,0.0220019184,-0.0736228675,-0.0057261488,-0.0035082714,-0.0415152982,0.0813801661,-0.0484336987,0.0420536697,0.0150709609,-0.0145788407,0.0285259467,0.0049653635,0.145230934,0.0357918888,0.0248002317,-0.0488198437,0.0002300096,-0.0244848169,-0.0320648104,-0.059150923,-0.0777787343,-0.0614550896,-0.0086600669,0.0679234639,-0.0236219261,0.0076091248,-0.033612676,0.0753933191,0.0690840632,0.0370162539,0.0473069027,-0.0196562782,0.0284840185,-0.0535362251,-0.0329401754,-0.057685215,-0.0132658733,-0.0680308565,-0.0634679794,0.0375750847,0.0768107697,0.0553154722,-0.0545893759,0.0942365304,0.1059561521,0.0458456017,0.0857120156,-0.0135676814,0.1185395494,-0.0571262836,0.0558038689,-0.045349054,0.0504700951,0.0864703804,-0.0451013483,0.0492989421,-0.0124818757,0.0413631685,-0.0114770746],[-0.046657417,-0.031124685,0.0631664991,0.0499712303,0.08932814,-0.0024294914,0.0159923658,0.0930038244,0.0683230907,-0.0273758639,-0.0310833845,0.0504890792,0.0624129623,-0.0071091419,-0.0841362402,-0.0047430969,-0.1091895849,0.0473279171,0.0255232751,0.0050993194,0.0215238091,0.0889958143,0.0890037715,-0.0318466797,-0.0227365997,-0.1151736751,-0.0076459046,-0.0530492887,-0.0073711136,0.0475379936,-0.0487618335,0.0454087257,0.087478362,0.0327872522,-0.0657452345,0.0451610982,-0.0303164441,0.0074051931,0.0059883147,-0.0047356049,-0.0615948364,0.0565945171,0.0389088877,0.0537053645,0.0316095166,0.0303454511,0.0721048936,0.0100493943,-0.0165266171,0.0587885156,0.0047794194,0.0976065546,0.013496263,0.0049188095,0.0813384205,0.0272835754,0.0167312101,0.0502468795,-0.0687345564,-0.0744219199,-0.0603903495,0.0002883108,-0.0406892821,0.0303317457],[0.0945628211,0.0395794511,-0.0179709494,-0.0193972252,-0.0471493267,0.0509125926,-0.1000395492,-0.0014199292,0.0954408199,-0.0040089223,0.0139447153,-0.0565270595,0.1501446068,-0.0679019988,-0.0964307413,-0.0171589181,0.040784616,0.0871099085,-0.0681570098,0.055974029,-0.0333712436,0.0786113515,0.0805841461,0.0578420386,0.0193644706,0.0371561162,0.0181186721,0.0582888909,0.0552337319,-0.0128950169,0.0013384018,-0.0201670919,-0.0468748733,-0.0033054897,-0.0740913674,-0.0196321029,-0.0342187956,-0.0018573557,0.0319771208,-0.0049705268,-0.0344708338,0.010277899,-0.0161668677,-0.0263212919,0.0474064164,0.1192984134,0.0576141737,-0.0638238192,0.026712656,0.00984166,0.1928581893,0.0573067404,-0.0683705136,0.0813356712,0.0533874407,-0.0445899814,0.0253698304,0.0698418766,-0.0048166979,-0.073358424,0.0516193584,0.0588023029,0.037239179,0.1054950356],[-0.0075835893,0.0209726691,-0.0353588462,0.0150001002,0.0720206499,0.0459966138,-0.0474321023,-0.0387276635,-0.0056520319,-0.0694689602,0.0127902133,-0.0355113856,0.0626651421,-0.0236599334,-0.0847104266,-0.0112727769,-0.0398069844,0.0882041305,-0.0156946126,-0.006088756,0.0787922367,0.0579542853,-0.04451745,0.0646449476,0.0705338418,-0.0442266613,0.0374730453,0.0053583505,0.0732993484,-0.0304548256,-0.0750092417,-0.0454349592,0.0054253279,0.0681448281,-0.0009799759,-0.0043108305,-0.0557646975,-0.0203424636,-0.0135703702,-0.0582285896,0.0559172966,-0.0067942445,0.0268774871,-0.0124566695,0.0371686816,-0.0014039467,-0.0000311577,-0.0726263002,-0.0574699901,0.0117599647,0.0848783404,0.0909456015,-0.0066348906,0.0938791931,0.0274026729,0.0157925729,-0.0516403615,0.0611485727,0.0472403727,-0.074481599,0.0781610906,0.1128038168,0.0362400264,0.1156222224],[0.0560013801,0.071939759,0.0734844655,-0.0818638802,0.0570775978,-0.0249913409,-0.0653933287,0.0655206069,0.080113098,0.0010436134,0.061043188,0.0375641957,0.0438684374,-0.0402110741,-0.1227586418,-0.0590694286,0.1057046577,-0.0003199166,-0.1015221402,0.0553916171,-0.0169079639,0.0407155044,-0.0374170095,0.0514866225,0.0636891127,0.0041275541,0.0307307635,0.0034653575,0.0038298257,0.0907911882,0.0344929136,0.0302468501,-0.0286887046,-0.0628362,0.0050750296,0.0624295659,0.0599030592,0.0893945694,-0.0545792729,-0.0416051596,-0.0591747276,-0.013813179,-0.0193995405,0.0257684179,-0.0431359857,0.125731647,0.0259893406,-0.0144419102,0.0566722117,0.0923528522,0.0148584116,0.0989534035,-0.0378986523,-0.007700373,-0.0682501942,-0.0337823927,0.0895313248,0.0543507785,0.0815713629,0.0316123255,-0.0063058026,0.1621680707,0.0712997541,0.0159573164],[0.0668694824,0.0078286994,0.1084780768,-0.0162829347,-0.0172493681,-0.048130326,0.0034743424,-0.0591888539,-0.079591088,-0.1002024412,-0.061527174,0.0246531796,-0.0212758947,0.0410564058,0.0658513978,0.0673476979,-0.0272799246,-0.0617682822,0.0593730919,-0.024113128,-0.000898149,-0.0975765437,0.0222263839,0.0112299901,0.0852860659,-0.022406457,-0.0388287157,0.0318864137,0.0361724496,0.034558665,0.0242149457,-0.0498686507,0.0785874873,0.0824299008,-0.0031490661,0.0274900328,0.0555843674,0.0078766914,-0.0495726801,-0.0721714199,-0.0745683834,0.0518156216,0.0015952305,0.0569219328,-0.0321909785,0.0798646957,-0.0440619551,0.0081976866,-0.0427378006,0.02849021,0.0380467959,-0.005458842,-0.0144759435,0.0249790549,0.0717861652,-0.0750854686,0.0951490998,0.05157464,-0.0509448536,-0.0158393551,-0.0734345838,-0.0331524163,-0.0169283766,-0.0815945566],[-0.0551044531,0.0579611436,-0.0443745553,0.0546928272,-0.0366361365,-0.0714164078,0.0716572329,-0.0691826716,-0.012569895,-0.0124691604,0.0070649842,-0.0276550669,0.0113229593,0.0211669281,0.0408973582,0.0281170476,-0.0292969514,0.0682071298,0.0264325496,-0.0429398865,-0.031777557,0.0404078774,-0.0132071115,-0.0513979867,-0.0218212139,0.0114303175,-0.0834661797,-0.0181701649,0.0603155531,-0.0342400484,0.0272680409,0.036046207,-0.0548516996,-0.0328716263,0.0781701207,-0.0117590716,0.045411367,0.0368797667,0.0068829074,-0.0666652098,-0.0167809259,0.0784045458,-0.0309942383,-0.0889144689,-0.0181314293,-0.0337434523,-0.0083039114,-0.0500801317,0.0149940662,-0.0388586,-0.0857173428,0.0049004094,0.0054523731,-0.0581111312,0.0957578048,0.0408210121,-0.1155480817,0.0235895533,0.090608418,0.0581384376,0.0568698458,0.066255115,-0.0400647819,0.0506278016],[0.1143561974,-0.0932760388,-0.0612392202,0.0339389704,0.0665240139,-0.1150127351,0.0706700683,0.063388586,0.0992381051,0.0123695657,0.1075274646,-0.0149270697,-0.0681811795,-0.0280142426,-0.0395319648,-0.0232440904,-0.0601444542,-0.0256769061,0.0560098439,-0.0756163523,0.0380893499,0.0480565913,0.0764708966,-0.0093067763,-0.0469317697,0.007766088,0.0092950473,-0.0439898781,0.014063837,-0.0424330719,0.0207074098,0.0318296626,0.0306075811,-0.0441947766,-0.0708993897,0.1166194305,0.1015187874,-0.0468695238,0.0538019799,0.0590682961,-0.0333302356,0.0953952372,0.1303807795,0.1642466784,0.0082675209,-0.0174783375,-0.0319309495,0.0739686042,0.0452551059,0.0759171098,-0.0593268797,0.0394938886,-0.0015330872,0.0583818965,0.0134788975,0.0512494631,0.0496668257,-0.0571700111,-0.1007782966,0.0233647004,0.0192439817,-0.0273952764,-0.0706582591,0.0054499297],[0.013929382,0.11336115,0.1005290151,-0.0230249744,-0.0498906448,0.1053462699,-0.0559631251,0.0192252435,-0.0119529124,-0.0393614024,0.0330737382,0.0888137743,0.1165938824,-0.0532134809,-0.0509223789,0.0374825522,0.0951565504,0.139680028,-0.0418624431,0.0688578933,-0.0416140147,0.0138781359,-0.0865805969,0.0448820591,0.0025016973,-0.1196610183,0.0384420864,0.0375886858,-0.0313722715,0.0282483511,-0.008149527,0.0116781052,-0.0130049139,-0.0535931662,0.0511223935,0.0232097805,-0.0648536608,0.0776994303,-0.0011822073,-0.0705267638,-0.0866238251,0.0507429317,-0.1080250293,-0.0982547998,0.0531427674,0.1311549991,0.0537083633,-0.0655375794,-0.0438516252,-0.0231852997,0.0548021086,0.0445072688,0.0669517443,0.1479250193,-0.0680728406,-0.0179438181,0.0546100028,0.0542503335,-0.0158416666,0.0176491514,-0.0724699125,-0.0000038508,-0.0382471755,0.0214727521],[0.0272665825,-0.0017612972,-0.0048844949,-0.0192434024,-0.0299728941,-0.0252841152,-0.0092894603,-0.0642615184,0.0938077271,0.0587834381,0.1100027859,-0.0331027135,0.0011448292,-0.0588887744,0.04854545,0.1020707786,0.0032976749,0.0523161031,-0.0330218673,0.0442431569,-0.0377757996,0.0582890883,-0.0326226875,-0.0485314354,-0.0817117617,-0.061087627,-0.0802588165,-0.0221759807,-0.0078021423,-0.0140982009,-0.0663395301,0.1019580364,-0.0623067245,0.0339664482,-0.0343126506,-0.0428856239,0.0293796957,-0.0413077585,0.0497839116,0.0219795965,-0.092713289,0.0606171004,-0.0397190899,0.0336245894,-0.0370833538,-0.090734005,-0.026761258,0.1007136479,0.0102135157,-0.0042001321,-0.0135463784,0.0998249725,0.0826083794,0.1068602055,-0.0217246208,0.0042445296,-0.0389718562,-0.0483517684,0.0692722723,0.0466425978,0.0543694273,-0.0022145293,-0.0577769652,0.08932399],[-0.1020506024,-0.048574049,-0.0437220074,0.0254022088,0.0545873642,-0.0743346736,-0.0736430213,0.0450531803,-0.0771369934,0.0824756846,0.0104282983,0.0020387941,0.0444562137,0.0667431876,-0.0456219763,-0.0271039028,-0.1145831347,0.0189596452,-0.0183086079,0.0040425616,0.000033265,0.0830826163,0.0047040847,0.0497508161,-0.059974391,0.03449082,-0.0356845409,-0.006712866,0.0710597262,0.0309596118,0.1283273995,-0.0467404947,0.0100155687,-0.0186913405,-0.0012969015,0.0129007809,0.0649395287,-0.0679726452,0.0624359958,0.0479552597,-0.0922191963,0.0516636185,-0.0522204787,0.1071106866,0.0550386831,0.0451775268,0.0621984303,-0.0004688266,-0.07088691,-0.0797058865,0.0061180089,0.049579598,0.1024477035,-0.0092238281,0.0432858393,0.087440379,0.0549699403,-0.0517706908,-0.0288395863,0.0090879686,0.0134126646,-0.0985021144,-0.0284978151,-0.0895384252],[-0.0378390253,0.0377375819,0.0089042019,0.0629208982,-0.0328937843,0.0147805437,-0.0112226745,-0.0681689084,0.0258353557,-0.0221591424,0.0986657068,-0.0927353501,-0.0049822209,-0.0004360155,-0.0799863413,0.0375542529,0.0840932205,0.0860518217,0.0303332973,-0.0790666714,0.0074542132,0.0944598764,-0.1077119485,-0.0277149025,0.026845973,0.0290634893,0.0246224348,0.0688579604,0.0432779007,0.0661261752,-0.0123847444,-0.0570034124,-0.0236162413,-0.1317559928,-0.0095548499,-0.0066319043,0.0610362068,0.0758559108,-0.0442969091,-0.1249968931,-0.1042518094,0.0337778293,0.0112218698,-0.0388411954,-0.0139953969,-0.0484802201,0.0525418706,-0.0326058976,0.0726144239,0.0282804072,0.0784855261,-0.0686494559,0.0903252885,-0.0455814153,0.0099586369,-0.0595046468,-0.0034319696,0.060736876,-0.0448331945,-0.0352612957,0.0994917452,0.0346972495,0.0892082453,0.0138120214],[0.0268455725,-0.1192909628,0.0789647102,-0.0020510973,0.1129707396,-0.0910710245,-0.0212213397,0.0589043722,-0.015881218,-0.0122358911,-0.0048583839,0.1140592024,-0.0226181969,0.0222437959,-0.0837641582,0.0481120721,-0.0613474213,-0.0676663667,-0.0538985208,0.1639126241,0.0388421528,-0.0168480724,0.1112347767,-0.0222393498,0.0782160684,0.0233789347,-0.0003411393,-0.0705802515,0.0082235327,-0.0160852037,0.017138185,-0.0358973183,0.0503187627,0.0322382078,-0.0010379939,-0.0006270629,0.0001420768,0.0155507587,-0.0097092707,0.1556220204,0.0357255861,0.014368712,0.021340346,0.0353078097,-0.0926108509,0.0077711726,0.0071393,-0.0220687408,0.0014250944,0.0720077157,0.1194742769,-0.0044335444,-0.0065461714,0.1013687104,0.1046683341,0.0573157482,0.065881975,0.0010467186,-0.0455916189,-0.0679755211,-0.0821872056,0.071820356,-0.0575378351,0.0086783683],[-0.0513515212,-0.0329074152,0.0912379101,-0.0505469777,0.0371995978,0.059403643,0.0099598588,-0.0193928834,-0.0224863999,0.0598044768,-0.0156149734,-0.02575491,0.1089065298,0.0999971032,0.0105536198,-0.0369659923,0.0373919979,0.0301700905,0.0309239123,0.0752830505,0.0316175036,0.1105494574,0.0526690371,-0.022861734,-0.0521744825,-0.0422690623,0.0084886728,-0.07045158,-0.016615225,0.1231691167,0.0006919148,-0.0742498562,-0.0101746069,0.0807223618,-0.0583642907,-0.0085609648,-0.0922087431,-0.0699897408,-0.0722745508,0.0892784297,-0.0074788481,0.0651362762,-0.0186638162,-0.0722284093,0.0288341176,0.076218456,-0.0997961983,0.0945316255,0.0323650427,0.0044231601,0.1357897222,0.0349735357,0.0548157208,0.0163754076,-0.0435485244,0.0713375583,-0.0641272515,-0.0326410756,0.0282720271,0.0114834979,0.043976184,0.1370789707,-0.0900771394,0.0914666206],[-0.0475343205,0.0139030823,-0.0208196919,0.0359163471,0.0391786769,-0.0073510883,0.0616786256,0.0351191312,0.0304199457,-0.0897772238,0.0172401331,0.0201331526,0.0089780102,0.1173847541,0.0044529866,0.100481391,-0.0171843506,-0.0224912968,0.0204827022,-0.0443200767,0.0199001506,-0.1060004234,0.0067053307,0.0331272371,-0.0331604816,0.1208653823,0.0578630604,0.0558676161,0.1016911417,0.0593772568,0.0477135591,0.0538182221,0.0136684151,0.0708548501,-0.0492892303,0.0338052772,0.1032297909,-0.0643629283,0.0155088734,-0.0665066913,-0.0503883921,0.0852885917,-0.0919689387,0.1514289379,-0.0241938941,0.0204971824,0.0824533477,0.059947677,0.0265973825,-0.0510333888,-0.0356914252,0.0482323691,0.0942295492,0.0080932528,0.0917249024,-0.0251983069,0.0935815275,-0.0214689746,-0.1035816222,-0.0171873905,0.0162275862,0.0172077399,-0.0586924441,0.0431966372],[0.0490418114,-0.0200884677,0.0677162707,0.029328838,0.0615845919,0.0475966819,0.0323721245,-0.0892977118,-0.011049157,0.1301986873,0.0327616185,-0.0285144057,-0.0547889099,-0.035335876,0.0875192806,0.0550491698,-0.0756102502,0.0568796135,0.0066937227,-0.0179904681,0.1135717034,0.0930201262,-0.054331746,-0.0170761012,0.0235780869,-0.0284070782,0.0533485189,0.0836086124,0.1332370937,-0.016584944,0.0917725042,0.0558545962,-0.0845560431,0.0415361896,-0.0893014222,0.0874444544,-0.0460524261,-0.0270049796,0.0375423618,0.0660841912,0.0331433639,0.0546168946,0.0720511526,0.0283096153,0.0555786379,-0.072058171,-0.0398208313,0.146748051,0.037979424,-0.0528204553,-0.0233731866,-0.0183189046,0.0202885065,0.025936624,0.0123101296,-0.0506545529,0.0214725453,0.0408238284,0.014051782,-0.0815041885,0.0628759563,-0.0728563592,0.0683428943,0.0422062129],[0.0410973355,-0.0727827847,-0.0232554674,-0.0469882563,0.0307583213,0.0216120817,0.0235427227,-0.0393259116,0.0105430223,0.0073162368,0.0544686988,-0.0220733937,0.032125771,0.0621120445,-0.080551751,-0.0259687509,-0.0001316451,-0.0221362039,0.0377450623,0.0915106758,-0.0685450062,0.0883720145,0.0831327885,-0.0534274317,0.0410332829,-0.060853634,0.0568087175,0.0581906922,0.0731028318,0.0950957984,0.0247246567,0.0491403751,-0.0042867512,-0.0614838526,-0.0292627793,0.0556659624,0.0231681317,0.0403834321,0.0833463073,-0.004683394,0.0574122183,0.0905491561,-0.039525263,-0.0462468266,0.0433688238,0.0225970019,-0.0200729892,0.063317813,-0.0085884575,0.076366052,0.1125936136,0.0625089481,-0.0352933332,0.0022681644,0.0377131253,0.0128392726,-0.0661498159,-0.0007597014,0.0589374751,-0.0239473842,0.068470791,-0.0103936391,-0.0542705469,0.0114428727],[0.014921831,0.0439036973,0.0366304293,0.0524234958,-0.023158567,0.0477051362,0.0148388911,0.0353006572,0.0447355323,-0.0057197874,-0.0245270077,0.0442277677,-0.0311159249,0.0724505335,-0.0805278122,0.0644257143,-0.0751146153,0.0546444803,0.0038436274,0.0387125425,0.0283001158,-0.0460320413,-0.0244455766,-0.0218875147,-0.074078463,-0.0226111095,0.0015395065,0.0075290366,0.0637478232,-0.0227680989,0.035643775,0.0035705082,-0.0162270274,0.0716974959,-0.0438639969,0.018512452,0.0473094732,0.0262357071,0.068882294,0.0506368615,0.003906772,-0.05269875,-0.1315672547,0.0472137779,0.0031171523,-0.0328295194,0.0493600741,-0.048841171,-0.0206777975,0.0345569588,-0.020515753,-0.0438418761,0.029933136,-0.0127734225,0.0304976441,0.0415783748,-0.0027246962,0.0723253116,0.0319919363,-0.0824314952,0.0207731482,0.0903039351,-0.0214243103,0.0973083302],[-0.0661538392,0.0291266106,-0.0580689348,-0.040755365,0.0640029013,0.0432410277,-0.0545028672,0.0142384097,0.023035517,-0.0239804499,-0.0909336582,0.0817816556,-0.0426603183,-0.1063720435,0.0823235214,0.0568653569,-0.0278732013,0.0189384744,0.0466788858,0.0310243908,0.0089185266,-0.0677050874,0.0204946734,-0.0238052625,0.0260099433,-0.0753262639,0.0584523939,0.0507803708,-0.0584477261,0.0353861824,0.0742086694,0.0343537927,0.0380450264,-0.0490638241,0.0851639435,-0.0852325037,0.0026586249,0.0376892798,0.0045378064,0.0089713279,0.0024344949,-0.0178542938,-0.0336329751,0.0387438089,0.0119876601,0.0139766596,-0.019268943,-0.0593461543,-0.0898449868,-0.0717533082,-0.0579803512,-0.0039304961,0.0099863149,-0.0755940303,0.0077852975,-0.0583743192,-0.0208988525,0.0708174184,0.0071702306,-0.0004314424,-0.0415628627,0.0262459312,-0.0119144982,-0.0325026438],[-0.0814133361,-0.0319927521,0.0211958215,-0.0278351959,0.0132090207,0.0697118863,-0.0253254436,-0.1266518235,0.0327431299,-0.0347734615,0.0216690097,0.0295353308,-0.0884751901,0.004177602,0.0904039219,-0.0084102582,0.0351765156,0.0641918555,0.0391426943,-0.0420314111,0.0841022059,-0.0837539583,0.0060628098,-0.038401071,-0.0449949913,-0.0039891484,-0.0616268329,0.0299814194,-0.0634369329,-0.0031885444,-0.0136800865,-0.0891337097,-0.019259911,-0.0774614513,0.016491428,0.068681784,0.0772154182,0.0746293589,0.0191756003,0.0068223714,-0.0901500657,-0.0054816618,-0.0019990155,0.0187052637,-0.034404058,-0.0039894856,-0.0126695326,-0.0677151233,-0.0547103621,0.0064589917,-0.0289564338,-0.0690513179,-0.0346274301,-0.0014933341,0.0328440219,-0.076698482,0.0118824001,0.0028898746,-0.0781032741,-0.0715467632,0.0715609044,-0.0903086886,0.0732777938,-0.056878414],[0.0314320326,-0.0167432968,0.0468017459,0.0341887102,0.1029816344,-0.0043564546,-0.035898149,0.1573714912,0.036412023,0.0317451358,-0.0855682343,0.027497068,0.0224327669,-0.0412268341,-0.032340128,-0.0168397836,0.0048674345,-0.0552048124,-0.0431023762,0.0241277982,0.1105125025,0.0626814291,0.0329699032,0.0368593037,0.0971976668,-0.0053746682,-0.0012252239,0.0599070229,-0.0316545293,0.0235810727,0.067017965,0.0428948514,-0.0015289475,0.0058111697,-0.0582526587,0.0074918419,-0.0574557297,-0.0507970154,0.0917908847,0.148331359,0.02390806,0.0308897365,0.0813632384,-0.0080208266,-0.0731928274,0.0595201105,0.0136173842,0.0419349857,-0.1011830345,-0.059805464,-0.037152227,0.0387792848,-0.0480091944,-0.0482027717,-0.020949319,0.1322222501,0.1195607707,-0.0370642841,-0.0663936362,-0.0823927894,-0.0068155583,-0.0027151727,-0.0915174857,0.0467563197],[0.0686623827,-0.0316373259,0.0052456753,0.0841224939,-0.0164038017,-0.0240680519,0.0723179355,-0.0628029555,-0.0000344045,0.0570919365,0.0347355753,-0.0879276246,0.0826744959,0.0244281348,0.0228195656,0.0587457567,0.015995184,-0.0293875691,0.0303680543,-0.0099981651,0.0579416007,0.0841175318,0.0319137312,0.0144710289,0.0187657811,-0.0896098167,-0.0548144169,-0.0290040672,0.0581343807,0.0338088162,0.0229586773,0.00774574,-0.0564274751,-0.053324949,0.0096918829,0.0008650284,0.0526990071,-0.0810262412,-0.0083850753,0.0796841159,0.0596407354,0.0578035749,-0.0264283437,0.0681129321,0.0077395476,-0.0598404855,-0.0596930757,0.0650740415,0.0361228436,0.0045489916,0.0361597687,0.0971939191,0.0472851619,0.002407942,-0.077849403,-0.0234094989,-0.0136190178,0.0224816538,-0.0155682107,0.0038605744,-0.049791038,-0.02312438,-0.0051849685,-0.0356073417],[0.0220092125,-0.0341863371,0.0225089304,-0.0965773687,0.0255592428,-0.1020925418,-0.0535394438,0.0248148572,0.0396762341,0.0555321127,0.0596295409,-0.0879873112,0.0373592526,-0.0845742077,0.0350683965,0.0634875,-0.0422422215,-0.0536937639,-0.0604601763,-0.0106408959,0.014507588,0.0937848091,-0.0597223863,0.0730627403,-0.0530930534,-0.0556081794,0.0001260374,0.0833642632,-0.0242479891,0.0450441092,0.0815618411,-0.0187676884,-0.0489370488,-0.0478273146,0.0352394618,-0.0083944434,-0.0010946291,0.0457673371,0.0201545991,-0.020266775,-0.0531354435,0.0993650407,-0.0479685366,0.0570350885,-0.0495142862,-0.0317975543,-0.0677516907,-0.0397768952,0.0449172743,-0.0713343397,-0.060898006,0.0358492918,-0.0615546219,-0.0189430788,0.0178838428,0.000920871,-0.0478459112,-0.0039128708,0.0357369483,-0.0379527956,-0.0680615231,-0.0329104066,-0.0884287059,0.0637064651],[-0.0988720059,0.005094979,0.0961452276,0.0562037528,0.0804204047,0.0200449321,0.1083482653,0.0154539626,0.0072666784,0.0952618942,0.010956361,-0.0842284411,0.0781870931,0.1052371338,0.0059358128,0.0944513902,-0.0139444368,-0.0670574978,0.051322937,-0.0707996413,0.1022436023,0.0402828418,-0.0705745742,-0.0936522335,-0.0768459141,0.1139672324,0.0165181905,0.1280287653,0.0250373743,-0.0547258817,0.0783384293,0.0850767717,-0.0733356625,-0.0677887052,0.0069111255,-0.0140522942,0.1361616552,0.0122931823,0.0012379073,-0.0654613972,-0.0729650781,0.1026826352,-0.0038083461,0.0905179605,0.0206364561,0.0389352478,-0.0562600978,0.1057086438,0.1030358598,0.0127759306,-0.0023086607,-0.03035523,0.0020487753,-0.0341313332,0.0649403185,0.0660899431,0.0232073981,-0.0887266099,0.0544506311,0.0521556772,0.063465707,0.0184087865,0.0521746725,0.0220604148],[0.0445876345,-0.0575316213,0.0755332932,0.032540869,0.0678226575,-0.0550981089,0.0315703899,0.0579516739,-0.0395570844,0.0544704422,0.067994535,0.0125354389,0.0403347872,0.0586321056,-0.0067554065,0.0366782658,-0.112141706,-0.0216173604,-0.0904262587,-0.0669557229,-0.0375569537,0.0511035696,-0.055561658,0.0693992972,0.0110975839,-0.0484154932,-0.0193689447,0.0484499931,0.0165847857,0.0488454141,-0.0171224456,0.0924758315,0.0830365345,0.0327988192,-0.093069613,-0.0262739882,0.0127048893,-0.0275042132,0.0575444959,0.0183912888,-0.0180920288,0.0535839535,-0.064921543,0.1545005888,0.0622839257,-0.0844467729,0.0268610958,-0.0636890084,0.0455955118,0.0492687561,0.0502695292,-0.0789684206,0.0482140556,0.0055804132,-0.0420411229,0.0583124273,0.0100364545,0.0747637451,-0.0762071535,0.0248404332,0.0487247556,-0.0855884999,0.0584373921,-0.0181333236]],[[-0.0189338829,0.0742073208,-0.0565591343,0.0491932407,-0.0083382074,0.0239246376,0.0324431993,-0.1116890982,0.0340276062,-0.0059868917,-0.0667580962,0.1019581705,-0.0226266775,0.0666612163,0.0644073859,0.0647207573,-0.0589886159,0.0097833341,-0.060702417,-0.0768191889,0.0141866766,-0.062584728,0.0210798196,0.0136364605,0.0184924435,0.0467696935,0.0114154601,0.035914585,-0.0032282381,0.0015207954,-0.0408277959,0.0507004037,0.0550776869,-0.0278303865,0.0689992458,0.0327375196,-0.0856793374,0.007351453,-0.0346126333,-0.0623859875,-0.031108059,-0.0374342948,-0.0726605877,0.0482010841,-0.0826169103,0.070163399,0.0313304923,0.0356634632,-0.0374125615,0.0093516931,-0.0255144667,0.0202356167,0.0667505413,-0.0177522451,-0.0439774804,0.0557010956,-0.0760694817,-0.0636599734,0.0347120054,0.0028879691,0.0061007445,0.0203195121,-0.0804268718,0.0025681143],[0.0975804776,0.0120528778,0.0646375716,0.0952490196,0.0016838368,-0.110358499,-0.0762349591,-0.0043935664,-0.0602603741,-0.0219155345,-0.0392374322,0.0473903641,-0.0292176772,0.092398949,0.0819045827,0.0951545388,-0.0681007057,0.0640709102,0.019542357,-0.0543100163,0.1071138456,-0.0169742946,0.0921240225,0.0413129777,-0.048964262,0.0776869953,-0.051476039,0.059283182,0.0876673013,-0.0747622028,0.0739137158,-0.0239209626,0.1104992479,0.1476448476,-0.1048328131,0.0695665255,-0.0352042913,-0.0077271094,0.1055942923,0.1063613966,-0.0938435867,0.0784671456,-0.0307016224,0.0547285154,0.0135580814,-0.0519982949,-0.0719403327,0.0458800495,0.0670603737,-0.0119498167,-0.00294754,0.016930921,-0.0327043869,0.078364864,0.0189124998,0.1585484743,0.0253050178,-0.0369059518,-0.0111069204,-0.0495730937,-0.0485680029,0.0189577416,0.0684871003,0.0929207802],[-0.0718925744,0.0303252209,-0.0032303389,0.0286950245,0.0862817541,-0.0700196177,0.0461973287,-0.0553812645,-0.0200642664,0.0001104218,0.0215385966,0.0248624198,0.0193362553,-0.0494700819,-0.0777459741,0.0574232899,0.0410634018,-0.0865588337,0.0083317896,-0.0051218718,-0.0262387544,-0.0637142807,0.0635098293,-0.1102362424,-0.0702736229,-0.0315818302,-0.001391683,-0.0398033783,-0.0150649147,0.0551069193,0.0167373549,0.0689653754,0.0137652103,-0.0850027502,-0.038555678,0.0200743992,0.0377145,0.0295458734,0.1038623378,0.0646294951,0.0752003938,0.0889303759,0.0481193624,0.0390610695,0.0688570216,-0.0858221278,-0.0380215086,-0.0523055941,-0.0427064896,0.0663347915,-0.0128523009,-0.0299280025,-0.0509212166,0.1148295403,-0.0076407827,-0.0761280358,0.0545535609,-0.0800250918,0.0039840848,-0.0745833889,0.1065035835,-0.0894235447,0.0908793509,-0.0877409726],[0.0809654519,0.0660447106,0.0822155252,0.0108587518,0.0418560319,0.0204505995,0.0103675723,0.0085850088,-0.0248483717,0.1019984931,0.0697792917,-0.0511849001,-0.0306165759,0.0096530458,0.0611397699,-0.0350066572,-0.0483232066,-0.0368695594,0.1019845381,0.0432717316,0.0616945662,0.0852490887,0.0748039633,-0.0632395521,0.0172938798,0.0701075196,0.0098582758,0.1008307785,0.1281705201,0.0299700294,-0.0486890972,0.0781756639,0.0680801347,-0.0459164418,0.0060875369,-0.0207794625,0.0248998832,-0.0386069044,0.0719378814,0.0302305147,0.0065316465,-0.041484151,0.1230169758,0.011182203,-0.0417289585,0.0244517699,-0.0975485444,0.095230706,-0.0226025861,0.0655995905,0.0345878415,0.0545028858,-0.0854779556,0.0623531528,0.0776346698,-0.0212443583,0.0316407084,0.0024433946,-0.0574615188,0.0590255372,-0.0132459775,0.010647133,-0.0417463332,-0.0156343505],[-0.0425180793,-0.0836242735,-0.0179228336,0.0415803976,0.1247170717,-0.0279066432,-0.0389014557,0.0180352349,0.0875112787,0.0419359244,-0.0964908749,0.079579398,-0.0337708928,-0.0326368883,-0.0115435654,-0.0452523939,-0.0496522039,-0.0541115664,0.0140175968,0.029863229,0.0813034102,0.0890079141,0.0915491134,-0.0708205476,-0.0205471739,-0.0424747057,0.009528202,-0.0530223064,-0.0649854168,-0.0222614761,0.0511602387,0.0960234106,0.0531740859,-0.017643258,-0.0125378203,0.0839655474,-0.0900794789,-0.0823430121,-0.0290269181,-0.0210496783,-0.0180717595,0.0639309585,-0.0073530255,0.1101861,0.0270137265,-0.0536492169,0.025412038,0.0243738648,0.0131017705,0.0365524739,-0.0580521971,0.0194212738,-0.0635017753,0.028793348,0.0155677535,0.0597030632,-0.0066757277,-0.0210578926,-0.025577141,-0.0145755028,0.0034015116,-0.0385895893,0.0228341706,-0.0294211265],[0.0628279075,-0.0039070761,0.0271064267,0.0651619583,-0.0763269663,0.0543130264,0.0239990279,0.0300268773,0.0325361639,0.0969720483,-0.0231105797,-0.0200227406,0.0348844528,0.0769562349,-0.0395721756,0.0102524133,0.0893084332,0.0302136261,0.066266261,0.0597466789,-0.0084623862,0.0599040128,-0.0022781207,0.1265957206,-0.0505901873,0.0531185195,-0.0725620538,0.0490157641,0.0756226331,0.0103150997,-0.0447795801,0.047225032,0.063485451,-0.0851989314,0.0799745098,-0.0208700188,0.0894779637,0.0416780971,0.0376507156,0.0652465522,0.0499676056,-0.0574966706,-0.0809953883,0.0289401934,0.0560899451,-0.056029059,0.0727683008,0.0002687063,0.0267610326,0.1019793525,0.0893208608,-0.0403636694,-0.0242889039,0.0263452101,-0.051463522,-0.0451481305,0.0519249924,0.1349585354,-0.0774285346,0.0844824463,-0.0098208319,0.0552724525,0.0785398111,0.093785435],[0.0865117162,-0.0700220093,0.0209080745,-0.0986881107,0.0899806619,-0.0373313688,-0.109044753,0.0837269202,0.0029174262,0.0118675278,-0.0198493376,0.0743424892,0.0760113746,0.0719097033,0.0935457796,-0.0365534462,-0.003240098,-0.0302523524,0.0860248581,0.0908907428,-0.0220069811,-0.0520761237,-0.0806998312,0.0657188222,-0.0344248898,0.037162751,-0.0885146782,0.0597938411,0.0512589812,0.0386377536,0.0120572895,-0.0242435299,0.0746544898,-0.0194410458,-0.0560551994,0.0791184083,0.0645156577,-0.0351669826,-0.0296043735,-0.0205796994,-0.1192563623,0.0031145641,0.0155823408,0.0571317077,-0.0876382664,0.0060963398,-0.0309334211,0.0672407523,0.0034966124,-0.026908882,-0.0012875427,0.0137618482,-0.1032091752,-0.0195456371,-0.0453264825,0.0861076266,-0.0170767922,-0.0163718052,0.0372110158,-0.0099599799,-0.0293339975,0.0169788785,0.0573001131,0.0449223369],[-0.0252423212,0.0104463836,-0.0105792033,0.0816267729,-0.0266522393,-0.0036563836,-0.0545221865,-0.0771429911,-0.0525703728,0.0221673436,0.0021660174,0.0306938291,0.1036987454,-0.0860617012,0.046519801,-0.0224119276,-0.0129096266,0.004732179,0.037339054,0.0202584267,0.076489836,0.0044561573,0.0096142339,0.0354334638,0.087074548,-0.0684861988,-0.0446918532,-0.0418890044,0.0168060604,0.0758087188,0.0379840396,0.0510142297,-0.01774933,-0.0326601602,-0.012543478,0.0145775983,0.0725787953,0.042457886,-0.0691369623,-0.0063339267,0.0371476337,0.000842461,-0.1038673893,-0.0261653028,0.0144175906,0.0524557084,-0.0016443142,-0.0584814213,-0.0278069228,0.0769475475,-0.0138039971,0.0739391074,-0.0282081608,-0.0597513691,0.0470067039,0.0330299363,0.0102326265,0.1162906215,-0.0960227251,0.0959702134,0.0145393694,0.1431059241,0.0285315849,0.1308008581],[0.0232199412,0.0430411696,-0.0595172681,0.0879652947,0.0774838328,0.0770463645,0.0364566818,0.0543737598,0.0710991994,0.0081677511,0.0794987828,0.0316063985,-0.0006978365,0.0421437323,-0.0344463587,-0.0805786252,0.0299724787,-0.0384673066,0.0785443112,-0.0039929035,-0.0240726788,0.0403119512,0.1116967201,0.0258098915,-0.0793935433,0.0028297571,-0.0670899823,-0.0197498351,0.02542587,-0.0102575319,0.0159634538,0.0382971093,-0.0607232302,0.0223651696,0.009944099,0.0556336492,0.060618531,-0.0255366936,0.0183852427,-0.0407425165,0.0107468851,0.0318399779,0.0040183752,0.0532934889,-0.0492487773,-0.0892323405,-0.0286475569,0.1078482866,0.0715934411,-0.0265496559,-0.0402530953,0.1053138152,0.0901912227,-0.0493982919,0.1002025455,-0.052370958,-0.0647133589,-0.003812185,-0.098674804,-0.0152766276,0.0311394017,-0.0508572608,-0.0205538068,0.0237068329],[0.022182405,-0.0040114811,0.0938163325,0.0552306734,0.0766507909,-0.049351044,-0.0588430092,0.0209064335,0.0640985146,0.0615501329,0.0769309103,0.0343884118,0.1003916934,-0.0394394547,-0.0546958372,-0.0342829973,0.1057760939,0.0234751999,-0.0078041358,0.0583087802,0.0251546092,0.0305746756,0.0942263976,0.1744040102,-0.0181997772,0.0642883256,0.0741406307,0.0502668545,0.0512020439,-0.0438316725,-0.0338402092,-0.0119197071,0.0476308428,-0.049726449,-0.0926625729,-0.0013424637,0.0428875834,0.0166646261,-0.014072489,0.0090186754,-0.0470891111,-0.0134499595,0.0112952227,0.0346019007,-0.0256788097,0.1330626607,0.0328567475,-0.0755101144,-0.0290985182,-0.0723593533,0.1307037175,0.0965635926,-0.0241123904,0.01792817,0.0234418064,0.0297966748,0.0317410119,0.1032572687,0.0302715208,-0.0031989189,0.0023364825,0.0740962625,-0.0486442447,0.1445312053],[-0.0189833138,-0.0167684145,0.0346129201,0.0798061192,-0.0075461175,0.0673687458,-0.035890609,0.0693367943,-0.0106598521,0.0371518806,-0.0612942055,-0.0121839456,0.0427982956,0.0300584175,-0.0298874322,-0.0509710126,0.0858926103,-0.0073815556,-0.0613285117,0.0592127778,-0.0913517177,0.0529433265,0.0685362741,0.0157209672,0.0105848946,-0.0307824183,0.0335615687,-0.0446725972,-0.0583404452,0.0464397632,-0.0052936152,-0.0842577368,-0.0566866435,-0.0187954511,0.0783044845,0.099256523,0.0464563221,0.0215847623,0.021260377,0.0555350892,-0.0520768315,-0.0448991843,0.0253914725,0.0215293057,0.0460723378,0.108593367,0.0022322866,-0.0597917177,-0.0801790804,0.009128755,0.1201234609,-0.0390399285,-0.0389083661,0.0260154363,0.063062571,0.0723936856,0.0411307141,-0.0313005149,-0.0703916922,-0.0324743763,0.0664048865,0.100666821,-0.0420991443,-0.0056021102],[-0.0173381697,0.0708456784,0.015456005,0.0117092989,0.0243657771,-0.0258786082,0.0409275405,0.0250021573,-0.0475335158,0.0408421829,0.077767998,-0.0430965312,0.1449990124,0.0313870907,-0.0228824541,-0.0287520569,0.0500678271,0.0460381731,-0.0101588359,0.0678872392,0.023032885,-0.0090139108,-0.0667105988,0.152083993,0.019597454,-0.0058833333,-0.0482755527,0.0366190709,0.0122072222,0.0644809082,0.0272273123,0.0257192589,0.0194328986,0.0198749844,0.06194406,0.0124125322,0.0279607978,-0.0511611588,-0.0513698459,0.0524298139,0.0288941581,-0.1041499972,-0.1143396348,0.0333313607,-0.0389471985,0.1104615182,-0.0168086607,-0.0651333332,-0.0307428166,-0.0059884884,0.0468437038,0.0661522821,0.0735598952,0.0486472249,-0.0202082489,0.0381269492,0.0510537811,0.1510061324,-0.0376605466,0.0127369296,-0.098364912,0.0359889418,0.0591986887,0.0010836307],[-0.0437363163,0.0195467845,0.0546148755,0.0261161737,0.1258648634,-0.0273749847,0.0192909669,0.1027309448,-0.0860056877,0.0045843432,0.038952738,0.0897950903,0.0516524538,0.0836874768,0.0243614148,-0.007860437,-0.0500571951,-0.0912276879,-0.0350111648,-0.078404814,0.0248589776,-0.0529420227,0.0683273226,-0.0740303546,0.0592990331,0.0763567314,-0.0390235782,0.0228513665,0.0301744044,-0.0635442436,0.077228263,0.0218154527,-0.0605044402,0.0143588837,-0.0764774457,-0.0773995742,-0.0762696788,0.0700718164,0.093122296,0.0290521719,0.0518042631,0.0385566391,-0.1026135758,-0.0503588282,-0.0682450831,0.0389118642,0.0361194499,0.0383144394,-0.0418722406,0.0395066328,-0.0385491177,-0.0765014738,0.0616378896,-0.0231987834,0.0017975166,0.0025886293,0.0629046336,0.0194836203,0.0842038244,-0.04424043,0.0472960249,-0.0027387985,0.0013669457,-0.040305268],[0.040372625,0.0462330952,-0.0231967252,-0.0055837925,-0.0811921507,0.0132424952,-0.0462801643,-0.1826023906,-0.0539738312,0.0437816605,0.0942562297,-0.026876051,-0.0510273837,0.0268721487,0.0514796488,-0.0030879732,-0.0660646185,0.0601232052,0.0543123707,-0.0707676485,0.0554062091,0.0602914505,-0.0105739459,-0.0177475885,-0.0302839149,0.0698691532,0.0504215173,-0.0445008203,-0.0297636632,-0.059646409,-0.0279042907,-0.0338139832,-0.0009524891,-0.1272524893,-0.0333434641,0.0541150793,-0.0625431985,0.011314095,0.0336862691,-0.011954749,-0.0437310413,-0.0171121936,0.0601870976,-0.0549526326,0.0860350206,-0.0680026338,0.0562595055,0.0061682086,0.0833647698,0.0285114981,0.0259234086,0.0439043045,0.0278394371,0.0631922483,-0.0243079327,-0.0257993266,-0.0963695571,0.0682047009,0.079888843,0.0160405692,0.0541603751,0.0459790193,-0.0415281355,0.0015350371],[0.0792873129,-0.0383130908,0.0561970063,0.0686119869,0.1143305004,-0.0990030766,-0.0651822984,-0.0284690596,0.0210052282,-0.0108176256,0.0444206856,-0.0407258831,0.0712358281,-0.0082591455,0.0013600073,-0.0397993103,0.0121466639,0.0322871208,-0.0582225174,-0.0157622695,0.1218230203,-0.0463908277,0.0017554106,-0.0928857699,-0.1049210951,-0.0442352518,-0.037152715,0.0195920598,0.131017521,-0.0759415254,0.0022147114,-0.0511132702,0.0263630431,-0.0011411291,-0.0222084094,0.0425058827,0.0202958081,0.0293637682,0.1480461657,0.0330606923,-0.088660121,0.1194044575,-0.0225087907,0.1079243571,0.1017458364,0.0338351205,0.0219702758,0.094449088,-0.0147699844,0.0510266125,-0.0106307464,0.0721262917,0.0247706771,-0.0608840249,0.0436199866,0.0738809854,-0.0309367273,0.0081282584,-0.0773853883,0.0226309113,-0.0434409566,-0.1128155887,-0.0537802875,0.0722339004],[0.082424283,-0.0265644267,0.1101265028,-0.0856006593,-0.0095015261,0.0142453229,0.0209103506,0.0023646322,-0.0377920866,-0.0417744704,-0.0618356206,-0.0414167419,0.0554122664,-0.0937578455,-0.1140064001,0.0229632948,0.0471644364,0.0595169328,0.0397737771,0.0725953206,-0.0644764155,0.0829728916,0.0197380669,0.073165752,0.1084624082,0.0029640843,0.032629326,-0.0065888884,-0.0422694758,0.0371591896,0.1293218136,0.0346664637,-0.032481242,-0.0040367143,0.0579380468,0.0774200484,0.0719889402,0.0578902289,0.0151071111,0.0106488876,-0.0396277755,-0.0626977384,0.0260156523,0.0120700356,0.0651294813,0.0293187648,-0.0235173702,0.0283708423,0.0213691983,0.0876564384,0.1462435275,0.0785504505,0.1098838523,0.0918724164,-0.0798781589,-0.0286192372,-0.0018564875,0.1393744648,0.0570194162,0.13479729,0.0080820527,0.1370841414,0.0647142529,-0.0082630245],[-0.0351775065,0.0039140857,-0.0291940495,-0.0309256744,0.0109242834,-0.0512316264,0.0670422912,-0.0821922794,0.0288416017,-0.008816015,0.0393611975,-0.1069925129,-0.0099682454,0.0007294237,-0.0168135762,0.1068129838,-0.0330832936,-0.0257830247,0.0195308495,0.0513923764,0.0837156624,0.099539794,0.0375428982,0.0157885831,-0.0928456113,0.1050572097,0.0214359742,0.1201258898,0.0158060584,0.0784204751,0.0061290073,0.0497374758,-0.098262012,0.0493325889,-0.0021676433,-0.0542504564,0.1156684905,-0.0235802736,-0.0145272491,-0.072040312,-0.053089112,-0.0007082506,0.0629729405,-0.0483186692,0.0995578244,-0.0684068426,-0.0678024143,0.0328790024,-0.0252173375,0.1101690903,-0.0145186558,0.1080391333,0.0202505123,0.0649054423,0.0633173957,0.0235981736,-0.0937645733,-0.0298052989,0.0704681352,-0.0349290222,0.0285709146,-0.022379104,0.0298450664,0.0020584094],[0.0339277796,0.0226259995,-0.0239413865,0.071793966,0.1434703469,-0.0136609701,0.0225150194,-0.0778457299,-0.0202204026,0.0584033132,-0.0251645371,-0.0164397825,-0.1014861986,0.0316848382,0.0671968833,0.0071237688,-0.0369217955,0.0338391066,0.027097838,-0.0653380081,-0.0205461513,-0.0209956076,-0.0685201213,-0.1146342903,-0.0111693665,0.1000569463,-0.041684702,-0.0242970269,0.0443497337,0.059973415,0.0275600981,0.0500128157,-0.0489575006,-0.0127736833,0.0263955723,0.0329637975,-0.0718849003,0.0473201685,0.0085714683,-0.0965922847,-0.0378862992,-0.0176684447,-0.0396208167,0.0617230833,0.0268322565,0.0059090117,-0.0189007018,0.0875301808,0.0025966393,-0.0549790896,-0.0536294021,-0.0541945845,0.0199969634,0.0576715395,-0.0016115278,0.0955026671,0.0692388937,-0.001872008,-0.0802104026,0.0229191873,0.0035908341,-0.0501534715,-0.0790087283,0.079747878],[-0.0110682445,0.0235298127,-0.0409965999,-0.0261160228,0.0534234159,-0.0284881238,-0.1111228094,-0.1252929866,-0.0708240569,0.065330714,0.0032673946,0.034706112,0.0845799893,0.0486741476,-0.0041072308,0.0833606124,0.0934065133,0.060727451,0.0398742408,0.0627801195,-0.0378705971,0.043438375,-0.0904806182,0.0513328724,0.0551966801,-0.036346335,-0.0361921526,-0.0127224065,-0.0721236989,-0.0470779873,-0.0466432273,0.0545037799,-0.0713698715,-0.1305692345,0.0698725656,0.0611718744,0.0749339685,0.0257297922,-0.0665960088,-0.1015264094,-0.01237009,-0.0962261185,-0.0641784221,-0.0108293388,-0.0125803882,-0.0280044191,-0.0162686985,-0.0674205795,-0.0249452628,0.0614397116,0.0424304791,0.0109047163,0.091524519,0.0702005103,-0.0338786803,-0.1219799221,0.0179705471,0.1258830875,0.0723632351,0.0947565213,-0.0397684872,0.0789623782,-0.049979616,0.0687481761],[0.1595359445,-0.0770555437,0.1164618209,-0.0252304412,-0.0158344284,-0.0796772465,0.0379775725,0.0586833209,0.0029060855,0.0674695149,-0.0015830138,0.0380658209,0.0040169265,-0.073535651,0.0406060591,-0.0744331032,0.066787295,0.0264987685,-0.0373963267,0.1005816162,0.023835225,0.049790211,0.0261307135,0.0737993047,0.1070472375,0.0169533007,-0.0588419847,-0.0212255158,-0.0567349494,-0.0035696109,0.0777460709,0.0304406825,0.0946168453,0.0125429779,-0.1131376699,-0.0566158816,-0.0278421324,-0.0773539096,0.0049118721,0.080850631,-0.0817500204,0.0067747147,0.0227082819,-0.0009342699,-0.0523316823,0.0045451238,-0.1073539853,-0.0718589872,0.0335890278,0.003344384,0.0882250965,0.0503005981,-0.0509115458,0.0540047213,0.0943466723,0.084319517,0.1367875785,0.09041816,0.0088814748,0.0463195369,-0.0724505112,-0.013389539,0.0302680731,0.1483980715],[-0.0363446809,-0.0576079302,0.058640182,0.0704915598,0.0302858092,0.046000883,0.040205162,0.0655584708,-0.0142825181,-0.0509204566,-0.0171416774,0.03317637,0.0500286631,-0.0459940098,-0.016033113,-0.0542058535,-0.0276915785,0.1390060931,-0.0089707086,0.0422207415,-0.0574839003,0.1109664068,0.0891167298,0.0424326882,0.1029455513,0.0422509983,0.0784231797,-0.0627838895,-0.0176029503,0.0316618867,0.0482132547,-0.0311166514,0.0017701327,0.0504677519,0.0159039292,0.0398553759,-0.0167534966,0.0263252389,0.0533925146,-0.0339189209,-0.0201234333,0.0441915169,-0.0780762881,-0.0038650166,-0.0179078542,-0.0072330032,-0.0345887765,0.0903145149,-0.0541095324,-0.0403285809,0.1746967137,-0.0413550287,0.0331690386,-0.0128821842,0.0011753724,-0.0002516599,0.0720628947,-0.0041642403,-0.0443747416,0.017139053,0.0359509178,0.1462089121,-0.0020940495,0.0327183157],[0.0622701347,-0.0395861603,-0.0293166302,0.0651244,0.0846353918,-0.0755456388,-0.0365965702,-0.0316290334,0.0017746126,0.004362545,0.0492192879,0.0154628623,-0.0358232707,0.0528241992,-0.0588120148,0.0398494937,-0.0297692437,-0.0201293845,0.0477465279,0.0044219522,-0.0270342771,0.0195939075,-0.068300359,-0.0477981307,-0.0933292508,-0.042950578,-0.0008881367,-0.0309924651,-0.0433819555,0.0034337901,0.066673249,0.1022253409,0.0958016813,0.0775927603,-0.1087054983,-0.0156886671,-0.0275434237,-0.0300273765,-0.0163457673,0.023625413,-0.028194502,0.0045248722,-0.0706161484,0.1406971514,0.0530149303,0.0364066772,0.0660609677,0.0363554582,-0.0117659699,-0.0159868542,0.0430465266,0.0391925164,-0.0475706682,0.081473425,0.0598150454,-0.0271184891,0.0850616023,-0.0235853847,0.0004718266,-0.079150416,0.1157536432,-0.0713319853,0.0168727674,0.0769084394],[0.0609708242,-0.0122031532,-0.0149432458,0.0459953286,-0.0329235084,-0.1031764522,-0.0660359561,-0.0503414907,0.1064099818,0.0588608496,0.0480945483,-0.0662913918,0.0794161111,0.0645876005,0.0450875089,0.0569339544,-0.124091424,-0.0651456788,0.0887850896,-0.0888997689,0.0801901594,0.015512418,-0.0304700993,-0.0360063128,-0.0737944692,0.0341369212,-0.0579074807,0.0033986326,0.0782625154,0.0796159357,-0.0155208232,0.0411161259,-0.0316647477,-0.0774748698,-0.089464359,-0.0075893356,-0.0138590997,-0.0064864811,0.0931617394,0.0548475012,-0.0894162729,0.0822625831,0.0995390266,0.0483869426,0.0510764308,-0.0582586005,0.0650355369,0.0492833555,0.0003860866,-0.0058026188,-0.0436714366,0.094224371,-0.0213858429,-0.0508840382,0.0275706165,-0.0258903597,-0.0809670836,0.0043321997,0.0485196225,0.0568967089,0.0804128721,-0.0395582356,0.0120718898,-0.0624108464],[0.1112220734,-0.0285586752,0.035235621,0.0506571904,0.0274982955,0.0277653448,-0.011123972,0.0559925213,0.0004356576,-0.0505311377,0.0253347419,-0.0551204234,0.1315657198,-0.0314485095,-0.0480537303,-0.0303889271,-0.0651742369,0.0985748619,0.0866493434,0.0828577578,0.0085750893,0.002506278,-0.0133316815,0.0935341567,0.0344559178,-0.0648700967,0.0554475673,0.013104436,-0.0043043667,0.0955255628,-0.0639475584,-0.0617607795,0.0780208111,0.004417208,-0.0323241688,-0.0185833964,-0.0162505284,-0.0826712772,0.0333258547,0.0229373369,-0.0830128863,-0.010741001,-0.0404662453,-0.0686648488,0.0778288394,0.0308428686,-0.0381242633,0.0984774679,0.0423890501,0.0155972401,0.127096355,0.1077954918,0.0669726729,0.0893896073,-0.0080138706,0.0030821252,-0.0531260893,-0.039262563,-0.0480609313,-0.0484159142,-0.0749876574,-0.0411747843,-0.0717749223,0.1208497435],[0.0718191415,-0.0214212909,0.0827918425,0.0883450359,0.0964238271,-0.0219249558,-0.0471389778,0.0854282156,-0.0128260609,-0.0419880264,-0.0337975845,-0.0690128207,-0.0453478321,-0.0073848297,-0.110914059,0.0730736479,0.05021118,-0.0120204557,-0.0626507849,-0.0143600311,0.0003063165,0.005864792,-0.0516190901,0.0515018515,-0.009332478,-0.023127513,0.0007728437,0.0303810276,0.0587215647,0.0424195454,0.0793823153,0.008177137,-0.0239414219,0.0069178999,0.0693495348,-0.0550290868,-0.0304220282,-0.0412259512,0.0237567816,0.0778854415,0.000404787,-0.0736144111,-0.0790785924,-0.0300251506,0.0804076791,-0.0797298327,-0.0913777277,-0.087316975,0.0290095303,-0.0242149197,-0.0183525123,-0.0332969576,-0.0282011554,0.0690840259,0.078272976,0.0152163943,0.0690532327,0.0634917095,0.0923279598,0.0206632037,0.0375283882,0.1113347411,-0.0252128672,0.0149611114],[0.0084876651,-0.0538080633,-0.0712824389,-0.0630357563,-0.0375965349,0.0932518318,0.0175744668,-0.0105221765,-0.0837104693,-0.0626887828,-0.03442467,-0.0274028145,0.0248705372,-0.0754351616,0.0234007742,-0.1019632593,0.1061834544,0.0579464696,0.0054686898,0.0512766205,0.0302693658,0.0769863427,-0.0487131029,-0.0230737943,-0.0053793425,0.0012542822,0.0959653854,-0.0618823767,0.0206063353,0.0548112169,0.0208222605,-0.0514738634,0.0927774757,-0.0815429688,-0.0219597295,-0.0285799224,-0.001612933,0.0137196872,-0.0682091415,-0.0718872547,0.0294610001,-0.0614506342,-0.0419632941,0.0074025989,-0.0592723638,-0.0160724968,0.0796364918,-0.1022561938,0.0502905771,0.0347355343,0.0347725786,-0.100453198,-0.0522811115,0.0307797249,-0.0311059803,-0.0828712657,0.0336127765,0.0491081327,-0.0688210949,0.0348502509,0.0279009286,-0.0157721601,0.0105881561,0.0582625456],[-0.1096352562,-0.0599266104,-0.071462281,0.1105302423,0.0108840689,0.0353299342,-0.0673723295,-0.0729714558,0.069004491,0.0712764785,-0.0484977551,0.0110563235,-0.0341781341,-0.0825178847,0.058307346,-0.0240587667,-0.0494576506,0.0718201101,-0.0471897759,0.0568275228,0.0753351972,-0.0262498204,0.0753550231,-0.0801351145,0.0680709928,0.0717417896,-0.0165525042,0.0219880138,0.0282252692,0.0308961887,-0.0268147141,0.0821807161,0.0226338655,-0.0684154704,0.1089003012,0.063931264,-0.0431812629,0.0591909662,0.0513605438,-0.0003302218,-0.0025064549,0.0211695805,-0.0600109734,-0.0124019859,0.0534756966,-0.0262431689,0.0680427402,-0.0211209003,0.0200355463,0.0502796136,0.0043700524,-0.0968267098,-0.0218463074,0.0599075779,-0.017701583,0.003850824,-0.0732144341,-0.0412854701,0.0270941537,-0.0741847008,0.0135706756,0.0379541218,0.0825501978,-0.0786321089],[0.0100763775,-0.1074041054,-0.0569340549,0.064977102,0.1650990993,-0.0195094235,0.0195261613,0.1603514999,0.0287502538,0.0264513455,-0.0878312737,-0.0205220412,-0.0599404722,0.0573912114,-0.0197092928,0.0135691129,-0.0094772046,-0.0279103592,-0.1341522336,0.1109732017,-0.016343059,0.0240795799,0.1077446267,0.0920936838,0.0857065246,-0.0735236183,-0.0646009594,0.0390855521,-0.0497991219,-0.0690093935,0.0187909696,0.0073985499,0.1260123849,0.0702318102,-0.0831131339,0.049838461,-0.1008493975,-0.0811329931,-0.0250226781,0.1877460182,0.0872763693,-0.0069643245,-0.0031310872,0.1356235594,-0.0476910397,0.0479470305,-0.105794698,0.0716823861,-0.0537005737,-0.0335296616,0.0727836788,-0.0094747134,-0.0801879317,-0.0217329413,0.0339139029,0.143917948,0.1068199277,0.0169612914,0.0315887854,-0.0393569991,0.0695297495,-0.0336078219,0.0564291365,0.0673802197],[-0.0069193449,0.078869082,0.0427800715,0.0710482076,0.109455198,0.0323274359,-0.0554958507,-0.0036315618,-0.0066939257,0.1040402129,0.0880307108,-0.003340445,-0.0154771525,0.0392554104,0.0149902748,0.0606709793,-0.0156347286,0.0535687469,-0.0519447215,-0.0605680309,-0.0337231308,0.0038194889,0.0324007869,0.0038974513,-0.086754337,0.0423885435,-0.0945482552,0.0255960133,0.0899552181,0.061162632,0.062741749,0.0697181076,-0.0063896049,-0.0636279583,-0.0074563893,-0.0016343846,0.0363545939,-0.0193387624,0.0762831271,-0.0510390736,-0.0787610561,0.0609458424,-0.0039327084,0.070318602,0.0923693031,0.0282802023,-0.0543303974,0.0464160927,0.0507864393,0.0268498678,-0.0067039458,0.0311879162,-0.0540110953,-0.0231418274,0.0178568624,0.0788728148,-0.0048319176,-0.0281792097,-0.0392812192,-0.0510217696,0.0290743075,0.0270011388,-0.082112655,0.0109422151],[-0.030350063,-0.0646430179,0.0703599453,-0.0949041545,0.0726580247,-0.0239827279,-0.0011434712,0.0629997551,-0.0304737296,0.1139278561,0.0248228274,0.0666648522,-0.0228320565,-0.0426159315,0.0770024136,0.0466928519,-0.0469149016,0.0359751135,-0.0717092827,0.098617658,-0.0623518899,0.0444481634,0.0313986577,-0.0736875981,-0.0122181149,-0.0565846562,-0.0003353411,0.0218043253,-0.0298713036,-0.0479697734,0.0809925497,-0.0235334132,0.0027519637,-0.0656857267,-0.0318356901,0.0677885488,-0.0172313806,0.0011015219,-0.0421400145,0.0383607075,-0.076513961,0.1250244677,-0.060933087,0.1452074945,-0.0024774747,0.0729573742,0.0276399776,0.0305360556,0.0305663496,-0.0802308097,-0.0223522335,-0.0388440639,0.0106728496,0.0412692428,-0.0379723981,0.041037783,0.0255689323,-0.0017597781,-0.0671478584,-0.050499741,0.0547149032,-0.0941721424,0.0552504659,0.1303544343],[-0.0177326649,-0.056074623,0.0761107132,-0.0600970909,-0.0438149832,-0.0912920386,-0.0413595289,0.0384725705,-0.0168118589,0.0636731908,0.0061990721,-0.0431103446,0.0673084706,0.0272281002,0.0333410352,0.066602245,-0.1464973539,-0.0645080209,0.0522611216,-0.0304559227,-0.0400670655,0.0475939177,-0.0114310198,-0.007172293,0.0064651696,0.1040875539,-0.0739808902,0.1299438328,0.0840125307,0.0161937717,-0.012551534,0.0605125614,-0.108528927,0.0185054969,0.0885493755,0.0530157425,0.1057777628,0.0258783996,0.1034672707,-0.0273053907,-0.0922568217,-0.0322334655,0.0118774641,0.0894593522,0.0096906871,-0.0822699517,-0.0694609508,0.0976104438,0.0125761963,0.0341069773,-0.0742578581,0.0555158854,0.0131011782,-0.0429545306,0.0034535495,0.0363118649,-0.0034699121,-0.0614840686,-0.0132438876,-0.0813417137,0.0256593879,-0.0588954501,0.0847021937,-0.0566951521],[-0.0210056361,-0.0994746387,0.0280493181,0.0510716401,-0.0314964466,-0.0808882415,0.0429786034,-0.0736745372,-0.0104159201,0.0349607803,-0.072968021,-0.049342379,-0.0554080158,0.0087082582,-0.0193711501,0.005767643,-0.1132744104,-0.0364034697,0.0232595876,0.0059969034,0.028521359,-0.0343384929,-0.0517705567,-0.0020942218,-0.0801089704,0.0646503344,0.0319269747,0.0215986669,0.0784455836,0.0193763208,0.0559608303,0.0716059729,0.0015925034,0.0092307692,-0.0466941036,-0.0733092725,-0.0001928676,-0.0424596742,0.0549481846,0.0538941063,-0.0012887764,0.1048370451,0.0177477058,-0.0163096339,-0.0932846442,-0.0343140289,0.0490116328,-0.0876269564,-0.0152511448,-0.0387275182,0.0266040135,0.0105413664,0.0782101601,0.0564407334,0.0648697317,0.0788495168,0.0618775301,-0.08842583,0.0512278788,0.0470018461,0.0279344469,0.0273814388,-0.0609233603,0.0270954557]],[[0.0461782366,0.0543545522,-0.0666300654,0.0895333737,0.0729136616,-0.0373786613,0.034004949,-0.0780219734,0.0298541766,-0.0682007,-0.010263904,0.0042442549,0.0408222042,0.0556443222,-0.0049468004,-0.0259023365,-0.0644483119,0.0554970652,0.0679299682,-0.008689669,0.0106626749,-0.0712506399,0.0034976196,-0.0479316115,0.0797678232,0.0100134742,0.0193738826,-0.0118379537,0.0427557081,0.022190759,-0.0040598963,0.0503560267,-0.0386957787,-0.0087081492,-0.0204380769,0.106569536,0.045946341,0.0012790468,0.0910328478,0.0279308688,-0.069180429,-0.0779701248,0.0020005864,0.0216988251,-0.0669175237,0.0656578615,0.0202340856,-0.0449043475,0.0739467964,-0.0360451192,0.0152749894,-0.0253971778,0.0805204064,0.1019614264,-0.0253622625,-0.081697911,-0.0170306936,-0.0464949347,0.0468477197,-0.05480434,-0.0194672327,-0.047119882,-0.0650507882,0.0020833313],[0.0570495576,-0.0704512894,0.0923822373,-0.034175761,-0.0344111808,-0.0090693608,0.0645483732,0.1311959922,-0.0458856896,-0.0659550205,0.0045374124,0.079654038,-0.0326225795,0.0760539696,-0.028490426,-0.0148631064,-0.0777512416,-0.0810581297,-0.0411737412,0.0037124357,0.1247637868,0.0109145055,-0.0673462451,-0.0394423455,-0.0016700159,0.0733835474,0.0448413081,0.0450426862,0.0391273052,0.0114082582,0.0422719307,-0.012834006,0.0937408134,0.130202204,-0.0307825878,0.049263753,-0.0070386762,0.0294622909,0.1117121801,0.0975587294,-0.099782899,0.1125977486,-0.0350720324,0.1553631127,0.010775567,-0.0167643502,0.04943607,0.0440514125,-0.012462398,0.0859437659,0.0308947712,-0.001222244,-0.0359517857,0.0821066648,0.0082953954,0.1473104805,0.0525561199,0.0200108625,0.0390409231,-0.0515553914,0.0677050278,0.0637030452,0.0303738806,0.0980051607],[0.0051130271,-0.0039146109,-0.0902121589,0.1561275274,-0.0763230771,-0.0879822299,0.0989280865,-0.0924260542,-0.0738884583,0.0543783568,-0.0090261661,-0.0302217156,-0.1002086401,0.0302754156,0.0022242013,0.0232867021,-0.006792773,-0.1015155539,-0.0542218611,0.0804821551,0.0051094722,0.0566341616,0.0126123019,0.0437709987,-0.0096874386,-0.0044331523,-0.0420853794,-0.075556621,-0.0660135597,-0.0025563731,-0.0345608741,0.0935482234,0.0614209957,-0.0661126003,0.0565750115,0.0288497098,-0.0241124146,-0.0703823194,0.038330663,0.0177658182,-0.0324574336,0.0726081133,0.0881238952,0.0783124343,-0.0486216769,0.0821362585,-0.0063827974,-0.0904762968,-0.0614156313,0.08242286,0.052763097,-0.0762414858,0.025727002,0.1475216299,0.0708772615,-0.0675948411,0.0245611519,-0.0628293529,0.0318654217,0.0312866382,0.0326336212,-0.0991681218,0.0743626207,0.0549778454],[0.0072990023,0.0138640665,0.0634649843,0.0407202877,0.0599059686,-0.0851435885,-0.0781300589,-0.0172477774,0.0928661972,0.0974653959,-0.0480329581,-0.0890459269,0.0329995677,-0.0528528281,0.1018595099,0.0330031328,0.0414302424,0.0608153306,-0.0377871357,0.0232189205,0.0896201134,-0.0271463208,-0.0929036587,0.0262922309,-0.0024807667,0.0473309755,-0.0707544908,0.0439621806,0.111095354,0.0374272764,-0.0220093634,0.0734816343,0.0016831451,-0.062580727,0.0140715735,0.0643595383,0.0278266147,0.0347159579,0.0881732032,-0.014083067,0.0344760865,-0.0111615406,0.0348584726,0.0336768702,-0.0591602623,-0.0587376952,-0.0168686621,0.0520801619,-0.0222105887,0.0681777447,0.0379393958,0.1142838821,0.0712428913,-0.0496610254,-0.0423898511,0.0727426186,-0.0382409208,-0.0831118748,-0.07304243,-0.060902074,-0.050989531,-0.0180595201,0.0656694397,0.124628365],[-0.0283514857,0.015202228,-0.0693664774,0.0608158894,-0.0219895355,-0.0490311161,0.0715401322,0.0138897719,-0.0758057311,0.0111279553,-0.0323075242,-0.0313405618,0.0109117571,-0.009783363,0.0575331114,0.036479488,-0.0398444869,-0.0511454791,0.0001344969,0.092212148,-0.0267333537,0.0414203741,-0.051534839,0.0681856275,-0.0201072041,0.0611266792,0.033382751,0.0638669729,-0.0042535649,-0.0064800638,0.042769108,0.0510991961,0.1150773764,0.034724731,-0.1014522836,-0.051371485,0.0763311312,0.0175717007,0.0511623025,0.0351838544,-0.0025690987,-0.0526206307,0.0076631112,0.0763397887,-0.0886528045,-0.0316403173,0.034699928,0.0322660878,-0.0109596578,-0.0395258516,-0.008037908,-0.0503194816,0.0108665479,0.153490752,0.042632129,0.1108537242,0.0439675637,-0.0562062375,-0.0063576736,-0.091022931,-0.0189839527,-0.0168816429,0.0249684192,-0.0204866137],[-0.0050372062,0.0347504728,0.0445350744,-0.062937595,0.1001754254,-0.0058938563,-0.0195737407,-0.0018310326,0.0986798108,-0.0321303532,0.0927618071,-0.061509572,0.0565095507,-0.0106569929,0.0248866808,-0.0397947468,0.0296971817,-0.0087394482,-0.0192890503,0.0277687367,-0.0295040235,-0.0360047147,-0.0912347361,0.0733860955,0.0269537736,0.0447680838,0.025072284,0.1029509529,-0.00215494,-0.021939693,0.1084191427,-0.0997084752,-0.0725091398,0.0091922637,0.0962564126,0.0186514594,0.0335365385,0.0264673084,-0.0762351528,-0.0246570762,-0.0867185295,0.0389378183,-0.103902407,0.0121075166,0.1017273068,0.0289971121,-0.0446521007,0.001354765,0.0664495304,0.0916683748,0.0287815407,0.0235829223,0.064824976,0.0276513249,-0.0460391454,0.0174665265,-0.086672999,0.0288279299,0.0100238686,0.1153604835,0.0431926362,0.0208264608,0.0384106338,0.0616407208],[0.0812461972,-0.0786448643,0.0527686588,-0.0905642658,0.0332673639,-0.1048420221,0.0171504337,0.0105208866,-0.0572238825,0.0052854372,-0.0502212755,0.033167474,0.0754041746,0.0969749689,-0.0635734051,0.0061218934,-0.0175921973,-0.0558049865,-0.0358956903,0.0522296764,0.0949867368,0.0611292124,-0.0091792168,0.0462567508,-0.0577638596,0.0190609861,-0.0692038462,0.042361401,0.1665261388,0.0739756078,0.0128421932,0.0906714201,0.0547743179,0.0018632382,0.0269087385,-0.0152509408,-0.0146519719,-0.0179169327,-0.0384172685,-0.0536587276,-0.0810825601,-0.0516358465,-0.106876187,0.121261619,0.060911987,-0.057659205,0.0463620424,0.0143518662,0.0656585619,-0.0203846842,0.1155475453,0.1073435843,0.0295746122,0.0581489392,-0.0156746767,0.0117474897,0.0031001265,0.0727520734,0.0070313397,-0.0787902549,0.0456495024,0.0804985315,-0.0141743859,-0.0277744029],[0.0683247596,0.0997373909,0.0649204999,0.0703407824,-0.0105920639,0.0848038271,-0.0716687441,-0.0697734579,0.0369951166,0.0017742319,0.004287845,-0.0293207187,-0.0053243176,-0.0628852099,-0.0791182593,0.0097818393,0.0910768434,0.118587181,0.0435308516,-0.0011396538,0.0486697443,-0.0524112508,0.0508355647,-0.0315264687,-0.0365654714,-0.0903496295,0.0421616249,0.0999565572,0.0575109869,0.0008881878,0.0131092547,-0.0346081406,0.0666601509,0.0027554538,-0.0023446709,-0.0213249605,0.1058959812,0.065277569,-0.0654677376,0.0491940007,0.0677463561,0.030284252,-0.0533522367,0.0444716103,0.0643966272,0.0071297986,0.0123223569,-0.0772838816,0.0850195959,0.0732179433,0.0402865,-0.033036422,0.0570323095,-0.1405950189,-0.057422407,-0.0032856634,0.0234049018,0.0740999207,0.0129114361,-0.0090999231,-0.0200925041,0.1089070141,0.0462985076,0.0219945535],[0.1231154725,-0.0098440442,-0.0151378196,-0.0698710382,0.1383643001,0.0522553287,-0.0939062759,0.0224731565,0.0304056183,-0.0008166174,0.0329080336,0.0275582466,0.0683266073,-0.0041901069,-0.0608367287,-0.0060173785,-0.001973168,0.0858419538,0.0943824127,-0.0346258916,0.055150073,-0.0329516493,0.0551090911,0.0353364535,0.0696231127,-0.0914328396,-0.0498009399,0.0152847562,0.1132612675,-0.0447717495,-0.0466975607,0.004617786,-0.0290502813,-0.0352827869,-0.0436133854,0.0439019501,0.0506381467,0.0383387245,0.0078647994,0.0338102803,0.000735573,0.0566158183,-0.0895038843,0.0185438767,0.0135672921,0.0463951491,-0.0232601967,0.0735050589,0.0147678712,-0.0738303959,-0.0192538034,0.0364720523,-0.0691057667,-0.1018609777,-0.0252443664,-0.0456552021,0.0350984111,-0.0543213524,-0.0689513832,0.0359653607,-0.0522289388,-0.0785467699,0.0548169464,0.1148208454],[0.137225613,0.0427624173,0.1249017492,-0.0080656707,0.1371756047,0.0292162355,-0.1027872115,0.0224116892,0.0565854758,0.0768995583,-0.0797206908,0.0603568032,-0.0010537808,-0.0894923285,-0.0828842968,0.0413746126,-0.0190820172,0.0091315014,-0.0422492661,-0.0834702998,0.1089582741,0.0141238552,0.0401118994,0.1411897391,0.0605352372,-0.093599923,0.0539865084,0.0430929437,0.0651122853,0.1045348719,0.0287464317,-0.1033180654,0.0239562634,0.059104085,0.02369803,0.0939741656,-0.072245121,-0.090918608,0.0842648596,0.1433755755,-0.0711354464,0.0097257541,0.008527006,0.1264547557,0.0291345883,0.0032355683,-0.0682367906,-0.0398859046,0.0445597619,0.0357341096,-0.010162117,0.0458853468,0.0330608413,-0.0343334265,0.0911735892,0.0779364035,0.0197922252,-0.0316248462,0.0073849722,0.0367552452,-0.0365204848,0.0543877445,-0.0060416632,-0.012365656],[-0.0082062669,0.03873346,0.1003469303,-0.0353761129,-0.0705270693,0.0986139551,0.005569458,0.0672730803,0.0926464126,-0.0120337307,-0.0749333054,-0.0405011363,-0.0298434272,0.0329878554,-0.0823343247,-0.0751615316,0.0932348967,0.0664848834,0.0032271373,0.0566748716,-0.0758731961,-0.0828202218,-0.0359138176,0.0187916867,-0.0518802404,-0.0208637863,0.0798479468,-0.0173194613,0.0669044852,-0.0012225076,0.115021497,0.069930084,-0.0191531535,0.075967744,0.0784282312,-0.0414752476,0.0728579611,-0.0144243129,-0.046306774,0.0884417519,-0.0166782271,-0.0994419828,-0.0479820855,-0.0854458138,0.0286449306,-0.0564482585,-0.0785678104,-0.0221391879,-0.0113201244,-0.0414467603,0.0553878695,0.0305367559,-0.0736480802,-0.0993742347,-0.0429927148,-0.0800320953,0.0224044975,0.1109201014,0.0426727235,0.0287064258,-0.048147548,-0.0177359655,0.0825812817,-0.05914234],[0.0228960216,0.0472994931,0.0878847688,0.0203761179,0.0567818023,0.0350813605,-0.0222907756,-0.0259750839,0.0985390544,0.0480951183,0.0474690981,0.0978773013,0.1303279251,-0.0227590352,-0.0837394446,-0.0786762759,0.0552939065,0.102036491,0.0352231562,-0.0669316426,0.056052573,-0.0817884132,-0.0342971832,0.0009593968,0.0440444425,-0.0659069866,0.0617081299,-0.0733800083,-0.0005389965,0.0613774359,0.1671943963,-0.0998176411,-0.0462017246,-0.0150213102,-0.0393677093,0.0868074447,0.0822713003,0.0103720911,-0.0758818388,0.0523177907,-0.0822783336,0.0619676709,-0.1069984809,-0.00765175,-0.0750807002,0.0852183402,-0.0533706248,0.0282638855,0.0452799425,-0.0406637304,0.09221109,0.055016119,0.0520078875,-0.0429889672,0.0662702248,0.0072563691,-0.0199052952,0.0830001682,0.0206817854,0.0663677827,-0.008576598,0.0406716578,0.047271926,-0.0100203203],[-0.0335023776,-0.0252437145,-0.0791895762,0.0639592782,0.012751366,-0.0702786595,0.0779460669,-0.0405807197,0.028559532,0.0234865975,-0.0769976526,0.0960019901,-0.0719178766,-0.0381148532,-0.0326919779,-0.0826992467,-0.0172488354,-0.0169806834,-0.0806095377,0.0540160649,0.0407848172,0.0902526602,-0.0029008002,-0.029860504,-0.0484401882,-0.0763062015,0.0557240359,0.0049913181,-0.0464428067,0.0064307535,0.0228906386,0.0842648447,0.0601262376,0.0728103146,-0.0127314143,-0.0092447,0.0685510039,0.0246919487,-0.0521084405,-0.0484405421,0.0584111251,0.0380894765,-0.0217854213,0.0083383648,0.0328104123,-0.0105694961,-0.0006212657,-0.0771767199,0.0452229828,0.0731735826,-0.04807695,0.0304890592,0.0385554284,0.1206827611,-0.0588738397,0.0905982405,-0.015691638,0.0331695043,0.0972885042,0.0052773049,0.0049496568,-0.0707413852,0.025552066,0.0801067874],[0.0478869602,-0.0045295521,-0.0511006303,0.0973386168,-0.0359643809,-0.0092039919,-0.0503854826,-0.1939535886,-0.0302190743,0.0441043936,0.0605748482,0.0714907646,-0.0419849493,-0.0841879472,-0.0431595333,0.0316420756,-0.0603896864,-0.0661975816,0.0476398505,0.0700314566,-0.0316957906,-0.0285226759,0.0470635295,-0.0494617969,0.0511424504,0.0258082189,0.0290223975,0.1051749885,-0.0259623062,0.0616581179,-0.0149168586,0.0742099211,-0.0113802599,-0.1184298173,0.0947981775,0.0705337226,0.0634733588,-0.0302261487,0.0330664627,-0.1188067198,0.0505389199,0.0805782601,-0.0025213526,0.0016586913,0.1016208753,0.018092867,0.0198894553,0.0066394177,0.0840191543,-0.0352756009,0.0660497323,-0.0508271195,0.0455773324,0.0710547417,-0.0182172935,0.0647486374,-0.0803176239,-0.039299164,-0.0121152122,0.0585216172,-0.0540429354,-0.0626930371,0.0719061345,-0.081349209],[-0.0267941877,0.0626083836,-0.0489737019,-0.003996673,0.1061369702,-0.0473611765,0.0135640455,0.0913162082,0.0306955166,0.0575636551,-0.0115323905,-0.0193121266,0.0663248599,-0.0336214416,0.0634419844,-0.0033727549,-0.0708152801,0.0054569803,-0.0626899153,0.0241277125,0.0873282552,0.045831725,0.0464895889,0.0511297137,-0.0504740551,0.0513162576,-0.0211525317,0.0515880883,0.127066195,0.0724412203,0.0087689934,0.0187648777,-0.0064098276,-0.0561816506,-0.0735211074,-0.0154149141,0.0623454265,-0.05810415,0.0880560353,0.1152126342,-0.0444949642,-0.0000905337,0.0049513998,0.1845233738,0.0118848737,0.0029133998,0.0767266676,0.0568200536,0.0229922812,-0.0273461007,-0.0513140187,-0.0239457265,0.0624075755,0.0669241473,-0.0123934885,0.0590457767,0.0653511286,-0.0483277626,0.0371297449,0.0040996335,-0.0231602937,0.0017468249,0.04497559,0.1358980834],[0.1175682917,0.0588711388,0.0625926703,-0.0785705298,0.0850105733,0.0814391896,-0.0265515577,-0.029712433,-0.0400249436,0.0496534035,-0.0265640579,-0.0217178669,0.0371605679,-0.0822847486,-0.1128659099,-0.070458129,0.0210577473,0.0841234401,0.0344111398,0.0389542542,-0.0009749586,-0.0592685528,0.0700937584,0.1244193017,0.1004863754,0.0174431,0.1151255742,-0.0394053645,0.0180776194,0.055832196,0.006158696,-0.0136422338,0.0229271855,-0.0233277474,0.0007578663,-0.0337707549,0.0328990631,-0.0343917236,-0.0790547282,-0.0704450384,0.0306150485,-0.0605067387,-0.0106296102,-0.0088459291,0.0123043396,-0.0041571362,0.0432255343,-0.0444454737,0.0041147498,-0.0782755911,0.050353542,0.0634645,-0.0332782082,-0.0949967504,-0.000969402,-0.0291521214,-0.0730844662,0.0979593173,0.0085150693,0.1376274824,-0.0534907468,0.1409440488,0.0059802621,0.0342789553],[0.0340423808,-0.0354396738,-0.028300751,0.0356436484,0.0127711101,0.0404125825,-0.100325577,-0.0794628263,0.0171987582,0.0943753496,0.0820072666,0.0319784321,0.0203714911,-0.0176956765,-0.0372571014,0.0695806891,-0.0384876207,0.0254742298,0.017292494,0.0442720316,-0.01858937,-0.1073544323,-0.0603564642,-0.0180207025,-0.0533296727,-0.0038904781,0.0312989205,0.1085154638,-0.023800984,-0.0111831138,-0.0095779961,0.0381455086,-0.0514887385,0.0250863768,0.0272382312,0.0533755273,0.0100859227,0.0253151841,0.0292293373,-0.0612888671,-0.0013675177,0.0909843221,-0.0495757312,-0.0685525686,0.0634633228,-0.0641377568,-0.0614270791,0.0132574961,0.0502187014,0.0275196321,0.1080253571,-0.0507423505,0.0930287763,-0.0287386011,-0.0577287041,-0.0815200657,-0.0497070439,-0.0045163841,0.0530045033,0.0415528007,0.0449507087,0.0678105652,0.0462309122,0.0659888536],[-0.0943483561,-0.0877818614,-0.0085030254,0.0242939238,0.0557232872,-0.1083612815,-0.0721405447,-0.0291619431,-0.0172797125,0.0481294654,0.0408395752,-0.0574177802,-0.0581786968,-0.050642278,-0.0536005087,-0.0291514192,-0.0947537571,0.017709367,-0.0582859926,0.1116609424,0.0320403874,0.1060626805,0.0614199042,-0.0065794652,-0.0799098834,0.029074233,-0.044326514,0.0169392489,-0.0198889114,0.0137691852,-0.0460129529,0.0594426505,0.0455366112,0.0743317977,0.0660944209,-0.0368292369,0.024815686,0.0511650294,0.0190877672,-0.0346609056,0.0180017408,0.0115099167,-0.0511799715,0.1333681792,-0.0348404348,0.0540541559,-0.03718042,-0.057269454,-0.0547574088,0.0693901405,-0.0816024169,0.0872382224,-0.0671017915,0.1923919916,-0.0182347242,-0.0733341649,-0.0541183203,-0.0770251304,0.0068422523,-0.0925149024,-0.0776639134,-0.0010112438,0.0697731376,0.1077904105],[0.0030660115,0.0475287177,0.0683555603,-0.0493750088,0.0292900633,0.0889796913,-0.1204449907,-0.0370696113,0.0708579198,-0.0040879212,0.0195257254,-0.0879569724,0.0628164783,0.0557046048,0.0327843018,0.1006960347,-0.0405372269,-0.0275419746,0.0722028017,0.0541443862,-0.0214876495,-0.0771017,0.0452845357,0.0814451277,0.0839539021,-0.0335046761,-0.0031721871,0.1034780145,0.0557039939,0.0586406104,0.0357445404,0.0235336795,0.0304940902,-0.086301595,-0.0412607975,0.0674828887,0.0504062101,0.0066632628,-0.122885935,-0.0552562438,-0.0062354519,-0.0059186225,-0.0539236031,0.0445384122,0.0705990121,-0.0491159037,0.0047322721,-0.0011540368,0.0988059342,-0.0312273018,-0.0654815584,0.0796007589,0.0686219782,0.0445524529,-0.0203098599,-0.0215049777,-0.103836,0.0407730751,0.0409106053,0.0745486543,0.0027524619,-0.0028378512,0.0588339604,0.0253646113],[0.130332768,-0.0093853474,0.1298439801,-0.0972964987,0.0280189496,-0.0582917146,0.0021850669,0.1055710614,-0.0008191683,-0.0621332601,0.0239514187,0.0254058167,0.0649502352,-0.0634051636,-0.0574932359,0.0100899078,0.0229879618,0.0515883006,-0.1048677787,0.1329361945,0.051379431,0.0084744114,-0.0138516175,0.0558740832,0.1155097038,-0.0670508519,0.1039769575,-0.1019114777,0.021790266,0.0962615162,0.1262337863,-0.0276403129,0.0273150057,0.07253021,-0.043973472,-0.0198762007,0.0489603169,-0.0057592876,0.0212202333,0.0903799608,0.0152544668,0.0369972773,0.0225341972,0.1118089333,-0.0200708061,0.0284680799,-0.0760863125,0.0359288901,-0.0933216512,0.0463815406,0.0755783468,0.0363889933,-0.0065634549,0.0830730498,0.0232329872,0.0153247854,0.0485014617,-0.0323616825,0.0521313995,-0.0161959063,0.0618061125,0.095480673,-0.0578356571,0.0013650196],[0.1120816916,0.0170703102,0.1125822142,-0.0186869819,-0.0083699813,-0.002333859,0.0476436242,0.0968907177,0.06317164,0.0682999939,0.0814839378,-0.0482716896,0.0833752379,-0.0272764135,0.0107160173,0.0954114273,0.0687782988,-0.0072932043,0.0728518367,-0.0647602305,-0.0404541194,0.0334140696,-0.0325356536,-0.0117082158,-0.0186112598,-0.0593286529,-0.0049717254,-0.0010860497,0.0333703607,0.0806692466,0.0255552791,-0.0134697519,-0.0298865531,-0.022548655,0.0338231064,-0.0609445386,0.0713396966,0.008266476,-0.0901576877,-0.0266616382,-0.0891601443,-0.0617456324,0.0579872243,-0.0529427193,-0.050162226,-0.0076153465,-0.0649061948,0.0456160419,0.0852824599,0.0184700508,0.0486640558,-0.0666870028,0.0870409831,-0.0651385784,0.0615602545,-0.0601558574,-0.0691664815,0.0049007079,0.0056560203,0.0382359773,0.0792665109,0.0878756791,0.0868394375,0.111560069],[-0.0385935232,0.0126098013,0.0213341974,0.0890316293,-0.0303454846,-0.0953651518,-0.017893007,0.0756144598,0.026816899,-0.0040641399,0.0115760621,0.0857441127,-0.0495019443,0.116741471,0.0357974768,-0.0388106816,-0.0812593922,-0.050439354,-0.0876890495,-0.0421617664,-0.0645185709,0.1340059787,0.0010134489,0.0386112779,0.05429928,-0.0006664392,-0.036233522,-0.0203188024,0.0474245586,-0.0311082825,0.0479268953,0.1684715599,-0.0008635125,0.0625009537,-0.0827364475,-0.0648807883,-0.064476423,0.1031607538,0.060697604,-0.0705248266,0.0407144986,-0.0069473842,-0.0822140574,0.0092276651,0.0614308938,0.004977426,0.0079980781,-0.0089200037,-0.0593688041,-0.0058723073,-0.0248755421,0.0466403514,0.0332209319,0.236868307,0.0601572692,0.0490820222,-0.017966453,-0.0886862278,0.0892881528,-0.0690091029,0.042909123,-0.0649763048,0.0743975192,0.055957105],[-0.027708089,0.0078674639,0.0389034264,-0.0863511339,0.017747473,-0.1066406593,-0.0322721861,-0.0364639163,-0.019534573,0.0661615655,0.0800798982,0.0563575774,0.0808779001,0.0176541228,0.0501031168,0.1101741716,0.0150179137,0.0191377457,0.0101084113,0.0206165984,0.1076278314,-0.0402513705,-0.0043345341,0.0184042212,-0.0060600233,0.0308115464,-0.1110410392,0.1016514599,0.1146095172,-0.0387695879,0.0603923351,-0.0585459135,0.0365066379,-0.0045871423,-0.0421449393,0.0083245477,0.054790549,0.0755424872,0.1093197688,0.0179260392,-0.0545360744,-0.0328102298,-0.0540698878,0.0357506759,-0.0352401882,-0.0148542486,0.0016614464,0.1535404176,-0.0007130158,-0.0139611326,0.0749123618,0.090375118,0.0541532896,0.107577756,-0.035485927,0.0169117451,-0.0235958844,-0.0797213912,0.08490365,-0.0484940708,0.0048124716,-0.0497554503,0.0054823826,0.1141379029],[-0.0224747621,0.0398981273,0.0678897351,-0.0517987907,0.0812578052,-0.0143974926,-0.0838504136,0.0659742504,-0.0012797141,0.0185088981,-0.0424114019,0.0463728011,0.0516100004,0.0726839304,-0.0785864517,0.0429241583,-0.0798582062,0.0704361275,0.0011991477,0.0833712965,-0.0041658529,-0.0762516707,-0.0797148645,0.0267413873,-0.0077964091,-0.0413273945,-0.0854459628,0.0056057214,0.0760785416,0.0770408884,-0.0193626862,-0.0407119356,-0.0655724108,-0.0741477311,0.0693786666,0.0361570716,0.0143951774,0.0107822139,0.012499271,0.0683751106,-0.0639102161,-0.0122816414,-0.0409951247,0.0784513354,0.0174726192,0.0272139926,-0.0999873951,0.0689353496,-0.0213956106,0.0472627133,0.0866513848,0.0710138008,-0.0049907179,-0.0366439819,-0.0192608945,0.0108809816,-0.0592708997,-0.0347033069,-0.0731398538,-0.0145840738,0.0967021137,0.0193850864,-0.0267575905,0.0617909767],[0.1078981161,0.0514180101,0.111446701,-0.038456656,0.0881736279,0.0193824172,-0.0383318923,0.0827696994,0.0214393903,0.0379670039,-0.0150444731,-0.0820592642,-0.0612262376,0.006610244,0.0485851206,-0.0671157464,0.0179924499,0.016566975,0.0684014261,0.0312174261,0.0066435467,0.0013092015,-0.0653835982,0.0711465701,0.0572562926,0.0457526185,-0.0611996539,0.0720973164,-0.0178406611,-0.0060938871,0.0446660668,-0.0887854025,-0.0300303381,0.0380708948,0.0575317182,-0.0063287145,-0.0469385535,0.0149654178,-0.0421548858,-0.0456916504,0.0645401329,0.0468240231,-0.0716857612,-0.0473980382,0.0828277469,0.049841091,0.0540515408,0.0400326252,-0.0291705132,-0.0537713617,0.0087409448,0.0283637736,-0.0535042547,0.0130553758,0.0285907183,0.0912045464,-0.0005490427,-0.0590986274,-0.0141065465,-0.0093883462,-0.0643949434,-0.0232835952,-0.0363855362,-0.0357805565],[-0.0418319218,0.0260342639,0.059420336,0.0779562369,0.0257541165,0.0463210233,0.022485273,-0.0594081134,-0.0245731007,-0.0410612151,-0.01638446,0.0070120273,0.0108106975,-0.0321201757,-0.0271170381,0.0152637064,0.1057365984,-0.0356140435,-0.0929386541,-0.0560454838,-0.0956427976,-0.0508720912,0.0345669501,-0.0025388834,-0.0467237271,0.0249063633,0.0773657709,0.045920454,-0.106625095,-0.0948207155,0.0483802259,0.0648613647,-0.0557202734,0.0611373745,0.0958500281,0.0848130509,-0.1073802859,0.0465959013,0.0391889587,-0.0265058167,0.0463228263,-0.0898473412,0.0574852899,-0.0761465281,-0.032937441,0.0635608807,0.0184126943,-0.0620876327,-0.1057152599,0.056843847,0.0511477143,-0.1054388285,0.0312005188,0.0524165072,0.072156392,0.0467143357,0.0069632307,-0.0540146083,0.0057149674,0.0586454459,-0.0434123538,0.0840204358,0.0339342728,-0.0702406988],[-0.1070554405,-0.0471467525,0.015271049,0.1287077665,0.0288877804,0.0651000887,0.0729224533,-0.1210881099,-0.0643979535,0.0148168234,0.0534668155,-0.0486614928,0.069807075,-0.0857782662,0.0388077274,-0.0739632994,0.0077784639,-0.0325569846,0.0351591557,0.0530324802,-0.0444909185,0.0520914197,0.0705850199,-0.0561884753,0.0595648177,0.0276448578,-0.0561760366,0.0735446289,-0.0309215412,-0.0081242211,-0.0732932538,0.0745427459,0.037344005,-0.03949821,0.0930055156,-0.0630646497,-0.0105958339,0.0481526665,0.0528955944,-0.0063607851,0.0518386178,0.0514150262,-0.0409586653,0.0111837387,0.0265000537,-0.0258021448,-0.0448584184,0.0376898907,-0.0015544274,0.0363490954,-0.0135071408,-0.0931015834,-0.053050328,-0.0757855698,-0.0040888479,0.0521419086,0.0056156348,-0.0643936098,0.0732082352,0.0570225567,0.0701366812,0.0042107897,-0.0479768477,0.0423374437],[0.1024301797,-0.0251852199,-0.0197794084,0.1188680381,0.0413639061,0.0424086377,-0.0465995483,0.1595244557,0.0402225405,0.0769377947,-0.0410069749,0.0452865101,0.0504870526,0.0027124481,-0.0003599836,0.0660689771,-0.0399357341,-0.0304475427,-0.1558534801,0.1086118817,0.0145094423,0.0714044496,-0.0240279697,0.0188730471,0.0313012078,-0.0047465181,0.0473443791,-0.0257586632,-0.0515650772,-0.011374997,-0.0066686487,0.0174425114,0.1906546056,-0.0144224493,-0.0670398325,0.0237061903,0.0129593881,-0.012123852,-0.0080296518,0.1691106409,0.052093219,0.0159214325,-0.0653700456,0.1543418765,-0.0018617129,0.0959291682,0.0073469891,0.0679482967,-0.1224074587,-0.0735438168,0.0828414857,0.0224558767,-0.0023530084,0.1055636629,-0.0152032468,0.1416344345,0.0719789788,0.0556817427,-0.0773679093,-0.1161108762,0.0653650239,0.0459715426,0.0295159407,0.0828221217],[-0.0182649549,-0.0234269816,0.0676177442,0.0564615615,0.1228438616,0.0255200565,-0.1002666354,0.0275866594,0.0539600514,0.0343266912,0.0089463638,-0.065334186,0.0617720746,0.0210728757,-0.0172835756,0.0214735083,-0.1090634093,-0.0748408288,-0.0383320749,0.0755270496,0.0344607793,-0.0659677833,-0.0213124454,-0.0439605489,0.0504502654,0.0720515326,-0.0735656023,-0.039978046,0.1053223833,0.0329316258,0.0608084798,-0.0057147574,0.0278094169,-0.0049573313,-0.0234404095,0.0785750151,0.0908935517,-0.0014953031,0.044782389,-0.0382172652,-0.0447754972,0.0272125024,0.0182230417,0.0369359925,-0.0159961414,-0.0335602835,0.0575385615,0.1389590502,-0.0497131273,0.0224423278,0.0596880317,0.0541523434,-0.0284848679,-0.0304674823,0.0356203578,0.0777552798,0.0551050752,-0.0273700673,-0.0765977353,-0.0616636015,0.0424083397,0.0471301526,0.0600194111,0.1097935736],[-0.0246437192,-0.0071918918,-0.0383449197,-0.0709818304,0.1236946285,-0.0668291748,-0.1244320869,-0.0502432026,0.0401316471,-0.0162053574,-0.0070368624,-0.0698261485,0.0280448552,-0.0126736211,0.0099533917,0.0073742662,-0.086044766,-0.0863101706,-0.0437681377,0.0161788054,0.081733413,0.0034159292,-0.0865253806,0.0741207525,0.0294515677,0.0469000414,0.0091350209,0.0333337151,0.0395204462,-0.0130602093,-0.0011471799,0.0274883173,-0.0729739666,-0.0496177897,-0.0754272044,0.0253314469,0.0225702804,0.0248194374,0.0351037793,0.0358775258,0.0225038379,0.0795191005,-0.0494845994,0.0198544394,0.0708304271,-0.0575781167,-0.0748379007,-0.0357095897,-0.0606255047,-0.0027893495,0.0175563451,0.0553522483,0.0003655405,0.0857271254,-0.040166609,0.0384811237,0.0544820391,-0.0238267351,-0.0609611645,-0.1054479703,0.0565435886,-0.0450757742,0.0224811994,0.1307275295],[-0.0134788305,-0.0118320426,-0.0285522677,0.0198413078,0.084205769,-0.1073932648,0.0430044793,0.0015006764,0.0768623725,0.0104321828,0.1134302989,-0.008236682,0.0169516616,0.0773459524,0.0857995972,0.029123202,0.004637558,-0.0332003944,0.0438056141,-0.0217060857,0.0116734337,-0.1031752005,-0.1022275165,0.0369351618,-0.0676189512,-0.0132998228,-0.0498483367,-0.0170503054,0.0854577571,-0.0007321867,-0.0307440199,-0.0513058752,-0.0005360616,0.0451675095,0.0255199205,0.0831329003,0.0817480609,0.0203683991,0.0168583598,-0.0469881892,-0.1104525253,0.0030218046,-0.0674944073,0.064134419,0.0045461007,-0.0244351868,0.0173183512,0.1416946203,0.1208440661,0.0802671313,0.0567748845,0.0276530311,-0.0367473476,0.0121615473,0.0000446225,-0.0133156683,-0.0931065157,-0.0615860075,-0.0318130516,0.045932211,0.0806780681,0.0490783118,0.0221470315,0.0599571764],[-0.0961999446,0.0172095578,0.0095293112,0.0142310057,-0.0015819119,-0.0348919779,0.0571283773,0.0447285883,-0.0678600818,0.0366207026,-0.085453704,-0.0288189705,-0.0573869944,-0.0311357006,-0.032648474,0.0675221235,-0.1132189184,-0.0926524699,0.0456056744,0.0584975332,0.0145432819,0.067858018,0.0451284386,0.0241872836,-0.0823766887,-0.0297701266,-0.0920507386,-0.0487314686,0.0148812924,-0.0676463172,0.0015229443,0.0385191217,0.0281423517,0.0485036187,0.0607889108,0.0391685367,-0.082403712,0.0215065684,0.0782162845,0.0603274144,0.0272392891,0.0308274385,-0.0032151241,0.077206634,-0.0265546255,0.0451086201,0.0133977793,-0.0185066406,-0.0244934112,0.0068578687,-0.0634045377,-0.0282381736,-0.0004016883,0.1981547177,-0.0342934169,-0.0196561292,0.0614894368,-0.0903438255,-0.0449599996,-0.0638896823,-0.0414852053,0.0055528143,-0.0167712718,-0.0115839373]]],[[[0.042323973,-0.0788786486,0.0258159321,-0.0718014538,0.0675450712,-0.0124408109,0.0803436637,0.018472949,0.0435001999,-0.0059257336,-0.0470838808,0.0138953924,-0.0138630308,-0.0493226573,0.0665194467,-0.0580688678,-0.0295964759,0.0546668284,0.0521719605,-0.0845267475,0.0738491192,0.0307028703,-0.0669143423,0.0227898527,-0.0128830131,-0.0078363298,0.0412487239,0.0661881566,-0.0501447842,0.0468506366,-0.0113212988,0.0493691191,-0.0217805561,-0.0765876248,-0.0439997725,0.0169782378,0.0028920763,0.0401209816,0.0499514155,-0.0665748119,0.004713886,-0.012632452,-0.0458546318,0.0255589914,-0.0554900952,-0.0737896562,0.0047071674,0.0043730619,0.0041842433,0.0664906949,0.0329013951,-0.0362818688,-0.052970238,0.0202552527,0.0217277594,0.000570117,-0.040880695,-0.0843738541,-0.0220551658,-0.0513417907,-0.0037358296,0.0418131202,0.0485357381,0.0506648868],[0.1014825031,0.0473277383,0.1039060131,0.0243757777,0.0405324213,-0.0413009338,0.036740873,0.01783696,-0.0703013018,-0.0711702183,-0.0227486361,-0.0099218469,0.0587659478,-0.0523419119,-0.030609265,-0.0101628974,0.0477942452,-0.08982905,0.0176678449,0.0968178734,0.1113499478,0.1013409868,0.0170771647,0.0313371494,0.0108765401,-0.0227305796,0.032882534,-0.0666381717,-0.0238686744,-0.0433217175,0.0316866599,0.0863150135,0.1213674918,0.0754511952,-0.0327351391,0.114022851,0.0589239411,0.0021748701,-0.0204614848,0.017531855,0.0211901106,-0.0121705923,0.0913741812,0.0814346895,0.0362127721,-0.0237457566,-0.0274859499,-0.0566024892,-0.072595343,0.0041216547,-0.0552871525,0.0488222949,-0.0797067806,-0.0413347147,0.0914210677,0.134602204,0.0573085658,-0.0504585803,0.0317783803,0.0734810904,0.0047663744,0.0233466756,0.0864305124,0.0318033695],[-0.0413658693,-0.007422918,0.0036517186,0.0598314852,-0.0615959503,-0.0203595944,0.0471189618,0.0501736812,0.0470497273,-0.0884052143,-0.0740099028,-0.0534213744,-0.10979525,-0.0358603634,0.0847523361,-0.043589998,-0.0599700101,0.0380577967,0.0439586081,0.0301185027,0.0057167131,0.0367520191,-0.0716166645,-0.0189752858,-0.0196155887,-0.0113724759,0.0523084588,0.0818060115,-0.0006778387,-0.0607337542,0.1130865589,-0.0428948924,-0.035617467,0.0303210169,0.0302652754,0.0329960063,0.0713878796,-0.057737276,0.0811714157,-0.0353981443,0.018718306,-0.0240777973,-0.0972710103,-0.0323393904,0.006027278,-0.0546261519,0.0651033446,-0.0536155552,-0.0330983512,0.012778502,-0.0698538646,-0.00459655,-0.0285686459,-0.0473049469,0.0285890736,-0.0030880796,-0.050153669,0.015690377,0.0177292358,0.1219062954,0.0478487015,-0.0141659016,-0.0169688184,0.0678339824],[-0.0028157665,0.0446423069,-0.065246731,-0.0504441448,-0.044771716,-0.0284054726,0.0996859372,0.0098901512,0.0436915942,0.0977728069,-0.0324132331,0.0284328721,0.0266123824,-0.0293277316,0.0814842805,0.0368351825,-0.0691572651,0.0047570467,-0.0135568324,0.0680467337,0.0678584278,0.0307086967,0.0531150661,0.0112076104,0.0183633193,0.1158987284,-0.0996189341,0.0300146528,0.1107251421,0.0585042164,0.0435189083,0.0313945673,0.0388369001,-0.0107430238,0.070771426,-0.0176339317,0.0100403661,-0.0828834847,-0.0192540307,-0.0491921157,-0.0414442718,0.0035345394,0.0805700719,0.0077766497,0.0420485586,-0.0810317695,0.0227737855,0.1611221284,-0.0205865465,-0.0233716127,-0.0064468672,0.0100361882,0.0003948818,0.0441745892,-0.0175132509,0.0308788866,0.0835033059,0.049404256,0.0001165754,-0.0905677304,0.0443937369,0.0133855082,0.0859485716,-0.0487254299],[0.0005904711,-0.0037451386,-0.0353602953,0.1258756667,0.1004774719,0.0002952706,0.0258861315,0.0674112365,0.0652374849,0.038881354,-0.0208853614,0.054005526,0.04848364,0.0219114572,-0.0159136541,-0.0058806059,-0.0188510865,-0.0277205631,0.0032748454,0.0983291194,0.0252888873,-0.0018482753,-0.0369517133,0.0789164081,0.0570825748,0.0007656551,-0.0353511982,0.0120799802,0.0540087782,-0.0195864998,0.0019038785,0.0723428354,0.074936457,0.0042901766,0.0036020405,0.0185200963,-0.0381578878,-0.0693008825,-0.0340065584,-0.0194198433,-0.0555660836,-0.0084169442,-0.0316755287,0.1159485281,-0.0672700852,0.0304497015,-0.1143731624,-0.0193494689,0.0202824846,-0.0415813252,-0.0564497001,0.0680348873,0.0383728966,-0.0851886421,0.1196726933,0.062695086,0.0084467288,-0.0731777251,0.0476907194,0.0583277941,0.0380925536,-0.043458268,-0.0727290139,0.0203962047],[-0.0091890674,0.0738235414,-0.0261044092,-0.0590449311,0.0010859985,-0.0597253181,-0.0883054212,0.0210057739,-0.0287030302,0.0664108396,-0.0442784056,-0.0341088809,0.0424118154,-0.0026425575,0.0069512064,-0.0600287542,0.0261814911,-0.0207681395,-0.0608577989,0.0469274558,-0.0175986961,0.0300349277,-0.0341789275,-0.0187799707,0.0887638032,0.0566092618,0.0406932011,0.0504225269,0.008573602,0.0504034422,-0.0673880354,-0.0478443056,-0.0724978149,-0.0349997617,0.1104444116,-0.1027377918,0.0803144202,0.0067136139,0.0448890291,-0.0374156758,0.0429407172,0.0459447578,-0.0045959963,0.0192731991,-0.0266830008,0.0669486448,0.0884510204,-0.0326616205,-0.0130220316,-0.0232787635,0.0776851624,0.0099986047,0.0613271482,0.0418565422,0.0370915234,-0.0719362497,-0.0142576015,0.1010899916,-0.0183367245,-0.0325009488,0.1056704521,0.0972404853,0.0794617906,0.0305306688],[0.1522969306,-0.0299282391,-0.0984912515,-0.0242872573,0.0854820609,0.0346725844,-0.1021435708,0.1160144135,0.1406995803,0.0695450306,0.0178054161,0.0485773198,-0.0591533855,0.0478979386,0.1092335731,0.069418624,-0.0724463239,-0.0693441555,-0.0671635047,-0.0390712246,0.0978435948,0.0599855594,0.1796092242,-0.0355451033,0.0215266906,0.0116605125,-0.0210708752,0.0053847488,0.0385917947,-0.0345142521,-0.064497374,-0.0473607183,-0.0000188774,-0.0605703443,-0.0305453725,0.0606188476,-0.0621479452,0.0458715186,-0.0292622205,0.1445934027,-0.095592469,0.1677954942,0.0502674058,0.1141977161,-0.0531086028,0.0690146908,0.009397394,0.0322939903,