kern1:
0.036140546 0.23305288 0.11584491 -0.18272746 -0.079038985 -0.11612356 -0.20047326 -0.019393003 -0.036572386 -0.120995305 0.07782511 0.06763369 0.059864085 0.19242866 -0.012146197 0.07754347 -0.030101169 -0.10269744 -0.07983086 0.01355433 -0.065139174 -0.023713121 0.16994351 -0.07853546 -0.09279593 0.057733368 0.12213501 
0.0795547 -0.10120164 0.04282231 0.076854885 -0.1566879 0.023673318 0.031985458 -0.084660135 -0.18283695 0.19675893 0.059624843 -0.013728565 -0.048596498 -0.029293235 -0.12515397 0.0020282597 -0.07078785 -0.045409683 0.17477952 -0.058066495 -0.14881186 0.17964242 0.11502616 -0.0636023 0.117953025 -0.1278255 -0.12585357 
0.19900784 0.0023387282 0.00010653533 0.20953187 0.17450225 0.17805518 0.13038753 -0.020490572 0.18639843 -0.15442634 0.08263974 -0.0115619 -0.021983137 0.12416916 -0.026756682 0.080158874 -0.02129305 -0.042951144 -0.08166638 -0.07392283 -0.15896761 -0.19715214 -0.09409786 -0.13603903 -0.13652737 -0.09857446 -0.18396161 
0.0076569254 -0.11680055 -0.12262192 0.15168959 0.10459926 -0.12546162 0.11193303 0.1308509 0.10694351 0.079058215 -0.07576378 -0.055542413 0.19554456 0.04093183 0.050439034 0.048541408 -0.14812717 -0.030835694 0.105214305 -0.07098983 -0.18987507 -0.045111604 -0.19042303 0.035190314 0.07402939 -0.1328692 0.0368451 
-0.0738754 0.013807918 0.014424971 0.03750122 -0.1357148 0.13641696 -0.08018656 -0.071004495 0.15598167 0.15176311 -0.19457912 0.0748402 0.053591352 -0.033960503 0.0875421 0.06963577 -0.17483553 -0.04523832 0.025416039 -0.12552741 0.026830792 -0.07999141 -0.080953054 0.18369171 0.019457048 -0.16011825 0.14241505 
0.07978263 -0.16652298 0.13370919 0.09395286 0.034089327 -0.08618864 0.09927242 -0.17122509 -0.12762332 0.12854244 -0.17679697 -0.13181376 0.025075896 -0.0046997885 0.0507176 0.12719783 -0.18209615 0.09505108 0.12236162 -0.057159755 -0.031883497 0.15533559 -0.10377872 0.06807696 -0.0012529534 0.07213793 0.1330925 
-0.051410414 0.06888813 0.08647777 -0.0441027 -0.07176516 0.0945645 0.08589258 0.17305969 0.0814662 0.03262506 -0.20763484 -0.17849253 -0.1365963 0.023089156 -0.09806643 0.10687189 0.18219027 0.20090933 -0.12320823 -0.21763465 -0.1595337 -0.12454039 0.08082624 -0.14310887 0.06622991 -0.015289119 0.17735764 
0.15042698 -0.105366364 -0.1247279 0.08237533 0.023063913 -0.01301926 0.05364131 -0.034014437 -0.18704122 0.16652724 0.08772705 -0.13961662 0.16924441 -0.042202394 -0.054044187 0.06701817 -0.065318 -0.13004653 0.019975482 -0.07907648 -0.17571326 0.19772068 -0.01965541 -0.056483127 0.040804762 -0.10374289 -0.11669135 
0.17492852 -0.17338918 -0.08989657 0.045258075 -0.18543783 0.03909079 0.05973182 -0.0651143 0.12088257 -0.032818627 -0.13946505 0.07195602 0.16903535 -0.064361475 -0.004643849 0.0977054 -0.16868727 0.09797182 -0.028720258 -0.18221042 0.09982701 0.08904923 -0.0125389 -0.070299864 0.19540404 -0.14722657 -0.0008264105 
0.13543844 0.102273166 -0.0039688405 0.07022469 0.16697553 -0.114185646 -0.1070844 0.12503712 -0.063651994 0.11912375 -0.014213322 0.0394506 0.060243074 -0.028273944 0.0041342718 0.049078073 -0.041805707 -0.1033701 0.06895924 0.1350887 0.018163234 -0.09678405 0.040706247 -0.19285937 -0.14694858 0.012017119 -0.23133847 
-0.0072479397 0.1745099 0.10548639 0.00026678556 0.0266906 0.06562208 -0.07210448 -0.06518473 -0.25809762 0.09712864 -0.010393122 -0.09265389 -0.0047114985 0.1766899 0.057076033 -0.07666668 0.10751082 -0.20155802 -0.02395565 0.075887345 0.04762896 -0.05986125 0.13696423 -0.06450231 -0.19333595 0.0589452 0.037092716 
0.092431985 -0.089375585 -0.095824935 0.115909815 -0.027033104 -0.025538608 -0.015252948 0.084946826 0.023023622 0.01353157 0.16607685 0.019048117 -0.0042127715 0.096492164 -0.21581624 -0.07231063 0.019218286 -0.21190076 -0.09720687 0.05046347 -0.19275671 0.1049355 0.17207816 -0.19424337 0.06786398 0.17855506 -0.20342427 
0.10896089 0.1157793 0.13883187 0.101025134 -0.06823557 0.029159706 0.15809698 -0.04206462 0.17082472 0.028309891 0.050466664 -0.031083409 -0.006848492 -0.16276745 -0.13747244 -0.12877612 -0.17497782 -0.10491779 0.041096304 0.13177414 0.05948758 -0.16510317 0.019515425 0.12808058 -0.18134463 -0.17552663 -0.04394128 
-0.18264247 -0.1674903 -0.22134724 0.014037564 -0.14431733 0.041379727 0.00841685 0.17534776 0.09532419 -0.07716959 0.062031716 0.098764785 -0.15916409 -0.036742777 -0.02136129 -0.077951774 0.17850989 0.10052754 -0.016224518 0.039604142 0.0681495 -0.011759116 0.0870853 0.04377082 -0.023713846 0.0799078 0.047492087 
-0.21297638 -0.20988277 -0.07065857 0.056641947 -0.026619315 0.1429033 0.17673475 0.1703546 0.12596153 -0.14810707 -0.17474894 -0.024313755 -0.018694218 -0.083355926 0.012451799 -0.039050587 0.050574876 0.11964439 0.064110346 0.04605534 0.02313431 -0.10469058 -0.07112252 -0.064095385 0.106546596 0.1392039 0.04436571 
-0.17676629 -0.09778128 -0.059359834 -0.16226602 -0.16679887 -0.014451513 -0.008051203 -0.015536063 -0.087434456 -0.12156777 -0.14574379 -0.02821635 -0.13766874 -0.00050291995 -0.036516275 0.08300681 0.04577537 -0.021790393 0.028551403 0.087164134 -0.0668989 0.1092713 0.13622944 0.21732943 0.2042536 0.16698796 0.11237711 
0.18350601 -0.21357954 0.06323874 0.0365194 -0.11042783 0.037571855 0.09984004 -0.15270254 0.1225838 0.08598097 -0.15896964 0.04207763 -0.027352499 -0.10813118 -0.09721958 0.05614729 -0.059301022 -0.08548141 0.19374649 -0.023713365 -0.103375465 0.1750441 -0.17632526 -0.028584791 0.06834194 -0.16732389 -0.08159696 
0.061523326 -0.13906178 0.14611648 0.13903104 -0.1515622 0.08172806 -0.045669366 -0.07765107 0.10590623 0.038274817 -0.09145814 0.09069625 -0.035255473 -0.21991862 -0.003449062 -0.01097075 -0.19763418 0.10086078 0.14244866 -0.035173185 -0.07001956 0.15902399 -0.115657486 0.023464032 0.05658017 0.036266897 0.017260365 
-0.14255737 -0.070704415 0.07384859 -0.056195524 0.13843746 0.121879034 -0.1456837 0.04537897 0.040968258 -0.112341315 0.11514713 0.05028731 -0.20900983 -0.06296705 0.096046425 -0.193683 -0.12352499 -0.076064534 -0.081005 -0.046241473 0.07276337 -0.13004768 0.09642637 -0.010657484 -0.027337722 -0.046407644 0.12072822 
0.11501044 -0.047834538 0.03581668 -0.14963546 0.085257135 -0.11764576 -0.1838808 0.045155838 -0.14762045 0.063131005 0.18763572 -0.13981713 -0.12281996 0.1466579 -0.18392459 -0.023902083 -0.0763799 -0.045601156 0.05232317 0.11881701 0.0067874673 0.0511006 0.1811148 0.03171184 0.06062793 0.16604973 -0.13550195 
0.018853053 -0.04091316 -0.018210089 0.15841337 0.104227655 -0.0690607 0.1492698 0.069732815 0.16882078 -0.14224547 -0.23383245 -0.14494286 -0.087166466 -0.10135003 0.04109779 0.10464282 -0.03481496 0.19235641 -0.0023472982 -0.058445103 -0.00039889605 -0.0247505 -0.09615241 -0.07151893 -0.018635776 -0.04669413 0.1097838 
-0.11238556 0.0041048187 0.12798682 -0.07569907 0.094631255 -0.14582157 -0.086151026 0.13665918 -0.1763276 0.16749148 0.2025274 -0.016874261 -0.16572633 -0.05506602 -0.069524966 0.10709721 0.00035411638 0.073299654 0.06725155 -0.05649257 -0.05573399 0.035094373 0.0056472216 0.08465128 -0.12194871 0.09369145 -0.09199369 
-0.0677064 -0.07437792 0.119905986 0.061267007 -0.045236737 0.14748998 -0.19076566 -0.13750447 0.15896498 -0.17727087 0.05999326 0.1727125 -0.20802227 -0.15415275 0.1286197 -0.20599622 -0.011483691 0.13794208 0.014620263 -0.058727156 0.11079112 -0.095912576 0.11284729 -0.058694836 -0.040028684 -0.039729007 0.085806556 
0.047451235 -0.12380657 0.15337402 -0.1332723 -0.0012139771 -0.058747232 -0.10698066 -0.111019485 0.010631969 -0.19703914 -0.117023475 0.18676281 0.089950204 -0.09398351 0.13248993 -0.18051778 0.13102041 0.108616896 -0.17996535 -0.012759885 0.10506476 -0.10124224 0.13046166 0.17033589 -0.052647635 0.079413086 0.090637274 
0.18835174 0.103149675 0.19592178 0.13305213 0.17527282 0.0024300348 -0.027305229 -0.13335189 -0.031311475 0.042941347 0.13752902 0.20157526 -0.05769597 -0.15265726 -0.06509644 0.018495696 0.083790235 0.1297838 -0.17997704 -0.023643637 -0.046776142 -0.1963787 -0.09016659 -0.11110987 -0.22709177 -0.04014428 -0.10376976 
-0.17539766 0.05719594 0.112390794 0.059279118 0.05915214 0.11866397 -0.059795894 0.16929623 0.065464616 -0.20370166 0.086697176 0.07767925 -0.05652305 0.14129579 -0.010198247 0.13817048 0.10592397 0.086993285 -0.21060595 0.032928895 0.11801411 -0.039475076 -0.112788565 -0.05691296 0.051959626 0.09350383 0.17944376 
0.11796603 -0.09081892 0.1686229 -0.15276375 0.035037458 0.054201603 -0.20543094 -0.17182982 -0.072008036 -0.0121978 0.022843774 -0.029039195 0.1223894 0.14617428 0.019808937 -0.16248228 -0.13082615 0.04819365 0.013892108 -0.038377218 0.17878826 -0.078388676 0.07354794 0.21994372 -0.15431981 -0.10323035 0.18396747 
-0.11265838 0.017405082 -0.10334759 -0.1341788 0.10747677 -0.053609483 -0.021853428 0.17553237 0.072888896 -0.20147689 0.008067953 -0.05407161 0.08032041 0.18543929 0.15209572 0.042703863 0.026569024 -0.07866268 -0.18398088 -0.06017761 -0.04394459 -0.097351454 -0.07378052 0.07563853 -0.13353899 0.18988484 0.09794381 
0.15561719 -0.10761012 0.088950485 0.08022373 -0.20786999 -0.02990281 -0.03355406 -0.068510346 0.074905716 0.11323832 -0.1915735 0.1232204 -0.081105836 -0.1495318 0.033629898 0.03883203 0.03711702 0.06129271 0.13465664 0.06377515 0.12981747 0.16712503 -0.1819012 -0.10757107 0.12065869 -0.049144626 -0.12416056 
-0.105172195 -0.17131545 -0.08880589 0.15294847 0.051456016 -0.1803569 -0.008780975 -0.0514991 -0.05136288 0.14092313 -0.0837781 0.05123076 -0.08623884 -0.093530424 -0.083194695 -0.06279409 -0.12531672 -0.060537286 0.18292944 0.04542876 -0.15499927 0.21417253 0.15703057 -0.08506772 0.18294442 0.15884534 0.016649442 
-0.024205366 -0.04300722 0.029036604 -0.119411215 0.1304922 0.09993992 0.05572438 0.21337737 -0.027487272 -0.061052103 -0.11853129 -0.19400245 -0.1560252 0.007301584 0.053534225 0.0639873 0.11350097 -0.08253206 -0.22873981 0.012616246 -0.06337706 0.024581892 0.1537011 -0.14971168 0.122410715 0.099547155 0.012499251 
-0.16718958 -0.0018026485 0.14588295 0.09230805 -0.16598962 0.07883763 0.05663904 -0.1438119 0.06930335 -0.15069981 0.045707896 0.03945397 -0.08100137 -0.08856344 0.070434965 -0.10349851 0.011870216 0.12405181 0.0253881 0.0027177695 0.18986553 -0.037992656 -0.15714829 0.13471757 -0.1677758 0.026036467 0.11647374 
bias1:
-0.00035685956 0.002114403 -0.0005874596 0.0004475033 0.00030746518 -0.0015716664 -0.0006097862 0.0038082383 0.00053979584 -0.0004374881 -0.00052886107 0.0007430874 -1.6861595e-06 -0.0009822515 -0.0012707589 -0.00020255928 0.0025032212 -0.0008606849 0.0031001335 6.5025175e-05 -0.0009058797 -2.8250477e-05 0.0018634913 0.0008080425 -0.00070270436 -0.011522816 -0.00028816602 0.0008130224 -0.0013724735 0.0012348314 -0.00037871016 0.00071706553 
kern2:
-0.13612986 -0.086909905 -0.036479574 0.0077572083 0.19049112 0.044705126 -0.043740697 -0.064749226 0.13670996 -0.17880143 -0.1742812 -0.27945748 -0.08245851 0.07932698 -0.04600077 -0.17590441 -0.06353064 0.1680298 -0.048238464 -0.38859746 0.093675055 -0.030511307 0.058438145 0.074214935 0.030346645 0.05456781 -0.0575823 -0.1305484 0.048260137 -0.06320563 -0.077436894 0.18832037 -0.11616786 -0.12707795 0.04091514 0.000961848 0.22681838 0.0860372 -0.10057847 0.006462823 0.15566109 -0.08013572 -0.028038392 -0.2696609 0.00059058337 -0.061445467 -0.06871913 -0.28616565 -0.0120293815 0.15473828 0.0061406824 -0.3210849 -0.020686798 -0.015186299 0.14409102 -0.046904176 -0.10566525 -0.022831008 -0.022004947 -0.18293528 0.09233006 -0.1304028 -0.22289792 0.062155977 -0.09286547 -0.087373674 0.01595616 -0.040147826 0.32322484 0.12243745 -0.0076910756 -0.10893547 0.13222483 -0.047629695 -0.077272005 -0.25598067 0.038325842 -0.11252603 -0.069032595 -0.20060338 -0.0060960017 0.15706687 -0.04913997 -0.31735826 -0.064915664 0.011061143 0.21932977 -0.035868477 0.16344707 -0.01188439 0.05596237 -0.047869716 0.103751436 -0.1659306 -0.09492799 0.17591932 -0.049770664 -0.009038173 0.099377126 -0.023719568 0.26867813 -0.05615881 0.09130152 -0.01708496 0.18703678 -0.07653327 -0.103144936 -0.18488061 0.024918903 -0.037868965 0.051339857 -0.101796366 0.078449644 0.1657931 -0.018324243 -0.2358639 0.10389329 0.035854943 0.08162792 0.01251025 -0.022099957 -0.02060406 -0.030742103 0.012173493 0.09340989 -0.14506517 -0.06553143 0.17372596 -0.12189489 -0.0144699495 0.095988974 0.066200666 0.26412526 -0.007569239 -0.041178875 -0.081030235 0.22070596 0.036445826 -0.112115555 -0.104678266 0.0360173 -0.1376307 -0.141288 -0.20258138 0.037776962 0.06925667 -0.08172682 -0.27954876 -0.010283007 -0.009926319 0.053067796 -0.04740333 0.040401 -0.038759645 0.045196425 -0.06072206 0.12912212 -0.087333515 -0.096371256 0.116063885 0.00039899882 0.0014220035 0.109391585 0.05334393 0.27059224 0.05535943 0.102274224 -0.0035811337 0.16853763 0.0033305942 0.02102991 -0.11894301 0.033626154 -0.040579446 0.034621265 -0.13858482 0.07394571 0.094380215 0.0037387796 -0.28439614 0.05408778 0.02360662 0.2161352 0.10655421 0.19133653 0.028758988 0.032615487 0.026141599 0.059565537 -0.077440724 -0.085707396 0.13713579 -0.0755163 -0.011710565 0.06388173 -0.015807746 0.29119003 0.03895421 0.061320223 0.017222807 0.21060179 -0.0027070083 -0.12825099 -0.1537627 0.034266856 0.005610601 -0.13348879 -0.08190244 0.07251761 -0.0064944285 0.019114418 -0.32749715 -0.026060903 0.06058876 0.1474082 -0.00744906 -0.06946287 -0.1116134 0.049551174 -0.010231188 0.063138805 -0.13221493 0.072838 0.14948685 0.013211958 0.029868683 0.0126030585 0.053121977 0.3021133 -0.03397977 0.065478675 0.094254255 0.1837289 0.0029404184 -0.0403545 -0.215328 0.10002605 -0.09359675 -0.10226518 -0.21940972 0.14973003 0.06724569 0.06512307 -0.41993698 -0.02824117 -0.06352088 0.086539246 0.03728559 0.124931045 -0.05463977 0.09084489 -0.024166299 0.04015461 0.016081486 -0.033524185 0.039584104 0.050962176 0.12342154 -0.048593514 -0.08761793 0.2688655 -0.031173667 0.13799986 0.05062967 0.16247563 0.06690601 -0.06892172 -0.09496192 0.01875342 -0.018374639 0.055763148 -0.0304696 0.18469632 0.15204868 -0.033558287 -0.31425953 0.15611981 -0.021539018 0.10101477 0.11325939 0.0916637 -0.1402385 0.1055966 0.051377147 -0.0035395648 0.007935062 -0.036039576 0.05290014 
0.076573424 0.07297533 0.0792137 0.06765466 -0.03471679 -0.102716744 0.212602 -0.023371032 -0.1250521 0.040140584 0.19777896 0.24445574 0.05998515 -0.017296474 0.13603553 0.1019361 -0.054458804 -0.17167117 0.13563849 0.13887776 0.044532288 -0.084275804 0.07347594 0.029804073 0.08705286 0.102785215 0.1356631 0.15691143 -0.09571599 -0.06886271 0.13711917 -0.083747305 0.18191257 0.12712826 0.14775068 -0.058993693 -0.21441829 -0.04813551 0.16433331 -0.01892823 -0.26275742 0.17902276 0.2580939 0.20203301 0.004797585 0.066794775 0.13849169 0.17904203 0.046393014 -0.19464856 0.13273329 0.2875118 -0.01305761 0.004810746 -0.035010517 -0.006042398 0.2046595 -0.04410089 0.0622796 0.20284732 -0.06760322 0.03555256 0.13550614 0.020160379 0.017591605 0.076162204 0.12214735 0.14531629 -0.16106623 -0.057085168 0.29578337 0.068818554 -0.08964611 0.058392286 0.12340905 0.3156144 -0.042869646 0.090196565 0.12351701 0.12432226 -0.06485107 -0.098103344 -0.03101026 0.23634022 0.1493573 0.045228098 -0.08850306 -0.05002875 -0.020804513 -0.006616221 -0.08984682 0.15192623 -0.1269218 0.16672286 0.19476178 -0.15220717 0.09425665 -0.04502927 0.088753626 -0.09748371 -0.14645137 -0.12615676 0.07713417 -0.028596675 -0.15008128 0.0041439366 0.16800022 0.13384359 -0.013618259 0.13360637 0.10015348 -0.0064295647 0.024470314 -0.15891467 0.012900701 0.3304794 0.034982532 0.08394116 -0.041739743 0.048998844 0.12293907 0.0014264737 0.040417332 0.18502967 -0.018848144 -0.0716217 0.03131159 -0.059620872 0.16672854 0.051553898 0.13459706 -0.06745145 -0.27475762 -0.08212683 0.10886898 0.030970333 -0.25854537 0.09898424 0.12300772 0.3138578 0.06713213 0.067280225 0.06229389 0.13552488 -0.029075354 -0.19014493 0.14250068 0.2917278 0.007015514 0.09461893 -0.026139941 -0.045920976 0.051464178 0.093576245 -0.02932176 0.11040784 -0.03997757 0.065584436 0.19368461 -0.051958263 0.1495897 0.09375536 0.12684956 0.026515463 -0.25073332 -0.072440006 0.28769836 0.07898145 -0.15228559 0.11929802 0.09966391 0.358743 0.012966204 0.06904707 0.22531176 0.17486666 -0.1330999 -0.1717751 -0.0024602625 0.3381721 0.19384646 0.116253436 -0.041461974 -0.0822988 0.11665111 0.04441942 -0.0989906 0.19132924 -0.111181535 0.13529706 0.20086902 -0.1561462 0.041163016 0.018115893 -0.0750262 0.04348944 -0.06925699 0.048005473 0.08028992 -0.046878222 -0.17331475 -0.08570719 0.049982414 0.07233917 0.0760829 0.011076073 0.14016037 0.23168392 -0.08735819 -0.055203576 -0.041246638 0.29872927 -0.028169246 -0.09070777 0.07402605 0.14492647 -0.083743185 0.14947106 0.08844074 0.07520199 0.03332003 0.09478706 0.09106675 -0.061755173 0.13433759 -0.06630572 -0.0978834 -0.072033815 -0.14806795 0.037398886 0.0060047805 -0.031587996 -0.20699653 0.047142822 0.18241462 0.26931715 -0.024459861 0.1803733 0.013080511 0.27610007 -0.038481683 -0.12653734 -0.014042236 0.42954382 -0.13918638 0.01900183 -0.063478984 0.01987379 -0.005422218 0.13147321 0.009612161 0.05802973 -0.08732223 0.066300206 -0.010945539 0.008683342 0.062613264 -0.03627641 -0.0064171012 -0.036098603 -0.16781972 0.041342784 0.02369003 0.040163517 -0.11578728 0.092991225 0.011291288 0.18698922 -0.09838725 0.11434506 0.033574376 0.24498683 -0.15951867 -0.10327404 0.04865763 0.29252604 0.067107365 -0.025549091 -0.094379574 0.03205593 -0.123121224 -0.015060922 -0.04172682 0.012365075 -0.020503378 0.049925204 0.11384326 -0.09875325 
-0.0050654905 0.029178934 0.12581381 -0.022609768 -0.09271884 0.06807315 0.03924114 0.0984964 -0.009621172 0.0295045 -0.06141999 0.1072122 0.017225012 -0.015229567 -0.084205195 -0.04713002 0.12612192 0.017701676 -0.040181883 -0.0321357 0.022238651 0.052552503 -0.22766723 -0.09602118 0.019230476 -0.102155395 -0.023485864 0.023081848 0.069877096 -0.03793507 0.01867082 -0.18099317 0.033274807 0.09016819 0.08737667 0.01868843 -0.1488977 0.11593874 0.0061642868 0.25994754 0.1284377 0.012626476 0.021662315 0.10785054 0.05501009 -0.1429242 0.024667509 -0.06477265 0.09001455 0.062557615 0.012334353 0.08519769 -0.020187141 0.09770389 -0.2560826 -0.24614428 -0.049917854 -0.12144758 -0.20553693 -0.0551158 -0.03526341 0.05586755 0.09601619 -0.25351542 -0.015349011 0.06070321 0.03677755 0.13400808 -0.16821691 0.04147274 -0.037832186 0.21284482 0.027229957 0.08939752 -0.03985128 0.22463283 0.034371752 -0.016235815 -0.08145172 -0.11244561 0.005674046 0.019513303 -0.07022382 0.044866357 0.06259663 0.05441557 -0.16808306 -0.13522644 -0.08514096 -0.08672654 -0.18530446 -0.11690124 0.0024492168 0.073476836 -0.02051082 -0.18454975 -0.027321761 0.09367185 0.019524567 0.043395262 -0.102245726 -0.058393873 0.009644804 0.17811698 0.08749074 0.058557436 -0.035764985 0.11245504 -0.0051913634 -0.019518893 -0.12326988 -0.07857797 0.0787661 -0.018522574 0.0036055236 -0.06520563 0.051782213 0.025369883 -0.23118645 -0.16447598 -0.042104088 -0.032346204 -0.10401536 -0.107290044 -0.046405517 0.015789906 0.04296889 -0.16178256 -0.029161206 -0.027768545 0.04346842 0.097542055 -0.06776098 -0.009260773 0.04607719 0.19870794 0.044555068 0.080720104 -0.09335183 0.16541965 0.020860095 -0.0115479445 -0.06290245 -0.12773536 -0.014981098 -0.03372262 -0.12786958 0.060158942 0.0044084187 0.067331105 -0.13703904 -0.17219734 -0.043609865 0.039684884 -0.13434796 -0.020715373 0.029133871 0.08916378 0.0659548 -0.145689 0.03478272 -0.017760875 0.0766715 0.113260336 -0.110465944 -0.055112526 0.009652953 0.23125674 0.12438578 0.023608394 0.028658843 0.1373703 0.0053337947 -0.083150186 -0.018401017 -0.06101365 0.061128993 0.053197037 -0.05753948 -0.04054994 -0.050937057 -0.028657297 -0.22827303 -0.15923631 -0.099242136 -0.04303867 -0.14998311 0.007376238 0.053456403 0.014966562 0.023152903 -0.110718556 -0.09629691 0.09419543 -0.046894263 0.012879144 0.078760475 -0.069090664 0.010609299 0.067047894 0.11950086 -0.1064808 -0.10196583 0.022673849 0.06604855 -0.04241144 -0.041391987 -0.03115178 0.018735627 0.051956218 -0.06411323 0.008028009 -0.06759812 0.025214475 -0.12834567 -0.040501676 -0.06578204 -0.1188761 -0.096614525 0.013123868 -0.083866574 -0.06345841 -0.057861373 0.0155307595 0.029165216 -0.023020439 -0.00063077733 0.057195164 0.03083934 0.024358986 0.06935576 0.19349858 0.046370834 0.016674625 -0.12105013 0.08743167 0.02607569 0.0005486267 0.02172457 -0.08106892 -0.008762938 0.011479934 -0.07915659 -0.09754412 -0.01524162 0.011706987 -0.17686146 -0.017682025 -0.070138425 -0.051905826 -0.044582773 -0.0446486 0.04272343 0.017994188 -0.041055996 -0.12133398 -0.04622299 0.07697767 -0.0062178937 0.06417769 -0.078258954 0.090424985 -0.013185719 0.10911391 0.12208037 -0.061961494 0.034904074 0.1140397 0.033864543 -0.056447107 -0.051083 0.015228909 0.05872898 -0.064110644 -0.07926411 -0.039665993 0.06948143 -0.03662121 -0.18598928 -0.17407948 -0.10620496 0.016336896 -0.12598377 -0.024777392 0.048371002 0.06251861 -0.04337968 -0.106043905 
0.06083491 0.079010256 0.104084216 0.082081996 0.28206936 0.027941655 -0.09747127 0.1496911 0.14222135 -0.01810503 -0.10005466 -0.038950548 0.041183643 -0.08265232 0.022975516 0.03077938 0.16454674 0.12400466 0.03664527 -0.19602746 0.114367336 -0.035945937 0.018787885 -0.023152329 -0.061511822 -0.071276724 -0.0009701923 -0.0047092717 -0.008042185 0.07355098 -0.14555289 0.10589569 -0.011810014 0.11886662 0.012427083 0.10385746 0.3006874 -0.0114338985 0.043987326 0.13160008 0.36065984 0.06233039 -0.16469316 -0.16320474 0.04244096 -0.11557913 -0.03207252 0.029806113 0.24060309 0.21488494 0.04662967 -0.19459762 0.08045786 -0.026006378 -0.093982525 -0.06470121 0.03950016 -0.02972469 -0.0038393862 -0.06531748 0.087839164 0.087477595 -0.02125394 0.083728485 -0.14186381 0.051266875 0.10351487 0.010262332 0.26229432 0.025957942 0.04754269 0.11171295 0.27325135 -0.014709081 -0.004152783 -0.15150115 0.07319269 0.0009897223 -0.004886434 0.071132615 0.17193946 0.25325412 -0.059437476 -0.09957994 0.007670171 0.052409567 0.061312217 0.06924917 0.05926726 0.026025956 -0.06876318 -0.07362658 0.1467922 0.1114455 -0.06099578 0.020820115 0.006545942 -0.01071034 -0.0060317954 0.092686586 0.2544939 0.108427696 -0.07689162 0.031375762 0.27766773 0.03763001 -0.017562019 -0.100024775 0.09262061 -0.055417538 0.010896496 0.037570223 0.14484896 0.21757674 0.03652161 -0.10733325 0.073286146 -0.034622733 0.027589787 -0.0069794343 0.028760325 -0.053269964 -0.027871713 -0.025704874 0.07415602 -0.02186157 -0.13525052 0.06371494 -0.13771841 0.15622431 0.010993047 0.0909145 0.31046227 0.08312342 -0.06300864 0.16675034 0.4046548 0.020665865 -0.2159582 -0.19163443 0.12626003 -0.10208304 -0.0570834 0.053660695 0.20344566 0.29646763 -0.022334583 -0.17818026 0.1419567 -0.058396004 -0.14138679 -0.1253223 -0.05768826 -0.0174421 -0.055263687 -0.20429944 0.22097711 0.18076017 -0.110605024 0.061779514 -0.09584614 0.06891017 0.079423875 0.17831849 0.17654902 0.0776702 0.039740574 0.18234724 0.3613607 -0.08437314 -0.17845525 -0.073324114 -0.037323225 -0.10846445 0.025934206 0.028151847 0.12152959 0.244279 0.025418341 -0.16544609 0.06877855 0.0055832337 0.023467345 -0.08093589 -0.0869506 -0.06974123 0.047297724 -0.05800895 0.049292684 0.036267497 -0.14500956 -0.027359825 -0.06447673 0.053865343 -0.011819448 -0.067592025 0.18264972 0.13133733 0.06469213 0.012043188 0.14887798 0.016537212 -0.05006223 -0.15721911 -0.029863592 0.014466349 0.025768016 -0.028696954 0.07921735 0.14946525 -0.03193205 -0.12460379 -0.040739283 -0.08245589 -0.062201165 -0.0067255395 0.0005921548 -0.042429276 0.07590842 -0.010826259 0.009150366 -0.037315033 -0.07634308 -0.00051355857 -0.015147189 0.007021371 -0.068648264 0.088746786 0.21443243 0.07905621 -0.061948486 0.070189096 0.28441834 -0.04692618 0.0042030374 -0.056219906 0.03622818 0.06597878 0.0541205 0.07042273 0.15685213 0.12812018 -0.053346395 -0.12566951 0.050196998 -0.04350654 -0.016678521 0.08400786 -0.045199648 -0.030245963 -0.012711693 -0.10847094 0.15377124 0.04431767 -0.062069826 0.06715578 -0.02485827 0.07922595 -0.07142047 -0.010822067 0.0791969 0.15431756 -0.022973442 0.07003028 0.1970544 -0.016069787 -0.014344988 -0.18776736 0.059001107 -0.018015182 -0.021694006 0.004320606 0.09629798 0.12068281 -0.12810847 -0.16017865 0.06713612 0.03278486 0.016490906 0.04191856 -0.086865634 0.007531778 0.04374436 -0.037764877 0.144198 0.11124615 0.033487793 0.12606123 
0.11680534 -0.015851172 -0.020292131 0.09435057 0.26145574 0.03595849 -0.013470152 -0.024902472 0.12883706 -0.09716525 0.014943778 -0.22799036 0.03628124 -0.0031179043 0.053727612 0.18166548 0.061893806 0.19720641 0.042216595 -0.030221501 0.02608282 0.007557135 0.36471564 0.23544703 -0.048154105 -0.044520907 0.14798112 -0.049941245 0.05071558 0.042445336 0.008260429 0.34326425 0.027848966 0.052579314 0.046241038 -0.0027998765 0.40059835 0.0053696833 0.046660442 -0.16610177 0.15194073 -0.11791749 0.016896546 -0.15685768 0.075889446 0.14535007 0.060561582 0.2715823 0.044759583 0.282454 0.121102534 -0.081721455 0.18432048 -0.05644574 0.35899678 0.3363477 0.0790528 -0.028061558 0.21261504 0.030486329 0.10018852 0.15474644 0.041519567 0.34850553 -0.015050257 0.047365125 -0.028124465 -0.039199777 0.29334363 0.016014034 -0.008663807 -0.12826012 0.17029177 -0.046033442 -0.08383117 -0.0698175 0.0399901 -0.026211862 0.10369673 0.16127954 0.04429729 0.15366086 0.028213661 -0.051574405 0.06926655 -0.03350797 0.24213094 0.25641224 -0.05318596 0.05511173 -0.013062529 0.013754177 -0.017160617 0.05266039 0.010937914 0.1732982 -0.0039055806 -0.03314969 -0.017790793 -0.035039548 0.30757543 0.08516379 -0.04968537 -0.0454685 0.14094888 0.0024761285 -0.11570324 -0.13869695 0.047019918 0.011725133 -0.021358049 0.023825837 -0.016255872 0.14568985 0.039863184 -0.07755 0.02403376 -0.048623547 0.23134878 0.07910381 -0.018107304 -0.0044977684 0.10636212 -0.027646262 0.13805224 -0.021776598 -0.09877243 0.14536946 -0.032148045 0.007898895 -0.024638891 -0.05678228 0.33886397 0.10200708 0.035518534 -0.09113343 0.21264376 -0.07447324 -0.03613705 -0.17226607 0.035701312 0.08932689 0.13163602 0.1388163 0.062011313 0.1262443 -0.025628824 -0.13911735 -0.0033842488 -0.06256575 0.3213736 0.18783316 0.032868393 -0.05412768 0.13591644 0.0009716237 0.06264915 0.07697252 -0.07117621 0.31007838 0.025567139 0.08353621 0.013471212 0.03232742 0.15293379 0.101495534 -0.015465347 -0.06842974 0.106142774 0.030300772 -0.12044099 -0.16433582 -0.056397542 -0.007211208 0.05327666 0.15098867 -0.0081308745 0.15960556 0.10607077 -0.07367202 -0.014604016 0.02197526 0.24409962 0.15347835 -0.09763206 0.06253535 0.055274017 -0.06759918 0.024037492 0.011014721 0.032697555 0.120064594 -0.0860914 -0.05470887 0.007260441 0.062159207 0.13455087 0.09936782 -0.04276646 -0.049906604 0.124048576 0.1345683 -0.055362415 -0.15041077 -0.06751211 -0.010624552 -0.01903356 -0.06705489 0.047996942 0.05760937 -0.085712895 -0.10904942 -0.05277946 -0.048962284 0.15919784 0.058726978 -0.051701047 0.08882 0.02553574 -0.04591315 0.0325416 0.0009078212 0.023492143 0.043965366 -0.09472721 0.07665433 -0.039981134 0.10542886 0.15930912 0.097714715 -0.06459223 -0.12808032 0.14000201 0.027393898 -0.015723437 -0.17910114 -0.07092604 0.016516993 -0.03393718 0.027835395 -0.009941421 0.057686545 -0.07768926 -0.08862365 0.031009048 0.042845488 0.17043877 0.13706422 -0.051400382 0.009415313 -0.02823483 -0.041015916 0.13186006 -0.07119868 0.0648569 0.04736698 -0.03380508 -0.036565922 0.04653611 0.0025613867 0.057471827 0.06498323 0.013838295 -0.08302181 0.01248057 0.053526707 0.018673006 -0.14438947 -0.08066586 -0.034657996 -0.04434535 0.031720217 0.0689149 0.13039334 -0.0049306313 -0.076933496 0.03313966 -0.015407935 0.057364758 0.015602478 -0.14191571 0.08201833 -0.09093843 -0.0887078 0.037531346 -0.042721823 0.022260591 0.020151308 
-0.08156808 -0.0306153 -0.009607824 -0.007467534 -0.08806488 0.112134725 0.094051 -0.030317817 -0.1345907 0.09053825 -0.030123968 0.023205772 0.013071363 0.08219389 0.053556398 -0.0083484175 -0.051123764 -0.04507665 -0.06666699 0.055557244 -0.022592815 -0.1257492 -0.15997465 0.022888325 -0.06905705 -0.016985072 0.026963834 0.010024288 -0.058892827 -0.12229247 0.030239962 -0.1125172 0.03856144 0.045088686 0.054702695 0.06526156 -0.17945094 0.091822006 0.10091455 0.090582095 -0.12713501 0.1586488 0.18559264 0.17098132 -0.045222282 -0.017870495 0.1149981 -0.033219773 0.011547309 -0.0808878 0.013417692 0.176122 0.035669766 0.034441806 -0.16303417 -0.15703025 0.17063834 0.025967473 -0.05850435 0.075998195 -0.030594794 0.07229311 0.1631225 -0.1887947 0.08821244 0.09846763 -0.013766745 0.066541165 -0.21586293 0.08740154 0.015570531 0.20423591 -0.17195953 0.09032957 0.081099294 0.28333575 -0.06922681 -0.073717125 -0.014603264 0.030562578 -0.043686926 -0.1343674 0.013199624 0.26183218 -0.038310833 0.047974024 -0.10464086 -0.066385694 0.03611844 -0.037629083 -0.038159456 0.08765872 0.06076919 0.107975155 -0.019708263 -0.19887348 -0.09317815 -0.050714877 -0.048053116 -0.059137583 -0.06026534 0.053945813 0.08964184 -0.018700654 0.0493684 -0.08030194 0.020304304 0.10472432 0.037026834 -0.087380655 0.17092544 -0.026382323 -0.12297141 0.07006089 0.020510035 0.09310176 0.022973578 -0.04812737 -0.085432716 -0.03365819 0.07750702 0.07426496 -0.0050388603 0.06361313 0.063795395 0.007911515 0.00016878342 -0.020044118 0.024598306 0.05490506 0.043406807 0.16153048 -0.12764065 0.009085508 0.10428897 0.20178422 -0.019441115 0.15426639 0.07407964 0.30569872 0.092744865 -0.06528057 0.06859882 -0.06663622 -0.031951636 -0.02238202 -0.085068904 0.16090432 0.074348964 -0.046550654 -0.091261454 -0.10983984 0.08308095 0.020445447 -0.096181124 0.08923524 0.10586905 0.062170297 0.08265424 -0.185715 0.054534037 0.073062934 0.17371602 0.14201072 -0.1480447 0.013493229 0.14336725 0.102244936 -0.0894214 0.20584413 0.15026486 0.29968834 0.103916146 -0.008041798 0.099505305 -0.042241473 -0.029917413 -0.111039996 -0.034089707 0.15574498 0.11976356 0.018262899 -0.04357788 -0.039120816 0.08554823 -0.028481433 -0.00711137 0.091403075 -0.008848247 0.14494157 0.056751054 -0.07166398 -0.14471056 -0.060866825 -0.069083914 0.008772672 -0.031283125 -0.028769247 0.10300374 -0.030910775 0.026034135 -0.05368199 -0.122965604 0.072660364 0.021031132 -0.026785517 0.18281406 -0.03648563 0.03690393 0.07009978 -0.041784536 -0.04835406 0.04107973 -0.1745602 0.018328309 0.05103415 -0.069097824 0.016934702 0.0941255 -0.022626558 0.035510335 -0.11523071 -0.02658685 0.07394962 -0.08571396 0.04291507 0.0669841 0.0017320376 -0.121649 -0.025670977 0.15232243 0.092561826 -0.12902765 0.091073155 0.099062994 0.15933406 0.05515989 -0.050827783 0.15733919 -0.04802954 -0.12860756 -0.022389285 0.047358338 0.13027044 0.049255837 0.03432534 -0.09465202 0.020611417 0.08043284 0.04718209 0.014863586 -0.079236776 0.027239488 -0.07106179 -0.10831056 0.0005938916 0.048329823 -0.022672586 -0.018354777 0.0025426606 -0.12091196 0.09001153 -0.08925606 0.10129194 -0.158293 -0.06563106 0.035241336 0.18508852 -0.045420397 -0.05051405 -0.023494942 -0.06629796 0.019512972 0.0016976274 -0.07040906 0.1534783 -0.037660494 -0.091284044 -0.03385156 0.026107417 0.03804335 -0.044982012 0.00059028226 0.07590857 0.0066483924 -0.031421665 -0.12332378 -0.078323 
-0.026665904 0.019950405 -0.058863655 -0.04400352 0.15149602 -0.03827499 0.07394339 0.0045495275 0.19296242 0.060708288 0.055087525 -0.021167357 -0.045353625 0.0040433495 0.06691539 0.057508323 0.071449265 0.09713505 -0.044716883 -0.012555849 -0.07629661 -0.048200335 -0.056202803 0.07461938 -0.02734346 0.023669453 0.019442782 0.103066966 -0.058165945 -0.038718227 0.0743407 0.023065044 0.028400816 0.02308666 -0.045495503 0.018598717 0.16942385 0.14418909 0.028103748 0.04721607 0.19327395 0.03535212 0.034964934 -0.012446683 -0.013691982 -0.047888912 0.13468438 0.03955224 0.029408278 0.053251255 0.03870637 -0.05861623 -0.011572017 0.057924744 -0.06802479 0.05423002 -0.004383103 0.08091988 -0.024328103 0.050517704 0.14903025 -0.04161877 -0.043160558 0.07119669 0.09973352 -0.0042371363 -0.023000559 0.0028878627 0.17042892 0.08294977 0.07609463 0.10054582 0.18091173 0.06667462 0.019084798 -0.06918546 -0.06542052 -0.057768624 0.11345727 -0.09393405 -0.006909833 0.086729206 -0.06926769 -0.032125793 0.0656138 -0.029126458 0.07329057 -0.0077805463 -0.060793657 0.017732259 0.07721872 -0.030762022 0.09410556 -0.060027737 0.12835173 -0.020081984 0.06269604 -0.027814716 -0.0020202922 -0.036450364 0.14577167 -0.030911865 0.16516516 0.10923259 0.17197022 -0.022850662 0.043331783 -0.06475254 0.010985863 0.045732375 0.14945963 0.06215421 -0.010701922 0.114789516 0.0131659685 -0.028133433 0.024436694 0.026697101 -0.060781803 0.06742061 0.18323517 0.024611358 0.042756308 0.12305329 0.123712644 -0.005583278 0.09066726 0.09323112 -0.07124901 0.00065741694 0.1363219 0.094987884 0.2790774 0.13546532 0.09618467 0.16064323 0.3182687 0.035934173 0.05847828 -0.033450462 0.10257621 0.05058165 0.11022351 0.07013868 0.11333667 0.17180192 0.0039117876 -0.013207425 0.08925293 0.0032181817 0.0125355385 -0.0151325725 0.21353747 1.892625e-05 0.124624625 -0.004422779 0.074918635 0.083956406 0.11101162 -0.0219081 0.099963054 -0.0029675686 -0.029989231 -0.05044472 0.12947723 0.103249475 0.23062758 0.15367724 0.13182764 -0.080647975 0.026785297 -0.022330059 -0.06225808 0.013037884 0.17674085 -0.12181065 0.15826614 0.06922663 0.04841391 0.0018164646 0.177184 0.053141065 -0.026605792 0.04846469 0.02209228 -0.049292874 0.131993 0.023851734 0.16343771 -0.07739499 0.009106528 0.07013872 0.04783278 0.04512289 -0.01741875 -0.07439396 -0.041982144 0.037730675 0.16516283 0.004841154 0.103038564 0.03142757 0.06855857 -0.004353084 0.037154503 0.1000155 0.15113054 0.0786901 -0.06902945 0.11130282 0.047952406 0.05247325 0.03661583 -0.014646222 0.0123869665 0.039232098 0.024145395 0.04422397 0.020942425 0.15034659 0.11039716 -0.09599439 0.13151433 0.067098655 -0.023870137 0.083990864 -0.09356056 0.005356106 0.166155 0.14043455 0.071352065 0.043308195 0.21874788 0.0073257023 0.055098314 -0.04117479 0.09995231 0.09636706 0.067872696 0.1208663 0.10424892 0.13578552 0.044614136 0.07454154 0.055627044 -0.04755812 -0.04037437 -0.0349773 0.13503434 -0.042419866 0.015899934 0.046585873 0.076264784 0.01342532 -0.041978173 0.07522764 0.054396648 -0.0027046446 -0.16904593 -0.016681716 0.093470305 0.13055478 0.0723045 0.066762455 0.17923714 -0.034129977 0.083296806 -0.054388076 -0.105142444 0.05406571 0.11747417 -0.011867962 -0.05423061 0.14372037 -0.04947927 -0.01816565 -0.069715455 0.03241479 0.022999674 0.033300072 0.036647886 0.062146515 0.0114222355 -0.029500498 0.1414928 -0.020627752 0.07091394 0.032807663 
-0.04366197 -0.10940153 -0.1926702 0.057112023 -0.13036577 0.07147913 -0.06993906 -0.0018153804 -0.073786944 -0.068474725 -0.06954428 -0.010979685 -0.2747449 -0.10013516 0.024427533 -0.15383983 -0.063561164 -0.060231693 -0.11877558 -0.16516855 -0.040940877 -0.08451482 -0.14047256 -0.0841922 -0.21325725 0.0857355 -0.24538197 -0.09834466 0.04685345 0.0037070778 -0.005894694 -0.1362119 -0.03166853 0.017393135 -0.28910702 -0.030950299 -0.08543078 0.07966129 -0.33899158 -0.04372891 0.0038060779 -0.03410858 0.0071486873 -0.024820117 -0.16086149 -0.19007006 -0.061027348 -0.21044652 -0.0724121 -0.035728656 -0.02177976 -0.03729033 -0.29451734 0.0043986733 -0.040667374 -0.15393983 -0.3110509 0.020402513 -0.0995394 -0.19519505 0.085302055 0.024044067 -0.20359983 -0.16432954 0.008084662 0.08121709 -0.23077333 -0.10531193 -0.014459674 0.012433685 -0.32652932 -0.058528516 -0.06554773 -0.05991986 -0.030922417 -0.030726656 -0.20677754 -0.15316667 -0.016659714 -0.019092374 -0.10293302 0.06644244 -0.025376359 0.16573259 -0.21669668 0.04466762 0.024967972 -0.003737795 -0.2992841 0.018058075 0.01403558 -0.14463614 0.0448954 -0.084110595 -0.17612174 0.033789486 -0.08526297 -0.09566296 0.34476507 0.10703596 -0.060688082 -0.005931633 0.19913954 -0.026055139 -0.040316723 0.12572928 0.05044992 -0.027653348 0.11926061 -0.1296296 0.15745722 -0.15625207 0.07555593 -0.0139908455 0.0668138 -0.06124664 0.24717814 0.030920997 0.08927723 -0.13166998 0.36141515 0.07452476 -0.01703694 0.08937473 -0.04581157 -0.096953414 0.0791956 0.01532967 -0.13134392 0.031500336 0.22732992 0.09910375 -0.12739922 0.038596854 0.07655812 0.0061849207 -0.027881086 -0.03359884 -0.1423098 0.07180511 -0.04024513 -0.09497367 -0.0068140267 -0.20881876 -0.10054722 -0.039796233 0.0031811574 -0.0869386 0.13850647 -0.066225894 -0.13436931 -0.0357927 0.26538685 0.04582615 -0.1840771 -0.07200341 -0.0024824154 -0.035628043 0.068899326 -0.1542992 -0.053899117 0.018290814 0.049331803 0.0020005866 -0.024956219 0.07614616 -0.09345349 0.016288448 -0.037751865 0.0069299424 0.011253807 -0.025420276 0.030325456 -0.16141635 -0.13448742 -0.2578512 0.0020510054 0.04536475 -0.04319329 -0.03643444 -0.091339566 0.034392204 0.010148758 -0.08329869 0.15386379 0.0170587 -0.03167671 -0.06477272 0.013843671 -0.009344429 -0.076194845 -0.087446235 0.2492529 -0.0074957074 0.29951614 -0.0103238085 0.12662482 -0.084084384 0.2438959 0.06368472 -0.07472768 0.13349119 0.08427374 0.111315675 0.33052704 0.13609546 0.025551535 0.16238584 -0.020492326 -0.0697513 0.16720062 0.13549916 0.17856798 0.033248134 0.1903004 0.21962549 0.26966548 -0.076432995 0.2918781 0.10305378 -0.055534016 -0.03397878 0.17449817 0.09283538 -0.0068125497 0.053288095 0.26877806 0.09437827 0.010749462 -0.05344934 0.32968 0.027658362 -0.06491812 0.07171466 0.009258327 0.077156566 0.27843624 0.12769409 0.27100724 0.0107081365 0.110028096 -0.06744132 0.16055095 -0.042390835 0.372868 -0.050646093 0.1763787 0.08647756 0.30343604 0.026303437 0.015659072 0.26840758 -0.16109817 0.027037662 0.23420754 0.07378735 0.1027909 -0.022066358 0.220522 0.05402481 0.11899962 -0.12647909 0.19872919 0.048757184 -0.023766005 -0.016360374 -0.07360582 0.051503886 0.15399493 -0.04747739 0.12392199 0.022329852 0.0033735852 -0.08868662 0.05543544 0.040642727 0.1860483 -0.075632505 0.10501988 0.041450806 0.24582107 -0.034082655 -0.038918506 0.014946538 -0.020171957 0.021069625 0.075355254 -0.07296716 
0.02394395 0.039030895 -0.1437174 -0.07490201 0.061181966 -0.010882252 0.07838553 -0.0033003169 0.06946446 0.016030833 0.019572208 -0.09174526 -0.07982413 0.092736565 0.07394795 0.15729646 -0.004501749 0.0118225515 0.03425925 0.039205417 0.018916296 -0.015711075 -0.047250234 -0.009268216 -0.0030376874 -0.0202723 -0.004635174 0.029831877 0.085659444 0.07878894 0.09613399 -0.0006942854 0.049716894 -0.0033439132 0.04647812 0.01312193 0.15299556 0.15916818 0.06586083 0.082195595 0.12797663 0.06425902 0.13555126 0.020032795 0.08403519 0.023821319 0.079335615 0.054348048 0.013040167 0.08105495 -0.05015548 0.040847562 0.10176354 0.04790362 -0.035581242 0.006837277 0.15069257 0.09491879 -0.009154012 0.09204424 0.14932837 -0.011373941 0.07558205 -0.004145724 0.09371772 -0.01185519 0.028698523 0.0035257787 0.15837687 -0.04024559 -0.04898945 0.060536325 0.10741897 0.061923616 0.087484986 0.037820075 0.014027826 -0.042975128 0.015429822 0.039821178 0.11071066 0.06451129 0.09308571 0.08347994 -0.062012598 0.064494 0.055389658 0.020109342 0.17398073 0.053172283 0.15953891 -0.06159595 0.1337945 0.037811752 -0.003265726 0.012717824 -0.066198826 0.0753916 0.085196085 0.12686671 0.16390464 0.114280626 0.14089175 0.09122144 0.18154941 0.13694897 0.07907333 -0.13756396 0.022143377 0.074968755 0.15198359 0.089723 0.08810979 0.1328875 -0.042988796 -0.13473307 0.16079785 0.062648535 0.008148745 -0.021011341 0.08345501 0.111378364 -0.017201552 0.05118935 0.15153126 -0.027608998 -0.018871387 -0.036188893 -0.039088137 0.071860366 0.15616931 0.05382339 0.062395256 0.09678477 0.07992551 0.13517074 0.25355038 0.17255294 0.01879978 0.04280297 0.13112578 0.07980414 0.04612967 -0.054188836 0.14346789 0.20481992 -0.06757496 0.07505753 0.19481622 0.00947604 0.0037051647 0.030609602 0.28565437 -0.019803986 0.13398246 0.010625972 0.12228103 0.07312308 0.04311966 0.07904913 0.026885977 0.10772793 0.15368468 0.047316033 0.03040221 0.031595938 0.06284096 0.15875754 0.099434316 0.08162463 0.18440437 0.048492745 0.024832632 -0.020937797 0.028097311 -0.15745327 0.14110424 0.04787147 -0.029737486 0.10151559 0.09751491 -0.023308896 0.05296172 0.03809097 0.23498301 0.054269575 0.0703006 0.01845389 0.16123693 -0.036746897 -0.0147724375 -0.025920825 0.054463245 0.03170395 -0.021496307 0.02475351 -0.03346123 0.13065353 0.031264555 -0.02163125 0.15191416 0.011823849 0.06993095 -0.058750764 0.08094278 0.09577502 0.1377924 -0.059954915 0.027288016 0.075199716 -0.111335814 0.08062801 0.13734588 -0.03831739 -0.048610393 0.03930699 0.11539121 0.004410218 -0.044653483 -0.04680449 0.08176725 0.078730136 0.07250637 0.05953706 0.08939767 -0.05037269 0.07704191 0.018805927 0.122909725 0.12506576 0.06705323 0.14022629 0.14384446 0.08143316 0.0869798 -0.046009492 -0.032562695 0.065196715 0.17069413 0.049995653 0.09381513 0.06332595 -0.01669054 0.11608144 0.1357971 0.017826792 -0.11628734 0.008826256 0.18769966 0.07309402 0.11750729 0.0701239 0.11570791 0.062073324 -0.026764384 -0.02071727 0.108650625 -0.059982087 -0.061204817 -0.08573031 -0.03513345 0.10846429 -0.07657428 0.049693756 0.16491875 0.009934412 0.18250236 -0.07433637 0.03475156 -0.087444894 -0.07822965 0.014473259 0.119051345 0.17039418 0.027268397 0.07940467 -0.07752646 -0.02619946 -0.051648553 0.07566882 0.13995409 0.00201631 0.08697901 0.012563644 0.05391697 -0.07656011 0.009623429 0.07064963 
0.07136978 0.038873564 0.062186707 0.03774286 0.13989647 -0.093959525 0.042900927 -0.1999883 -0.10572905 -0.11804116 -0.022413537 -0.028899891 0.0655553 0.055183068 0.09179025 -0.02682146 0.001952294 -0.060918797 0.13640505 0.098981224 0.054314278 -0.028964926 0.27135196 0.0870725 0.02110228 0.053702064 0.16498286 0.06448524 -0.058006875 -0.083044864 -0.09351756 0.20647295 0.11823147 -0.047421053 0.038817745 -0.024077974 0.14542824 -0.04159769 0.07250053 -0.13633332 -0.06988966 0.025821242 0.04430285 -0.14142713 0.07910217 0.14383729 0.10070708 0.10464445 -0.109599404 -0.01984996 0.07944135 -0.06956599 0.034938022 0.009971495 0.3159411 0.1774142 0.15816565 -0.009891508 0.16808702 0.097119644 -0.10096121 -0.048833683 0.0651154 0.2940464 -0.025670642 0.013980862 0.03359754 -0.044640884 0.046846576 0.022388127 0.02101724 -0.08428164 -0.07221903 -0.007746913 -0.030313358 -0.11743313 -0.01837713 0.035951212 0.11528092 0.064324364 0.02761433 -0.086646736 0.14253056 -0.08652702 0.008088138 -0.08947904 0.22455491 0.19659248 0.07767501 0.022831263 0.06755987 0.10181308 -0.007142904 -0.036186658 0.038222454 0.08157639 0.07327771 -0.08733189 0.05841047 -0.05599281 0.1348717 0.01430016 -0.01285348 -0.22704032 -0.09932006 -0.12335651 0.012238287 -0.06899731 -0.05610959 -0.00023635663 0.09357179 0.017943105 0.008412125 -0.015640473 0.114903934 -0.019728025 0.06968264 0.052006856 0.25440168 0.2403077 0.11198285 0.069386 0.1341233 0.05357837 -0.058160286 -0.064100645 -0.014941901 0.23302609 0.1284251 -0.13189565 -0.038068365 -0.06318064 0.14486936 -0.007915367 0.06918812 -0.15956315 -0.082423486 -0.03603306 0.10678417 -0.10485064 0.019939983 0.100274354 0.04917674 0.030381693 -0.133591 0.014118935 0.16579106 0.005973202 0.011362015 0.035150774 0.40601087 0.3727168 0.19945428 0.038453754 0.18053412 0.122678764 -0.035395287 -0.047909617 0.17838165 0.25034225 0.023938617 0.012362734 0.11251748 -0.05922162 0.14788987 -0.06261322 0.1091447 -0.1589585 -0.14592895 -0.030594327 -0.019482106 -0.14355953 0.017823774 0.13157047 0.018988507 0.122134954 -0.08732439 -0.043658275 0.12530227 0.0493761 -0.038695585 0.011604354 0.32639688 0.18232271 0.078620195 -0.02049631 0.06650171 0.13767257 -0.0784398 -0.017961029 0.12157695 0.28384468 0.041805074 -0.110341236 0.04749764 0.011968178 0.07529512 -0.028379276 0.0714075 -0.20909955 -0.143891 -0.03529312 0.019806826 -0.008536308 0.024388753 0.10496615 -0.055176243 0.1129363 -0.10353531 -0.12068322 0.09860444 0.020926269 0.012880595 0.008410129 0.27054057 0.10906424 0.043542482 0.10772716 0.08650098 0.032040205 -0.07933117 0.04530581 -0.005963286 0.08028558 0.029153468 -0.1096801 -0.028786073 -0.10244266 0.16139291 0.005075563 0.01341382 -0.0990676 -0.08571971 -0.021199241 -0.008682644 -0.0073589566 0.038439486 0.16572998 0.10175437 0.044930387 -0.12370104 -0.012627281 0.18242271 0.014366908 0.037033748 -0.03229249 0.27787825 0.2490084 0.0925559 -0.005067767 0.23771857 0.08799725 -0.10563496 -0.12029784 0.076502904 0.14587443 0.09046616 -0.053910498 0.08043364 0.02718128 0.0043135514 0.0472899 0.0038515828 -0.17531283 -0.11616204 -0.0007176934 0.0677267 -0.02312162 0.04800761 0.01893251 0.04303003 0.07545495 -0.05114078 -0.08357382 0.10550412 -0.04557379 0.040390346 -0.061320662 0.3217313 0.2409985 0.0386916 0.07106418 0.08399653 0.12323434 -0.02200629 -0.096970566 0.023535646 0.13107604 
-0.02684157 0.099313654 -0.107533544 -0.0909928 0.23720656 -0.029164633 -0.19717865 0.054739423 0.12459188 -0.098600976 -0.19682452 -0.16567062 -0.007990468 -0.1214233 -0.21601543 0.08903768 0.12535085 0.108032696 0.13227439 0.05049532 -0.068726204 0.0036442108 0.1555392 7.554078e-05 -0.17186004 -0.040090986 0.07897219 -0.18048735 -0.030268598 0.114018984 -0.13860786 0.1943498 -0.030123388 0.10598462 -0.1405392 -0.021876428 0.1917293 -0.072728425 -0.24738468 -0.07566884 0.028898712 -0.0654354 -0.09304808 -0.15015842 -0.044317916 -0.09634538 -0.12906015 0.08810397 0.07142051 0.05958639 0.047523696 -0.08267892 -0.1277158 -0.06065167 0.26489022 0.20836358 -0.23109391 -0.17218027 0.20569128 -0.0631744 -0.028052429 0.006738944 -0.26187423 0.22778116 -0.013035284 0.048411112 -0.17509006 -0.104627915 0.2400343 0.0016488305 -0.21009855 0.013028339 0.102184586 -0.05889204 -0.118726715 -0.11137598 -0.07080911 -0.082720116 -0.10199517 0.1765214 0.09359032 0.009919879 0.028101942 -0.10506532 -0.026333243 -0.124254815 0.22718452 0.15477632 -0.10333284 -0.056909535 0.08435045 -0.095822215 0.012479964 0.054688808 -0.05726672 0.15482937 -0.09202466 -0.058880202 -0.07732961 0.039177757 0.24756622 0.13309912 -0.1756705 -0.08894616 0.11772168 -0.08935898 -0.09586494 -0.14745778 0.027977202 0.100106604 -0.08648177 0.21188165 0.10650473 0.1673274 0.0069922046 0.121346 -0.0035531635 0.08830099 0.11548903 0.14744183 -0.026885666 -0.020574428 0.10436035 -0.10363116 0.13593982 0.06832649 -0.05040032 0.15666822 0.032474924 0.067169905 -0.115773074 -0.12563515 0.13261297 0.05536247 -0.22427708 0.048234016 0.12839101 -0.034690123 0.031251136 -0.1680252 0.081944436 0.06867077 -0.10979607 0.20160963 0.07063023 0.16704161 0.019530825 0.063254446 -0.07871872 -0.030233987 0.19922267 0.23615095 -0.022612724 0.032064337 0.08455169 -0.083535776 0.011650341 0.10877502 -0.15450297 0.21904877 -0.115327545 0.0778315 -0.12607326 -0.010110992 0.13164711 -0.060546216 -0.2269692 -0.039668646 0.028516684 -0.16363895 -0.16603197 -0.12076088 -0.11485894 -0.057508152 -0.055730544 0.109738454 0.019780345 0.07080258 0.064949684 -0.0807744 -0.14027253 -0.10266771 0.04350176 0.06382122 -0.18226892 -0.13513052 0.11075709 -0.0861758 -0.037689123 0.08561557 -0.10905768 0.17531879 -0.069699936 -0.11663219 0.08087832 0.03646637 0.19942355 0.13215417 -0.047607396 -0.11618889 -0.010683378 0.077618554 0.1168792 -0.1424967 -0.027415972 0.17121282 0.10064928 0.18678263 -0.102853484 0.08240887 -0.11634104 -0.025050921 -0.116527595 -0.0007287071 0.025001416 0.23034157 0.044295713 0.12109163 0.15260747 -0.032584947 0.13111567 -0.038590185 -0.022723598 0.17531663 -0.043174125 -0.10078711 -0.07131583 0.053940207 0.0897981 0.1562823 -0.08348862 -0.017640244 0.025170324 -0.004097324 0.0127747925 -0.11389062 -0.022601273 0.10502785 0.0029407965 0.090823814 0.013008409 0.18750057 0.045268703 0.041131828 -0.074679404 0.08159569 0.062465396 0.16593407 0.027266376 0.05269491 0.21822427 -0.08274207 0.07143778 0.06412459 -0.14818871 0.100708164 -0.055747412 -0.014840305 -0.030895459 -0.070887156 0.12862423 0.057638124 -0.16449337 -0.11068342 0.10294721 -0.15134162 0.028885651 -0.114322975 -0.0012707846 0.03580992 -0.028517788 0.11746454 0.036869798 0.109074324 -0.011163877 0.032294184 -0.005593249 0.011782382 0.07305431 0.20213546 -0.07971505 0.049303327 0.15019214 -0.02279927 0.15527596 0.017211994 -0.15043494 0.13340922 
-0.072448045 0.11975181 0.12752539 -0.004871204 -0.08751121 -0.1196326 -0.10565351 0.17718048 0.02321343 0.023626795 -0.013519392 0.18486758 0.06275159 -0.17533657 -0.18303248 -0.20712358 0.112933606 -0.08804637 -0.11868798 0.017356653 -0.074388266 0.028549656 -0.112909615 -0.22745574 -0.051306147 -0.18240085 -0.17174634 -0.105427675 -0.050944764 0.10645936 -0.0004852598 -0.16073994 -0.08016086 0.1477118 -0.0036573785 0.12063099 -0.044893596 -0.071104735 -0.12971824 0.074353665 -0.024325438 0.02108572 -0.10017733 0.22305834 -0.0029899096 -0.15511505 -0.21379729 -0.26440212 0.037001662 -0.11208264 -0.08865558 0.025353773 -0.016003812 -0.016611481 -0.15478757 -0.24350172 -0.10972141 -0.2053758 -0.17594458 -0.098064005 -0.074355595 0.05345875 -0.12754153 -0.19757864 -0.017291678 -0.03612268 0.029908348 0.12908645 -0.0492399 -0.07736718 -0.047247868 0.0823483 -0.060482673 -0.027847236 -0.13058123 0.19201666 -0.08508653 -0.10094118 -0.16747083 -0.088370815 -0.0056762327 -0.13433068 -0.030688075 -0.07336432 -0.039138947 0.06888243 -0.15318593 -0.20480175 -0.15611245 -0.16634671 -0.17053957 -0.14199701 -0.10863991 0.0822996 0.047959726 -0.13544734 -0.040874463 0.03537379 0.020182231 0.057183612 -0.110944755 -0.12216986 -0.08636693 0.08483245 0.03320183 0.10370814 0.017383164 0.20378195 -0.012776771 -0.16132124 -0.18462843 -0.081274115 0.025547676 -0.16312769 -0.039837066 0.073149234 -0.092053115 0.005713662 -0.1703242 -0.09395902 -0.06685209 -0.20118485 -0.16053282 -0.024788704 -0.11632045 0.05518977 -0.05425083 -0.23467815 -0.083550975 0.009163069 0.0070622424 0.018609673 -0.07913147 -0.05482564 -0.16248944 0.15525308 -0.034089383 -0.013576574 -0.025224691 0.13685498 -0.121020876 -0.07847833 -0.20572492 -0.13532324 0.08289284 -0.06095565 -0.07765154 0.046154443 -0.08232206 -0.022079987 -0.14712393 -0.16562895 -0.14787297 -0.16882016 -0.20371374 -0.038447868 -0.096286945 0.055338994 -0.02791962 -0.19415708 -0.069537394 0.020442354 -0.019967247 -0.043886304 -0.085463144 -0.0700642 0.00028266883 0.16063212 -0.029084485 0.06833527 -0.10741595 0.114245124 -0.09599021 -0.043238077 -0.09215937 -0.07805956 0.04423289 -0.09100315 -0.0014854332 -0.0016829597 -0.08685115 0.040146086 -0.10843031 -0.15526208 -0.20273045 -0.10823552 -0.23522542 0.024074158 -0.03013444 0.03705722 -0.011269861 -0.17220539 -0.066875 0.018043606 0.005521068 0.006427452 -0.041091032 -0.033410378 -0.12690648 0.09691568 -0.0517078 0.014432942 -0.09541185 0.17355885 0.069325216 -0.0950591 -0.21107787 -0.0040650507 0.11399936 -0.005471002 -0.069647014 0.056520894 -0.06720927 -0.0013030092 -0.080619805 -0.17712732 -0.06468241 -0.17828894 -0.024567423 -0.011384982 -0.051543724 0.09075976 -0.062203065 -0.13901715 -0.049450807 0.07951911 -0.0826841 0.06549989 -0.08513324 -0.0019588897 -0.082142286 0.13036902 0.052173357 -0.02768166 -0.06293208 0.09646021 -0.062354017 -0.0383921 -0.20169513 -0.049509134 0.010643521 -0.1596395 -0.042079605 0.07192185 -0.13947494 -0.01747428 -0.108961016 -0.096830465 -0.06532186 -0.19807735 -0.116541184 -0.1289041 -0.14848307 0.068498194 0.029557092 -0.16542391 -0.052629527 0.03245327 -0.09831367 0.03990362 -0.025947638 0.030760946 -0.020367607 0.16266729 -0.06294022 -0.09806185 -0.10066673 0.13426128 -0.055199347 -0.035949253 -0.11861488 0.015328923 0.03980037 -0.13447641 -0.04072056 -0.011072505 -0.02915369 0.027084077 -0.07600527 -0.02837169 -0.13795926 -0.025648778 -0.14848028 0.071329005 -0.074823685 -0.0055428706 -0.04815712 -0.047099456 
0.052695822 0.019537041 0.03920911 0.09674572 -0.112271935 0.063041955 0.018420534 0.22050829 0.050936785 0.2611248 0.15969947 0.22598204 -0.012374746 -0.05519279 -0.05838145 0.045950934 0.08839102 -0.05959837 -0.12675 0.12680812 0.07253366 0.06185064 -0.22749133 -0.21139917 0.08968208 0.016411604 -0.011715793 -0.11471703 0.037972923 0.0075943274 -0.036441207 -0.09352926 0.005855452 0.09735224 0.06804609 0.059957407 -0.052766226 0.08103325 -0.108745955 0.20750952 0.10239052 0.19255012 0.12778307 0.25961939 0.037059948 -0.1707537 -0.13861553 -0.02937599 0.14750206 0.0048409533 -0.006152383 0.16460854 0.033220667 0.103847414 -0.24611212 -0.17975733 -0.008010578 -0.12746611 -0.12640512 -0.16347405 0.03947749 0.13646111 -0.06374729 -0.11497324 -0.072391875 0.090407945 -0.052320804 0.10776264 -0.044082202 -0.03420515 -0.06605922 0.14940235 0.09413399 0.11029807 -0.06580081 0.12819661 -0.007924146 -0.19399352 -0.1211261 -0.108971074 0.04798013 0.004190251 -0.10653155 0.016326748 -0.090025246 0.056065563 -0.20657888 -0.24674664 -0.044794526 -0.15823601 -0.09004011 -0.1728993 0.0628343 0.10974527 -0.07924843 -0.1974917 -0.014041107 0.036424417 0.080511905 0.07907147 -0.037051093 0.0070334678 -0.0007297759 0.22240031 0.05844887 0.13007231 0.17999405 0.12195097 -0.015585358 0.004880154 -0.074044235 -0.11817973 0.022170922 -0.05901346 -0.020680498 0.14896272 0.018252833 0.09250565 -0.14688046 -0.06117555 0.10876129 0.08326235 -0.054735295 -0.032523077 0.0412744 -0.015624556 -0.0046375734 -0.12953763 0.028186074 0.11054951 0.05245618 0.11128443 -0.11285367 0.09465744 0.0099583035 0.14340532 0.0046732677 0.09135283 0.13377182 0.17037855 0.009943369 -0.07781581 -0.12050885 -0.060615078 0.09727268 -0.06029455 -0.0446761 0.058307126 -0.08199796 0.071337655 -0.14734285 -0.07945065 0.057313647 0.012508336 0.0054376004 -0.11617175 0.01403897 0.06438949 -0.09737296 -0.18329515 -0.004363439 0.08405587 -0.07189803 -0.001107641 -0.092352115 -0.020169128 -0.086824074 0.2026584 0.120326646 0.022419134 -0.09434248 0.20425692 0.022370053 -0.06254097 -0.13553585 -0.130591 0.10135978 -0.06495406 -0.095195584 0.08820906 -0.05132249 0.028228352 -0.19400018 -0.13863467 -0.07392312 -0.11233441 -0.062225886 -0.022183904 -0.003233132 -0.019513227 -0.034138992 -0.046892412 -0.035196543 -0.060687725 0.052027248 -0.0058627673 -0.046117824 -0.030811472 -0.049061734 0.027306747 0.009011045 0.085681595 0.16903962 0.0687451 -0.0404422 0.078915164 -0.06620833 -0.07119916 0.0778179 -0.026456142 -0.04430528 0.029704163 -0.03578112 -0.0028450408 -0.10319963 -0.07761378 0.0033884246 0.020235537 -0.057305202 0.023904387 -0.06700346 -0.03272367 -0.057848983 -0.08223676 0.022708736 0.013662666 -0.048046127 0.058596216 -0.08236389 -0.026333662 -0.04728485 0.12426913 -0.0035029715 0.02090291 0.07430704 0.043277282 0.080629125 -0.05441391 -0.039018422 -0.05520978 0.02398466 0.048335213 -0.044285703 0.019846162 0.031044478 0.029454187 -0.05095608 -0.100889064 -0.06665583 -0.088520266 -0.015263484 -0.029445335 -0.043593243 -0.087944955 -0.020414332 -0.08639147 0.01677945 0.026071751 -0.09861059 -0.008344502 0.020315645 0.047410388 -0.003207334 0.111613154 -0.055816643 -0.06795491 -0.07954592 -0.028179834 -0.073203415 0.09021789 -0.018457208 -0.06210591 -0.01373921 0.06585483 -0.03860155 -0.0073139365 -0.05335259 -0.030134704 -0.12876351 -0.03192919 -0.021121968 0.05526648 0.04271905 0.022296272 -0.052353285 -0.04851761 -0.1146645 -0.063072525 
0.057456724 0.07827755 -0.030010186 0.008719757 0.2697625 0.014989544 0.040140726 -0.014145321 0.10808911 -0.008426261 -0.024868635 -0.09500635 0.06257861 0.012997381 -0.033445064 0.035437346 0.017302085 0.08077766 0.14034835 -0.1475644 0.026543904 -0.011646196 0.28778225 0.1064398 0.009619433 0.019694394 0.10451965 0.044790618 0.03320322 0.0036791812 -0.03317529 0.13608497 -0.013436771 -0.010933682 -0.07098259 -0.010069026 0.34570354 0.027979817 0.06146969 -0.077951714 0.105307564 0.0006444179 -0.036745887 -0.22436833 0.114738874 0.106117554 0.1549301 0.09787223 -0.0019352399 0.18671104 0.118555844 -0.14033686 0.15123518 -0.067300096 0.308451 0.18196748 0.14979595 -0.017097121 0.253595 0.06782655 0.10278538 0.0494319 -0.033352472 0.2043753 -0.02012245 -0.05912127 -0.019449593 0.08873777 0.23794678 0.036487322 0.0060846787 -0.01722264 0.136064 0.08464885 0.00066070224 -0.15313323 -0.0037144946 0.011641135 0.06482685 0.07167897 0.01618025 0.1440516 -0.01833284 -0.12308873 0.09492618 -0.05855968 0.24013975 0.17672904 0.08652499 -0.020846125 0.0073507074 0.06222438 -0.008633392 0.01867913 -0.070723906 0.13409297 -0.033248443 0.08209537 -0.058240198 0.0895576 0.26331052 -0.05118853 0.001676865 -0.11763551 0.110597335 0.003003166 0.0729506 -0.19040252 0.09179132 -0.004568488 0.101983994 0.081521936 0.028991658 0.040959638 -0.019723637 -0.083102874 -0.030033026 0.042054944 0.21296427 0.13643052 0.070209615 0.055499204 0.14995708 -0.055416655 0.09115852 -0.018211981 -0.07873845 0.17090917 0.015631162 -0.019520268 0.0009220835 0.02350331 0.23089005 -0.012123462 0.08169353 -0.09552385 0.09564391 0.04240368 0.06724228 -0.23185267 0.10736853 0.037385546 0.055798385 0.023845127 0.121781975 0.19110191 0.018120334 -0.13292043 0.049013346 0.05068639 0.23501207 0.21601084 0.041769747 -0.045307137 0.1828332 -0.041609917 -0.003040486 -0.053781882 0.006397149 0.19695269 -0.05454198 0.0167977 -0.029296732 0.10196638 0.1688912 0.031162059 -0.005074634 -0.1473987 0.14589739 0.122953676 -0.0031976502 -0.21702965 0.029227803 0.05246586 0.008752251 0.10286476 -0.03438884 0.11016477 0.12865674 -0.052640315 0.12356236 0.03379753 0.27649194 0.052991237 0.048232388 0.045601092 0.0660248 -0.010304412 0.017863853 0.00041622136 0.021880526 0.08362167 -0.053245407 0.042736504 0.01368513 0.023148682 0.063062444 -0.042476494 0.09390652 -0.044667955 0.12499651 -0.047980372 0.035770822 -0.17621851 -0.04654021 0.031976193 0.056792125 0.046802387 -0.03143875 0.13356178 0.09613957 -0.04939289 0.04875081 -0.030836588 0.23455484 0.049167354 0.081814654 0.05900624 -0.0027126758 -0.024823638 0.009839287 -0.010697861 -0.050773896 0.1298037 0.017710676 0.022508852 -0.0076220175 0.05405503 0.17605115 -0.04946211 0.09632068 -0.14550371 0.12726036 -0.013489985 -0.021892337 -0.18754947 -0.03224472 -0.06211081 0.12913747 0.022906678 0.07229976 0.10795103 -0.03297036 -0.12465877 0.0638546 -0.06965903 0.18483496 0.09495363 0.015866708 0.030989578 0.06650815 0.045549296 0.10568909 -0.027753398 -0.014096362 0.21088256 -0.009345669 0.01572358 -0.021810442 0.009317774 0.15629329 -0.071419455 0.12201316 -0.056296613 0.12819946 0.028104289 -0.007249617 -0.1980561 0.0727222 -0.08560844 0.07378816 -0.029842693 0.10110557 0.106222965 0.0495918 -0.02111639 0.0948466 0.02843263 0.29823124 0.16610172 -0.04416734 -0.036524598 0.031683397 0.009098508 0.0006925714 -0.06301345 -0.0387091 0.100417085 
0.10573611 0.10966657 -0.12044286 -0.19890358 0.015697591 -0.06671092 -0.01092731 0.036546376 -0.08579949 -0.0010620276 -0.060364846 0.0392917 0.08160938 -0.11792605 0.022195803 0.1257019 0.12510441 0.04082781 0.15651178 0.16284662 -0.023245908 -0.0035729767 -0.05760679 -0.061427575 0.09046274 -0.1448157 0.082988545 0.107899524 -0.048705403 -0.11114711 -0.13743316 -0.022920677 0.09388899 -0.015012612 -0.007054183 0.005658607 0.035126593 -0.09083791 0.35837644 0.11661027 0.031794704 -0.024324799 -0.0653174 0.14097488 -0.13257214 0.15897264 0.21068317 0.18521018 0.014720779 -0.11093652 0.10348343 0.08533986 0.22380665 -0.012680553 -0.13003294 -0.037005406 0.04690733 -0.0654156 0.06720332 0.12456596 -0.05401797 0.016731476 0.1870555 -0.13832429 0.011577301 0.006380926 0.06187977 -0.06774741 0.050654925 0.024586748 0.10498322 0.03983917 0.0035447879 0.07943966 0.15442407 0.006048932 0.05417014 0.056846667 0.09556384 0.12809435 -0.036983803 -0.052406132 0.07119288 0.19922668 0.0903509 -0.04293036 -0.025071 0.07061215 0.21250746 0.08210334 0.17779943 0.17391255 0.03261828 -0.07783753 0.11321883 -0.021987818 0.123450056 0.1479185 -0.13541251 -0.028903658 0.07003891 0.024622994 0.14846767 0.13009234 0.055081155 -0.07646588 0.008207196 0.09974012 -0.0021558907 0.12935345 0.11137327 0.19800016 0.0662883 -0.03685818 -0.011689438 0.254579 -0.053281702 0.0158484 -0.09423672 -0.015152683 0.028301496 0.008797738 0.23171154 0.07125425 0.1128075 0.13924925 -0.016980065 -0.04645526 0.03728345 -0.010546678 0.028868906 0.07079763 0.027795492 0.009713473 0.14604154 0.030862626 0.029677605 0.08613152 0.051224288 0.13389145 0.039575193 0.100160986 0.23702231 0.22534145 0.062690005 0.013799656 0.09876954 0.04506522 0.1232374 -0.04573106 -0.07529217 -0.07476851 0.0033449382 -0.014809952 0.060363457 0.18392412 0.0052427156 0.119034186 0.09201737 -0.051428337 0.1501883 0.071998484 0.12925741 0.059437126 0.042041082 0.0081931725 0.11267168 0.113549925 -0.056203008 0.170116 0.14458856 0.048937663 0.1298457 0.034188285 0.13199769 0.009961084 -0.002018247 0.05047505 0.059164543 0.21460313 0.13397743 0.029241689 -0.16373585 -0.011564399 0.3002783 0.08014785 0.0494672 0.10391488 0.06539916 -0.003246219 0.038016465 0.0067009847 -0.10854195 0.0035069662 -0.17840907 -0.062237825 0.0072188308 0.09117347 -0.023735283 -0.013919636 0.04052923 -0.19323105 -0.014905339 -0.020478843 -0.124489024 0.061075367 0.080117516 0.18307397 -0.0090111215 0.15571599 -0.075290196 0.21480563 -0.020550596 -0.090603985 -0.067546554 0.008631986 -0.027287897 0.101756796 0.073346704 -0.01385063 0.12517746 0.08147715 -0.15745117 -0.08753287 0.06724927 0.017742652 -0.03210552 -0.0952637 -0.052137416 0.12208099 -0.07366006 0.05683792 0.031269886 -0.051076427 0.13282004 0.08008534 -0.09445489 0.12211688 0.11696211 0.124453254 -0.007887956 0.053598307 0.059683274 0.14648761 0.056180213 0.035673514 -0.06858955 0.096401244 0.024800139 -0.0032332155 0.11660927 0.041401114 0.13172232 0.011194239 -0.07565943 -0.09245445 0.07374162 0.032521006 -0.10170595 0.016785363 -0.02574075 0.07197633 -0.025944717 0.0795565 0.016693527 0.029302437 0.07143196 0.08601309 -0.024034392 0.14281227 0.089911275 0.23535018 -0.013373478 0.017778406 -0.0871287 0.13175684 0.01673787 -0.12080931 -0.15550719 0.11183548 0.02693361 0.11109379 0.08380862 0.04057712 -0.0068256976 0.034627974 -0.15716964 -0.039350294 
-0.017461246 0.020228675 -0.05547757 -0.03019938 0.04909247 0.007372776 0.051427953 -0.058835078 0.02572538 0.032136146 0.02064825 -0.0037864735 0.055891592 -0.06537538 -0.01107752 -0.06617175 -0.057779536 0.05193136 0.08586754 -0.077605456 0.036858346 -0.08816809 0.190936 0.1557202 -0.016951 0.04687796 0.06302798 0.09238027 0.053563934 0.009509308 -0.06705006 0.20008095 -0.052182373 0.041536152 0.016656792 -0.032561295 0.12779598 0.012177298 0.1181849 -0.16474149 0.018877825 0.039071724 0.09698524 -0.067024656 0.112643614 0.13873684 0.025712535 -0.0492031 -0.084880516 -0.05578491 -0.009942627 -0.032078415 0.14595525 0.026958141 0.18957399 0.24074973 0.11419896 0.08159228 0.1695861 0.14720422 0.022135058 -0.10119009 -0.023920422 0.19943708 0.005352449 -0.0875285 0.020176843 -0.027898503 0.06592327 0.08253491 0.0152375605 -0.06683604 -0.029475141 0.04862769 -0.058599565 -0.1226692 -0.022330476 0.12043478 0.048797194 0.05337567 -0.071392484 0.011665566 0.0219563 -0.1187568 0.08785561 -0.00062386564 0.21676601 0.12566365 0.118286364 0.10355659 0.098109186 -0.005575257 -0.053173646 0.012042014 0.004178138 0.077415936 0.06843215 0.016455546 0.058494173 -0.04851163 0.059813004 -0.082914546 0.04917645 -0.10431096 0.006670478 -0.12252912 0.079480685 -0.14735933 -0.02061857 0.10063629 -0.024297183 -0.047853578 -0.021700354 -0.061510753 0.0777165 0.039057873 -0.026028935 0.053563833 0.31576082 0.11501891 -0.036612216 -0.038454715 0.16323751 -0.0050024046 -0.04701364 0.022306 0.067054495 0.24982923 0.16399837 -0.09955345 -0.024321131 -0.08032276 0.2336671 -0.0211359 0.07175922 -0.19946057 0.0073359064 -0.11992169 0.05007529 -0.13090669 0.10654908 0.12706295 0.04234031 0.015573021 -0.028594818 0.0205958 0.1562467 -0.041852362 0.017892996 0.053435624 0.31918168 0.27875677 0.1576501 0.038082834 0.25028244 0.2424156 0.047172092 -0.081430316 0.12823667 0.33915746 0.11010225 -0.023267558 -0.0031265956 0.008144115 0.17757778 -0.061257776 0.025439743 -0.20626989 0.012620846 0.026904926 0.07531443 -0.0713617 -0.06256182 0.10067936 0.09106901 0.12842983 -0.068638794 0.06367882 0.11839333 -0.05888388 0.02516874 0.01746003 0.25885582 0.15734304 0.0685969 0.076874346 0.08998053 0.07490552 -0.017946947 0.01640552 0.09395544 0.20219782 -0.024903541 -0.002539267 0.044112273 -0.0813617 0.057865456 -0.029823726 0.053163365 -0.17185344 -0.08626082 0.034978453 0.04037933 0.026397116 -0.10915757 -0.00868407 -0.004108716 -0.0626024 -0.084541745 -0.013650391 0.040191296 0.02344196 0.055965867 0.008635614 0.20379284 0.16218735 0.0051920027 -0.06260373 0.054566592 0.014436983 0.0007555383 -0.029227683 0.06781724 0.152944 0.051730767 -0.08692062 -0.05448634 -0.08421212 0.15774675 -0.041488778 0.08372034 -0.061686676 0.021530056 -0.05000128 -0.018138485 -0.15115932 0.06519656 0.09610083 0.11307252 0.019554693 -0.0013474022 -0.0036158767 0.17028587 -0.045286495 0.0077332025 0.036194347 0.29594314 0.29343593 0.05277806 0.08816721 0.16277693 0.1141871 -0.02324625 -0.051779743 0.025508054 0.17258881 0.066751525 -0.026940364 0.03385137 -0.05952095 0.13654578 0.036588207 0.054523982 -0.15884252 -0.07689866 -0.07332503 0.05648791 0.026249185 -0.049141694 -0.004952727 0.020006737 -0.022547748 0.011787449 0.06647566 0.11430544 -0.070921004 0.024879223 0.07991856 0.28169784 0.082853 -0.016093288 -4.146699e-06 0.05555887 0.029283207 -0.043828003 0.058652867 0.058265634 0.21788421 
0.03969428 0.06312111 -0.16405632 -0.048967764 0.026298104 0.04404209 0.06135161 -0.083335154 0.017576769 0.13902858 0.049919076 -0.07102532 0.059958432 0.10460732 0.20008722 0.27409652 0.07587894 0.027817415 0.055060852 0.19540715 -0.039179254 0.054773197 0.12274785 0.036608458 0.09290777 0.063065134 0.135821 0.057560373 0.0043816264 0.09272339 0.13223042 0.011460604 0.04228139 0.10035093 0.05294636 0.014539598 2.1275424e-05 0.08616209 0.09901878 0.029635085 -0.0063256007 0.014827827 0.09375248 0.069059834 0.11235787 0.016223429 0.033416603 0.05565549 0.027264938 0.088688396 -0.0030593234 0.1908243 0.023827674 -0.06951823 0.061834563 0.11837473 0.1533459 0.04068778 0.05735786 0.11008128 0.11791915 0.00078225625 -0.020992216 -0.04158884 0.020994684 0.08764152 -0.05800552 -0.02898409 0.06186187 -0.02537842 0.17346501 -0.02781222 0.09260548 0.01230722 0.12720375 0.005531671 -0.06832438 -0.116304286 0.06505461 0.054271303 0.0033216788 0.07588662 0.043810908 0.044554457 0.0865176 -0.07820508 0.08340156 -0.017453328 0.04919015 0.026683789 0.12060152 0.057138566 -0.026069583 -0.05219301 0.04635612 0.024602817 0.13048673 0.03155561 -0.11149025 0.0034003218 0.0069076363 0.13684916 0.09581588 -0.057159588 -0.050620817 0.11358983 0.20505324 -0.051765062 0.122773565 0.14684884 0.08228573 0.19232455 0.05360784 0.1199035 0.096061036 0.3061832 -0.106972 0.06769876 0.120796755 0.05026234 0.10885252 0.02654921 0.07712344 0.06025474 0.09100763 0.08965261 0.046348415 0.12698302 0.17493433 0.05307932 0.12100091 -0.017667484 0.13890597 0.04489377 0.16671334 -0.030495346 0.05564572 0.22805262 0.29538876 0.026787227 0.29614717 0.011962237 0.19438437 0.2742454 0.027229799 0.16649365 0.08927615 0.27500936 0.050452325 0.041857965 0.040795155 0.015076529 0.2094214 0.02783534 0.1853245 0.11915635 0.06448616 0.074775286 0.028213844 0.120345205 0.13490956 0.01924892 0.09488378 0.06933899 0.093268394 -0.099943 0.22887428 0.083771914 0.1255919 0.040932942 0.08597331 -0.034442157 0.08429982 0.023559297 0.21949302 0.11677208 0.13530271 0.009893407 0.044827696 0.17148842 0.1380623 -0.05835191 0.09223642 0.057154655 0.24832878 -0.06293477 0.14093274 0.22463332 0.020226024 0.10873196 0.1019025 -0.0071728704 0.07763303 0.013862811 -0.10281615 0.04231169 -0.016262898 0.09131578 -0.031472273 0.030426787 -0.034974065 -0.13373247 0.11573512 -0.010298955 -0.26799956 0.063100465 0.22384706 0.04919641 -0.021686047 0.022192396 -0.17328079 0.19459417 0.057639956 -0.064386696 -0.02116402 0.07230894 -0.1372611 0.18787263 -0.024674306 -0.069416516 0.051277626 0.013476118 -0.059212267 -0.05895111 0.04093209 0.09520687 -0.19419032 -0.13990492 -0.11357257 0.18260817 -0.31899014 0.11170625 -0.017226722 -0.039584793 0.15722963 0.07773539 -0.094424315 0.015158427 -0.05029381 0.12196159 -0.07996121 0.11447515 0.03177971 0.33747208 -0.2671914 0.13292629 -0.02286239 0.102455534 -0.1745378 0.13586232 0.09272257 -0.0640778 0.20013033 0.16533406 -0.2266748 -0.044125345 0.10012074 0.14837939 -0.11781451 0.034964927 -0.014605649 0.122376755 -0.15154573 -0.0024504105 0.06654997 0.024693508 0.074217826 -0.0544023 0.0019984455 -0.015192902 0.0817158 0.26884523 0.03577623 0.071663976 -0.049421236 0.17858373 -0.2311105 0.089869 -0.002838979 0.12073198 0.03020883 0.056624547 0.03422635 -0.027428208 0.05681919 0.21157917 -0.09615192 0.06168936 
0.03382128 0.0803618 0.1118252 -0.04855288 -0.22439614 -0.052774847 0.011396556 -0.03743952 -0.15060289 0.09163435 0.13880716 0.12631832 0.20154761 0.09876047 -0.024213918 0.10899707 -0.05546436 -0.04025326 -0.009725259 0.2865083 -0.05288328 0.054126233 -0.08280027 0.03513609 0.21072768 -0.011201157 0.015962431 0.018011997 -0.011823483 0.034530606 -0.09346209 0.044736184 0.084669605 0.029805172 0.21834828 -0.05526828 -0.15628432 -0.06438261 0.13322976 -0.05756435 -0.16116671 0.044635493 -0.00909772 0.1948348 0.086336456 0.086718135 0.042453207 0.020730535 -0.05697139 -0.13449085 0.09395741 0.14386372 0.051553253 -0.05353603 0.038771026 0.033639878 0.259354 -0.021005077 0.06914915 0.18887825 -0.15167809 0.03808339 0.13319777 -0.028165355 0.06590744 0.16071808 -0.054245044 -0.057599723 -0.007803265 0.014508547 0.04880079 0.063640185 -0.112883925 -0.023092862 0.1875478 0.23267056 0.14317682 0.085749924 0.06941314 0.15954228 0.03206704 -0.05324411 0.063917086 0.29886067 0.08871907 -0.08211805 0.08029832 0.12404298 0.009100858 0.070702955 0.19093408 0.06970454 -0.12946798 0.0074902293 0.10209757 0.04507856 0.09761978 0.021641025 -0.07225959 -0.08588393 -0.19126965 0.0645075 -0.13378829 -0.06293083 -0.31459638 0.04488208 0.16423175 0.2190306 -0.013790824 0.0913236 -0.04854245 0.10517751 -0.15015587 -0.1306933 0.081950136 0.399193 -0.13667963 0.0026234472 -0.06879795 0.07193334 0.054602124 -0.023104407 0.14264035 -0.04034329 0.04109294 -0.004934127 -0.025761535 -0.02666698 0.13529265 0.07850867 -0.10071527 -0.10291597 -0.2802069 -0.047496725 0.14710361 -0.088480465 -0.15938586 -0.03193324 0.16587326 0.12029513 0.11979928 0.20934917 0.044593047 0.11976168 -0.05282059 -0.12561612 0.047013786 0.41117787 0.0909693 0.1191572 -0.06474945 0.13410474 -0.13647938 0.061027233 -0.016793132 0.15325232 -0.10700764 0.078694776 0.06988604 -0.09684722 0.09582337 0.055025574 0.078018345 -0.037339162 -0.17206973 -0.10458487 0.054913312 0.01240798 -0.22330175 0.0697037 0.04355086 0.26196533 0.10758114 0.18958932 0.12290945 0.2004713 -0.017420793 -0.1605059 -0.010991431 0.37637192 0.03767848 0.08984427 -0.04795464 0.094687745 0.13280563 -0.04264907 0.020809991 0.20563254 -0.002550134 0.031857062 0.07747627 -0.098856136 -0.11183722 -0.043968692 -0.16781595 -0.049640484 -0.15574534 0.03544616 -0.16308174 -0.0045765867 -0.28206462 0.027719451 0.02664153 0.17485745 -0.105696365 0.029949527 -0.08444942 -0.01026514 -0.1316615 -0.0118988985 -0.11178453 0.24333246 -0.17884056 -0.037429914 -0.08581839 -0.031233497 -0.17898996 0.12082553 -0.02462284 -0.020879481 0.064375974 0.08644257 -0.18357092 -0.104499735 -0.008529699 -0.012584576 -0.04521614 0.06013669 -0.18239105 0.06709798 -0.029484335 0.035420362 -0.1617329 -0.0995908 0.100791045 0.19850323 -0.12017576 -0.05952785 0.0034046273 0.13533022 -0.19201122 0.012391907 -0.032376938 0.34773892 -0.13090342 0.05409081 -0.12227714 0.011814196 -0.24427822 0.09976989 -0.01850358 0.059184574 0.075201124 0.09229844 -0.048960134 -0.11760534 0.014285153 0.01798395 -0.110387735 -0.024971744 -0.17741668 0.007818285 -0.18848436 0.022679394 -0.27682734 0.094205976 0.06732043 0.09855706 -0.04727784 -0.012886882 -0.020026356 0.18327563 -0.035222843 -0.07765217 -0.035136458 0.30431393 -0.04876745 0.05832806 0.016463567 -0.023420574 0.013876032 0.091067575 -0.059162967 0.050641518 0.08026264 0.13644388 -0.082704306 -0.05710045 
-0.05321479 0.011117429 -0.061837893 0.037548315 0.21887816 0.13393676 0.013151269 0.08651321 0.25945434 -0.010426473 -0.07833921 -0.23598655 -0.0044869464 0.05242174 -0.011751688 0.105873495 0.08618849 0.2018713 0.06864556 -0.06964679 0.06003347 0.07106712 0.06854489 0.034396067 -0.0013854834 0.013280165 0.058084503 -0.071131304 0.048002847 0.00023844984 0.02051726 0.049717225 -0.064968355 0.033495896 0.011141699 0.018953776 0.39157486 0.095605314 0.09866866 0.10359929 0.20949753 -0.023795886 0.004387066 -0.14472547 -0.016940417 -0.05723894 0.0029569706 0.041346513 0.13479717 0.30201218 -0.001605844 -0.11231433 0.08817799 -0.005716201 0.1361759 -0.0026996075 0.11221898 -0.045593694 0.05250192 -0.04328349 0.1399626 0.04843723 0.0132623995 0.12898894 -0.054884817 0.107820876 0.03417063 0.003958689 0.23295277 0.05769408 -0.008986513 -0.0059902277 0.17092684 0.07260105 0.032793462 -0.07704469 -0.056632604 0.030551627 0.023883093 0.0017172452 0.15409026 0.17714886 -0.055807542 -0.10167604 0.051803276 0.03007208 0.07790038 0.006141526 0.007944787 -0.086072214 0.08282435 -0.014753345 0.119237386 0.097241506 -0.07901627 0.16781238 -0.021469362 -0.014190585 0.0010539943 0.098879896 0.25925785 0.08557289 -0.019351156 0.015134095 0.30208552 -0.011459525 -0.017884202 -0.18404901 0.045008715 -0.05665437 0.06833437 0.11069446 0.11478399 0.25267026 -0.10416101 -0.17055562 0.10070242 0.0414431 0.0849225 -0.03209044 0.00099892 0.07526431 0.0029864325 -0.11786704 0.045328125 0.019002423 0.0343382 0.10649518 -0.14760722 0.019929498 -0.06032007 -0.004296804 0.34987232 0.11833549 0.111767024 0.055299528 0.34104624 -0.025536923 0.04663391 -0.12384542 -0.028531183 0.0673088 0.107805 0.047811896 0.1708353 0.24842635 0.026416557 -0.2216179 0.07194165 0.059785753 0.006244377 0.08398027 -0.04625086 0.023409298 0.08438583 -0.1403031 0.10430777 0.0075388765 -0.0007793833 0.03814335 -0.081894256 0.029507086 0.011516647 -0.029160572 0.24543233 0.12731422 0.06460093 0.073532626 0.2860481 -0.07141516 0.032703895 -0.10045564 0.047581553 0.057320107 0.10218695 -0.052407857 0.18135451 0.22184388 -0.08428455 -0.04748572 0.0393472 0.040958166 0.124047466 0.06562595 0.0103416005 0.016305389 0.0020086942 -0.049918044 0.18109792 -0.003992774 -0.062770195 0.12445001 -0.071827345 -0.056352727 -0.04952862 0.013964028 0.1128645 0.08845066 0.09438824 -0.101333976 0.10659969 -0.02055354 0.13751888 -0.17250863 0.0050736465 0.024794625 0.10141322 0.05068845 0.076308265 0.06451941 -0.03689741 -0.04339402 -0.07974003 -0.015329512 -0.013727994 0.055821553 -0.009576513 0.03839511 0.08727049 -0.031141872 0.057911314 -0.022194205 0.01856716 0.088716075 -0.07040518 0.051211704 0.028737875 -0.04126758 0.13065803 0.06188505 0.0059141093 0.02519542 0.27012128 -0.037834078 0.087892845 -0.13744928 0.022777235 0.04884535 0.026630266 -0.02018422 0.07270603 0.0903251 -0.07280953 -0.04449301 -0.03132295 -0.048602987 0.073001385 0.123257294 0.02347173 0.006757482 0.115091674 0.029643217 0.050248504 0.002421232 -0.04522609 0.13477206 0.009565011 0.06884461 0.041972242 -0.0862965 0.020840386 0.014212629 -0.020449042 0.02902985 0.0578681 0.0052967495 0.16982886 -0.21016984 -0.024554066 -0.053292386 -0.024408253 -0.07480348 0.12283053 0.07941354 0.018801728 -0.040396784 -0.07270838 0.07121336 0.052289803 -0.009735401 0.0777015 0.03473575 0.053061068 -0.10077136 -0.0024374097 -0.09842784 0.08822228 0.041327026 
-0.064042255 0.06583343 0.13642205 0.07597082 -0.03557196 0.03965416 0.027904676 0.2290596 0.05794899 0.091768876 0.021877533 0.066667706 -0.040039483 -0.073145114 0.0136869615 -0.062392544 0.0762059 -0.012361556 -0.058550946 0.03310683 0.074882835 -0.025498964 -0.20958784 -0.18942855 0.026936667 -0.030652944 -0.13786209 -0.070550025 0.071446635 0.024083383 0.04639124 -0.042348407 -0.02351049 0.031383857 0.042248785 0.111938104 0.025645008 -0.013683248 -0.015333712 0.20725015 0.14649905 0.022943929 0.008526976 0.1627188 -0.014964356 0.019306477 0.05627039 0.020359464 0.050339825 0.105122544 -0.010417013 -0.049179856 0.114333555 0.11201202 -0.23692508 -0.21548942 -0.016335221 -0.10367719 -0.062244833 -0.09406896 0.064410985 0.022963295 0.10444803 -0.08008962 -0.07025819 -0.05244967 0.019008426 -0.00756755 -0.0446298 -0.034131214 -0.005271235 0.10941834 0.012610156 0.053518225 -0.004159726 0.06713362 -0.05850126 0.021002652 -0.020418296 0.07035619 0.037789185 0.08664593 -0.09437303 0.02594753 -0.023170043 -0.0032742838 -0.09257631 -0.06671055 0.0778256 -0.091373906 -0.102595754 -0.044038538 0.035139307 0.06072529 0.03355463 -0.16832453 0.0033458509 0.017376496 0.1073038 0.12962934 -0.052339938 0.010340864 -0.08031407 0.24888726 0.16787593 -0.021817282 -0.013678559 0.09034404 0.07533998 -0.00042316935 0.012624341 -0.08546903 -0.017766422 0.030845655 -0.017922241 -0.026649699 0.02691731 0.016573124 -0.2107501 -0.20237502 0.011542218 -0.113040335 -0.12779967 -0.15388289 0.12152757 0.009629523 0.037669655 -0.021484911 -0.088417 0.027500378 0.13008079 0.1359014 -0.01578767 0.12522161 0.024276154 0.11362376 0.13586047 0.027116522 -0.07757757 0.16965075 -0.0070384354 -0.0004026224 0.015150807 -0.08098522 0.027922444 0.05012791 -0.1464672 -0.073497124 0.06768449 -0.05912951 -0.0817831 -0.1315989 -0.070409566 -0.057414975 -0.0826994 -0.06307713 0.07679825 0.11635637 -0.05231892 -0.022501014 -0.010233911 -0.03663206 0.101982325 -0.014203508 0.073876455 0.026037296 -0.03979923 0.07266049 0.017503178 0.059366785 -0.07160624 0.096433066 -0.048437968 0.050957195 -0.014908611 -0.035209205 -0.022456853 0.05419252 -0.07346608 -0.13956995 0.10306793 0.062723264 -0.16581656 -0.008703424 0.043981668 -0.07938351 0.02836212 -0.04297013 0.01261899 0.038612008 -0.012044795 -0.0023586196 0.016131891 -0.02953398 0.0829679 -0.054978173 0.08758692 -0.024518698 -0.051073555 0.120091476 0.101698786 -0.061979026 -0.0063011516 0.05810504 -0.047407344 0.03109331 0.02869962 -0.055841967 0.07525073 0.0364754 -0.0041996227 -0.09955962 -0.058731087 0.044736486 -0.10671586 -0.10352275 -0.046222627 -0.0070264186 0.0012205519 -0.0765685 0.09159014 -0.028538967 0.010529197 -0.04480796 -0.03238767 -0.07242142 -0.055191875 0.026131548 0.10401007 0.078021415 0.05029808 0.15041304 0.123111434 0.008221777 -0.08995343 0.107112214 0.08040532 0.005688585 0.058931906 -0.073360115 0.03045102 0.04729152 -0.10249956 -0.084718 0.11332387 -0.0660846 -0.12454769 -0.023451984 -0.058975495 -0.06997026 -0.06960229 0.011805644 0.05692994 0.025602594 -0.079928055 -0.052219313 -0.04523919 0.0033534635 0.018351473 0.018740254 0.011154013 -0.019686285 0.02747705 0.114540786 0.074261114 -0.13068983 0.068211265 -0.06617682 -0.025370656 -0.017849652 0.020254148 0.0020706716 0.022603938 0.058865488 -0.093235716 -0.10228649 0.02018703 0.054655034 -0.083690844 -0.08054993 -0.05211265 -0.052340616 -0.050135776 -0.0002350504 -0.022720506 -0.084959745 0.020659026 0.057101265 
0.09171419 -0.022835266 0.034230776 0.08484531 -0.26441732 0.032017756 0.0024581284 0.057703007 -0.14276023 0.13699284 0.24130525 0.28666204 0.059406906 -0.015710665 -0.05120258 0.0032026304 0.05837975 -0.1450519 -0.057670653 0.3093016 0.02722102 0.028965008 -0.13348392 -0.03962455 0.15279861 0.007830314 -0.07316944 -0.004608673 0.0068169106 0.041578587 0.1672112 -0.10217415 -0.01971433 0.053529814 0.11718486 0.087164216 -0.25001368 -0.012732371 0.17852221 0.24526016 -0.14246735 0.21499498 0.1499028 0.30819002 0.061831348 -0.08939179 0.07831892 -0.08121954 0.0104914475 -0.082998805 -0.01640795 0.24982682 0.06381463 0.099130325 -0.14465691 -0.20202751 0.06874802 0.09101594 -0.04496211 0.023860242 -0.058381937 0.086966015 0.21860248 -0.20862342 -0.06185925 0.10834163 0.19345272 0.04881011 -0.19159907 -0.0003491234 0.20438929 0.07613035 -0.121549696 0.17356074 0.13061164 0.3244451 -0.056797694 -0.011037482 0.034053233 0.023837402 -0.014399043 -0.06390404 -0.026759773 0.2153339 0.09751083 0.0083582755 -0.20397057 -0.15780331 0.030750629 0.10282893 -0.085973255 0.065602675 0.040836945 0.10055543 0.2123728 -0.2246878 0.12079476 0.121083885 0.077462345 0.008039662 -0.22772206 -0.04311027 0.064060465 0.14456674 -0.1859781 0.16080944 0.101043254 0.30869156 0.05056554 -0.0440244 -0.013839277 -0.04536675 0.005342171 -0.048686348 -0.074288666 0.21836838 -0.07860576 0.09898594 -0.12476501 -0.092230156 0.14442907 0.09264867 -0.015135256 0.090263374 0.07788532 0.07658443 0.012497754 -0.22620645 0.013776152 0.031442884 0.0964471 0.11033734 -0.2940908 -0.09272266 -0.028757837 0.20721357 -0.14034626 0.09714695 0.14173566 0.36944175 0.07012623 -0.015610462 -0.05419554 0.012873102 -0.04809227 -0.19168241 -0.011168317 0.26177832 0.06722237 0.09388419 -0.10427468 -0.2336491 -0.02546895 -0.08314508 -0.18762557 0.07831184 -0.06480256 0.10630998 0.14695096 -0.24878618 -0.067070805 0.020331424 0.06987202 0.12787732 -0.21506487 -0.05849209 0.05753384 0.13793068 -0.010533671 0.15925008 0.10640355 0.23303142 0.025766417 0.009821415 0.07672811 0.012220575 -0.021120876 -0.052778654 -0.047285456 0.16324578 0.12713234 0.07235618 -0.20508175 -0.21430713 -0.034876995 -0.0098599475 -0.050705876 -0.006571138 -0.008962887 0.10682315 0.18983336 -0.23089668 -0.039091505 0.1051102 0.008283 -0.019500209 -0.18732491 0.086244255 0.0096084485 0.08770142 -0.14870058 0.10558191 0.1347956 0.22488186 0.045124028 -0.028412616 -0.069626614 -0.047627576 -0.025928648 0.00848256 -0.039178833 0.17268626 0.046892278 0.07528766 -0.13945436 -0.036435265 0.05970223 -0.035571642 0.043201115 -0.0032819393 -0.07827644 -0.01773093 -0.10398453 -0.028582582 0.008866751 0.0077153044 -0.03386508 0.06159613 -0.119230434 -0.08571821 -0.013182918 0.13912606 -0.16593654 0.017614974 0.04381806 0.19231266 -0.019315207 -0.015823565 0.04556717 0.009197648 0.009707661 -0.040314905 0.019174127 0.2090181 -0.05058385 0.01676256 -0.14270478 -0.091451496 -0.012756111 -0.0831647 -0.059539996 0.0289716 0.0062055 0.056528203 -0.0010001401 -0.07328565 -0.032914866 -0.011656698 -0.107362404 0.07613932 -0.053010844 -0.0011450284 0.043382213 0.057787027 -0.10428453 -0.0025251706 -0.02338566 0.1683238 -0.012190671 0.06997589 -0.07498498 0.04813373 -0.076212324 -0.06470984 0.04828243 0.09068034 0.092277355 -0.031023402 -0.06586449 -0.1564826 -0.041110873 -0.085998625 -0.11518754 0.11773881 -0.11500588 0.005735173 0.061355557 -0.13964106 
0.009835023 -0.012205276 -0.015307833 0.05450933 0.07966226 -0.08514486 0.018542016 -0.11641992 -0.06274519 0.03845141 0.05374058 -0.13037191 0.07741608 0.058608167 0.020501986 0.05178707 -0.07912512 0.021391474 0.1639977 -0.00049756933 0.037084185 0.058591254 0.1895011 0.07665881 0.042538688 0.005300657 0.07854292 0.10853545 0.05499706 -0.08155873 -0.024390312 0.21695763 0.10608406 -0.07453315 0.0897366 -0.014225551 0.12477903 0.024203392 0.13249429 -0.18976879 -0.09585816 0.049468078 0.071333624 -0.08309483 0.04760377 0.17923346 0.100856915 0.08018978 -0.058331113 0.03295239 0.20005621 -0.016184464 0.042864673 0.023348063 0.3254113 0.13289985 0.14057834 0.082603164 0.15968916 0.12204455 0.01565855 -0.10409186 0.02981344 0.21186873 -0.032976825 -0.049474634 0.06828665 0.00834367 0.04188339 0.028863546 -0.024409857 -0.049747564 -0.07427324 0.0205832 0.040532354 0.0012848603 -0.03473897 0.07849003 0.13925505 0.11431223 -0.078033015 -0.029938681 0.12790842 -0.08241276 0.044451334 0.029531192 0.2669132 0.19660266 0.06474005 -0.026597619 0.09181572 0.19117385 -0.0622969 -0.020779548 0.034009185 0.058812246 0.12370605 -0.07169397 -0.06564095 -0.08825255 0.11320691 -0.08084776 0.13042979 -0.16202438 -0.11400613 0.050807677 0.035468634 0.00437506 -0.0047646766 0.08751702 0.0119855795 0.0031244569 0.032457083 -0.09723531 0.033265647 0.13145386 -0.008371935 -0.0060682916 0.25974867 0.25472724 0.03026164 0.08093161 0.24547717 0.10675368 0.0027872128 -0.010354764 0.081124924 0.13952239 0.1330875 -0.061391015 0.017725063 0.008637823 0.11017717 -0.1241062 0.14457138 -0.17527072 -0.0887504 -0.045050777 0.13196929 -0.11749665 0.023888277 0.12052235 0.1580297 0.13215868 -0.076003306 -0.071727455 0.2076814 0.053454585 -0.025339836 0.026205596 0.3841102 0.35400254 0.16386302 0.0421055 0.17690165 0.2937316 -0.049947046 -0.060851116 0.09414162 0.2501129 0.024698282 -0.05586728 0.016772544 -0.10792802 0.0036717209 -0.0148370685 0.037040975 -0.116916925 -0.07155377 0.05273945 0.05051813 -0.06390377 0.060976733 0.12634978 0.03525417 0.17829108 -0.11650112 -0.04613523 0.15182942 0.056963105 0.036669414 0.04920796 0.2806245 0.22242603 0.11119681 -0.023549626 0.1442727 0.2101785 -0.06694797 0.003282929 0.12860528 0.16068663 0.11676892 0.06363606 0.0031153606 -0.017705755 0.10148058 -0.002716499 0.08349914 -0.12680532 -0.108542845 -0.019564968 0.03510281 -0.07921726 -0.022983693 0.04958552 0.07383168 -0.026042713 -0.026620151 0.011979217 0.04275731 0.045580637 0.05629716 -0.020080045 0.3645167 0.2680626 0.10206976 0.019181475 0.15922493 0.12652722 -0.06369788 0.03975168 -0.01800367 0.12739722 0.19245586 -0.028013373 0.04314376 0.032507952 0.07641944 -0.07240887 0.10612572 -0.11667624 -0.106952645 0.00029465632 0.15867583 -0.09131073 -0.04506856 0.17495756 0.08744696 0.10519059 -0.046263497 -0.042053793 0.10650782 0.07248612 0.021932743 0.020827737 0.30423433 0.32979876 0.044790994 0.06772569 0.12901941 0.1616707 0.030411093 -0.088315986 0.0896931 0.23117962 0.021746974 -0.062172517 0.01038202 -0.04271905 -0.043781146 -0.06983653 -0.0006750233 -0.021823198 -0.01663498 0.049149983 0.092586 -0.071053274 0.06071278 0.06856689 0.08213929 0.08970437 -0.021963574 -0.027031919 0.107649304 0.07150067 0.007156914 0.04722304 0.26356462 0.2105046 0.08611159 -0.018881686 -0.018583292 0.18637729 0.052228473 0.025078341 0.0441577 0.14458443 
0.092404164 0.061149362 0.10111973 -0.10518834 0.11649543 -0.04160008 0.024803095 0.106712885 0.098480575 -0.014564201 0.05885089 0.0011197457 0.12131531 -0.0021461812 -0.0024489183 0.2130073 0.0899246 -0.0712017 0.04024554 0.014984688 -0.020838842 -0.02312619 0.05586817 0.053341467 0.12144971 0.01356625 -0.0010672283 0.18980917 0.0069427686 0.0009599136 0.060576886 0.12590632 0.106921926 0.06517886 0.044376872 0.057615746 0.00873613 0.07007095 0.12942246 0.13134548 0.076521024 0.09107386 0.133649 0.09636651 0.12990385 0.12437698 0.11419111 0.28634778 0.123609155 0.07150408 0.03284549 0.11576417 0.18476625 0.03233581 0.04088069 0.12045886 0.14567277 0.028256642 0.07223155 0.1049032 0.013633051 0.03607512 0.24439579 0.07436526 0.09277533 0.11405286 -0.10333108 -0.16345014 0.10908582 0.054743875 -0.0018292271 0.05252805 -0.027379869 -0.05474985 0.04065415 -0.06602082 0.037316415 0.10394643 -0.0047126384 0.031535536 0.12903129 -0.012517491 0.00500541 0.18537767 0.06614664 0.057871427 0.056531407 0.13049416 -0.06403447 -0.00052922324 0.19748822 0.15977998 0.10255346 0.051224932 0.050097592 0.08080766 0.1781891 0.07849544 -0.033328366 0.054363348 0.010597601 -0.014650611 0.10310117 0.03215317 0.14818782 0.040200032 0.114247814 0.006758319 0.0283504 0.048869405 0.12966989 0.3412013 0.008304746 0.1032332 0.0971222 0.10837484 -0.0071569923 0.023450889 0.049635828 0.08840974 0.11141849 0.06853952 0.056998197 0.18397592 0.07587407 0.15211543 0.19781828 0.039108887 0.062370565 -0.024717402 -0.13925657 -0.06622629 0.00956062 0.060827747 0.18601133 0.03966083 0.16815713 -0.09043566 0.095399715 -0.01813229 -0.08062462 0.20376904 0.25504497 0.25366953 -0.0068800845 0.055756435 0.008618727 0.16507359 0.04093012 0.10579693 0.031244477 0.05411225 -0.09166127 0.029580928 0.06521363 0.1350955 0.06831059 0.12697868 0.14962532 -0.058133535 0.011704385 -0.02478024 -0.16836879 -0.17140459 0.101478785 0.0447608 -0.1658609 0.09442354 0.018354107 -0.0049741007 0.18923947 0.02243 0.02962946 -0.009608718 -0.008376029 -0.13594404 0.0007665752 0.019542757 0.09080946 0.028821405 -0.21723494 -0.036382582 0.035178047 -0.00648344 -0.12254592 0.0056578517 0.12928773 -0.033023354 0.03633445 -0.026308393 -0.0226415 0.0322824 -0.07913793 -0.09337701 -0.062324278 0.05982916 -0.037341543 0.08522811 0.02892775 0.071816884 -0.014983219 -0.13760825 -0.007800482 -0.05805194 -0.210243 0.13167027 0.15396766 0.18683934 -0.12171083 -0.08918916 -0.10922882 0.16043569 -0.022309687 -0.060081277 -0.08500399 0.041812867 -0.31282127 0.13582091 -0.060877163 0.09489447 0.0336979 0.0039537847 0.060359865 -0.06479294 -0.026631191 -0.043972827 -0.15771902 -0.007838965 -0.057000652 0.09890103 -0.12844074 -0.042351153 -0.021787591 0.12810299 -0.00087825983 0.037590988 -0.10969649 0.020629048 0.07015586 -0.16922516 0.017940586 -0.004177442 -0.10860107 -0.03222563 -0.16134198 -0.027258756 -0.04117859 -0.12020337 -0.056450088 0.10424488 0.0012411792 -0.115847684 0.057326693 -0.015956812 -0.102453746 0.009393435 -0.012002092 0.017794628 -0.07423938 -0.009938231 0.05856525 -0.021269469 -0.20058286 0.09601003 -0.056289155 0.13048737 0.063880034 0.026086297 0.0033685924 0.011824782 -0.102890864 -0.11311187 -0.07735554 0.06905178 -0.061151147 0.03749615 -0.25836354 0.045293428 -0.061099447 -0.049265888 -0.019356618 -0.030461412 0.058116622 -0.04741125 0.043120794 -0.11811497 -0.0384941 0.01089179 
0.021929605 0.047877997 0.08737327 0.093410216 0.0993068 0.030910341 0.33363628 0.02038488 0.04274166 0.028449023 -0.020511102 0.09483357 0.1190692 0.096449696 0.17426184 0.13942416 0.022023037 0.010573368 0.16000827 -0.009613616 0.22438723 -0.074384704 0.14480643 0.11065975 0.1603707 -0.018523084 0.060620584 0.27129674 -0.032793656 0.065108195 0.21021844 0.15090556 -0.035263628 -0.10027208 0.008977587 0.021914413 -0.05562365 -0.0058257487 0.32148358 -0.032678366 0.14685717 -0.117836736 -0.080439344 0.08262436 -0.15653537 -0.031028144 0.20351288 0.14419205 -0.03361957 -0.012508184 -0.084393114 -0.12805957 0.13183157 -0.073730335 -0.05436575 -0.0830639 -0.10687119 0.09715201 -0.17702262 0.16113149 0.05626 -0.012049013 0.27620235 -0.017974913 0.020500828 0.11110884 -0.17005163 0.0006901322 0.0024245665 0.095991604 -0.20333406 -0.043780018 0.041342903 0.052227285 0.017589627 -0.109699406 -0.13856502 -0.09471543 -0.013556393 -0.20169663 -0.09745666 -0.058411546 -0.09080429 0.09501449 -0.07076665 0.027708333 0.049187243 -0.054693077 -0.27745822 0.03873252 0.022604838 -0.021005249 0.1466095 0.049327947 -0.08661729 -0.078571126 0.1234266 -0.0056129545 0.15325187 0.0134550985 -0.06960544 -0.056396462 0.25011912 -0.062300477 -0.06535279 0.16729325 0.23741959 -0.0130958725 0.23604926 0.13397962 0.25187865 0.25577414 0.09105354 0.0095786825 0.19213897 0.14972295 0.20270039 0.13942581 0.1976224 0.108954675 0.21636514 0.050714087 0.23145919 0.22173148 0.02741427 0.018528638 0.10773454 0.1212713 -0.13862251 -0.03527292 0.118758425 0.089130074 -0.06296665 -0.05661914 0.2970667 0.058024075 0.063705675 -0.06127736 -0.15707362 -0.02946163 -0.18463191 0.13743141 0.23281384 0.18760021 -0.049418014 -0.057181563 0.022772657 -0.004645547 0.17214514 -0.11437185 0.106891215 0.028770693 -0.05366822 0.09760048 -0.19529301 0.26374322 -0.067966275 0.044785853 0.17942685 0.03710078 -0.12334207 -0.05738236 0.044440567 0.0002039643 -0.04196251 0.021657476 -0.11396914 0.0042506983 0.057592247 0.066427015 0.009892692 0.085708216 -0.13728955 -0.11044631 -0.066166624 -0.19534929 -0.062701255 0.015829979 -0.00082402973 0.09625909 -0.0014529261 -0.08208609 -0.031151194 -0.109747045 0.0572126 -0.032313097 0.060944803 -0.123092815 -0.01783539 -0.07471953 -0.13919167 -0.094557166 0.20767877 0.024933998 -0.10398227 -0.0054609487 -0.036838166 -0.0012658753 0.12820758 0.06849804 0.03336564 0.0867731 0.12787472 0.09113075 -0.029820349 0.19693585 0.24218772 0.1982645 0.088339075 -0.010666462 0.05447064 0.29363325 0.1125542 0.06776249 0.12350715 0.11681526 0.0101753315 0.019950965 0.24568494 0.053716924 -0.073559426 0.08857504 0.13429299 0.15064219 -0.05836124 0.006485869 0.012100656 0.13759318 -0.09151781 0.0009187277 0.1526141 -0.09841296 -0.026875872 -0.07036217 -0.1161648 0.06768609 -0.036367405 0.042912573 0.2530534 0.20644026 0.03941667 0.006841764 0.07191391 0.060695965 0.1656974 -0.054869868 0.033463467 0.15572082 -0.1561305 0.054203764 -0.067927845 0.21781959 0.016777955 0.03571938 0.12434065 0.016206218 -0.0131908115 0.06623305 -0.100801006 0.026938625 -0.14674278 0.049019348 0.015312684 -0.01647885 0.014316272 0.0005662874 0.037386883 0.014076967 -0.06885684 0.08577991 0.066048555 0.1268624 0.036790222 0.079477444 -0.033081926 0.1523335 -0.107522294 -0.04542729 0.13718571 0.06637316 -0.06291554 0.036938768 0.053739075 -0.09509154 0.01584134 0.07277799 0.05028963 0.036410462 
-0.077320814 -0.03521082 0.13555254 -0.023199178 -0.07225098 0.027612293 0.18885794 0.08741443 -0.1382572 0.23190078 0.17679903 0.15599751 0.00059474097 -0.014279798 0.17659457 -0.2726516 -0.06169091 -0.050723583 -0.02907764 -0.079454064 0.15923673 0.06845643 -0.15949057 -0.12229488 0.24524932 0.04783714 -0.026524257 0.036493346 0.10544391 -0.057375316 0.14161572 -0.061970036 0.06074428 -0.11780805 0.28515097 0.158863 -0.08246918 0.11505677 0.36511892 0.08208295 -0.048612714 0.21336469 0.111007206 0.16840237 0.102899 0.07317144 0.26725695 -0.117995106 -0.11150242 -0.10921493 -0.13183549 -0.0183437 0.21131523 0.024434324 -0.05971557 -0.14797728 0.25307903 0.11231874 -0.12900838 0.065519616 -0.04063994 -0.18370165 0.28456864 -0.14069434 -0.055285815 -0.15831229 0.12322946 -0.034060728 -0.09983269 -0.008695344 0.30000573 -0.041972775 -0.046466425 0.11838207 0.095472276 0.028011926 0.016368477 -0.0078083337 0.19400477 -0.23632665 -0.155822 0.0060754167 -0.02149375 -0.05142874 0.12667234 -0.016262453 -0.07166602 -0.060118906 0.306476 0.20955266 -0.056911666 0.017237572 0.07711276 -0.25119004 0.1957164 -0.11342451 0.04064205 -0.04095683 0.14375256 0.023411572 -0.010849294 0.0012244561 0.13039242 0.124473564 0.0041415133 0.13906954 0.11534461 0.08819163 0.07374067 -0.07504162 -0.043263603 -0.13953704 -0.0006319592 0.0064070513 0.022318637 -0.041256387 0.0074967686 -0.047487166 -0.12508072 -0.08440625 0.18552123 0.001957283 -0.032054912 0.05807269 0.07658386 -0.14334588 0.12873335 0.005467061 -0.014789285 0.15044239 0.25908092 0.18804707 -0.05405329 0.017794924 0.3683304 0.22971296 0.15802172 0.17541477 0.024807129 0.24988878 0.20706685 -0.06820164 0.1554163 -0.19464912 0.14490184 -0.031242238 0.044961426 0.0030539455 0.2193816 0.040822636 -0.09105715 -0.101351045 0.29375744 -0.048239082 -0.038798936 0.13706206 0.010082298 -0.045042355 0.24043053 -0.17700271 0.014288425 -0.11087306 0.2407427 0.14960444 -0.10305255 -0.005382792 0.30389404 0.1491634 0.03652039 0.10396126 0.09939011 0.13773665 0.037335675 0.019321566 0.0961225 -0.23122177 0.04044334 -0.09699549 -0.03396706 -0.15700305 0.25750145 0.024100684 -0.13982798 -0.0074671013 0.09800962 0.10253249 -0.12814613 0.09451212 0.029580336 -0.030474255 0.1525101 -0.06963207 0.075103775 0.09642873 -0.0729938 0.009029193 0.017749663 -0.032110367 0.015581384 0.080373704 0.020332005 0.0581774 0.12697648 0.12939353 0.12104945 -0.10359124 -0.049470574 -0.23021495 0.06700035 -0.085378155 0.107339166 -0.0030480071 -0.02102595 -0.082674176 0.06754201 -0.011721788 0.20410678 -0.09429369 0.061635353 0.08387472 0.012675996 -0.11374945 -0.026414417 0.009434351 -0.07093143 0.19874886 0.12587823 0.110575534 0.09895482 -0.09657435 0.20984301 0.17772815 0.16442965 0.15007801 0.05420296 0.21910717 0.08340322 -0.065548785 -0.0051928093 -0.061351527 0.22596051 -0.031499118 0.07384898 0.04925079 0.2015495 -0.12527806 0.026372248 -0.1305709 0.13331762 -0.080372185 -0.06823919 0.078700595 -0.10562853 -0.059777968 0.13810365 -0.004891141 -0.058281593 -0.011616341 0.06634553 0.14975448 0.043442156 -0.118967734 0.29623464 0.1640457 0.127623 -0.15988837 -0.062240645 0.0562268 -0.026203355 0.13467376 0.06793935 -0.13313971 0.1440778 -0.002715758 -0.025151553 -0.17047484 0.19447842 -0.11025116 -0.08289263 0.014271001 0.032610524 -0.009820833 -0.10169178 0.07434413 -0.12183245 -0.05559535 0.074375354 -0.050638504 
-0.046871718 -0.021811306 -0.13427098 -0.09337355 -0.13801037 -0.10747164 -0.1010214 -0.03421537 -0.14260772 -0.07370295 -0.0037533138 0.06244184 -0.00037782048 0.0085047325 -0.03369765 0.05195881 -0.08128833 -0.038208015 0.06879972 0.21595143 -0.001712606 -0.022259032 -0.00034767168 0.095719635 -0.25632608 -0.06889399 0.03006256 0.09624005 -0.028277548 0.11431307 -0.09399493 -0.025957905 0.10949548 0.033311717 -0.14552668 0.025973272 -0.121829055 -0.033538714 -0.11831526 0.005864068 -0.22975953 -0.030788282 0.053284634 0.04416733 -0.07534814 0.014564755 0.023091989 0.094497986 -0.06937395 -0.10927823 0.031451527 0.16703959 0.0016631403 -0.07318381 0.039534174 0.1280204 -0.23796669 0.023364024 -0.019842485 0.08438226 -0.11494735 -0.0028649215 0.00081952557 -0.06588203 0.037597604 -0.027655715 -0.16891241 -0.028888788 -0.06841283 -0.010244828 -0.20230535 -0.08440103 -0.14626822 -0.048699684 -0.05660753 0.030764293 0.038805325 0.0019537113 -0.11803965 0.042411078 -0.06109205 -0.028303018 0.0972007 0.120799564 -0.17608528 -0.0563478 0.0026706592 0.04822505 -0.061387166 0.0861858 0.025574077 0.012414152 -0.0808521 0.13514967 -0.10429367 -0.071606256 0.034473743 0.00914114 -0.029827941 -0.07158194 -0.15158516 -0.11744121 -0.020193461 -0.09811254 -0.1576845 -0.09701612 -0.061158054 0.044098478 -0.0071169306 0.021326473 -0.0695695 0.027434655 -0.059432212 -0.111582294 -0.02959194 0.1271357 -0.102688864 -0.004496843 0.09130043 -0.045950092 -0.11167571 0.022978948 -0.09076589 0.07475653 -0.05668393 -0.0120374495 -0.009087574 0.0534039 -0.04228872 -0.12192691 -0.17704706 -0.026524667 -0.09712148 -0.03054145 -0.12647267 -0.1597887 -0.27680957 -0.10246783 -0.11164822 0.024730776 -0.13730763 -0.030986495 -0.03904588 0.06557826 -0.12565073 -0.09763273 0.029415578 0.029781966 -0.2166836 -0.09667549 -0.019806977 -0.043779526 -0.20451917 -0.028905835 -0.1090444 0.07460946 -0.059472837 -0.027610667 -0.10072549 -0.026247576 -0.07657807 0.02616024 0.014874621 -0.06304903 -0.1461048 0.021779286 -0.22673978 -0.054664467 -0.16567461 -0.016089793 -0.12419454 0.0643703 -0.050494038 0.03608296 -0.025693309 0.06390565 -0.16626804 -0.18012896 -0.05706507 0.1355912 -0.19424683 0.008472711 -0.040642317 0.065704845 -0.042998657 0.03362984 -0.09528809 0.07113352 -0.016235743 -0.040169552 -0.0136806695 -0.10260747 -0.051743668 -0.08732989 -0.03161993 -0.028144222 -0.1964888 -0.0686701 -0.18703593 -0.16870102 -0.26265797 -0.07119076 -0.23800667 0.039319642 -0.024288513 -0.113705955 -0.062384956 -0.12968364 -0.14735283 -0.21541439 -0.07976227 0.015365446 -0.051251993 0.01287461 0.06369213 0.014737329 -0.22199294 0.0779286 -0.15792617 -0.0075814826 -0.14869298 -0.109359816 -0.060738195 -0.118080884 -0.0205375 -0.11349201 -0.04682278 -0.05653547 -0.20620362 -0.058542427 -0.18383662 -0.03411312 -0.15962705 -0.04796015 -0.18005028 0.049320858 -0.12536024 -0.1391035 -0.12649494 -0.1589994 -0.1539619 -0.19519113 0.03504328 -0.11255089 -0.120299496 -0.048030127 -0.008254951 0.037825227 -0.09272026 0.11241482 -0.11251529 0.021925153 -0.02198947 -0.15395421 -0.118538596 -0.043807257 -0.02756935 -0.0017741285 0.13233215 -0.08033294 -0.09262783 0.024865935 -0.21314831 -0.052735005 -0.26752067 -0.025469685 -0.09340731 0.13719447 -0.018837597 -0.090978526 -0.11489767 -0.08083054 -0.15954134 -0.11730001 -0.014597115 -0.03184763 -0.1268678 -0.020956026 0.042997796 -0.08923392 0.020872567 0.054949127 -0.017301913 0.031261645 -0.0071335756 -0.042633496 -0.10684539 -0.09996909 
