kern1:
0.04389924 0.05239104 0.10680854 0.009311267 -0.0447184 -0.066584416 -0.006892335 -0.16373911 -0.054230817 -0.06722847 0.08690283 0.12317339 0.070423305 0.05368149 -0.059984844 0.013330028 -0.03170232 0.014927424 0.10435598 0.11061933 0.10936406 0.054532055 -0.016971692 -0.06508865 -0.19025266 0.044473514 -0.1938119 
-0.1754141 0.13239492 0.13856429 -0.009162977 0.12564813 0.032381956 -0.17026687 0.1382522 0.100261234 -0.19013396 0.0493926 0.1437036 0.08418667 -0.007648817 0.13745414 -0.022823362 -0.0073380875 -0.051081162 -0.17224924 0.0047535948 -0.11381832 -0.11274281 -0.07297453 -0.032733537 0.014832679 0.1059123 0.0074474267 
-0.017323634 0.12588637 -0.048889656 0.011280789 0.12891681 0.030909527 -0.11999297 0.12686154 0.13279481 -0.03496833 0.06606148 -0.10359448 0.068476565 0.013246053 0.054470517 -0.1575567 -0.098162 -0.07743599 -0.124553815 0.088191375 0.080712214 -0.09315622 0.016392753 0.1324145 0.076381676 0.1436737 -0.080550894 
0.108873054 0.15207207 0.03521714 -0.082808174 0.17197779 0.0019968993 -0.1660905 0.057684414 -0.09866405 -0.0004892782 -0.08908189 0.04436197 -0.13714606 -0.07469663 -0.10723154 -0.13266951 0.0042152433 -0.09838757 -0.1453591 0.10018654 -0.05875177 -0.00018094308 0.13151501 0.056301653 -0.15199776 0.079595126 -0.10867054 
-0.0936258 -0.13477652 -0.14140229 -0.09714862 -0.059434913 0.04892979 0.052886296 -0.022098243 -0.0083261095 -0.1616141 -0.046048924 -0.02598011 -0.15686166 -0.08322297 -0.10445822 -0.018382035 0.09000343 -0.13367942 -0.11612401 0.11851832 -0.029275361 -0.17168745 0.026364809 0.018486839 -0.12995988 0.09105087 -0.06739467 
-0.053735077 -0.020067964 -0.16575173 0.061310295 -0.092436925 -0.04573363 0.040976554 -0.0556922 -0.17636907 -0.08449647 0.015299797 0.01430528 0.006667495 -0.040703516 -0.17206004 0.14622307 0.008042481 -0.0596828 0.1010844 -0.015724195 0.09058009 0.17221446 -0.11352161 0.11343377 0.11301791 -0.059766248 0.10965123 
-0.024932113 -0.08075519 -0.061053634 -0.06500071 -0.09342936 0.13097377 0.1029656 -0.0856495 0.05962534 0.040228866 -0.11164256 0.059043467 -0.055421703 -0.10860008 -0.021178016 0.08921758 -0.01807135 0.12467186 0.09532996 0.09669936 -0.018576542 -0.07211535 0.0090898825 -0.060871214 -0.02093447 -0.0417925 0.13083065 
-0.06435468 0.008322593 0.06994296 -0.16760255 0.084955394 -0.11993384 -0.18730289 0.054371014 -0.043857906 -0.07780916 0.06767244 0.13594472 -0.08643482 0.020626007 -0.11309488 0.001977116 0.13664822 0.080056615 -0.10172713 0.026753677 -0.054804046 -0.18231042 0.094043754 0.10449909 0.0652689 0.13807967 0.15863979 
0.13266179 0.029969817 -0.08238977 0.15170819 -0.06436675 -0.087726295 0.11076472 -0.037280735 0.060288657 0.04957755 -0.02374961 -0.11528005 0.09871226 0.026495678 -0.0883925 0.012778843 0.05121528 0.03066764 0.15871724 0.077689745 -0.09436556 -0.0078629535 -0.14114913 -0.14227928 0.04160599 -0.014129447 -0.17933993 
0.08370211 0.0065974994 0.049028177 -0.103479795 -0.077891305 0.098144405 0.10299984 -0.08215696 0.060958292 0.053269107 0.0031954846 0.041985728 0.11726482 -0.050744183 0.025574157 -0.11950407 0.106708474 0.13338436 -0.026805986 -0.028824745 0.041173074 -0.04604677 -0.14307675 -0.030395348 0.10277034 0.0911395 0.07409248 
0.06663913 -0.10241248 0.02814701 -0.16282633 0.07193503 0.028110107 -0.1318937 0.13160622 0.11027196 -0.18751681 0.02012092 0.046117846 -0.17848997 -0.05097644 0.1417593 -0.06399761 0.025054332 -0.09248639 -0.073898636 0.07033139 0.15903623 -0.0041663204 0.104390405 0.10898513 -0.13356507 0.12870711 0.015080115 
-0.075433664 -0.036945116 0.080213696 -0.14023416 0.081321344 0.10130491 -0.15761822 -0.078172825 0.105852105 -0.07221411 -0.1209332 0.02798952 -0.055697136 -0.069411986 0.15821432 0.03674383 0.0597526 0.03060704 -0.15656067 0.05730995 0.08461575 -0.09622028 0.11360142 0.1651226 0.051564656 -0.12132764 -0.0039050893 
-0.019858142 0.035694174 -0.15679605 -0.011638573 0.07132032 -0.17549801 0.047998205 0.055882894 -0.06845211 -0.1479507 0.1687748 0.031076761 0.09758768 0.08250068 -0.09387139 -0.16702859 0.063767694 -0.13625617 -0.017340535 0.1702986 0.10305652 -0.091682136 -0.002690063 0.03831844 -0.087425 0.06261517 0.05602589 
-0.040345214 0.053640563 0.16468717 -0.10544071 0.0765934 0.008259326 -0.14478476 -0.053043857 0.068180755 0.049041692 -0.025873132 0.12494546 0.12667684 0.11246261 0.13909696 0.030244064 0.09182231 0.06803826 0.07091833 -0.16890936 -0.10439859 0.059387147 -0.069922574 0.11968937 -0.07074369 -0.11218415 0.146528 
0.105400376 -0.061391074 -0.12423338 0.13719472 -0.1255396 -0.052511495 0.088761955 -0.1471028 -0.029596725 0.08316621 -0.07107742 0.055835687 -0.04794026 -0.016277838 -0.12409593 0.05582623 -0.120168805 -0.103285804 -0.059161335 0.087120056 0.028978208 0.1924527 -0.021649767 -0.13811263 0.17444728 0.018061006 -0.12694643 
-0.03582312 -0.022767944 -0.07856554 0.05859019 -0.16980685 0.07905806 0.085715994 -0.1240037 -0.028088968 -0.0021174257 -0.06272981 0.028293371 0.038803764 -0.17513469 0.1381079 -0.11970541 -0.012550174 0.122701146 -0.00069284113 -0.06326079 0.15657654 -0.03871568 -0.0740348 0.17388128 0.026122801 0.0007854393 0.077037476 
0.01671503 -0.03341352 -0.062669024 0.014359607 0.03365258 -0.08231756 0.17677379 -0.11196819 -0.015615814 -0.08579617 -0.17119439 -0.11483404 0.14409666 0.051597092 0.04084219 0.16675699 -0.035228755 -0.07313164 0.030002305 -0.16647007 0.064000376 0.114652485 -0.016125118 -0.12558395 0.14822085 -0.14677136 0.04617132 
-0.16657814 -0.11719308 -0.07227899 -0.0447841 -0.0046309 0.14998263 -0.090357006 -0.077144966 -0.0009900688 -0.1315248 0.06555144 0.050364234 -0.16810285 -0.024915375 0.04939786 -0.13236913 -0.08223764 -0.03379629 -0.05483245 -0.13033642 0.169123 0.0133651905 -0.029182581 0.16477899 -0.13726377 -0.06059368 0.16474245 
-0.03676345 -0.1735189 0.024324596 -0.12334084 -0.021671703 0.06794448 0.058869697 -0.095947884 -0.01208244 -0.05210842 0.0063632713 0.13630001 0.08828875 -0.16278055 -0.019319426 0.047907364 -0.005078193 0.13009031 -0.06340449 -0.04425286 0.18564036 0.09873963 -0.0735852 0.19264613 0.00010443223 -0.14928168 -0.062143166 
-0.15394683 -0.07554678 0.0767153 -0.01055497 0.101071924 0.1519666 -0.10672506 0.030379942 -0.026887193 -0.02532941 -0.099514976 0.058653183 -0.02837759 0.034345917 -0.037806857 0.005127656 -0.1686828 0.1724108 0.10102093 -0.093484886 0.09289196 -0.036298178 -0.059744384 0.09923161 -0.0062944843 -0.10675921 0.10940333 
0.029448058 -0.12380021 -0.13712612 -0.06863862 -0.16164634 -0.14787984 -0.09972523 0.038447417 0.036457103 -0.04572776 0.013592361 -0.080639966 0.1213025 0.15882595 -0.08021865 0.15241884 0.07671064 0.07575638 0.002739853 0.077582605 0.03169657 -0.013019944 -0.002522373 0.11643002 0.04155912 0.05156106 -0.07916073 
-0.09838828 0.12255126 -0.08191722 -0.079147376 0.09864877 -0.028228253 0.120087005 -0.1252462 -0.073793925 -0.042397305 -0.1085405 -0.19877316 0.045794055 0.110289894 -0.1145239 0.1625517 0.0485645 0.1002802 0.07220243 -0.04195784 -0.03390838 0.13849531 0.10248698 -0.018184222 0.0870729 0.05372757 -0.13719481 
0.060398377 -0.09102109 0.026929677 -0.14395683 0.100623675 -0.042460974 -0.07636695 -0.048834853 0.033718105 -0.029156443 0.04234886 -0.12547038 0.109700374 0.0340711 -0.02915597 -0.11151846 0.13788119 -0.13957413 0.08176153 0.15728165 0.0053193187 0.15055205 0.117819555 -0.09516539 -0.07528399 0.018725608 -0.08125335 
-0.1690526 0.03585002 0.0030499771 -0.0182506 0.07404704 0.0569983 -0.17978437 0.049204625 -0.15288892 0.05072747 0.118996605 -0.13059649 0.08163153 0.14402676 -0.062299944 -0.018850496 0.018203888 -0.015393561 0.039583344 0.0754136 0.08784954 0.018221138 -0.04031966 -0.051199008 0.020153765 0.053972784 -0.02125506 
0.10432678 0.009231627 -0.041986577 -0.022153497 -0.07075066 -0.087972045 -0.13988945 -0.010318435 0.08879616 0.11747221 0.10333321 0.20053025 -0.07638087 -0.107448936 -0.022370229 -0.057633698 -0.16430682 -0.1307309 0.036146287 0.05831372 0.046513602 0.11333709 -0.037320904 0.030673798 0.007538904 -0.12110891 0.12351635 
0.06989767 0.060712807 0.1434188 0.13966964 0.16125996 0.10029929 -0.0640816 -0.14469622 -0.17667218 0.03112067 -0.018963011 -0.007972337 0.07450369 0.08293752 0.07568993 0.1269892 -0.02985763 -0.099766895 -0.07643006 -0.085569456 -0.14640544 0.099389814 -0.1482332 0.08836353 -0.036944583 0.10925698 -0.14935622 
0.0730077 0.103319265 0.124174856 -0.122731924 0.045928434 0.14500357 0.055210214 -0.08194529 0.06199111 0.14475656 0.04847811 -0.059008945 0.0129325995 -0.040418323 0.01855442 -0.09524827 -0.21447957 -0.047339186 0.13557352 0.010920156 0.14180091 -0.11035674 -0.025141196 0.009505393 -0.15735103 -0.08858475 -0.007917708 
0.13238053 0.16618517 0.11356697 -0.08951639 0.043327235 -0.026622772 -0.038915668 0.0026301583 -0.009947968 -0.009801692 -0.0252271 -0.070427954 -0.09841398 0.10645957 -0.16658723 -0.09832416 -0.013928866 -0.15600929 -0.0572155 0.11250496 -0.15002087 -0.13654785 0.14822188 0.03576634 0.07511062 0.12797305 0.0024645103 
0.09748301 0.08909866 -0.014209696 0.024355348 -0.09166735 0.0853902 0.038800325 -0.057514403 0.12819193 -0.19231889 0.060934816 -0.13551874 -0.014492857 0.13662075 -0.03841098 0.019160708 0.16026044 0.13299796 -0.16573942 -0.117843084 -0.1927072 -0.14370711 -0.07259374 0.003440005 0.114082865 0.05485005 0.076848105 
0.0595095 -0.054257557 0.07089229 -0.07632275 -0.06460741 0.066655084 -0.13437222 0.014812039 0.11578551 -0.0053908406 -0.117326654 -0.0407859 -0.096157506 0.019672535 0.0026314692 -0.1535805 0.113997556 0.16252127 -0.0059098615 0.0071500507 0.17454468 -0.14957443 -0.051605254 0.13442759 -0.036460742 -0.14674687 0.050634805 
-0.0764128 -0.17495203 -0.059830513 0.15024604 -0.117874905 -0.020867232 0.037546895 -0.12729193 -0.008394806 0.09527933 -0.09913489 0.14644429 -0.04056327 0.06177636 0.14165981 -0.009235039 -0.094139695 0.07510564 0.06431917 -0.012673402 -0.026475403 -0.0067101493 0.061060168 0.047677882 -0.008718657 -0.14018244 0.14783078 
0.13014263 0.122740924 0.096311316 -0.05602409 0.13024189 0.017838094 -0.06403447 -0.1523014 -0.0854013 -0.078522965 0.10376631 0.04090037 -0.086717024 -0.038300842 0.014742902 -0.08246878 -0.11444904 -0.15662529 0.1421378 -0.011851346 0.11867101 0.040990733 0.0014286222 -0.15362713 0.05265861 0.07958455 -0.04208675 
bias1:
-0.00091627846 -0.0021846863 -0.0055933255 0.0062270174 0.015561209 0.00046263786 -0.00034891078 -0.0021331627 -0.001345417 -0.007353919 -0.0021041064 -0.00040220004 -0.00029656195 -0.009440608 0.003813216 -0.0015267736 0.0012475103 0.010635717 -0.00071331376 -0.0011174735 0.00097096036 -0.0013677198 0.00013382046 -0.0015298638 -0.00036884125 -0.00338411 -0.0023342033 0.00055292324 -0.0002633508 0.0011647964 -0.0013529405 -0.00029884948 
kern2:
-0.0511668 -0.09932868 -0.040703543 0.02017623 0.045205705 0.011887284 -0.05856194 -0.12829174 -0.016884048 -0.0020490983 -0.058184493 -0.08334109 -0.09700199 -0.001813374 0.091076195 0.04790438 0.03159855 0.033254445 0.1371476 -0.051105425 0.04143873 -0.04431359 -0.10038698 0.031128043 0.008098187 -0.021475598 -0.09403559 -0.12117813 -0.009312085 -0.066136464 0.007599027 -0.079005316 -0.09456281 -0.07612393 -0.034992214 0.0009510218 -0.00071281823 0.15165786 -0.008770796 -0.06889631 0.1537929 -0.056685567 -0.09217032 -0.033155136 -0.07701264 0.018464183 0.12704729 0.18457755 0.14314461 0.049506344 0.114206016 0.11239245 0.05153319 0.08503658 -0.087800786 -0.08396231 0.030177405 0.0281421 -0.046630442 -0.04445324 -0.0079084495 -0.050461907 0.09532774 -0.0018732828 -0.03141687 -0.10275621 -0.1088092 -0.09030573 0.0018189944 -0.0054821265 0.008403835 -0.071781255 0.12257848 -0.07466592 -0.054165255 -0.06597677 -0.05986991 -0.01484344 0.13808589 0.039702833 0.04851428 0.049705848 0.17577106 -0.05085295 0.009960614 0.011168016 -0.08920438 -0.01954641 -0.020075457 -0.0462367 -0.047762044 -0.031526938 0.012786341 -0.051822815 0.0847934 0.0044786376 0.014026225 -0.093785435 -0.10440063 -0.0062361686 -0.048436753 0.0069223866 -0.05413116 -0.03122197 0.09758007 -0.09070707 -0.08565529 -0.07662863 -0.061587106 0.05286058 0.118420795 0.105575204 0.0023108101 0.012199308 0.2092542 0.10151963 -0.0391409 -0.049508058 -0.12131389 -0.09430546 -0.042098284 -0.0002883282 -0.024952192 -0.17310905 -0.09582975 0.0031776447 0.15126649 -0.092221096 -0.08510173 -0.19413657 0.037856612 0.032032873 -0.024527328 0.15571398 0.0015592275 -0.0853716 0.016011935 -0.013185398 -0.07335575 -0.09316805 -0.119281515 -0.030248754 0.22651842 0.24517564 0.07862294 -0.064306565 0.21451958 0.12618475 -0.061145235 0.048879936 -0.06138473 -0.13580272 0.036587197 0.04390904 -0.005675149 -0.17308706 0.022492819 -0.04834824 0.2522189 -0.13378759 0.022152752 -0.05619382 -0.0139083285 -0.04272081 0.024376133 0.14911798 0.06290671 -0.049256224 0.14004092 -0.041715294 -0.103756696 -0.031015446 -0.16924743 0.05005268 0.060643196 0.23883183 0.1767182 -0.01646111 0.09850801 0.10803115 -0.0465238 0.042650267 -0.07267795 -0.051315762 0.038123146 -0.0342689 0.028470408 -0.20716096 -0.01822185 0.0431397 0.14858824 0.018721143 -0.08587405 -0.13238089 -0.06413414 -0.021324003 -0.061971504 -0.039027687 0.018602429 -0.10072087 0.06728587 -0.0017753032 -0.06300898 0.0010399738 -0.03660283 0.049920544 0.10380651 0.089805976 0.072403975 0.049479183 0.16353515 0.07919076 0.0033910142 0.025337625 -0.07921509 0.016391391 0.0087714065 -0.09018761 -0.09855092 -0.07651331 -0.12095724 0.019426353 0.13148339 -0.10818538 0.048718557 -0.17332019 0.06657939 -0.07124886 0.02094212 0.064125024 0.029321592 0.003881816 0.03362829 0.021678941 -0.02442623 -0.072637506 -0.057730302 0.045863908 0.048134986 0.19543564 0.06721672 0.037302602 0.18299115 0.026282439 -0.006368001 0.0051031294 -0.02647414 -0.065772906 -0.025324482 -0.030524258 0.023998188 -0.08695391 -0.056602158 -0.0031528743 0.19342166 -0.0864093 0.008058513 -0.14505877 -0.033907264 -0.065719366 -0.04287465 0.058725413 0.0789887 -0.047631744 0.002703029 -0.04628399 -0.07430324 -0.07034612 -0.18087934 0.06454518 0.20711195 0.21034409 0.0742898 -0.07992643 0.16342 0.0498521 0.042179465 -0.034957524 -0.010493253 -0.1156759 0.06024342 0.03444634 0.016047228 -0.22117585 0.05170976 -0.0525746 0.11228334 -0.03929606 
0.008372294 -0.03486576 -0.008575008 -0.007723733 0.017038219 0.02784258 0.01821479 -0.022711035 0.0030286517 0.03136048 0.10050862 0.12520052 -0.06990417 0.051134303 0.0031774752 0.18844834 0.011530319 0.05946419 0.12937298 0.07788871 -0.08507624 -0.074162506 -0.028310837 -0.039641384 0.10651522 0.09118652 0.088764034 -0.18550219 -0.018228313 0.18275629 0.07846505 0.08655734 -0.0364804 0.11073106 -0.037509974 -0.07324396 -0.058776263 -0.041390248 -0.0234442 0.017097538 -0.112782925 0.08281355 0.06540157 0.099588886 -0.08935172 0.105907135 -0.09550712 0.11358683 -0.0018907716 -0.021206554 0.10666516 0.15818617 0.0330955 -0.058706198 -0.00087220484 0.01130959 0.083144955 0.004247645 -0.012877939 -0.010845745 0.0152374515 0.21560562 0.1414491 -0.041483723 -0.026155517 0.018280705 -0.005822179 -0.037760597 0.034406595 0.023042945 0.056226138 -0.008682622 0.012116829 0.053020936 0.026850976 0.07608088 -0.094722144 0.021919066 0.017499903 0.11315397 0.0356062 0.08725004 0.11252503 0.09393916 0.06599792 -0.042670973 0.018718328 -0.095942065 -0.01887031 0.0032153178 0.015951531 -0.13927871 -0.035846602 0.09083826 0.05813012 -0.019667473 -0.040866833 0.005380469 0.0036112773 -0.05655816 -0.005485444 0.07546674 0.05107827 -0.0578751 -0.09839957 -0.06149394 0.1060207 0.075561754 -0.16303346 -0.012480141 0.04031641 0.21688446 -0.035095025 0.04079669 0.03568362 0.10141735 -0.00907128 -0.097712874 0.048045117 0.051176857 0.039409503 0.08320073 0.059711106 -0.06562567 0.04492497 0.13667966 0.10102231 0.03646756 -0.03874674 -0.006636008 -0.017170923 0.020824283 -0.08192374 -0.086107194 0.039533135 0.09901928 -0.079813674 -0.0037534852 0.12464889 0.2069474 -0.09226047 0.05460127 -0.003955954 0.10647303 0.053697396 0.07433581 0.15310407 0.0398137 -0.06656947 -0.004106061 -0.01681368 -0.0360273 0.047077496 -0.022724086 0.057429153 -0.03748195 0.09596182 0.12537673 0.1317308 -0.008081214 -0.06673393 -0.0035761138 -0.07999803 0.02457311 -0.028172828 -0.006176127 -0.0026531797 0.075212784 -0.08034497 0.049204104 0.039744165 0.13935736 -0.14327784 0.013088878 -0.057864904 0.092814475 0.0035601545 -0.037248507 0.17189746 0.095537394 0.007864827 -0.022946438 -0.07235174 0.012854901 -0.0062343995 0.01152116 0.008598087 -0.14769234 0.050178334 0.19591437 0.060100008 -0.068195164 0.025186379 0.008473668 0.018766861 -0.08090463 0.033757303 -0.007883289 -0.08616244 -0.11701617 -0.089910656 0.07045363 -0.033200823 0.06028725 -0.0635029 -0.0075847902 -0.05552735 0.07598264 0.0070651574 0.01146511 0.031909093 0.09506232 0.064383365 -0.0989301 0.019342223 -0.05982378 0.04812389 -0.07383618 -0.02071611 -0.16433586 -0.09732314 0.069943674 -0.049544435 0.06671132 -0.065512784 0.040511068 0.017133083 -0.003607213 -0.02905907 -0.03749251 0.07523944 -0.08039364 -0.070309944 -0.02670872 -0.00058756076 0.057111107 -0.16974206 0.06520898 -0.026698694 0.19500598 -0.029533288 0.0725062 0.17353834 -0.006707258 -0.038888536 -0.04129309 -0.0039761043 -0.08848638 0.0256039 -0.022919118 -0.05051805 -0.06655318 -0.032192018 0.21169594 0.11392952 -0.08177231 -0.05168035 -0.030813787 -0.036366045 -0.05502923 0.06527945 0.015305144 0.011361128 0.048786774 -0.09652588 0.026305053 -0.03431488 0.17546232 -0.039591692 -0.03578115 -0.05857693 0.063836984 0.032704182 -0.01867203 0.07856259 0.0487901 0.040459245 -0.09435391 -0.040821217 -0.021462392 -0.041512348 -0.0209165 -0.020195883 -0.13440886 0.014393394 0.045938235 0.042670768 0.008646487 
0.14941964 0.099283084 0.07650124 -0.015236551 -0.015493956 0.029707808 0.0313089 0.19342782 0.057771266 0.059169114 0.10456287 0.09767424 0.13311656 0.027832294 -0.051747378 0.13279115 -0.0746682 0.123873755 0.21124241 0.04915925 0.018221572 0.081810154 0.13981533 0.12981927 0.18769956 0.07446479 0.08663532 0.07900962 -0.08419947 0.05669243 0.07159758 0.17121878 -0.017940795 0.08761557 -0.044674292 0.18702127 0.12929909 0.1545617 -0.006181035 0.19591686 -0.04165334 -0.005200543 0.12023506 0.1383151 0.15747736 -0.03190546 0.02010676 0.18369734 0.0011694559 0.19211492 0.1730887 0.1556795 0.003162793 -0.008574454 0.031662464 -0.014053603 0.20226786 0.07246535 0.042257223 0.30666983 0.11475548 0.22626068 0.13534464 0.17848846 0.052224707 0.012784005 -0.025906641 0.15796065 0.06490364 0.1684009 0.0058287773 0.058329526 -0.034848917 -0.033308055 0.0080738 0.035272196 0.13148859 -0.030931044 0.029733524 0.13753521 0.041589532 0.16244201 0.18327254 0.08054269 0.12251595 0.06423568 0.09534555 0.10988961 0.1137817 0.02939168 0.072684765 0.11825047 -0.04034136 0.11483421 0.13571405 0.014470869 0.026765896 0.1144601 0.077180415 -0.023800898 0.044845626 -0.026010148 -0.089454055 -0.0067484193 0.002500838 0.12714024 0.010789057 0.04880546 0.08380182 0.1413642 -0.060578678 0.16241692 0.03648013 -0.07156552 0.13909075 0.097013816 0.04581339 0.11088236 0.08525751 0.15152958 0.038674712 0.15984268 0.1779115 0.078001216 -0.08364053 0.00019520748 0.12604563 0.14956531 0.12961824 -0.043850042 0.041700438 0.03453722 -0.06270391 -0.007895314 -0.04707164 0.10864537 0.049344916 0.0022471314 0.026442753 -0.026422467 0.06883761 0.107420325 0.0032259533 0.031177083 0.14456396 -0.0586745 0.12522595 0.06843123 0.10283126 -0.040989097 -0.016340861 -0.022494 0.058588047 -0.012615983 0.13277516 0.0318708 0.022343017 0.071591124 0.1514443 0.0058636894 0.07099916 -0.082324825 -0.07515627 -0.028974941 -0.01889476 0.002833794 -0.09510953 -0.022507634 0.10923042 -0.020854091 -0.0696828 0.04637004 -0.0030016417 0.058199473 0.039063435 0.026406018 0.086655766 -0.05776555 0.09554687 -0.06918666 -0.06609272 -0.032797754 0.063167825 0.008032348 0.01792464 0.013661421 0.11423859 0.09014651 -0.10467292 -0.045495585 0.07631917 0.058763023 -0.0005710225 0.02370717 0.016273655 -0.05411547 -0.063411124 0.0049872603 -0.05930585 -0.028594986 0.099637836 0.12719113 -0.014394967 0.038319398 -0.091731936 0.049771257 -0.023186779 -0.0038039896 0.037513353 -0.024077715 0.09395444 0.07254741 0.03643003 0.016204089 0.08402955 0.07003743 0.07963731 0.0010825319 0.15890291 0.005344241 -0.0077078613 0.022532241 0.046146642 0.13615695 0.0033058918 -0.113097936 0.032481015 0.003024924 0.018438678 0.07853014 0.052766565 0.080997966 -0.034690846 -0.025167514 -0.05979881 0.040084887 -0.0008147839 0.039669417 -0.008637009 0.015501978 0.020185867 0.07619752 0.045785204 -0.04748839 0.0021080654 0.023290183 0.101687126 0.06350203 0.10457042 0.019914363 0.019576307 0.024369484 -0.1256013 -0.07388136 0.16038164 0.15245128 -0.03240529 -0.08534403 0.002061918 -0.0062463307 0.08509279 0.023480123 0.021386055 0.054735497 0.048231427 -0.022970287 0.036922615 -0.075840406 0.064550586 -0.07703312 0.0071486314 0.047746997 0.14811155 -0.012205546 0.09418427 0.021937996 -0.012753091 0.08950074 0.1160067 -0.07422389 0.08052531 -0.0076647173 0.08246603 0.13070765 -0.08208776 -0.00772911 -0.019425511 0.12668404 
-0.060576685 -0.08508807 0.010880464 -0.04967105 0.041193068 -0.010251977 -0.042356532 -0.16425166 0.017975392 -0.052423213 -0.13615425 -0.057606854 -0.05927965 0.049456265 0.15338482 0.026099708 0.097770154 0.025463086 0.046082187 -0.044056408 -0.053293843 -0.07054767 0.038093943 -0.08075938 0.0016316955 -0.035263922 -0.080399826 -0.06376195 -0.03612115 -0.002408311 0.10963326 0.037160803 0.0019893406 -0.13742168 -0.0137923295 0.054166213 -0.0059039732 0.095339134 -0.04218647 -0.18995443 0.113120675 0.014491512 -0.035862587 -0.107112385 -0.079030655 -0.07155082 0.14128493 0.03170787 0.07672767 -0.06004114 0.14127827 -0.015827578 0.001582951 0.058265634 0.067272104 0.016019456 -0.0112203425 0.0965657 -0.03581316 -0.10842023 -0.030911507 -0.0661248 0.054544993 -0.014473922 0.056081995 -0.014900942 -0.018523635 -0.067051366 -0.024674166 0.014917096 0.047053482 -0.13314244 0.031110434 -0.025434691 0.026851583 0.005220481 -0.08890776 0.025107807 0.1751009 0.082995936 0.081866294 -0.06943489 0.10321956 0.08728579 0.037401203 -0.03754612 0.03884417 0.050724257 -0.03474581 -0.015354375 0.05919434 -0.12490659 -0.0070731062 0.00565118 -0.007114047 0.04217435 -0.0014458792 -0.091520175 -0.002450809 -0.015550559 0.021974245 0.12895995 -0.023765428 -0.18326592 0.051641632 0.08576591 -0.057772074 -0.08522032 -0.15490371 0.07595617 0.21021317 0.20080133 0.1656321 -0.073562965 0.11998384 0.07560676 0.032556355 0.0019489906 -0.045085706 -0.003593844 0.12093089 0.014712772 0.07668853 -0.091233395 -0.07727589 -0.11833622 0.03726124 -0.0678369 0.072397195 -0.11249471 -0.05013387 -0.013389731 0.055715073 0.10865179 0.058718327 -0.13267629 0.014861124 0.04196398 -0.15712196 -0.07710602 -0.14630264 -0.08254982 0.21881233 0.22162713 0.1840964 -0.09409362 0.18168117 0.039649863 -0.014340913 0.0708052 -0.050270945 0.001656231 0.0801037 -0.020611277 0.037536867 -0.23243861 -0.102113396 -0.012477326 0.10507979 0.02012291 -0.07825435 -0.06996091 0.022527888 -0.107789256 -0.030805474 0.09687669 0.08024024 -0.13502572 0.12123785 -0.0599274 -0.02676439 -0.026504768 -0.17307252 -0.020329628 0.08964382 0.085446104 0.11954754 0.050414834 0.10549497 0.058785696 0.028398855 -0.06693652 -0.07044023 -0.028477235 0.13997272 -0.022020662 -0.013584897 -0.18338543 -0.044331137 -0.036887046 0.108191185 -0.00624233 -0.051631458 -0.032057848 -0.016441735 -0.117520265 -0.06444517 0.101172306 0.036646143 -0.14678466 0.049765136 -0.019478153 -0.087848924 -0.01950555 -0.06716167 -0.057727017 0.14391196 0.16125922 0.09453155 -0.0023403151 0.1671884 0.09185121 -0.05629723 0.02919377 0.034481734 0.032210317 -0.033674892 0.05178027 0.046892665 -0.14901838 0.018264348 -0.06498414 0.1355999 0.05211153 0.04953353 -0.110121064 0.035662077 -0.063988484 0.053068805 -0.029491555 0.09747242 -0.03249166 -0.015943244 0.10489819 -0.06524389 -0.035436004 -0.12991259 -0.03569601 0.15467645 0.1710409 0.079899736 -0.07501219 0.1607078 0.05834852 0.030316355 -0.027874613 -0.007706994 -0.0510493 0.02778264 0.026342656 0.0075710234 -0.15603724 -0.061226845 -0.02328398 0.059263673 -0.015695328 0.01955547 -0.13532391 -0.027959673 -0.09118791 -0.060649976 0.021606162 0.019023143 -0.04119893 0.018871626 0.024461443 -0.102416 -0.010051219 -0.16333519 -0.024239194 0.09054701 0.14607419 0.06278127 -0.039860927 0.07929421 -0.024910951 0.011084764 0.03845496 -0.01910152 0.056204386 0.11938312 0.033217814 -0.06734371 -0.08886151 0.03600427 0.034708437 0.047696043 0.068969704 
0.10254895 0.11138171 0.110788 0.11169685 0.0769179 -0.058011286 0.10407641 0.22210371 0.12668456 0.03250579 0.102903746 -0.03506375 0.23248687 -0.06598966 0.09186888 -0.2551931 -0.02524381 0.084453374 -0.10383118 -0.064750664 -0.002877544 0.042392604 0.10108787 0.05261264 0.11546533 0.14776668 -0.019147135 0.33904043 0.19503848 -0.078725316 -0.11927944 0.13855654 -0.023940975 0.07812906 -0.0021299904 0.061746683 0.07648168 0.0730834 -0.006531971 0.18469231 0.07563522 0.06952161 0.020674685 0.02456436 0.22686888 -0.023423783 -0.016794996 -0.11545219 -0.016558392 -0.020192955 -0.18031557 -0.03682691 0.05338734 0.0040612128 0.11435041 0.016641853 0.12605557 0.048528258 0.10364166 0.35471794 0.23444822 -0.007233121 -0.040675268 0.10706679 0.052358657 0.08327031 -0.042948492 0.08921532 -0.008819852 0.01606968 -0.055999633 0.12159697 0.0005022866 -0.06920982 0.098378606 0.0037640037 0.1623332 -0.02744731 -0.09021186 -0.16408475 -0.05493995 -0.03350561 -0.19942304 -0.14820887 0.07917347 0.088728786 0.05444071 0.060050324 -0.042820644 0.013336843 -0.029945921 0.2624741 0.22393674 -0.026872793 -0.004698516 0.0061669485 0.08617672 0.023912318 0.101163864 0.0034162751 0.075169966 0.108138524 0.06827983 0.21389212 0.04442561 -0.009667442 0.13584255 0.008573108 0.29312053 0.033530686 0.009773821 -0.14057729 -0.066226885 0.054746594 -0.19086783 -0.1378282 0.060115993 0.1781261 0.10481431 0.1725549 0.107301414 0.08393174 -0.048077744 0.2733651 0.019692812 -0.0030060008 -0.0051605827 0.13260768 0.03829649 0.10582184 -0.0034497571 0.05406187 -0.024707563 0.1086443 -0.06631238 0.2937179 0.019989112 -0.09838041 0.12567502 0.015468579 0.353839 -0.03548324 -0.043736175 -0.13656509 -0.022009885 -0.014787901 -0.08269429 -0.060054928 0.06539691 0.1373359 0.19030188 0.16224596 0.121639155 -0.1088212 0.10018885 0.315273 -0.08478464 -0.07571315 -0.12720586 0.18285954 -0.08419683 0.19501245 0.048137914 0.1697035 0.112320244 0.0009899039 -0.0013928361 0.30593866 -0.015609996 0.02943848 0.06910209 0.10047458 0.23133443 -0.03204762 0.03156921 -0.15921775 -0.003538582 0.10807799 -0.14458863 -0.0065351613 0.08350035 0.017649038 0.02655625 0.048374027 -0.07079797 -0.04804083 -0.103570156 0.18751845 0.12349109 -0.06868736 -0.15150388 0.006707299 0.036476124 0.17435563 0.093427494 0.022406116 -0.06277209 0.026630675 0.062516496 0.21190265 0.03806603 0.056455575 0.047001164 0.026569873 0.18113488 -0.014204791 -0.07906841 -0.24221958 -0.038484603 -0.10655583 -0.13254024 -0.040566746 -0.072626404 0.042278815 0.03836464 0.046841186 0.06736635 -0.011950712 0.017850896 0.15391968 0.10004652 -0.13291727 -0.06294647 -0.009201355 0.057660215 0.024110328 0.009007569 0.12055653 -0.036365665 0.028905986 -0.020200841 0.2835966 0.017685864 0.051459778 0.06269986 0.018683538 0.27555168 -0.04482407 -0.03845529 -0.092732064 -0.14090468 0.017690329 -0.119808175 -0.084570765 -0.03903099 0.012573214 0.14478645 0.025334766 -0.018614942 0.074593544 0.06803368 0.20034872 -0.013586747 -0.02077225 -0.107319966 0.08555441 -0.03207906 0.067428134 0.098765984 0.08630611 -0.059879627 0.06432546 -0.07699289 0.31313616 0.041509163 0.032992493 0.14851488 -0.045805205 0.26524904 0.011481967 -0.11491304 -0.06862047 -0.11491046 0.07588046 -0.04103281 -0.04113651 0.119530514 0.12977643 -0.028382454 0.03688644 0.042793673 -0.13016425 -0.11434071 0.19203287 -0.07047686 -0.11290075 -0.053323258 -0.084631786 
-0.03422079 0.07762486 -0.051815692 0.05432818 -0.007043182 -0.08002056 -0.05147589 0.06696435 -0.17956387 -0.068108775 0.069043815 0.06435589 0.13615404 -0.056560382 -0.14871487 -0.0013694412 -0.16567694 0.09342641 -0.09867941 0.022062203 -0.06373365 -0.026302002 0.041963764 -0.06433249 0.048586965 -0.09791193 -0.03632932 0.1379905 -0.091380544 0.23957305 -0.018997166 -0.10865309 0.022188932 0.050972003 0.04281426 -0.0010111672 0.084390886 -0.06595766 -0.05779161 0.13231839 -0.1265439 -0.053316463 0.15202898 0.18170173 0.12151558 -0.079610296 -0.005539723 -0.0795245 -0.0882426 -0.002286535 -0.037674904 0.03999322 -0.055714335 -0.09130983 -0.053215582 -0.0050025135 -0.12197466 -0.04788195 0.029736867 0.10608415 -0.066827826 0.13222407 -0.0709127 -0.07611111 -0.027363677 0.14551093 -0.060845908 0.020980742 -0.034417875 -0.061165653 0.06399692 0.19136305 -0.10999955 -0.07718215 0.024101468 0.11433507 0.00928918 -0.08862783 -0.039387513 -0.03751303 0.021690782 0.08326177 -0.105416566 -0.06976779 0.045901172 -0.042525806 -0.04301327 0.030192753 -0.057035547 0.022344511 -0.03960763 0.16154037 -0.04636976 0.0921807 -0.08313661 -0.039973065 -0.053072423 0.15315647 0.079182595 0.046059735 0.079703666 -0.024139663 -0.090192236 0.19557635 -0.17548318 -0.035174124 0.14811169 0.109827556 0.20505814 -0.00570982 -0.07402599 0.011114984 -0.12230976 0.0636498 -0.08175607 -0.011798104 -0.07962509 -0.03592541 0.045085028 0.06480993 -0.05908771 -0.05371544 -0.10393514 0.12682441 -0.09053695 0.22520964 -0.09052687 -0.13174169 -0.01901801 0.11705756 -0.029259196 0.040514093 0.08265943 -0.09258144 0.051102724 0.26777944 -0.080432646 0.004858102 0.2061761 0.13600254 0.17959692 0.01731516 -0.17187053 -0.088802956 -0.10695892 3.7892925e-05 0.05369969 0.105812564 0.05866575 -0.040743183 0.05750142 0.024925418 -0.07276094 -0.10260626 -0.07474583 0.043784413 -0.023528555 0.21888965 -0.10900356 0.021946698 0.010809614 0.099302486 -0.030121207 0.044858646 -0.052988473 0.02750414 -0.010722193 0.20734482 -0.1514997 0.038775668 0.18074009 0.19018875 0.17382766 -0.058508664 -0.10252638 0.049436703 -0.09999305 0.03981971 -0.034371972 0.039740454 0.02211576 -0.0124752475 -0.05696723 0.008822655 -0.13153797 -0.058831856 -0.0066380203 0.13283248 -0.042585704 0.039502114 -0.076481074 -0.017549736 -0.10610411 0.0948655 0.083000615 0.08975905 -0.03360671 0.010923751 0.026707046 0.097336024 -0.061574657 -0.014170818 0.08825046 0.19366618 0.10569679 -0.012157083 -0.1052065 0.023759369 -0.16118826 0.062009305 -0.07496284 0.01949006 0.0123739485 -0.07560669 0.0899944 0.10316857 -0.029308133 -0.13115609 -0.025278838 0.10356787 0.012299797 0.116447516 -0.034090545 -0.11917374 -0.10556982 0.09255243 0.017358223 0.033037677 -0.0056557087 -0.0737781 -0.048914574 0.20111585 -0.06369463 0.029458506 0.08277826 0.14233078 0.16377047 -0.052114442 -0.16763979 -0.060464352 -0.10911959 0.047776304 -0.1007277 0.042998347 0.0029490176 -0.066434175 0.06615584 0.048577018 -0.07321396 -0.09635112 -0.023284854 0.03669153 -0.09005207 0.18062833 0.026118245 -0.00863444 0.016134331 0.038686097 0.063232996 0.054048546 -0.0627916 0.059767842 -0.041499052 0.21492645 -0.10290738 0.08549365 0.053584523 0.1854641 0.14766611 0.0944103 -0.10338617 -0.07767744 -0.10568875 0.059572168 -0.00011892943 -0.04723542 0.045731507 0.06875255 0.08364568 0.067327276 -0.08908809 -0.064249635 -0.0043487125 0.029187845 -0.04203096 0.044761486 -0.09460006 -0.04837769 
-0.00521939 0.016126009 0.01855363 0.068898745 -0.045420785 -0.014982776 -0.014738922 0.00880004 -0.009180573 -0.06606846 0.08248699 -0.04809379 0.019844655 -0.072347924 0.13605261 -0.008037915 0.03938363 0.019101601 -0.033624012 0.055550154 0.03293543 0.018314237 0.029604962 -0.014358318 -0.012105718 -0.06094868 0.013584724 0.009944387 0.091218784 0.042210888 0.07290987 0.105688214 -0.0770218 0.08600381 0.026394663 0.11621582 0.07753798 0.18753563 -0.03742908 0.036323473 0.033587407 -0.054652445 0.004915127 -0.032793824 0.1467543 0.01677288 0.11814349 -0.04031091 0.088789314 -0.007874649 0.023023592 -0.029098751 0.06116993 0.04164065 0.080070026 0.07971596 0.004386769 0.048614126 0.020353056 0.13888402 0.083592944 -0.058028486 0.093830794 0.075374365 -0.024456546 0.032157306 0.024460679 -0.025855538 0.102940895 0.24068491 0.014718561 0.14466442 0.16127254 0.023881698 -0.051136803 -0.1093232 0.19547503 0.0875979 0.17389753 0.07633043 0.12292388 0.07515888 0.16237669 0.07114458 0.13836406 0.1759044 0.13152201 0.13341588 0.11039827 0.10004024 0.069558755 0.10142804 0.05550547 -0.10743196 0.13819121 0.07912265 -0.0470401 0.061719876 0.049563013 0.08135895 -0.025221555 0.053608693 -0.030668834 0.13149545 0.09008513 -0.038443193 0.04035924 -0.029261434 0.13391885 -0.0074279127 0.105350465 0.12256444 -0.044106286 -0.07597984 0.10964396 0.098291755 -0.011449826 0.08902006 -0.07384092 0.025690043 0.06306362 0.08204272 -0.05117597 0.065446444 0.019530132 -0.07467728 0.06355912 -0.0133776525 -0.007736061 -0.04429905 0.044566747 -0.094582126 -0.007778305 0.12752435 0.037068043 0.15716204 0.0049556373 -0.03164119 0.09256502 -0.069185935 0.07921369 0.01614968 0.061932288 0.051621232 -0.00073688524 -0.06652315 0.0814631 -0.010719406 0.15040715 0.038964596 0.02971933 -0.0483956 0.049139272 -0.07088508 -0.06295077 0.045858257 0.13290128 -0.07594645 0.07220541 -0.08080497 0.024245173 0.10196911 0.014294123 0.017552013 -0.059831537 0.049947884 0.09486281 -0.013484246 0.15432878 0.036711596 0.04533993 0.045433655 -0.030786227 0.12888879 -0.01747717 -0.023047006 0.09769567 -0.12970549 0.0546796 0.03270048 0.029949008 0.020937437 -0.05749486 -0.030245708 -0.08422657 0.045037646 0.03467848 -0.0761604 0.037171368 -0.023873115 0.032340243 0.002202958 -0.08431595 -0.0024345038 0.036942348 0.008904808 0.06657192 -0.039831188 0.07271458 0.02055016 0.03711506 -0.049643643 0.036688615 0.074130215 -0.05693729 0.050567757 0.02196015 -0.005947593 -0.049646523 -0.04281325 -0.076823205 -0.03497963 -0.018084353 0.05713224 -0.034454387 0.05724172 -0.14479338 -0.048644774 -0.04714662 0.06099069 0.027340189 -0.0995359 0.043103803 -0.047339857 -0.02366989 -0.012164724 0.0036269068 -0.017501572 -0.045870174 -0.09300084 0.08365949 -0.04207532 0.13699071 -0.03693984 -0.017426714 -0.04828343 -0.03510309 0.07663611 0.023482138 -0.07336471 -0.06713585 0.018054124 -0.03940077 0.045978524 -0.10720424 0.04178165 -0.048689146 0.05901354 -0.12840062 0.07867532 0.09360433 -0.039239325 0.0066376734 -0.024859704 0.004244036 -0.096281715 0.06770424 -0.01723342 0.11821199 0.025091603 -0.037072018 -0.047552027 0.08055488 0.087917544 0.1675501 0.12406974 -0.01605556 0.023217095 0.022035496 0.07677287 -0.06135381 -0.03251467 0.0748424 -0.08107825 0.030388473 0.047693122 -0.07579915 0.041673683 -0.076206945 0.05504237 -0.03838968 0.04667064 0.124241956 0.05180836 0.1550257 -0.15172578 0.020143868 -0.040761426 
0.037736487 -0.0015773694 -0.040644553 -0.008893682 -0.08764603 0.03126861 -0.0024653873 -0.062126204 0.044129435 0.09929641 0.03683365 0.13186021 -0.1570667 0.0109358635 -0.08546427 0.089101024 -0.028049957 0.007902357 -0.023287922 0.03129263 -0.11479388 -0.0133626 -0.01723916 -0.07994688 0.06646426 0.14544766 0.1494797 -0.15018873 -0.037876252 0.070961356 0.001205358 0.06969916 0.12460182 -0.011648188 0.0019802086 -0.0122068785 0.011143686 0.012794307 0.117725044 -0.018981792 -0.049967464 0.00013787451 0.094421044 0.16511448 -0.1294758 0.045184333 -0.10440699 0.010117091 -0.05125356 0.013192432 0.14244615 0.08029161 -0.034932155 -0.031712536 -0.008116015 0.036071204 -0.006639066 0.08133453 0.16495101 0.010997531 0.16129453 0.19674842 0.05438084 0.08517433 -0.008942702 0.098177694 0.06592951 0.05302561 -0.071950525 0.029115476 0.07187487 0.018819027 -0.001319817 0.04301199 -0.029711805 0.119502455 0.028109027 0.017908622 -0.11255404 0.100978054 0.08807786 -0.051889334 -0.008692751 0.020331848 -0.015477228 -0.029802265 0.022866134 -0.031661514 0.06396298 0.12739117 0.16509718 0.029514715 0.04193655 0.18357104 -0.040941924 -0.0030964336 -0.021881195 0.08568346 0.06881962 -0.048955776 -0.0661338 0.013791717 -0.0043932833 -0.011964793 -0.035810906 0.069081396 0.12326668 0.13649073 -0.038107358 0.09486231 -0.012416609 0.090034224 -0.018333992 0.03558071 0.06521225 0.07899301 -0.022807196 -0.103869036 -0.05790842 -0.048974305 0.090196945 0.04816181 0.16704915 0.0016773739 0.059689194 0.11066317 -0.0043784855 0.13948986 0.021266844 0.10518888 -0.004302636 0.1281025 0.1150433 0.011777149 0.083315335 0.044129133 -0.11803888 0.018148094 0.041418776 0.23172003 -0.05079305 -0.035165917 -0.023679234 0.18052222 0.022743482 0.01731972 0.15246086 0.103912875 -0.096429035 0.0019254249 0.023535969 0.026317988 0.10742537 0.121525384 0.060704414 0.06842688 0.09162439 0.17602943 0.023302335 0.08137682 0.0135074835 0.16648564 -0.030863388 0.13543025 0.07983144 -0.011134575 0.015948728 0.08042961 -0.013251601 -0.057773974 0.07013658 0.0990039 0.02541182 -0.07583665 -0.049514636 0.0057612015 0.057269678 0.12153307 0.1760179 0.017842181 -0.04509337 0.04325847 -0.04868965 0.035512857 -0.026130982 -0.0102689015 0.14286302 0.18913111 0.12194641 0.24318093 0.07846268 0.14966252 0.0807934 0.064502604 -0.05328446 0.07200113 0.030241497 0.03659108 0.0820912 0.037572406 0.035792273 0.018831167 0.114851005 0.10399342 0.0073411786 -0.011777076 -0.067019284 0.07283483 -0.03544245 0.075339064 0.09409626 0.010341582 -0.024400227 0.013671982 0.090517454 0.044324256 0.17485704 0.06026817 0.06441003 0.026877498 -0.014598028 0.13360295 0.109449595 0.005110955 -0.021985298 0.07915835 -0.035181202 0.16148606 0.12587048 0.012997501 -0.011756233 0.15403153 -0.13454705 0.017651299 0.04239359 0.18496695 0.08194612 0.002473905 0.021684667 0.025415532 -0.03883617 0.1640886 0.1490347 0.13681875 -0.08011065 -0.080226526 -0.04200458 0.064277574 0.17431808 0.028625738 -0.010170342 0.06624718 0.08796711 0.19588979 0.13590056 0.13958004 -0.06475554 -0.014099708 -0.10501294 0.020154642 0.015165538 -0.04002749 -0.028064903 0.019788206 -0.014313206 -0.09283588 0.088566504 0.07005321 0.024033945 0.003206837 0.06505538 -0.012800178 0.09301762 0.15999779 0.05827513 -0.021688517 0.068714954 0.027138077 0.043739103 0.025072124 0.08683205 0.087056346 0.05088579 0.01105201 -0.03435548 0.22332369 0.083363764 0.008706236 
0.037192058 0.028774284 -0.052582867 -0.07634788 -0.06432292 0.004318473 -0.006370973 -0.04042681 0.15463825 0.02472268 -0.026776196 -0.031314895 0.042195167 0.06418767 0.06848684 0.067209035 0.06129442 -0.029373297 -0.018598758 -0.08778676 -0.036660515 0.07219325 -0.03786118 -0.058942676 -0.035595827 0.19687614 0.13745788 0.029452218 0.06980714 -0.19350702 0.009977532 0.074484415 0.103709735 0.08592773 0.06748033 -0.02049489 -0.068301246 0.06552481 -0.006106596 -0.13899224 0.25204024 0.071933724 0.041875683 -0.0566351 -0.10999313 0.064921014 0.16243121 -0.04532667 0.08202452 -0.091316484 -0.13743396 -0.0006676459 -0.05159361 0.01774308 0.032986514 0.022247091 -0.02618234 0.08960199 0.11171288 0.036693923 0.16084757 -0.13889027 -0.053309754 -0.0003080652 0.08030029 0.05484908 0.10177611 0.046731964 -0.11995151 0.024575971 0.06471429 -0.11482144 0.15404782 0.0369323 -0.093032196 -0.16448815 -0.010881423 0.10229527 0.095661804 -0.012364802 0.07386563 -0.09317952 -0.08539179 -0.013764438 -0.004898679 0.060182247 0.09083285 0.04273759 0.069501646 0.1721138 0.1462564 0.046883322 0.31065106 -0.2149887 -0.041902993 0.1363638 -0.0013196887 0.03734456 -0.014639218 0.08980126 0.07921834 0.02945193 -0.018627277 -0.023588296 0.08672553 -0.020295974 -0.062904686 -0.12446324 -0.12730624 0.027253672 0.13629644 -0.061215114 0.008472221 -0.023958461 -0.032405343 0.009450045 -0.053428806 0.019335838 -0.12671064 -0.028187504 -0.026494965 0.11292279 0.111334905 0.06602961 0.10061171 -0.040068273 0.048420474 0.116227426 0.031325165 -0.07807864 -0.052651335 -0.06392925 0.07602436 0.09324582 0.013825806 -0.07701712 0.11110234 0.04945203 -0.03982104 -0.08618174 -0.03819303 -0.029930301 0.11126611 0.04822326 0.10228624 -0.07121273 0.025835732 -0.07681301 0.047062155 0.11318967 0.026279898 0.034883544 0.038625203 0.07736831 0.066835515 0.07192519 0.15464748 -0.04970094 0.04956416 0.087648526 -0.04625421 0.039044064 0.02296027 0.006029588 0.020142017 0.011925791 0.013694313 -0.12093198 0.13465986 0.056030735 -0.00926899 -0.13738321 0.04585725 0.014385398 0.20572492 -0.07154705 0.20007786 -0.031951394 -0.112164624 -0.02967626 -0.013945279 0.068141975 0.029712316 -0.06674608 0.017132334 0.14919947 0.012777768 0.12201611 0.2135472 -0.10466844 -0.038746145 0.061292477 -0.016697383 -0.098593205 -0.08560021 -0.061543874 -0.025008034 0.046587173 0.07943895 -0.104334846 -0.024671027 0.02198465 -0.036349967 -0.109199554 -0.00247919 -0.010946676 0.051155973 0.06406419 0.085120514 0.069946125 0.03261998 0.087046266 -0.032800067 -0.032680653 -0.1586305 -0.05104929 0.10740902 0.00021522655 0.014358375 -0.14020348 -0.12074853 -0.031045545 0.025461707 0.043731585 0.008320943 -0.1630092 -0.011148512 0.014515508 0.091069475 0.12983333 0.025877986 -0.081632175 0.09863947 -0.031896107 -0.15944298 -0.14066812 0.052823212 -0.025590768 0.2113775 0.034117304 0.12164844 0.05728482 -0.037260804 -0.08841108 0.008181195 -0.090847775 -0.05344136 -0.11276152 -0.027994871 -0.006893987 -0.01945056 0.015627246 0.028237423 -0.030536337 0.06601487 -0.023149531 -0.11380891 -0.02063025 0.0017090314 0.070393294 0.054114457 -0.016128918 0.10374133 -0.12270797 0.114780955 -0.022587406 -0.10413087 -0.13446595 0.06023692 0.04297734 0.16135004 -0.03708803 0.11227065 -0.03737913 0.012821825 -0.07672976 -0.026050482 -0.040794566 -0.023722328 -0.0145866 0.0368798 0.023306767 -0.042544667 0.002773915 0.11336317 -0.16280138 0.07144666 -0.0873542 
-0.09746882 0.07535852 0.04540628 0.032836434 0.10308958 0.003062489 0.07716992 0.13088523 -0.07708139 0.053607494 0.050145805 0.13304178 -0.020442974 0.016035298 -0.05367109 0.24973208 -0.06497872 0.16049327 0.17615859 0.12359392 -0.02750459 -0.0790907 0.090979636 0.06925351 0.05220274 -0.13225766 0.06379221 -0.12873651 0.030715251 0.24258511 0.1623969 -0.043839674 -0.059897013 0.09800427 -0.102380656 0.030050458 0.07334021 0.16134016 0.07333261 0.16057009 -0.14776179 0.015364224 0.0007478625 0.2882921 -0.03412669 0.0755688 -0.02967732 0.25665995 0.035192966 0.15211174 0.38269687 0.26040187 0.03603663 -0.0016814189 0.09335985 0.05080706 0.07583619 -0.06787072 0.0728801 -0.16143294 -0.048739936 0.31629404 0.24941443 0.08444048 -0.031991135 0.026498362 -0.103357814 0.048479702 0.02944244 0.04732478 -0.023716599 0.16169877 -0.08870982 0.046403132 -0.0073265354 0.14843218 -0.014243568 0.008136223 -0.09147896 0.16538775 0.0657187 0.19295488 0.2527519 0.12506703 0.013819163 -0.01588879 0.04763213 0.0836126 0.05071094 -0.06879843 0.013552056 -0.030058268 -0.012944934 0.21267326 0.22344197 0.002344057 -0.04670529 -0.06926636 -0.08114291 -0.105367854 0.04970938 0.0040693325 -0.017043805 -0.03550675 -0.0819037 -0.055558555 -0.06481655 0.059864577 -0.094893046 0.063994125 0.044959508 0.12337211 -0.004272525 0.012643075 0.25219992 0.113050014 0.0044004223 0.0638702 -0.02044923 0.039205298 0.057137843 0.0017400639 -0.04487592 -0.13306955 -0.12996864 0.10671046 0.05642841 -0.043010335 -0.021903783 -0.14383496 0.0010506541 -0.016994204 0.013120818 0.04047217 0.06509423 -0.13530695 0.019098915 0.015202153 -0.041318905 0.16296029 -0.2300378 -0.05197044 0.05419716 0.27203387 0.11017473 0.07917715 0.3321186 0.104253784 -0.032900143 -0.05398528 -0.08179334 -0.08717394 0.008106798 0.017276028 0.053690553 -0.24966381 -0.0946835 0.094048135 0.10175095 -0.12800804 -0.10928433 -0.10379587 0.023880623 -0.09640661 -0.07317626 0.10394565 0.06111857 -0.10101446 -0.017595097 0.054766476 -0.04161864 0.035439894 -0.20334977 0.08460846 0.028072095 0.22931305 0.04680607 0.024933144 0.16214219 0.093759224 -0.08023841 0.0359995 -0.054784797 -0.010071855 0.061363935 -0.041745353 0.029523928 -0.16403121 -0.1227344 0.14960766 0.16463184 -0.1262161 -0.036045454 -0.12760308 0.05529041 0.0066806553 -0.016170276 0.04013126 -0.034618776 -0.054156277 -0.0008426483 -0.010407464 -0.12662403 0.04785091 -0.18869148 0.024022177 0.063279375 0.19252233 0.04490048 -0.02430634 0.207797 0.08441062 0.0017263836 -0.0027537746 -0.09331422 -0.022385485 -0.043540046 -0.05649293 -0.0076914355 -0.1433765 -0.02238258 0.057596684 0.11675291 0.015031072 0.029511558 -0.14138697 0.029723503 -0.12957507 -0.00751882 0.0526065 0.04917453 -0.18978438 0.09305517 0.04042846 -0.12072625 -0.00621893 -0.21581344 -0.0030379943 0.078928284 0.26797658 0.15409747 -0.035112448 0.22956125 0.08887256 -0.11116213 -0.062863916 -0.08571844 -0.043957643 -0.027626872 0.05372207 -0.027556093 -0.27939665 -0.06349157 0.019686596 0.11305359 -0.08601795 -0.076323316 -0.08703044 -0.069336995 -0.082715124 -0.056393445 0.10158895 0.06629836 -0.15525621 0.06622398 0.014760736 -0.09716561 -0.024191825 -0.117297314 0.051176824 0.004544684 0.26362553 0.10380313 0.044888467 0.22259462 0.10547825 -0.01870942 -0.08195818 -0.07984041 0.026262194 -0.00023705658 0.014883959 -0.015504489 -0.24249281 -0.15653184 0.040075466 0.1852799 -0.109305546 
0.04342435 0.0017292404 -0.001134496 0.046324532 -0.0069571403 0.10564964 0.07586716 0.07877268 0.14791583 -0.042493347 0.07242647 -0.13472705 0.16853853 0.049228515 0.13798445 -0.034910984 0.01630648 -0.026950428 -0.1385264 -0.15668099 0.048586555 0.12938637 0.16762394 0.100974455 0.14286791 0.042626515 0.09958635 0.10108187 -0.022972265 -0.11024708 0.066559866 0.070820615 0.032191228 0.055708732 -0.07485319 0.05801073 0.0008320354 0.096281126 0.041428015 -0.014092933 0.09537631 -0.061605915 0.035360996 -0.20069325 0.2550694 0.020806296 0.096263915 -0.15157308 0.06999418 -0.009281898 -0.12159731 -0.09170317 0.05860561 -0.005623948 0.20616531 0.057177152 0.100668386 0.11729468 -0.00806853 0.18449602 0.07905565 -0.106356785 0.03975811 0.13140312 0.020896418 0.050778672 -0.05376432 0.14910957 0.1072353 0.039701514 0.03446098 0.10467778 0.019528227 -0.10243867 -0.10116753 -0.15384251 0.21900332 -0.11037393 0.037548326 -0.12857212 -0.0067463038 0.030552706 -0.16535264 -0.05636983 -0.022316895 0.1128497 0.058165126 0.052998316 0.07951458 0.007935437 -0.052167818 0.13791218 0.12130568 -0.1354374 -0.01100867 0.11232305 0.03391595 0.06696492 -0.041929275 0.084414266 -0.04977416 0.0092963725 0.037839416 0.014851123 0.03891583 -0.046529353 0.057956316 -0.14256711 0.08538275 -0.011436894 0.12306573 -0.07319554 -0.019667659 -0.017308764 0.024505533 -0.07734898 0.060677104 0.06698365 -0.010544087 0.04873077 0.0012039344 0.14201948 0.01695906 0.08804777 0.09711266 -0.092674725 -0.04370051 0.086701035 0.09663502 0.028441899 -0.032988086 0.082327135 0.09117755 0.17654069 0.05182996 0.17767996 0.06812827 -0.008634047 0.07203378 -0.148853 0.13130859 0.09368075 0.051065404 0.01615691 -0.008120107 -0.059435185 -0.04290616 -0.060073577 0.053568903 0.16197583 0.038817212 0.055736106 0.16532515 0.10277427 -0.06112636 0.18058701 0.003996932 -0.036549054 0.089601696 0.12690596 -0.022502864 -0.07211173 -0.01946073 0.11729346 0.11653903 0.18526585 -0.025924154 0.07481269 0.0033673095 0.013310235 -0.051955238 -0.04548279 0.19246663 -0.09172409 0.07933658 -0.075977795 0.08229198 0.037722904 -0.10852394 -0.052721735 0.14509174 0.087472394 0.19067687 0.09639951 0.10426031 -0.049179066 0.06542052 0.16166395 -0.14842762 -0.08459472 -0.042693842 0.08391221 0.010121693 0.008334247 0.010794747 -0.016747847 0.020077864 -0.053815298 0.05623954 -0.017486954 0.12185456 0.08432907 -0.052598365 -0.11752067 0.05304867 0.10468457 0.076960914 0.04978774 -0.09079486 -0.08937152 -0.06576021 -0.051988434 -0.08066073 0.019449303 -0.044299632 -0.075839646 -0.0055805854 0.046455562 -0.071950756 0.078712896 -0.09141719 -0.1708086 0.091030136 -0.004558972 0.04854472 0.0686007 0.1012221 -0.10401683 -0.015775705 -0.005048686 0.05332289 0.16189502 0.022450257 0.09877178 0.09764484 -0.09870001 0.13463604 0.09518717 -0.045504868 0.041683808 0.042098705 -0.10910035 -0.10068747 0.10244442 0.030693527 0.035221163 -0.015966652 0.13355473 -0.045843393 0.06905163 0.104737476 0.048224848 0.022275934 -0.107186176 -0.009581794 -0.0032129036 0.118895635 -0.054874122 0.109997466 0.06120329 -0.05317743 0.041563388 0.07587857 0.06461435 -0.01754898 -0.010998158 0.10308768 0.024800794 0.13475513 -0.03994499 0.08195333 0.052802797 -0.07180356 -0.10688478 -0.015679564 0.043672882 0.019373106 -0.009678169 0.04892396 0.064138256 0.116805375 0.008397994 0.081013285 0.010156713 -0.0853385 -0.09794487 0.040287107 0.023603244 
-0.065401286 -0.0712652 0.029952684 0.10101978 0.07708143 0.12157123 -0.027560025 0.046482693 -0.05452565 0.020816538 -0.018901736 0.08537565 -0.008724593 0.0072535197 0.10596523 -0.005518439 0.07742785 -0.00047757823 0.04558031 -0.083520204 0.023744179 0.11956399 0.08904214 0.0675957 0.023423025 -0.07315475 -0.10300418 0.017676203 0.014247077 0.05183756 0.0012178778 -0.049653053 0.029160433 -0.026427135 0.024719518 0.038286753 0.107555486 0.035621095 -0.026701288 0.07691544 0.03421221 0.047651224 0.115017265 0.10496194 0.090808034 -0.017557694 0.009471222 0.07505967 0.07215026 0.06969146 0.11258887 0.030758118 0.03930933 0.05506456 -0.033356145 0.04134665 0.086444356 -0.0002686901 -0.050222524 -0.012551183 0.12735723 0.15654589 0.14023867 0.0283351 -0.028444594 -0.042814065 0.013497703 0.07370228 0.0095899915 0.06995915 0.070823915 0.044916857 -0.004497109 0.047562648 0.052018978 0.093508005 -0.027314553 0.0494336 0.07750299 0.08817003 0.038619183 0.07463301 0.18812925 -0.03651174 0.1395514 0.14328803 0.087981805 0.1060365 0.0039031473 0.094733045 -0.039952744 0.011439925 0.087932184 0.057931036 0.0974533 -0.02514076 0.024549501 0.09505082 0.0071349554 0.053536464 0.11063208 0.09377986 0.058224685 0.17258105 -0.07842229 -0.017501796 0.011083978 0.20982902 0.061523102 -0.055555027 0.041348863 0.068907484 0.047642842 0.0021279603 0.13927639 -0.018468333 0.0351082 0.002762685 0.0852228 -0.03221802 -0.05153399 -0.06453822 -0.020937674 0.15518403 0.2086541 0.1440766 0.07516752 0.038864926 0.097029306 0.061982192 0.05804025 -0.038313508 0.04912075 0.0371374 0.056801215 0.21839535 -0.047831047 0.043567803 0.1783389 0.15971737 0.039414093 0.07129428 -0.08047183 0.23146419 0.0721711 0.13062032 0.21445057 0.10519818 0.08629123 0.107467696 -0.016933788 0.042977344 0.02505688 0.005534049 0.064383306 0.07737776 0.17368002 0.21869098 0.16504705 0.13909864 -0.034879744 0.04356089 0.030033642 0.005195157 -0.07210806 0.13739397 0.05707247 0.19764224 -0.045827672 0.024419125 0.13851202 0.11720136 -0.055827413 0.052675914 -0.09016454 0.1829551 0.10164255 0.088105604 0.20663673 0.07568674 0.10249481 0.12456841 0.089135304 0.09564811 -0.03974494 -0.012403186 0.02061055 0.1193618 0.042320795 0.12998275 0.14369464 -0.032902192 -0.056187432 0.14237562 0.090336055 0.0846479 -0.0046585617 0.023227263 -0.009860154 0.11886629 -0.087137826 0.017562943 0.034919683 0.22767217 0.084851295 0.052898865 -0.038953733 0.119679965 0.090508744 0.13458028 0.10931576 0.109665535 0.025624512 0.12516789 -0.0017273908 0.10457767 -0.03539003 0.04497561 -0.023150207 -0.038077176 0.021442056 0.049357463 0.08365055 0.05259852 0.100191794 0.14683418 0.04972098 -0.06791384 -0.064579174 0.078994505 0.09776257 0.10907771 -0.025806861 0.05560754 0.12352872 0.12555793 0.052775625 0.026491743 -0.088434435 0.20407249 0.08532772 0.072688766 0.16740556 0.15379637 0.060121916 0.02959037 0.03635754 0.0788776 -0.052659243 -0.0003656632 0.03066131 0.05622458 0.09187336 0.10212386 0.19447796 0.07128237 0.07270297 -0.011316505 0.10978764 -0.077063166 0.02192447 0.030949578 0.035829253 0.098933116 0.04426791 0.07550918 0.013776547 0.1888015 -0.06403024 0.03329824 -0.10142505 0.070525505 0.081098914 0.06404966 0.062691376 0.028165268 0.11402205 0.07170105 -0.006655669 0.047758102 0.07005336 0.03151503 0.09630625 0.021329256 -0.04618829 0.12871864 0.089046836 -0.042726163 
0.12324681 0.0817109 0.08653077 0.058148053 -0.039221223 0.023182126 0.08786515 0.06630807 0.12445057 0.017822353 0.044865567 -0.11610016 0.12048163 -0.064092845 -0.06669301 -0.18970963 0.015604751 -0.09910374 -0.23782243 -0.109640434 0.03449267 0.0871105 0.037694503 0.1205879 0.07358849 -0.011538 0.0036865145 0.21731418 0.10596772 -0.19126225 -0.07398352 -0.003373638 0.11477056 -0.0015813228 0.054905355 0.13183108 0.091821186 -0.023469264 -0.021909654 0.036723495 0.07776279 0.013738334 -0.052715044 -0.09929795 0.10750665 -0.009695902 0.10447358 -0.26245108 -0.049432144 -0.096553564 -0.16518728 -0.10850593 0.09008597 -0.03650867 0.16455136 0.13161416 0.13121061 -0.035524588 0.090702474 0.25486526 -0.07703312 -0.14994888 -0.1493252 0.10994689 -0.08084744 -0.011914307 -0.05960674 0.12126094 0.033847474 0.09896986 -0.05031226 -0.018860567 0.04921685 -0.06965236 -0.03896334 -0.06082783 0.12038025 -0.039075535 0.02616831 -0.16220574 0.09908404 -0.09770294 -0.2204692 -0.18457943 0.07714256 0.08844794 -0.0102916155 -0.063972436 -0.014987766 -0.0011723137 -0.04076827 0.23955846 0.033825878 -0.21161285 -0.06898178 -0.036225364 -0.04067231 0.03318823 -0.032477576 -0.05136406 0.026770202 0.013267022 -0.048450526 -0.0025655308 0.099415645 -0.06401519 0.067196034 -0.08495465 0.17158799 0.059567627 -0.024577424 -0.15980768 -0.06869541 -0.06857237 -0.23842497 -0.14654765 -0.042920444 0.060842242 -0.007331818 -0.0100855585 -0.07122863 0.013877096 -0.046813507 0.11195764 -0.07476243 -0.094723575 -0.066152126 -0.03315092 0.012591992 -0.06422493 -0.047765814 -0.031654373 0.07407794 0.032098122 -0.013108737 -0.0022910335 -0.023698376 -0.041860603 -0.025096323 -0.17780212 0.09971061 -0.012219494 -0.03435164 -0.19086659 0.011852825 -0.095170006 -0.19970912 -0.0750764 0.029603947 0.12567951 0.06930256 0.043187737 0.0929781 0.10097973 0.03379197 0.20827806 -0.14967485 -0.07042469 -0.1315499 0.10188725 0.0011893983 -0.1072812 -0.05691651 0.0581674 -0.055561114 0.08130265 0.02882568 0.082664885 0.06118611 -0.05009832 -0.010538677 -0.09628847 0.20952345 -0.08674785 0.019866774 -0.12284199 0.018507576 -0.096195854 -0.19383334 -0.1206924 0.08140902 0.13176942 0.09156417 0.062250428 0.04047326 -0.09956998 -0.13619228 0.09559975 -0.17193463 -0.09153758 -0.06810728 0.04352281 -0.10016684 0.01907942 0.016278895 0.043337516 -0.06717347 -0.053440686 -0.0022080415 0.019538788 0.09610875 -0.034135856 -0.03292734 -0.15800035 0.021666352 -0.020586101 -0.040369228 -0.2341129 -0.010903087 -0.04433135 -0.17118599 -0.00034969207 -0.085603416 -0.018663174 -0.0015748892 -0.09667888 -0.08086281 -0.10304362 -0.12781723 -0.03429016 -0.11346743 -0.12122803 -0.066899724 -0.13885245 0.014692855 -0.07333092 -0.012985069 0.0012378797 -0.0734054 -0.09202543 -0.018275395 0.08571171 0.047683112 0.058974706 -0.074341 -0.14148484 0.044831887 0.06014564 -0.09391034 -0.14549391 -0.066876814 -0.072323896 -0.20083201 -0.13360268 0.006985983 0.027621081 -0.03840763 0.059971333 -0.12502836 0.04234995 -0.11948007 0.006726274 -0.14620362 -0.09680329 -0.012765705 -0.04847825 0.040801775 -0.092309386 -0.011300232 0.08578496 0.032738645 0.0073880674 -0.08968917 -0.026484456 -0.035150632 -0.036070433 -0.077118516 -0.04557007 0.1565702 0.04675416 0.014575547 -0.1813683 -0.058694806 -0.100861154 -0.15382516 -0.01081671 -0.048945554 0.024097998 -0.104956545 0.01247172 -0.05406097 -0.11462233 -0.017120184 0.055561043 -0.15717736 -0.18841857 -0.15580092 -0.01825862 
-0.07440672 0.037229292 0.019028064 0.07815682 0.096679784 -0.0046338947 0.1002225 0.16152942 -0.10674136 0.03152593 0.17431298 0.17164128 0.13884366 0.0069867307 -0.07351451 0.16236386 -0.10525846 0.021146972 0.14733675 0.07659888 0.02149825 0.0012858352 0.029921087 -0.009145703 0.05163943 0.021884535 0.009583264 0.03755419 -0.0028486066 0.26729506 0.14287943 0.06289265 0.08500949 0.16603616 -0.06169569 0.05578852 0.11160775 0.046144556 0.0034867194 0.076513 -0.12169887 -0.0098294085 0.17155007 0.2024914 0.048248336 -0.042234257 -0.13227719 0.13069072 -0.04400914 0.14725713 0.10644053 0.15321471 -0.024163038 0.01942701 0.0743629 -0.01537045 0.007219742 -0.062934585 0.011298741 0.008569651 -0.00025684037 0.2686218 0.06586221 -0.056217346 -0.03586907 0.14511943 0.08140601 0.094533004 0.085333206 -0.03628843 0.022849353 0.09496795 -0.04429035 -0.035212763 0.12555234 0.2557742 0.109502435 -0.07164756 -0.014374894 0.054991666 -0.007270252 0.08224078 0.09217054 0.13131578 0.08910868 0.008255431 -0.017810108 0.0016596959 -0.0058630984 0.02270471 -0.025008116 0.052005067 0.07809962 0.18112214 0.13548702 0.060586087 0.05210589 0.08343352 -0.051575888 0.032165583 0.059027348 -0.09423169 -0.011688909 0.14689116 -0.06758915 0.0013682157 0.060279526 0.1440885 0.06484733 0.008460607 -0.046024356 0.11113151 -0.03982033 0.05185005 0.0142334895 -0.03059379 -0.0688747 -0.10304049 -0.030833278 0.015577536 0.004832573 -0.078862034 -0.012422647 -0.017486949 -0.07960555 0.16109195 0.02627419 0.002729245 -0.016278444 0.02817304 0.033790246 0.061378114 -0.0012844738 0.06756431 0.032263037 0.12018111 -0.16665198 -0.037405416 0.18950602 0.21860024 0.07837667 0.08222749 -0.087849595 0.15820809 -0.11049051 0.0107423905 0.04554586 0.0028275878 0.08572602 -0.03640989 -0.046715837 0.10455553 -0.0029059665 0.035300113 -0.0034256564 0.06333324 -0.0739047 0.15379712 0.010683012 -0.04211444 0.045907162 0.07844654 0.07967888 -0.00034517655 -0.046779063 0.045350704 -0.02921132 0.18435848 -0.15927286 0.078053035 0.08171483 0.21385106 0.10723021 0.011447689 -0.13768692 0.09016806 -0.08717202 0.008792049 0.10233096 -0.0031595496 0.032960635 0.051950287 -0.035304222 -0.031119736 -0.023293309 -0.108434655 -0.07867285 0.05230255 -0.077457145 0.16001791 -0.0033116485 -0.020366566 -0.054099467 0.08978469 0.09911322 -0.05775419 -0.02173658 -0.017186655 0.0167005 0.15148336 -0.120147645 0.03426505 0.14594178 0.13572814 -0.024054589 0.054269418 -0.10927699 -0.04920986 -0.07945344 -0.02405389 -0.06721005 -0.04015907 -0.024972891 -0.071254216 0.07625369 -0.011895296 0.049285427 -0.077777706 -0.11002365 -0.08384721 -0.031415455 0.13181019 -0.07084786 -0.07023058 0.044342373 0.08412587 -0.0037925441 0.011339778 -0.09536594 -0.07358145 -0.09535353 0.0042380444 -0.031719305 0.07141175 0.069699824 0.101929344 -0.047174 -0.032363724 -0.085204065 0.04759656 -0.09692115 -0.03520638 -0.065615945 0.07842391 0.051236957 0.034882527 -0.08018465 -0.022863135 -0.14422922 -0.052102745 -0.021632712 -0.06500959 -0.08033998 0.0033924747 0.042112 -0.12397724 0.0014326702 -0.012029105 0.044889838 -0.040377125 -0.08012907 -0.053872578 -0.07678272 0.0875354 -0.12470766 0.022665475 0.04949061 0.13977303 0.06445507 -0.016669428 -0.05417047 -0.09934813 0.023578487 -0.05208916 0.0026534908 -0.06925533 -0.011624865 -0.073658004 0.05875692 0.013579278 -0.011656257 -0.027882567 -0.024668802 -0.032090932 -0.083191864 0.13100427 -0.057412244 -0.0034681086 
0.026722662 0.032091267 -0.030934228 0.14690177 0.049285986 0.0024168338 -0.09299346 0.1215408 -0.05815999 -0.035442144 0.077714846 0.11519475 0.21205801 -0.09449698 -0.0744359 0.003994447 0.041821484 0.15577248 0.058247134 -0.073165596 0.05062887 -0.029921552 0.03715845 0.11223184 0.05650009 -0.1137442 -0.058436416 0.1647596 0.002459509 0.15227611 -0.05637477 -0.032719713 -0.0040651574 0.16265905 0.08297133 0.104288355 0.116333574 0.061606005 -0.098503314 0.15849072 -0.03499981 -0.0046894867 0.13481489 0.2153747 0.3157486 0.06060893 -0.0056067435 0.07003674 -0.026294576 0.11014982 0.02300283 0.06438107 -0.013958745 0.008653679 0.10579159 0.046545718 -0.00095836236 0.022622343 0.017004905 0.17706724 0.038292732 0.111707844 -0.061763156 0.09889883 0.030159865 0.014138492 -0.04089857 0.12141917 0.11835044 0.058803674 0.029501444 0.26545435 -0.122416615 -0.052428246 0.093324795 0.22637202 0.13464653 0.039681725 -0.09319949 -0.0147358645 0.03320651 0.16750847 0.040061336 0.107554466 0.111121036 0.09305931 0.04698693 0.08045167 0.065365724 -0.05143173 -0.09459106 0.12239515 0.12355577 0.1103301 -0.025913864 0.047308117 0.05988715 0.040335152 -0.040329758 0.032043587 0.05998518 0.06773298 -0.009868987 0.17469965 0.0031409492 -0.0849232 0.11669694 0.034425084 0.16838397 -0.050356828 0.059109993 -0.015393583 0.044415325 0.08618103 0.09398296 0.08751724 0.033965543 0.04890396 0.07470742 -0.0047329017 0.0023122744 -0.09836335 -0.092152104 0.17672497 -0.043231785 0.085433245 0.061186045 0.027460786 0.038739208 0.044061333 -0.0001258364 0.0013523151 -0.042472895 0.039356098 -0.056648683 0.24841115 -0.007488777 0.020478936 0.11883702 0.08958285 0.20542696 0.028132048 -0.040997036 0.06251544 -0.005438327 0.076840796 0.038170077 -0.014209534 0.09462564 0.04925218 0.14239451 0.14958559 -0.011708031 -0.029431883 -0.007311099 0.21339738 0.004960212 0.08860103 0.088073716 0.067190774 0.021119846 0.12722151 -0.035138335 0.053692784 0.05223058 0.14563455 0.046171036 0.11935326 -0.12099193 -0.08811116 0.15799335 0.1747346 0.15561353 -0.008910406 -0.06699099 0.0500694 -0.024165511 0.038861837 0.057161156 -0.029625716 0.14315724 0.021377658 0.03379408 0.02002702 -0.043307457 -0.0015154679 -0.065387435 0.119836405 -0.035607994 0.10079211 -0.006946369 -0.061499257 -0.05749826 0.06405046 -0.011247923 -0.021459322 -0.06597753 0.089020416 -0.07848823 0.0122797955 0.040256377 0.03334474 0.071997985 0.007306409 0.041468903 -0.078353055 0.020016778 0.061846204 -0.023733169 -0.025322199 0.04720806 -0.063526854 0.058351126 0.07385949 0.12663129 0.05042896 0.060959958 0.041493364 -0.11750982 -0.05272908 -0.08360024 0.08142112 -0.04689464 -0.02517556 0.009112023 0.088450186 -0.016302755 -0.04631397 0.074601345 0.0826006 0.030354321 0.13218874 -0.09563385 -0.06820782 0.08345174 0.15819068 0.107651934 0.06291495 0.040245257 0.057473835 0.05559732 0.10160436 -0.0035303251 0.033823926 -0.018381968 0.14697221 0.099688604 0.01178054 0.010414194 0.03348013 0.04718776 0.07182703 -0.041717067 -0.034778964 0.1121018 -0.073484816 0.03284336 -0.004417859 -0.014292579 0.023096155 0.0005861846 0.01571885 0.00949316 0.1622905 -0.087926365 0.04490495 0.0882503 0.15856022 0.042811215 0.0663075 0.01764385 0.10082053 0.074648954 0.08175713 0.03694373 0.044647507 0.005449113 -0.0022461377 0.0060098837 0.007473329 0.05399079 0.017231667 -0.0127695855 -0.018213881 -0.057299376 -0.01058735 0.0015133495 0.10115292 
0.16810088 0.07507654 0.07686037 0.048951834 -0.08636491 -0.07043622 0.08824614 0.030329391 0.1124182 0.048883498 0.024780998 0.013349193 0.011643417 0.03227558 0.023389135 -0.0816849 -0.04360945 -0.0788298 0.048782323 -0.030905008 -0.032064483 -0.038886137 0.003224246 0.036574088 0.09357461 0.065502696 0.16890088 0.1367506 -0.050323077 0.014593225 0.119540535 0.114754304 0.07030544 0.07956084 0.10004648 0.11885568 0.017459938 0.059189584 0.061916698 0.052907944 0.08174646 0.046733893 -0.008460188 0.021260293 0.15175398 0.089684814 0.05732237 -0.079210676 0.00982431 0.108837426 -0.02842124 0.01389487 -0.058718834 0.08164511 0.0072563104 0.019635968 0.1598672 0.00675188 0.23023337 0.20157915 0.06213076 0.058009993 0.057222832 0.18313147 0.0776924 0.19522582 -0.05886201 0.072959565 0.06954436 0.08519685 0.078931056 0.10750565 0.09649193 -0.04249503 0.041459873 0.029757109 0.07999853 0.082423486 -0.071208864 -0.12800343 -0.0048208823 -0.013414375 -0.0021918383 -0.014534654 0.092431635 0.09931488 -0.06828593 0.05242241 0.11700373 0.13057578 0.028986763 0.17800227 0.2005592 0.054882247 0.040720254 0.017845543 0.07880285 0.062446725 0.06770351 -0.01948867 -0.018819038 -0.060253367 0.04769602 0.11656229 0.007801432 0.0039845216 -0.015086804 -0.041067917 -0.024482956 -0.0033481955 -0.057421207 -0.066355616 -0.0273812 0.024200633 -0.09624232 0.048499323 0.08649324 -0.06480892 0.056597814 0.08910716 0.09054571 0.07158829 -0.006673803 0.028050208 -0.024033992 0.12295783 -0.0146991005 -0.021752851 0.079474725 0.11885286 0.025449963 0.06903897 0.015956901 0.018544009 -0.0799058 0.13140488 -0.069491856 0.05153628 0.13508156 0.16503808 0.13776457 -0.033891883 0.0311848 -0.09012185 0.041605968 -0.007428139 0.008935188 0.038994256 0.11112374 -0.04610256 0.03534404 0.11065821 0.057961643 0.01085088 -0.009454248 0.12531018 -0.07264389 0.15842745 -0.0472965 0.10000228 0.09036897 0.13317183 -0.030220246 0.010450711 0.001557031 -0.015784701 -0.070609234 0.20769125 0.06403573 -0.07263941 0.026783012 0.00013167472 0.19485146 0.027531 -0.018359754 -0.007465543 -9.509211e-05 0.03020624 -0.039531127 0.057736743 0.11365976 0.10324312 0.09949524 0.078348525 0.0095949005 -0.06508502 0.07219839 0.14557551 -0.022557367 -0.016516292 -0.074409 0.09541438 -0.02768834 -0.03465072 -0.0066291755 0.08085608 -0.05480445 -0.01231402 -0.07802951 0.081125304 -0.003602315 0.048120897 -0.04526058 0.037572566 -0.019652545 -0.07248166 0.05436309 -0.00073588605 -0.08724305 0.027772637 0.007638275 -0.02000314 -0.04125037 0.043381117 -0.08414198 -0.066092744 -0.0068813264 -0.08230643 -0.12841152 -0.039589696 -0.10242817 0.10731044 0.003838871 -0.13697657 -0.12358182 0.075354874 0.026062965 -0.041498728 -0.019045576 -0.010941062 -0.07336395 0.09601646 0.062871344 0.03382708 0.0972199 -0.032418847 0.021029018 0.026077429 -0.08287779 -0.055386137 -0.083995566 0.00027400168 -0.05105488 0.0297355 0.017878318 -0.10422683 -0.06428416 0.011376003 -0.10230194 -0.07291787 -0.08255395 0.08903601 -0.1436137 0.092156634 -0.10592721 -0.07961119 -0.08654872 -0.03793297 0.047416206 0.10243528 0.065321535 -0.056033503 -0.017808005 0.092057586 -0.031145854 -0.0564839 0.10171315 0.07293537 0.037228614 -0.05644059 0.07179342 -0.026935905 -0.059856545 0.01419264 0.010944745 -0.058348805 0.036354557 0.058119547 0.031489484 0.07180876 -0.12693414 0.03842652 -0.115571775 0.14725387 -0.10456026 -0.016997874 -0.13406688 0.025254816 
-0.0689812 -0.050022922 -0.019148022 0.041554615 0.085025795 0.07481984 0.06806577 0.03333315 0.001884428 0.0423353 0.0704594 0.09222004 -0.23291925 0.06597141 0.038453236 0.3249164 -0.039830647 0.09687969 0.3046642 0.08532704 0.04164947 -0.11727232 -0.07573774 -0.14869972 0.05329166 -0.007160262 0.07810688 -0.2503837 -0.03707224 0.20166247 0.1565433 -0.1164264 0.0007473519 -0.012376721 -0.036286816 -0.10928857 0.015715623 -0.015644254 0.17253077 0.034486193 -0.13380367 0.066555195 0.0110202 0.121483095 -0.23662636 0.025305158 -0.11885649 0.25345433 -0.02290234 0.017869877 0.20820937 0.14857744 -0.04314295 -0.14057195 -0.15748343 -0.11314662 0.12511322 0.02182842 0.046552148 -0.24044384 -0.03572094 0.21901533 0.1647918 -0.054534957 -0.024937926 0.06528001 -0.030252704 -0.1369746 -0.086160734 -0.06742313 0.0762162 -0.030886037 -0.1404959 0.06310271 0.027512483 0.09833613 -0.23725992 0.042850364 -0.13236973 0.21472748 0.067642435 -0.002515026 0.23847464 0.10935329 0.01105484 -0.094220996 -0.11753297 -0.043405987 -0.038735244 -0.058525022 -0.043824486 -0.28248805 0.0047798883 0.21356393 0.14537816 -0.119420394 -0.01789067 0.027275711 -0.08092001 -0.030773528 0.03406836 0.046988375 0.078596376 -0.03248378 -0.09241612 -0.04763517 -0.10812559 0.058870938 -0.25390697 -0.022065533 0.041420903 0.14148493 0.0016139371 0.02634208 0.15884273 0.10414459 0.068149075 -0.046212956 -0.053166106 -0.14923754 0.01503223 -0.034098487 -0.04171319 -0.19935766 -0.03606857 0.13968988 0.09325743 -0.13164403 -0.03818988 -0.08523567 -0.0985913 -0.106383875 -0.0019328112 -0.048414182 0.0053550224 0.013130675 -0.084058836 -0.04870808 -0.039829094 0.10496814 -0.20834495 0.04688994 -0.06561699 0.17039512 -0.020648474 -0.0062880483 0.22950174 0.04815698 -0.07509923 -0.13675722 -0.1625655 -0.023507675 -0.10858418 -0.14153658 -0.028874345 -0.28835443 0.022031391 0.16344231 0.1563853 -0.21643646 -0.11901997 -0.00073365535 0.04409276 -0.06886751 0.04973959 -0.020174038 0.080717474 -0.11957682 -0.028443119 0.07486448 -0.030425908 0.1460169 -0.2161416 0.08428751 0.0057308623 0.090965375 -0.10049408 0.0072263856 0.074735 0.09034749 -0.07510873 -0.10986602 -0.122405306 -0.014132898 0.00030836245 -0.13755406 -0.023479057 -0.25346088 -0.06840679 0.050891325 0.058543183 -0.2332929 -0.11833772 -0.051380754 -0.010269196 0.0528702 0.10005693 0.01600686 -0.04397739 -0.06956968 0.030185021 -0.033749968 -0.1382412 -0.02955786 -0.12175118 -0.073956124 0.08670124 -0.008928117 -0.02929688 0.021355228 0.14266242 0.03319606 -0.06268181 -0.064891346 0.021720158 -0.06142181 -0.09356588 -0.1206802 -0.1318405 -0.21049984 -0.10173662 0.09363476 0.11570865 -0.16548888 -0.11610517 0.002843618 0.022439314 -0.003196516 0.07198466 -0.044928562 -0.02726083 -0.08640956 -0.020260578 0.032400645 -0.03144084 0.117017224 -0.13422886 -0.062057726 0.048582535 0.15320627 -0.027865969 -0.025013039 0.030566672 -0.01709997 0.009720837 -0.018162135 -0.04493244 -0.15120538 -0.086834736 -0.023708979 -0.05667816 -0.2617664 -0.08233732 0.0077677416 0.12570542 -0.14594296 -0.14582622 0.02252367 -0.0016224708 -0.05029827 -0.08143726 -0.114240214 0.0014190434 -0.0456865 -0.12871917 0.007127088 0.056126703 0.14644338 -0.2272294 0.046511605 -0.07776839 0.06100254 -0.1099649 -0.026313981 0.044676505 0.041223947 0.029978048 -0.062484264 -0.07494833 -0.16912206 -0.16405317 -0.073895365 -0.056279536 -0.24382074 -0.15391183 0.08915179 -0.027201708 -0.2095871 
0.004546568 0.051617436 0.05273613 -0.021282705 -0.022098595 -0.09904965 0.0032412938 -0.074326135 0.016828917 -0.048343193 0.057185028 0.107699394 -0.01996977 0.041330673 -0.011812609 0.045043267 0.08733866 0.107531354 0.09512964 0.050483286 0.022871966 -0.059613355 0.034262367 -0.10974932 0.11929517 0.11415208 0.11666038 -0.070234224 0.05043073 0.19480106 0.026995528 0.03170869 0.10951126 0.15394583 -0.00021752447 0.06273314 0.008002747 -0.094800904 0.0320396 0.027084915 0.031197572 -0.019632984 0.025467161 0.14943027 -0.06285564 -0.011134804 0.03794528 0.07528622 -0.030302279 -0.014056485 0.014516402 0.085501514 -0.069108956 0.0407471 -0.099449 0.023229148 0.023324365 0.008316502 0.17997777 -0.027947556 0.19763294 0.09180582 0.15814033 0.04229577 0.012153606 0.10721452 -0.05333047 -0.013018975 -0.07506806 -0.06634068 0.049342074 -0.038099907 -0.01680643 0.05456383 0.09897957 0.12235598 -0.06313837 0.08466455 -0.00879625 0.088778265 -0.0146467015 0.03203 0.04960538 0.088628486 -0.049287464 0.013400627 0.06483415 -0.02308405 0.04873429 0.10610288 0.13423307 0.0966921 0.08431621 0.12934873 0.037862413 0.011825272 0.050428886 0.07192526 -0.0183237 -0.038091674 -0.06834982 -0.07128688 -0.041891646 0.00044932432 -0.013081615 0.0038554082 0.09034645 0.12144492 -0.07797958 0.10084185 -0.028766954 0.0968791 -0.027701933 0.10688386 0.0290057 0.114615366 -0.08228297 -0.041073676 0.022450848 0.020436741 0.1343834 0.081911474 0.034563053 0.06996498 0.0020530852 0.105777316 0.030767923 0.10589011 0.011258487 0.16879599 0.08965792 -0.023645906 0.109305106 -0.0051688757 0.1036599 0.11724047 -0.020935372 -0.034343824 0.039705653 0.14076404 -0.032533377 0.09730361 -0.012647457 0.20500739 0.029798096 0.17274936 0.11172295 0.109963946 -0.044330914 -0.055219166 -0.0037012051 0.05432066 0.012908742 -0.05144751 0.05304252 0.11058967 0.0890912 0.19475178 0.03594956 -0.02251798 -0.03068265 0.013201233 -0.06585577 0.05953622 0.11289072 0.051156297 -0.012053458 0.04024282 -0.035538554 0.04992894 0.15584031 0.22766986 0.10374375 0.043442506 -0.087350965 0.037422486 0.09640628 0.13826229 0.02208313 0.09152318 0.052883003 -0.045363817 -0.00097653456 0.011671053 0.025130002 0.028920047 -0.031715035 0.10758813 0.06652061 0.07881714 0.109987356 0.010604253 0.054098107 0.05244631 0.015213519 0.005996438 -0.07671208 -0.040251043 -0.03393103 -0.000806035 -0.028735327 0.056661792 -0.03637346 0.081650086 0.023456773 0.0748753 0.017227069 0.04431571 -0.048294537 0.02448044 0.09725535 0.05054589 -0.093131006 -0.0752444 0.06974242 -0.079297446 -0.013576469 -0.060389053 0.086691804 0.034086604 -0.087280154 0.02710125 0.04726275 0.08586269 0.032545205 -0.021377731 -0.053211946 0.0005139895 -0.025285702 0.011760467 -0.0636278 0.053227205 -0.08133739 0.051016066 0.06791791 0.15668549 0.0027572364 0.048957422 -0.00021347578 -0.0022339937 -0.0066397563 0.10969098 0.079879865 0.092691176 -0.08005684 0.00911826 -0.031842355 -0.062492974 0.07857459 0.0629939 0.0143618435 0.0409572 -0.12233353 0.13029185 0.042515785 0.04138806 -0.045515057 0.048881155 -0.06254478 0.0041820393 0.056330446 0.011114835 0.022729207 -0.0046315757 -0.0303436 -0.05210313 0.046495084 0.053688854 0.01781592 0.044268828 0.022449533 0.008723053 0.03139474 0.038355768 -0.011542868 -0.059693046 0.027816594 -0.024287827 -0.006853729 -0.07842258 0.062651575 0.051784363 -0.06662836 -0.034656875 -0.08501019 0.04769056 -0.0070306696 -0.004213949 
0.06579402 -0.07814049 0.02709413 -0.094142474 0.0172006 0.015463164 0.04792982 -0.038981013 -0.033236753 -0.0714839 0.026586061 0.020407792 -0.15243718 -0.011546954 -0.021674983 0.17846961 0.088011906 0.069929 0.08619272 0.12075453 0.07923135 0.02990034 -0.02726269 -0.04481687 0.09863119 -0.03576183 0.0935682 -0.1247841 0.028144896 0.1603079 0.12268244 -0.020612752 0.032804318 0.028170086 -0.05420654 -0.06206584 -0.06746057 0.01791531 0.08047888 -0.0016361681 -0.1007847 0.059038837 0.052087054 0.053982094 -0.08021396 -0.051127933 -0.027029315 0.15791808 0.08011321 0.09540038 0.09349782 0.08604077 -0.0032671655 0.017201396 -0.06033285 -0.083014034 0.0137318345 -0.05514712 -0.057376128 -0.088108845 -0.04116553 0.018619465 0.11150322 -0.06312037 0.024356734 0.03157603 0.049895164 -0.10052237 -0.10188033 -0.049267814 0.0099068275 -0.060970753 -0.020270202 0.068714775 0.0046604676 0.00013471389 -0.095825434 0.07539652 -0.13282764 0.12419607 -0.08193244 -0.055619806 0.008316193 0.08483081 0.0662961 0.0009595633 -0.013846096 0.015700677 0.0263664 -0.04055641 0.07597926 -0.15754755 -0.05303899 0.04995325 0.04194335 0.0076920614 -0.033121794 0.015473231 -0.01852854 0.030089922 0.043205474 -0.043485604 0.04154975 -0.09350716 -0.005999455 -0.07585637 0.011131798 0.14980191 -0.044220813 0.06664837 -0.05576369 0.09911032 0.1389623 -0.013908452 0.14728865 0.0914309 0.023877002 -0.026187586 0.0074630985 -0.030744553 -0.010593534 -0.0020919824 -0.073925026 -0.16212687 0.121814966 0.18609455 0.021989545 -0.05110592 -0.101633854 -0.008865346 0.010397278 -0.072696164 -0.036695875 -0.095890075 0.050917294 -0.019857919 -0.029012684 0.061566494 -0.06985623 0.031066252 -0.09145294 0.09969451 -0.05967632 0.15746345 -0.020094138 -0.013851959 -0.0070658354 0.06835542 -0.076606624 0.03917625 -0.08407259 0.0037302917 -0.02718895 -0.0146788815 -0.026394226 -0.16215345 0.020511275 0.051035948 0.05587634 0.01758184 -0.065952644 0.077971265 -0.031003583 0.02271553 0.015496387 -0.043510776 0.048571125 0.047298107 0.019672232 0.043341722 0.06897885 -0.01863293 -0.17537749 0.0747592 -0.12498832 0.09726298 -0.08143159 -0.05372125 0.105732456 0.08029789 0.03163445 -0.031615153 -0.09525051 -0.02511281 -0.04810019 -0.0064566988 0.08221713 -0.14305761 0.021668248 0.082833335 0.030530656 0.010932555 -0.051773094 -0.05210821 -0.12603323 0.08309741 0.04931187 0.06787529 0.029429281 -0.10327424 -0.084524 -0.08106939 -0.11139666 0.077401124 -0.075503126 -0.064827524 0.08785784 0.16581707 0.05370802 0.1268693 0.13470118 0.06583472 -0.04628767 -0.013174614 0.012041574 -0.105393335 0.032569174 -0.02497988 -0.00235561 -0.045101292 0.085642755 0.13326658 0.13105649 0.00988352 -0.045899473 0.077749476 -0.09222538 -0.03826302 0.011415032 0.032097496 -0.0073249037 -0.09264072 0.006217552 -0.044128876 -0.0012243695 0.15194547 -0.16457191 0.032057926 0.023148548 0.09210961 -0.0018241581 0.042280406 0.017124692 0.10322522 -0.028830208 -0.045072444 0.0063892277 -0.10958232 -0.097474754 -0.055225708 -0.092681326 -0.15904757 0.17588334 0.16764063 -0.03469711 -0.11871167 -0.02555219 0.006846258 -0.06292459 -0.033947565 -0.04601253 -0.0862924 0.048248015 0.042552926 -0.016868817 0.030534636 0.042595327 0.005432685 -0.09014851 0.039820954 -0.05835295 -0.008171095 -0.009809723 0.09557435 0.041816074 5.1647563e-05 0.02495609 -0.03799458 -0.08910436 -0.024732688 -0.0003196312 -0.019374693 -0.051915314 -0.06648543 0.012572226 0.19299275 -0.066577636 0.017543359 
-0.14226253 -0.118357204 -0.1435264 0.1715303 0.070084296 0.0020885472 -0.13228808 0.0817006 -0.024049228 -0.12095536 -0.034216236 -0.042876508 0.2302371 -0.08792482 0.18328589 -0.16836427 0.07151071 0.0010762669 -0.029275497 -0.16999356 0.087106414 -0.058224022 0.059997074 -0.006885284 -0.11563509 -0.16505478 -0.1882256 0.18209134 -0.10177207 -0.06759214 -0.18217935 -0.04069488 -0.12343007 0.0043698708 -0.08014888 0.09211531 0.1014083 0.13635956 0.008422663 0.112323575 0.10020083 -0.116972595 -0.06788281 -0.04975157 0.15756972 -0.14752123 0.0737669 -0.021253534 0.22066317 0.051093664 -0.06982874 -0.1760311 0.19069587 0.12617178 0.10372577 -0.026286142 -0.14742573 -0.079637125 -0.21281679 0.12584464 0.09736436 -0.22265707 -0.045820646 -0.030454148 -0.052716505 0.03615341 0.066970825 -0.101918004 0.004768828 0.108132154 0.10147965 0.09273709 0.11912182 0.12726998 -0.064422816 -0.12270949 0.11562337 0.10057003 0.1262792 -0.08841298 0.17954545 -0.11248967 -0.11968581 -0.00077609613 0.15336734 0.27646872 0.021874858 0.12307757 -0.17127861 0.019764677 -0.018036585 0.052946072 0.15509629 -0.13401285 -0.009094121 -0.00053222716 -0.095795885 -0.0071111815 -0.05410716 0.04347259 0.12439448 0.14320625 -0.018531593 0.09282205 0.0453125 -0.092240706 0.048884578 -0.1305954 0.22136922 -0.12165086 0.009108599 -0.08520088 0.032403383 0.07104479 -0.0032454075 -0.11584594 0.015702521 0.041052077 0.039444696 0.0142387925 -0.007521693 -0.12346836 -0.22475873 0.03797471 -0.09745998 -0.079363555 0.0028752629 -0.04508697 -0.11265468 -0.06670055 -0.014836709 -0.05214886 -0.03432681 0.13586861 -0.00852519 0.15589286 0.013945295 -0.028888462 -0.0065187877 -0.109203495 0.106204145 -0.09371496 0.017960172 0.052413885 0.08496018 -0.029620815 -0.08512669 -0.08535813 0.08734408 0.13683885 0.03190648 -0.03581437 -0.13111547 -0.18224235 -0.09195233 0.08547058 -0.013236537 -0.15474126 0.023518829 -0.13513985 -0.039037805 -0.05526187 0.07668943 -0.03150591 -0.12100319 0.079799816 -0.023194449 0.011663236 0.15963995 0.054277036 0.043552276 -0.11203907 0.007590359 -0.01366439 0.0894542 -0.05868704 0.16114613 -0.04757811 -0.057681616 -0.08650442 0.04946814 0.11419825 -0.04809043 0.114184275 -0.14635457 0.08781929 -0.078960426 -0.024832552 0.12636371 -0.2103634 0.12380903 -0.08802152 -0.15450625 -0.08094214 0.004406437 -0.04979061 -0.053600006 -0.06856278 0.008788394 0.14786936 -0.00086725614 -0.05934874 0.010072511 0.0010999198 0.11516846 -0.06879654 0.0060884133 0.029544156 -0.0991765 -0.080671765 -0.07358388 0.019500867 -0.03823853 -0.030437216 0.002505791 -0.056273162 -0.1432872 -0.22794877 -0.1307973 0.05510637 -0.06823903 -0.092796855 -0.014763511 -0.18282892 -0.079341024 0.021850536 0.046800666 -0.07155363 -0.112976074 -0.028435355 0.02743459 0.04477083 -0.026969206 0.09682873 0.06228431 -0.052948292 -0.015471865 -0.018660657 -0.10574433 -0.022063173 -0.02840933 -0.0038726875 -0.03133009 0.073708266 0.06746771 -0.04231929 -0.07521005 0.06319274 -0.21636288 -0.076699145 -0.11373031 -0.005827915 -0.03689419 -0.03748932 -0.005840698 -0.14421913 0.047881298 -0.053744305 0.024315054 -0.1638669 0.00335481 0.022655677 0.094451495 0.08268002 0.049498837 0.12283042 0.0007857907 -0.051063485 0.040620618 0.034160346 -0.035935983 0.08201955 -0.029358216 -0.16209985 -0.16160876 -0.0739298 -0.0119670145 0.093984514 -0.13735303 0.068131074 -0.20484756 -0.023817072 -0.027588747 -0.1174497 -0.07061083 -0.18014807 -0.034006223 -0.13768007 
-0.097682096 -0.06305679 -0.03367265 -0.13088831 0.0024866783 0.13362516 -0.04852304 -0.19258587 0.09491813 -0.078632146 -0.15223141 -0.013677029 -0.14069258 0.009171313 0.100459225 0.11235797 0.08458353 -0.08875105 0.10768634 -0.03138646 -0.034728773 0.023352297 -0.011773515 -0.12496198 -0.05188917 -0.028040072 -0.09746909 -0.14314227 -0.11133676 -0.13743262 0.08836817 -0.07949565 -0.024692005 -0.06524832 -0.10471343 -0.0044363174 -0.03741079 0.01203061 0.03928367 -0.21915667 0.0830287 0.06988649 -0.060222413 -0.09796986 -0.10788729 0.07450056 0.21440981 0.035884786 0.09245418 0.0071303174 0.113805905 0.017090837 0.037532967 0.08417886 -0.10082046 -0.105653115 -0.05363231 0.09336101 -0.11617174 -0.17690802 -0.09210134 -0.15233591 0.15010567 -0.06984219 -0.09915138 -0.095914796 -0.114454456 -0.08752462 -0.09684293 0.12649299 -0.08411561 -0.073729195 0.06490333 0.074269116 -0.115760274 -0.06646252 -0.12519057 -0.018544776 0.12580411 0.050494872 0.061896376 -0.03050224 -0.017824255 -0.016831605 0.03951874 0.07438981 -0.054246113 -0.025631737 -0.029842345 0.09956225 -0.06995926 -0.15266496 -0.051125545 0.0009378055 0.08780136 -0.06808886 0.029695991 -0.20244606 -0.106578045 -0.020901201 0.023165526 0.0045008925 0.053781446 -0.1756861 0.11726661 -0.05550286 -0.12523676 -0.07760861 -0.09414295 -0.08025336 0.063409775 0.07201708 0.0056562256 -0.030030614 0.05787444 -0.011903604 -0.005492217 0.0023354876 -0.2179899 -0.16548775 -0.062662676 0.078911245 0.007499175 -0.18621595 -0.22374599 -0.04501924 0.15825252 -0.006436471 -0.079085834 -0.21708797 -0.09207668 -0.044198416 0.013727312 0.051819444 -0.06200029 -0.27014294 0.12331604 -0.055273324 -0.1978317 -0.12471669 -0.21256955 -0.091055 0.20349126 0.08681125 0.059240505 -0.04917857 0.095987536 0.03034182 -0.0023908739 -0.035833843 -0.16763839 -0.07327232 0.0071202256 -0.046738397 -0.09035354 -0.25909227 -0.116682544 -0.044501092 0.091339014 -0.11139344 -0.029852206 -0.0657977 -0.03313467 -0.1332293 -0.04188493 0.089066565 0.043939177 -0.19752675 0.10332138 0.031181809 -0.06999806 -0.011646608 -0.1488897 -0.024296178 0.05027155 0.17632508 0.12910567 -0.04428394 0.10423034 -0.096446246 -0.07348856 -0.08840574 -0.06404167 -0.08683607 0.030997455 0.020961992 0.0034955186 -0.17016509 0.0070618424 -0.075286515 0.041057024 -0.027008666 0.028295137 -0.104183026 0.025274452 -0.01397439 -0.065382965 0.08261527 0.03067867 -0.15816557 0.083221324 -0.049840007 -0.029376917 -0.032321088 -0.17071702 0.044242308 0.09665786 0.07965631 0.0039905375 0.008557189 0.024259815 0.019131204 -0.09766555 -0.112945214 -0.13493173 -0.19414902 -0.030371783 -0.10420161 -0.022093404 -0.1472964 -0.22463006 -0.09568575 0.057039358 -0.09833763 -0.093592666 -0.13650116 -0.11596338 -0.08607012 -0.02537213 -0.05298274 0.048561882 -0.22520603 -0.044843055 -0.0024715126 -0.0813989 -0.09656037 -0.17139411 0.052846503 0.10679296 0.08612252 -0.0015403787 -0.021350741 0.10220104 0.06500507 -0.04974092 -0.017618684 -0.19007817 -0.080323346 -0.047588848 -0.08541585 0.013320839 -0.20188878 -0.1651097 -0.08589173 0.12834805 -0.11092057 -0.07967984 -0.12927817 -0.11627664 -0.093379855 -0.087044224 -0.011208894 -0.024346918 -0.056862675 -0.031120418 0.08169305 -0.08122328 -0.10884343 -0.06740866 -0.09649035 0.06750695 0.10400351 0.1066318 -0.04368844 0.16224985 0.0072121574 -0.063031234 0.0011054215 -0.115293466 -0.10541976 -0.039886482 -0.1083661 -0.05906 -0.24584821 -0.0022123768 -0.0027984434 0.02852955 -0.048011914 
0.053309467 -0.089204 -0.0958836 -0.02181131 0.070530556 0.041644268 0.098551035 -0.024942063 -0.06383969 -0.019991083 -0.069457285 0.10209603 -0.09884155 -0.05366155 0.0019994304 0.2424505 0.021772943 0.08880717 0.20855683 0.026124578 0.13522407 0.06978145 0.032614216 0.0010513382 0.009416919 -0.051874463 0.024287272 -0.083415695 0.12517914 0.11741424 0.20830326 0.072179034 0.05036165 -0.12496412 -0.09356239 -0.10161999 0.035876382 0.14538926 0.09498734 0.033447456 0.03821042 0.059466556 -0.089880966 0.0052261096 -0.10308555 0.06180588 -0.041949462 0.28321064 0.009738131 -0.03782089 0.15208538 0.06577883 0.1211444 0.027773488 0.03768121 -0.06798299 0.050211307 -0.035554525 0.06599056 -0.16292566 -0.048405495 0.034797538 0.20159994 -0.00747813 -0.044045486 0.0016091312 0.04988854 -0.030756593 0.03144427 0.027765717 0.056058343 -0.099625334 -0.014268965 0.049952686 0.0038343463 0.028555922 -0.14186779 0.10438878 0.10577104 0.15663178 -0.03416752 0.026924826 0.21634723 0.09802625 0.08423782 -0.1041068 -0.046896663 0.0032477833 -0.0008000884 0.06374499 -0.0063010976 -0.15824889 -0.07411535 0.043358866 0.16966724 -0.033409767 0.041511226 -0.08132478 0.06929446 -0.05208766 -0.048443258 0.06539614 -0.013069602 -0.042809013 -0.048328817 -0.00307022 0.022618057 0.01229538 -0.11867859 0.08423909 -0.045499206 0.20881711 0.10283863 -0.048475508 0.0453556 0.04079223 -0.00099051 -0.007107162 -0.14085828 -0.07651189 -0.032338805 -0.035168692 -0.051797573 -0.07836202 0.10433396 -0.0079052765 -0.004981067 0.037820946 0.08626066 -0.013798019 -0.067896105 -0.11017999 -0.08867072 0.035307545 -0.007923471 -0.13146436 0.06276845 0.032089114 0.016379688 0.059265416 -0.22491547 0.07419605 -0.0012866589 0.1123113 0.105371736 0.06346547 0.17433275 0.07685662 -0.0076950034 0.0033903837 0.0026138911 -0.14290693 -0.013793862 -0.0665383 0.119787335 -0.16504224 -0.0554488 0.079844944 0.020528838 0.0033822197 0.016168792 -0.105927005 0.011705941 -0.09193523 0.019945748 0.014075106 -0.03817493 -0.07829066 0.056307737 -0.0429022 -0.02507776 0.09105152 -0.11213756 -0.0418173 0.012097352 0.12764421 -0.040525585 0.019131972 0.11225591 0.12277036 -0.027563488 -0.081631385 0.026371874 0.013106512 0.08886128 -0.004943174 0.10676759 -0.16450977 0.09588576 0.04907137 0.06294737 0.030222744 -0.07869735 0.008022261 0.039142728 0.0008616177 -0.031331446 -0.0045223767 -0.015556407 -0.0075527984 0.04002991 -0.014692824 -0.07545655 -0.02287482 -0.10396628 -0.012559482 0.038272895 0.045516722 0.11995692 -0.0069533107 -0.011714555 0.07383052 -0.11116006 0.050004132 -0.1136649 -0.113219306 -0.053276565 0.022676902 -0.041048005 -0.17533113 0.07613499 0.0149488 -0.009918189 -0.10393421 0.0797715 -0.05773618 -0.0081963325 -0.04897251 -0.007685217 0.014273851 -0.020694567 -0.1077346 -0.03062973 0.038441524 -0.040361002 0.019196792 -0.128234 -0.0012489513 0.047823776 0.062097758 -0.03686516 0.06002451 0.14944969 0.07861276 -0.07428793 -0.10764336 -0.028382787 -0.06737601 0.07630607 0.09200636 0.07391874 -0.04713209 0.069259636 0.10738481 0.10420647 0.0470435 0.0060898354 0.0015259985 -0.041179974 -0.009106146 -0.035828825 -0.017547961 -0.00012694154 -0.085751496 0.03976238 0.0313557 0.053724043 0.02082486 -0.08208935 0.07753047 -0.014552594 0.14969036 0.07662883 0.0023864866 0.021553118 -0.012798176 0.034517795 -0.031380225 -0.09188391 0.03354934 -0.07127457 -0.022866627 0.12055469 -0.17125323 0.012817417 0.06100789 0.06785719 -0.072259665 
-0.054127395 0.013902833 0.013296616 0.060778216 0.026754491 -0.012562706 0.0038144763 -0.05374848 -0.079101585 -0.048171937 0.034853306 0.13469018 -0.07510367 0.08069289 -0.11125933 0.17132345 0.06811918 -0.044106692 0.09209679 0.09253737 -0.0061239665 0.0070894826 -0.036800567 -0.11056033 -0.08213236 -0.06801863 -0.027889945 -0.13013664 -0.030741278 0.011345341 0.08433782 -0.07961485 -0.009476533 0.072784096 0.020443395 -0.08722852 -0.057822667 -0.06963897 -0.09502114 0.067447715 -0.056227706 -0.0663812 0.07268064 0.14346758 -0.06552718 0.009718581 -0.12389161 0.03278707 -0.01982251 -0.023249067 0.09857731 -0.046027627 0.06855627 -0.113533705 0.031619977 -0.038485464 -0.03220395 -0.074996375 -0.0842999 -0.12441617 -0.15458149 0.13027896 0.00299276 0.019722277 -0.021551372 -0.047971826 -0.07292383 0.057774704 0.022273926 -0.07070746 -0.046259094 0.041457053 -0.124890864 -0.03707005 -0.004609378 0.12651043 -0.12424477 0.035697874 -0.04736039 0.030470775 -0.019546 0.001115863 0.051905505 -0.008661937 -0.03470903 -0.0029031746 -0.01121208 -0.08982016 0.04982097 -0.07266958 -0.038474426 -0.1481092 -0.01617886 -0.006090607 0.09647455 0.018818565 -0.042879973 0.081575684 -0.0023203786 -0.06428138 -0.07900636 -0.032566763 -0.033322636 0.031602208 -0.13768622 0.024840496 0.088138714 0.10939569 0.013740942 0.020870818 -0.03653241 0.10168778 -0.1382768 0.07396088 -0.037162885 -0.07404823 0.049190998 -0.108252466 0.066023685 -0.011878725 -0.023195518 -0.14336747 -0.07561857 -0.11356521 -0.10490773 0.08516143 0.008171513 -0.03744137 0.023960724 0.07378376 0.044525996 -0.03273488 -0.050010886 -0.10336806 -0.062034275 -0.021969385 -0.07916683 -0.041370533 0.0010549384 0.1623398 -0.12475157 0.008263677 -0.03989487 0.06448449 -0.044388272 0.06540561 -0.012518182 0.029359672 -0.09360474 -0.05812196 -0.032395028 0.012256654 0.016783211 -0.023098819 -0.12380322 -0.030508077 -0.0742141 0.017433364 -0.1320755 -0.13859437 0.0063780136 0.008389979 0.012935179 0.022436865 -0.0286173 -0.13689591 -0.12899306 -0.038333207 -0.11298714 -0.08356166 0.076440305 0.011123084 -0.13638104 -0.030916851 0.009730314 0.079974614 -0.012502864 -0.0023815816 -0.059632156 -0.05298365 -0.014178037 -0.10584132 0.030128796 0.017210217 -0.10254676 0.014415326 0.011379493 -0.12373405 -0.04803508 0.096862964 -0.09414327 -0.05140826 -0.089698635 -0.042818427 -0.0095450785 0.055090632 -0.048964273 -0.19915238 -0.034918733 -0.09540873 -0.032708786 -0.022075769 0.0717502 0.11977919 -0.040561154 -0.01133336 -0.101291396 -0.08477515 -0.056294464 -0.05555394 -0.013234517 0.023998866 -0.14223774 -0.028882358 -0.07453792 0.021804325 -0.041132927 0.03581798 -0.090656444 -0.019757306 -0.013426946 -0.018445466 -0.18994352 -0.037250154 -0.118185475 -0.02649081 0.059056964 0.0011830273 0.015837116 -0.16108859 -0.16229622 0.0143917 -0.07745177 0.017435296 -0.004297732 0.07090497 -0.045533728 0.0041063917 -0.10452505 -0.05554171 -0.024363471 -0.032862466 0.01696386 0.028770367 -0.030845826 -0.09813768 -0.053728275 0.0024500075 0.009197267 -0.0983034 -0.05558041 -0.14434727 0.006162307 0.07336458 -0.07736453 -0.05148563 0.031240031 -0.008097998 0.040811457 -0.06046375 -0.02813989 -0.05385852 -0.13073266 -0.08366962 -0.03620175 0.01284352 -0.03167803 0.031387262 -0.038594816 0.0060528005 -0.07847036 -0.09728493 -0.036600605 -0.01744863 -0.00034015672 -0.026047925 0.031157367 -0.08599015 -0.023385713 0.022382881 -0.13120914 -0.041255098 0.03895565 -0.06908549 -0.12214998 0.07054456 -0.039559577 -0.03172815 
-0.040432718 0.012805577 0.043262973 -0.049486708 -0.10277938 -0.008030401 -0.060329568 -0.10373462 0.037046377 0.10899026 0.04152099 0.02007543 -0.11884632 -0.021365704 -0.0654477 0.030882515 -0.11561599 -0.09261305 -0.0040954086 0.069339216 -0.15398143 -0.07973817 -0.007869126 0.010214351 -0.08925576 -0.0808248 -0.015710907 -0.1916934 -0.14529207 -0.024837485 0.04982119 -0.05282072 -0.07519499 0.043834984 -0.041410226 -0.1256221 -0.07801972 -0.092872836 0.03926604 -0.040293805 -0.07984702 0.0017533192 -0.047163982 0.054924555 -0.057706963 -0.01819691 -0.003468844 -0.057919603 -0.020145565 -0.105744876 -0.018789856 0.025529739 -0.07046226 -0.08145367 -0.13731173 -0.06141126 -0.10810818 -0.045184333 0.0416371 -0.14803757 -0.089895345 0.028664239 -0.09070744 -0.17923999 0.041095115 0.028052164 0.034247003 -0.10850944 -0.09156907 -0.09155022 -0.043386035 -0.07248464 0.03054082 0.038713552 -0.05149826 -0.030558024 -0.12076161 -0.018562708 -0.040571883 -0.021613479 0.041110393 -0.039696954 -0.06282345 0.012850314 0.0030893341 -0.023299789 -0.0071524447 -0.030883944 -0.115709774 -0.064721815 0.05056987 -0.10733196 -0.19097364 -0.07819332 -0.07375034 -0.039299197 0.06263037 0.009369022 0.0048351986 0.080609515 0.044861093 -0.1580195 0.03935825 -0.07311007 -0.037642192 0.057618346 0.046031233 1.8347346e-05 -0.05683871 0.020886773 -0.13035105 -0.02581057 -0.03165269 0.036047496 0.078434706 0.039494086 -0.08357026 -0.13630086 -0.0675891 -0.1455925 -0.055213258 0.0675437 0.07647838 -0.10884624 0.038444307 0.08053965 -0.0031593877 -0.0419859 -0.0627227 0.09943093 0.0490387 -0.06579366 -0.03167654 -0.008766385 -0.08816766 -0.06752198 -0.0178746 -0.07985109 -0.013057682 0.061015718 -0.19186994 0.08102867 -0.121817715 -0.012755357 0.081369 0.094420426 -0.026499256 -0.018408665 -0.13355748 -0.0067577986 -0.034991775 -0.020876091 -0.02567447 -0.060104873 -0.024890872 -0.02220616 0.10033429 -0.018416237 -0.14236419 -0.037718162 -0.00068523287 -0.023144284 -0.06570091 0.08040901 0.007011435 -0.033004865 -0.058750022 -0.03635692 0.0063217236 -0.012308225 -0.0821832 0.027202228 -0.035199057 -0.04118954 0.06019547 -0.123777814 0.03533353 -0.072154015 -0.027689893 -0.0382438 0.006909756 0.041501682 0.054904833 -0.071089335 -0.0048194462 0.032587543 0.04391643 0.08602524 -0.030472893 -0.05012579 -0.018032769 0.01868382 -0.03260759 0.01839976 -0.059573527 0.07558583 -0.014527778 -0.062441085 0.061596032 0.038097993 -0.054036725 0.0149549125 0.029670823 0.004404404 -0.0053119133 -0.08885148 0.05923657 -0.009412623 0.008827797 0.03514045 0.06728151 0.08640058 -0.08037189 -0.14643712 -0.028192291 -0.06820271 0.09908762 0.042829707 0.05241715 0.048482653 -0.05236174 0.089954175 -0.08726972 -0.023914952 0.02098156 0.061681744 -0.070658855 0.009826352 0.0807535 0.021225927 0.034675226 -0.12745124 -0.015711203 -0.039026763 0.023650197 0.0095462715 -0.068577476 -0.08798369 -0.05306344 -0.11022484 0.09815149 0.15826404 0.031630646 0.03464973 -0.06931303 -0.00733402 -0.06750077 -0.06534147 0.0012828741 0.04118891 -0.060475178 -0.06947512 0.09471742 0.06473442 -0.087610506 -0.0077100517 0.07057505 -0.06662777 -0.0257103 0.066154405 0.105026 -0.036421414 -0.033707228 -0.14843589 0.08544113 -0.09912691 -0.10985496 0.016530145 -0.04024921 -0.09834007 -0.004190682 -0.13133939 0.121704675 -0.022182431 -0.012547311 -0.09562373 0.019944072 0.06072737 0.04824623 -0.15936129 -0.022674097 -0.018314013 0.030881755 0.09101153 0.006413222 0.078614 -0.11724208 -0.010134075 
-0.036080033 -0.16597933 -0.031871982 -0.031405214 -0.0075582447 0.0659725 0.0013261174 -0.09017177 0.08059095 -0.07588154 -0.06811444 -0.005983826 -0.11697749 -0.025832994 0.1395032 0.096042216 0.13798024 0.08157041 -0.0043439716 -0.02513118 -0.051923607 -0.062320605 0.011733243 -0.06243973 0.04392278 -0.06801806 -0.061868813 -0.058848415 -0.14301877 0.04746177 -0.022068612 -0.07131605 -0.086825624 -0.13181521 -0.03415587 -0.05217943 0.054851156 0.12622084 -0.103097744 -0.07404912 0.017215654 -0.037710305 -0.1399626 -0.09532789 -0.1379506 -0.11822838 0.16029333 0.112326734 0.13229127 0.0466439 0.06955494 -0.04099202 0.030713612 -0.035138324 -0.012873474 -0.117258966 0.035830982 -0.037545446 -0.029316312 -0.16056584 -0.16827726 0.010722646 -0.016119102 0.03589907 0.0006025457 -0.0114652505 -0.082791984 -0.07801569 0.007362884 -0.013699594 0.005902267 -0.05174403 0.10750691 -0.081190646 -0.04236249 -0.11330201 -0.12644944 -0.020098053 0.09235555 0.12224445 0.034557845 0.020588104 0.02684207 0.03778075 0.11429071 0.039743386 -0.0068055866 -0.07005459 0.054147556 -0.07407907 -0.1389517 -0.04221622 -0.033538073 0.07901679 0.041523196 -0.02937153 -0.08393532 -0.23978387 -0.12048717 -0.02229902 -0.012995994 0.0060475036 -0.054898866 -0.11225759 0.104974695 -0.064542025 -0.011009996 -0.07682797 -0.11382106 -0.070485614 0.12229133 0.016561216 0.057926144 0.047293816 0.1345586 -0.06278884 0.06797999 -0.029395578 -0.081419654 0.0024828725 0.052021682 0.039311145 -0.11725112 -0.16745132 -0.14030614 0.036397554 -0.027333561 -0.03594847 -0.03144123 -0.25993925 -0.123671584 -0.06412356 0.07755706 0.023362879 0.039636843 -0.13709493 0.13477899 -0.07360087 -0.18771091 -0.13781928 -0.12656215 -0.09602812 0.13850997 0.2101329 0.14009964 -0.043764696 0.11618685 0.06326135 0.009457999 -0.0027438034 -0.14094733 -0.08180102 0.031036964 -0.07280596 -0.14402407 -0.25351536 -0.15903683 0.04083325 0.081425086 -0.067684725 -0.1405573 -0.07055828 -0.06804542 -0.08947689 0.074346416 0.10666855 -0.05542849 -0.109416045 0.13809521 -0.04427079 -0.11840711 -0.10796716 -0.025572576 -0.0827963 0.144667 0.17100278 0.055997252 -0.03155062 0.06232417 -0.0009280186 -0.024402913 -0.0648153 0.042709913 -0.07553506 -0.098771036 0.029102787 -0.041745692 -0.17683697 -0.05122372 0.0021548895 0.08583896 0.010354499 0.060664803 -0.12042044 -0.025945015 -0.090610355 -0.013258229 0.12388624 -0.05909971 -0.12397649 0.00087198685 -0.058366403 0.0070539345 0.023728156 -0.118391804 0.06446838 0.11233569 0.09631184 0.043008596 0.047785178 0.057902668 -0.042571176 0.018576026 -0.0018466071 0.060887296 -0.0330043 0.06619363 0.009276972 -0.04870214 -0.0600133 -0.1881977 -0.036508426 0.074757956 0.022680033 -0.06409041 -0.14347062 0.010422084 -0.053256955 0.020877993 0.08273368 -0.050740466 -0.042431436 0.025011212 0.07378681 -0.095374666 -0.07952449 -0.047764197 -0.0846688 0.1999769 0.18233398 -0.009671926 -0.06969291 0.09280837 0.047855783 0.11077675 -0.06168924 -0.0111852875 0.051849086 -0.08998776 -0.009653288 -0.1027424 -0.10012939 -0.12442901 -0.02417586 0.15177599 -0.056324016 -0.087326676 -0.08377917 -0.001937027 -0.1118226 -0.06316147 0.040375017 -0.04387322 0.013080264 0.053152144 0.012411269 -0.032154176 0.04955333 -0.049446106 -0.0033553722 0.05467338 0.121137924 0.032382797 -0.007230635 0.12490971 0.05653072 0.01399137 0.0631481 -0.044160932 0.041828807 -0.03394506 0.018911116 -0.072974846 -0.17906824 -0.017497312 -0.009891883 0.030878756 -0.09565462 
