kern1:
-0.23428823 -0.20866291 0.0051668305 -0.033751767 -0.07437189 0.03214219 -0.2664916 -0.088700026 -0.07964696 0.047135014 -0.06294502 0.004231625 0.09122634 0.02632633 -0.08115951 -0.040873405 0.019187778 -0.046920687 0.036615565 0.19842471 0.14546496 0.083803035 0.203487 0.18754935 0.10571018 0.14689104 -0.06182576 
0.1523102 0.1218258 -0.19461006 0.0961221 0.04995779 -0.1777457 -0.006851859 0.072776996 -0.17904076 0.16226703 0.08793745 -0.15185367 0.01569855 0.050410517 -0.047289137 0.105461 0.15625449 -0.07731932 -0.0636261 -0.004413029 -0.079958595 -0.054267805 -0.020479191 0.011490991 -0.0016208105 0.023850469 -0.11596384 
-0.01019589 0.09619795 0.024687707 -0.13694464 0.058704987 -0.122566596 -0.0896298 0.11837086 -0.09147541 -0.1207402 0.18692675 -0.043153547 0.067261554 0.015342642 -0.022785138 -0.069780774 0.06733577 -0.15450309 -0.08498823 0.06535748 -0.14011654 0.15873455 0.18365054 -0.090390556 0.0018687381 0.09877575 -0.065591 
-0.15615015 -0.12940536 -0.0987835 -0.1439066 -0.14676039 0.15497553 -0.070550434 0.0935636 0.104372546 0.05087497 -0.08653442 0.057507094 0.11261082 -0.109308645 0.1228097 -0.120897695 0.024564976 -0.01160877 0.02495041 -0.15047231 -0.046579257 0.10010297 -0.026847387 0.18909095 -0.08237106 0.05000647 0.15542568 
0.08710135 0.15678106 0.031832784 -0.06624444 0.16076912 0.0067393677 0.08242169 0.13059059 0.08051758 0.05908426 0.10492921 0.13782799 -0.090072475 -0.00151507 -0.15208487 -0.19917707 -0.09490907 0.09568739 -0.110828556 0.0023251567 -0.14430833 -0.21250369 0.11231547 -0.031492542 0.047546837 -0.16039966 -0.04036962 
-0.0137305595 0.026257345 0.108096085 -0.06529598 -0.013278277 -0.07741459 -0.14191326 -0.025596064 0.090197794 0.118143655 0.18947238 -0.004710232 0.030684168 -0.003853525 -0.057473045 -0.15164316 0.054421674 0.049216233 -0.036386818 0.057316314 -0.07129457 -0.084817015 0.15146807 -0.15268189 -0.09455255 0.15549853 0.07987357 
-0.037482955 0.09864457 0.035065014 0.13723883 0.20898226 0.036423 0.17944069 0.031988334 0.09947213 -0.037566885 0.021789547 0.12402917 -0.023386318 0.09892772 0.07447755 -0.09782343 -0.07603976 0.044461608 -0.106844716 -0.13673575 -0.103696845 -0.08954174 -0.1471197 -0.10891225 -0.16145718 -0.031265892 -0.044432834 
-0.06540875 -0.04042834 0.22272299 -0.03296443 -0.032357752 -0.084998116 -0.062130813 -0.17984024 0.081581645 0.13593535 0.082094796 0.052191265 -0.0955966 -0.1269239 -0.07158839 0.06261714 -0.19224659 -0.0371188 0.016238833 -0.110717684 0.040260367 0.11734731 -0.08788582 0.12677059 -0.002180966 0.010321848 -0.072083205 
0.02272253 0.028452747 0.1293005 0.039161343 0.09608812 0.2175761 -0.104667656 0.1289674 0.06816588 0.090493076 0.038797315 -0.032043155 0.06464378 0.10750495 0.14441632 -0.034204047 0.067078255 0.031699996 -0.1418637 -0.0799792 -0.011655799 0.029067203 -0.14458656 0.0046733194 -0.08496577 -0.2683749 -0.23618254 
-0.17096512 0.1258932 -0.099425 -0.1591529 0.10344646 0.00507624 -0.067287475 0.10211491 0.042734556 -0.14030853 -0.030793907 -0.06342187 -0.052353106 -0.031301953 -0.07549694 -0.14047098 -0.077435724 0.036873337 -0.13162768 -0.06130887 -0.019677501 -0.09735133 -0.030610839 0.046551146 -0.021139188 0.1227084 0.078069 
0.058856405 0.05211724 0.07237522 0.11251824 -0.10046044 0.11398696 -0.06866659 -0.15251806 -0.098292895 0.048596993 -0.1635776 -0.1076008 0.11996269 0.032481328 0.11036441 0.10046207 -0.22511192 0.055076763 0.12503363 -0.03804019 0.013803174 0.008916488 -0.1066528 0.0006599139 0.001021193 -0.21949904 0.13670485 
-0.10201561 -0.0064338488 -0.19752853 0.08976342 -0.08356269 -0.062354997 0.07383218 0.0068676933 -0.07888939 -0.16123335 -0.16097285 -0.12725481 0.0045030373 -0.058198053 0.119739875 -0.038242273 0.112036936 0.22103567 -0.06278536 -0.08112123 -0.13213454 -0.017148886 0.031193737 0.11632229 0.18227996 0.118210375 0.24369974 
0.08370849 0.06998472 -0.14207102 0.17218436 0.11101672 -0.069419175 0.16875418 -0.050591674 -0.24217102 0.17392279 -0.013818105 -0.20364307 0.006176905 0.039061334 -0.17422727 0.10028937 0.05156306 -0.051540524 -0.056141175 -0.08027597 -0.0792829 0.12338744 0.024736585 -0.16970624 -0.09260527 0.105789214 -0.06556633 
0.020587485 -0.017950108 -0.11752546 0.11556457 -0.19286117 0.12270467 0.106056295 -0.051914487 0.020622505 0.124289446 -0.07773938 0.049988963 0.08265107 -0.09816768 0.022857087 0.1665199 -0.15182735 -0.029927691 0.1894019 -0.19592208 -0.06742397 0.021035844 -0.1398278 -0.10185129 0.0027619363 -0.013710233 -0.12546447 
-0.05204702 0.06179119 0.18315864 -0.045850612 -0.13559408 0.21179181 0.09147174 0.12144196 0.253304 0.08661449 -0.0427562 -0.10085229 0.05895735 -0.15908197 -0.05282995 0.06668115 -0.03830021 0.2115011 -0.005124666 -0.06299971 -0.046798315 0.020217987 -0.21604264 0.09880774 0.02194384 -0.12867731 0.046536975 
-0.02153087 -0.056149878 -0.115313254 0.052289013 -0.09819324 -0.029668923 0.009675265 -0.015198334 -0.19397366 0.00455021 0.14086732 -0.07203277 -0.12374874 -0.027228922 -0.11480092 -0.015048068 -0.085009515 0.021517823 0.041295506 0.10181187 0.14509308 0.13214085 0.09880195 0.18748903 -0.123623535 0.08921074 0.032666545 
-0.05627257 0.217066 0.1080398 -0.0031916848 0.080996454 -0.012941443 -0.116648 0.053038787 0.024229242 0.12656054 0.11803484 0.054585874 -0.071663976 0.17599453 -0.10711363 -0.1717525 -0.14636964 -0.080393694 0.015096237 -0.05923841 0.07014353 0.057982337 0.08860902 -0.06211375 -0.201874 -0.03733044 -0.09877208 
-0.05546626 -0.0859997 -0.08956456 -0.1408283 -0.0714142 -0.07330642 -0.05065196 0.13294892 0.0303315 -0.10323588 0.05227168 -0.113311045 -0.059960008 0.15903941 -0.04904153 0.009375263 0.1911889 0.014491414 -0.068507396 -0.07447827 0.016386319 -0.042056393 0.12519398 0.10859726 0.015793648 0.17349851 -0.00060212426 
-0.039072987 -0.08951807 0.10105508 -0.10165297 0.017278058 -0.095222436 -0.047211 0.033518307 -0.010182108 -0.051800653 0.075459614 0.012693443 0.07425875 0.014317522 -0.062880464 0.025712993 0.11543002 0.21280535 -0.18135479 -0.110170305 -0.11113605 -0.02189164 -0.049652155 -0.010378432 0.099162444 0.03996549 0.1488731 
-0.12451135 0.09314384 -0.026938722 0.021459812 0.083811596 0.019266872 -0.10063233 -0.095604025 -0.13387628 0.08790101 -0.008395429 -0.033770084 -0.16233654 0.13571185 -0.08709003 -0.18006784 0.13019885 0.040969923 0.055150975 0.16548756 0.030464882 0.09017882 0.10171813 -0.015642287 -0.056847807 -0.033257626 -0.03683108 
-0.092855595 0.03486136 0.07296812 -0.025108676 -0.102632836 0.04323316 -0.11071428 -0.025170004 0.112731844 0.032041416 -0.0032091427 0.066823855 0.07342968 0.11491978 0.18309066 -0.16187835 0.07633309 -0.047372878 0.019213501 0.032203946 0.20739569 0.09108723 0.11304331 0.17327905 -0.115400046 -0.17779566 -0.045786023 
0.10211402 0.078154996 0.087956384 0.15088496 0.04306608 0.2059048 0.102584034 0.039942432 0.03513856 -0.13024099 0.075330704 0.025266768 -0.084506065 0.10466583 0.074376404 -0.070817724 0.026306536 -0.030931985 0.05829028 -0.20213553 -0.11186615 0.030844614 -0.23574144 0.017991913 -0.170015 -0.18387997 -0.019327642 
0.037259784 -0.07627899 -0.06605495 -0.10270595 -0.18482307 -0.06136328 0.11044791 -0.12657543 -0.07261841 -0.15165679 -0.046410307 -0.16534492 0.10609901 -0.10326694 -0.102415286 0.10929402 -0.017492956 0.14239286 0.0035126414 0.035622604 0.12727419 0.0030740844 0.13963863 0.08874768 0.013413696 0.17128961 0.10765752 
-0.034004137 -0.20802918 0.018798748 0.03537129 0.056014434 -0.05047839 0.055519745 0.104620434 0.25189877 -0.124090046 -0.08988993 -0.02307305 0.066102505 -0.045403726 -0.0881213 -0.020312669 0.011719463 0.09328822 -0.10275909 -0.20942913 0.08597572 0.009105714 0.017958924 0.0026850626 0.007846197 0.037122276 0.20487396 
-0.16294685 -0.19954397 0.0145267835 -0.0411609 0.046697296 0.007412355 -0.108363904 0.017017389 -0.13703421 -0.06691459 -0.12066129 0.02804025 0.038753405 0.0026550195 0.036877908 0.0032336423 0.055236194 0.048391048 -0.0060838643 -0.13481338 0.013612646 0.10169456 0.10676454 0.23530683 -0.040464025 0.16466324 0.26013952 
0.07175493 -0.11970674 -0.06111003 0.073876165 -0.10804564 0.13837992 -0.055805236 -0.055214792 0.14918102 -0.035136238 -0.051034268 -0.102094054 0.013069438 -0.00069210073 0.08452953 0.0699652 0.06493929 -0.024662245 -0.04333558 -0.10919329 0.095869005 0.11149627 -0.07695327 -0.058154315 0.1583005 -0.14396675 -0.12962778 
-0.1313268 0.13393831 0.028091254 -0.0111456 -0.017556341 -0.05338271 0.14972766 0.11756496 -0.17428188 0.124011114 0.052731745 -0.22606894 0.14402951 0.09140577 -0.0556032 -0.055064544 0.1980283 -0.14680243 -0.051290005 0.11129148 -0.019866403 0.12099011 0.02519112 -0.19743116 -0.10405483 0.15206665 -0.109535284 
-0.060729213 -0.15666391 -0.06948138 -0.10251471 -0.072756745 -0.1358424 -0.08330756 0.10444352 0.09215605 -0.0015681076 0.06089355 -0.058186688 -0.15065847 -0.08095008 0.05203612 -0.08173071 0.07472309 0.12440589 0.05441449 -0.11768733 -0.0674248 0.091562614 0.1417037 0.09954033 -0.050092667 -0.020091496 0.20194888 
0.17598805 0.11692646 0.074693054 0.057562597 0.121078156 0.03694544 -0.15349174 -0.053544536 -0.1342667 -0.02536192 0.11875476 0.23817347 0.03735535 -0.0042913407 0.07105791 0.012700376 -0.07383613 -0.1428065 0.0020710279 -0.03540557 0.03973227 -0.038275372 -0.18947633 0.057318766 -0.18126209 -0.23088793 0.067480505 
-0.062507205 0.08258176 -0.015378908 -0.104718074 -0.032374896 -0.028429028 0.12856673 0.037837468 -0.061949983 0.10056444 0.039006412 -0.090502515 -0.069984354 0.001637534 0.052290466 -0.02747657 -0.10608286 0.19010527 0.073184304 -0.16046472 0.026948074 0.07262956 -0.15185307 0.007096514 -0.08893664 -0.04132048 0.21739186 
-0.15605298 -0.2141975 -0.16156012 -0.042711876 -0.15756184 -0.035201523 -0.045052234 0.006512738 -0.20835787 -0.043820545 0.0920125 0.034371782 0.07706175 -0.10168915 0.15686631 -0.09155954 -0.11591504 -0.070349455 -0.019728132 0.15615812 0.16996609 0.20586693 0.110533684 0.15967986 -0.058379613 0.22469634 0.14867489 
-0.021175602 0.18308608 0.17136514 -0.039832026 -0.009155418 -0.08983679 0.0022081851 -0.036036752 0.019286461 0.04039514 -0.010826158 0.08584795 -0.09663695 0.1097695 -0.09720894 0.01829054 0.03724232 0.091109194 -0.10101242 -0.0980257 0.006225976 -0.00530169 -0.03894993 -0.12929322 -0.110049024 0.10193401 -0.052015204 
bias1:
-0.0017275584 -0.013105314 -0.0029219969 0.010025157 0.00067511806 -0.0038442807 0.00063016126 0.014250391 -0.007742485 0.025877656 0.0004373214 -0.0020683743 -0.009236365 0.001031192 -0.011414871 -0.00055725535 0.00048552503 0.0014286374 0.0022670152 -0.000764005 -0.015963985 -0.0006985172 0.00024519203 0.0001240048 -0.0016304355 0.0013432461 -0.012551384 0.0108982315 0.001851084 0.003695914 -0.00085992686 0.0031138286 
kern2:
0.035464745 0.10628717 -0.030625746 -0.06495644 0.2336485 0.10854177 0.18541539 0.021549614 0.14876711 -0.016963951 -0.10763429 -0.0026152204 0.05919185 -0.060100175 -0.01616695 0.026541222 0.1618586 0.12635782 0.040193263 0.06994697 0.11844594 0.12312086 0.086880095 0.018742789 0.07090669 -0.008003678 0.03482552 -0.03775295 -0.02321617 0.008021692 0.012538052 -0.060382344 0.009796897 0.14333723 -0.031681664 -0.117507756 0.33177155 0.046565 0.33974338 -0.14735432 0.18854648 -0.02712198 -0.048857648 0.074208595 0.08766888 -0.11637145 0.10608588 0.034234673 0.17122132 0.056653704 -0.037052464 0.0022555217 0.06524441 0.095016666 -0.014909979 -0.08504686 -0.045573596 -0.12577787 0.16095203 -0.03712215 0.08161278 0.0115256645 0.10484143 0.080273844 0.049767233 0.09124571 0.0769481 -0.1354831 0.19672681 0.12805368 0.16258353 -0.07817955 0.18671973 0.10390699 -0.059031274 -0.0017952181 0.09097698 -0.117045306 0.027794499 0.090110146 0.073136635 -0.041257143 -0.039548196 -0.07296237 0.13581213 0.11034446 -0.015387646 0.013428385 0.032485217 0.032683343 0.11488568 -0.12450215 0.015387003 0.0035657291 0.031273548 0.08084121 0.027281085 0.06701105 0.09341765 0.0056823445 0.17462553 0.09521907 0.2384867 0.0624096 0.10323182 0.17578653 -0.123626254 -0.040261127 -0.051068526 -0.029167147 -0.09074732 0.0024366458 0.26269117 0.09632781 0.020562928 0.035678547 0.11849125 0.14563473 0.03643032 -0.059713084 -0.029960053 -0.12264398 0.048253983 -0.0019709924 0.03992684 0.062263772 0.08856769 0.017022913 0.08155553 -0.018672066 0.0896288 0.06742662 0.28508228 0.11973773 0.25340033 -0.07013962 0.16223396 0.15712127 -0.06036938 -0.05148368 0.008704638 -0.117069274 -0.0040655695 0.025569772 0.1697293 0.07138473 0.09225332 0.11587876 0.10816592 0.051950827 -0.04896049 0.03329154 -0.019535758 0.010949526 0.045435082 0.008170182 0.10667516 -0.044125184 -0.04355037 0.08182718 0.04112519 0.08650923 0.014046873 0.030785257 0.12703536 0.10185004 0.2634199 0.023272915 0.061146457 0.025076043 -0.08051059 0.047730967 -0.06416536 -0.053801794 -0.02713721 -0.054365687 0.084739745 0.16277468 0.1148064 0.028626744 -0.034194462 0.0047809384 -0.057848934 0.076234825 0.067609675 -0.015044091 0.055984102 0.031122882 -0.005007964 0.003234134 -0.0005465108 0.014793585 -0.07125751 -0.004496016 0.073719986 0.026690036 0.12065871 -0.05227457 0.018600978 0.0923731 -0.0698238 0.12141471 -0.04523045 0.034726877 0.06979609 -0.009417602 0.036891416 -0.06650139 0.09269233 0.07870223 -6.640481e-05 -0.0026405663 0.07328792 -0.0478656 -0.009590169 0.0788174 -0.079075396 -0.0076271594 -0.050056297 0.09794608 0.034838814 -0.0012958439 -0.013220817 0.039762665 -0.057597186 -0.0017677976 0.13207667 0.07063094 0.07386388 0.08918595 0.09600915 -0.035399903 0.019811815 0.17246331 -0.034426183 -0.08235588 -0.045057684 -0.122847766 -0.04821197 -0.05914192 0.09917849 0.050101746 0.13943875 0.072981395 0.0011024548 0.0431984 -0.04478286 -0.050783366 -0.041707594 -0.024049032 -0.055213545 0.104549035 0.04257687 0.025474004 -0.091831096 0.10730044 -0.084031835 -0.03441549 0.024750672 0.029786265 -0.038020175 -0.1078155 0.053391326 -0.04627229 -0.06131533 0.027895581 -0.034890775 -0.032805927 0.019602055 0.036024235 0.039322563 -0.022737375 0.08054752 0.06667794 -0.025181817 -0.0029684312 0.018764399 -0.062276505 0.06541996 0.092236444 0.004061615 -0.01494867 0.0031277575 0.05202795 0.09128621 -0.058673523 -0.07487258 0.055063013 
-0.086593546 0.02558088 -0.0064101857 -0.038216684 -0.008421001 0.044855908 0.056418326 -0.035723034 0.0030855206 -0.05126345 -0.038813666 0.13840435 -0.041938554 0.09371102 0.08438949 -0.11278663 0.109869 0.0331896 0.025257373 0.033399925 0.034758616 0.09345651 0.03967814 0.06764095 0.009524246 0.052348167 -0.11409312 0.016780138 -0.06379943 -0.04366995 -0.0757796 0.027941098 0.03751361 -0.06924285 -0.036943827 0.04464805 0.0743723 0.020755898 0.12635604 -0.05136038 0.11073159 -0.05598297 0.063161686 -0.022226945 -0.05208778 0.17681716 0.12055869 0.029504022 0.07036323 0.081190586 0.09576026 0.06843987 7.151265e-05 0.15739006 -0.076961845 -0.0011566307 0.11432955 -0.0027867793 -0.026829869 0.04279405 0.11024507 -0.05326829 0.0670042 0.054497313 0.016507586 -0.04148837 0.0153186405 -0.008264206 0.05561195 -0.040159564 0.027400982 -0.007870438 0.0057474445 -0.0064317114 -0.023389842 -0.11478387 0.06561114 0.17367972 0.13331702 0.00018783801 0.039483674 0.00430991 -0.015058036 0.07521052 0.038586006 -0.050674517 -0.08386201 -0.04823528 0.05571214 -0.014811385 -0.05093965 -0.040716182 0.055871464 0.08656802 0.035006933 -0.016180864 -0.09809738 -0.057720922 0.062979944 -0.042019624 -0.084145956 -0.056801204 -0.094999775 -0.042830307 -0.02838711 -0.030320099 0.12493144 -0.033130314 -0.027062612 0.11315459 -0.012998349 0.021207282 -0.08810499 -0.10754019 -0.06176669 0.052938208 -0.06396035 -0.0009402329 0.029481795 -0.014293565 -0.13112251 0.08711616 -0.10997885 0.002379045 -0.009957499 0.0072798966 -0.031114258 0.05967261 -0.17524944 0.0653733 -0.078691565 -0.0661915 -0.1275955 -0.14913054 -0.044977203 0.056188587 0.043375935 -0.07240833 0.038897492 -0.18547894 0.02710291 0.23788726 0.015036598 -0.13848881 -0.013801704 -0.1184601 -0.02365371 -0.045868486 -0.041851513 -0.0032121134 -0.04625799 -0.107824355 -0.1000631 0.1233582 -0.07791947 -0.10256796 -0.05826799 0.099968985 -0.20807934 0.015670465 -0.06312807 -0.020479517 0.009481656 0.060709897 -0.102869056 -0.12160835 -0.12596363 0.065406494 -0.030995091 -0.10781817 0.067157604 0.066631176 0.038756855 0.20669656 0.109321915 0.047868997 -0.10716812 -0.04927218 0.042582676 -0.00776476 0.00028424832 0.024756279 0.009369943 -0.017350208 -0.106696405 0.022793813 0.008611276 0.07241653 -0.1662732 -0.020637246 -0.1362025 -0.012106926 0.14233409 -0.055086438 -0.038561244 -0.0581302 -0.04325996 0.04138506 -0.03713837 -0.013230078 -0.11519192 -0.092406034 0.07829615 -0.0401971 -0.034634408 0.08191305 0.04135662 0.09139248 0.049945336 0.073885486 -0.0607206 0.06961603 -0.07528123 -0.052818384 0.12670583 -0.006193828 0.049007505 -0.071449906 -0.13153769 -0.055009127 0.024977546 -0.06402965 0.14652513 0.024767771 0.034640525 0.05485501 -0.07566541 -0.035155617 -0.093912885 -0.03963637 -0.19030888 0.091478325 -0.2035348 -0.041484796 0.0382113 0.17234716 0.10537263 0.061736107 -0.05154263 0.045575444 -0.20640965 -0.051936824 -0.015411421 0.042574316 -0.070154786 -0.13761753 0.024036605 -0.014632594 0.08268281 0.025909789 -0.14104778 -0.021854037 -0.11244536 0.06733029 0.14863303 0.03928278 0.19032104 0.027305512 -0.042650275 0.08913976 0.018723989 0.045109686 -0.12506558 -0.10292449 0.016788542 0.04725801 0.043049734 0.20895934 -0.07007201 0.0471905 0.021827804 0.14760083 -0.08201834 0.12005698 0.12681979 0.12004846 0.12091591 -0.119577065 0.15402617 0.10706824 0.19644651 -0.02620704 -0.06718119 -0.012651209 -0.10787973 0.049257725 0.1964241 -0.03180895 
0.07276473 -0.09367535 -0.08569303 -0.024761928 0.03650736 0.033563856 0.14666745 0.038473394 0.17463039 -0.023241393 0.08007224 -0.012908082 -0.02483763 0.061444003 -0.0059664543 -0.04756894 0.015871234 -0.09881145 -0.087777734 -0.034523834 0.022012353 0.09936192 0.025675869 -0.048998132 -0.018213183 0.008224083 -0.14495808 -0.06669866 0.12588173 0.011513961 -0.036197342 0.040795885 0.027348367 -0.10126162 -0.10594367 -0.029743573 -0.015771458 0.030562267 0.025406465 -0.021023227 0.008632611 0.067783415 0.12930745 0.28635034 -0.09302022 0.030005129 0.11728743 0.062044054 -0.076472156 0.046497677 0.10954159 -0.06154478 0.0149172535 0.030296206 0.17999117 0.077007964 0.026777685 -0.0067265322 -0.18479437 0.019442713 0.079876095 0.06721008 0.16997267 -0.03031268 0.14611433 -0.055365577 -0.07955729 0.008065543 -0.0885278 0.010517971 -0.041144148 0.03679152 0.003526317 -0.06692475 0.035465162 -0.066704944 -0.011202674 0.07590595 0.046888966 0.10924937 0.13723631 -0.08150162 -0.038381904 0.0017285281 0.028397582 -0.02397497 0.094488285 0.0043098214 -0.06966515 0.0492024 -0.20995983 -0.003172051 0.12954926 -0.06725268 0.05096962 0.0762914 -0.0540924 -0.12011199 -0.11129172 -0.0672058 0.023724748 -0.050565187 -0.036264922 0.10092983 0.075699285 0.032057263 0.02752772 -0.041673906 0.038585916 0.08418013 0.0098299645 0.022350783 0.08705628 -0.060054336 0.011434418 0.039021257 0.019523334 0.08303925 -0.07594002 -0.071030505 -0.074602015 0.014740226 -0.15642726 0.004602444 0.1283942 0.021436123 0.07555385 -0.067614116 -0.12340311 -0.02639616 -0.112513274 0.07496707 -0.0933 -0.09103604 0.0590534 0.07583341 0.0143618835 0.0014168728 0.095294856 0.17329583 -0.092287764 0.10198834 0.13869467 -0.04374647 -0.048071966 -0.07458483 0.021337172 -0.10532823 -0.10385103 0.007423491 -0.025849067 0.105799526 -0.11804686 0.104729086 -0.13103266 0.06348083 -0.012012172 0.063826755 -0.08255271 0.048825983 0.07681818 -0.07316557 -0.09103571 0.01284225 0.03281806 -0.013616564 0.12974681 0.11624041 0.0606023 0.013801475 0.15305611 0.16652581 -0.004053122 0.06799083 0.03097404 0.051844355 0.035096925 0.007277038 0.066347875 -0.038856782 0.045665674 0.035226997 0.14163615 0.023099406 0.0984879 0.11344117 -0.24879003 -0.042850185 0.101509474 0.09361003 0.14016078 0.015936453 0.16632032 -0.102445565 0.027740406 -0.01773756 -0.03275388 -0.09277148 0.13291739 0.06447424 0.14000574 0.059703223 0.116141625 -0.08150541 -0.085042134 0.13246416 0.084210396 0.12871312 0.093524225 -0.12801556 0.0110751605 0.035296313 0.048569113 0.12660266 -0.011563504 -0.048651807 0.07579344 -0.03182648 -0.109960735 0.015129686 0.21393146 0.0011256165 0.13681865 -0.041397415 -0.048888475 0.03027336 -0.06177759 -0.028422898 -0.05433972 -0.08514961 -0.031682786 0.07869471 -0.11847688 -0.018440802 -0.033560865 -0.08006418 -0.07379869 0.035558954 -0.06773131 -0.058484726 0.018822901 -0.0053835083 -0.090918764 -0.0011310368 -0.021176983 -0.11184665 0.05020186 -0.065760404 -0.075188346 0.07507754 -0.24421997 0.020260334 -0.052156504 -0.010647052 -0.017162282 0.013183127 -0.06394372 -0.09627586 -0.12786756 0.058244444 -0.021248342 -0.077167146 0.17386317 0.06911732 0.08135253 -0.06184644 0.019538812 0.06934885 -0.060244422 0.16406862 0.14549822 -0.058890026 -0.05300626 0.030052673 -0.023286616 -0.03569262 0.0206482 -0.008013899 0.005346906 0.1011958 -0.043395177 0.092435054 -0.25013515 -0.021146696 -0.042538997 0.05701188 -0.15663233 -0.03684779 
0.06404651 0.0018339367 0.011666461 -0.0017616574 -0.040184565 0.0011562875 0.08999222 -0.014569594 0.016929056 0.042858247 0.03241083 0.024483012 0.12681633 -0.010243199 -0.10328499 -0.09332719 -0.011678081 -0.048249144 0.08254715 0.07896744 -0.028734539 -0.016938217 0.03834564 -0.051521655 0.06371299 0.067254126 0.13800184 0.014511333 -0.03246162 0.06684949 -0.005537395 0.123274796 0.07792156 0.093876615 0.11085208 0.04711343 0.02906343 0.04191866 -0.036166973 -0.0066150962 0.011949079 -0.010566539 -0.03581739 -0.016536843 0.13434346 0.13604091 -0.1109248 -0.05541196 0.04151228 0.07468781 -0.022554068 -0.023918692 0.014243176 0.03404025 0.007612147 0.01463374 0.03463146 -0.011910159 0.17567205 -0.029965425 -0.091348715 -0.079399966 -0.065816246 0.08495696 0.0502733 0.117687345 0.0044193617 0.035965256 0.04685149 -0.04948661 -0.05623919 -0.004853046 -0.030692833 0.0032272493 -0.0074316496 0.013296289 0.11978986 0.051390238 -0.10029301 -0.046878908 0.04509251 -0.005187482 -0.026100243 0.09579228 -0.06507541 0.047113873 -0.010799005 -0.038805474 0.039473105 -0.041859012 0.06505067 0.0074452995 -0.011565306 -0.006248616 -0.08731182 0.0048723165 -0.035250306 0.081502676 0.02222518 0.04382262 0.03956043 -0.048135005 -0.097967125 0.025723293 0.03663882 -0.03573752 0.024394687 0.05238649 0.105912335 -0.016071433 -0.08800315 0.024581397 0.020967208 0.022687871 -0.061843887 -0.00047299103 -0.10958134 0.006480362 0.06590808 -0.052928332 0.0017413109 -0.018933602 0.17258482 -0.0822179 -0.034589376 -0.042638015 -0.006399904 0.021664651 -0.04427768 0.10426859 0.14359044 -0.00948214 -0.09687008 -0.10362667 -0.029169098 0.06439906 0.031550027 -0.04711287 -0.019061834 0.03694993 0.0901278 0.107473224 -0.12719972 0.120102085 0.067385875 -0.0056799827 -0.0024646497 -0.0039445665 -0.05677059 -0.036518034 -0.0026302466 0.0020341873 -0.15670167 -0.024234407 0.09684664 -0.0608943 0.03571241 -0.080937944 -0.076773934 -0.012427397 -0.04870684 0.05915232 0.054474406 -0.04057744 -0.031878226 -0.07143418 -0.013432897 -0.050997794 0.043706056 0.03484085 -0.024688637 0.08331722 0.12627672 0.038776048 -0.07286649 0.035676554 -0.025885096 -0.03979007 -0.041669358 -0.03176705 -0.039177552 -0.01572458 0.084878534 -0.08228788 -0.01689924 0.03517994 0.028247109 -0.0060044555 0.03485292 0.00040282944 -0.09647053 0.00040937524 -0.062442586 0.1666689 0.10402845 -0.06014381 -0.073153615 -0.062102936 -0.027374018 -0.011311869 -0.053320076 -0.104294695 0.058000624 0.0771607 0.09967654 0.09857279 -0.10546093 0.077320315 0.025555229 -0.017723672 -0.044399638 0.0061391853 -0.07480756 -0.0007062072 0.068148464 0.014906065 -0.033292666 -0.03109251 0.14840549 -0.009409652 0.071406715 -0.05387732 -0.0060320213 0.05864195 -0.100105844 0.15821393 0.0692335 -0.028612576 -0.070939355 -0.12601073 0.0036135057 -0.009057831 -0.0085265795 -0.1085952 0.04593817 0.05176206 0.08536262 0.1423553 0.015843844 0.023906028 -0.011231713 0.054597847 -0.10142253 0.026611118 -0.006937436 -0.02602075 0.08372234 -0.008022205 -0.011378401 -0.0016539171 0.09575189 0.045407385 0.054275174 -0.03540942 -0.03674566 -0.010731644 -0.010166989 0.12860775 0.041025173 -0.08057692 -0.0844045 0.030042224 -0.036101505 -0.029538533 -0.04755115 -0.05191346 -0.022716694 0.062306 0.18138775 0.09146831 -0.04761174 0.004719208 0.012579904 -0.040472716 -0.055202246 -0.07345249 -0.026119286 0.036974814 0.12376192 -0.045977682 -0.044340324 -0.02130454 0.090916246 0.07513489 0.04352247 -0.0020312245 0.007240215 -0.0673278 
0.016471447 -0.041504655 -0.04504061 0.029395796 0.1304387 0.07924323 0.1459741 -0.08758044 0.060826622 -0.026312986 0.005591217 -0.18235764 0.070038415 -0.109648265 -0.0007992304 -0.01974769 0.2130073 -0.123108685 -0.07089341 0.08071603 -0.025322944 0.06284798 -0.11595406 -0.13545917 0.010177587 -0.08203137 0.049167555 -0.066606835 0.084600374 -0.0826347 -0.08971397 -0.018770207 -0.098706655 -0.05820754 0.11242082 0.020506686 0.28694838 0.086381815 0.14206824 0.062553406 0.071110494 0.20620795 0.019343428 0.0754284 0.02511881 -0.17818706 -0.11094529 0.08262727 0.14465538 0.099657424 0.13365783 0.122577846 -0.051565148 0.024907367 0.06369485 0.09185259 0.036501583 0.013199453 0.035698477 0.08628528 0.20311016 0.05925713 -0.015303714 0.037100825 -0.034008697 -0.05474654 0.08204734 -0.015167454 0.20209621 -0.04409413 0.18085979 0.029569803 -0.008398051 0.12730183 -0.1475608 0.10486801 0.034333844 -0.099129334 -0.059171725 -0.04739043 -0.055592313 0.1693084 0.013057292 0.033948183 -0.090751804 -0.0004389214 0.04312188 0.16755304 0.056072243 0.06378602 0.023301337 -0.015882341 0.044683862 0.04411946 -0.09101105 0.08638063 -0.011211572 -0.025796382 0.09971885 0.06844763 0.03856422 0.046154734 -0.076194935 -0.05081403 0.00044675346 0.066518776 -0.073063776 -0.16952325 -0.12621011 -0.21611896 -0.090548165 -0.047675468 0.09537209 0.08821561 -0.016697621 0.013634431 0.06834784 0.035129897 -0.048360843 -0.046383373 0.09392694 -0.08111629 0.07417167 -0.002574517 -0.00960244 -0.00015015405 0.005004548 0.0029089483 0.07050372 -0.09231716 0.0072052847 0.086972244 -0.030181324 0.04273514 -0.05057317 0.028927712 -0.06951202 0.104545325 -0.088585965 -0.05219902 -0.07770607 -0.1312207 -0.050342154 -0.04728815 0.15730321 0.15209295 -0.008088314 0.084010914 0.0036357357 -0.12814866 0.043570954 -0.025651656 0.0664678 0.018853348 -0.02615595 0.017607702 -0.09270225 0.09891234 0.15588443 -0.056105383 0.052257974 0.032709714 0.020351337 -0.04214246 0.015383952 0.0120416 -0.13487756 -0.016093072 -0.11506448 0.057594314 0.015291184 0.16418189 -0.04609105 -0.14904508 -0.087143235 -0.03609709 0.060285877 0.23510645 0.077092886 0.07764024 0.07400721 -0.12826641 0.1287883 0.023319459 0.10951847 0.013618978 0.01991245 0.038188756 -0.020025788 -0.010694492 0.009473269 -0.031223774 0.023616528 -0.035091728 -0.009456354 0.043183673 0.041266866 0.034924358 -0.068522386 -0.07134133 -0.07425671 0.10613567 0.0027483008 -0.046608783 0.02511873 -0.1620366 0.015588106 0.03473507 0.0160127 0.09986555 0.021905437 0.049449634 -0.027306195 -0.097621016 -0.09960549 0.06659363 -0.04045582 0.014284363 0.08582712 -0.036665045 -0.06918814 -0.05771516 -0.04886134 0.016230699 0.0030055332 0.05025307 0.02428342 0.0052636457 0.03011645 0.026901647 -0.042869754 -0.019093005 -0.0672929 0.0774163 -0.08342328 0.03717011 -0.015337031 -0.046369754 -0.109317824 -0.0266641 0.077415876 0.13595219 0.017926954 -0.05668369 0.05627547 0.0068123685 0.08686227 0.01740978 0.07974917 -0.021909995 -0.013599803 0.0119135305 -0.026603967 0.022282386 0.0431308 -0.10895503 0.13869599 0.04213155 0.10583402 -0.0657105 -0.016985798 -0.045314893 -0.097534746 -0.0070485496 -0.040411312 0.08851677 -0.03530187 -0.026522614 0.009619046 -0.14521837 -0.0710593 0.10520948 -0.03849744 0.0055149207 -0.08376453 -0.027787803 0.018868718 0.016123118 -0.032263532 0.0662857 0.05941429 0.005079168 -0.011680122 0.052036792 -0.14235021 -0.03731477 -0.04324194 -0.082299754 
0.1201473 -0.00402137 0.0074455147 -0.052568626 0.059369367 0.031258848 -0.006362603 -0.074976824 -0.027276065 0.08983521 -0.09316836 -0.05745519 -0.028674196 0.034632195 -0.052397504 -0.11798915 -0.09900473 0.012778029 0.1603444 -0.010130874 0.051864643 -0.09946706 0.019849395 0.09973418 -0.0021847826 -0.016329437 0.11260851 -0.046197195 -0.17671876 -0.038524367 -0.004347919 0.048334405 0.07762261 0.11220153 0.061291564 0.008761052 -0.026172848 0.10022549 -0.15556355 0.018781075 -0.016736446 -0.030710721 -0.06312609 -0.120400034 0.08721523 -0.09072221 0.016201941 -0.07763974 0.05300998 0.05071364 -0.030546583 0.11604059 -0.07032646 -0.078453906 -0.079192266 -0.049349315 -0.04070324 0.038465407 0.13478656 -0.0778894 -0.16571103 -0.11877913 -0.120744735 0.039324556 0.09778628 -0.02262291 0.07038908 -0.0666554 0.0062261005 0.0036320558 -0.14691618 -0.034578416 0.05560814 0.028627465 -0.07666138 -0.17789905 0.011638137 -0.09553883 0.040565293 -0.005215034 0.016766611 0.010550429 -0.038396098 0.0031673936 0.023493394 -0.094345614 -0.14705755 -0.12856154 0.015294463 0.0022555562 0.05380432 -0.0027499069 0.0022932743 -0.029652685 -0.07513731 0.0031287894 0.040743988 -0.00018472434 0.056466512 -0.06388753 0.015664326 -0.008619779 -0.05686233 -0.08835293 -0.04265895 -0.07641816 -0.08209874 -0.0850925 0.03451958 0.04327682 -0.054475095 -0.12519594 -0.0872221 0.071791165 -0.03171864 0.030827524 -0.13804094 0.02798858 -0.0049081445 0.06632644 0.047583207 0.026862599 0.20199323 0.046191327 -0.07167379 0.045278788 -0.15654954 -0.041323088 -0.08520529 0.13082184 0.11772103 -0.033667587 -0.030930797 0.041478153 0.043023665 -0.05584329 -0.11219267 -0.103539295 -0.02133998 -0.1384175 0.07149906 0.029524032 -0.0056071174 -0.053299613 0.06336458 -0.022529932 -0.058053162 0.011645226 -0.037772525 -0.024753464 -0.10429982 -0.031456962 -0.10789005 -0.08168525 0.12489439 -0.005993169 -0.07321448 -0.08148545 -0.18414697 0.0021129043 -0.11227095 0.09807508 0.019414194 -0.03776663 -0.0416889 0.07792185 0.012479176 0.019553043 -0.013283012 -0.07052691 -0.009422149 -0.073332034 0.053892747 -0.023335012 -0.049044233 0.056116726 0.000260172 -0.015052223 -0.08684821 -0.07814385 -0.040183205 0.05701686 -0.13469702 -0.0884077 -0.045212094 -0.055387955 0.15708505 0.030170755 0.11426523 0.11936445 -0.17600958 0.02704366 -0.06092126 -0.033166204 -0.076678194 0.09864899 -0.07805045 -0.05006019 0.14439343 -0.017917536 -0.027179768 0.079954684 0.027669221 -0.013101808 0.08059752 -0.07553494 -0.045297544 -0.08988004 0.04467541 0.018476294 0.084245004 -0.059795737 -0.077384345 0.11479018 0.05828247 0.16999413 0.042632263 0.05445898 -0.05247288 0.028145708 0.014353537 0.12042915 -0.09456803 0.07085302 -0.13327521 -0.005907096 -0.11959033 0.100488774 -0.023217494 -0.03752831 0.14602475 -0.001385164 -0.046574555 -0.0048809056 -0.00350089 0.0043127583 -0.009133967 0.055204224 -0.052087568 -0.16667303 -0.05594042 -0.011994163 0.073817745 0.0025751889 -0.049746793 0.056556456 -0.07950474 0.011059193 0.07937061 0.033569388 0.0074048764 -0.057793967 0.07758525 0.07328326 -0.0961163 0.0036537575 -0.0489093 -0.0058604903 -0.16829619 0.016913343 0.10396898 -0.006610859 0.034580078 0.09101974 -0.03155247 0.06913578 -0.02101173 -0.028300852 -0.038115736 -0.025781436 0.032691028 -0.15258817 0.007415755 -0.037099738 0.036051694 -0.13449131 0.031527974 0.084618844 0.02905092 0.00046023232 -0.06694585 -0.07772773 -0.07356901 -0.0067885458 0.19946301 0.08181712 -0.02987798 0.0643151 
-0.06585393 -0.086122714 -0.097212754 -0.033451486 0.05238965 0.030585755 0.13346379 0.051728066 -0.04897473 -0.07032002 0.0157276 -0.16722521 0.034888737 0.04396852 0.062431596 -0.010691642 -0.05370316 -0.028000975 -0.01053221 0.05825867 -0.07693045 -0.008363062 -0.022634184 0.042383354 -0.01894261 0.09052599 -0.18100281 -0.043065134 0.11121653 -0.021240102 -0.0927916 0.05861643 -0.19788323 -0.0984262 -0.114153184 0.057997253 -0.06128545 -0.060873944 0.039463867 0.044158846 -0.049450554 -0.05013249 0.0003727523 0.069801286 0.017496658 0.097844996 0.043203276 -0.15572733 0.027857551 -0.030172406 0.0147010265 -0.06006506 -0.058306817 0.07510601 0.015595853 -0.0028623692 -0.15336524 0.13840958 -0.17422444 -0.008593295 0.1302131 -0.023402533 -0.20905773 0.046965417 -0.06727943 -0.09323237 -0.08974926 -0.028041188 0.00929314 -0.031907577 0.09035647 0.119766995 -0.01613534 0.048431493 -0.017775012 0.052279197 -0.0701655 0.018262139 0.11077768 -0.1043043 -0.10430133 -0.09140909 -0.009565908 -0.08466357 -0.06549209 0.02864619 0.06496404 0.08535568 -0.044753894 0.07723309 -0.0737979 0.004379283 -0.08964139 0.08124766 -0.118034944 0.022196898 -0.0039290097 0.015750166 -0.0019389247 0.04402453 -0.093227446 -0.04963512 -0.08838835 0.10671714 -0.014013409 0.01634288 -0.039809387 -0.18689723 -0.008092004 0.035009 -0.0014809531 -0.012783054 -0.029385393 -0.05807607 -0.028132891 0.07876157 -0.091230035 0.02901212 -0.063340805 -0.11462135 -0.111294456 0.078732595 -0.10608499 -0.034171343 0.122186646 -0.08701902 0.052158415 0.09839635 0.11370266 -0.02533177 -0.06617171 0.13718103 -0.04692542 -0.104311876 -0.009490435 0.0681603 -0.083541445 -0.019275144 0.035247695 0.21384285 0.002668506 0.08552854 0.0028281775 0.099227384 -0.12446213 0.0011825173 0.07219095 0.024032949 -0.010642861 -0.08893077 0.16135225 0.10880326 -0.05027645 -0.00078410737 -0.125849 0.0903671 -0.016192121 0.049130473 0.03627801 0.036629997 0.13277332 -0.08876245 -0.06596383 0.060844928 -0.109137915 -0.023124505 -0.11362981 0.12938654 -0.0759066 0.06371082 0.06341776 0.13909163 -0.013956598 -0.013189715 -0.045859303 0.054911066 -0.053288445 0.033543814 0.050059084 -0.049263373 0.0056356033 -0.046261802 0.18287225 0.13563912 0.058485914 0.09932775 -0.15988211 0.13034606 -0.025695305 0.08228798 0.16218494 -0.021234814 0.22224058 -0.08558344 -0.050437514 0.01356726 -0.0105320355 -0.0198776 -0.0815782 0.051743764 -0.00631631 0.08126864 0.09276318 0.008093078 -0.12244728 -0.052534774 0.06893502 0.14326583 -0.032029722 -0.067993626 -0.031292927 -0.02024588 0.09269293 -0.056644745 0.08802859 0.010432372 0.0075468244 -0.052000325 -0.058587722 0.10305935 0.018139599 -0.063346624 0.193832 0.023652168 0.22265099 -0.04947401 -0.083747044 0.078366406 -0.106522396 0.033984073 -0.14390567 0.028528633 0.05563721 -0.053289447 0.05593913 0.18074667 -0.102895066 0.0156272 0.088737026 0.04591282 -0.053001482 -0.03271748 0.10090442 -0.014790527 0.020656755 0.051999122 0.14775407 0.107007265 0.1305158 -0.037040208 -0.12359704 0.00067392155 -0.06787579 0.12738688 0.23358275 -0.08313266 0.110863805 -0.09568825 -0.002474654 0.028249886 -0.17214017 0.045910433 -0.19418131 -0.01347921 0.020373803 0.025078217 0.0044508297 0.08800141 -0.025550153 0.05295491 -0.007464141 0.114082664 -0.18639788 -0.0038398965 0.063399695 0.072696574 0.051857207 0.014335675 -0.0016046907 -0.008538645 0.10141441 0.0635902 -0.030736046 0.07220405 -0.039610438 0.024410872 0.18120943 -0.037554227 
-0.15175396 -0.058295406 0.07081211 0.007366825 0.025581555 0.042407084 0.04886582 -0.015473745 0.022283358 -0.049027067 0.10164646 0.19453934 0.06182363 0.040311363 0.11989577 0.052879237 -0.078352824 -0.030720267 0.06980833 -0.11315782 0.05194291 -0.015092369 -0.03433165 0.092963435 -0.06150799 0.05651936 0.0624215 0.026593734 -0.137981 0.0047318726 -0.12867077 0.005862372 0.044903703 0.030457838 -0.06286366 0.028943814 0.20234849 0.058161996 0.21621415 0.062972926 0.13755846 -0.059796058 0.11705428 0.062177237 -0.071132444 0.078822926 0.07851959 0.048702132 0.18486376 -0.045299955 0.053699568 0.053792745 0.12535112 0.18597853 0.03574144 -0.040299535 -0.0330169 0.002416086 0.027659265 0.04730961 0.27224937 0.021064894 0.107598 -0.015141685 -0.026142972 0.04019028 0.04734399 0.044660352 0.08604157 -0.0075895092 0.1390975 0.067397505 0.010929576 0.06874498 0.07365427 0.12902406 0.0760636 0.059314184 -0.023380576 -0.017752148 0.11638585 0.08960109 -0.020443143 -0.03072451 -0.05352101 0.11133848 -0.02457612 0.14352077 0.01948743 0.05490912 -0.046359308 -0.020365955 0.1673832 0.024313372 -0.15040684 0.033917345 0.17122442 -0.014583366 -0.029803237 0.09281567 -0.06250246 0.07530115 -0.13684832 -0.06554977 -0.092439115 -0.04091642 0.019256208 0.19851981 -0.0864189 -0.03632455 0.020014483 0.079078674 -0.039444502 0.14494929 0.08680411 0.07689802 0.09238604 0.027522732 0.13434827 0.020443749 0.17107625 0.05513633 -0.057888266 0.01072402 -0.12566629 0.050096445 0.16022955 -0.0043733004 0.095349826 0.025932206 0.0069168406 -0.034670725 0.043459833 -0.049051452 0.07872871 0.11880397 -0.0026969924 0.025968894 0.12287934 -0.38062313 -0.017061878 -0.019071452 -0.045768075 0.057047963 0.18193643 -0.13570555 -0.18274307 0.0956135 -0.029203046 -0.04226454 -0.10477529 -0.19432735 -0.18863982 -0.017398672 -0.08972527 0.045454483 0.16134292 -0.038970806 0.022684328 0.013215711 -0.14413638 0.061628144 -0.033284057 0.10785004 -0.06536101 -0.044485334 -0.0056595574 0.08938483 -0.19334492 0.10890834 -0.07560548 -0.01590633 0.058386814 -0.0288394 0.03765204 -0.098245054 -0.054568186 0.054588668 0.041630007 -0.1339483 -0.055229586 -0.046043735 0.03836792 0.048004486 -0.13337828 -0.024385769 -0.016505789 0.08791016 -0.26852491 0.025882779 -0.101453915 -0.094754934 -0.08278696 0.005962448 0.04741557 0.09849711 0.08975822 -0.024574902 0.1691745 -0.06454484 0.08211336 -0.051228356 -0.030781094 0.062110215 -0.09948 0.08476431 0.031325955 -0.066399775 0.14444965 0.06980631 0.0074820565 -0.069854304 0.12163835 0.1392255 0.064105 0.104210265 -0.056164406 0.035397008 -0.024809916 -0.00824436 0.1877334 -0.030358527 0.061325308 -0.07983224 0.025457418 -0.022371821 0.068735845 -0.061224706 -0.058805156 0.045319352 -0.034817394 0.043351367 0.08724454 -0.019935887 0.120130464 -0.12113718 0.017333033 -0.036106516 0.07449217 0.07280651 0.15440786 -0.010474539 -0.04433773 0.062066417 -0.013258066 0.078908265 -0.024978746 -0.13021778 0.01838722 -0.015867062 -0.018838042 0.08257396 0.28012958 -0.04675083 0.047198333 -0.054709114 0.059029534 -0.028375737 0.018999238 0.06705368 -0.09192005 -0.026374035 -0.05682221 0.042563595 -0.13252401 -0.006872053 -0.08295119 0.0484657 0.0071268054 -0.011458048 0.011370022 -0.061138276 -0.039611634 0.11937885 -0.021201622 0.08675751 -0.052090265 -0.13401169 0.043796018 -0.01242012 0.06633152 0.039481856 -0.08724725 0.107962854 -0.22438645 0.00337542 0.02978625 0.05759717 
0.09747779 0.17917709 0.19670112 0.04194769 0.020620735 0.06063149 -0.09475634 -0.056902718 0.021869728 0.07280083 -0.024183959 0.009455025 0.18089266 -0.0322264 0.0463993 -0.04881584 0.03490529 -0.0021828187 -0.0778825 0.057593394 0.015248469 0.03589574 -0.035013594 -0.06318595 -0.05474194 -0.025487162 0.1761957 -0.039937105 -0.11340115 0.051152736 -0.016291723 -0.012533651 0.08374263 0.12718491 0.17352037 -0.08022521 0.064043045 0.12543124 0.008855992 -0.04545288 0.051738575 0.00729693 0.06826792 -0.0635481 0.18796003 -0.061234057 0.014966125 -0.00013263265 0.051173724 0.0045278105 -0.12569767 0.06890225 -0.07145458 0.027068906 0.0031574306 -0.059715156 -0.08101146 -0.025716946 0.19638993 -0.028894184 -0.0021790336 0.039894156 -0.025829803 -0.07356127 0.08970416 0.045752432 0.044530816 0.07589079 0.11932054 0.009557615 0.058503572 -0.010680977 -0.043419637 0.039579015 0.060736477 -0.13621652 0.06233804 -0.077139154 0.01351511 -0.07635716 0.07766904 -0.05671014 0.080162145 0.013610363 -0.05348268 0.11495108 -0.028966857 0.002402732 -0.02587611 0.034770235 0.06894237 0.02713975 0.110357195 0.007875143 -0.031090949 0.03867007 0.01154294 0.14768246 0.12998751 -0.008976473 0.083125174 -0.014741141 0.0799488 -0.042372588 -0.08790466 -0.053439733 -0.03441553 0.113751635 0.17327085 -0.104506366 -0.12492202 0.033221994 0.0055174143 -0.038977128 -0.025305172 -0.08252055 -0.040524002 -0.06377779 -0.026192749 -0.068071574 -0.07490408 0.032505527 0.06577822 0.03237625 0.12599005 0.037319753 -0.041560397 -0.09785853 -0.07788037 0.1677211 0.04991954 -0.0066435067 0.11898857 0.03973198 0.14604525 -0.051600367 0.06087628 0.04931871 -0.01859957 -0.02751255 0.16300592 0.02995181 -0.07956622 0.0197835 0.14587714 -0.0076121846 -0.03751062 0.056961004 0.020565484 0.058591988 -0.05411774 0.044728413 0.011802568 -0.027874496 0.15478587 0.040969536 0.09889916 0.006190308 -0.0894352 -0.04361284 -0.005940882 0.13217951 -0.058481846 0.042305667 0.113454 0.034676902 0.025131186 0.056890905 -0.043016095 0.051825907 -0.042080134 0.0014167035 0.086833015 -0.100921705 -0.012156034 -0.1011293 0.12250981 -0.038503904 -0.03114137 -0.06992493 -0.069264345 0.016245538 0.010763666 0.06279266 0.04708135 0.03753345 -0.031357594 0.10633462 0.14535688 0.032829966 -0.004353228 -0.038928293 -0.10396988 0.04329094 -0.0834005 0.13149287 0.07319412 -0.056829914 0.090716414 0.12202813 -0.06128996 -0.0011411528 0.05020595 0.0020838908 0.025082316 -0.07725435 -0.03380642 0.035860196 0.09469971 -0.035652746 0.06696293 0.043862827 0.014465601 -0.020531619 -0.064015314 0.10559503 -0.06640091 0.07819951 0.072231114 0.017981227 0.15264891 0.056886703 -0.07473961 0.061380878 -0.009384853 0.07299727 0.03004409 0.10827886 0.030296654 -0.044560626 0.17002559 0.14265242 0.00076438213 0.14811268 0.023617707 0.0313196 0.027814548 0.023649383 -0.030638227 -0.0154036945 -0.018806431 -0.027726809 0.08489939 -0.018012904 0.033599705 0.0027905817 0.0014475152 0.06055186 -0.0033946438 0.033650786 0.055097327 0.0014194456 0.25436077 0.080276 -0.06158438 0.055085763 -0.06611152 0.04961288 -0.036321897 -0.013358536 0.044634905 -0.025215376 0.06898983 0.011060882 0.06106452 0.014711456 -0.0101474505 -0.038243633 0.0040729283 -0.044895522 -0.059835542 -0.097573355 0.010998786 -0.049197793 -0.03509695 0.009203496 0.016450236 -0.016947642 0.060000747 0.1027836 -0.0057900515 0.011810332 -0.08763675 0.094200656 0.07954936 0.027965449 -0.0071783 0.073148884 
0.2158557 0.069588564 0.059993315 0.057952847 -0.13087559 -0.018299544 -0.056835063 -0.029431852 -0.04847374 0.08974425 0.07833255 -0.066554524 0.03969098 -0.032636337 -0.02792825 0.118534654 0.09707169 0.046168488 -0.0485671 0.17031753 0.07873362 -0.13664746 0.10579346 -0.114940085 0.078366876 -0.074546844 -0.048369348 0.10736864 0.047872216 0.027544755 0.21898441 -0.0017189209 0.19995199 -0.017525109 0.07772839 0.06470071 -0.02187652 0.09770647 0.05889143 0.05193237 -0.036671482 0.10619811 -0.028478026 -0.11337998 -0.10566016 -0.016827304 -0.045813628 0.10497941 0.09380531 -0.00010130918 -0.01038116 0.16219556 -0.033318702 -0.060499728 0.018740531 -0.12344546 -0.02510909 -0.025588477 -0.0043672053 0.13111873 0.07925531 -0.02778976 0.33162728 0.026960285 0.009513064 -0.083569385 -0.029701212 0.0055812704 0.096150324 -0.015046025 0.20498371 0.079232164 -0.09429687 0.20210186 -0.0010023466 0.17188928 -0.020788714 -0.041601736 -0.1735902 0.038456675 0.075156204 0.094897665 0.23385106 0.121451 -0.1204815 -0.105280116 0.121896744 -0.00274214 -0.013281553 0.045154937 -0.08437071 0.20028609 -0.03118917 0.038305994 0.21174851 0.16607474 0.16860275 0.0984863 -0.038834188 -0.09538246 -0.14066581 0.08181916 -0.21874803 -0.07435793 -0.058156893 -0.1062133 0.06861855 -0.064797334 -0.058811314 -0.090192676 -0.013053558 0.036199853 -0.02609763 -0.07704055 -0.10355334 0.03663809 -0.005358513 0.02540328 0.0032310952 -0.16707645 -0.036470063 -0.093692034 0.09184522 -0.09729002 0.002496562 0.019219255 0.12855363 -0.050379407 0.31530052 -0.0644142 0.111286566 -0.017051788 -0.08332876 0.025047874 -0.1566973 0.082976125 -0.0032563515 -0.004312134 0.05801785 -0.13401155 -0.07209404 -0.034064308 -0.10701598 0.15314724 0.1745958 0.11179436 -0.116379514 0.15245065 0.13281871 -0.07971068 0.059625894 -0.081191964 0.09573843 -0.096302666 -0.013857621 0.0294145 0.05057535 -0.018753309 0.40223753 0.05223318 0.35212302 -0.08350472 0.094314225 0.0694303 -0.01567458 0.030383827 -0.06991926 -0.0023427717 -0.04575353 0.14397456 0.019748127 -0.019464372 -0.11132626 -0.031226307 -0.064173646 0.0997443 0.11078463 0.09179852 0.016186412 0.21937259 0.06710394 -0.14785263 0.17456327 -0.019383084 0.10680184 -0.09761726 -0.018954989 0.09724511 -0.052127123 -0.048507486 0.32563806 -0.052426342 -0.2217369 0.10226488 -0.10860935 -0.11204905 -0.081711896 -0.0035617147 -0.09743664 -0.16515096 -0.056496076 -0.048443906 0.022994267 -0.0073007736 -0.016430134 -0.049804937 0.06519239 -0.1197258 -0.07475321 -0.13992032 -0.051250283 -0.17213087 0.021059765 0.08343217 -0.10937834 0.0021630926 -0.063434325 0.020277582 0.14091597 -0.17823252 -0.047769293 -0.06500207 -0.13702124 -0.09780937 -0.150673 0.012904339 -0.07040944 -0.1393896 -0.13728574 0.062918514 -0.09055151 -0.109935835 0.07577034 -0.07586844 0.043282866 -0.14789335 -0.030711696 -0.13662858 0.10912794 -0.06717027 0.031972636 -0.037932675 -0.10890255 -0.08644811 0.019303696 0.06375383 -0.039303932 -0.08436112 -0.07764319 0.04603134 0.13403843 -0.05990031 0.0046015284 -0.04165051 -0.096058644 -0.06743731 0.12543307 -0.07546372 -0.08133654 -0.037837453 -0.1274255 0.070584156 -0.19970933 -0.04781347 0.016493956 -0.078791015 0.09376705 -0.17392516 0.036126535 -0.0025049187 0.022105318 0.0041381475 0.11258101 -0.14616983 0.014169722 0.023139168 0.110617615 -0.025162878 -0.042993423 -0.17703836 0.0033607031 -0.12317395 -0.013953391 -0.066019215 0.19015566 -0.014320625 0.11256111 -0.040489398 
-0.019746315 -0.020322915 -0.010686939 0.08487274 0.09700449 0.15921706 0.03493336 -0.03290073 0.063336946 -0.031544168 -0.031493902 0.057855587 -0.08250841 0.019532003 -0.007771932 0.009157592 0.13266163 0.074962854 0.0639587 -0.003758784 0.12653707 0.0006773387 -0.008039683 0.06988255 0.12643304 -0.06522569 -0.1095801 0.07891275 -0.018888095 -0.017775636 0.01635024 0.028037708 -0.029947907 0.020135988 0.046466395 -0.047946136 0.095217206 0.09430665 0.13163373 0.018128475 0.046311587 -0.037047554 -0.11424377 0.04451346 -0.107601196 -0.026746066 -0.001662871 -0.064669356 0.110459216 0.14127213 -0.0019729757 0.023891779 0.13618948 -0.05428875 -0.07426279 0.055189062 0.086015224 -0.036485206 -0.056923058 -0.007570598 0.0098276865 0.06828533 0.060922187 0.086846344 -0.04054517 -0.08340571 -0.012131212 0.0057606623 0.17206207 0.0041077095 0.12741809 -0.06373455 0.10932563 0.056578476 -0.03203312 -0.042532254 0.049208596 0.056550995 0.0689697 -0.031139819 0.17942451 0.097569525 0.05204565 0.042745393 0.08732991 0.107777536 -0.15689845 0.032399617 0.01505338 -0.02971759 -0.017092202 0.08139465 0.05820474 -0.021954676 0.0056764307 0.043982018 -0.031780336 -0.043202423 -0.03985843 0.044861656 0.07128604 0.024060236 0.014552055 -0.07029677 0.14213008 -0.015717985 0.124601535 0.038650002 0.06233516 0.18523178 0.09885646 0.001205597 -0.0002553669 -0.006270466 0.06451881 0.06204482 0.10960521 0.12028149 0.068204254 0.09590847 -0.006404157 0.1164559 0.0041344007 0.038575295 -0.010982816 0.03157649 0.013726874 0.08723828 -0.050502006 0.07804664 0.04978174 0.063991025 0.06758374 -0.02705472 0.11691542 0.05801698 0.08528621 0.021934057 0.14294893 -2.2113323e-05 0.1441669 0.29102993 0.14393976 -0.08400205 0.0592399 -0.038652316 -0.06470139 0.031367447 -0.042594247 0.09867708 0.020967301 0.0074575003 -0.07303329 0.13756289 -0.11592315 -0.039836545 0.1682382 -0.028211106 -0.10186808 0.05276491 -0.10235646 0.07149569 -0.035586625 -0.014374753 -0.0011108612 -0.10586115 0.018219909 0.009449346 0.01195832 -0.092294335 0.10336411 -0.088061325 0.11922719 0.30246368 0.10831471 -0.038568445 -0.068763494 0.02630696 -0.062219586 -0.05486518 -0.0724264 -0.03011827 0.10014644 -0.08006926 -0.093866415 0.15152137 -0.09355888 0.051743645 0.10032983 0.064450115 -0.079118714 -0.05691286 -0.08266151 -0.04750912 -0.030388413 -0.00071387546 -0.046906628 0.016478164 0.029447889 0.008233729 0.013966588 0.027337356 0.13941132 -0.027105778 0.13545898 0.23799647 0.082855806 -0.037163634 -0.001610776 0.031749807 -0.04536432 0.058293115 -0.007546281 -0.059397142 0.03173634 0.005272507 -0.0909167 -0.034169845 -0.07534407 0.024163231 0.033571903 -0.07597817 -0.07194199 0.065046124 -0.14739615 0.00094528444 0.045179073 -0.052853152 -0.12441532 -0.05839486 0.0040950556 -0.023772623 -0.05596721 -0.082491 0.15152615 -0.09809276 0.09784 0.27198243 -0.037955783 0.013168186 -0.0197894 -0.042413987 -0.10735443 -0.05030616 -0.03023885 -0.08578768 0.044171154 0.033189114 -0.15006875 0.08206562 -0.007951668 0.051505134 -0.054181725 -0.063986056 -0.11704407 -0.04771166 -0.015763909 0.07802034 0.0057999953 -0.05129467 -0.109519236 0.0053241635 -0.048691373 0.01345463 -0.047199473 -0.003221788 0.114648946 0.09389553 0.12556854 0.21650541 0.059304424 0.063829035 -0.16233753 0.009951404 -0.08779254 -0.019613333 0.01480499 0.011964185 0.14690298 0.016119415 -0.06624636 -0.015623525 -0.114198 0.09956528 0.022352774 0.009049588 -0.0021575661 -0.074526176 
0.002001745 0.10856928 -0.08351781 0.013168429 0.050542064 -0.024487462 -0.01592755 0.012002362 0.08609995 0.096229404 0.06683831 0.01938056 0.009657919 0.08412968 0.05735863 -0.07203287 0.025941651 -0.10243162 0.09356326 0.028685262 -0.08317813 0.06950032 -0.012861381 -0.014380582 -0.06609912 0.066692725 -0.029218122 -0.09570827 0.073813386 -0.006310049 -0.11900385 0.011993286 -0.13998972 0.041993473 -0.00508423 0.034866344 -0.027539885 -0.025957558 -0.04901387 -0.026497604 -0.067595005 0.04929058 0.11044795 0.12219308 0.0663188 0.124672264 0.015754726 -0.051408485 -0.040689178 -0.06635585 -0.02209734 -0.079360075 -0.14028876 -0.055722002 0.009756954 0.033641007 -0.061995365 0.087093845 0.1786425 -0.033037443 -0.09837248 0.01839694 -0.06795798 -0.028445771 -0.11128057 0.1936367 0.12593743 -0.08502656 0.09126529 -0.030221917 -0.025522837 -0.088189006 -0.024632832 -0.096229546 0.0028477854 -0.10433057 0.19025359 0.09417402 0.005384926 0.059785604 0.052024607 -0.014405135 -0.11978085 -0.009158899 -0.06582552 0.06469938 -0.07834957 -0.09380472 -0.10709983 -0.058779147 0.14279822 -0.14068219 -0.059047613 -0.029749628 -0.13537218 -0.0083482815 -0.10248685 0.013302403 0.03706613 0.1384405 -0.042046905 0.033683416 0.07955654 0.071620755 -0.08200689 0.12284838 0.065170646 -0.015199586 0.049085103 0.09670619 -0.051902812 0.014546807 -0.03830533 -0.05610431 0.0033657798 -0.012654898 0.06832086 -0.0077681295 -0.022804568 0.09881272 -0.039109282 0.056580413 0.072174326 0.07304123 0.23279129 0.15880038 -0.036231 0.004649434 -0.018787116 0.055295847 -0.13078274 0.07767155 0.026479816 -0.035064053 0.06421449 0.0012608651 -0.061729826 -0.020696104 0.10817451 0.07714748 0.02868236 0.082809046 0.077449 -0.009885731 -0.085476525 0.042924833 0.027967367 -0.16127022 -0.11484155 0.069783874 0.006682479 0.08227013 0.037466597 -0.008062254 0.06191621 0.0397806 0.06644108 0.032271974 0.04123971 -0.0845788 -0.05940868 -0.012823364 -0.060257226 0.02802509 0.0075833737 0.028414674 0.058453616 -0.07539845 -0.058283996 -0.05547242 -0.04140925 -0.07847148 -0.028625729 -0.07182622 -0.043755025 -0.049082458 0.028014915 -0.0782226 -0.00613345 -0.12976535 0.004710085 0.06649014 -0.058904752 0.0493092 -0.034714345 0.0076432135 0.005045043 -0.08311031 0.048762184 -0.013887643 -0.119192444 0.0076527577 -0.00597117 -0.12455388 -0.00078698015 0.1974631 -0.012888627 -0.026742596 0.013722861 0.007091972 -0.024600204 0.15703149 0.077051826 -0.120436296 -0.14025608 0.009382505 -0.011451511 -0.10863918 0.01128642 0.08913388 0.12988311 0.07403281 0.107344605 -0.0003385318 -0.111664355 0.08390371 0.060335964 -0.0011137231 -0.056106944 0.13932762 0.13202345 0.046094272 0.15684049 0.06794682 0.13178854 -0.034309268 -0.009728864 0.16783343 -0.056240037 0.037879754 -0.085464165 0.11183092 -0.08308186 0.06818467 -0.013047136 0.09610319 -0.083723694 -0.08607111 -0.022260461 0.016729722 0.004886316 0.026241513 0.18733676 -0.050956253 0.046044067 -0.09591404 0.044196256 0.22147071 0.043601133 0.041942623 0.022765907 0.09511109 -0.057710666 0.09205386 0.14882632 0.029642327 0.057603326 -0.09990619 0.08368283 0.063072026 -0.049710434 0.09811971 -0.002167876 -0.09949652 -0.04421843 0.089247465 -0.13894723 -0.09242303 -0.03760933 -0.016146421 0.026564542 -0.042137817 -0.1181709 0.027510878 0.017473217 0.022264339 0.07549697 -0.0016261926 -0.08957315 -0.009693 0.11301522 -0.1710341 0.0388958 -0.04872867 -0.053419348 -0.103901304 0.078460485 -0.024578873 
-0.07392065 0.014614843 -0.0010202648 -0.02760465 0.015326923 -0.028937886 0.07967147 -0.030653672 0.06975056 0.045710135 0.013832655 -0.3143089 -0.14120449 -0.16350648 -0.1101463 0.015039364 0.03612657 -0.101543814 -0.083256274 0.098383434 0.013360964 0.068960376 -0.122607656 -0.044767015 -0.1012734 -0.11788944 -0.0022043777 -0.04071294 0.06677795 -0.02954453 -0.22889629 0.05725751 -0.107968435 0.002082905 7.4976095e-05 0.061391022 -0.02760172 0.07290952 0.04350592 -0.04786515 0.025761735 0.10364279 -0.1428198 -0.083529614 -0.14384803 -0.13705781 -0.13773805 0.0067321956 0.02938196 0.031485766 0.055972874 0.013764764 0.03510237 -0.055475697 0.0153159965 0.00817793 -0.10275965 -0.0048209224 -0.04857373 0.009608276 -0.025147604 -0.014503546 -0.08230025 -0.0076828976 -0.1180477 0.0043147034 -0.06182513 0.07844972 -0.11849946 -0.031875 -0.06752173 -0.013152808 0.03855528 -0.0024920031 -0.08067437 0.06862723 -0.07569783 -0.12012221 -0.11089325 -0.028367085 -0.16346034 0.1526854 0.03662903 -0.055782888 0.058124553 -0.09485774 0.057687074 0.01700131 0.05436332 -0.11055569 0.036306288 0.021147342 -0.16396983 0.011719336 -0.09861653 0.0066820923 0.0075283893 -0.102930315 0.037010163 -0.065423295 0.08042365 -0.021279728 0.0009119519 0.08629163 -0.07133014 0.16450594 -0.10345237 -0.09844533 -0.163709 -0.22520638 -0.14216898 0.06875112 0.1081281 0.06936698 0.026842492 0.11657576 -0.06488029 0.071486786 -0.11017189 -0.08284053 0.031066826 -0.055734653 0.047529686 -0.006798094 0.026442746 -0.031517625 0.049509525 0.046466555 0.16083688 -0.015593089 0.12283674 -0.043780092 -0.046556465 -0.053463254 -0.10130674 -0.06551182 -0.09666234 0.1236412 -0.035836734 0.052018803 -0.15078858 -0.24407451 -0.049906943 -0.022967024 -0.014734806 0.07437967 0.10277685 0.13455045 -0.036799558 -0.05077306 0.04449644 0.07508787 -0.025039284 0.023890061 0.020634323 0.104074605 -0.16159542 -0.015198171 0.060822893 0.09713641 0.12692656 0.021717988 -0.041545153 0.060908932 -0.016226482 -0.041674223 -0.080213204 -0.076082714 -0.11707669 0.09763325 -0.08249593 0.020522267 -0.111658044 -0.16393363 0.018116085 0.06573192 -0.15584937 0.02760013 0.0342604 0.06579099 0.03298236 -0.042740844 -0.029969351 0.06922511 0.013851894 -0.0012442822 -0.041729324 0.028024985 -0.11227414 -0.033327904 0.013607174 0.04486168 0.1494336 0.010178694 0.082219064 0.07376147 -0.10604717 -0.016471207 -0.17165953 0.0034126001 -0.04633685 0.032189123 -0.08646444 0.025025392 -0.11996888 -0.19328864 -0.06235171 -0.0028935736 0.036847346 0.07073978 -0.09588104 0.124704234 -0.047945634 -0.10523732 0.0042396565 -0.04691012 0.078772515 -0.03529483 -0.012411214 -0.022820132 -0.04195508 -0.05359676 0.104778126 -0.038825076 0.22869585 -0.046539236 -0.01170912 0.02493008 -0.12878698 -0.009871301 -0.087613314 -0.002711182 -0.07848619 0.04499117 -0.038984347 0.06338875 -0.14089264 -0.22651033 -0.04511246 -0.011275287 -0.06740842 0.12614551 -0.04567805 0.040916685 0.07871607 -0.057493825 0.16588162 -0.06932531 0.07009788 -0.042303976 -0.0072817886 -0.06659893 -0.17443392 0.035993256 0.038741276 -0.06825475 0.20065783 0.0016194792 0.03968294 -0.08035194 -0.06745324 -0.04946792 -0.22055757 -0.010044213 -0.09636941 0.058066394 -0.06439409 0.0002372544 -0.10976499 -0.23025125 -0.03149596 0.06599881 -0.090628706 0.07122676 -0.029147623 -0.049619768 -0.011675926 -0.039906263 0.10240152 -0.027870009 0.089626625 -0.03022714 0.022928841 -0.054187212 -0.1428912 -0.00816592 0.005392058 -0.15519777 
0.0018131502 0.14783192 0.1005303 -0.012252187 -0.05111238 -0.046111885 -0.02439934 -0.07592455 0.008435262 0.007663145 -0.018311603 0.022089047 0.1332071 0.012957131 -0.04125196 -0.033558037 0.0032479204 0.031385444 -0.020532386 0.0992128 -0.10116836 0.00976509 -0.00921902 -0.02961957 -0.0021309077 0.045340408 0.1897893 -0.07527411 -0.053712975 0.004506743 -0.019687556 -0.02639106 0.09303401 0.15903276 0.1924063 -0.033924647 0.09700346 0.034252685 -0.09867879 -0.07793222 -0.048742242 -0.02165317 0.077754535 -0.08230504 0.16792056 -0.040104035 -0.10099988 0.025220264 0.067541115 0.08523392 -0.10595278 0.12330964 -0.06621421 0.02661285 0.05600178 -0.06266176 -0.01879157 -0.035748284 0.21588126 -0.10231527 0.024459809 0.007896689 -0.09338923 -0.05459009 0.022750305 0.07590842 -0.019711217 0.014905385 0.035864007 0.065720096 -0.031888735 0.055916153 0.04509254 0.03613007 0.10334852 -0.019274242 0.07478817 -0.003675646 -0.06844644 -0.050712764 0.079442605 0.033810355 -0.027232034 0.10262193 0.076167755 0.022929506 -0.014938371 0.03763537 -0.049217675 0.0639984 0.0707698 0.0037911795 0.08984136 0.11818731 -0.014152242 0.004352313 -0.064076945 0.050853353 0.0010110631 -0.0045289653 0.06591544 -0.07149786 0.009824844 -0.075721495 -0.057228137 0.0057288855 -0.042181514 0.08666812 0.03973589 0.009811518 -0.104341 -0.056001864 0.06735691 0.029582419 -0.054941967 0.0334201 -0.13151814 0.06657816 0.000632406 0.042568564 -0.09461337 0.069107965 0.05487806 0.0470951 0.05404959 -0.028377384 0.041407418 -0.036190357 -0.06185907 0.15254748 0.016691025 -0.07869246 0.036369916 -0.048721846 0.025217753 0.038785953 -0.10639181 0.016548904 -0.0063310727 0.02627101 0.20007972 0.013871295 0.0056915646 0.08009539 0.0307777 -0.046792343 -0.009161645 0.003801682 -0.045230452 -0.010084248 0.1040938 -0.052732438 -0.011610764 -0.033512186 0.15459491 -0.102451146 0.11703564 -0.016499247 -0.06942488 0.011984352 0.047819052 0.025828509 0.047374025 0.002484476 0.0046323226 -0.057080343 -0.050466094 0.024353523 0.07169553 0.03753617 0.060950182 0.05652632 0.13926987 -0.02355496 -0.00020575119 0.01966803 0.11691851 -0.0024046062 0.06315362 0.08443847 -0.06314356 0.013455598 0.08390647 -0.0065511833 0.007717776 0.04096929 0.097494565 0.053384304 0.036818426 0.098360024 -0.055797707 -0.060761742 -0.08842453 -0.049254123 -0.035433453 -0.03777019 -0.057047803 -0.00050944695 0.04379696 -0.011860668 0.0069450447 0.023527963 0.052661143 -0.020289436 0.08469311 -0.018815946 -0.07297835 -0.07151757 0.011762221 0.06107758 0.04653854 0.050510906 -0.030948916 0.10237327 0.023484206 0.051745556 -0.048138935 0.03226626 -0.009687343 -0.022889366 0.026966691 -0.027152022 0.0903225 0.03865739 -0.038574446 0.06835243 0.012338851 0.016799064 0.07341471 -0.025820633 -0.037432157 0.0911688 -0.0024246592 0.042604085 0.08949521 -0.014271054 0.062043656 -0.03937726 0.005812542 0.03765692 -0.05456082 -0.004983779 0.028635314 -0.049537946 0.06321931 0.08244251 -0.02965456 0.053027622 0.04816877 0.05380309 -0.03995993 0.077953584 0.06576852 0.08952504 -0.016236871 0.041604873 -0.007413075 0.08867743 0.027331416 0.049214065 0.023904024 -0.088331476 0.030775167 -0.023776071 -0.054116335 -0.0039128875 0.09412941 0.083184294 0.07597729 -0.0068363054 -0.08424957 -0.036631294 0.0240494 0.06314531 -0.020148316 -0.04441134 0.012724139 -0.032637067 0.021907065 -0.021233253 0.075963594 -0.033789203 0.113789886 0.042334966 0.070662834 0.06068484 0.03366807 0.056243576 
0.069068216 -0.06817687 -0.022229396 0.1015388 0.005675041 0.082787246 -0.07252634 -0.0015350541 0.0013998938 0.00202823 0.0041153976 -0.047926612 -0.07785499 -0.007939846 -0.0055160145 -0.11454543 0.017905787 -0.020578159 -0.012014521 -0.1385146 0.06572692 -0.0073995353 -0.0076948474 0.048686996 0.007983815 0.011766539 0.12377685 0.012871186 -0.14996614 -0.028823012 0.04333904 -0.058909588 0.052899543 -0.07050934 -0.08319584 0.05610441 -0.029577134 0.016843028 -0.014859622 0.03497553 -0.0050431713 0.12946457 0.12753086 -0.029716114 -0.04465015 -0.1452224 -0.038096763 -0.0063680797 0.09008931 0.03845761 0.07633773 -0.09010213 0.08647174 -0.0064942646 -0.010196949 -0.015918672 -0.010807962 -0.017374564 0.008374358 -0.018113824 -0.056144066 0.04744948 -0.0016413513 0.0093981745 0.05612148 -0.027526766 0.052652005 0.14428806 -0.015984025 0.02448307 -0.024811273 -0.016193584 -0.007232072 -0.007804582 -0.020297049 -0.10865862 0.0066181505 -0.03443607 0.021136548 -0.11705014 0.0079678735 -0.090957694 -0.042791918 -0.07703856 0.082467906 0.094303444 -0.112240136 0.057912115 0.119409725 0.033034828 -0.052514922 0.10390532 -0.036294233 0.15666021 0.118244156 -0.029764328 -0.032950975 0.08240528 -0.02024522 -0.043585245 0.026968546 -0.06142604 0.014285043 -0.05563074 0.014090057 0.073827766 -0.0814743 -0.028875563 0.05395372 -0.05596683 0.012706437 0.013918576 0.071247615 0.098459415 -0.02297552 -0.10185897 -0.008272018 0.068387456 -0.057173774 0.026125843 0.061782815 -0.006049392 0.027040023 0.06937359 -0.025800047 -0.033138968 -0.06927161 0.08142808 -0.015931575 0.14279589 0.12147849 -0.08805233 -0.024796896 0.09703072 0.109248385 -0.013175303 0.061541196 0.08959838 0.026389575 -0.10028728 0.035704453 -0.061648276 -0.062449496 -0.032850705 0.018674253 0.1110987 0.022963615 -0.062415607 -0.0828503 0.040010247 0.015982194 0.020388402 0.063267514 -0.055214513 0.21519142 0.014108954 -0.04296107 0.022835476 -0.045254484 0.0026161321 -0.006060519 0.12233837 0.1234701 0.10368321 0.104129314 -0.03171064 0.052800898 0.076069236 -0.014411105 -0.031529147 0.016129063 -0.050018594 0.114323415 -0.1285223 -0.09491439 0.032709844 0.11202314 0.010828259 0.039129194 0.06061279 0.021895917 0.08654586 -0.028467532 -0.037918832 0.03225761 -0.07075506 0.16127104 0.032249756 0.04223455 -0.035067007 -0.02561632 0.029807158 -0.00679971 0.07722723 0.0867851 0.07592446 -0.04332782 -0.0016892294 -0.005392944 -0.018931985 -0.081316374 0.12777786 -0.023451349 0.006282266 0.042362697 -0.09018861 -0.0029884856 -0.03691362 -0.0069362014 -0.015836934 -0.043961193 -0.05470919 0.05916576 -0.045306683 -0.0753627 0.02552304 -0.011776099 0.026221089 0.10202672 0.011280591 -0.0208609 0.010100405 -0.09585029 -0.043230087 -0.051420182 0.16357496 0.12389313 -0.044067 -0.006983391 -0.029610602 -0.05336915 0.02029015 0.029816372 0.009892579 -0.06908207 -0.026825786 0.15316287 -0.06963335 -0.116100505 0.0856279 0.022692163 0.004902846 0.015537284 -0.04221604 0.020379936 -0.057108592 -0.06517781 -0.006007648 -0.02240655 0.028871061 0.12710445 -0.0050146664 -0.08665929 0.0103687085 -0.05796676 -0.11141245 -0.048333436 0.06498329 0.004358062 0.0878311 -0.009811945 0.004171695 0.0007985367 -0.009207764 -0.042254705 0.04486867 0.021935692 -0.02234832 -0.0100921765 -0.09774482 -0.018956969 -0.029141491 0.08710437 0.03265261 0.0031369918 -0.03447523 -0.060046885 -0.056488354 0.027225012 -0.058291793 -0.07756856 0.046826605 0.14740548 0.004029993 0.039939538 -0.02179934 -0.05328683 -0.096052974 
0.03845104 -0.013472901 0.06176162 -0.051920995 0.0852745 0.0909873 -0.025117232 -0.11028719 0.05671675 -0.043231577 -0.03700115 0.044716094 0.013800746 -0.019204479 0.08201252 0.14836687 -0.03781154 0.044270243 -0.17596859 -0.12580837 0.0082308855 0.15351023 -0.016149685 0.11893673 0.13176994 0.06187113 0.05939621 -0.10235796 -0.08720046 -0.08052002 0.06801075 -0.10304243 -0.13229667 -0.005897052 0.003284674 -0.056536436 0.36073723 -0.020507 0.392234 0.060757387 0.16504373 0.038785856 0.116840154 -0.09606332 0.09260666 -0.031073194 0.14244093 0.06562842 0.3443075 -0.12014127 -0.05508827 0.025016095 0.04569928 0.2986323 0.007864602 -0.012672105 -0.02395216 0.0008676644 0.035963688 -0.019794796 0.4171096 -0.031538732 -0.1420833 -0.037551794 -0.03260554 -0.004692199 -0.04346337 -0.060685292 0.26339173 -0.06640839 0.26304165 0.051537663 0.22445399 0.065932274 0.083706096 0.030870533 0.016080517 0.03827551 0.106156416 0.066829115 0.11424136 0.062636785 -0.079695895 -0.044614833 -0.02555881 0.23800296 0.06974554 0.04622863 0.002000116 -0.03684453 0.061474096 0.011424805 0.17815292 0.044287495 -0.10629305 -0.02586088 -0.07626675 -0.004426818 -0.038808208 -0.09603937 0.33493352 0.045885243 0.3000818 0.022371786 0.26594213 0.04688248 -0.032853022 0.093795665 0.013182564 -0.02126378 0.10116953 -0.0009311009 0.2376862 0.049306426 0.015440663 0.039113626 0.11511118 0.2460649 0.0656436 0.06405815 -0.058799095 -0.06824994 0.08210255 0.030729013 0.22523038 0.02227959 -0.024856405 -0.057768412 -0.063547745 0.0031562618 0.05375134 0.066725 0.08840485 -0.080857195 -0.027640792 -0.01212709 -0.03505324 -0.017490156 0.041387256 0.010079696 -0.018861437 0.010349153 -0.022154506 -0.029922888 0.14906487 -0.019964866 0.04893668 -0.05854064 0.073082134 -0.07669007 0.04426477 0.017777236 -0.021719767 -0.05969432 0.030154314 -0.023134617 0.24579844 -0.016842823 -0.13050905 -0.031319946 -0.0036300658 -0.05501314 -0.014932087 0.015619645 -0.15204577 -0.10412483 -0.14104961 0.09934295 -0.049104102 0.0739952 0.05684123 0.14610766 -0.06060368 -0.07344204 0.0116021605 0.088344745 -0.081715256 0.1469013 0.035980098 -0.11296811 -0.09508833 -0.10821586 0.09886428 -0.009891913 -0.060993917 0.1044477 0.019741839 -0.039621554 -0.0821775 -0.03167478 0.081459984 -0.082138285 -0.03309469 0.074997544 0.12068936 0.08227105 0.032999527 -0.065953664 0.079767965 0.118830025 0.008955083 0.15082926 0.01601663 -0.12016578 0.009678432 -0.088843115 -0.07689914 -0.0026880652 0.058882896 -0.062223844 -0.01658557 -0.026554653 0.03542166 -0.069713354 -0.027777642 -0.0024633117 -0.13364032 -0.033827707 0.032019597 -0.047256786 -0.0103820935 0.032612607 0.018438283 0.016955249 -0.121786974 0.013719709 0.03599649 -0.019216102 0.07077243 -0.11139512 0.050070696 0.019976333 -0.05536549 0.13045517 0.05643279 -0.106397 0.03619982 0.03038228 0.016530832 -0.06987281 -0.010855735 -0.024783466 -0.07201606 0.05257129 -0.06412363 -0.022163294 -0.05370378 0.0053041773 -0.13889354 0.061911676 -0.047501586 -0.014920334 0.04327813 0.034916483 -0.031250373 -0.036908433 -0.022686781 -0.012576756 0.10996365 0.05423704 0.06738975 -0.10806978 0.13203016 0.09824818 0.005590006 0.009941104 -0.08596984 0.13940327 0.07703493 -0.041711774 -0.07884289 -0.107862815 0.007619327 0.092102684 -0.001041809 -0.06966554 -0.08622716 0.020368338 -0.055617638 0.07683265 -0.034487423 0.0823173 -0.061501954 0.1127093 0.03008447 -0.011443094 -0.0533405 0.032075223 
-0.032669272 -0.042060625 -0.0029222926 -0.0631415 0.028834986 -0.006330293 -0.06788857 0.04499609 -0.03966074 0.06680117 -0.06359551 -0.052083205 0.06472728 -0.04698569 0.10169497 -0.058911007 -0.030707443 0.08064272 -0.0008805719 0.03950225 -0.06749585 -0.104015335 -0.06620974 -0.0004742489 -0.07986281 -0.039330468 0.02763657 -0.025447221 -0.101269126 -0.0039757956 0.04658562 -0.043086015 -0.025936512 0.022790153 0.0451613 0.043432076 -0.050457787 0.059636436 0.07977628 -0.007772101 0.078665145 -0.046732016 0.016005285 0.011203152 -0.0009879256 0.018880943 0.03418301 -0.07381322 -0.051354807 0.09063548 0.0604734 0.07486864 0.06378005 -0.009523413 0.025961302 -0.011293319 -0.054129925 -0.021088924 -0.029128348 -0.017406348 -0.11719452 0.0023065503 -0.048209403 -0.020383121 -0.0022480432 0.023851665 0.020693297 -0.016743392 -0.009213299 -0.010595022 -0.11195621 0.009007665 -0.075224176 0.0428761 -0.04493758 0.013005718 -0.017319843 0.09583994 -0.010025945 0.04118498 0.07941006 0.06466434 0.019109134 0.022691844 -0.032201506 -0.03267691 0.044231854 -0.11966011 -0.035778333 -0.063164756 0.036120027 0.055919964 0.07401106 -0.08652957 0.035021197 0.044605434 0.044776544 0.002155148 -0.031593032 -0.0054335487 -0.07967046 -0.082276896 -0.045210335 -0.0034576892 0.012480236 -0.01534053 -0.044114243 -0.023982948 0.058404017 0.09330946 0.117686726 -0.06667762 0.013369736 0.048026074 -0.07547766 0.039417617 0.08104604 -0.101064056 -0.060239512 -0.0013878576 0.04276485 -0.04864466 0.02617511 0.04453617 0.037679005 -0.020833462 -0.028572517 0.07799739 0.11025825 -0.00066474365 0.043839004 0.017002141 -0.11718218 -0.0069143153 0.047188353 -0.05891059 -0.075150385 0.011543965 -0.029468719 0.36272582 -0.05465384 0.010733833 0.035816673 0.09443171 -0.16507119 0.11136727 0.10002124 -0.072757125 0.0017556464 -0.046883963 0.07814286 0.24166617 0.21312949 -0.008704611 -0.047615528 0.04432456 -0.18292634 0.14905539 0.12204049 0.058027137 0.39639774 -0.07548949 -0.021673435 -0.01168749 0.033607792 0.06280666 0.077952385 0.07489881 0.09854783 -0.08945334 0.07527498 0.22731249 -0.07167408 -0.0095683 0.11444089 0.26769543 0.060509674 0.04130154 0.030541094 0.17858875 0.19109984 0.015943633 0.16133125 0.08437721 0.18892281 -0.09483041 -0.038385466 -0.050412234 0.19041991 0.06708909 0.4354305 0.022915822 -0.006065026 0.08560436 0.006460133 -0.04252617 -0.056366 0.01999854 -0.10676635 -0.011342296 -0.06061571 0.0010124097 -0.037255052 -0.12412707 0.06748733 0.04464768 0.10027743 0.02560794 0.030018745 -0.051953487 0.03844547 -0.023578726 -0.04619703 -0.12808362 -0.11297511 -0.07870065 -0.07429902 0.06430793 -0.04958161 -0.059405223 -0.012349098 0.008436954 -0.1436094 0.023368513 -0.03652379 -0.037317883 0.028046267 0.07072537 -0.054981142 -0.02603722 0.067233026 -0.053550888 0.1279259 0.026672432 -0.05969301 0.32514343 -0.0432285 0.14435151 0.14490141 -0.10912277 -0.16389376 0.1426869 0.025849566 -0.07871879 -0.010454744 0.0584536 -0.06550262 0.39242813 0.12674159 0.092479885 0.0062801195 0.04165126 -0.19966571 0.11996559 -0.16594297 -0.08147547 0.0016172418 -0.019302586 -0.04029274 -0.10027382 0.1900611 0.08587385 0.31539103 0.04593121 0.27085242 -0.040491264 0.10039474 -0.26291537 0.05466128 0.043316234 0.19555211 -0.065095805 0.30575988 -0.17515877 -0.07391417 -0.015326452 0.20097129 0.2677996 -0.17567767 0.040937837 0.007029595 0.018997382 -0.09645644 -0.09687913 0.44115636 -0.042803653 -0.14295626 0.066804275 
0.010724172 -0.030004798 0.03722588 -0.009954175 -0.020386474 0.028636025 -0.13758685 -0.06906538 -0.03836798 -0.08267824 0.038314827 -0.09873987 0.06562971 -0.055650435 0.06892131 0.008333331 -0.025827926 -0.09925396 0.020559812 -0.035466567 0.071112975 0.032768656 -0.09223556 0.012852736 0.017841922 0.023813592 0.069959745 -0.1515386 -0.17262019 0.05415707 -0.0603355 -0.15596873 -0.029853346 0.13661142 0.033092774 -0.044536874 0.08369548 0.116071545 0.12563984 -0.11948178 0.054915793 -0.062892176 0.110931315 -0.22016834 0.10703522 0.0028042088 -0.036183007 0.04257354 0.2125727 -0.11020758 -0.016841518 0.10377411 0.12186078 0.049890276 -0.036397576 -0.044103887 0.03725884 -0.006055057 0.10279127 -0.032189105 0.10956372 -0.037629727 -0.07272376 0.025247587 -0.117439866 0.006759031 -0.044364385 -0.022380779 0.051693715 -0.0028330642 0.15209782 0.0040620086 0.08936275 0.11019513 -0.0032826483 -0.15141201 -0.057685073 -0.09959007 -0.022935575 -0.06974104 0.058355514 -0.111048706 -0.025829135 0.01986586 -0.012894285 0.09624078 -0.122358456 0.040958047 0.03529343 0.039053004 0.042277668 -0.047767814 0.09422914 0.11139393 0.019659726 0.041654658 -0.0936681 0.15033463 -0.029678967 -0.11479444 0.09992428 0.01405472 0.10637309 -0.055488277 0.06277101 0.07546711 -0.09436284 -0.13224578 0.09648199 -0.05750219 0.056125317 0.004851725 0.09056499 -0.059417363 -0.06899631 -0.028144501 -0.08839963 -0.015269012 -0.1434841 -0.056053836 -0.006236701 -0.10586523 0.062015485 -0.08784394 0.11764571 -0.046226464 -0.17046301 -0.005587863 -0.13023005 0.055755116 -0.03479551 -0.093318336 0.18341875 0.12084305 0.22320049 0.053573508 0.0065067788 0.06279827 -0.028175507 -0.05399451 0.042915028 -0.065142654 -0.04037621 -0.09271607 0.14142172 -0.04209826 -0.06259475 0.09673829 0.06598024 0.019580556 -0.035947412 0.05070938 -0.052418396 0.0015097497 0.012785206 -0.08237782 0.11200455 -0.025871253 -0.057614736 0.030181617 -0.03985116 -7.725612e-05 -0.05834938 -0.043715052 0.08342602 0.02081641 0.11785316 -0.050496925 -0.04174495 -0.02423125 -0.033156138 -0.1619702 -0.02344261 -0.06609174 -0.054393455 -0.02101386 0.06890073 0.04357446 -0.036013618 -0.03447358 -0.05944225 0.07597325 -0.13742705 0.07290184 -0.0065489127 0.03615637 -0.030984964 0.06979179 0.11521624 0.058714 -0.14981858 -0.07997046 -0.075798936 0.029247867 -0.028107043 0.00486372 0.032835074 -0.018905291 0.15923975 0.0021087988 0.09363515 0.015378334 0.077794224 -0.12706141 -0.068642266 -0.039770614 -0.085343264 -0.10808316 0.019730093 0.020738224 0.08867795 -0.022559278 -0.016605813 -0.024427744 -0.0989335 -0.062269617 -0.08515626 -0.1099171 0.040007032 -0.044951458 0.054522097 0.029066307 -0.044289432 0.114092484 -0.11831257 -0.046295334 0.037000567 0.089144066 0.06807079 -0.011578275 0.23575856 0.14087532 -0.03646597 0.1613433 -0.05393941 -0.018450217 0.06555997 0.025973877 -0.10150293 -0.03993298 0.043765992 -0.0002538804 0.040197972 -0.07555016 -0.050775353 0.009735665 -0.07992374 0.045196287 -0.019713724 0.08132485 0.0036715283 0.04050385 0.06318556 0.09784248 -0.05271785 0.026950259 -0.19237235 0.036408454 -0.0954517 0.012442834 -0.0240218 -0.049765352 0.1522862 0.004426904 -0.08654266 0.093689576 -0.04417494 -0.09159244 -0.04630282 -0.10573359 -0.0756209 -0.09391867 -0.06929946 0.06043251 -0.040645786 -0.042157054 -0.0024812268 0.03431708 -0.12342132 -0.024001187 -0.0077923466 0.078617714 -0.06708999 0.009127432 0.09607892 0.07841802 -0.14704594 -0.0020811958 
-0.03447086 0.019016549 0.018373918 -0.19824205 0.17678541 0.08901952 0.05650092 -0.06677282 0.09504328 -0.07313282 -0.013747318 -0.13985896 0.014784228 -0.15733212 -0.0040060463 0.038018927 0.039509892 -0.15223238 -0.12903605 -0.066907294 0.016635908 0.10775269 -0.06311114 -0.12480249 0.0381817 -0.04255218 0.07716402 -0.06905573 -0.01217752 -0.07908648 -0.1425748 -0.11504986 -0.13082404 0.047693286 -0.019630041 -0.1659488 0.29216895 0.013506966 0.21518302 -0.118487716 0.22639406 -0.03334923 -0.079287454 -0.1943039 -0.05615967 -0.07516839 -0.012605 0.040163442 0.1762682 -0.06610469 -0.061749786 0.070593864 0.03221726 0.18476003 -0.10700267 -0.13419645 -0.007704335 -0.10802063 0.009373261 -0.07229992 0.07813135 -0.077111974 -0.16275549 -0.0133901425 -0.12080483 -0.06901522 0.062020507 -0.08347619 0.13324709 0.06842791 0.24579585 0.026563233 0.13163555 -0.032607634 -0.088558055 -0.08772345 0.044907503 -0.19890302 -0.019053282 -0.014237274 0.12205468 -0.08161485 0.04644695 -0.0708962 -0.028846692 0.06225088 0.032148972 -0.045985933 -0.026690999 -0.0016960509 -0.049545 -0.009811468 0.035935145 -0.08635106 -0.022472968 -0.0058824113 -0.06069489 -0.02101072 -0.018614048 -0.05116368 0.19047232 0.022874506 0.12453207 -0.05713928 0.15157324 -0.029069215 0.02974972 -0.16117258 -0.033353873 -0.1879179 -0.072030835 0.043211814 0.30227616 0.0046078064 -0.16233252 0.0030120183 0.04304399 0.1178697 -0.13296618 -0.038754914 -0.08938599 -0.043406565 0.01419879 0.02157154 0.09511476 -0.042099938 -0.07920639 -0.02708039 -0.13200074 0.057133675 0.07813044 0.0059114187 0.31407043 0.113168 0.26535252 0.12630686 0.080742866 0.17228971 -0.05807015 -0.10077137 -0.06903681 -0.1969945 -0.102817155 -0.06797144 0.32407597 -0.030139683 -0.0260856 0.13254032 0.08129997 0.18208864 -0.11152583 -0.0064707194 -0.07729011 0.02137088 -0.08567762 0.10522392 0.2531866 -0.04334635 -0.0076841186 0.23402451 -0.13199283 -0.042192243 -0.019509358 0.004006204 0.13559608 -0.0015254521 0.30622697 0.037182294 0.1404813 0.14967182 -0.1719226 0.15765746 -0.0039637946 -0.08035762 0.009388525 -0.08078434 0.18076123 0.097053334 0.14274646 -0.053734478 -0.037894823 0.09166082 0.02183395 0.03344953 -0.07926526 0.053190608 -0.0010996896 0.11709445 0.06170854 -0.070897125 -0.030078966 0.11290328 -0.0014940787 0.026146663 -0.024073705 0.0035184403 0.14175215 0.07847782 0.09147605 0.079142034 0.06882652 -0.011781985 -0.030227674 -0.07672299 -0.07364044 -0.08251173 -0.13142744 0.022032376 0.28653052 -0.06250423 -0.0046400204 0.12986681 0.047641225 -0.042526986 -0.12075752 -0.07398364 -0.043449838 -0.074540205 -0.029541424 -0.014845019 0.06981108 0.010159443 -0.0089152455 -0.018560905 0.08995996 -0.03292452 0.009311207 0.049485974 0.14631057 -0.04582628 0.027987568 0.037766766 0.029338973 0.07710205 0.07014783 -0.056134332 -0.094707735 -0.084508225 -0.14801401 -0.06295885 0.18138987 0.13624063 0.029985782 0.16956718 -0.009491167 -0.031325784 -0.0065064505 0.02811187 -0.007468342 -0.054268442 0.011620972 0.10598497 0.19371365 -0.029734401 0.07309648 0.07513387 0.08362673 -0.020591522 0.08472275 0.080339365 -0.04808965 -0.03110139 0.11992892 0.111554414 -0.085189894 0.22517462 -0.0490976 0.11496858 -0.11868519 -0.114404745 -0.11736252 -0.028014768 0.04196661 0.19430295 0.12483391 0.063275546 -0.13181552 0.0030492605 0.05877484 0.13675083 -0.04315667 0.049306944 -0.052432552 0.16132526 0.007964755 -0.0084850965 0.022813274 0.09053118 
-0.033939693 -0.0028805395 0.022469895 0.043087803 0.111051224 0.095641956 0.087953314 0.03700323 0.14114033 0.027884621 0.040010486 0.13755241 -0.009829047 0.012959402 0.089765765 -0.10755133 0.046351932 0.016235411 0.11667868 -0.037875023 0.05624581 0.06698208 0.030796299 0.1425949 0.026393555 0.013264294 -0.021254672 0.06524201 0.0070042987 -0.03721264 -0.04143175 0.015867185 0.14717616 -0.017964017 0.019214598 -0.05359281 0.019604566 0.15096936 0.052333612 -0.048196647 0.14274012 -0.061610263 -0.0039737197 0.18865749 -0.063904285 0.03163696 0.0794532 0.027694171 0.00479571 0.11566054 0.09186471 0.0077870246 0.08587536 0.041024707 0.06329733 0.012962916 0.10426106 -0.1294434 -0.10623255 0.068711974 0.02760043 0.011758615 0.24205029 0.11986761 0.14754315 0.0166917 0.033784155 -0.026652599 0.101367615 0.06043681 0.00043672998 0.007713661 -0.02230157 -0.06402766 0.024544027 -0.08570538 -0.008233736 -0.021183535 -0.010915298 0.13676725 0.070877425 0.013075753 0.10269139 0.065393485 0.10777036 -0.043099977 -0.084259026 0.03628813 0.13700408 0.005122595 -0.11790516 0.047001775 0.049891572 -0.08033055 0.1380662 0.038274188 -0.1558564 0.009724913 -0.032324728 0.00841691 -0.012533027 -0.058707576 -0.050487228 0.06084329 -0.04072779 -0.0009665347 -0.012480558 -0.06332739 0.047226686 0.15470105 0.006224652 -0.069005355 -0.11318838 -0.07509031 0.023000168 -0.114424504 -0.11291106 -0.03358345 -0.04351331 0.05696691 -0.19670846 0.08879457 -0.12563181 -0.030004553 -0.02450499 -0.008469937 -0.24217023 -0.018102702 -0.123255126 -0.0022499913 -0.07752016 0.039843462 0.039459135 0.066271454 0.07654324 0.035098072 0.23821734 0.049400076 0.049519345 0.23165397 0.05393496 0.1570739 0.20020692 -0.076652765 0.07074342 0.078962944 0.13174744 -0.02452327 0.018417036 0.12353162 -0.063990384 0.14834885 0.16148038 0.017358987 -0.14711022 0.10760298 0.057178814 0.06422273 -0.11626201 -0.018218342 0.019568691 -0.015132228 0.046112537 -0.002230842 0.05543282 0.049427833 0.14721842 0.014364625 0.19735274 -0.03644487 0.078567736 -0.046049964 0.0670743 0.08828562 0.16201812 -0.033460565 0.21099521 0.047276877 0.09954887 0.09120863 0.09195555 0.1698568 -0.07662797 -0.022371296 0.09837865 -0.042722348 -0.115009554 0.03684489 0.252846 -0.05058244 -0.01777177 0.12557742 -0.040159233 0.03166184 -0.09328354 0.06630551 -0.046154775 -0.12221378 -0.07643925 -0.020484531 -0.19216774 -0.09397339 0.08773408 -0.038147874 0.08195086 0.07955403 0.038302183 -0.07176745 -0.059744854 -0.0659706 -0.09807574 0.0007614538 -0.14808147 -0.042806897 0.085512556 -0.046655476 -0.15655608 0.018263135 0.0017949698 0.009765969 0.014344659 0.061542615 -0.08571711 0.0053343503 -0.15887384 0.13286184 -0.051461883 0.057638768 -0.024475213 -0.1454193 -0.03640256 -0.031375248 0.034907613 -0.05742693 0.1253741 -0.06385853 0.1510209 0.22897735 0.062821604 0.05754001 -0.050817367 -0.03109343 -0.13805845 -0.012812656 -0.123395585 0.019265192 0.08544937 0.010782533 -0.11609804 0.1419406 -0.0897272 0.05640248 -0.10907957 -0.027500205 -0.0788265 -0.076863624 -0.14314489 -0.042906426 -0.050978366 -0.051501587 -0.024960447 -0.024571368 0.049442615 -0.02851701 -0.009486729 0.0477995 -0.03199575 -0.037012607 0.07532106 0.060042564 0.08889604 -0.09721667 -0.07125967 -0.034599088 -0.06426777 -0.018290075 -0.1297981 0.026487442 -0.09100134 -0.037074808 0.0030463308 0.034518745 0.037495602 0.053982805 -0.018695848 -0.031222245 -0.09009105 0.0019015752 
-0.081750944 -0.083310835 0.05969565 -0.041323375 0.038934298 -0.043853007 -0.0013999168 -0.047247447 0.0149703715 0.04453065 0.040332753 0.23399925 0.0065682516 0.102993295 0.11926434 -0.085572615 0.060169615 0.15224873 -0.012212307 -0.034035128 0.009247114 -0.0531417 0.006360499 0.1202653 0.10617251 -0.033926938 0.0772551 0.054425895 -0.10768847 0.10150443 -0.03949203 -0.024622168 0.08815651 -0.023120767 -0.0435541 -0.010798365 0.08321296 0.022131182 0.022371791 -0.016057253 0.0006686413 0.03776127 0.0329692 0.2081373 -0.042075343 0.01281984 0.06366098 0.121474594 0.008504624 0.049444456 -0.011195888 0.04234314 0.04820004 0.08892006 0.050330453 0.12729535 0.17570461 -0.07738056 0.00095898024 0.019999148 0.06614115 -0.029439637 0.061347883 -0.1034015 0.06338998 0.083774626 -0.041296557 -0.0050912206 0.07493449 -0.058143467 0.031631194 0.017211115 -0.05958697 0.070006706 0.06459412 -0.24441901 0.08417507 0.07785337 0.033817396 0.09065672 -0.07501483 -0.066223584 -0.0004428994 0.06027334 0.018579284 -0.10343568 0.030435735 -0.08963047 -0.11603079 0.008672529 0.09514046 -0.11957349 -0.12580767 -0.055970043 0.04297847 0.033779964 -0.17119148 -0.06912859 0.056997523 -0.012403081 0.064227335 -0.07668635 0.038337886 0.047593527 0.033543717 0.05798773 0.008312211 -0.01584893 -0.050857183 0.0129074585 -0.030078188 -0.07248715 -0.028832642 -0.0043580737 0.0035546343 0.015972447 -0.045273412 -0.02800318 -0.07729061 0.038698304 -0.12737368 -0.023289913 -0.08220284 -0.08190204 -0.11298232 -0.036491062 -0.024780035 0.044504516 0.07045512 -0.025337016 0.052258193 0.06547653 -0.0063705277 -0.033024065 0.09166975 -0.044940315 0.07560145 -0.0022147272 0.08687636 0.2127562 -0.017431904 0.018992782 0.13857456 0.07444354 0.008568429 0.1842196 0.13852768 0.031784367 -0.030868145 0.071049996 0.047742136 0.30922228 0.17787671 0.06781933 0.023322279 0.061130106 -0.029253777 -0.013689715 0.11999089 -0.04980922 0.29970676 0.048506387 -0.01608077 -0.02428932 -0.025114637 0.10534142 -0.14058785 -0.0850157 -0.0075312643 0.06756373 0.09461888 0.003430981 -0.047838718 0.06356752 -0.060062785 0.13688825 0.157766 -0.053504292 -0.08679644 0.052861907 0.11599696 -0.100870304 0.026312301 -0.046461653 -0.022918351 0.031923994 0.044959433 -0.04938632 0.12916553 -0.007364426 0.13227794 -0.08510016 0.00015108674 -0.022603255 0.09243141 -0.019825144 -0.0021935094 -0.049873218 -0.17690833 0.07547487 -0.051258888 0.033407312 0.006648974 -0.11247215 0.002349508 0.031931117 -0.026990531 0.018989721 0.01750383 -0.10572554 -0.13326131 -0.02650623 -0.05886778 -0.1329024 -0.009203334 -0.116699375 -0.123014264 0.050399017 -0.027291993 0.017344492 0.033783242 -0.010210891 0.0195507 -0.011489482 -0.19694322 -0.041240692 0.035529837 0.09346496 0.0139532825 -0.064850956 0.08026072 0.046339538 0.013879742 0.097249955 -0.08690301 0.16575606 0.02391511 0.124738574 0.13816021 -0.13702637 -0.1337826 0.09646194 0.010149922 -0.12934956 -0.09538629 0.09676007 -0.041055102 0.29895216 -0.019515146 0.09460261 -0.058900457 -0.03495456 -0.30001497 0.03252798 -0.14163134 0.04429727 0.0824892 0.02960189 0.020987814 -0.067368306 0.24559452 0.12826096 0.31367967 -0.044112638 0.2980795 0.03636699 0.0152214905 0.079777114 -0.03626659 0.02100143 0.17645425 0.009009261 0.2225156 0.16015463 0.011244657 0.013540476 0.12833183 0.15906982 0.074509054 0.013667336 0.16642389 0.06942741 0.104583815 -0.1039647 0.14775018 -0.031818293 0.13852845 0.020615075 
0.08616892 -0.021151626 -0.013386557 0.04029291 0.006598481 -0.05770464 0.042946763 -0.050162025 -0.009258727 0.044312462 0.058093335 0.00038949773 0.0040180683 0.0548202 0.024655147 0.07862728 0.025256801 0.003068195 0.014484418 -0.025551029 -0.0844934 0.032203067 0.12024179 0.02894639 -0.029134616 -0.08084857 -0.12008131 0.087525755 -0.028023329 -0.115626566 -0.028675113 0.02524245 0.06370499 -0.082051225 0.0071726358 -0.005867573 0.0029677374 0.07327093 0.0031881384 0.073716715 0.026332526 0.13231783 0.026208036 0.062202502 -0.08822156 -0.008952526 0.02848161 -0.0174981 0.039526373 0.14114775 -0.0017902295 0.083458774 -0.04932927 -0.012039646 0.12110081 0.058890443 -0.060556266 -0.02617627 -0.097642355 0.10009279 0.05827203 -0.034414176 0.09078787 0.087036096 0.08430014 -0.08552093 0.06804375 0.022286605 0.022390403 0.03275661 0.17282182 0.123701975 0.0052572023 -0.012014534 -0.058834665 0.10626316 -0.06789601 -0.060526635 -0.051557273 -0.045424566 0.049784087 0.09166687 -0.0019175536 -0.005760853 0.07460125 -0.016928485 0.06634952 0.0082884105 0.057613723 -0.03248006 -0.053196203 0.10984993 0.016951257 0.06503968 0.15633254 0.060721252 0.20153241 -0.027514577 -0.056045566 0.0076384256 -0.01196976 0.013020809 0.1103973 -0.0638449 0.022799334 0.06945826 0.007923809 -0.07149346 0.022042768 0.016245613 -0.0065845195 0.012355553 0.109538145 0.17049424 -0.031559363 0.0515083 0.135328 0.02906933 0.004665215 0.05780714 -0.025622765 -0.0037295294 -0.0975578 0.034915924 -0.026117291 -0.028504038 0.11089205 -0.05936204 0.16226333 -0.024741534 0.039856423 0.10690102 0.10302553 0.068881415 0.09272556 0.07015172 0.06908863 0.08513177 -0.10129108 0.021385329 -0.10900676 -0.09216084 0.06766012 -0.017069494 0.016621543 0.13465255 0.09346914 0.0040169675 0.11387442 0.009404162 -0.017462282 -0.006875579 0.119726874 -0.09582029 -0.07382966 0.08204283 0.07851906 -0.047515903 0.17906567 0.11612382 0.09028833 -0.045190208 -0.054748338 0.10086179 -0.021377921 -0.06499234 0.035998818 0.0080464445 0.081100024 0.010085021 0.026717743 0.114547156 -0.04360367 -0.09479669 0.06261383 -0.055889893 -0.038765848 0.040784996 0.0667984 0.01191541 0.0099719195 -0.014735291 0.07333928 0.0491114 -0.024427751 -0.02473978 -0.015590833 0.06419261 0.020878576 0.055895712 0.031828634 -0.067064136 0.15033555 -0.0072237323 -0.03460655 -0.005175572 -0.01009457 0.07177798 -0.057335157 0.033985216 0.0106542 0.022555895 -0.03761341 0.023923388 -0.09605459 -0.090514325 0.10433318 0.005915933 0.062669784 0.09402405 0.0616219 0.022479026 0.008858347 0.10158399 0.078299165 0.055840503 0.06699409 -0.061872654 -0.09271688 0.027742676 0.09489146 0.05463001 0.09621026 -0.035481617 0.13001537 0.014820403 0.011095149 -0.04469615 0.11998271 -0.05164044 0.08430568 0.021305935 0.14236008 -0.031162202 -0.06765871 0.0752655 -0.11103756 -0.11754668 0.09375989 0.05538211 0.06652779 0.10649176 0.02224801 -0.020082066 0.032504153 0.08980332 0.062580414 0.06974461 0.13528056 -0.068675764 -0.104325145 0.036307476 -0.0048781023 0.03764307 0.15646692 0.042371623 0.010453699 0.026163919 -0.028182607 -0.004811817 0.06586955 -0.050168235 0.015497822 -0.0020414703 0.05075775 -0.04388085 -0.059423625 0.043080676 -0.07847486 -0.039472353 0.056323186 0.06447129 0.03897058 -0.01931403 -0.033393446 0.052126937 0.13509442 0.028065369 -0.04624388 0.095969796 0.058886804 -0.021611417 0.017207576 -0.0649111 -0.055856243 -0.005230882 0.03929748 -0.059489645 
-0.016479025 0.053789258 -0.08014191 0.010769082 0.16866755 -0.024489617 -0.021654945 0.055443328 0.058708716 0.05102903 0.1574868 0.012093201 -0.031349424 -0.030541752 0.038306516 -0.10755098 0.08791275 0.043400187 0.066398904 0.01604846 0.062985525 0.048647188 -0.0068611326 0.06740311 0.12056843 0.11830036 -0.0345484 -0.052537877 -0.016281117 0.071845785 -0.0028800645 -0.0036498313 0.079247385 -0.0385767 0.030666513 0.048646808 -0.10853614 -0.048532795 -0.03313205 -0.025775477 -0.0889391 -0.06700771 0.033312704 0.035345495 0.011405347 0.115884826 0.07052452 -0.064412214 -0.07855983 0.047967155 -0.07098308 -0.14770178 -0.045918748 0.058657553 -0.031581484 0.16599484 0.049058724 0.11255954 0.0881292 -0.033880327 -0.19050328 0.045619715 0.028526563 -0.06465328 0.084809504 0.08476966 0.00368858 -0.11716793 -0.04443445 0.10397497 -0.04813578 -0.123914815 0.06720568 -0.12865359 0.060454518 -0.033123303 0.022503398 0.017787158 0.04725893 0.07458164 0.06683565 0.08017196 -0.021722872 0.007221154 0.013152782 0.05896115 -0.1052276 0.04462946 0.090339616 -0.042981736 0.18870914 -0.114607014 -0.030119829 0.036271226 0.07218171 -0.07978342 0.048094194 0.08986511 -0.08137054 0.12429539 -0.031706616 0.0011881453 0.005881929 0.0701504 -0.020618808 0.06378208 0.112992674 0.09752387 0.024461968 0.14512642 -0.02326201 0.045893054 -0.011849404 -0.07157168 0.04264346 -0.07480712 -0.025550349 -0.008205199 0.07343283 0.1592394 -0.015616299 0.16228333 0.058434557 0.03290925 -0.030672701 0.041114774 -0.082749486 0.019985033 0.0461949 0.11641485 -0.032314505 0.05244987 0.08373482 -0.003330698 0.1849427 0.038880732 0.104330786 -0.03465089 -0.006180808 0.18446594 0.14763086 0.1140895 0.117071114 0.06134725 0.01861487 -0.057649672 0.07267596 -0.0014968725 0.094191276 0.13850257 0.05927832 0.2406487 0.032756947 0.11757457 0.0076471907 0.017646126 0.001936277 0.049932968 -0.083965525 0.09363274 -0.044725336 0.17310455 0.010664635 -0.025713539 0.23769784 0.13621166 0.32434368 0.03833909 0.23840716 -0.05087716 0.043603294 0.07468316 0.0392098 0.016077196 0.06981928 0.10940454 0.2969228 -0.014231928 0.107983865 0.08670206 0.015760759 0.1864544 0.055243496 0.21263905 0.019343754 -0.022763606 0.15965897 0.04509942 0.3231748 0.05050107 -0.011669288 -0.0027089203 0.01538354 0.026697038 -0.017994324 -0.012256108 0.12659836 0.021603141 0.16727869 0.018184269 -0.031781863 0.13005823 -0.042850718 0.041331727 -0.006115738 0.13154162 -0.017483944 -0.0042982376 0.10753907 0.01766148 -0.010636571 -0.028839469 -0.0071715466 -0.052768555 -0.062434204 0.047018073 0.0010897614 -0.016018681 -0.021397159 0.013261604 0.0035749995 7.063616e-05 -0.012359113 0.028632443 -0.13565075 0.12973326 0.048172485 0.045983486 -0.03098142 -0.07424489 0.20033734 0.02290188 -0.033291366 0.08150906 0.051939 0.055378668 0.08076773 0.17643194 0.044155955 -0.041296527 0.0785103 0.07679545 -0.015279678 0.08851399 0.0142569095 0.08669443 0.0152685465 0.09647101 -0.11297119 0.02124123 0.08435929 0.03638031 0.1615485 -0.042553104 0.038899254 0.06444095 -0.07303574 0.08565662 0.07965886 0.16345656 0.09492582 -0.042495165 0.07319684 0.1247112 0.0770268 0.08235211 0.07859153 0.18333213 0.025406918 -0.03048623 0.08711184 0.03211287 0.038433954 0.15737793 0.16169421 0.064461105 0.01120086 -0.072867334 0.09130566 0.17589498 0.06248111 0.08512787 -0.01991718 0.09068742 0.06720761 0.12794736 0.056506287 0.11573633 
-0.002192043 -0.07456234 -0.01712355 -0.024391407 -0.066490866 -0.0896834 -0.043838404 0.09677761 -0.011754125 0.060700737 -0.04224737 0.06541285 -0.14678687 -0.030831613 -0.009170001 0.04507623 -0.120899856 0.07019297 -0.03479838 -0.049854133 -0.009690233 -0.06783358 0.106891885 -0.020380344 0.03373054 -0.07188954 -0.16758792 0.12640503 -0.13932323 0.025003726 0.021596747 0.024422105 0.049965635 0.018475806 -0.022794642 -0.030806469 -0.05067651 -0.024728965 -0.11456728 -0.06608893 -0.03793615 0.031452578 -0.05866193 0.023297422 -0.06343473 -0.14651147 0.0512156 0.09654408 -0.178069 0.05820513 0.053662248 0.012725571 0.010287572 -0.05193924 0.10081579 -0.0071365633 0.060441934 -0.06471793 -0.043267 0.105131656 -0.1758493 -0.060975578 0.054119922 -0.090543225 0.19221331 -0.016961897 0.0027203527 -0.026670674 -0.12329057 0.008648408 -0.07055113 0.042816967 -0.11038974 -0.012445763 -0.09101523 -0.012792123 -0.060076464 -0.18780856 -0.072818115 0.059798885 -0.06841149 0.08522013 -0.053681135 0.12769407 -0.067067765 -0.094241075 0.11917754 0.01933065 0.006351902 -0.1277075 -0.014208289 0.0380863 -0.13086434 -0.07079012 0.17666444 0.0022428536 0.010442112 -0.08300493 -0.11642121 0.0961084 -0.017108655 -0.020947589 -0.05387363 0.019532656 -0.03348772 0.097053185 0.020442888 0.12182861 -0.13875555 -0.10825307 0.018729493 0.017060995 -0.2005997 0.04367646 -0.029085847 -0.026470091 -0.042434968 0.01657806 -0.032867767 -0.03599811 0.042470135 -0.07172191 -0.06200894 0.10763412 -0.16476698 0.068586156 0.099143654 -0.009610436 -0.065986834 -0.13929045 -0.080361396 -0.031197144 -0.15339893 -0.08438308 -0.072585024 -0.12213534 -0.012676099 -0.10864474 0.038607955 0.012055702 -0.057615004 -0.14804885 0.07577666 -0.097658485 -0.1692869 -0.042896092 0.03461549 -0.086018115 0.043054443 -0.024174752 -0.06810401 0.040664393 0.026286911 -0.02574633 -0.043452576 -0.0094436295 -0.14412631 0.0019414662 -0.04207793 -0.10681559 -0.014893214 -0.132655 -0.02161518 -0.08027629 -0.17665619 0.05478136 -0.15246427 -0.017148398 -0.07996437 -0.094226666 -0.06362601 -0.027729686 -0.139302 -0.16043127 -0.00970893 0.01662631 -0.21302803 -0.15859026 -0.08685761 0.0011510926 0.039878618 0.03663733 -0.094268344 -0.0362785 0.015006642 0.014111087 -0.12380122 -0.007970775 -0.07186209 -0.06330991 -0.05025777 -0.012766817 -0.028765924 -0.14174078 -0.14831625 -0.03701996 -0.09821388 -0.10504941 -0.018871058 -0.03272908 -0.074983485 -0.05433141 -0.06496321 0.1148154 -0.06972053 -0.064284354 -0.047729358 -0.04792263 -0.051610664 -0.044875752 0.1062111 -0.101833776 0.018723983 0.04926849 -0.009326584 0.014557711 -0.07161951 0.0063873637 -0.07443771 0.0013782388 -0.0135900555 0.05147315 -0.15141454 0.07239254 -0.2125884 -0.056125224 -0.042239152 0.017975036 -0.02383839 -0.0040408154 -0.018178295 -0.040479373 0.048529506 -0.09113075 -0.117212206 0.053208303 -0.148792 -0.013587138 0.072356015 -0.06454061 -0.23216762 -0.031418353 -0.02572256 -0.07162323 0.01405113 0.020965595 -0.036985904 0.033070453 -0.020418687 0.045051146 -0.122577205 -0.02315774 -0.08812336 -0.025315734 -0.17725423 0.010470776 -0.16898075 -0.048854116 -0.16526872 -0.015642697 -0.032919843 -0.079618335 -0.078567415 -0.10627629 -0.043047357 -0.05859268 -0.10182779 -0.09228104 -0.10140498 -0.02261665 0.01265565 -0.03129658 -0.14747056 -0.07619369 -0.037411824 -0.06167118 0.08749867 -0.024371736 -0.12613697 0.046470415 -0.003517598 0.039328836 -0.10888621 -0.074837565 0.017723782 -0.0015839273 -0.22173214 0.0401197 
-0.23215756 0.011327339 0.023127625 -0.07059932 0.15500683 -0.013377165 0.21764946 -0.06347484 0.043634914 0.08352725 -0.135761 -0.015985254 0.019116811 -0.10513009 0.03291894 -0.15061405 -0.08044478 0.05506315 -0.020612288 -0.022020714 0.015977139 0.103323765 0.029989278 0.065390475 -0.057347115 0.009062528 0.04973922 -0.090846285 0.013702615 0.010174077 -0.14785498 0.026711226 -0.2046972 0.057658546 0.0006326636 -0.04498496 0.046348248 0.007921243 0.10038902 -0.07476759 0.10133774 0.025039067 -0.12261416 0.09797134 -0.05723456 -0.0754623 0.031860035 -0.08481374 -0.105718955 0.01706898 0.085816674 -0.096482985 -0.016173942 0.07594157 0.037592977 0.008275314 -0.022500718 -0.005748143 0.10253455 -0.05976063 -0.056312248 -0.094406165 -0.04947936 0.062347166 -0.12876593 0.08182024 -0.0073176078 -0.09442425 0.068046525 -0.09421956 0.046272088 -0.11967188 0.07359762 -0.12151262 0.018088266 -0.069956034 -0.050097734 -0.13347873 0.0758842 0.037316572 -0.106493175 -0.01935754 -0.115647465 -0.059843153 0.06688866 0.028838266 0.0013507564 -0.112053804 0.021489454 -0.040464547 0.015729649 -0.14974096 -0.105500184 -0.0123093175 -0.06528224 -0.010745784 -0.13918322 -0.022894632 0.00836245 0.112270646 0.1900409 -0.00017214904 0.18411314 -0.013684584 0.058240186 0.18211818 -0.058604524 0.12886451 0.04110661 -0.09656596 -0.09277511 -0.08642998 0.09369033 0.09126559 0.19171101 0.008509439 -0.11870308 0.061278213 0.13116792 -0.002696741 -0.007929201 0.0003117246 -0.08793522 0.14766324 0.088829055 0.0006800618 0.0028651175 0.112639494 -0.022017512 -0.07893198 -0.033631403 -0.06997871 0.026910199 -0.041853186 0.1636277 -0.09914605 0.0077977586 0.09970522 -0.10167797 0.27701455 0.052722137 -0.14046292 0.015057432 0.009619812 -0.18932064 0.13781479 0.061642826 0.002063098 -0.07477889 -0.0316653 0.015227004 -0.0005586718 0.06240454 0.005566328 -0.031648632 0.046949234 -0.118880175 -0.030934079 0.032230094 0.011315583 -0.09390203 0.06609989 0.0689496 0.0047655525 -0.0035974013 0.026907615 0.047172878 -0.13799809 0.07897783 -0.047317147 -0.10674826 0.03621387 -0.05873615 -0.11153957 0.03221287 0.022763437 -0.10944459 -0.057576403 -0.033967707 -0.14583196 0.05886272 -0.001618115 -0.0064418614 -0.092949286 -0.012101736 0.076802365 -0.038389392 -0.027967567 -0.12001029 -0.06713238 -0.089316614 -0.09537091 0.04526236 -0.090884484 0.058431428 0.039195143 -0.086156756 -0.16156973 -0.10634052 0.10368338 -0.09898245 0.1872286 0.009415881 0.26317683 -0.04453118 -0.042859867 -0.08452346 -0.010536191 -0.03624238 0.13305523 0.17593044 0.028262809 -0.11137224 -0.12226448 0.22811012 -0.011908603 0.10407013 0.032492198 -0.03330841 0.11966116 -0.13491835 0.043534614 0.018496035 0.09027611 -0.0737449 -0.08228391 -0.08507501 0.06279431 -0.11546455 -0.026119953 -0.06837998 0.04874299 -0.0009945063 -0.019439856 -0.03770359 0.23259391 -0.0063693128 -0.004651838 0.040543184 -0.10605592 -0.1529631 0.01994526 -0.034365367 -0.048630744 -0.11443448 -0.08643758 0.10239749 -0.011269272 -0.0010145964 0.0652534 0.016233545 -0.011360533 -0.18422055 0.07828919 0.05699373 0.010597325 -0.08851221 0.017185437 -0.08643224 -0.118727714 -0.094328396 -0.039813515 0.07831707 -0.09865022 0.06660065 -0.064107105 0.054820947 0.017674096 -0.059528477 -0.014380588 0.08319584 0.017415578 -0.074347705 -0.076814614 -0.059152704 -0.0965066 0.030442528 -0.005380815 -0.08173721 0.043000452 0.048148952 0.093740955 0.03635717 -0.13029459 -0.11725737 0.019902969 -0.07027248 -0.037670765 
