[[[[[0.0361405462,0.0795546994,0.199007839,0.0076569254,-0.0738753974,0.0797826275,-0.0514104143,0.1504269838,0.1749285161,0.1354384422,-0.0072479397,0.0924319848,0.1089608893,-0.1826424748,-0.2129763812,-0.1767662913,0.183506012,0.0615233257,-0.1425573677,0.1150104403,0.0188530535,-0.1123855636,-0.0677063987,0.0474512354,0.1883517355,-0.1753976643,0.1179660335,-0.1126583815,0.1556171924,-0.1051721945,-0.0242053661,-0.1671895832],[0.2330528796,-0.1012016386,0.0023387282,-0.1168005466,0.0138079179,-0.1665229797,0.0688881278,-0.1053663641,-0.1733891815,0.1022731662,0.1745098978,-0.0893755853,0.115779303,-0.1674903035,-0.209882766,-0.0977812782,-0.2135795355,-0.1390617788,-0.0707044154,-0.0478345379,-0.0409131609,0.0041048187,-0.0743779168,-0.1238065735,0.1031496748,0.0571959391,-0.0908189192,0.0174050815,-0.1076101214,-0.1713154465,-0.0430072211,-0.0018026485],[0.1158449128,0.0428223088,0.0001065353,-0.1226219237,0.0144249713,0.1337091923,0.0864777714,-0.1247278973,-0.0898965672,-0.0039688405,0.105486393,-0.0958249345,0.1388318688,-0.2213472426,-0.070658572,-0.0593598336,0.06323874,0.1461164802,0.0738485903,0.0358166806,-0.0182100888,0.1279868186,0.1199059859,0.1533740163,0.1959217787,0.1123907939,0.1686228961,-0.1033475921,0.088950485,-0.0888058916,0.0290366039,0.1458829492]],[[-0.1827274561,0.0768548846,0.2095318735,0.151689589,0.0375012197,0.093952857,-0.0441026986,0.0823753327,0.045258075,0.0702246875,0.0002667856,0.1159098148,0.1010251343,0.0140375644,0.0566419475,-0.162266016,0.0365194008,0.1390310377,-0.0561955236,-0.149635464,0.1584133655,-0.0756990686,0.0612670071,-0.1332723051,0.1330521256,0.0592791177,-0.1527637541,-0.1341788024,0.0802237317,0.1529484689,-0.1194112152,0.0923080519],[-0.0790389851,-0.1566879004,0.1745022535,0.1045992598,-0.1357147992,0.0340893269,-0.0717651621,0.023063913,-0.1854378283,0.166975528,0.0266906004,-0.0270331036,-0.0682355687,-0.1443173289,-0.0266193151,-0.1667988747,-0.1104278266,-0.151562199,0.1384374648,0.0852571353,0.1042276546,0.0946312547,-0.0452367365,-0.0012139771,0.1752728224,0.0591521412,0.0350374579,0.1074767709,-0.2078699917,0.0514560156,0.1304921955,-0.1659896225],[-0.1161235571,0.0236733183,0.1780551821,-0.1254616231,0.1364169568,-0.0861886367,0.0945644975,-0.01301926,0.0390907899,-0.1141856462,0.0656220764,-0.0255386084,0.0291597061,0.0413797274,0.1429032981,-0.0144515131,0.0375718549,0.0817280635,0.1218790337,-0.1176457629,-0.0690606982,-0.1458215714,0.1474899799,-0.058747232,0.0024300348,0.1186639667,0.0542016029,-0.0536094829,-0.0299028102,-0.1803569049,0.09993992,0.0788376331]],[[-0.2004732639,0.031985458,0.1303875297,0.1119330302,-0.0801865608,0.0992724225,0.0858925804,0.0536413118,0.0597318187,-0.107084401,-0.0721044764,-0.0152529478,0.158096984,0.0084168501,0.1767347455,-0.0080512026,0.0998400375,-0.0456693657,-0.1456837058,-0.183880806,0.1492698044,-0.0861510262,-0.190765664,-0.1069806591,-0.0273052286,-0.0597958937,-0.2054309398,-0.0218534283,-0.0335540585,-0.0087809749,0.0557243787,0.0566390418],[-0.0193930026,-0.0846601352,-0.0204905719,0.1308508962,-0.071004495,-0.1712250859,0.173059687,-0.0340144373,-0.065114297,0.1250371188,-0.0651847273,0.0849468261,-0.0420646183,0.1753477603,0.1703546047,-0.0155360634,-0.1527025402,-0.0776510686,0.0453789718,0.0451558381,0.069732815,0.1366591752,-0.1375044733,-0.1110194847,-0.1333518922,0.1692962348,-0.1718298197,0.1755323708,-0.0685103461,-0.0514990985,0.2133773714,-0.1438118964],[-0.0365723856,-0.1828369498,0.1863984317,0.1069435105,0.1559816748,-0.1276233196,0.081466198,-0.187041223,0.1208825707,-0.0636519939,-0.2580976188,0.0230236221,0.1708247215,0.0953241885,0.1259615272,-0.0874344558,0.1225837991,0.1059062332,0.0409682579,-0.1476204544,0.1688207835,-0.1763276011,0.1589649767,0.0106319692,-0.0313114747,0.0654646158,-0.0720080361,0.0728888959,0.0749057159,-0.0513628796,-0.0274872724,0.0693033487]]],[[[-0.1209953055,0.1967589259,-0.1544263363,0.079058215,0.1517631114,0.1285424381,0.0326250605,0.1665272415,-0.0328186266,0.1191237494,0.0971286371,0.0135315703,0.028309891,-0.0771695897,-0.1481070668,-0.1215677708,0.0859809667,0.0382748172,-0.1123413146,0.0631310046,-0.1422454715,0.1674914807,-0.1772708744,-0.1970391423,0.0429413468,-0.20370166,-0.0121978,-0.2014768869,0.1132383198,0.1409231275,-0.0610521026,-0.1506998092],[0.0778251067,0.0596248433,0.0826397389,-0.0757637769,-0.1945791245,-0.1767969728,-0.2076348364,0.0877270475,-0.1394650489,-0.0142133217,-0.0103931222,0.1660768539,0.0504666641,0.0620317161,-0.1747489423,-0.1457437873,-0.1589696407,-0.0914581418,0.1151471287,0.1876357198,-0.2338324487,0.2025274038,0.0599932596,-0.1170234755,0.1375290155,0.0866971761,0.0228437744,0.0080679534,-0.1915735006,-0.0837780982,-0.1185312867,0.0457078964],[0.0676336884,-0.0137285646,-0.0115619004,-0.0555424131,0.0748402029,-0.1318137646,-0.1784925312,-0.1396166235,0.0719560236,0.0394506007,-0.0926538929,0.0190481171,-0.0310834087,0.0987647846,-0.0243137553,-0.0282163508,0.0420776308,0.0906962529,0.05028731,-0.1398171335,-0.1449428648,-0.0168742612,0.1727125049,0.1867628098,0.2015752643,0.0776792467,-0.0290391948,-0.0540716089,0.123220399,0.0512307584,-0.1940024495,0.0394539684]],[[0.0598640852,-0.0485964976,-0.0219831374,0.1955445558,0.053591352,0.0250758957,-0.1365963072,0.1692444086,0.1690353453,0.0602430739,-0.0047114985,-0.0042127715,-0.0068484922,-0.159164086,-0.0186942182,-0.1376687437,-0.0273524988,-0.0352554731,-0.2090098262,-0.1228199601,-0.0871664658,-0.1657263339,-0.2080222666,0.0899502039,-0.0576959699,-0.0565230511,0.1223893985,0.0803204104,-0.0811058357,-0.0862388387,-0.1560252011,-0.0810013711],[0.1924286634,-0.0292932354,0.1241691634,0.0409318283,-0.0339605026,-0.0046997885,0.0230891556,-0.0422023945,-0.0643614754,-0.0282739438,0.176689893,0.0964921638,-0.162767455,-0.0367427766,-0.083355926,-0.00050292,-0.1081311777,-0.2199186236,-0.0629670471,0.146657899,-0.1013500318,-0.0550660193,-0.154152751,-0.0939835086,-0.1526572555,0.1412957907,0.1461742818,0.1854392886,-0.1495317966,-0.0935304239,0.0073015839,-0.0885634422],[-0.0121461973,-0.1251539737,-0.0267566815,0.0504390337,0.0875421017,0.0507175997,-0.0980664268,-0.0540441871,-0.0046438491,0.0041342718,0.0570760332,-0.2158162445,-0.1374724358,-0.0213612895,0.0124517987,-0.0365162753,-0.0972195789,-0.0034490619,0.0960464254,-0.1839245856,0.04109779,-0.0695249662,0.1286197007,0.1324899346,-0.0650964379,-0.0101982467,0.0198089369,0.1520957202,0.033629898,-0.0831946954,0.0535342246,0.0704349652]],[[0.0775434673,0.0020282597,0.0801588744,0.048541408,0.0696357712,0.1271978319,0.106871888,0.0670181736,0.0977054015,0.0490780734,-0.076666683,-0.0723106265,-0.1287761182,-0.077951774,-0.0390505865,0.0830068067,0.0561472885,-0.0109707499,-0.1936829984,-0.0239020828,0.1046428233,0.1070972085,-0.2059962153,-0.1805177778,0.0184956957,0.1381704807,-0.1624822766,0.0427038632,0.0388320312,-0.0627940893,0.0639872998,-0.103498511],[-0.0301011689,-0.070787847,-0.0212930497,-0.1481271684,-0.1748355329,-0.1820961535,0.1821902692,-0.0653180033,-0.1686872691,-0.0418057069,0.10751082,0.0192182865,-0.1749778241,0.178509891,0.0505748764,0.0457753688,-0.0593010224,-0.1976341754,-0.1235249937,-0.0763799027,-0.0348149613,0.0003541164,-0.0114836907,0.1310204118,0.0837902352,0.105923973,-0.1308261454,0.0265690237,0.0371170193,-0.1253167242,0.1135009676,0.0118702156],[-0.1026974395,-0.0454096831,-0.0429511443,-0.0308356937,-0.0452383198,0.09505108,0.2009093314,-0.1300465316,0.0979718193,-0.1033701003,-0.2015580237,-0.2119007558,-0.104917787,0.1005275398,0.1196443886,-0.0217903927,-0.0854814127,0.100860782,-0.0760645345,-0.0456011556,0.1923564076,0.0732996538,0.1379420757,0.108616896,0.1297837943,0.0869932845,0.0481936485,-0.0786626786,0.0612927116,-0.0605372861,-0.0825320631,0.1240518093]]],[[[-0.0798308626,0.1747795194,-0.0816663802,0.1052143052,0.0254160389,0.1223616228,-0.1232082322,0.0199754816,-0.0287202578,0.0689592436,-0.0239556506,-0.0972068682,0.0410963036,-0.0162245184,0.0641103461,0.0285514034,0.1937464923,0.1424486637,-0.0810049996,0.05232317,-0.0023472982,0.0672515482,0.0146202631,-0.1799653471,-0.1799770445,-0.2106059492,0.0138921076,-0.1839808822,0.1346566379,0.1829294413,-0.228739813,0.0253880993],[0.01355433,-0.0580664948,-0.0739228278,-0.0709898323,-0.1255274117,-0.0571597554,-0.2176346481,-0.0790764764,-0.1822104156,0.1350886971,0.0758873448,0.0504634716,0.1317741424,0.0396041423,0.0460553393,0.0871641338,-0.0237133652,-0.0351731852,-0.0462414734,0.118817009,-0.0584451035,-0.0564925708,-0.0587271564,-0.0127598848,-0.0236436371,0.0329288952,-0.0383772179,-0.0601776093,0.063775152,0.0454287603,0.012616246,0.0027177695],[-0.0651391745,-0.1488118619,-0.1589676142,-0.1898750663,0.0268307924,-0.0318834968,-0.1595336944,-0.175713256,0.0998270065,0.018163234,0.0476289615,-0.1927567124,0.0594875813,0.0681494996,0.0231343098,-0.0668988973,-0.1033754647,-0.0700195581,0.0727633685,0.0067874673,-0.0003988961,-0.0557339899,0.110791117,0.1050647572,-0.046776142,0.1180141121,0.1787882596,-0.0439445898,0.1298174709,-0.154999271,-0.06337706,0.1898655295]],[[-0.0237131212,0.179642424,-0.1971521378,-0.045111604,-0.0799914077,0.1553355902,-0.1245403886,0.1977206767,0.0890492275,-0.0967840478,-0.0598612502,0.104935497,-0.1651031673,-0.0117591163,-0.1046905816,0.1092713028,0.1750441045,0.1590239853,-0.1300476789,0.0511006005,-0.0247505009,0.0350943729,-0.0959125757,-0.1012422368,-0.196378693,-0.0394750759,-0.078388676,-0.0973514542,0.1671250314,0.2141725272,0.0245818924,-0.0379926562],[0.1699435115,0.1150261611,-0.0940978602,-0.1904230267,-0.0809530541,-0.1037787199,0.0808262378,-0.0196554102,-0.0125388997,0.0407062471,0.1369642317,0.1720781624,0.019515425,0.0870852992,-0.0711225197,0.1362294406,-0.1763252616,-0.115657486,0.0964263678,0.1811147928,-0.0961524099,0.0056472216,0.1128472909,0.130461663,-0.0901665911,-0.1127885655,0.073547937,-0.0737805218,-0.1819012016,0.1570305675,0.1537010968,-0.1571482867],[-0.0785354599,-0.0636022985,-0.1360390335,0.0351903141,0.1836917102,0.0680769607,-0.1431088746,-0.0564831272,-0.0702998638,-0.1928593665,-0.0645023063,-0.1942433715,0.1280805767,0.0437708199,-0.0640953854,0.2173294276,-0.0285847913,0.0234640315,-0.0106574837,0.0317118391,-0.0715189278,0.0846512765,-0.0586948358,0.1703358889,-0.1111098677,-0.0569129586,0.2199437171,0.0756385326,-0.1075710729,-0.0850677192,-0.1497116834,0.1347175688]],[[-0.0927959308,0.1179530248,-0.1365273744,0.0740293935,0.0194570478,-0.0012529534,0.0662299097,0.0408047624,0.1954040378,-0.146948576,-0.1933359504,0.0678639784,-0.1813446283,-0.0237138458,0.1065465957,0.204253599,0.0683419406,0.056580171,-0.0273377225,0.0606279299,-0.0186357759,-0.1219487116,-0.0400286838,-0.0526476353,-0.2270917743,0.0519596264,-0.1543198079,-0.1335389912,0.1206586882,0.182944417,0.1224107146,-0.1677757949],[0.0577333681,-0.1278254986,-0.0985744596,-0.1328691989,-0.160118252,0.0721379295,-0.0152891194,-0.1037428901,-0.147226572,0.0120171187,0.0589452013,0.1785550565,-0.1755266339,0.0799077973,0.1392039061,0.1669879556,-0.1673238873,0.0362668969,-0.0464076437,0.1660497338,-0.0466941297,0.0936914533,-0.0397290066,0.0794130862,-0.0401442796,0.0935038328,-0.1032303497,0.1898848414,-0.0491446257,0.1588453352,0.0995471552,0.0260364674],[0.1221350133,-0.1258535683,-0.183961615,0.0368450992,0.1424150467,0.1330924928,0.1773576438,-0.1166913509,-0.0008264105,-0.2313384712,0.0370927155,-0.2034242749,-0.0439412817,0.0474920869,0.0443657115,0.1123771071,-0.0815969631,0.0172603652,0.1207282171,-0.135501951,0.1097837985,-0.0919936895,0.085806556,0.0906372741,-0.1037697569,0.1794437617,0.1839674711,0.0979438126,-0.124160558,0.0166494418,0.0124992514,0.1164737418]]]],[-0.0003568596,0.0021144031,-0.0005874596,0.0004475033,0.0003074652,-0.0015716664,-0.0006097862,0.0038082383,0.0005397958,-0.0004374881,-0.0005288611,0.0007430874,-0.0000016862,-0.0009822515,-0.0012707589,-0.0002025593,0.0025032212,-0.0008606849,0.0031001335,0.0000650252,-0.0009058797,-0.0000282505,0.0018634913,0.0008080425,-0.0007027044,-0.0115228156,-0.000288166,0.0008130224,-0.0013724735,0.0012348314,-0.0003787102,0.0007170655],[[[[-0.1361298561,0.076573424,-0.0050654905,0.0608349107,0.1168053374,-0.0815680772,-0.0266659036,-0.0436619706,0.0239439495,0.0713697821,-0.0268415697,-0.072448045,0.052695822,0.0574567243,0.1057361066,-0.0174612459,0.0396942794,0.033821281,-0.0532147884,-0.0640422553,0.0917141885,0.0098350234,0.0924041644,0.0219296049,-0.0773208141,-0.046871718,-0.0563875362,-0.0183387045,-0.0171267632,0.0702050179,-0.0067466283,0.0382149369,0.1376739591,-0.0378100611,0.0528362058,0.1041132659,0.1582099646,-0.1093195677,0.0303390063,-0.0723796487,0.0904160365,-0.019247992,0.0646269694,0.0219575297,0.0564603098,-0.064486295,0.010829905,-0.0351575017,0.0294746663,0.0065632658,-0.1368933022,0.0364825241,0.0134447161,0.0717482343,0.048331596,-0.1024957672,0.0206468068,-0.0985343531,0.0364365689,0.0342599377,0.0281326473,0.0791539103,0.0630375892,-0.0303020719],[-0.0869099051,0.0729753301,0.0291789342,0.0790102556,-0.0158511717,-0.0306152999,0.0199504048,-0.1094015315,0.0390308946,0.0388735645,0.099313654,0.119751811,0.019537041,0.0782775506,0.109666571,0.0202286746,0.0631211102,0.0803617984,0.0111174285,0.065833427,-0.0228352658,-0.0122052757,0.0611493625,0.0478779972,-0.0352108218,-0.0218113065,-0.0767563954,-0.0093140751,0.1043958962,0.0142780943,-0.0055817319,0.0958429575,0.0064247032,-0.0718700215,0.0375053063,0.0486664139,0.0332115218,0.0255269799,-0.0264048837,0.0722277686,0.078153044,0.0574390665,0.021081727,0.0454880297,-0.0455191731,-0.0435302183,-0.0522880517,-0.0393548012,0.0503537282,-0.0134419156,-0.1135481745,0.0685038641,0.0784252509,-0.0744680092,-0.0294472761,-0.0095792823,-0.0258268658,0.1045388281,0.0427827053,0.1175437793,0.0614405051,0.0610155649,0.2323527038,-0.0141168963],[-0.0364795737,0.0792137012,0.125813812,0.1040842161,-0.0202921312,-0.0096078236,-0.0588636547,-0.1926701963,-0.1437173933,0.0621867068,-0.1075335443,0.1275253892,0.0392091088,-0.0300101861,-0.1204428598,-0.0554775707,-0.164056316,0.1118251979,-0.061837893,0.136422053,0.0342307761,-0.0153078334,0.1011197269,0.0873732716,0.1355525404,-0.134270981,-0.0690001473,-0.1977247,-0.0588722378,-0.0423840135,-0.0201666579,0.0558920689,0.0211111009,0.0836862177,-0.0641786829,-0.0142205879,-0.0413434207,0.0087664369,-0.0053800563,0.1657311022,0.0198881906,0.0362780429,0.1032078266,-0.0542941503,0.0080515277,0.080869779,0.1275024861,-0.0342070051,0.036255423,0.0409304649,-0.0284024645,-0.1018667519,0.085131295,-0.0131572541,0.2345653921,0.007694188,0.011171788,-0.0458735302,0.0158608481,-0.0167886205,-0.0728418231,0.1406710744,-0.0864553228,0.0570755303],[0.0077572083,0.0676546618,-0.0226097684,0.0820819959,0.094350569,-0.0074675339,-0.0440035202,0.0571120232,-0.0749020129,0.0377428606,-0.0909928009,-0.004871204,0.096745722,0.0087197572,-0.1989035755,-0.0301993806,-0.0489677638,-0.0485528782,0.0375483148,0.0759708211,0.0848453119,0.0545093305,-0.1051883399,0.0934102163,-0.0231991783,-0.093373552,0.0764745772,-0.0737785771,0.0146856224,-0.0293984804,-0.0303124525,0.064766556,-0.0783868134,0.0778563991,0.0673333704,-0.1123477146,-0.0679369569,-0.0337243788,-0.0247232132,0.0584886186,-0.0265048724,0.0483828224,-0.0035182745,0.0072455807,-0.0335608311,-0.0197779778,-0.0029559345,0.0213300325,0.0773990229,0.0607927516,0.0315235592,0.0341331586,0.0364362709,0.0795094445,0.0418912992,-0.065925397,-0.0349705741,0.0864990279,0.0035017258,0.0296426192,0.0566246882,0.1025968194,-0.0472306944,-0.1087764353],[0.190491125,-0.0347167887,-0.0927188396,0.2820693552,0.2614557445,-0.0880648792,0.1514960229,-0.130365774,0.0611819662,0.1398964673,0.2372065634,-0.0875112116,-0.1122719347,0.2697624862,0.015697591,0.0490924716,0.0262981039,-0.2243961394,0.2188781649,-0.0355719589,-0.2644173205,0.0796622634,0.1164954305,0.0993067995,-0.0722509772,-0.1380103678,0.0150784655,-0.1762689203,0.2716922462,-0.062428683,-0.0490978882,-0.0619298927,-0.0250948463,-0.1295083612,0.1678606868,-0.0409677811,0.1907322109,0.1057636961,0.3419279158,-0.0788512602,0.0698000938,0.26373142,-0.1044818014,-0.0162372049,-0.0042453529,0.1693797112,0.0559408478,0.1647915542,-0.1769720465,0.0016846424,-0.2035728246,-0.0818088576,-0.0231957082,0.1509955078,-0.0676651523,0.0982029364,-0.110252969,0.0767043903,-0.191722393,0.1420232058,0.0349031948,-0.1144858077,0.1035232022,0.0913340077],[0.0447051264,-0.1027167439,0.0680731535,0.0279416554,0.0359584913,0.1121347249,-0.0382749885,0.0714791268,-0.0108822519,-0.0939595252,-0.0291646328,-0.1196326017,0.0630419552,0.0149895437,-0.0667109191,0.007372776,0.0440420918,-0.0527748466,0.1339367628,0.0396541618,0.0320177563,-0.0851448625,-0.0416000783,0.0309103411,0.0276122931,-0.1074716374,-0.0032680531,-0.0485513322,0.0623869374,-0.0249806289,-0.089897044,-0.1145219132,-0.0907206759,0.0227169897,-0.0077576526,0.0261396728,-0.044512406,0.0772564709,0.0952033103,0.0236774217,0.0468106456,0.0630417988,-0.132080242,-0.0709132105,0.0487412587,0.1057469994,0.0410046056,-0.0030940645,0.0664607882,0.0101054292,-0.086207293,-0.0353225842,-0.0655776486,0.0128386542,-0.0743085817,-0.0622757003,-0.0358655676,-0.0649821386,-0.1138460934,-0.0587969795,0.0800098628,-0.0574231334,0.0394941643,0.0697900727],[-0.0437406972,0.2126020044,0.0392411388,-0.097471267,-0.0134701524,0.0940510035,0.0739433914,-0.069939062,0.0783855319,0.0429009274,-0.1971786469,-0.1056535095,0.0184205342,0.0401407257,-0.0109273102,0.0514279529,0.0613516085,0.0113965562,0.0131512694,0.0279046763,0.0024581284,0.0185420159,0.0248030946,0.3336362839,0.1888579428,-0.1010214016,0.0338949598,-0.2031032145,-0.0625425428,0.0110862451,0.0549945198,-0.138487041,-0.1582128108,0.0333507992,0.0739572868,0.1236217394,0.0938787535,-0.0182759874,-0.019874407,-0.0031851078,-0.1619069576,0.038400162,-0.0674308315,0.3774772286,0.0233757645,-0.1629093736,0.0293645617,0.0087243132,0.0858831331,0.0202011112,-0.2015053332,0.1742718965,-0.2522298992,0.0634765923,0.1627168655,0.0667373389,0.0399434604,-0.0181366839,0.0181648135,-0.0018907797,0.1450327784,0.09656661,-0.0852835551,0.0292898118],[-0.064749226,-0.0233710315,0.0984963998,0.1496911049,-0.0249024723,-0.0303178169,0.0045495275,-0.0018153804,-0.0033003169,-0.1999883056,0.0547394231,0.1771804839,0.2205082923,-0.0141453212,0.0365463756,-0.058835078,-0.0833351538,-0.0374395214,0.0865132064,0.2290596068,0.057703007,-0.1164199188,0.1067128852,0.0203848798,0.0874144286,-0.0342153683,-0.1008551568,0.0759288073,0.0585213006,-0.0404153429,-0.1675543636,0.1449429989,0.0125185344,-0.1515507996,0.1394008696,-0.1166866794,0.0261582844,0.1468363404,-0.0533665307,0.0979774296,0.1077501997,-0.1053678393,0.0314722322,0.0043684719,-0.1153647155,-0.1432239115,0.0378620178,-0.0576292984,0.1735813618,0.1084415913,0.0731879249,0.0166972764,0.171384111,-0.0154499393,0.0974527076,-0.0324825421,-0.1214942262,-0.0385628231,-0.0920157284,0.2248241752,-0.0484711975,-0.0622835569,0.1930645704,0.0476384424],[0.1367099583,-0.1250520945,-0.0096211722,0.1422213465,0.1288370639,-0.1345907003,0.192962423,-0.0737869442,0.06946446,-0.1057290509,0.1245918795,0.0232134294,0.0509367846,0.1080891117,-0.0857994929,0.0257253796,0.017576769,-0.150602892,0.2594543397,0.0579489917,-0.1427602321,-0.0627451912,0.0984805748,0.04274166,-0.1382572055,-0.1426077187,-0.0485026538,-0.1394304335,0.2608131766,-0.1736039668,0.0110814543,-0.1241884232,-0.0432463549,-0.1368689835,0.2401935458,-0.1092289537,0.1518026143,0.1195231974,0.1133511364,0.1311170459,0.0702538192,0.1212815642,-0.2040620148,0.2046314776,-0.0048995474,0.0280522518,0.1995030344,0.2163780779,-0.0077390126,0.0773746595,-0.1006065309,0.0139157455,-0.065066278,0.0102756824,-0.1047083884,0.1218800694,-0.2965970337,0.0009887525,-0.348564446,0.2450917661,0.0095152743,-0.0142069208,0.0573815592,0.1626081318],[-0.1788014323,0.0401405841,0.0295045003,-0.0181050301,-0.0971652493,0.0905382484,0.0607082881,-0.0684747249,0.0160308331,-0.1180411577,-0.0986009762,0.023626795,0.2611247897,-0.0084262611,-0.0010620276,0.032136146,0.139028579,0.091634348,-0.0104264729,0.0917688757,0.136992842,0.0384514108,-0.0145642012,0.0284490231,0.2319007814,-0.0737029463,-0.121625118,-0.1638632417,0.0121709434,-0.0091878548,-0.0225798562,0.1345707327,0.1767953932,0.1054576263,0.0240630619,0.0119663551,-0.0065428754,-0.0554729812,-0.1022709832,-0.013174939,0.0199891403,-0.0647918731,0.0479081608,-0.0053476412,-0.0543456748,0.0535117798,0.0004963173,0.035414502,0.2000785023,0.0318382494,-0.0335522853,-0.0786670148,0.0787030011,-0.0802290589,0.2516247034,-0.0001174065,-0.0211771112,-0.08663553,0.0540080518,-0.0230090637,0.0143881552,0.1836121529,0.0171755832,0.0660515875],[-0.1742811948,0.1977789551,-0.0614199899,-0.1000546589,0.0149437776,-0.0301239677,0.0550875254,-0.0695442781,0.0195722077,-0.0224135369,-0.1968245208,-0.0135193923,0.1596994698,-0.0248686355,-0.0603648461,0.0206482504,0.0499190763,0.1388071626,-0.0783392116,0.0218775328,0.2413052469,0.0537405796,0.0588508882,-0.0205111019,0.1767990291,-0.0037533138,-0.0963198021,0.0071774079,0.0141030168,0.0071627134,0.0148093756,0.0534559488,0.1096155494,0.0113894911,0.0823132545,0.1588169187,0.099016346,-0.1306636333,-0.0924068168,-0.0670450255,0.0682216138,-0.08213415,0.070691213,-0.0298994519,-0.0434994847,-0.0226912219,0.0776822269,-0.0515596308,0.1722717434,-0.0832247511,-0.0839721635,-0.1556080282,0.012669133,0.0325359032,0.1507220268,-0.0387566313,0.1642196625,-0.0498262383,0.186829716,-0.0676258355,-0.0673065931,0.0919351205,0.1111064032,-0.0133140562],[-0.2794574797,0.2444557399,0.1072122008,-0.0389505476,-0.2279903591,0.023205772,-0.0211673565,-0.010979685,-0.0917452574,-0.0288998913,-0.1656706184,0.1848675758,0.2259820402,-0.0950063467,0.0392916985,-0.0037864735,-0.0710253194,0.1263183206,-0.2359865457,0.0666677058,0.2866620421,-0.1303719133,0.0011197457,0.0948335677,0.1559975147,0.0624418408,-0.1000299454,0.1716514826,-0.1099184155,0.0021207419,-0.1143229902,0.1033865437,0.0210140757,0.0779859796,0.0543411672,0.0931358859,-0.1241284609,-0.012049132,-0.1099221334,0.1336614192,-0.0072636791,-0.1667585522,0.1906547993,-0.0091833035,-0.0173999108,-0.1573667377,-0.0144605888,-0.1567994207,0.1411953717,0.070954062,0.0563793257,0.049155388,0.187598899,-0.0781280771,0.107660301,-0.1342629045,0.018881429,-0.065111801,0.1654803157,0.0653934404,0.0462348387,0.0894295126,0.102068983,-0.0887861475],[-0.082458511,0.0599851497,0.0172250122,0.041183643,0.0362812392,0.0130713629,-0.045353625,-0.2747448981,-0.0798241273,0.0655552968,-0.0079904683,0.0627515912,-0.0123747457,0.0625786111,0.0816093832,0.0558915921,0.0599584319,0.2015476078,-0.0044869464,-0.0400394835,0.0594069064,0.0774160773,0.1213153079,0.1190691963,0.000594741,-0.0003778205,0.0879404545,-0.0709348246,0.0822441876,-0.0327055603,0.0562542193,0.1023381948,0.0985138342,-0.0404829197,0.0448859334,0.0299769472,0.0861932263,0.0015789035,0.0721172616,0.0422396995,0.0857845768,-0.0069075362,0.0571930408,0.045629967,0.0234132539,0.0081121549,-0.0474880598,0.0118848579,-0.0210179202,0.0920333564,-0.0954667032,-0.0860036165,0.0324724317,0.0269023236,0.1318521351,-0.0159577075,0.0462469012,0.0066138539,-0.020104805,0.1114659309,-0.0992020592,0.1781677157,0.066462703,-0.0749177113],[0.0793269798,-0.0172964744,-0.015229567,-0.0826523229,-0.0031179043,0.0821938887,0.0040433495,-0.1001351625,0.0927365646,0.0551830679,-0.1214232966,-0.1753365695,-0.0551927909,0.0129973814,-0.1179260537,-0.0653753802,0.1046073213,0.0987604707,0.0524217412,-0.0731451139,-0.0157106649,0.0586081669,-0.0021461812,0.0964496955,-0.0142797977,0.0085047325,-0.0080114231,-0.0320510343,-0.0693715438,-0.0135942837,-0.0190662742,-0.1782964021,-0.0241397638,0.055519063,0.0595009699,0.1394867301,0.0909094363,-0.1141651347,-0.0304591767,-0.1916910261,-0.1606816053,-0.0223138575,-0.1068512723,0.1292567998,-0.024135787,0.0146575104,-0.092715919,0.0403457507,0.0484572351,-0.0752155036,-0.013328271,0.0408952236,-0.1226812676,-0.0768003091,0.0572140291,-0.0157073699,-0.0235181227,0.0097075766,-0.0055763703,-0.1663378775,0.0626593605,0.0325420871,-0.1440280527,-0.0248675048],[-0.0460007712,0.1360355318,-0.0842051953,0.0229755156,0.0537276119,0.0535563976,0.0669153929,0.0244275331,0.0739479512,0.0917902514,-0.2160154283,-0.1830324829,-0.0583814494,-0.033445064,0.022195803,-0.0110775204,0.2000872195,-0.0242139176,-0.0117516881,0.0136869615,-0.0512025803,0.0205019861,-0.0024489183,0.1742618382,0.1765945703,-0.0336976498,-0.0313622765,-0.0371315405,0.0360689238,-0.026659552,0.1152540147,-0.1244333163,-0.1087123975,0.0615833625,-0.0143920761,0.0444353372,-0.006295152,-0.0483020097,0.0243102182,-0.1534492075,-0.1823496819,-0.0453850105,-0.1796658933,0.3280401826,0.014406248,-0.0003490121,-0.0725210309,0.0453569964,0.0448430069,-0.0096840356,-0.1628614962,0.1753551215,-0.1917871684,0.098639138,0.1884576827,-0.0564062484,0.0511202812,-0.0196872,-0.1917610317,-0.0592841096,0.0771555975,0.0336797014,-0.1040505245,0.113224037],[-0.1759044081,0.1019361019,-0.0471300185,0.0307793804,0.1816654801,-0.0083484175,0.0575083233,-0.1538398266,0.1572964638,-0.0268214606,0.0890376791,-0.2071235776,0.0459509343,0.0354373455,0.1257019043,-0.0661717504,0.2740965188,0.1089970693,0.1058734953,-0.062392544,0.0032026304,0.0517870709,0.2130073011,0.1394241601,-0.2726516128,0.0519588105,0.0426940769,-0.0238359645,0.071095854,0.0326971002,-0.060886018,-0.145040676,-0.1061684564,-0.0281107742,0.1472168267,-0.0318217278,0.1012283862,-0.1075849533,0.0136115318,-0.2838154435,-0.1931494176,-0.0881093591,-0.1426933706,0.3775567114,0.2346648723,-0.0847773477,-0.1297394037,0.1043066978,-0.032211531,0.0265177283,-0.1596454978,0.249199912,-0.1388362944,-0.1148344278,0.1606916338,0.0284760445,-0.0047330623,0.0463226885,-0.1283021718,-0.1196023226,0.2061385214,-0.0556780472,0.022864582,0.0196013134],[-0.0635306388,-0.0544588044,0.1261219233,0.164546743,0.0618938059,-0.0511237644,0.0714492649,-0.0635611638,-0.0045017488,0.001952294,0.1253508478,0.1129336059,0.0883910209,0.0173020847,0.1251044124,-0.0577795357,0.0758789405,-0.0554643609,0.0861884877,0.0762059018,0.0583797507,-0.0791251212,0.0899246037,0.0220230371,-0.0616909117,-0.0812883303,0.0228029322,-0.0502303131,0.1260189712,-0.0274973419,-0.0203143731,-0.0171397645,-0.0146862799,-0.1110652834,0.1511057317,-0.1074467152,0.0897535011,0.0710801855,0.1121477112,0.1563048661,0.1060370877,0.0825608447,-0.0167743992,0.1253175437,0.0665930584,0.0780051276,0.0379875116,0.0999221802,-0.0322063565,0.1120755225,-0.0635225847,0.0246785041,0.0376393944,0.0051657734,0.0502117276,0.0556021854,-0.1336786896,-0.0600621626,-0.0285150502,0.2010187358,-0.0269799121,0.0074677258,0.1686619073,0.0211586561],[0.1680298001,-0.171671167,0.0177016761,0.124004662,0.1972064078,-0.0450766496,0.0971350521,-0.0602316931,0.0118225515,-0.0609187968,0.1080326959,-0.0880463719,-0.0595983714,0.08077766,0.0408278108,0.0519313589,0.0278174151,-0.0402532592,0.2018713057,-0.0123615563,-0.1450518966,0.0213914737,-0.071201697,0.0105733676,-0.0507235825,-0.0382080153,0.0191010814,-0.123453781,0.2021551728,-0.1617978364,-0.0109965466,-0.0598013103,-0.0228982233,-0.1291658878,0.1034980714,-0.2086980343,0.1013616994,-0.001732277,0.1913261414,0.0319419727,0.0803738236,0.1838966757,-0.1557023525,-0.0197711531,-0.0515278503,0.17055884,0.1311022788,0.2168835551,-0.0396991558,-0.0158834904,-0.1295238435,-0.0565630384,-0.0868240371,0.081999667,-0.0494944006,0.0551301837,-0.1449547559,0.0932711735,-0.2242253125,0.116556488,-0.0037727125,-0.0739103481,-0.0046072858,0.0832187012],[-0.0482384637,0.1356384903,-0.0401818827,0.0366452709,0.0422165953,-0.0666669905,-0.0447168835,-0.1187755764,0.0342592485,0.1364050508,0.1322743893,-0.1186879799,-0.1267500073,0.140348345,0.1565117836,0.085867539,0.0550608523,-0.0097252587,0.0686455593,-0.0585509464,-0.0576706529,0.1639976948,0.0402455404,0.1600082666,-0.0290776398,0.0687997192,0.0146023696,-0.0642794669,-0.0154753169,0.0896281153,0.103808172,0.0195100792,0.1053642705,0.0004548804,-0.0528061166,0.0998881683,-0.0187594816,0.007107201,0.0796879232,-0.1275179386,0.0610502101,0.1011763066,0.0712840781,0.0501911715,0.0319078043,-0.0066525219,-0.0152918473,-0.0242313389,-0.1065252498,-0.1007703692,-0.0903191566,-0.038150277,-0.0474023521,0.0688976794,0.1004375145,0.0479709804,0.0310910493,0.0228730701,0.0428819135,0.0569864698,-0.0424813032,0.0275608804,0.0836921409,-0.0308061931],[-0.3885974586,0.1388777643,-0.0321356989,-0.1960274577,-0.0302215014,0.0555572435,-0.0125558488,-0.1651685536,0.039205417,0.098981224,0.0504953191,0.0173566528,0.1268081218,-0.1475643963,0.1628466249,-0.0776054561,0.1954071522,0.286508292,-0.0696467906,0.03310683,0.3093016148,-0.0004975693,0.0149846878,-0.0096136164,-0.0794540644,0.2159514278,-0.1024080515,-0.0025606453,-0.1597973406,0.0772889182,0.0270326901,0.0252315775,0.0396429189,0.0270109959,-0.0897584185,0.1466817856,0.0707069114,-0.1653791517,-0.1649295092,-0.1305722743,0.057288114,-0.1189829856,0.1158756837,0.108358629,0.2616893351,-0.0684736446,-0.0331010818,-0.0377806202,0.130770281,0.0660711825,-0.0371152908,-0.0320888199,-0.0441753902,-0.0307932422,0.2813771069,-0.2164277881,0.125542447,0.1554037035,0.178371042,-0.1671479493,-0.030487882,0.1361102164,0.1513833404,-0.0393276326],[0.0936750546,0.0445322879,0.0222386513,0.114367336,0.0260828193,-0.0225928146,-0.0762966126,-0.0409408771,0.0189162958,0.0543142781,-0.0687262043,-0.0743882656,0.0725336596,0.0265439041,-0.0232459083,0.0368583463,-0.0391792543,-0.0528832786,0.0600334704,0.0748828351,0.0272210203,0.0370841846,-0.0208388418,0.2243872285,0.1592367291,-0.0017126061,0.0591223836,-0.1075945348,-0.0775966048,-0.0198452119,0.1404482126,-0.0654043034,-0.0185695011,0.1403139234,0.0644762516,0.0119346688,-0.0355365388,0.0263652187,0.0355263278,-0.0324730091,0.0252268203,0.1299127787,-0.089422062,0.275211513,-0.0416694097,-0.0356920287,0.0316698998,-0.0201893318,0.0524101518,0.0795494691,-0.205597803,0.1277181953,-0.0945616215,0.0531637147,0.1209788769,0.0537766963,0.0452216305,0.0076039149,-0.0800797492,0.0960962325,-0.0738815069,0.1271024048,-0.0073760403,-0.064586401],[-0.0305113066,-0.0842758045,0.0525525026,-0.035945937,0.0075571351,-0.1257492006,-0.0482003354,-0.0845148191,-0.0157110747,-0.0289649256,0.0036442108,0.0285496563,0.0618506409,-0.0116461962,-0.0035729767,-0.0881680921,0.0547731966,0.0541262329,0.0710671172,-0.0254989639,0.0289650075,0.0585912541,-0.0231261905,-0.0743847042,0.0684564337,-0.0222590324,-0.0189128481,0.0278377514,-0.0341525972,-0.0299915373,0.0548939928,-0.0503281429,0.0011366624,-0.0784241259,0.0739962384,-0.0512936674,0.0783571303,-0.0776830614,-0.0224042293,0.0227282029,0.0203186795,-0.0270461347,0.0873526111,-0.0076834993,-0.057333447,0.1168020442,0.068695277,0.0675660148,0.0055978573,0.0375457667,0.0531794392,-0.0501793735,-0.0174809378,0.0768204853,0.0581203848,-0.0541370362,-0.0537183806,0.0422252603,0.0111807259,0.0211229399,-0.0200137589,0.1095976755,-0.0059900796,0.0250193905],[0.0584381446,0.073475942,-0.2276672274,0.0187878851,0.3647156358,-0.1599746495,-0.0562028028,-0.1404725611,-0.0472502336,0.2713519633,0.1555391997,-0.112909615,-0.2274913341,0.2877822518,-0.0576067902,0.1909359992,0.1227478534,-0.0828002691,0.068544887,-0.2095878422,-0.1334839165,0.1895011067,0.0558681712,0.1448064297,-0.1594905704,-0.0003476717,0.2554196715,-0.2109434009,-0.0098436689,0.2293579876,0.2515170574,-0.2035931945,-0.1103340536,0.1419597566,-0.0514666773,0.1546102166,-0.058314316,-0.147035718,0.2016893476,-0.0710043982,-0.0585295968,0.1393854022,0.0635739341,0.0806356519,0.0618898049,0.2015459239,0.0262488853,0.2001746446,-0.2655341327,-0.2271137238,-0.0930845886,-0.0594406128,-0.1407701224,0.2926903665,0.1204430908,0.0776241273,0.1043634191,0.1856434345,0.0411821641,-0.1009156704,0.0201854743,-0.0241865478,0.051989682,0.0296037123],[0.0742149353,0.0298040733,-0.0960211828,-0.023152329,0.2354470342,0.0228883252,0.0746193826,-0.0841922015,-0.0092682159,0.0870724991,0.0000755408,-0.2274557352,-0.2113991678,0.1064397991,-0.0614275746,0.1557202041,0.0366084576,0.0351360887,0.0343960673,-0.189428553,-0.0396245494,0.0766588077,0.0533414669,0.1106597483,-0.1222948804,0.0957196355,0.0560569465,-0.1683172733,0.0705724508,0.0885315612,0.191685766,-0.0951973721,-0.0090693235,0.0910649821,-0.0308725461,0.1782070994,0.1051010862,-0.1623890102,0.0736277476,-0.1572505385,-0.0405959487,0.1648128778,-0.008194047,0.1366361529,0.0378999449,0.0119760223,0.0347830839,0.0681911334,-0.1764851213,-0.06172584,-0.1119767278,0.0163241271,-0.042480398,0.1340450794,0.1323946565,-0.0333924294,0.1465811729,0.0273248777,-0.0535222143,-0.0687060878,0.0522640161,0.0716333911,-0.0937553346,0.0606401265],[0.030346645,0.0870528594,0.0192304756,-0.061511822,-0.0481541045,-0.0690570474,-0.0273434594,-0.2132572532,-0.0030376874,0.0211022794,-0.1718600392,-0.0513061471,0.0896820799,0.0096194334,0.0904627368,-0.0169510003,0.0929077715,0.2107276767,-0.0013854834,0.026936667,0.1527986079,0.0425386876,0.1214497089,0.1603706926,0.2452493161,-0.2563260794,-0.0409119353,-0.2054318488,-0.0882242322,-0.0354664288,0.0716134384,0.0260521621,0.2583485544,0.0801207423,0.0650039986,-0.0328195989,0.0846615136,-0.0631114468,-0.0663182363,-0.011479361,0.2551940382,-0.033677116,0.0832867324,-0.0197836142,0.0484845303,-0.0266265646,-0.0028143078,0.030935768,0.0411241688,0.0997216254,-0.1620665789,-0.0855646655,0.0207303036,0.0889182463,0.3632210493,-0.0322239809,-0.0641781315,-0.0995262191,0.0570290275,0.0538190976,-0.0473122336,0.2844180167,-0.0430686362,0.0717044622],[0.0545678101,0.1027852148,-0.1021553949,-0.0712767243,-0.0445209071,-0.0169850718,0.0236694533,0.0857354999,-0.0202722996,0.0537020639,-0.0400909856,-0.1824008524,0.0164116044,0.0196943935,-0.1448156983,0.0468779616,0.063065134,-0.0112011572,0.0132801654,-0.030652944,0.0078303143,0.0053006569,0.01356625,-0.018523084,0.0478371382,-0.0688939914,-0.01389331,0.0106787207,-0.1157400906,0.01368808,0.0404063612,-0.1872256845,-0.018765945,0.1025785953,0.0325802267,0.0593314134,0.0095357345,-0.0503723212,-0.0637646765,-0.0609806888,0.0133782085,-0.0364154354,0.0465785004,-0.0716803297,-0.0362100489,0.0118612228,0.0400069579,0.0358441621,0.0456321239,-0.0694483966,0.0391486883,0.0582426973,-0.061759945,0.0558811165,-0.0183565374,-0.0957423747,-0.0290674251,0.012560064,0.0167507567,-0.1663204134,0.0115046045,0.0963382944,-0.0847007781,-0.0521126091],[-0.0575823002,0.135663107,-0.0234858636,-0.0009701923,0.1479811221,0.0269638337,0.0194427818,-0.2453819662,-0.0046351738,0.1649828553,0.0789721906,-0.1717463434,-0.0117157931,0.1045196503,0.0829885453,0.0630279779,0.1358209997,0.0159624312,0.0580845028,-0.1378620863,-0.07316944,0.078542918,-0.0010672283,0.0606205836,-0.0265242569,0.03006256,-0.0432411171,-0.0192111917,0.1311625987,0.0362593755,0.1113452762,-0.1652982682,0.1455154717,0.029410325,0.0526125617,0.1438805461,0.1426068246,-0.03853558,0.1769676208,-0.1196120232,0.0267428663,0.0079999175,-0.0339143649,0.1124481261,0.1303196996,0.0425927974,-0.0398140438,0.1252586991,-0.1211487278,-0.0343756303,-0.1612282991,-0.1109386012,-0.0913922191,0.1050875708,0.2046861351,-0.0036646433,0.0422775857,0.0253827944,-0.0176471174,-0.0144398864,-0.1264891773,0.1361825615,0.098893635,0.022093758],[-0.1305484027,0.1569114327,0.0230818484,-0.0047092717,-0.0499412455,0.0100242877,0.1030669659,-0.0983446613,0.029831877,0.064485237,-0.1804873496,-0.1054276749,-0.114717029,0.0447906181,0.1078995243,0.0923802704,0.0575603731,0.0180119965,-0.0711313039,-0.0705500245,-0.004608673,0.1085354537,0.1898091733,0.2712967396,0.0364933461,0.0962400511,-0.0820975229,-0.1340505332,-0.0183873232,0.0631910712,0.0373307951,-0.0417094268,-0.0671012551,0.0223641209,-0.0416768044,0.1200844422,0.0836694166,-0.0934901834,-0.0226876866,-0.1680663675,-0.0480297022,-0.0443037972,0.0539696887,0.2371384799,0.1114966646,-0.1549227685,0.0836228058,-0.0637332201,-0.1303634495,-0.0796602964,-0.0869875848,0.097429648,-0.1067583635,-0.0272774436,0.1893660426,-0.0767452344,0.1861778796,0.0328523219,0.0071283984,-0.1639495939,0.1112225279,-0.0281618889,-0.1035393849,-0.0286528412],[0.0482601374,-0.0957159922,0.0698770955,-0.0080421846,0.0507155806,-0.0588928275,-0.0581659451,0.0468534492,0.0856594443,-0.0580068752,-0.0302685983,-0.0509447642,0.0379729234,0.0332032219,-0.0487054028,0.0535639338,0.0043816264,-0.0118234828,0.0480028465,0.0714466348,0.0068169106,0.0549970604,0.0069427686,-0.032793656,0.1054439098,-0.028277548,-0.0510403775,-0.0530565716,0.0919000432,-0.1001161188,0.0134838959,-0.0217049867,0.0909542367,-0.0052234363,0.0765371397,0.0032245673,-0.041561354,0.0182532482,0.0906733945,0.0772029012,-0.0217012614,0.0547049157,-0.1689831018,-0.0938747972,0.052999422,0.1493004262,0.0796441212,0.0855644569,0.0464820042,-0.0064221122,-0.1146332249,0.0420196578,-0.0735866725,-0.0213616323,-0.0314424299,-0.0493286811,-0.0332075953,0.0550164431,-0.2025340497,0.0959210098,0.0772916302,0.0934067294,0.1156097353,-0.0484986566],[-0.0632056296,-0.0688627064,-0.0379350707,0.0735509768,0.0424453355,-0.1222924665,-0.0387182273,0.0037070778,0.0787889436,-0.0830448642,0.1140189841,0.1064593568,0.0075943274,0.0036791812,-0.1111471131,0.0095093083,0.092723392,0.0345306061,0.0002384498,0.0240833834,0.0415785871,-0.0815587267,0.0009599136,0.0651081949,-0.0573753156,0.1143130735,-0.0116051538,0.08511094,0.0205513816,0.0283024367,-0.0032616386,0.0123693235,-0.019870067,-0.038412232,-0.0532180034,-0.0029409274,0.1226597056,-0.0226575211,0.0360933393,0.0366184376,0.0088497372,-0.0648600757,-0.030891411,0.0701162592,0.1464556605,0.0237848982,-0.0722400546,-0.0358599052,0.0954161882,-0.0189181156,0.0350411907,0.1272181571,0.0501531474,-0.0742819756,0.0531856567,-0.0659717396,-0.0858820304,0.019952707,-0.061236985,0.0112323873,0.0437398963,0.025944721,0.0701440424,-0.0947509035],[-0.0774368942,0.137119174,0.0186708197,-0.1455528885,0.0082604289,0.030239962,0.0743407011,-0.005894694,0.0961339921,-0.0935175568,-0.1386078596,-0.0004852598,-0.0364412069,-0.0331752896,-0.1374331564,-0.0670500621,0.1322304159,-0.0934620872,0.0205172598,0.0463912413,0.1672112048,-0.0243903119,0.0605768859,0.2102184445,0.1416157186,-0.0939949304,-0.0003725908,-0.1022685692,-0.0120279528,-0.0100677442,0.0755765736,-0.031803675,-0.0532131121,0.083391428,0.0121222194,-0.0017759893,-0.0147128981,-0.0495840199,-0.1087190434,-0.0384715572,-0.1636980474,-0.0791911855,0.0280618891,0.1836210042,-0.0595992208,-0.0222837105,0.072110422,-0.02963138,0.0941906497,0.080029659,-0.0277709812,0.2094027698,-0.0933796614,-0.0321935527,0.0823213831,0.0407708436,0.0020254559,-0.0765828043,0.0024974165,-0.1592126936,0.0539587475,-0.022595441,-0.0626224503,-0.008465399],[0.1883203685,-0.083747305,-0.1809931695,0.1058956906,0.3432642519,-0.1125172004,0.0230650436,-0.1362119019,-0.0006942854,0.2064729482,0.1943497956,-0.1607399434,-0.0935292616,0.1360849738,-0.0229206774,0.2000809461,0.0114606041,0.0447361842,0.0497172251,-0.0423484072,-0.102174148,0.2169576287,0.1259063184,0.1509055644,-0.0619700365,-0.0259579048,0.0701889098,-0.0913968757,0.1533732265,0.0019972043,0.0645908415,-0.1137677208,-0.0348643623,0.0432370491,-0.0580839664,0.1297122538,0.0755829737,-0.1297056675,0.1337585598,-0.1361445189,0.0134090921,0.1997288167,-0.1026742607,0.0235971771,0.0539926812,0.1554252058,0.0101182014,0.1486884505,-0.1836426109,-0.1613981724,-0.1422304213,-0.0449538268,-0.0384785905,0.1435669214,-0.028247511,0.0263705086,0.1355405301,0.0489647016,-0.1253376901,-0.0433048643,0.0648110062,0.0205412973,0.0196546055,-0.030176539]],[[-0.1161678582,0.1819125712,0.033274807,-0.011810014,0.0278489664,0.038561441,0.028400816,-0.0316685289,0.0497168936,0.1182314679,-0.0301233884,-0.0801608637,0.0058554518,-0.013436771,0.0938889906,-0.0521823727,0.0422813892,0.0846696049,-0.064968355,-0.0235104896,-0.0197143294,0.1060840636,0.1069219261,-0.0352636278,0.0607442819,0.1094954833,0.0036252739,0.0167728495,-0.0269522965,0.0897777155,-0.1171395257,-0.0153788887,0.0512017049,0.0936816111,0.0622073561,0.0700182095,0.1156350672,-0.068726249,-0.0369112603,-0.1181726083,-0.0083080707,-0.0886080414,0.103744939,0.1871720105,0.2138141841,0.0007195319,0.1147291735,-0.1226168051,-0.0125722624,0.0054107108,-0.0668442249,-0.068111062,-0.1022253409,0.0609218255,0.1582277119,-0.0109443236,0.0334764645,0.0507676341,0.1011542454,-0.0369956605,-0.1121071875,0.1403747648,0.0451130569,0.0324769616],[-0.127077952,0.1271282583,0.090168193,0.1188666224,0.0525793135,0.045088686,0.0230866596,0.0173931345,-0.0033439132,-0.0474210531,0.1059846207,0.1477117985,0.0973522365,-0.0109336823,-0.0150126116,0.0415361524,0.1003509313,0.0298051722,0.0334958956,0.0313838571,0.0535298139,-0.0745331496,0.0651788637,-0.1002720818,-0.1178080514,0.0333117172,-0.0899749473,0.0199399795,0.0962187946,-0.0074275672,-0.0562404767,0.0264848396,0.0739733279,-0.0700733215,0.1708734035,-0.0500973575,0.190862298,0.0694587305,0.0532566048,-0.0202970207,0.0879871845,-0.0362301804,-0.0827311575,0.0536298379,0.0893271342,0.0102906832,-0.0526035652,0.1407180279,0.0563853644,0.0252737794,-0.1125014648,0.094603017,0.007579702,-0.0123114912,-0.0213722978,0.0219335649,-0.1174068227,0.0607669167,-0.1205542386,0.0102321403,0.107318826,-0.0608625449,0.1561011374,-0.0869968832],[0.040915139,0.1477506757,0.087376669,0.0124270832,0.0462410375,0.0547026955,-0.0454955027,-0.2891070247,0.0464781187,0.0388177447,-0.1405391991,-0.0036573785,0.068046093,-0.0709825903,-0.0070541832,0.0166567918,0.0529463589,0.2183482796,0.0111416988,0.0422487855,0.1171848625,0.0897366032,0.0443768725,0.0089775873,0.285150975,-0.1455266774,0.0181673523,-0.0536926612,-0.0228394642,-0.0814892873,0.0608273596,-0.0186767355,0.1130817831,0.1890005916,0.0240493044,-0.046912048,0.083036758,0.0292321015,-0.0186821148,0.1657219529,0.1476654857,0.0215514712,0.0245660003,0.1971984059,-0.0039330353,0.0623628534,-0.0104129612,0.0508473143,0.0414555371,0.0613464788,-0.066751346,-0.0980328843,-0.0398170352,0.0587271266,0.2544079125,0.0994468033,0.0566115454,-0.0010171999,-0.0555447191,-0.0243368335,-0.0921694934,0.320484817,-0.2213208973,-0.0336004905],[0.000961848,-0.0589936934,0.0186884291,0.1038574576,-0.0027998765,0.0652615577,0.0185987167,-0.0309502985,0.01312193,-0.0240779743,-0.0218764283,0.120630987,0.0599574074,-0.0100690257,0.005658607,-0.0325612947,0.0145395976,-0.0552682802,0.018953776,0.111938104,0.0871642157,-0.0142255509,0.0576157458,0.0219144132,0.1588629931,0.0259732716,-0.0180263985,-0.0438699536,-0.0176491793,-0.0246553253,0.0129570551,-0.0036371846,0.0979880989,0.0683485419,0.1549795717,-0.0141643677,0.1520836055,0.1353108436,-0.020601064,0.1099644601,0.1243916377,0.0687465817,-0.0459586978,0.1119400114,0.0169900451,-0.0236855112,-0.0477695055,0.0947165638,0.100267306,0.1456128806,-0.0661651865,-0.0249076635,0.007645777,-0.0472933762,0.1319888979,0.1507529169,-0.0097229742,-0.0662053227,-0.1230500042,0.1020521447,-0.0224700142,0.1014311537,-0.1079798937,0.0718778074],[0.2268183827,-0.214418292,-0.1488976926,0.3006874025,0.4005983472,-0.1794509441,0.1694238484,-0.0854307786,0.1529955566,0.1454282403,0.1917293072,-0.0448935963,-0.0527662262,0.3457035422,0.035126593,0.1277959794,0.0000212754,-0.1562843174,0.3915748596,0.0256450083,-0.2500136793,0.1247790307,0.0087361299,-0.0556236506,-0.0824691802,-0.1218290552,0.1751906872,-0.0808899626,0.1643318236,-0.0738909245,0.0636914521,-0.131567657,0.1058645472,-0.0597252883,0.1773330122,-0.0390403979,0.3305300176,0.0167021863,0.3350117505,-0.0001927963,-0.051652465,0.2498713732,-0.2237253189,0.0881116539,0.0729287192,0.3310078382,0.0682386309,0.4437488616,-0.1820283234,0.0539929606,-0.2056452185,0.0086471243,-0.0465917587,0.2388602644,-0.0915378258,0.1837137341,-0.1213984117,0.2154723257,-0.1854053587,0.1130322963,-0.0743364841,-0.057450112,-0.0835582986,0.087725319],[0.0860372037,-0.0481355116,0.115938738,-0.0114338985,0.0053696833,0.0918220058,0.1441890895,0.0796612874,0.1591681838,-0.0415976904,-0.0727284253,-0.0711047351,0.0810332522,0.0279798172,-0.0908379108,0.0121772978,0.0861620903,-0.0643826127,0.0956053138,-0.0136832483,-0.0127323708,0.0242033917,0.0700709522,-0.0058257487,0.1150567681,-0.0335387141,-0.0603116974,-0.0792973265,-0.0244603511,-0.0654673949,0.0255835541,-0.141144082,0.0422384366,-0.0202061515,0.0859832391,-0.1536533386,0.144642055,0.0363830179,0.0222157575,-0.0423377901,-0.064326331,-0.0011210454,-0.122213468,-0.0323493704,-0.0348144211,0.1237405986,0.0824085027,0.0008367193,0.113196291,0.107330732,-0.0998673812,0.002961528,-0.1267797649,-0.0401473008,0.0035544708,0.0356340669,-0.1582564563,0.0268257428,-0.1368595064,0.0040450171,0.0862905011,-0.0763740316,-0.0472103581,-0.0508103259],[-0.100578472,0.1643333137,0.0061642868,0.0439873263,0.0466604419,0.1009145528,0.0281037483,-0.3389915824,0.0658608302,0.0725005269,-0.2473846823,-0.1297182441,-0.1087459549,0.061469689,0.3583764434,0.1181849018,0.0990187824,0.1332297623,0.0986686572,-0.0153337121,0.1785222143,0.1324942857,0.129422456,0.3214835823,0.3651189208,-0.1183152571,-0.0335045792,-0.1988127232,0.0782367289,-0.0435308665,0.0980149209,-0.1351230294,0.0759193078,0.0658618659,0.0916145444,0.0866126567,-0.0114794625,-0.0127581442,-0.003224581,-0.0132392254,-0.0042225635,-0.0367850773,-0.0420989431,0.2654778659,0.0037448681,-0.0385071635,-0.0420781001,0.0267432779,0.0763504282,0.0401053466,-0.2742344439,0.1005349383,-0.1629617065,0.1087423936,0.4313251078,0.030819105,0.0080358889,-0.0056298673,-0.0623683892,0.1646045744,-0.0117737483,0.2584588528,-0.1484246701,0.1571941972],[0.0064628231,-0.0189282298,0.2599475384,0.1316000819,-0.1661017686,0.0905820951,0.047216069,-0.0437289104,0.0821955949,-0.1363333166,-0.0756688416,0.0743536651,0.2075095177,-0.0779517144,0.1166102737,-0.1647414863,0.0296350848,-0.0575643517,0.1035992876,0.2072501481,0.2452601641,-0.1897687912,0.1313454807,-0.0326783657,0.0820829496,0.0058640679,-0.1557217091,-0.0113568334,0.1459706277,-0.0633230209,-0.1627784073,0.1767479032,0.1648424417,-0.114607349,0.1878928244,-0.0394242331,0.129641518,0.1932470948,-0.0423689,0.0875566453,0.236764878,-0.0626528263,0.0056693526,0.0670092031,-0.066495657,-0.1558095664,0.1104250774,-0.0057809842,0.1722406,0.1875435859,-0.0634659976,0.0031987191,0.1217494681,-0.1435801238,-0.0397274159,0.1551914066,-0.1250616759,-0.0488568954,-0.0849316642,0.111072056,-0.0963845775,-0.008898153,0.0613403544,0.0857152045],[0.1556610912,-0.2627574205,0.1284376979,0.3606598377,0.1519407332,-0.1271350086,0.1932739466,0.0038060779,0.1279766262,-0.0698896572,0.0288987122,-0.0243254378,0.1023905203,0.1053075641,0.0317947045,0.0188778248,-0.0063256007,-0.1611667126,0.2094975263,0.1464990526,-0.1424673498,-0.0958581567,0.0765210241,0.1468571723,-0.0486127138,-0.2297595292,-0.0079327114,-0.0614481233,0.1585159302,-0.2564104497,0.0461014844,-0.0282143503,0.1860982031,-0.2225066274,0.3370070159,-0.2751771808,0.3039041162,0.1599252075,0.1174916327,0.0554385819,0.1889302135,0.2323553413,-0.3258149922,0.0205190815,-0.0948143303,0.1627793312,0.2146184146,0.3327316046,0.0218993407,0.0864254385,-0.2461645007,-0.0555127747,-0.0013119711,0.1506644189,0.050314974,0.3349033594,-0.2203798741,0.0144785577,-0.4046469927,0.260943681,-0.0276247542,-0.0976548046,0.0188336447,0.1046210602],[-0.080135718,0.1790227592,0.0126264757,0.0623303913,-0.117917493,0.1586488038,0.0353521183,-0.0341085792,0.0642590225,0.0258212425,-0.0654354021,0.0210857205,0.1925501227,0.0006444179,-0.024324799,0.0390717238,0.014827827,0.0446354933,-0.023795886,0.0229439288,0.2149949819,0.0494680777,0.0910738632,-0.1178367361,0.2133646905,-0.0307882819,-0.0777717978,0.0228703711,-0.0823319927,-0.0038774589,-0.0395941995,0.082013391,0.1180638447,0.0082255993,0.094631061,0.0741244927,-0.0099626435,-0.085538052,-0.0250588637,0.0483697951,0.1032868102,-0.0833862498,0.0612911917,0.2334855199,0.0763412416,-0.0655854493,-0.01366843,0.0043339538,0.1702865511,0.0794531852,0.0575522073,-0.1011235192,0.0140030328,-0.0156988446,0.1699232459,-0.0283097029,-0.0690570921,0.0517466255,0.0477262214,-0.1325698793,0.1172683761,0.2047686279,0.0529450066,-0.0328879245],[-0.0280383918,0.2580938935,0.0216623154,-0.1646931618,0.0168965459,0.1855926365,0.034964934,0.0071486873,0.1355512589,0.044302851,-0.0930480808,-0.1001773328,0.127783075,-0.0367458872,-0.0653173998,0.0969852433,0.093752481,-0.0090977196,0.0043870658,0.0085269762,0.1499028057,0.0713336244,0.1336490065,-0.080439344,0.1110072061,0.0532846339,-0.0799664482,-0.010459031,-0.0607818104,0.0481397845,-0.0679193214,-0.0416076928,0.0035006322,0.1306230426,-0.0175537169,0.1934880167,-0.0393976718,-0.0835134611,-0.055051174,-0.2247895598,0.0248959158,-0.0967015028,0.1050056294,0.1582430303,0.1475740969,0.0535838231,0.0593612865,0.0085926261,0.0842930302,-0.1257384866,-0.0042909733,0.0295318794,-0.0506264046,-0.0539291501,0.1642943919,-0.1828993112,0.0909407437,-0.0019026498,0.0321158282,-0.1457118541,-0.0374776237,-0.0045620091,0.101619795,-0.1046145931],[-0.2696608901,0.2020330131,0.1078505367,-0.1632047445,-0.1568576843,0.1709813178,-0.0124466829,-0.0248201173,0.0200327951,-0.1414271295,-0.1501584202,0.2230583429,0.259619385,-0.2243683338,0.1409748793,-0.0670246556,0.0690598339,0.1948347986,-0.1447254717,0.1627188027,0.3081900179,-0.0830948278,0.0963665098,0.0826243609,0.1684023738,0.0441673286,-0.1358109266,0.0760229751,-0.0872761905,0.0411034301,-0.0399862975,0.1532177329,0.1057678238,0.0597160533,0.0522932112,-0.0470277183,-0.1367508769,0.0001889548,-0.0922486112,0.0804959536,0.016651554,-0.2352481782,0.0905392915,0.1102924943,0.0794378892,-0.2489702404,-0.0893493518,-0.2420952916,0.2953532338,0.0805441886,0.1538554579,0.020301858,0.1578519344,-0.1505317688,0.251008004,-0.1823641509,0.0905948505,-0.1318786442,0.226847291,-0.0252020694,-0.0023345277,0.1117388979,0.1305982322,-0.0475300029],[0.0005905834,0.0047975848,0.0550100915,0.0424409583,0.0758894458,-0.0452222824,-0.0136919823,-0.1608614922,0.084035188,0.0791021734,-0.044317916,-0.0029899096,0.0370599478,0.1147388741,-0.1325721443,0.1126436144,0.1123578697,0.0863364562,-0.0169404168,-0.0149643561,0.0618313476,0.0476037711,0.1299038529,-0.1565353721,0.102899,-0.0753481388,0.0027838675,-0.0775159597,-0.0829091892,0.0316595398,-0.0287854262,-0.0360135101,-0.0014353803,-0.0084176008,0.0076955492,-0.0252511911,0.1745173186,-0.0192181431,-0.0196109954,-0.0056009195,-0.025043292,0.0426529013,0.0531873368,0.2474107444,0.198080048,0.1531098485,-0.0280300733,0.1518671811,-0.0163256731,0.0208581407,-0.1775131226,-0.1491075456,-0.0703458712,0.1298744828,0.1066994965,0.0369664207,-0.0096517922,0.0471962504,-0.0048527289,-0.0410931222,0.0196763836,0.1956906468,0.055080574,-0.0244621951],[-0.0614454672,0.0667947754,-0.1429242045,-0.1155791283,0.1453500688,-0.0178704951,-0.0478889123,-0.1900700629,0.0238213185,0.143837288,-0.0963453799,-0.1551150531,-0.1707537025,0.106117554,0.1589726359,0.1387368441,0.0162234288,0.0867181346,-0.0572389401,0.0193064772,-0.0893917903,0.1792334616,0.1243769825,-0.0310281441,0.0731714368,0.0145647554,0.02084052,-0.0398192294,0.0818094164,0.077398926,0.0000249342,-0.178024292,-0.069486253,-0.0200335532,-0.0736126006,0.1002169326,0.072207503,-0.138244167,-0.0536772273,-0.1647983938,-0.1138555482,-0.0689329505,-0.0743525922,0.1051471457,0.0099484334,-0.018441448,-0.0502130426,-0.0876436755,0.0498394109,-0.0367875919,-0.0679537058,-0.1304594576,-0.136641115,-0.0201580189,0.1920652688,0.0310012493,-0.0154614914,0.0620865971,0.0020134512,-0.0844766721,-0.1653759181,-0.0037264256,-0.0847350731,-0.0614554323],[-0.0687191263,0.1384916902,0.0246675089,-0.0320725217,0.0605615824,0.1149981022,0.1346843839,-0.061027348,0.079335615,0.1007070765,-0.1290601492,-0.2137972862,-0.1386155337,0.1549300998,0.210683167,0.0257125348,0.0334166028,0.0424532071,0.0029569706,0.0562703907,0.0783189237,0.1008569151,0.1141911075,0.2035128772,0.2672569454,0.0230919886,-0.0229967833,-0.1771461517,0.1704742163,-0.09098389,0.032882221,-0.2372753322,-0.1002070904,0.0883736759,0.0157545432,0.0652828366,0.0900433138,-0.0772081763,0.049982015,-0.2290529311,-0.0230196565,0.1151341945,-0.1799450815,0.2475299686,0.1264807135,0.0628769919,-0.0004673227,0.1173013896,0.0446724854,-0.0614372641,-0.296466589,0.0132003389,-0.1926254928,0.1343113929,0.2859028876,-0.0052690823,0.0794982165,0.1135287806,-0.1285195649,0.0172403492,0.1253515929,-0.0363575779,-0.1700753123,0.1552129835],[-0.2861656547,0.1790420264,-0.0647726506,0.0298061129,0.2715823054,-0.0332197733,0.0395522416,-0.2104465216,0.0543480478,0.1046444476,0.0881039724,-0.2644021213,-0.0293759909,0.0978722274,0.1852101833,-0.0492031015,0.0556554906,0.0207305346,0.0413465127,0.020359464,-0.081219539,0.0801897794,0.2863477767,0.1441920549,-0.1179951057,0.0944979861,0.0971600413,-0.0972027257,0.2207302302,-0.0340481959,-0.0294651352,-0.1877193749,-0.1803009659,0.0409885868,0.1273927391,0.107237041,0.2178749293,-0.085791178,0.073572807,-0.2731627524,-0.2447530627,-0.0202626996,-0.1437734812,0.2523951232,0.2027850151,0.0020626355,-0.0974674076,0.1343486756,-0.0080186566,0.0552481301,-0.2127778977,-0.0750905424,-0.1796762347,0.0156969503,0.2935024798,0.0757210031,-0.0310817193,0.1166224778,-0.0478384234,-0.1195007414,-0.0664366186,0.0790034533,-0.0257291477,0.0325819217],[-0.0120293815,0.0463930145,0.0900145471,0.2406030893,0.0447595827,0.0115473093,0.0294082779,-0.0724121034,0.0130401673,-0.109599404,0.0714205131,0.037001662,0.1475020647,-0.0019352399,0.0147207789,-0.0848805159,0.0272649378,-0.0569713898,0.1347971708,0.0503398255,0.0104914475,-0.0583311133,0.1236091554,-0.0336195715,-0.1115024164,-0.0693739504,-0.0363701172,-0.0311350226,0.1902014762,-0.0744690448,-0.1081654578,0.0014722478,0.1086834744,-0.1088146493,0.2514469922,-0.0460264198,0.2406951189,0.0838522762,0.092194736,0.1480093598,0.1951437145,-0.0257426593,-0.0442635268,0.0859092325,0.0345512889,0.0906221047,-0.006548224,0.2315178066,0.0815689787,0.0960510746,-0.1243339777,0.0297970884,0.1021329537,0.0695355088,-0.0852204338,0.1169522554,-0.1299903989,0.0497664288,-0.0752741247,0.0900662541,-0.0227952506,0.0651379526,0.1082140952,0.0475188754],[0.1547382772,-0.1946485639,0.0625576153,0.2148849368,0.2824540138,-0.0808878019,0.0532512553,-0.0357286558,0.0810549483,-0.0198499598,0.0595863909,-0.1120826378,0.0048409533,0.1867110431,-0.1109365225,-0.0557849109,0.0886883959,-0.1344908476,0.3020121753,0.1051225439,-0.0829988047,0.0329523906,0.0715040788,-0.0125081837,-0.1092149317,-0.1092782319,0.0562407076,0.0195911322,0.133848235,-0.0934399739,-0.0420825407,-0.130850032,0.0964842364,-0.0612346157,0.2564787567,-0.2138131112,0.2556057274,0.1117962897,0.1262740791,-0.0242386088,0.0771878809,0.1678603441,-0.2389884889,0.0126383556,0.0749999583,0.2605598569,0.1711987406,0.2452245206,-0.0267892405,0.011519595,-0.1742974371,-0.0745834634,-0.1048473865,0.1469713151,-0.0783273578,0.2258862555,-0.2025838345,0.1322080791,-0.2977868915,0.1875468194,0.0735756382,-0.0162117742,-0.0435270481,-0.0259001609],[0.0061406824,0.1327332854,0.0123343533,0.046629671,0.1211025342,0.0134176919,0.0387063697,-0.0217797607,-0.0501554795,0.0794413537,0.047523696,-0.0886555836,-0.0061523831,0.1185558438,0.103483431,-0.0099426266,-0.0030593234,0.0939574093,-0.001605844,-0.0104170134,-0.0164079498,0.2000562102,0.0328454897,-0.0843931139,-0.1318354905,0.031451527,0.0540494695,-0.0359572172,0.0314424522,0.0946555734,-0.0279431362,-0.0588701218,-0.0059521054,0.0943865478,-0.0994100794,0.2338332087,0.0240947325,-0.1197190359,0.1232162043,-0.059969645,0.0679990575,0.0215484742,0.1645822227,0.2135989219,0.1085206121,0.0446151793,-0.0084259128,0.0104897264,-0.0695659891,-0.0788700879,-0.0828540921,0.0237118825,0.040839117,0.0272281244,0.1382700205,-0.0741070062,0.1016209945,0.1739493906,-0.0158483032,0.068044886,-0.0459899642,0.0735575557,0.0354725756,-0.0559825003],[-0.3210848868,0.2875117958,0.0851976871,-0.1945976168,-0.0817214549,0.1761219949,-0.0586162284,-0.037290331,0.0408475623,-0.0695659891,-0.0826789215,0.0253537726,0.1646085382,-0.1403368562,0.0853398591,-0.0320784152,0.1908243001,0.1438637227,-0.1123143286,-0.0491798557,0.2498268187,-0.0161844641,0.1157641709,-0.128059566,-0.0183437001,0.1670395881,-0.1224261448,0.1323633045,0.0972502232,0.1929115206,-0.0039694384,0.0834393576,-0.0346894041,0.0732472017,0.0153626334,0.1834697425,0.0023090718,-0.1462868154,-0.1218384504,-0.2105388045,-0.0311823208,-0.0615173206,0.1302426457,0.2607319951,0.3586708307,-0.1249442399,-0.1281438619,-0.0654569268,0.1029700264,-0.0082123624,0.0059919208,0.0290136877,-0.0985555351,-0.0435917899,0.2585617006,-0.2280542403,0.0503763855,0.051867187,0.0729369596,-0.112510711,0.1310243458,0.0794236809,0.2428401262,-0.1834674329],[-0.0206867978,-0.01305761,-0.0201871414,0.0804578587,0.1843204796,0.0356697664,-0.0115720173,-0.2945173383,0.101763539,0.0349380225,-0.1277157962,-0.0160038117,0.0332206674,0.1512351781,0.2238066494,0.1459552497,0.0238276739,0.0515532531,0.0881779864,0.1143335551,0.0638146326,0.0428646728,0.1847662479,0.1318315715,0.2113152295,0.0016631403,0.1427672207,-0.2023505569,0.151051566,-0.1125130728,0.0315009132,-0.0509365648,0.0243832655,0.0734216571,0.0755885169,-0.0897284374,0.0847357586,0.0131573332,0.0354037918,-0.0309004821,0.0934041962,0.1557581127,-0.0978771895,0.2570858598,-0.0489471667,0.1912798434,-0.114411138,0.0586452596,0.063356787,0.0197790489,-0.2266592234,0.0919824019,-0.0073243589,0.1239110529,0.2873272896,0.153449744,0.0665152073,0.0363736302,-0.1715707034,0.0602253266,-0.0617754124,0.2372168452,-0.1255394965,0.1114422679],[-0.0151862986,0.0048107458,0.097703889,-0.0260063782,-0.0564457402,0.0344418064,0.0579247437,0.0043986733,0.0479036197,0.0099714948,-0.0606516711,-0.0166114811,0.1038474143,-0.0673000962,-0.0126805529,0.0269581415,-0.0695182309,-0.0535360314,-0.0057162009,0.1120120212,0.099130325,0.0233480632,0.0323358104,-0.0737303346,0.0244343244,-0.0731838122,-0.0244804379,0.0539155975,-0.0723369494,-0.0749825239,-0.1283956468,-0.0736318007,0.0392350331,0.0188257694,0.0383997411,0.0049671088,0.0754012316,0.0257514156,-0.0640142187,-0.0114808409,0.0057079201,0.0329850651,-0.0748777166,0.0112978779,-0.0231240112,0.0657771528,0.0962815061,-0.0034596794,-0.015271591,0.0490575768,-0.0126366243,-0.0841059685,-0.1047231928,-0.0717194602,-0.0209478866,-0.005934515,-0.0298338272,-0.020761352,0.0578115731,-0.0241353679,-0.0232592765,0.0861160681,-0.0712873265,0.0117519116],[0.144091025,-0.0350105166,-0.2560825944,-0.0939825252,0.3589967787,-0.1630341709,-0.0680247918,-0.0406673737,-0.0355812423,0.3159410954,0.2648902237,-0.1547875702,-0.2461121231,0.3084509969,-0.1300329417,0.1895739883,0.0618345626,0.0387710258,0.1361759007,-0.2369250804,-0.1446569115,0.3254112899,0.0408806913,-0.0543657504,-0.059715569,0.0395341739,0.2599474788,-0.1297585517,-0.032825388,0.1434109509,0.1704561859,-0.1535132527,-0.1367627531,0.0789241269,-0.1676860899,0.255717963,0.0287882406,-0.0712689906,0.2145140171,-0.1899171472,-0.0416971929,0.2734978795,0.0281128567,0.1495122612,0.145978868,0.2548251152,-0.0174254272,0.1496048868,-0.2191928178,-0.1060059294,-0.088380143,-0.0543251522,-0.0967271701,0.3393114805,0.1137630418,-0.0147312041,0.2426612377,0.3769311905,-0.0516776629,-0.1217638329,0.0821917802,0.0473420657,0.0699636936,-0.0003313839],[-0.0469041765,-0.006042398,-0.2461442798,-0.064701207,0.3363476992,-0.1570302546,0.0542300195,-0.1539398283,0.0068372772,0.1774141937,0.2083635777,-0.2435017228,-0.1797573268,0.181967482,-0.0370054059,0.2407497317,0.1183747277,0.033639878,-0.0026996075,-0.2154894173,-0.2020275146,0.1328998506,0.1204588637,-0.0830639005,-0.1479772776,0.1280204058,0.2150876969,-0.0563713536,0.0190770533,0.2512167096,0.1619750559,-0.2289631367,-0.0203402787,0.086458683,-0.0979861543,0.1253704727,0.0535337292,-0.2202169299,0.1675265133,-0.1068228856,-0.1037033275,0.0385913029,0.0556820929,0.124529317,0.2172888368,0.2106491625,0.0549022779,0.1451847702,-0.2289120555,-0.1915151179,-0.2050751299,-0.0378888138,-0.0956199616,0.0886940956,0.0575432181,0.0048599564,0.2153739482,0.1206346825,0.0119634578,-0.0955656841,-0.0372385196,0.0431319363,0.0204379559,-0.0533723496],[-0.1056652516,0.2046595067,-0.0499178544,0.0395001583,0.0790527984,0.1706383377,-0.004383103,-0.3110508919,0.1506925672,0.1581656486,-0.2310939133,-0.1097214073,-0.0080105783,0.1497959495,0.0469073318,0.1141989604,0.1533458978,0.2593539953,0.1122189835,-0.016335221,0.0687480196,0.1405783445,0.1456727684,-0.1068711877,0.2530790269,-0.2379666865,0.0571578592,-0.1227583438,-0.0689889789,0.0723577887,0.1540263891,-0.1232850775,0.1298672855,0.2454436868,-0.0241359789,0.0827682018,0.0426817536,-0.072706759,-0.0307026003,-0.021989366,0.0832317173,-0.0290280487,0.1097819507,0.3140073717,0.2270904332,0.1976606101,-0.0415884517,0.0567544699,-0.034535829,-0.0693442449,-0.1878486425,-0.245383814,-0.0418199077,0.0312692635,0.3282642066,0.0877649784,0.0105051082,0.0455538183,-0.0220377464,-0.0809330046,-0.0195086412,0.3610952497,-0.0974276289,-0.0756470636],[-0.0228310078,-0.0441008918,-0.1214475781,-0.0297246892,-0.0280615576,0.0259674732,0.0809198767,0.0204025134,0.0949187875,-0.0098915081,-0.1721802652,-0.2053758055,-0.1274661124,-0.0170971211,-0.0654155985,0.0815922767,0.0406877808,-0.0210050773,-0.0455936939,-0.1036771908,0.0910159424,0.082603164,0.0282566417,0.0971520096,0.1123187393,0.0233640242,0.0834816396,0.0347140469,-0.0856404826,0.0072739893,0.088222295,-0.1642899215,-0.087943241,0.0832474753,0.0703249052,0.0317132547,-0.1190458685,-0.0528405197,-0.0817754492,-0.0700982958,-0.0217552707,0.0655489713,-0.0879017115,-0.0015440445,0.0444142483,-0.0449049212,0.0680102259,0.0192078874,-0.0010543903,0.020505188,-0.0410697311,0.0432747044,-0.1997312605,0.0700778067,0.0232923105,-0.0664911941,-0.0487065539,0.0339901447,-0.0151052075,-0.0800940469,0.0130982138,0.0829519629,-0.0553295389,0.0708096921],[-0.0220049471,0.0622796007,-0.2055369318,-0.0038393862,0.2126150429,-0.0585043505,-0.0243281033,-0.0995393991,-0.0091540124,0.1680870205,0.205691278,-0.1759445816,-0.1264051199,0.2535949945,0.0672033206,0.1695861071,0.0573578589,0.0691491514,0.0525019206,-0.0622448325,-0.0449621119,0.1596891582,0.0722315535,-0.177022621,-0.1290083826,-0.019842485,-0.0030379591,0.0012820966,0.0393340066,-0.0171285234,-0.0326332673,-0.1663265079,0.0035175618,-0.0172831416,0.0405722409,0.1791152805,0.049061276,-0.1667205095,0.1005323082,-0.0880743787,-0.0936577842,0.0946607664,-0.0323802792,0.1537196338,0.3316449821,0.0730149299,0.0571076013,0.0365107916,-0.1232653558,0.0062207463,-0.2262709886,0.0881310776,-0.0814575106,0.037065357,0.1450938284,0.0198638588,0.0617373846,0.2350312322,0.0160585865,0.024125779,0.0056299982,0.0325965621,0.0620765612,-0.0497493111],[-0.1829352826,0.2028473169,-0.0551158004,-0.0653174818,0.0304863285,0.0759981945,0.0505177043,-0.195195049,0.0920442417,0.0971196443,-0.0631743968,-0.0980640054,-0.1634740531,0.0678265467,0.124565959,0.1472042203,0.1100812778,0.1888782531,-0.0432834886,-0.0940689594,0.0238602422,0.1220445484,0.1049031988,0.1611314863,0.065519616,0.0843822584,-0.0507255569,-0.1357210428,0.0357235298,0.1832150966,0.051936429,-0.0174156204,-0.0140443584,0.10379792,0.03581848,0.2366486043,-0.1047508568,-0.1139287055,-0.0871497318,-0.1714378744,-0.0634418949,0.0024414903,0.0980347469,0.2663364708,0.0296421964,-0.1053478047,-0.071947597,-0.1266529262,-0.1353656948,-0.0999179631,-0.1130178496,0.0430192426,-0.078158848,0.1042312086,0.3304457068,-0.0719794556,0.2397446483,0.1462033838,0.04270285,-0.0906812325,-0.0270506293,0.0661686212,0.0902058184,0.0558539629],[0.0923300609,-0.067603223,-0.0352634117,0.0878391638,0.1001885235,-0.0305947941,0.1490302533,0.0853020549,0.1493283659,-0.1009612083,-0.0280524287,-0.0743555948,0.0394774899,0.1027853787,-0.0540179685,0.0221350584,0.117919147,-0.1516780853,0.1399625987,0.0644109845,-0.0583819374,0.01565855,0.013633051,0.0562600009,-0.0406399406,-0.1149473488,-0.0526654534,-0.0282900129,0.0263907369,-0.1092654839,0.0508400351,-0.011754089,-0.0149216028,-0.000333137,0.1939439476,-0.1685732603,0.0693982095,0.0091486815,0.0736651942,0.0440496169,0.0198150743,0.0440477133,-0.2326337695,0.0563722476,-0.0158005524,0.1434654891,-0.0229166709,0.1992156506,0.1156316698,-0.0213161353,-0.0816067383,0.0280889962,-0.0442724451,-0.0273271836,-0.1074523851,0.0550701804,-0.1312250942,0.0109466175,-0.1589569151,0.096230261,-0.0077300821,0.0093034953,-0.0567949638,-0.0274234805],[-0.1304028034,0.0355525613,0.055867549,0.0874775946,0.154746443,0.0722931102,-0.0416187719,0.0240440667,-0.0113739409,-0.0488336831,0.006738944,0.0534587502,0.1364611089,0.0494319014,0.0167314764,-0.1011900902,0.0007822562,0.0380833894,0.0484372303,0.0229632948,0.0869660154,-0.1040918604,0.0360751189,-0.0120490128,-0.1837016493,-0.0028649215,-0.077490069,0.0197217017,0.007923279,-0.0138024967,0.0054815854,-0.014130977,0.0231476985,-0.0408729166,0.1697154045,-0.0858708546,0.1301697046,-0.0621380769,0.0063067051,0.1044173092,-0.0943951011,-0.004806492,-0.1705371886,0.1399644911,0.1828783751,-0.0468121022,-0.0258675776,0.0372586362,0.1088630855,0.1004134342,0.0239394624,-0.0400468372,0.0855811462,-0.0349904671,0.1081610546,-0.0584997423,-0.0984390527,0.0240514204,-0.0940242037,-0.0061795195,0.0893799216,-0.081781812,0.0818561092,-0.0166219994],[-0.222897917,0.1355061382,0.0960161909,-0.0212539397,0.0415195674,0.1631225049,-0.0431605577,-0.2035998255,0.0755820498,0.0651153997,-0.2618742287,-0.1275415272,-0.0637472868,-0.0333524719,0.1870554984,-0.0239204224,-0.0209922157,0.1331977695,0.0132623995,0.1044480279,0.2186024785,0.0298134405,0.2443957925,0.2762023509,0.2845686376,0.0008195256,0.0417171456,-0.1279726177,0.0168674178,0.0740208253,0.0266724098,-0.0472158156,0.013136792,0.0681448057,-0.0366297737,0.1004342139,-0.048873052,-0.1056956425,-0.1055693626,-0.0050077499,0.0153825972,-0.0666531697,0.0623272471,0.1570661068,0.0302197561,-0.0255246125,-0.0587213114,-0.0346277356,0.1084364504,-0.0152241373,-0.0708042681,-0.0040223435,-0.1790671945,0.0527949743,0.3452529013,0.017886078,0.0497720577,0.0475625694,0.0225489084,-0.059726797,-0.0515316762,0.0852237567,-0.1363755465,0.1033042893],[0.0621559769,0.0201603789,-0.2535154223,0.0837284848,0.3485055268,-0.1887947023,0.0711966902,-0.1643295437,-0.0041457238,0.294046402,0.2277811617,-0.1975786388,-0.1149732396,0.2043752968,-0.1383242905,0.1994370818,-0.0415888391,-0.0281653553,0.1289889365,-0.0800896212,-0.2086234242,0.2118687332,0.0743652582,-0.0179749131,-0.1406943351,-0.0658820271,0.1486914456,-0.1655607074,0.0748258084,0.0463574156,0.0361909345,-0.1765022427,0.0240156241,0.0143974507,-0.0655608252,0.1483718753,0.0297427792,-0.029394269,0.1213183627,-0.0388785563,0.0253522247,0.223289907,-0.0826066658,0.0286458638,0.0875565037,0.188788265,0.0182179157,0.193548739,-0.1970816404,-0.1489546299,-0.0774925575,-0.0238829087,-0.1740789711,0.1399247348,-0.0635635033,-0.0049816095,0.0776217207,0.2378576398,0.0193814412,0.0283143297,0.0764010102,0.0370217599,0.0394163169,-0.064778924]],[[-0.0928654671,0.017591605,-0.0153490109,-0.141863808,-0.0150502566,0.0882124379,0.0997335166,0.0080846623,0.0937177166,-0.025670642,-0.0130352844,-0.0172916781,-0.0723918751,-0.0201224498,0.0115773007,0.0053524491,0.0209946837,0.0659074411,-0.0548848175,-0.0702581927,-0.0618592501,-0.0329768248,0.0927753299,0.0205008276,-0.0552858151,0.0375976041,-0.1022075787,0.1069249883,0.0522406064,-0.0346491374,-0.1085153222,-0.0050229803,0.0238659959,-0.01873108,0.0952155218,0.187645793,-0.0152349211,-0.1487843692,-0.0337904915,-0.1605996042,-0.1022683382,-0.124491632,-0.0662434846,0.1542241722,0.1020386666,0.0381654762,0.0554331914,-0.0441590734,0.0665351152,0.0013077073,-0.1243544966,-0.0780737847,-0.1023484468,0.0100872861,0.1290743947,-0.14252159,0.053876482,-0.0609980859,0.0606213063,-0.08130005,0.0916278809,0.0615645573,0.0087382505,-0.0181402359],[-0.0873736739,0.0761622041,0.0607032105,0.0512668751,0.0473651253,0.0984676331,-0.0042371363,0.0812170878,-0.0118551897,0.0139808618,0.0484111123,-0.0361226797,0.0904079452,-0.0591212697,0.0063809259,-0.087528497,0.0876415223,0.1607180834,0.1078208759,-0.0524496697,0.1083416268,-0.0494746342,0.1140528619,0.1111088395,-0.1583122909,-0.0276557151,-0.0954156816,0.1591872126,0.1002456769,-0.0101812407,-0.0230339821,-0.0235912241,0.0008540481,-0.0983812958,0.1025026664,-0.0531259328,0.1314295679,0.066455245,-0.0019513874,0.0312357191,-0.0854605883,-0.0531803407,-0.041101139,-0.0053318893,0.0162562523,0.0026368345,-0.0622845963,0.0410192795,-0.0252375826,0.0488964021,-0.0009943859,0.0286140721,0.0963179991,-0.0540365651,0.025031019,0.0234357379,-0.0814403817,0.0463540033,-0.0570600033,-0.0938754529,0.026289707,-0.0415000096,0.0781998262,0.0422484316],[0.0159561597,0.1221473515,0.0367775485,0.1035148725,-0.0281244647,-0.0137667451,-0.0230005588,-0.2307733297,0.0286985226,0.0335975401,-0.1750900596,0.0299083479,-0.0523208044,-0.0194495935,0.061879769,0.0201768428,-0.0580055192,-0.0542450435,0.0341706313,0.019008426,0.1934527159,0.0682866499,-0.1033310816,-0.1700516343,0.1232294589,-0.1689124107,0.0837858021,-0.1183104515,-0.0976529196,-0.0360781513,0.0225353092,-0.0152038131,0.0837452784,0.1563435495,-0.0122887073,-0.0598389879,0.091858305,0.0137196528,-0.0059738811,0.0789788291,0.0357229412,-0.0075126942,0.0579953045,0.1266328096,0.0480112359,0.1528022736,-0.0450105518,0.0043126713,-0.0002906965,-0.0171343312,-0.0676682591,-0.3256669343,-0.0094922902,0.0352176502,0.0149259223,-0.0073477556,0.0813713297,0.0544137917,0.0316397548,-0.0539907292,-0.1055459082,0.1070307791,-0.2068030983,-0.1295600832],[-0.0401478261,0.1453162879,0.1340080798,0.0102623319,-0.0391997769,0.0665411651,0.0028878627,-0.1053119302,0.0035257787,-0.0446408838,-0.1046279147,0.1290864497,0.1077626422,0.0887377709,-0.0677474067,-0.0278985035,-0.0289840903,-0.0575997233,0.003958689,-0.0075675501,0.0488101095,0.0083436696,-0.1634501368,0.0006901322,-0.0340607278,-0.0288887881,-0.0040315413,-0.0323361233,-0.1629538834,-0.0829709694,0.062050961,-0.0198117569,0.0115196938,0.0938621387,0.0075324085,-0.0335002989,-0.0278871208,-0.0230757538,-0.0236320999,0.0212623645,0.1525142044,0.0617085882,-0.0072176815,0.0806418955,-0.0529247485,0.0491481535,-0.0974018723,0.1273652017,-0.0295630973,0.1120041534,-0.0511173345,-0.0172518622,-0.0113116521,0.0302673671,0.0181412231,0.0514585748,-0.0609431528,0.0194681771,-0.0760632306,0.0098175202,0.0743485168,-0.0341585204,-0.0198145229,-0.1086766794],[0.3232248425,-0.1610662341,-0.1682169139,0.2622943223,0.2933436334,-0.2158629298,0.1704289168,-0.0144596742,0.1583768725,0.046846576,0.2400342971,-0.0492399,-0.044082202,0.2379467785,0.0506549254,0.0659232736,0.0618618689,-0.007803265,0.2329527736,-0.0446298011,-0.191599071,0.0418833904,0.1090858206,0.0024245665,-0.0998326913,-0.0684128329,0.1142741814,-0.047724016,0.0474054962,-0.1032917127,-0.1195139661,-0.1130780429,-0.0601562671,-0.127914831,0.0472317152,-0.1806612313,0.2053536326,0.0627709031,0.1696002781,-0.0366383158,0.0545538776,0.1904053539,-0.1669006497,0.0954899341,0.0405293442,0.2621676922,0.1039163694,0.3105182946,-0.1642240435,-0.007159953,-0.2799546719,-0.0125324382,-0.1345679611,0.1764514595,-0.1010133922,0.1686234325,-0.1764677018,0.1060048938,-0.1879368722,-0.0052192216,0.0757018179,-0.0322104059,0.002600855,0.0675806105],[0.1224374473,-0.0570851676,0.0414727405,0.025957942,0.0160140339,0.0874015391,0.0829497725,0.0124336854,-0.0402455889,0.0223881267,0.0016488305,-0.0773671791,-0.0342051499,0.0364873223,0.0245867483,0.0825349092,-0.0253784191,0.0145085473,0.0576940812,-0.034131214,-0.0003491234,0.0288635455,0.0547438748,0.095991604,-0.0086953444,-0.0102448277,0.0589886829,0.0196050648,-0.0375689007,-0.0386686735,0.0049540512,-0.0017291275,-0.0679470971,-0.0400261842,0.0729355216,-0.0514560081,0.0844265968,0.0518686324,0.0764240921,0.0241984706,-0.0815059915,0.1143106222,-0.1642593145,0.0293698572,-0.0381607302,0.0502012372,-0.0179336537,0.1341111362,-0.0203369036,0.0350305922,-0.0691288188,-0.0445945598,-0.0381582454,0.0138625028,0.0599824004,0.0691538677,-0.170151338,-0.0911770165,-0.1368495971,0.0930453986,0.0226953831,0.0078929374,-0.1075937152,-0.0190935079],[-0.0076910756,0.2957833707,-0.0378321856,0.0475426912,-0.0086638071,0.0155705307,0.0760946274,-0.3265293241,-0.0489894487,0.0210172404,-0.2100985497,-0.047247868,-0.0660592169,0.0060846787,0.104983218,0.0152375605,0.1734650135,0.0488007888,-0.0089865131,-0.005271235,0.204389289,-0.0244098566,-0.0018292271,-0.2033340633,0.300005734,-0.2023053467,0.0148968045,-0.0641439334,0.062025141,-0.0353884511,0.0193612687,-0.041752696,0.216146946,0.053081248,0.1171270683,-0.1111518294,0.0379195176,-0.0403743535,-0.1015421972,0.0220012385,0.1432827115,0.002902179,-0.0045133489,0.2880510092,0.0849882513,0.0421439186,-0.0086174905,-0.0251488369,0.1217660606,-0.0270457417,-0.1962241679,-0.0995916799,-0.0888105184,0.0302676782,0.2965025008,0.0632122979,0.1449600607,-0.0112238945,0.0380474553,0.1418252587,0.0104657365,0.0579817221,-0.0886724293,0.0118819755],[-0.1089354679,0.0688185543,0.2128448188,0.1117129475,-0.1282601207,0.2042359114,0.1005458236,-0.0585285164,0.060536325,-0.0842816383,0.0130283386,0.082348302,0.1494023502,-0.0172226392,0.0398391709,-0.0668360367,-0.0278122202,0.0636401847,-0.0059902277,0.10941834,0.0761303529,-0.0497475639,0.0525280498,-0.0437800176,-0.041972775,-0.0844010264,-0.1962077171,0.1411195248,0.1676188856,-0.112766318,-0.0028445141,0.0834533572,0.1967575699,-0.1431280375,0.0695495754,-0.0461383015,0.058439713,0.2129721195,-0.0027708253,0.1426445693,0.175588131,-0.1210032552,-0.0529368371,0.0622971654,0.0093834177,-0.1826263517,-0.0752209425,-0.0444663875,0.1475343704,0.0853746459,-0.0447653644,-0.0735412985,0.0572786629,-0.0474138148,0.1256877333,0.0478560664,-0.1609322876,-0.134951666,-0.0358240344,0.1105041653,-0.0845051929,-0.0532916561,0.0155976173,-0.1001274064],[0.132224828,-0.0896461084,0.0272299573,0.2732513547,0.1702917665,-0.1719595343,0.1809117347,-0.065547727,0.1074189693,-0.0722190291,0.1021845862,-0.0604826733,0.094133988,0.136063993,0.0035447879,-0.0294751413,0.0926054791,-0.1128839254,0.1709268391,0.0126101561,-0.1215496957,-0.0742732435,-0.0273798686,0.0413429029,-0.0464664251,-0.1462682188,-0.0687147751,0.000832733,0.041550599,-0.0934319645,-0.0048357691,-0.088589631,0.1506336629,-0.1763297319,0.1878774017,-0.112474978,0.1702188104,0.1236483008,0.1434540451,0.0319493599,0.181244418,0.1551068872,-0.205547139,0.1562381983,0.0163517594,0.1015259326,0.0443900861,0.2147983611,-0.0766942203,0.1020376086,-0.253942281,-0.0928262174,-0.0193265136,0.094772011,0.0777000114,0.3597564399,-0.1365613192,0.069913134,-0.2228298634,0.1402100921,0.0435489081,0.0164454523,-0.1622123271,-0.0088588614],[-0.0476296954,0.0583922863,0.0893975198,-0.0147090806,-0.046033442,0.0903295726,0.0666746199,-0.0599198602,0.0619236156,-0.007746913,-0.0588920414,-0.027847236,0.1102980673,0.0846488476,0.0794396624,0.0486276895,0.0123072201,-0.0230928622,0.0726010501,0.0535182245,0.1735607386,0.0205831993,-0.0547498502,0.0522272848,0.1183820665,-0.0486996844,-0.1168569103,0.0723003969,-0.0551266856,-0.0647320598,0.0835996643,-0.0272403285,-0.0245849676,0.0654647797,0.0356308743,0.0079403222,0.0168620646,-0.0235480051,-0.0616260245,0.0483659469,-0.1125989109,-0.0861783773,-0.0340882726,0.108885631,-0.0239872672,0.0338948406,-0.0052385526,0.0316158794,0.0267343223,0.1155464873,0.0613756925,-0.1002860889,-0.075330101,-0.0582721569,0.1045214459,0.057236813,0.0116442945,0.013393024,0.0133461682,-0.0163260344,0.1097001135,-0.0018462889,-0.1782664955,-0.0821083561],[-0.0772720054,0.1234090477,-0.0398512818,-0.0041527832,-0.0838311687,0.0810992941,0.0190847982,-0.0309224166,0.0874849856,-0.0303133577,-0.1187267154,-0.1305812299,-0.0658008084,0.0006607022,0.1544240713,-0.0585995652,0.1272037476,0.1875478029,0.0327934623,-0.0041597262,0.1306116432,0.0405323543,0.0406541489,0.0175896268,0.0954722762,-0.0566075295,-0.057224974,0.0713675246,0.1346079707,0.0403358117,-0.0568717457,-0.1108571813,-0.0673362315,0.1096160561,0.1672565043,0.1523069739,-0.1041862518,-0.0901831016,-0.1451450437,-0.0929665491,-0.1100365371,-0.1736052483,0.0432955064,0.0940227509,0.0081096487,-0.0514006168,0.1346659511,-0.0727149397,0.0222558454,-0.1182255968,-0.0604287162,-0.043930769,-0.0911531225,-0.0493708774,0.1400068998,-0.1234889627,0.0072650365,0.0831375048,-0.0231169034,-0.052562274,0.014472642,0.0030029872,-0.0821792483,0.0779088512],[-0.2559806705,0.3156144023,0.2246328294,-0.1515011489,-0.0698174983,0.2833357453,-0.0691854581,-0.0307266563,0.0378200747,-0.1174331307,-0.1113759801,0.1920166612,0.128196612,-0.1531332284,0.0060489322,-0.1226691976,0.005531671,0.2326705605,-0.0770446882,0.0671336204,0.3244450986,0.0012848603,-0.0660208166,-0.1096994057,0.0280119255,0.0307642929,-0.0633496121,0.2353162766,-0.0181993619,0.0920393616,0.0831120759,0.1036077365,0.1263817251,0.0776577294,0.103438206,0.0796628743,-0.03861757,0.0924262106,-0.1706122756,0.0099143963,0.0476859957,-0.2122015655,0.0437459461,-0.0577457622,0.0161556285,-0.2678796351,-0.1327311695,-0.1964529306,0.1854456216,0.0667939037,0.0790740997,0.0490208305,0.064100951,-0.1972399205,0.1375944763,-0.1470277458,0.0399967879,-0.1187871397,0.1766116619,0.0362166278,-0.0251942184,0.1033814847,0.1909694523,-0.1332066357],[0.0383258425,-0.0428696461,0.0343717523,0.0731926933,0.039990101,-0.0692268088,-0.0654205233,-0.2067775428,0.0140278256,-0.0183771309,-0.070809111,-0.0850865319,-0.007924146,-0.0037144946,0.0541701391,-0.022330476,-0.0683243796,0.1431768239,-0.0566326044,-0.0585012585,-0.0567976944,-0.0347389691,0.0373164155,-0.1385650188,0.0163684767,0.0388053246,0.0845492929,0.068617858,0.0625210404,0.0081001613,-0.0096025988,-0.0113501837,-0.0929713696,0.0653649941,0.0145361517,-0.0339363255,0.0446968079,-0.0850458741,-0.01843445,0.0051268237,-0.0415789634,0.024573572,-0.1243099645,0.0879662931,0.1814646721,-0.0165187754,-0.1317083389,-0.0328859501,-0.0136951702,0.0255384743,-0.0204162803,-0.0396150723,-0.123104535,-0.0750456303,0.1014973149,0.0364065617,0.0526879653,0.0853787288,-0.0244443975,-0.0214161128,-0.1019082665,-0.0029883771,-0.1388889402,-0.0595898591],[-0.1125260293,0.0901965648,-0.0162358154,0.0009897223,-0.0262118615,-0.0737171248,-0.0577686243,-0.1531666666,-0.0429751277,0.035951212,-0.0827201158,-0.1009411812,-0.1939935237,0.0116411354,0.0568466671,0.1204347834,-0.1163042858,0.0857499242,0.0305516273,0.0210026521,-0.0110374819,0.0784900263,0.1039464325,-0.0947154313,-0.0078083337,0.0019537113,0.0829371586,-0.048442468,-0.0103309099,0.0352633186,-0.1249180958,-0.1048169136,0.0149441892,0.0426142141,0.0127254771,0.0590605214,0.0379837193,-0.1135498881,0.0017906142,-0.0465368107,0.0238056462,-0.0005465363,-0.0628989115,0.1447709054,0.0900062993,0.0459763892,-0.047596056,-0.0588263907,0.0864282772,-0.125562489,-0.0174307283,-0.0744488761,-0.013404577,-0.0269065388,0.1500057131,0.0386669077,0.1526810974,0.0688754842,0.0526642911,0.0756666735,-0.1401152313,0.0498761125,-0.0598815605,-0.1068961024],[-0.0690325946,0.1235170066,-0.0814517215,-0.0048864339,0.1036967337,-0.0146032637,0.11345727,-0.0166597143,0.0154298218,0.1152809188,-0.1019951701,-0.1674708277,-0.1211261004,0.0648268536,0.0955638364,0.0487971939,0.0650546104,0.0694131404,0.0238830931,-0.0204182956,0.0340532325,0.1392550468,-0.0047126384,-0.0135563929,0.1940047741,-0.1180396527,0.0049797292,-0.1343106329,0.0777098462,-0.0211786758,-0.0711307973,-0.155973509,0.1417569518,-0.0235596094,0.0481091477,0.0450538397,-0.0273382422,-0.0145889986,0.0134024629,-0.1189141721,0.0835702121,0.0426897109,-0.0344708376,0.2671507597,0.1284601539,0.0378507003,0.0129655153,0.0786428303,0.0050169099,0.021806797,-0.304794699,0.0874208659,-0.0453662053,0.0924824849,0.2765129209,-0.0288625043,0.0220726579,0.0249329563,-0.0055922004,0.0569749363,0.019040864,0.0358639434,-0.1089219302,-0.0372461155],[-0.2006033808,0.1243222579,-0.1124456078,0.0711326152,0.1612795442,0.0305625778,-0.0939340517,-0.0190923735,0.0398211777,0.0643243641,0.1765214056,-0.0883708149,-0.1089710742,0.0716789663,0.1280943453,0.0533756688,0.0542713031,0.1595422775,0.0017172452,0.0703561902,0.0238374025,0.1143122315,0.0315355361,-0.2016966343,-0.2363266498,0.0424110778,-0.0080196988,0.0889613777,0.1130176634,0.0455368049,0.0682018027,-0.1015806198,0.0318256654,-0.0313070938,-0.0469338186,0.0270985328,0.0946675092,-0.1670406163,0.0454490893,-0.1553757489,-0.0596196502,-0.0036178844,-0.0323649235,0.1706128716,0.2067380399,-0.050591439,-0.0570157021,0.0675176308,-0.0484236702,-0.0695421845,-0.1787199527,-0.2094556689,-0.0974972397,0.1080394536,0.2284364253,-0.0084353555,0.0918052122,0.098278299,0.0186917987,-0.0002972315,0.0573482774,0.166744411,0.1122267842,-0.1504089683],[-0.0060960017,-0.064851068,0.005674046,0.1719394624,0.0442972891,-0.0436869264,-0.0069098328,-0.1029330194,0.1107106581,0.0276143309,0.0935903192,-0.0056762327,0.0479801297,0.0161802508,-0.0369838029,-0.071392484,0.0033216788,0.0320670418,0.1540902555,0.0377891846,-0.0143990433,-0.0780330151,0.1290312856,-0.0974566564,-0.1558219939,-0.0610920489,-0.0491858609,0.052358523,0.1208978072,-0.0579964146,-0.094041124,0.0656782016,0.1081820056,-0.0725069642,0.0065444591,0.0032423821,0.1231919155,0.0553587675,0.0510221832,-0.0033633511,0.1168559268,0.092084676,-0.0593811199,0.0360465385,-0.0211877171,0.0436649658,0.006108467,0.1780171543,0.0665319413,0.1044508219,-0.1510740817,-0.0789775774,0.0831896514,-0.0023675761,0.0438955501,0.1484607756,-0.0206718203,0.01003554,-0.062863268,0.1019493863,-0.0171243735,-0.0006091862,0.033936508,-0.0352025516],[0.1570668668,-0.0981033444,0.0195133034,0.2532541156,0.1536608636,-0.1343674064,0.0867292061,0.0664424375,0.0645112917,-0.0866467357,0.009919879,-0.134330675,0.0041902512,0.1440515965,-0.0524061322,0.0116655659,0.0758866221,-0.0532441102,0.1771488637,0.086645931,-0.0639040396,-0.0299386811,-0.0125174914,-0.0584115461,0.0060754167,-0.0283030178,0.053410992,-0.1044736877,0.0411280021,-0.1672260612,-0.0457562543,-0.1254481226,0.0591369979,0.0090437485,-0.0154645592,-0.1910658777,0.2376323342,-0.0120718013,0.1451351047,-0.0397262797,-0.0471846685,0.1774505526,-0.2534106374,-0.015843235,-0.0057049226,0.1105923727,0.0879527256,0.2449129522,0.0798465088,0.1010063514,-0.2650443017,-0.0670848042,-0.0173277687,0.1280012131,0.0170396995,0.2733287513,-0.2325977087,0.1336390674,-0.292933315,0.0959709138,0.0375791639,-0.0431321897,-0.1954417229,0.0611842759],[-0.0491399691,-0.0310102608,-0.0702238232,-0.0594374761,0.0282136612,0.0131996237,-0.0692676902,-0.025376359,0.0930857137,0.1425305605,0.0281019416,-0.0306880753,-0.106531553,-0.0183328409,0.071192883,0.0219563004,0.0438109078,0.0639170855,-0.0558075421,-0.0943730325,-0.0267597735,0.1279084235,0.0050054099,-0.0908042863,-0.0214937497,0.0972006992,0.0641233549,-0.0949881598,0.0820084959,0.0120770168,0.0764533058,-0.0609619506,0.0372847505,0.0196150411,0.007185821,0.1860782653,0.0755641013,-0.1344810128,0.1015780792,-0.1723570526,0.0285591912,-0.038185399,0.1576248407,0.1684984416,0.1927720159,-0.0079688374,-0.089284569,-0.0383209549,-0.0432527252,-0.020063052,-0.0703781918,-0.0195589401,0.0361806676,-0.0196293946,0.0548129268,-0.0146701587,0.0852862522,0.1364125311,0.1236541644,-0.0500876866,-0.0315254852,0.0600072257,0.1798105389,0.0406706147],[-0.3173582554,0.2363402247,0.044866357,-0.0995799378,-0.0515744053,0.2618321776,-0.0321257934,0.1657325923,0.0834799409,-0.0865270197,-0.1050653234,-0.0733643174,0.0163267478,-0.1230887324,0.1992266774,-0.1187568009,0.0445544571,0.2988606691,-0.1016760394,0.0259475298,0.2153338939,-0.082412757,0.1853776723,0.0950144902,-0.051428739,0.1207995638,-0.1519547701,0.1346496791,0.1727929413,0.1519373804,0.0134840365,-0.019133335,-0.0241111983,0.0175301488,0.0534606874,0.1538376361,-0.0040072217,-0.2086099237,-0.1032968313,-0.1541094929,-0.093773216,-0.1246794313,-0.0500423014,0.1928065866,0.1195315123,-0.1926946193,0.0074045425,-0.0300166421,0.1054184288,-0.0776489079,0.0613117889,0.1050255373,-0.1377417892,-0.118983455,0.3524749875,-0.21723032,0.0013898108,0.0846076161,0.1665430814,-0.0311035234,0.1971251369,0.1495461613,0.0491716713,-0.1016574129],[-0.0649156645,0.149357304,0.0625966266,0.0076701711,0.0692665502,-0.0383108333,0.0656137988,-0.2166966796,-0.0620125979,0.008088138,-0.0263332427,-0.0391389467,-0.0900252461,0.0949261785,0.0903509036,0.0878556073,0.0865176022,0.08871907,0.0518032759,-0.0231700428,0.0975108296,0.0444513336,0.066146642,-0.0707666501,0.1266723424,-0.1760852784,-0.0204092506,-0.1245692372,-0.10799101,-0.0569978505,0.0649014637,0.0298016779,0.1660747081,-0.0326937139,0.0892673284,-0.0514802448,0.1170801446,-0.0113477046,-0.0211878009,0.0350107998,0.073175177,0.0427355915,-0.0861142948,0.2107601017,0.0879726633,0.1483120471,-0.0765168294,0.047200039,0.047092583,-0.001895085,-0.2227498293,-0.0353653207,0.0038417941,0.0123830624,0.1422843486,0.1388977468,-0.0175162517,-0.0153600257,-0.1186121255,0.1130670458,-0.0265477486,0.0938547552,-0.1436590999,0.0490308627],[0.0110611431,0.0452280976,0.0544155687,0.0524095669,-0.0335079692,0.047974024,-0.0291264579,0.0446676202,0.0644939989,-0.0894790366,-0.1242548153,0.0688824281,0.0560655631,-0.0585596785,-0.0429303609,-0.0006238656,-0.0782050788,-0.0821180493,0.03007208,-0.0032742838,0.0083582755,0.029531192,0.0578714274,0.027708333,-0.016262453,-0.0563477986,0.0470383279,0.009537966,0.0030063998,0.0312306713,-0.0610484444,-0.0260737687,-0.0078843348,-0.0138263879,0.008124724,-0.0489882641,-0.0041407044,0.0422761291,0.0143538276,-0.0553906895,-0.1169041842,0.0562542379,-0.1103575975,0.0731925964,-0.0126734972,0.0065108053,0.1307696849,0.1080801114,0.0127393501,-0.0325943641,0.1145004705,-0.0278591048,-0.0940612257,-0.0972349346,0.0023536871,-0.0015050006,-0.0035321754,0.0302426554,-0.0506430641,-0.007856884,0.0120033091,-0.007169635,-0.1017965749,0.064385958],[0.2193297744,-0.0885030627,-0.1680830568,0.0613122173,0.2421309352,-0.1046408564,0.0732905716,0.0249679722,0.0553896576,0.2245549113,0.2271845192,-0.1531859338,-0.2065788805,0.2401397526,-0.0250710007,0.2167660147,0.0834015608,0.0802983195,0.0779003799,-0.09257631,-0.2039705664,0.2669132054,0.0565314069,0.049187243,-0.0716660172,0.0026706592,0.2668995559,-0.1239630282,-0.0154741351,0.0790452659,0.0049793776,-0.2066071481,-0.1492900699,0.0558279678,-0.0856302977,0.2598700821,0.1209150776,-0.1625068337,0.1744755507,-0.2024623603,-0.0141231557,0.2750397027,0.0805694684,0.0723292381,0.0741881281,0.1477525681,0.0421088263,0.1293853372,-0.1958082169,-0.2339877188,-0.1545705199,0.028994754,-0.2264965475,0.2831404209,0.0817642882,0.0376998223,0.1140761152,0.3153583109,-0.0020902439,-0.0622561723,0.0384294018,0.1352499276,0.0257630497,-0.0526362173],[-0.0358684771,-0.0500287488,-0.1352264434,0.069249168,0.2564122379,-0.0663856938,-0.0077805463,-0.0037377949,0.0201093424,0.1965924799,0.1547763199,-0.2048017532,-0.2467466444,0.1767290384,0.0706121475,0.125663653,-0.0174533278,0.1240429804,0.0061415262,-0.0667105466,-0.1578033119,0.1966026574,0.1304941624,-0.0546930768,-0.0601189062,0.0482250489,0.0700662285,-0.0717956349,0.1333950013,0.1635976732,0.003373438,-0.1864369661,-0.1034450606,0.1395152807,-0.0378802083,0.087755993,0.0337159745,-0.2008127123,0.0838776454,-0.1578220129,-0.1406649053,0.0896487087,-0.0386276171,0.2108087689,0.1774324775,0.0935744867,-0.0017992663,0.1620003879,-0.0965516642,-0.0889974982,-0.0974806547,-0.0429928452,-0.110996142,0.1181698516,0.1394378096,-0.0258941632,0.1212056354,0.204010129,-0.0713615716,-0.0194773376,0.0701967999,0.0762791634,0.0818718895,-0.0791263655],[0.1634470671,-0.0208045132,-0.0851409584,0.0592672601,-0.0531859584,0.0361184403,-0.0607936569,-0.2992841005,0.1739807278,0.0776750073,-0.1033328399,-0.1561124474,-0.044794526,0.0865249932,0.2125074565,0.1182863638,0.0491901487,0.0091008581,0.0079447869,0.0778255984,0.0307506286,0.0647400469,-0.0640344694,-0.2774582207,0.306475997,-0.0613871664,-0.005062209,-0.1396667957,-0.0856024697,0.0128057403,0.069750227,-0.1047195718,0.0189983901,0.16586487,-0.0362189263,0.0746092871,0.0186672676,0.0138982553,-0.0101354923,-0.1046928167,-0.1382748634,-0.0077868374,-0.0199145675,0.1840041578,0.003089454,0.1671041399,-0.0517317988,-0.0466813035,0.1311125308,-0.0062369709,-0.1495703757,-0.2633784711,-0.169365555,0.0439231656,0.0985759422,0.0055963364,0.0628754795,0.0703621358,-0.1003118083,-0.1335993111,-0.0438555814,0.0972065404,-0.2241973877,-0.1788797677],[-0.0118843904,-0.0066162208,-0.0867265388,0.0260259565,0.0551117286,-0.0376290828,0.0177322589,0.0180580746,0.0531722829,0.022831263,-0.0569095351,-0.1663467139,-0.1582360119,-0.0208461247,0.0821033418,0.1035565883,0.0266837887,0.0707029551,-0.0860722139,-0.0913739055,0.1028289273,-0.0265976191,-0.0005292232,0.0387325212,0.2095526606,0.086185798,0.0944438204,-0.0443771183,0.0079979058,-0.0379775725,0.0100283744,-0.1615493745,-0.0071264724,0.0701858103,-0.0528692901,-0.0830815509,-0.1223979443,0.0245823544,-0.0370089673,0.0240153875,-0.0266886,-0.0305905789,-0.0135649983,0.088132441,-0.0112433527,-0.0139123108,0.1114357784,-0.0449185781,-0.0159580689,-0.0700643212,0.0038233027,0.0833056346,-0.0443102084,0.0333478488,0.1176036522,0.0074187974,0.0597495101,-0.0276288409,-0.0121256988,0.0485476255,0.0812224448,0.0092079705,-0.1531004012,0.0810224563],[0.0559623688,-0.0898468196,-0.1853044629,-0.0687631816,-0.0130625293,-0.0381594561,0.0772187188,0.0140355797,0.1595389098,0.0675598681,0.0843504518,-0.1705395728,-0.0900401101,0.0073507074,0.1777994335,0.0981091857,0.1206015199,0.1909340769,0.0828243494,-0.102595754,-0.0859732553,0.0918157175,0.1974882185,0.022604838,-0.0569116659,0.0255740769,0.0071268892,0.0119431894,0.1830639839,-0.0532701388,-0.0677339062,-0.1195335761,-0.0027457657,0.0246451721,0.0420504622,0.0690782666,0.1301963478,-0.111963667,0.0126471538,-0.2382014692,-0.159150064,0.0790486187,-0.06351614,0.1436514258,0.1489458978,0.1194470301,0.0569846481,0.1091186404,-0.0625204667,-0.0079509178,-0.2508912086,0.0109927924,-0.2023629099,0.0459612049,0.1903204471,0.0285077151,0.014919552,0.1387650669,-0.1426007301,0.0140927173,0.1275379658,0.1441547871,-0.016141627,0.0364305861],[-0.0478697158,0.1519262344,-0.1169012412,-0.0736265779,0.0137541769,0.0876587182,-0.0307620224,-0.1446361393,-0.0615959503,0.1018130779,-0.0958222151,-0.1419970095,-0.1728993058,0.0622243807,0.173912555,-0.0055752569,0.0571385659,0.0697045401,-0.0147533454,-0.0440385379,0.0656026751,0.1911738515,0.1597799808,-0.0210052487,0.017237572,0.0124141518,0.0696152598,0.0123325763,0.052932743,0.0091295829,0.0620433129,-0.0762178823,0.1295885593,-0.0080084587,0.0424708985,0.1746451855,-0.0529847108,-0.1511527449,-0.02654556,-0.2094303221,0.0376240984,-0.003929873,0.0942398906,0.290961951,0.1730389148,-0.0419371501,0.0180756059,-0.0328882933,-0.012135338,-0.1059936583,-0.1464370191,0.0691407546,-0.0966950953,-0.0297509022,0.2086369693,-0.0656958371,0.1672230214,0.0936056077,0.0951108932,0.0071001742,0.0217244849,0.1374463737,0.0948439315,-0.0364428163],[0.1037514359,-0.1269218028,0.0024492168,0.1467922032,-0.0171606168,0.0607691891,0.0941055566,0.0448953994,0.1337945014,-0.0071429042,0.0124799637,-0.1086399108,0.0628343001,-0.0086333919,0.0326182805,-0.0531736463,-0.0260695834,-0.1294679791,0.1192373857,0.0351393074,0.0408369452,-0.0622969009,0.102553457,0.1466095001,0.0771127567,-0.0808520988,-0.0669733584,-0.0828142837,-0.051854223,-0.0590845682,0.0500414073,-0.1355455965,-0.0453120768,-0.0725019351,-0.0302778892,-0.1457562149,0.0304522216,-0.0045626499,0.0064565921,0.0137238679,0.0078578731,-0.0163769871,-0.1834028363,0.016410647,0.0109716542,0.1038231403,-0.0182409734,0.1509443521,0.0248464774,0.0505990908,-0.061937388,0.0497460179,-0.1585710496,0.0953398123,-0.0321519598,0.167372942,-0.1957140714,0.1001470312,-0.2488716096,0.0029893161,0.0073503642,-0.0997412279,-0.164591521,0.0392999426],[-0.165930599,0.1667228639,0.0734768361,0.1114455014,0.0526603907,0.1079751551,-0.0600277372,-0.0841105953,0.0378117524,-0.0361866578,0.0546888076,0.0822995976,0.1097452715,0.0186791308,-0.0778375268,0.0120420139,-0.0521930084,0.0074902293,0.097241506,0.0607252903,0.1005554274,-0.0207795482,0.0512249321,0.0493279472,-0.2511900365,0.1351496726,0.0202986486,0.0459649004,0.0964907259,-0.0196204502,0.0852687508,-0.0464176387,-0.0357377492,0.0201148037,0.0701814592,-0.0149351628,0.1863077134,0.0473885052,0.0958705246,0.0036909515,0.010269857,0.0724422038,-0.0487193204,0.0239193477,0.0680785999,0.0454263911,-0.0956884995,0.0547635965,-0.0222675614,0.0301948022,-0.0705123544,-0.0951590165,0.0302453954,-0.0226177983,0.1343209147,-0.0209880751,-0.1225824952,0.088616401,-0.0372124016,-0.0357278287,0.0360390246,0.0402763635,0.0613895543,-0.1365775466],[-0.0949279889,0.1947617829,-0.0205108207,-0.0609957799,0.0109379143,-0.0197082628,0.1283517331,-0.1761217415,-0.0032657259,0.0382224545,-0.0572667196,0.0479597263,-0.0792484283,-0.0707239062,0.113218829,0.004178138,0.0463561192,0.1020975709,-0.0790162683,0.0335546285,0.2123727947,0.0340091847,0.0500975922,-0.086617291,0.195716396,-0.1042936668,0.0022427854,-0.0825617164,0.05204916,0.000987843,-0.0977190882,0.07666713,0.1509367228,0.136001423,0.1029389128,0.0539229214,0.0581023954,-0.0723084137,-0.0688030347,0.0476163551,0.1952256858,-0.0107470276,0.095998168,0.2407996804,0.1141539961,-0.0374101177,0.0352159627,-0.0529534779,0.086000599,0.0444590487,-0.061407879,-0.1146044433,-0.0838823169,0.0205005649,0.2269224972,0.0042702444,0.1149620935,0.079042621,0.0110545168,0.0838651955,0.0264095608,0.1004851758,0.0378377326,0.0155592281],[0.1759193242,-0.152207166,-0.1845497489,0.0208201148,0.173298195,-0.1988734752,-0.0200819839,0.0337894857,0.0127178244,0.0815763921,0.154829368,-0.1354473382,-0.1974917054,0.1340929717,-0.0219878182,0.0774159357,0.0246028174,0.0450785607,0.1678123772,-0.1683245301,-0.2246877998,0.0588122457,0.0808076635,-0.0785711259,-0.1134245098,-0.0716062561,0.1087106764,-0.0058202399,-0.0185252223,-0.0272311494,-0.0622491837,-0.1828274876,-0.0744480044,0.0801148862,-0.0642846525,0.0515651889,0.1544990093,-0.0686905682,0.1151334867,-0.0491139181,-0.0623295121,0.1860818416,-0.0863814652,0.1789443642,0.1901894957,0.2685284615,0.119510591,0.2360312641,-0.1225377396,-0.1150170639,-0.1163141131,0.0054084654,-0.173397541,0.0934920907,-0.0513884611,-0.019159168,0.1031238735,0.1661947668,-0.1084304899,0.0493432507,0.001510405,0.0230993442,-0.0108854584,0.0768885911]]],[[[-0.0497706644,0.0942566469,-0.0273217615,0.0065459418,-0.0039055806,-0.093178153,0.0626960397,-0.0852629691,-0.0661988258,0.0732777119,-0.0920246616,-0.0408744626,-0.0140411071,-0.0332484432,0.1234500557,0.0684321523,0.1304867268,0.0976197794,-0.0214693621,0.0033458509,0.1207947582,0.1237060502,0.1781890988,0.1234266013,0.0406420492,0.0344737433,-0.1004434004,-0.1038930342,-0.0184094459,0.0855810642,0.057296358,-0.060200993,0.187253207,-0.0246006697,0.0049898843,0.19860515,0.1206485257,-0.0382080711,0.040283639,-0.1552812457,0.058991503,0.0253911819,0.1352818012,0.0555686355,0.0055505992,-0.0922800526,0.1094857901,0.1011320949,0.093293108,-0.0494718254,-0.0461519063,0.0574475117,0.016882265,0.0083380295,0.1948148906,-0.006365587,0.0594585203,0.025657244,0.1200886071,-0.0465155765,0.0204379614,0.1209587231,0.1341182441,0.1150638834],[-0.0090381727,-0.0450292714,0.0936718509,-0.01071034,-0.0331496894,-0.0507148765,-0.0278147161,-0.0956629589,0.075391598,-0.0873318911,-0.0588802025,0.0353737883,0.036424417,0.0820953697,0.1479184926,0.016455546,0.0315556116,0.0216410253,-0.0141905854,0.0173764955,0.1210838854,-0.0716939718,0.0784954429,-0.0056129545,-0.0409568287,0.0091411397,-0.0963870883,-0.0058975182,0.0504287444,-0.152705282,-0.0457060337,0.1084746048,0.0973016396,-0.0135760149,-0.0219129696,-0.078635104,0.0484723747,0.0225006305,0.0544798672,0.1536318511,0.1343861669,0.0076459399,-0.0765810236,0.0946256965,0.0938408822,-0.079382062,0.0370908827,0.0113945631,-0.0078818714,-0.0341287851,-0.0431979634,0.0239735357,0.0688937381,0.0642719045,0.0989834666,0.0345524251,-0.1158178672,-0.0755594969,-0.0151916556,0.020317154,-0.0286883228,0.0784503967,0.2061292678,0.0593462437],[0.0993771255,0.0887536258,0.0195245668,-0.0060317954,-0.0177907925,-0.0480531156,-0.0020202922,0.3447650671,0.0851960853,0.0584104694,-0.0773296133,0.0201822314,0.0805119053,-0.0582401976,-0.1354125142,0.058494173,-0.1114902496,-0.07225959,0.0010539943,0.1073037982,0.0774623454,-0.0656409487,-0.0333283655,0.1532518715,0.14375256,-0.0298279412,-0.0009564465,-0.0821796432,-0.0568816178,-0.018806072,-0.010341892,0.0254237801,-0.0196203925,0.0572034381,-0.0465614125,0.0452095568,-0.1005531475,0.0239161346,-0.0931754261,0.0387816839,-0.0903583094,-0.0408111513,-0.0379815139,0.0267152935,-0.2181271762,-0.0635061115,0.0237181336,-0.0343506448,0.1126256287,0.1157693863,0.0711824596,0.2596754134,-0.0437289923,-0.0394918956,-0.1063659489,-0.041006662,-0.0059140823,0.0416566543,0.0576623715,-0.0409877226,0.0235398486,-0.0485794395,-0.0737013519,0.1780942082],[-0.0237195678,-0.0974837095,0.0433952622,0.0926865861,-0.0350395478,-0.0591375828,-0.0364503637,0.1070359573,0.1268667132,-0.0559928082,0.0391777568,0.0571836121,0.0790714696,0.089557603,-0.0289036576,-0.0485116318,0.0034003218,-0.0858839303,0.0988798961,0.1296293437,0.0080396617,-0.0882525519,0.0543633476,0.0134550985,0.023411572,-0.0715819374,-0.0419091545,-0.0419574939,-0.1355902851,-0.0913442969,-0.0030941565,0.0126114311,-0.1008983031,-0.1026903689,-0.0793086886,-0.0359140523,-0.0112612071,0.0731916726,0.1070044413,0.0505608432,-0.0151708983,-0.0011064651,-0.0879120976,0.0370594785,-0.0342414193,-0.0550504886,-0.106069304,-0.0937398002,0.0228103325,-0.0424913131,0.0867203996,0.2081497014,-0.1107548997,-0.0411601514,-0.0945728794,0.0048740446,-0.1194221973,0.120780699,-0.1400067955,0.0117959464,0.0834193304,-0.0805121362,0.0439231582,-0.0079609901],[0.2686781287,-0.1464513689,-0.1022457257,0.2544938922,0.3075754344,-0.0602653399,0.1457716674,-0.0606880821,0.1639046371,0.1348717064,0.2475662231,-0.1109447554,-0.0370510928,0.2633105218,0.0700389072,0.059813004,0.0069076363,-0.1912696511,0.259257853,-0.0523399375,-0.2277220637,0.1132069081,0.0105976006,-0.0696054399,-0.0108492943,-0.1515851617,0.0910889804,-0.1293348968,0.1865658909,-0.1160642207,0.0563586913,-0.1453729421,-0.0063458662,-0.0767025352,0.1529335529,-0.0957819596,0.1884777099,0.0730018243,0.2477320135,0.0832758397,0.01686804,0.187371999,-0.1808345765,-0.0556849092,-0.1784762442,0.1047399417,0.2167387307,0.1811030358,-0.1194578484,0.0594689436,-0.2648454607,0.0585056208,-0.1082865745,0.2290218174,-0.1316500902,0.2003299147,-0.0243079383,0.0279804636,-0.1567358822,0.1009090394,0.0222938824,-0.0810120776,-0.0850636885,0.0901494995],[-0.0561588109,-0.1261567622,-0.0583938733,0.1084276959,0.085163787,0.0539458133,-0.0309118647,-0.0059316331,0.1142806262,0.0143001601,0.1330991238,-0.1221698597,0.0070334678,-0.0511885285,0.0246229935,-0.0829145461,0.136849165,0.0645074993,0.0855728909,0.0103408638,-0.0431102701,-0.0808477625,-0.0146506112,-0.056396462,0.0012244561,-0.1174412072,0.0154630356,0.0704660788,0.0041481266,-0.055788625,-0.13847588,-0.105623126,0.0827630237,-0.0857561678,0.1153096855,-0.0723637715,0.0573729351,-0.050951194,0.0622885711,-0.0266005751,-0.0535259843,0.0997779816,-0.065409556,0.0219933745,-0.0188249778,0.0291067269,0.0700745285,0.0217879824,-0.0241375118,-0.0148193836,-0.169486776,-0.1356088072,-0.1136870757,0.0285711959,-0.0524745211,0.0165734868,-0.1491768062,-0.0370958634,-0.207970202,0.1115302891,0.0681682453,-0.0644152462,0.1595011353,0.0517540239],[0.0913015231,0.0771341696,0.0096448036,-0.0768916234,-0.0496853702,0.0896418393,0.1651651561,0.1991395354,0.1408917457,-0.0128534799,-0.1756705046,-0.0863669291,-0.0007297759,0.001676865,0.1484676749,0.0491764508,0.0958158821,-0.1337882876,-0.0193511564,-0.08031407,0.0640604645,0.1304297894,0.1031011716,0.2501191199,0.1303924173,-0.0201934613,0.0583116636,-0.082858853,-0.1629388034,-0.0009429331,-0.0187772643,-0.0668761879,-0.1041473374,0.0706810653,-0.0189333241,0.1448317468,-0.0462855585,-0.1484941095,0.0104518058,-0.147877425,-0.240569517,0.0160430297,-0.1526184827,0.3471716046,-0.1747727245,-0.1876297146,