[[[[[-0.2342882305,0.1523101926,-0.0101958904,-0.1561501473,0.0871013477,-0.0137305595,-0.0374829546,-0.0654087514,0.0227225292,-0.1709651202,0.0588564053,-0.1020156071,0.0837084875,0.0205874853,-0.0520470217,-0.0215308703,-0.05627257,-0.0554662608,-0.0390729867,-0.1245113537,-0.0928555951,0.1021140218,0.0372597836,-0.0340041369,-0.1629468501,0.0717549324,-0.1313267946,-0.0607292131,0.1759880483,-0.0625072047,-0.1560529768,-0.0211756025],[-0.2086629122,0.1218257993,0.0961979479,-0.1294053644,0.1567810625,0.0262573455,0.0986445695,-0.0404283404,0.0284527466,0.1258932054,0.0521172397,-0.0064338488,0.0699847192,-0.0179501083,0.061791189,-0.0561498776,0.2170660049,-0.0859996974,-0.0895180702,0.0931438431,0.0348613597,0.078154996,-0.076278992,-0.2080291808,-0.1995439678,-0.1197067425,0.1339383125,-0.1566639096,0.1169264615,0.0825817585,-0.2141975015,0.1830860823],[0.0051668305,-0.1946100593,0.0246877074,-0.0987835005,0.0318327844,0.1080960855,0.0350650139,0.2227229923,0.1293005049,-0.0994250029,0.072375223,-0.1975285262,-0.1420710236,-0.1175254583,0.1831586361,-0.1153132543,0.1080397964,-0.0895645618,0.1010550782,-0.0269387215,0.0729681179,0.0879563838,-0.0660549477,0.018798748,0.0145267835,-0.0611100309,0.0280912537,-0.0694813803,0.074693054,-0.0153789083,-0.1615601182,0.1713651419]],[[-0.0337517671,0.0961221009,-0.1369446367,-0.1439065933,-0.0662444383,-0.0652959794,0.1372388303,-0.0329644307,0.0391613431,-0.1591528952,0.1125182435,0.0897634178,0.172184363,0.1155645698,-0.0458506122,0.0522890128,-0.0031916848,-0.1408282965,-0.1016529724,0.0214598123,-0.0251086764,0.1508849561,-0.1027059481,0.0353712887,-0.0411609001,0.0738761649,-0.0111456001,-0.1025147066,0.0575625971,-0.1047180742,-0.0427118763,-0.0398320258],[-0.0743718892,0.0499577895,0.0587049872,-0.1467603892,0.1607691199,-0.0132782767,0.208982259,-0.0323577523,0.0960881189,0.1034464613,-0.1004604399,-0.083562687,0.1110167205,-0.1928611696,-0.1355940849,-0.0981932431,0.0809964538,-0.0714142025,0.0172780585,0.083811596,-0.1026328355,0.0430660807,-0.184823066,0.0560144335,0.0466972962,-0.1080456376,-0.0175563414,-0.0727567449,0.1210781559,-0.0323748961,-0.1575618386,-0.0091554178],[0.0321421884,-0.1777456999,-0.1225665957,0.1549755335,0.0067393677,-0.0774145871,0.0364230014,-0.0849981159,0.2175761014,0.0050762398,0.1139869615,-0.0623549968,-0.0694191754,0.1227046698,0.2117918134,-0.0296689235,-0.0129414434,-0.073306419,-0.0952224359,0.0192668717,0.0432331599,0.2059047967,-0.0613632798,-0.0504783913,0.0074123549,0.1383799165,-0.0533827096,-0.1358423978,0.0369454399,-0.0284290276,-0.0352015235,-0.0898367912]],[[-0.2664915919,-0.0068518589,-0.0896297991,-0.0705504343,0.0824216902,-0.141913265,0.1794406921,-0.0621308126,-0.1046676561,-0.0672874749,-0.0686665922,0.0738321766,0.1687541753,0.1060562953,0.0914717391,0.0096752653,-0.1166480035,-0.0506519601,-0.0472109988,-0.1006323323,-0.1107142791,0.1025840342,0.1104479134,0.0555197448,-0.1083639041,-0.0558052361,0.1497276574,-0.0833075568,-0.1534917355,0.128566727,-0.0450522341,0.0022081851],[-0.0887000263,0.0727769956,0.1183708608,0.0935636014,0.1305905879,-0.0255960636,0.0319883339,-0.1798402369,0.1289674044,0.1021149084,-0.1525180638,0.0068676933,-0.0505916737,-0.051914487,0.1214419603,-0.0151983341,0.0530387871,0.1329489201,0.0335183069,-0.0956040248,-0.025170004,0.0399424322,-0.1265754253,0.1046204343,0.0170173887,-0.0552147925,0.1175649613,0.1044435203,-0.0535445362,0.0378374681,0.0065127378,-0.0360367522],[-0.0796469599,-0.1790407598,-0.0914754122,0.1043725461,0.0805175826,0.0901977941,0.0994721279,0.0815816447,0.0681658834,0.0427345559,-0.0982928947,-0.0788893923,-0.2421710193,0.0206225049,0.2533040047,-0.1939736605,0.0242292415,0.0303314999,-0.0101821078,-0.133876279,0.1127318442,0.0351385586,-0.07261841,0.2518987656,-0.1370342076,0.1491810232,-0.1742818803,0.0921560526,-0.1342667043,-0.0619499832,-0.2083578706,0.0192864612]]],[[[0.0471350141,0.1622670293,-0.1207401976,0.0508749709,0.059084259,0.1181436554,-0.0375668854,0.1359353513,0.0904930755,-0.1403085291,0.0485969931,-0.1612333506,0.1739227921,0.1242894456,0.0866144896,0.0045502102,0.126560539,-0.1032358781,-0.0518006533,0.0879010111,0.0320414156,-0.1302409917,-0.1516567916,-0.1240900457,-0.0669145882,-0.0351362377,0.1240111142,-0.0015681076,-0.0253619198,0.1005644426,-0.0438205451,0.0403951406],[-0.0629450232,0.0879374519,0.1869267523,-0.0865344182,0.1049292088,0.1894723773,0.0217895471,0.082094796,0.0387973152,-0.0307939071,-0.1635776013,-0.1609728485,-0.0138181048,-0.0777393803,-0.0427561998,0.1408673227,0.1180348396,0.052271679,0.0754596144,-0.0083954288,-0.0032091427,0.0753307045,-0.0464103073,-0.0898899287,-0.1206612885,-0.051034268,0.0527317449,0.0608935505,0.1187547594,0.039006412,0.0920125023,-0.0108261583],[0.0042316248,-0.1518536657,-0.0431535468,0.057507094,0.1378279924,-0.0047102319,0.124029167,0.0521912649,-0.0320431553,-0.0634218678,-0.1076008007,-0.1272548139,-0.2036430687,0.0499889627,-0.1008522883,-0.072032772,0.0545858741,-0.1133110449,0.0126934433,-0.0337700844,0.066823855,0.0252667684,-0.1653449237,-0.0230730493,0.0280402508,-0.1020940542,-0.2260689437,-0.0581866875,0.2381734699,-0.0905025154,0.0343717821,0.0858479515]],[[0.0912263393,0.0156985503,0.0672615543,0.112610817,-0.0900724754,0.0306841675,-0.0233863182,-0.0955965966,0.0646437779,-0.0523531064,0.1199626923,0.0045030373,0.0061769048,0.0826510713,0.0589573495,-0.123748742,-0.0716639757,-0.0599600077,0.0742587522,-0.1623365432,0.0734296814,-0.0845060647,0.1060990095,0.0661025047,0.0387534052,0.0130694378,0.144029513,-0.1506584734,0.0373553485,-0.0699843541,0.07706175,-0.096636951],[0.0263263304,0.0504105166,0.0153426416,-0.1093086451,-0.00151507,-0.003853525,0.0989277214,-0.1269239038,0.107504949,-0.0313019529,0.0324813277,-0.0581980534,0.039061334,-0.0981676802,-0.1590819657,-0.0272289217,0.1759945303,0.159039408,0.0143175218,0.1357118487,0.1149197817,0.1046658307,-0.1032669395,-0.0454037264,0.0026550195,-0.0006921007,0.0914057717,-0.0809500813,-0.0042913407,0.001637534,-0.1016891524,0.1097695008],[-0.0811595097,-0.0472891368,-0.0227851383,0.1228097007,-0.1520848721,-0.0574730448,0.0744775534,-0.0715883896,0.1444163173,-0.0754969418,0.1103644073,0.1197398752,-0.1742272675,0.0228570867,-0.052829951,-0.1148009226,-0.1071136296,-0.0490415283,-0.0628804639,-0.0870900303,0.183090657,0.0743764043,-0.102415286,-0.0881213024,0.0368779078,0.0845295265,-0.0556031987,0.0520361215,0.0710579082,0.0522904657,0.156866312,-0.0972089395]],[[-0.0408734046,0.1054610014,-0.0697807744,-0.1208976954,-0.1991770715,-0.151643157,-0.0978234336,0.062617138,-0.0342040472,-0.1404709816,0.1004620716,-0.038242273,0.1002893671,0.1665198952,0.0666811466,-0.015048068,-0.1717524976,0.009375263,0.025712993,-0.1800678372,-0.1618783474,-0.0708177239,0.1092940196,-0.0203126688,0.0032336423,0.0699651986,-0.0550645441,-0.0817307085,0.0127003761,-0.0274765696,-0.0915595368,0.0182905402],[0.0191877782,0.1562544852,0.0673357695,0.0245649759,-0.0949090719,0.0544216745,-0.0760397613,-0.1922465861,0.0670782551,-0.0774357244,-0.2251119167,0.112036936,0.0515630618,-0.1518273503,-0.0383002087,-0.0850095153,-0.1463696361,0.1911889017,0.1154300198,0.1301988512,0.0763330907,0.026306536,-0.0174929556,0.0117194634,0.0552361943,0.0649392903,0.1980282962,0.0747230873,-0.0738361329,-0.1060828567,-0.1159150377,0.0372423194],[-0.046920687,-0.0773193166,-0.1545030922,-0.0116087701,0.0956873894,0.0492162332,0.0444616079,-0.0371188,0.0316999964,0.0368733369,0.055076763,0.2210356742,-0.0515405238,-0.0299276914,0.2115011066,0.0215178225,-0.0803936943,0.0144914137,0.2128053457,0.0409699231,-0.0473728776,-0.030931985,0.1423928589,0.0932882205,0.0483910479,-0.0246622451,-0.1468024254,0.1244058907,-0.1428065002,0.1901052743,-0.0703494549,0.0911091939]]],[[[0.0366155654,-0.0636261031,-0.084988229,0.0249504093,-0.1108285561,-0.0363868177,-0.1068447158,0.0162388328,-0.1418637037,-0.1316276789,0.1250336319,-0.0627853572,-0.0561411753,0.1894018948,-0.0051246658,0.0412955061,0.015096237,-0.0685073957,-0.1813547909,0.0551509745,0.0192135014,0.0582902804,0.0035126414,-0.102759093,-0.0060838643,-0.0433355793,-0.0512900054,0.0544144884,0.0020710279,0.0731843039,-0.0197281316,-0.1010124236],[0.1984247118,-0.0044130292,0.0653574765,-0.1504723132,0.0023251567,0.0573163144,-0.1367357522,-0.110717684,-0.0799792036,-0.0613088682,-0.0380401909,-0.0811212286,-0.0802759677,-0.1959220767,-0.0629997104,0.1018118709,-0.0592384115,-0.0744782686,-0.1101703048,0.1654875576,0.0322039463,-0.2021355331,0.0356226042,-0.20942913,-0.1348133832,-0.1091932878,0.111291483,-0.1176873296,-0.0354055688,-0.1604647189,0.1561581194,-0.0980257019],[0.1454649568,-0.0799585953,-0.1401165426,-0.0465792567,-0.1443083286,-0.0712945685,-0.1036968455,0.0402603671,-0.0116557991,-0.0196775012,0.0138031738,-0.1321345419,-0.0792829022,-0.0674239695,-0.0467983149,0.1450930834,0.0701435283,0.016386319,-0.111136049,0.030464882,0.2073956877,-0.1118661463,0.1272741854,0.0859757215,0.0136126457,0.0958690047,-0.0198664032,-0.0674247965,0.0397322699,0.0269480739,0.1699660867,0.0062259762]],[[0.0838030353,-0.0542678051,0.1587345451,0.1001029685,-0.2125036865,-0.0848170146,-0.0895417407,0.1173473075,0.0290672034,-0.0973513275,0.0089164879,-0.0171488859,0.123387441,0.0210358445,0.0202179868,0.1321408451,0.0579823367,-0.0420563929,-0.0218916405,0.0901788175,0.0910872295,0.0308446139,0.0030740844,0.009105714,0.1016945615,0.1114962697,0.1209901124,0.0915626138,-0.0382753722,0.0726295635,0.2058669329,-0.0053016902],[0.2034869939,-0.0204791911,0.1836505383,-0.0268473867,0.1123154685,0.1514680684,-0.1471197009,-0.0878858194,-0.1445865631,-0.0306108389,-0.1066528037,0.0311937369,0.0247365851,-0.1398278028,-0.2160426378,0.0988019481,0.0886090174,0.1251939833,-0.0496521555,0.1017181277,0.1130433083,-0.2357414365,0.1396386325,0.0179589242,0.1067645401,-0.0769532695,0.0251911208,0.1417036951,-0.1894763261,-0.1518530697,0.1105336845,-0.0389499292],[0.1875493526,0.0114909913,-0.0903905556,0.1890909523,-0.0314925425,-0.1526818871,-0.1089122519,0.1267705858,0.0046733194,0.0465511456,0.0006599139,0.1163222864,-0.1697062403,-0.101851292,0.0988077372,0.1874890327,-0.0621137507,0.1085972637,-0.0103784325,-0.0156422872,0.173279047,0.0179919135,0.0887476802,0.0026850626,0.2353068292,-0.0581543148,-0.197431162,0.0995403305,0.0573187657,0.0070965141,0.1596798599,-0.1292932183]],[[0.1057101786,-0.0016208105,0.0018687381,-0.0823710635,0.0475468375,-0.0945525467,-0.161457181,-0.0021809661,-0.0849657729,-0.0211391877,0.001021193,0.1822799593,-0.0926052704,0.0027619363,0.0219438393,-0.123623535,-0.2018740028,0.0157936476,0.0991624445,-0.056847807,-0.1154000461,-0.1700150073,0.0134136956,0.0078461971,-0.040464025,0.1583005041,-0.104054831,-0.0500926673,-0.1812620908,-0.0889366418,-0.0583796129,-0.1100490242],[0.1468910426,0.0238504689,0.0987757519,0.0500064716,-0.1603996605,0.1554985344,-0.0312658921,0.0103218481,-0.2683748901,0.1227084026,-0.2194990367,0.1182103753,0.1057892144,-0.0137102334,-0.1286773086,0.0892107412,-0.0373304412,0.1734985113,0.0399654917,-0.033257626,-0.1777956635,-0.1838799715,0.1712896079,0.0371222757,0.1646632403,-0.1439667493,0.152066648,-0.0200914964,-0.2308879346,-0.0413204804,0.2246963382,0.1019340083],[-0.0618257597,-0.115963839,-0.065591,0.1554256827,-0.0403696187,0.0798735693,-0.0444328338,-0.072083205,-0.2361825407,0.0780690014,0.1367048472,0.2436997443,-0.0655663311,-0.1254644692,0.0465369746,0.0326665454,-0.0987720788,-0.0006021243,0.1488731056,-0.0368310809,-0.0457860231,-0.0193276424,0.107657522,0.2048739642,0.2601395249,-0.1296277791,-0.1095352843,0.2019488811,0.0674805045,0.2173918635,0.1486748904,-0.052015204]]]],[-0.0017275584,-0.0131053142,-0.0029219969,0.0100251567,0.0006751181,-0.0038442807,0.0006301613,0.0142503912,-0.007742485,0.0258776564,0.0004373214,-0.0020683743,-0.0092363646,0.001031192,-0.0114148706,-0.0005572553,0.000485525,0.0014286374,0.0022670152,-0.000764005,-0.0159639847,-0.0006985172,0.000245192,0.0001240048,-0.0016304355,0.0013432461,-0.012551384,0.0108982315,0.0018510839,0.0036959141,-0.0008599269,0.0031138286],[[[[0.035464745,-0.086593546,0.0727647319,0.0640465096,0.0164714474,0.1201473027,-0.065853931,-0.151753962,0.0974777937,0.2158557028,-0.0197463147,0.0020017449,-0.0739206523,0.0018131502,0.0690682158,0.0384510383,-0.0326692723,0.010724172,-0.0344708599,-0.0339396931,-0.0817509443,0.0861689225,-0.0164790247,-0.002192043,-0.2321575582,-0.022765331,0.1434060931,0.0389133468,0.0318148099,0.0586144365,0.016448712,-0.1397192627,0.0121374354,-0.1813240647,0.0399025828,-0.0543302186,0.0012148418,0.0336841308,-0.1188839898,-0.133529678,0.0143174129,0.0160681866,0.1103970185,0.0376643538,0.0867116377,-0.0307187475,0.0316039212,0.0865505934,0.2852660418,0.1458888501,0.025497606,-0.1559985429,-0.0699282736,-0.0179444011,0.0756031275,0.1074098051,-0.064921461,0.172949478,0.0739291832,0.0046244706,0.0581208207,0.0517427363,-0.1146001294,0.0653415844],[0.1062871665,0.0255808793,-0.0936753526,0.0018339367,-0.041504655,-0.0040213699,-0.086122714,-0.0582954064,0.1791770905,0.0695885643,-0.0203229152,0.1085692793,0.0146148428,0.1478319168,-0.068176873,-0.0134729007,-0.0420606248,-0.0300047975,0.019016549,-0.0028805395,-0.0833108351,-0.0211516265,0.053789258,-0.074562341,0.0113273393,-0.0779978111,-0.0180637632,0.0973803997,-0.124004446,-0.0120301303,0.0455247797,-0.0287726708,0.0370311588,0.0083744163,-0.0456683673,0.1308271438,-0.0109458081,0.086115323,0.0555772223,0.1102243736,0.1272451878,-0.0668827891,0.0526693091,0.027060166,-0.0523952655,0.0224834699,0.0506298356,0.0417602211,-0.0851914212,0.0953771695,0.0384539515,-0.0435281955,-0.0136527251,0.0125313364,-0.0808779076,0.0200093351,-0.0051022931,-0.2169072181,-0.0172745809,-0.0013262808,-0.0800370723,-0.0431168526,-0.0627030581,0.1239534393],[-0.0306257457,-0.0064101857,-0.0856930315,0.0116664609,-0.0450406112,0.0074455147,-0.0972127542,0.0708121136,0.1967011243,0.0599933155,-0.0106869387,-0.0835178122,-0.0010202648,0.1005302966,-0.0222293958,0.0617616214,-0.0029222926,0.0372258797,0.0183739178,0.022469895,0.0596956499,-0.0133865569,-0.0801419094,-0.0171235502,0.0231276248,-0.0311132111,0.0732805058,-0.0250930227,0.0266902503,0.1125732437,0.0796263516,-0.021841554,0.0020139401,0.0237063058,0.0480561405,0.0212183297,-0.0492315143,0.1089946777,0.0124458987,-0.003291426,0.0893828794,0.0946038067,0.0499850027,0.0504690185,-0.0002890649,-0.0387010947,0.0414047092,0.0655921996,0.0178622305,0.0674745515,0.1086408868,0.0894126967,0.0343931206,-0.0144923581,0.0836352259,0.0768145397,-0.0589164458,-0.0032647436,0.0555659533,0.1321553588,0.044829905,-0.0124370148,-0.0129956044,0.0711529627],[-0.0649564415,-0.038216684,-0.0247619282,-0.0017616574,0.0293957964,-0.0525686257,-0.0334514864,0.0073668249,0.0419476889,0.0579528473,0.0848727375,0.013168429,-0.0276046507,-0.0122521874,0.1015387997,-0.0519209951,-0.0631415024,-0.009954175,-0.1982420534,0.0430878028,-0.041323375,0.0402929112,0.0107690822,-0.0243914071,-0.0705993176,0.0050841793,0.0709661394,-0.0899107307,0.1483384222,-0.0464770235,-0.0348285586,0.0400842875,0.0632351562,-0.0791437924,0.0400794782,-0.0967366993,-0.1280801296,-0.0142497094,-0.1158142164,0.0179375447,-0.0464992747,0.0215927605,-0.001831076,-0.0352096409,-0.0648265854,0.0379698947,0.0116218692,-0.003728444,-0.0738206431,0.0107595706,0.143399924,0.0744393095,0.033534497,0.0509885773,-0.0157911722,-0.0741129443,-0.0506673977,0.2305502295,-0.0405217744,0.0002588083,0.1203517243,0.1013726443,0.0561151281,0.1057812572],[0.2336484939,-0.008421001,0.0365073606,-0.0401845649,0.1304387003,0.0593693666,0.0523896515,0.0255815554,0.0206207354,-0.1308755875,0.0970044881,0.050542064,0.0153269228,-0.0511123799,0.0056750411,0.0852745026,0.0288349856,-0.0203864742,0.1767854095,0.1110512242,0.0389342979,0.006598481,0.1686675549,-0.0664908662,0.1550068259,-0.0326209068,-0.0780365169,0.2795903683,0.0379326977,-0.0008523787,0.0063098161,0.02313173,0.0113872197,0.0929075703,0.2266621441,-0.0363967642,-0.1757224649,0.0953160599,-0.0365505666,0.2354440987,0.0001058622,0.1093938351,-0.0441946201,0.111645028,-0.0338679068,-0.0222337488,0.0100661237,0.133634299,-0.0031518948,-0.0110223852,-0.0475073643,0.0972254202,-0.0395956561,-0.0529927686,0.0793190002,0.1136706099,-0.1165267974,-0.0340496898,0.0933656022,-0.0512238182,-0.0402485244,0.0618588962,0.0899610966,0.1053537279],[0.1085417718,0.0448559076,0.033563856,0.0011562875,0.0792432278,0.0312588476,0.0305857547,0.0424070843,0.0606314912,-0.0182995442,0.1592170596,-0.0244874619,-0.0289378855,-0.0461118855,0.0827872455,0.0909873024,-0.0063302931,0.0286360253,0.0890195221,0.0956419557,-0.0438530073,-0.0577046387,-0.024489617,-0.0896833986,-0.0133771654,0.0228552017,-0.0269542523,0.0969744176,0.0238040183,-0.0262579154,-0.0624856129,-0.037483532,0.0887272507,-0.0824781805,0.0691739172,0.066600807,-0.0394388847,0.0713965446,0.0642731637,-0.0288722441,-0.1022613421,-0.0195956118,-0.011089229,-0.0532639585,0.0965873227,0.0722000971,-0.048374705,-0.0243117027,0.0779537484,0.0334711671,0.0897965506,0.0258229095,0.0831045434,-0.0645714402,0.0942874402,0.0998665094,-0.0939170048,-0.0592534244,0.0504509024,-0.0240365826,0.0604408011,0.0569325984,0.0562895574,0.0079805097],[0.1854153872,0.0564183258,0.1466674507,0.0899922177,0.1459740996,-0.006362603,0.1334637851,0.0488658212,-0.0947563425,-0.0568350628,0.0349333584,-0.0159275495,0.0796714723,-0.0243993402,-0.0725263432,-0.0251172315,-0.0678885728,-0.1375868469,0.0565009192,0.0879533142,-0.0013999168,0.0429467633,-0.0216549449,-0.0438384041,0.2176494598,-0.0285263918,-0.0068887724,0.2820210159,0.1005003601,-0.0067881453,0.0549461395,0.10724473,-0.0214525778,0.096183382,0.2238643914,-0.0344756767,-0.2395395488,0.0782307908,0.0732957497,0.1960436702,-0.023048766,0.0912928879,-0.073769398,0.2245106399,0.0758218095,0.0268861931,0.0797673687,0.0629891753,-0.1365701556,-0.1611789763,-0.054719992,-0.0129979178,0.0259937737,0.1066627428,0.1008239836,0.0378069095,-0.2419074029,-0.0582153797,0.0871819854,0.0140041374,0.0810154676,0.1825994551,0.222864002,-0.0324094519],[0.0215496141,-0.0357230343,0.0384733938,-0.0145695936,-0.0875804424,-0.0749768242,0.0517280661,-0.0154737448,-0.0569027178,-0.0294318516,-0.0329007283,0.0120023619,-0.0306536723,-0.075924553,-0.0015350541,-0.1102871895,0.0449960902,-0.0690653771,-0.0667728186,0.0370032303,-0.0472474471,-0.0501620248,0.0554433279,0.0967776105,-0.0634748414,-0.0029938449,0.0474314727,-0.0688573122,0.0013729986,-0.0567770079,0.0402879454,0.0716335252,0.0524794273,-0.05222046,-0.0594730303,-0.0328640305,-0.1307633519,0.029235078,-0.0500523299,0.0396610051,-0.0680884793,-0.0489628799,0.0922506303,-0.0425371341,-0.0363649949,0.051651828,0.0358250141,0.0014797947,-0.0571617372,-0.0083603458,0.1332719028,0.0695148632,0.0899023637,0.0961589962,-0.0030657258,0.0586275645,-0.0880679637,0.1881673485,-0.1090688854,-0.0004267216,0.0202099755,0.1121298224,-0.052939795,-0.015367127],[0.1487671137,0.0030855206,0.1746303886,0.0169290565,0.0608266219,-0.0272760652,-0.0489747301,0.0222833585,0.0218697283,-0.0484737419,0.0633369461,0.0860999525,0.0697505623,0.0084352624,0.0013998938,0.0567167513,-0.0396607406,-0.0383679792,0.0950432792,0.1411403269,0.0149703715,-0.0092587266,0.0587087162,-0.0117541254,0.0436349139,0.0532517731,-0.1351764351,0.2680660188,0.0116841663,0.0310437903,-0.0623422116,-0.04661889,0.0472441129,0.0830024853,0.1428909302,0.0046064025,0.0569989309,-0.0305734221,0.122021921,0.0932706892,0.0295838527,0.0345956162,0.0322171487,0.1015703604,0.0172345154,0.0324300937,0.0695858896,0.1995354295,-0.0672502443,0.0546277389,-0.0729031935,0.0890419558,0.0021999665,-0.0490576886,0.0866699889,0.1371005625,-0.1573253423,0.0443802699,0.2004260421,-0.0894556716,-0.0716697276,0.0918711498,0.2353384644,0.047043737],[-0.0169639513,-0.0512634516,-0.0232413933,0.0428582467,-0.0263129864,0.0898352116,-0.0703200176,-0.0490270667,0.07280083,0.0897442475,-0.0315441675,0.0962294042,0.0457101353,0.0076631452,0.0020282301,-0.0432315767,0.066801168,-0.0826782435,-0.0731328204,0.0278846212,0.0445306487,0.0443124622,0.0510290302,0.0607007369,0.0835272521,0.0161541905,0.130425632,0.0687499493,0.0805854201,-0.0192027148,0.0202719159,0.0305995494,0.0299200341,0.0633036569,0.0120769572,-0.0260258354,-0.0248174332,0.0603342764,-0.0356604643,0.072767593,0.063049674,-0.0796978921,-0.0945331603,0.0019401573,0.0535233393,0.0239219852,-0.0526489764,-0.0926403403,0.0550234728,-0.0659179837,-0.0072715362,0.0890118033,0.0939699858,0.0429090559,0.0194694009,0.033945784,-0.1304925978,0.1434626132,0.0284325518,-0.082727097,0.0229389984,0.1619751602,-0.0856091008,-0.0867994279],[-0.1076342911,-0.0388136655,0.080072239,0.0324108303,0.005591217,-0.093168363,0.0157276001,0.1016464606,-0.0241839588,0.0783325508,-0.0314939022,0.0668383092,0.0138326548,-0.018311603,0.0041153976,-0.0370011516,-0.063595511,0.0383148268,-0.0137473177,0.0400104858,0.0403327532,0.0580933355,0.1574867964,-0.0422473699,-0.1357609928,0.031178331,0.012901634,-0.0112105599,-0.0144673921,-0.0564249977,0.0865182802,0.0786013082,0.1317342669,0.0196569022,-0.1031363159,-0.1389853954,-0.0550151132,0.0653764084,0.0703720748,0.0399114527,-0.0917200148,0.0152372289,0.1209550351,-0.0075814747,0.1108619496,0.0773811713,-0.0279271789,-0.0051652333,-0.0223053973,0.0040936875,0.0121122021,0.0564213097,0.0532157458,0.058593668,0.0591201037,-0.0009688324,0.0853466913,0.1627537608,0.0339683108,-0.1439314187,-0.0488990545,-0.0357123837,0.0021086277,-0.0458265617],[-0.0026152204,0.1384043545,-0.0129080825,0.024483012,-0.1823576391,-0.0574551895,-0.1672252119,0.1945393384,0.0094550252,-0.066554524,0.0578555875,0.0193805601,-0.3143089116,0.0220890474,-0.0479266122,0.0447160937,-0.0520832054,-0.0987398699,-0.1398589611,0.1375524104,0.2339992523,0.0003894977,0.0120932013,0.0654128492,-0.0159852542,0.0061221235,0.0468906984,0.1407353431,-0.0199049097,0.020169884,-0.0842818245,-0.1515808851,0.297036171,-0.053758163,-0.0783127993,-0.0149438446,0.0515841879,0.0141784186,0.0397762023,-0.1049350649,-0.0221250821,0.0131928856,-0.0344297849,-0.0470493734,0.2619754076,0.0303387996,-0.06980782,0.1096062064,0.3540717065,-0.158680141,-0.0258819554,0.1894050986,-0.0279091746,0.1999065578,0.0727481917,-0.0188614707,-0.0352770835,0.0142707461,-0.0024375794,-0.0769609734,0.0488284342,-0.064806141,0.1142400578,0.0437064953],[0.0591918491,-0.0419385545,-0.0248376299,0.1268163323,0.0700384155,-0.0286741965,0.0348887369,0.0618236288,0.1808926612,0.0396909788,-0.0825084075,0.0096579194,-0.1412044913,0.1332070976,-0.077854991,0.0138007458,0.0647272766,0.0656297132,0.0147842281,-0.0098290471,0.0065682516,0.0040180683,-0.0313494243,-0.1467868686,0.0191168115,-0.0076678949,0.0149600161,-0.0143935457,-0.09617351,0.0625216216,-0.0329178236,-0.072522305,0.0546847023,0.111503087,0.0812706053,0.0922867209,-0.163310349,0.0408831984,0.0839426592,-0.0093167108,0.0181323513,-0.0763158053,0.0521374159,0.0144143421,-0.0047726696,0.0730609,-0.0190650281,-0.1079615057,-0.0592353232,0.0713044256,0.0019577504,-0.0121196816,-0.0054645687,-0.0678477436,-0.0076699955,-0.0571108423,0.023280751,-0.1351418495,0.0773900971,0.0552595444,0.0432883464,0.0103959078,-0.0720456988,0.0785360187],[-0.0601001754,0.0937110186,0.0614440031,-0.0102431988,-0.1096482649,0.0346321948,0.0439685211,0.0403113626,-0.0322263986,-0.032636337,0.0195320025,0.0841296837,-0.1635064781,0.0129571306,-0.0079398463,-0.0192044787,-0.0469856896,-0.0556504354,-0.1573321223,0.0129594021,0.1029932946,0.0548201986,-0.0305417515,-0.0308316126,-0.1051300913,-0.1394377053,-0.0095651504,-0.0268484298,-0.0491222143,-0.0000892949,0.1033957973,-0.1071439087,0.0133354645,-0.0352970883,-0.0859525427,0.0048268489,-0.162546277,0.0159724448,0.0035227018,0.0227184426,-0.0839796141,0.1252895445,0.1925413162,-0.0256032515,0.0763457939,0.2234520912,0.1693292111,0.0073777772,-0.0405618101,-0.0278371647,0.0858860686,0.1330882013,-0.0787480995,-0.0078297397,0.1486543715,0.1841164678,0.0672415718,0.0141637838,0.0345318951,-0.0973021835,-0.0414747931,-0.0324474722,0.0366248861,0.0035660157],[-0.0161669496,0.0843894929,-0.0059664543,-0.1032849923,-0.0007992304,-0.0523975044,0.0624315962,0.1198957711,0.0463992991,-0.0279282499,-0.0077719321,0.05735863,-0.110146299,-0.0412519611,-0.0055160145,0.0820125192,0.1016949713,0.0689213127,-0.0040060463,0.0897657648,0.1192643419,0.0246551465,0.0383065157,-0.0091700014,0.0329189412,-0.0726586357,-0.0927699357,0.1399411559,-0.01628986,-0.0489759482,0.0018102555,-0.1018662229,-0.0019638385,0.0406311117,-0.0719177201,-0.0403183959,0.0911401361,0.0071892189,-0.0400244892,0.0141105065,-0.0473347045,0.0105615323,0.0695374906,-0.0299791526,0.1010682657,0.0522983745,0.0309363846,0.0953081399,-0.0029318244,-0.0573146492,0.1078298166,0.076769881,0.0470300168,0.0463227592,0.0508948229,0.1153198332,0.0219039489,-0.0465646796,0.0278830063,0.0298599843,-0.0716221482,0.0020250296,0.1416133642,-0.0701439306],[0.0265412219,-0.1127866283,-0.0475689396,-0.093327187,-0.0197476894,-0.1179891527,-0.0106916418,0.0528792366,-0.048815839,0.1185346544,0.0091575924,-0.0720328689,0.0150393639,-0.0335580371,-0.1145454273,0.1483668685,-0.0589110069,0.008333331,0.038018927,-0.1075513288,-0.0855726153,0.0786272809,-0.1075509787,0.0450762287,-0.150614053,-0.0143691674,0.1893174946,0.0217520706,-0.00410219,-0.0299459454,-0.0021352754,-0.0814177617,0.0351338089,0.0274750907,0.0124976663,0.015251793,0.0302667171,-0.1009631902,-0.04088315,0.0362959318,-0.0301207118,-0.0647312403,-0.0515529253,0.0075545572,-0.0015217013,-0.0970719606,-0.0203856211,0.0070848218,0.1154441461,-0.040351931,-0.0013582362,-0.1201313287,-0.1047901362,0.0010910138,0.0253085922,-0.0620298721,-0.0994139239,-0.0666991323,0.0881745517,-0.0686676353,-0.0979085267,-0.0060306564,-0.0734235123,-0.0161766782],[0.1618586034,0.1098690033,0.0158712342,-0.011678081,0.2130073011,-0.0990047306,-0.0537031591,-0.0783528239,0.0349052884,0.0970716923,0.1326616257,0.0259416513,0.0361265689,0.0032479204,0.0179057866,-0.0378115401,-0.0307074431,-0.0258279257,0.0395098925,0.046351932,0.0601696149,0.0252568014,0.0879127532,-0.1208998561,-0.080444783,-0.0522156656,-0.0950723067,0.1604743302,0.0524994954,-0.020137541,0.0010647917,0.0549948849,0.0705596507,0.119931519,0.0968712717,-0.0675545707,-0.221538052,0.0282185096,0.0189496037,0.1436250955,-0.0231975857,0.0185518935,-0.0175502021,0.1330175251,-0.0928895324,0.081529133,0.091312997,0.026538169,-0.0206009075,0.0533346012,0.09530738,0.0602860078,-0.0249465182,-0.0464084409,0.1291257441,0.0615550764,-0.2075145245,-0.0599835888,0.0269012861,-0.0650224537,0.0483589657,0.0099616013,-0.0634900928,0.0131731899],[0.1263578236,0.0331895985,-0.0988114476,-0.0482491441,-0.123108685,0.0127780288,-0.028000975,-0.0307202674,-0.0021828187,0.0461684875,0.0749628544,-0.1024316177,-0.1015438139,0.0313854441,-0.020578159,0.0442702435,0.0806427225,-0.09925396,-0.1522323787,0.0162354112,0.1522487253,0.003068195,0.043400187,0.0701929703,0.0550631508,-0.0826229081,0.0479090475,0.0397469848,-0.0637960136,-0.0327224955,-0.0797820315,-0.1418849081,0.06409996,-0.139998585,0.0079637514,0.0007033912,0.0082480302,-0.0099568525,-0.0548034012,-0.0488784313,-0.0421177112,-0.0305196848,0.0369428322,-0.0361417346,0.055748608,0.0099555701,-0.0892335922,0.1284724176,0.2067473531,-0.0498948172,-0.027818542,-0.0039932672,0.0480780564,0.0643516928,0.03917877,-0.0430813618,-0.1691498011,-0.0420122184,0.0370120928,0.0794278383,0.0627999231,-0.0504624434,-0.0634941235,0.0248111989],[0.0401932634,0.0252573732,-0.0877777338,0.0825471506,-0.0708934069,0.160344407,-0.0105322096,0.0698083267,-0.0778824985,-0.0485671014,0.063958697,0.0935632586,-0.0832562745,-0.0205323864,-0.0120145213,-0.1759685874,-0.0008805719,0.020559812,-0.129036054,0.1166786775,-0.0122123072,0.0144844176,0.0663989037,-0.03479838,-0.0206122883,-0.0925105885,-0.0403227322,-0.0493638106,0.074042514,0.0455585159,0.0260472782,-0.0686971545,0.0888676867,-0.1622160822,-0.0517751649,0.0252141897,-0.0220308341,-0.0161710009,-0.1196594909,-0.0124205668,0.0440031998,0.0066549489,0.002718508,-0.0570929423,0.0163744725,0.0497864969,0.0143026765,0.033508718,0.0059106289,-0.1035808697,0.1035619974,-0.0363881849,0.0167046301,-0.0101625323,0.0808608457,0.0821318552,-0.0322178379,0.1112282723,-0.1191029474,0.0572748668,0.054314252,0.0059225182,0.1123960242,0.035108462],[0.0699469671,0.0333999246,-0.0345238335,0.0789674371,0.0807160288,-0.0101308739,0.0582586713,-0.1131578237,0.0575933941,0.1703175306,-0.0037587839,0.0286852624,0.0983834341,0.0992128029,-0.1385145932,-0.1258083731,0.0395022482,-0.0354665667,-0.0669072941,-0.0378750227,-0.0340351276,-0.0255510285,0.0160484593,-0.0498541333,-0.0220207144,-0.0329440087,0.0074240575,-0.0576410219,-0.0535616465,0.014168784,0.0276272967,0.0315530151,0.0459586419,-0.0188218281,-0.0349314585,-0.0176468529,-0.0344136357,-0.0650773719,-0.1215082034,0.0586932749,0.0237786416,0.0619462468,-0.0235570017,-0.0407639071,0.0342528448,-0.0103339991,0.0371520184,0.0615130104,0.05494323,0.0251758266,-0.0461277701,0.0087887552,-0.0277079847,0.038239371,0.0462554395,0.0402249284,-0.112859033,0.0361466482,-0.0645923689,0.0172137413,-0.0367039777,0.0283705108,-0.1371817589,-0.0498013273],[0.1184459403,0.0347586162,0.0220123529,-0.0287345387,-0.0253229439,0.0518646426,-0.0769304484,0.051942911,0.0152484691,0.078733623,0.1265370697,-0.0831781328,0.0133609641,-0.1011683568,0.065726921,0.0082308855,-0.0674958527,0.0711129755,0.0166359078,0.0562458113,0.009247114,-0.0844933987,0.0629855245,-0.0096902326,0.0159771387,0.0231579989,-0.10795445,0.1674016416,-0.0446522087,-0.1072294787,0.0762743726,0.004235568,0.1077343598,-0.0077688019,0.0598681718,-0.0879943594,-0.0442236699,0.0268628765,0.0405934863,0.0099564791,-0.0817726701,0.0107301539,-0.0763368458,-0.0427286252,0.1011309102,-0.0543716811,-0.0546844378,0.1589193493,0.1437159032,0.0597919971,-0.0089398175,0.0295586661,-0.0039285435,-0.0771742538,0.1095086336,0.1215672567,-0.0097126393,0.0129053844,0.0919870958,0.0472024195,0.0632552877,-0.0681318268,0.0403137654,0.039945785],[0.1231208593,0.0934565067,0.0993619189,-0.016938217,0.0628479794,-0.0994670615,-0.0083630616,-0.0150923692,0.0358957388,-0.1366474628,0.0006773387,0.0695003197,0.0689603761,0.0097650904,-0.0073995353,0.1535102278,-0.1040153354,0.0327686556,0.1077526882,0.066982083,-0.0531416982,0.0322030671,0.0486471877,-0.0678335801,0.1033237651,0.0966492072,-0.0682634041,0.2088518441,-0.0536497496,-0.0790203214,-0.0127550829,0.0429948196,0.0972829238,0.1900906414,0.1347345859,0.0240848456,-0.0126605202,0.0071638422,0.0663291886,0.0344102792,-0.0087684775,0.0181400161,0.0284095127,0.1129427925,0.0686434582,-0.0280646719,0.03507936,0.0493589453,-0.0830091983,-0.0164237097,-0.0541277155,0.0643411502,-0.0018103553,-0.0105679939,-0.0696224272,0.111427635,0.0332355238,-0.0181376003,0.1527018547,0.023883123,0.0041518472,0.0881207809,0.1615026742,-0.0557889789],[0.0868800953,0.0396781415,0.0256758686,0.0383456387,-0.1159540564,0.0198493954,-0.022634184,-0.0343316495,-0.0350135937,0.1057934612,-0.0080396831,-0.0128613813,-0.1226076558,-0.0092190197,-0.0076948474,-0.0161496848,-0.0662097409,-0.0922355577,-0.0631111413,0.0307962988,0.0063604992,0.120241791,-0.0068611326,0.1068918854,0.0299892779,0.0829643682,0.1097980365,0.0051591168,-0.0504153073,-0.0193444546,0.0270402879,-0.0813623667,0.092600286,-0.0700115561,0.0110312887,-0.0776815042,0.0012655869,0.0048893769,-0.0582871065,0.044224564,0.0008734444,-0.1127026156,0.0042010681,-0.0400936417,0.0851554573,-0.0119936122,0.0374464355,0.0279915147,0.1736576259,-0.055419758,-0.0325298868,-0.0655196682,-0.0666187257,0.1156238541,0.0156376418,0.0278746225,0.0006003866,0.0602725558,0.1548721343,-0.0094657643,0.04293295,-0.0731362328,0.0540741012,-0.0272340104],[0.0187427886,0.0676409528,-0.0489981323,-0.0515216552,-0.1354591697,0.0997341797,0.0423833542,0.0929634348,-0.0631859526,-0.1149400845,0.0698825493,-0.0143805817,-0.0447670147,-0.0296195708,0.0486869961,0.1189367324,-0.0004742489,0.0128527358,-0.1248024926,0.1425949037,0.1202652976,0.0289463904,0.0674031079,-0.0203803442,0.0653904751,-0.032663662,0.0453530364,0.1052090526,0.118578665,-0.0143836578,-0.0551425442,-0.1112622768,0.1889061779,0.035700351,0.0556152165,-0.0563744493,-0.0960412621,-0.0218449645,-0.0949687585,-0.0647608712,0.0384150334,-0.0760040879,-0.0263427943,0.0210468452,0.1572841257,-0.0722600892,0.0226681847,0.0227290299,0.1608157754,-0.0458719917,0.1209589019,0.0528418347,0.0571108013,0.1739676744,0.0806539804,0.0394323766,0.0005922788,0.1358955353,-0.0254767556,0.0514699817,0.1036616266,-0.0092811426,0.1672274917,-0.0085285353],[0.0709066913,0.0095242457,-0.0182131827,0.0637129918,0.0101775872,-0.0021847826,-0.0189426094,-0.0615079887,-0.0547419414,0.0783668756,0.1264330447,-0.0660991222,-0.1012734026,-0.0021309077,0.0079838149,0.1317699403,-0.0798628107,0.0178419221,0.0381816998,0.0263935551,0.1061725095,-0.0291346163,0.1205684319,0.0337305404,-0.0573471151,0.0735423937,-0.0052039693,0.1174014658,0.0309909265,-0.032275185,0.008287495,-0.1250565648,0.1550735235,-0.0306334458,-0.0900124237,0.0254586563,0.0520322509,0.0150649156,0.055805441,-0.0481122732,0.0671005249,0.0052463869,-0.0587142184,-0.0661615878,0.1555094421,-0.0687319115,0.0759184882,0.1635682732,0.1518087089,-0.0042535048,-0.0102210185,0.0294257253,0.0181341693,0.0060387864,0.0984355807,0.0840746835,-0.0246818699,0.0993685052,-0.0769502372,0.0656003058,0.1155341417,0.0237892717,0.1252055019,-0.0239854697],[-0.0080036782,0.0523481667,0.0082240831,0.0672541261,-0.0820313692,-0.0163294375,0.0905259922,0.0565193594,-0.0254871622,-0.0745468438,-0.0652256906,0.0666927248,-0.1178894415,0.0453404076,0.011766539,0.06187113,-0.0393304676,0.0238135923,-0.0425521806,0.0132642938,-0.0339269377,-0.0808485672,0.1183003634,-0.071889542,0.0090625277,0.0116990265,0.0045701256,-0.0241079424,-0.0106127616,0.0047736405,-0.071777828,0.0091472883,-0.0533831641,0.0536076985,0.0032817838,0.0472490676,-0.0819480345,0.0868084505,0.040619757,-0.0011983016,0.0507797673,-0.0177165531,0.1469342262,-0.0424234569,0.0047363327,0.0464073718,-0.024804024,0.0052567539,-0.0785327256,-0.0313672945,0.0486503989,-0.020564083,0.1251901686,0.0798583478,0.0048890077,0.09608493,0.117007874,0.1172217727,-0.0648443401,-0.0606232435,-0.0068997024,0.0242388193,-0.0181430187,0.0728015378],[0.0348255187,-0.1140931174,-0.1449580789,0.1380018443,0.0491675548,0.1126085073,-0.1810028106,0.0624215007,0.176195696,-0.048369348,-0.1095800996,-0.0292181224,-0.0022043777,0.1897892952,0.1237768531,0.0593962111,0.0276365709,0.0699597448,0.0771640167,-0.0212546717,0.0772551,-0.120081313,-0.0345484018,-0.167587921,0.0497392192,0.0545344129,-0.1336259246,0.107231237,-0.1197514385,0.1029726639,0.0426638648,-0.025108058,-0.0461517461,0.0591972433,0.0586738475,0.2093527168,-0.0839466751,0.0200808961,0.0694712847,-0.0434353352,0.1866839975,0.0216147322,-0.0483968779,-0.0288886912,-0.1156052873,0.0068009398,-0.0129393442,0.0094880303,-0.0423502512,0.144630149,0.0652255043,-0.073442623,0.0932515636,-0.2287034094,-0.0475443862,-0.0359925404,-0.0154073751,-0.1968701929,0.1019040346,0.1532559246,0.0529369712,-0.0262026452,-0.1108810902,0.0088392552],[-0.0377529487,0.016780138,-0.0666986629,0.0145113328,-0.0666068345,-0.0461971946,-0.0430651344,0.0265937336,-0.039937105,0.1073686406,0.0789127499,-0.0957082734,-0.0407129414,-0.0752741098,0.0128711862,-0.1023579612,-0.0254472215,-0.1515385956,-0.0690557286,0.0652420074,0.0544258952,0.0875257552,-0.0525378771,0.1264050305,-0.0908462852,0.0712174177,0.1547131538,-0.0272113699,0.120342955,0.0164338741,-0.0635292307,0.0142049203,0.0264093652,-0.1596075296,-0.0239202455,-0.1202946678,-0.0843062624,0.0750887394,-0.0681875274,-0.0371940285,0.055598218,0.0446624346,0.0052470127,0.0469897166,0.0541234128,0.0599253625,-0.0005621605,-0.0016617839,-0.0244085863,-0.0108898561,0.0749709606,0.0563306808,-0.039107684,0.0673869774,-0.0307001416,-0.0518513955,-0.0332363173,0.1661333442,-0.0803813711,0.0505844317,0.1254476011,-0.0042244103,-0.0807946175,-0.0184549075],[-0.0232161693,-0.0637994334,0.1258817315,-0.0324616209,0.0846003741,-0.1767187566,0.1112165302,-0.1379809976,-0.1134011522,0.0478722155,-0.0188880954,0.0738133863,0.066777952,-0.0537129752,-0.1499661356,-0.0872004628,-0.1012691259,-0.1726201922,-0.0121775204,0.0070042987,-0.1076884717,-0.0280233286,-0.0162811168,-0.1393232346,0.0137026152,0.0711597204,-0.0165611971,0.1506227106,0.06604857,-0.0830298588,0.0882024318,0.1454939693,0.1130939201,-0.0098820729,0.0893346146,-0.0730009452,-0.1342948377,0.035235852,0.0463555902,0.2383466959,-0.0698785633,-0.0059665106,0.1027178094,0.1087107137,0.1167492196,0.0536324307,0.0116832405,0.1083047315,-0.1281846166,-0.1560336947,0.1139993966,0.0658204481,-0.0369959511,0.0411124155,0.0512833148,0.1015090272,-0.0354358181,0.1133533716,0.03280247,-0.0809189379,-0.078112781,0.1451891512,0.0643590987,0.0030714066],[0.0080216918,-0.0436699502,0.0115139605,0.0668494925,-0.0826347023,-0.0385243669,-0.0212401021,0.0047318726,0.0511527359,0.0275447555,-0.0177756362,-0.006310049,-0.0295445304,0.004506743,-0.0288230125,-0.0805200189,-0.0039757956,0.0541570708,-0.0790864825,-0.03721264,0.1015044302,-0.1156265661,0.0718457848,0.0250037257,0.010174077,0.0576922745,0.0141104981,-0.0545600839,0.0647538304,-0.1104574203,-0.0130001167,0.0185216218,-0.0377683751,-0.0837610289,-0.0411024056,-0.0790519789,-0.0589004457,-0.0420891009,0.0076304334,0.0273401719,-0.0030786055,-0.0499746241,0.0077817943,0.0030890675,0.1301803291,-0.0333645865,-0.0032872767,0.0689772293,0.0180152282,-0.0607686266,0.129901126,0.0437975973,0.1535363793,-0.0540994145,-0.0733497143,0.0937134847,0.0626421422,0.125537321,-0.0030375419,-0.026444871,0.0061733285,0.12396501,0.0376173332,0.085337773],[0.0125380522,-0.0757796019,-0.036197342,-0.0055373949,-0.0897139683,-0.004347919,-0.092791602,-0.1286707669,-0.0162917227,0.2189844102,0.0163502395,-0.1190038472,-0.2288962901,-0.0196875557,0.0433390401,0.0680107474,0.0465856194,-0.0603354983,-0.142574802,-0.0414317511,-0.0394920297,-0.0286751129,-0.0028800645,0.0215967465,-0.1478549838,0.036608018,0.1087694019,0.0227496959,0.0256074667,0.0174297467,-0.1166376695,-0.1409589797,0.0553971715,-0.1534146518,-0.0284295715,-0.0171759278,0.0104894266,-0.0397705361,-0.0573955961,-0.0117251147,0.0345652513,-0.0754147694,-0.1117306203,0.0757005513,0.1980315,0.0283488519,-0.0461188927,0.2006577104,0.3021642268,-0.0201573446,-0.0376047231,-0.1217271686,-0.0271767639,0.0226286929,0.0446935818,0.0916519389,-0.1308049709,0.2891287804,0.0933606401,-0.0208979435,0.1655360162,0.0995620415,-0.0207896829,-0.0302529018],[-0.0603823438,0.0279410984,0.040795885,0.1232747957,-0.0187702067,0.0483344048,0.0586164296,0.005862372,-0.0125336507,-0.0017189209,0.0280377083,0.0119932862,0.0572575107,-0.0263910592,-0.0589095876,-0.1030424312,-0.0430860147,-0.1559687257,-0.1150498614,0.0158671848,-0.0246221684,0.0252424497,-0.0036498313,0.0244221054,0.0267112255,-0.0428142175,-0.025552338,0.007335044,0.0159619041,-0.0490484461,-0.0829338282,0.0355316512,-0.0067323982,-0.0496763475,-0.0678024963,0.0199275408,-0.0587903112,-0.029051628,0.0038545283,0.0392717235,0.0772259533,0.0659428984,0.0265000686,-0.0808601454,-0.0280473791,-0.0484031439,0.0845339969,-0.0525497496,-0.10554827,-0.0815184861,-0.0385504775,-0.0699847639,0.0844937786,0.0340722017,0.0501894839,0.003558943,-0.0260243528,0.143914789,-0.0234853029,0.0301375017,-0.0546722226,0.1109600514,-0.0606862083,0.0056416239]],[[0.0097968969,0.03751361,0.0273483675,0.0779215619,-0.0987066552,0.0776226074,-0.1978832334,0.044903703,0.0837426335,0.1999519914,-0.0299479067,-0.1399897188,-0.1079684347,0.0930340067,0.0528995432,-0.1322966665,-0.0259365123,-0.0298533458,-0.1308240443,0.1471761614,0.0881565064,0.0637049899,0.0792473853,0.0499656349,-0.2046972066,-0.0151679832,0.1482228488,-0.1200888976,-0.1447590292,0.061795976,0.0621480197,-0.0754348859,0.1418230087,-0.1182999015,-0.0457231142,0.0461110398,0.0114471149,0.0618384369,-0.1421458721,-0.1954293102,0.073227033,-0.0612182803,-0.0153305614,-0.0850357115,0.020567866,-0.0020588471,-0.0718558282,0.0676367953,0.1718271226,0.0412610322,0.1127228662,0.1908803582,0.0836710706,0.0424064435,0.0039650742,-0.0549717173,-0.0693443865,0.2170567214,0.0515418053,-0.0139518268,0.1619044393,-0.0836229473,-0.0432643294,0.0600440986],[0.1433372349,-0.0692428499,-0.1012616232,0.0938766152,-0.0582075417,0.1122015268,-0.0984262004,0.0304578375,0.1271849126,-0.0175251085,0.0201359876,0.0419934727,0.002082905,0.1590327621,-0.0705093369,-0.0058970521,0.0227901526,0.1366114169,0.0476932861,-0.0179640166,-0.0231207665,-0.082051225,-0.0385766998,0.0184758063,0.0576585457,-0.0996288657,-0.0593291782,0.1450490654,-0.103489317,0.2166946083,-0.0825824812,-0.0043874229,-0.0555058457,0.0203799307,0.0576711446,0.1152603179,-0.051361952,0.0585656054,0.0537089594,0.067562677,0.0843702257,0.0645082667,0.0542188846,0.0274011269,-0.0993873775,0.0306660756,0.0743255168,-0.0598648079,-0.0354028232,0.1386075914,0.0375020467,0.0069974889,-0.0099931648,-0.1268641949,0.0088713448,0.0722708479,0.0231669564,-0.2318343222,0.0296834372,0.1756333411,-0.0267970432,0.0055652931,-0.1023277491,0.1283523142],[-0.0316816643,-0.0369438268,-0.1059436724,0.1108520776,0.1124208197,0.0612915643,-0.114153184,-0.0628636628,0.1735203713,0.0777283907,0.0464663953,-0.0050842301,0.0000749761,0.1924062967,-0.0831958428,0.0032846739,0.0451612994,0.0330927745,-0.019630041,0.0192145985,-0.0435541011,0.0071726358,0.0306665134,-0.0227946416,0.0006326636,-0.0310506895,0.087731123,0.1094865873,-0.0125775421,0.1811409593,-0.0674459785,0.0780168623,0.0613102727,-0.0261328146,0.0977925733,0.047839608,-0.1145656183,0.0383707099,0.1021698117,-0.0565792546,0.1084191501,0.0376087911,-0.0859534442,0.0521938279,-0.1117552593,-0.0128850341,-0.0518168323,-0.0684875026,0.01990081,0.0083808973,0.0975096971,0.0465118773,0.0830344111,-0.1042020023,-0.0228262376,-0.0063079405,-0.1273465157,-0.1423041672,0.0647931024,0.1340279579,0.0893845707,-0.0272935145,-0.1636523604,0.0502280109],[-0.1175077558,0.0446480513,-0.0297435727,0.0471134298,0.0205066856,0.008761052,0.0579972528,0.0289438143,-0.0802252069,0.0647007078,-0.0479461364,0.0348663442,0.0613910221,-0.0339246467,0.0561044104,-0.0565364361,0.0434320755,-0.0445368737,-0.1659487933,-0.0535928085,-0.0107983649,-0.005867573,0.0486468077,-0.0308064688,-0.0449849591,0.0644491762,0.0162247885,0.0462697148,0.0086271046,-0.1457312703,0.1374516189,0.0883267969,-0.0319223627,-0.0951463282,-0.1027782559,-0.133354634,-0.0692741945,-0.0406099521,-0.1327276081,0.0580945276,0.0282030981,-0.0267392993,-0.0561769605,-0.1018712819,0.035516154,0.0863426998,0.0497225747,0.0353028364,-0.0107875569,0.0945568904,0.0949568823,0.0980799794,-0.047074724,0.1062430963,-0.0456487238,0.0194411892,0.059910249,0.3351944983,-0.1166035384,-0.0981691629,0.0971885547,0.109918803,-0.0546499006,0.1050792858],[0.3317715526,0.074372299,-0.0157714579,0.0290634297,0.2869483829,-0.0261728484,-0.0612854511,0.2023484856,0.064043045,-0.0218765195,0.0952172056,-0.0275398847,-0.0276017208,0.0970034599,-0.0295771342,0.3607372344,-0.0504577868,0.0836954787,0.2921689451,0.0196045656,0.0832129568,0.0029677374,-0.1085361391,-0.0506765097,0.0463482477,-0.0459450409,-0.1036424711,0.2114296556,0.0050564851,-0.007137646,-0.0737920329,0.0711907223,-0.0862455294,0.1885536462,0.2622820735,-0.0551124252,-0.0911387876,0.0144639648,0.0423307046,0.1488354802,-0.0644544512,0.0026053293,0.0177534297,0.0177314412,-0.0300178044,0.0952738747,0.0444063172,0.104506366,0.1097665802,0.1024660915,0.0672972649,0.097953409,0.0924321562,0.0064975666,0.0404097773,-0.0791950896,-0.1620859355,-0.0435168818,0.3409402668,-0.0715319961,0.1841376126,0.1002562344,0.0816199929,0.0735699832],[0.046565,0.0207558982,0.0305622667,0.0419186614,0.0863818154,0.1002254933,-0.0608739443,0.0581619963,0.1254312396,0.0977064669,0.0943066478,-0.0259575583,0.0729095191,0.0342526846,0.0168430284,-0.0205070004,0.0596364364,0.1160715446,0.0135069657,0.1509693563,0.0221311823,0.0732709318,-0.0485327952,-0.024728965,0.0079212431,-0.0597545542,-0.0691807643,0.052506987,-0.0299484525,0.038272664,-0.018262025,-0.0705473572,0.0683964342,0.0874722227,0.0541561209,-0.0253850296,-0.0221235864,0.008502489,0.0498222485,-0.0433071889,0.0572279841,-0.0866450295,-0.0624319017,-0.0070443694,-0.0491018668,0.0842356756,0.0564926565,-0.0040608174,-0.0104736257,0.071190618,0.0355795957,0.110280633,0.0134694427,-0.0583135039,0.1436168104,-0.062365327,-0.1442033052,0.0029053553,0.0316801555,-0.0436648056,0.0619673841,-0.0245713033,-0.0763509944,0.0992900133],[0.3397433758,0.1263560355,0.0254064649,-0.0361669734,0.1420682371,-0.1555635482,0.0394638665,0.2162141502,0.008855992,0.0588914305,0.1316337287,-0.0490138717,0.0435059182,-0.09867879,-0.0148596223,0.3922339976,0.0797762796,0.125639841,0.2151830196,0.052333612,0.0223717913,0.0031881384,-0.0331320502,-0.1145672798,0.1003890187,0.1001193002,-0.0075418102,0.2905427814,0.1200091317,-0.0350963585,-0.0301229116,0.0450502522,0.0744258389,0.1568348259,0.31555444,-0.1258284003,-0.2618865073,-0.121670492,0.1616273373,0.322981149,-0.0546110682,-0.0617173761,-0.0013235274,0.1676395237,0.143390581,0.0385506004,-0.0159710087,0.1115983129,0.0927393883,-0.0426122621,0.1239472628,-0.0697133988,-0.029992668,-0.0221260972,0.0269728936,0.0291158855,-0.1732167304,-0.0686559677,0.3513026536,-0.0631197095,0.0333519168,0.1331451982,0.216495946,0.001274084],[-0.1473543197,-0.0513603799,-0.0210232269,-0.0066150962,0.0625534058,0.0187810753,0.0441588461,0.0629729256,-0.0454528816,0.0519323684,0.0181284752,-0.0264976043,-0.0478651486,-0.0779322237,0.0349755287,0.0607573874,-0.0077721011,-0.1194817796,-0.1184877157,-0.0481966473,-0.0160572529,0.073716715,-0.0257754773,-0.0660889298,-0.0747675896,0.067418091,0.0844179615,-0.0702737719,0.0334301889,0.0006413475,0.0923889503,-0.0259132255,-0.0162221901,-0.03331789,-0.1235078201,-0.0953335613,-0.1458195746,-0.0600282736,-0.0470823757,0.0769807473,-0.0498178266,0.0475917421,0.0692184642,0.0399762914,-0.0332621075,-0.0576854758,0.0560784452,0.1022570357,-0.0407801904,0.0408864096,0.001331703,0.0158842746,0.0215560645,0.0619606636,-0.0171004664,0.0250043198,-0.0450608991,0.2231583446,-0.0602520518,-0.0721110851,0.0265748203,0.0516937152,0.0202606376,-0.064591594],[0.1885464787,0.1107315868,0.0086326106,0.0119490791,0.0711104944,-0.0167364459,-0.049450554,0.1375584602,0.0517385751,-0.036671482,0.0463115871,-0.067595005,0.0257617347,-0.0487422422,-0.0050431713,0.1650437266,0.0786651447,0.0549157932,0.2263940573,0.1427401155,0.0006686413,0.0263325255,-0.0889391005,-0.037936151,0.1013377383,-0.0104610408,-0.1507113874,0.1178333014,0.0809169263,-0.0718237087,-0.0381035507,0.0353780501,0.0311209336,0.0508264415,0.1179406643,0.0145650813,-0.064262554,-0.0790708289,0.0116143245,0.1502791792,-0.0045416518,0.120846577,-0.0550959632,0.0997135192,0.1402679235,0.0505345985,0.0364442617,0.2304967791,0.1507730335,0.1093294919,0.1253436655,0.0394839831,-0.025322048,0.0909814164,0.0141521832,0.0533693135,-0.1351273507,-0.0684969053,0.1251159906,-0.0048313155,0.0179135576,-0.0125473905,0.2547724545,0.0711962059],[-0.0271219797,-0.0559829697,0.0677834153,-0.0105665391,0.2062079459,-0.0307107214,-0.0501324907,-0.0597960576,0.0072969301,0.1061981097,-0.0370475538,0.0492905788,0.1036427915,-0.0216531698,0.1294645667,0.0387858562,-0.0467320159,-0.0628921762,-0.0333492309,-0.0616102628,0.037761271,0.1323178262,-0.067007713,0.0314525776,0.0250390675,0.0014213086,0.1066590846,0.0686118752,0.0883713663,-0.0577571914,0.0449926108,0.1310066134,0.0494972393,-0.0779428706,0.1191066727,-0.0130599169,-0.1728553325,0.0344962142,0.0341276936,0.1467704624,-0.0877510309,-0.1238548532,-0.1169610843,0.0930616409,0.0416394733,0.0366430208,-0.0455254987,0.0168017391,-0.0049418877,0.0517342798,0.01707769,0.021494925,0.1152516529,-0.023548089,0.0148371235,-0.0603957027,-0.128584981,0.2538537383,-0.0055183917,-0.0668650046,0.039026957,0.0541495644,0.0159253888,0.0050556208],[-0.0488576479,0.0631616861,0.1293074489,-0.0358173884,0.0193434283,-0.0631260872,0.0003727523,0.1170542836,0.0682679191,-0.0284780264,-0.1142437682,0.1104479507,-0.1428198069,0.0777545348,0.1275308579,0.1168401539,0.0160052851,0.1109313145,-0.0792874545,-0.0039737197,0.0329691991,0.0262080356,0.0333127044,-0.0586619303,-0.1226141602,-0.0049828258,0.0677763522,0.0880131051,-0.0247903112,-0.1242657304,0.074408412,-0.0327283815,0.0649239421,0.0563279279,-0.1592413485,-0.0898126513,-0.0387667045,-0.0867683813,-0.0500710979,0.0224502552,-0.024974145,0.0576046556,0.15831393,-0.0588724129,0.0923632383,0.0187080875,0.0843978748,0.1251070797,-0.0253973398,-0.0195503812,0.1306252182,-0.0619091876,-0.0270477645,0.1730726361,-0.0862519369,0.110638991,0.0307541098,0.0659390464,-0.0386273488,-0.0556743629,-0.017938504,0.0215879213,0.0936285853,-0.0601079687],[0.0742085949,-0.0222269446,0.2863503397,-0.016536843,0.0754283965,-0.1204000339,0.0698012859,0.0621772371,-0.063548103,-0.1133799776,0.0445134602,0.1221930832,-0.0835296139,-0.0823050365,-0.0297161136,-0.0960633233,0.0112031521,-0.2201683372,-0.1943039,0.1886574924,0.2081373036,0.062202502,0.0353454947,0.0232974216,0.0979713425,0.026978286,0.0946195498,-0.0569667071,-0.0034746993,-0.0166498274,0.1731616706,0.1287062019,0.1203914955,0.015993664,0.0964343026,-0.1951948702,-0.1687867194,-0.0902659297,0.0102840783,0.0887697563,-0.0572860837,-0.055339627,-0.0121858437,0.1290802956,-0.117747426,-0.0923258811,-0.0606998987,0.0177560132,-0.227712065,-0.1873473227,0.0148081137,0.3433114588,0.0034829993,0.2057606429,-0.0492728092,-0.1127001792,0.0254039876,0.146181792,0.0780651197,-0.0600303635,0.0147320861,0.0985212252,-0.0801088586,-0.0573427305],[0.0876688808,-0.0520877801,-0.0930202231,0.1343434602,0.0251188092,0.0872152299,0.0174966585,-0.0711324438,0.1879600286,-0.1056601629,-0.1076011956,0.0663188025,-0.1438480318,0.1679205596,-0.0446501486,0.0926066637,-0.0009879256,0.1070352197,-0.0561596714,-0.0639042854,-0.0420753434,-0.0882215574,0.0114053469,-0.0634347275,-0.0572345592,-0.0111555802,0.0233722609,0.0584357008,-0.0529684499,0.1519487947,0.0750524402,-0.0830171332,-0.0360732339,0.0342272334,-0.0402645096,0.1060995311,-0.0714342892,0.0704180747,0.0226186328,0.0715487897,0.054872103,0.054356344,0.1389285624,0.1135591716,0.0053131394,0.093328014,0.0896267295,0.0022162988,-0.0744342655,0.0879017264,0.1300139129,0.0125887627,0.1328811198,-0.1418177634,-0.0366113,0.0614984594,0.0608504266,-0.1618761867,0.0204865057,0.1860432029,0.0773391798,0.0577158518,-0.0147925746,0.0580891781],[-0.1163714528,0.1768171638,0.0300051291,0.1360409111,-0.1781870574,-0.0907222107,0.0978449956,0.0788229257,-0.0612340569,-0.0168273039,-0.0267460663,0.1246722639,-0.137057811,-0.0401040353,-0.1452223957,-0.031073194,0.0188809428,0.0028042088,-0.0751683936,0.0316369608,0.0128198396,-0.0089525264,0.1158848256,-0.1465114653,-0.0754622966,-0.1591171771,-0.006786372,0.0442003086,-0.1232688501,0.0520521328,0.1901795715,-0.1576972455,0.1599434614,0.0344764926,-0.1112617329,-0.0908784792,-0.1596355438,0.0144288568,0.0401279852,0.0417947695,-0.0476201698,0.2665494978,0.2198703438,0.0904006362,0.1841302663,0.1978154927,0.2608483732,0.0280595422,-0.004444405,-0.0863034055,0.1614043862,0.1319424808,-0.0599981882,0.0051899957,0.1241113245,0.1332437247,0.0130092958,-0.0663057938,-0.0901231244,0.0072012972,-0.1590137631,-0.1324297339,0.1193062589,0.0255281925],[0.1060858816,0.1205586866,0.1172874272,-0.1109248027,-0.1109452918,0.0162019413,0.0432032757,0.0785195902,0.0149661247,-0.0458136275,-0.001662871,0.0157547258,-0.137738049,-0.1009998769,-0.0380967632,0.14244093,0.0341830105,-0.0361830071,-0.0126050003,0.0794532001,0.0636609793,0.0284816101,0.0705245212,0.0512156002,0.0318600349,0.0316572934,-0.0869825035,0.0014267922,0.0442246199,-0.1196814477,0.0743335783,0.0146906404,0.0167954527,0.108838059,0.0254936311,-0.0989461243,-0.0025045178,0.0071494267,0.0417476036,0.0948937982,-0.0674276054,0.0633765832,0.0653906763,-0.0053754505,0.0923153237,-0.0044502933,0.0086310655,0.1655469239,0.0343550332,-0.0581560396,0.1375928521,0.0516845658,0.0598112419,0.1186264604,0.0731526688,0.102737464,0.0309371203,-0.0285629071,0.0133036096,-0.05032878,-0.0119732693,-0.0761098415,0.0631881654,-0.0947761014],[0.0342346728,0.0295040216,0.0620440543,-0.0554119609,0.0826272666,-0.0776397437,-0.1557273269,0.048702132,-0.0001326326,0.1049794108,-0.0646693558,-0.0514084846,0.0067321956,0.0252202637,-0.0063680797,0.0656284168,-0.0738132223,0.0425735414,0.0401634425,0.0276941713,0.1214745939,-0.0174981002,-0.0644122139,0.0965440795,-0.0848137364,-0.0779645368,0.1191795245,-0.0594566911,-0.0802336633,0.1002495512,0.1021666005,0.0360000022,0.1702345461,0.0930100754,-0.0262296293,0.0063467594,-0.0292449277,-0.0103201438,-0.0045830132,-0.0412257276,-0.0537791401,-0.0868543014,-0.0309744328,-0.0652889684,0.0611700788,-0.0016592228,0.036071375,0.0355192125,0.045467563,-0.0172326118,-0.0211701468,0.1649473011,0.00844632,0.0470265411,0.0054437481,-0.0305827521,-0.0730972737,-0.0645136014,0.0028287545,0.0313518271,0.067753382,-0.0347776227,-0.0138621842,0.0219038222],[0.1712213159,0.070363231,-0.0764721557,0.0415122807,0.1446553767,0.0530099794,0.0278575514,0.1848637611,0.0511737242,0.0938053131,0.1104592159,-0.0406891778,0.0293819606,0.067541115,0.0900893137,0.344307512,-0.0513548069,0.2125726938,0.176268205,0.0047957101,0.0085046235,0.0395263731,-0.0785598308,-0.1780689955,-0.1057189554,-0.0352588631,-0.0588682704,0.117029801,-0.1104872152,0.017354859,-0.1147696748,-0.0703321472,-0.012557663,0.0864617899,0.0952606872,0.0669148862,-0.0676137283,0.0462886915,0.0736752376,0.1033857539,0.0347989984,-0.0424932986,0.0676854774,-0.0223134663,0.1685926318,0.1116068438,0.0479174331,0.0938406661,0.2464706302,0.2608291507,0.0825454667,0.0569277145,0.0143928379,-0.0444467179,0.1565574408,-0.012148926,-0.2292101085,-0.0608401,0.2598347366,0.0031858333,0.1198172867,0.0783354416,-0.0100960359,0.1100674868],[0.0566537045,0.0811905861,0.0464976765,0.0746878088,0.0996574238,0.0507136397,-0.0301724058,-0.0452999547,0.0045278105,-0.0001013092,0.1412721276,-0.0663558468,0.0314857662,0.0852339193,0.0384576097,-0.1201412678,0.0906354785,-0.11020758,-0.0661046878,0.1156605408,0.0494444557,0.1411477476,0.0479671545,0.0582051314,0.0170689803,0.0592549369,0.2109532803,-0.0217139795,-0.0279901214,0.0268646553,0.1091387644,0.1416036338,0.0131231714,0.0246509742,0.0569489188,0.0374868102,-0.1894774586,0.0273924265,0.0062871296,-0.0084641129,0.0747142658,-0.1219372824,0.0615791567,0.0826744065,-0.0958037451,0.0349410474,-0.0730012655,0.0924285576,-0.098425135,-0.0977829173,0.0270619914,0.207848087,0.0862197503,0.0297374446,0.1497727185,-0.1000554785,-0.1761962324,0.1184736267,0.0329118483,0.0988894254,0.0206273552,0.1381531358,-0.0269603953,0.0380141363],[-0.0370524637,0.0957602635,0.1095415875,-0.0225540679,0.133657828,-0.0305465832,0.0147010265,0.0536995679,-0.1256976724,-0.0103811603,-0.0019729757,-0.0220973399,0.0559728742,-0.105952777,0.0763377324,-0.0550882705,0.0604734011,-0.0168415178,-0.0617497861,0.0918647125,-0.0111958878,-0.0017902295,-0.0709830821,0.053662248,0.0858166739,0.0051426124,0.0928572342,0.0107300496,0.0400968529,-0.0652751252,0.1306039244,0.134568572,0.0044618868,0.0358241089,0.1085211188,-0.0764163211,-0.0669389591,0.0360399559,-0.0389210172,0.018517863,-0.1248201951,0.0532946847,-0.0630543306,0.0902164355,-0.0258556698,0.0851862505,-0.0100242579,0.0333452895,-0.0548916906,-0.1012512147,0.0391050801,0.1197053641,0.0193265267,-0.0764019787,0.0220975224,-0.1098265946,-0.1473073214,0.1587957293,0.0315254964,-0.0578167364,0.0618716292,0.1730515212,-0.0520864651,0.0842888281],[0.0022555217,0.0684398711,-0.0615447797,-0.023918692,0.1225778461,0.1160405874,-0.0600650609,0.0537927449,0.0689022467,0.1621955633,0.0238917787,-0.0793600753,0.0137647642,0.1233096421,-0.0901021287,0.0250160955,0.0748686418,0.103774108,0.0705938637,0.0077870246,0.0423431396,0.0834587738,-0.147701785,0.0127255712,-0.0964829847,-0.1039783508,0.021647701,0.027737854,-0.0740776435,-0.0061452114,-0.0198509619,-0.0831364468,0.0974850357,-0.0255201198,0.0274725221,0.0538682006,-0.1111826897,-0.034214329,-0.0492293835,-0.0126837958,0.0339079611,-0.042174466,-0.0066504516,-0.0433877967,-0.0661228895,0.031621363,0.0356681794,-0.0669930652,0.0576559491,0.0435367934,0.0672858432,0.0792000666,-0.0210858975,-0.068612963,-0.0092405053,0.0589185357,-0.0859121978,0.0358262807,-0.0504491255,0.0372641832,0.0285893809,-0.055325672,-0.0390760638,0.1003725082],[0.0652444065,0.0000715127,0.0149172535,0.0142431762,-0.0515651479,-0.0703264624,-0.058306817,0.1253511161,-0.0714545771,-0.0333187021,0.1361894757,-0.1402887553,0.0351023711,-0.0662142113,0.0864717364,0.0456992798,0.063780047,0.1218607798,0.0322172605,0.0858753622,0.0482000411,-0.0493292697,-0.0459187478,0.0102875717,-0.016173942,-0.0326502696,-0.0955033675,-0.04118995,0.0700136274,-0.0089570042,0.0355259962,-0.0735536739,0.0392098986,0.0646401197,-0.0031924236,-0.052154541,0.1237329915,0.0669455677,-0.0059374007,0.0467990227,-0.0365956016,-0.0711941347,-0.023520913,-0.024877524,0.1595347375,0.0697685555,-0.087452203,0.079612121,0.0847148076,0.1359202266,0.0887691155,0.0647053421,-0.0537173077,0.0845499858,-0.0157876052,0.0442995615,-0.0737297982,0.0449406616,0.1391073018,-0.0113510685,0.0660878569,0.0302509218,0.1241871789,-0.0259358138],[0.0950166658,0.157390058,0.0302962065,0.0340402499,0.0249073673,-0.0784539059,0.0751060098,0.1859785318,0.0270689055,-0.0604997277,-0.0542887487,-0.0557220019,-0.0554756969,0.0266128499,-0.0064942646,0.2986322939,-0.0095234131,0.049890276,0.1847600341,0.0410247073,0.0889200568,-0.0120396456,0.058657553,-0.0519392416,0.0759415701,-0.0008770649,-0.0288153049,0.1550329924,-0.0125133349,0.0225879308,0.1049123779,-0.0870267972,0.0094608245,0.1943634003,0.0097985715,0.0653890669,-0.052171804,-0.1274714321,0.1654011011,0.1351259649,-0.0524576046,0.0355732292,0.0079180868,-0.0116826613,0.129853338,0.0546694957,0.0636297688,0.1512224823,0.0297175758,0.0459834486,0.0492063351,-0.0351877883,-0.0645142794,0.0104322974,-0.0301855281,0.0333137251,-0.0701264068,0.0127728693,0.170353502,-0.117220901,-0.0044417768,0.1126028672,0.103008464,0.0803618729],[-0.014909979,-0.0769618452,0.1799911708,0.0076121469,0.0636948496,-0.0791922659,0.0155958533,0.035741441,0.0031574306,0.0187405311,-0.0742627904,0.0097569544,0.0153159965,0.0560017787,-0.0101969494,0.0078646019,0.0259613022,-0.0363975763,-0.1070026681,0.0632973313,0.0503304526,0.1211008132,-0.0315814838,0.1008157879,0.0375929773,0.0530759208,0.110273622,0.0035604124,0.0260871276,0.0426276512,0.142906487,0.1665906161,-0.0221808888,-0.0434959903,-0.0290139429,-0.1025082096,-0.1134887412,-0.1630143523,-0.0377187468,-0.0019537869,0.0321625769,0.0063288007,0.0682563633,-0.0324097797,-0.0674240366,-0.0592669807,-0.0956326127,0.0637957305,-0.0007101549,-0.1332338303,0.0849209428,0.1333179772,-0.0594988652,0.1694179326,-0.1294514239,0.0725868344,0.0077763484,0.0988751799,0.0032449006,-0.0486158952,0.0141086634,-0.0219866242,-0.1287908554,-0.0419184305],[-0.0850468576,-0.0011566307,0.0770079643,0.0146337403,0.0918525904,-0.0493493155,-0.0028623692,-0.0402995348,-0.0597151555,-0.1234454587,0.0551890619,0.0336410068,0.0081779296,-0.0626617596,-0.0159186721,-0.0126721049,-0.0112933191,-0.0441038869,-0.1341964453,0.0129629159,0.1272953451,0.0588904433,0.1659948379,-0.0071365633,0.0082753142,0.0522924885,0.0038804098,0.0838501006,0.2075939327,-0.0489815027,0.2248892635,0.049698133,0.1156383455,0.1115426123,0.1054785922,-0.1369724125,-0.0277025383,-0.0586425923,-0.0200352427,0.2147741169,-0.0716840625,-0.0776996166,-0.0204993598,0.0394500978,-0.1248372495,-0.0991623625,-0.0047264271,0.0576974638,-0.2303467095,-0.129306972,0.1783415079,0.1951118559,0.0124741066,0.1149524897,0.0772462934,-0.0283198375,-0.0588927791,0.2296572328,-0.0280708019,-0.0883225054,0.0726756752,0.1297603995,0.087205641,0.0598034337],[-0.0455735959,0.1143295467,0.0267776847,0.0346314609,0.0365015827,-0.0407032408,-0.1533652395,-0.0330169015,-0.0810114592,-0.0251090899,0.0860152245,-0.0619953647,-0.1027596518,-0.0187915694,-0.0108079622,-0.02395216,-0.0541299246,0.0372588411,-0.0077043348,0.104261063,0.1757046133,-0.0605562665,0.0490587242,0.0604419336,-0.022500718,0.0520512201,0.0834760889,-0.0852680355,0.0835475847,-0.1216290519,0.0512196645,0.0480271988,0.0573946834,-0.0698272511,-0.0016482673,-0.0490574576,-0.02536132,0.020417599,-0.0835764483,-0.0696650445,-0.0502647161,0.0323612802,-0.0646470636,-0.0486466512,0.0792302489,0.0918268561,0.0623596609,0.0409256369,-0.0270596799,0.0405978672,0.1194521263,0.1372243017,-0.0170517769,0.1354974061,0.0316107459,-0.1002423093,-0.0138317263,0.1319303662,0.037041951,0.0001711501,0.0136667686,0.0546085872,0.0486114807,-0.0225788224],[-0.1257778704,-0.0027867793,-0.0067265322,-0.0119101591,0.0131994532,0.0384654067,0.1384095848,0.0024160859,-0.0257169455,-0.025588477,-0.0364852063,0.087093845,-0.0048209224,-0.0357482843,-0.017374564,0.0008676644,-0.0210889243,-0.006055057,-0.1080206335,-0.1294434071,-0.0773805603,-0.0261762701,0.1125595421,-0.0647179335,-0.005748143,0.0382748283,-0.0402386598,0.0236928668,-0.0416117348,-0.070905447,0.0382337831,0.0850302801,0.0818513483,-0.0970623121,-0.032399226,-0.0544508472,-0.0939296111,-0.0421450324,0.0249323249,0.0648462921,0.0381481834,0.0590412021,0.0930883512,0.0628058165,0.0042149113,0.1208302379,0.0794129446,-0.010043676,-0.0504836589,0.032201115,0.1905307472,-0.0480209701,0.0218074638,-0.0142147169,-0.0494721271,0.0345003828,0.0473000817,0.028101746,-0.0248291045,-0.0133494791,-0.0500861816,-0.0156208249,0.0384365655,0.005944002],[0.1609520316,-0.0268298686,-0.1847943664,0.1756720543,0.0356984772,0.1347865611,-0.1742244363,0.0276592653,0.1963899285,-0.0043672053,-0.0569230579,0.1786424965,-0.0485737287,0.2158812582,0.0083743576,0.035963688,-0.0291283485,0.1027912721,0.0093732607,-0.1062325537,0.0009589802,-0.0976423547,0.0881292,-0.0432670005,0.1025345474,0.0360467732,-0.1457141638,0.0248191189,-0.1900000274,0.1795937866,-0.0273388028,-0.0146856839,-0.0570241287,0.039182432,0.0838736817,0.1324195415,-0.0869961083,0.0897160843,0.1175353825,0.0010541466,0.2047288418,-0.0164547451,-0.0149807474,0.0312577635,-0.1022499725,-0.0106158983,-0.0941713899,-0.1347779632,-0.0828150213,0.100424625,0.0636367053,-0.1282826662,0.0146114873,-0.1290544868,-0.0271977726,-0.0173009709,-0.0822720304,-0.2630808949,0.1208776236,0.2543927133,0.0736428648,0.0664817244,-0.1762047112,0.079680942],[-0.037122149,0.0427940488,0.0194427129,-0.0299654249,0.0862852782,-0.0778893977,-0.0085932948,0.047309611,-0.0288941842,0.1311187297,-0.0075705978,-0.0330374427,0.0096082762,-0.1023152694,-0.0181138236,-0.0197947957,-0.0174063481,-0.0321891047,-0.07229992,0.0687119737,0.0199991483,0.100092791,-0.0338803269,0.1051316559,-0.0597606301,-0.0216354933,0.063503027,-0.0476233885,0.0925970227,-0.1196735576,0.0144428415,-0.0077148261,-0.0904390141,-0.1245441362,-0.0739802793,-0.0040725525,-0.1237218082,-0.0690160468,-0.1014524773,0.0063954005,0.0221435968,-0.0067529343,-0.0804567486,-0.0263076369,-0.0642125458,0.0480475537,-0.0343772992,-0.0808001235,0.0145743107,0.0233773515,0.110061422,-0.0182388034,0.0017502026,0.0421943106,-0.0166265219,0.039143905,-0.1167662889,0.1914234757,-0.0431360155,-0.0489023998,-0.008444733,0.0563064255,-0.0240204111,0.0839969814],[0.0816127807,0.1102450714,0.0798760951,-0.0913487151,0.2031101584,-0.1657110304,0.1302130967,0.2722493708,-0.0021790336,0.0792553127,0.0098276865,-0.0983724818,-0.0251476038,0.0244598091,-0.0561440662,0.4171096087,-0.1171945184,0.1095637232,0.0781313479,0.02760043,0.0661411509,0.0582720302,-0.1905032843,-0.1758493036,-0.0563122481,-0.0102042546,-0.0463445485,0.2684363723,0.062932834,-0.1152957007,-0.1047218814,-0.0477147289,0.1107079312,0.0711868703,0.0927482098,-0.0589093342,-0.0389972255,-0.1585777104,0.1859778017,-0.0143581843,-0.1177876368,0.1181893498,0.0127216745,-0.034061458,0.1920213848,-0.0369266458,-0.0626681373,0.1989239752,0.1824046522,0.0623751134,0.1578237414,0.0495942645,0.0534433536,0.1443519443,0.0225609411,0.1633020043,-0.110530749,0.0163182095,0.110743776,-0.0660547167,0.0358376801,0.0026252728,0.17847386,-0.0578425638],[0.0115256645,-0.0532682911,0.0672100782,-0.0793999657,0.0592571311,-0.1187791303,-0.0234025326,0.0210648943,0.0398941562,-0.0277897604,0.0682853311,0.0183969401,-0.0145035461,0.0078966888,0.0474494807,-0.0315387323,0.0023065503,-0.0376297273,-0.0771119744,0.0117586153,-0.0294396374,-0.0344141759,0.045619715,-0.0609755777,-0.0944061652,0.0885072425,-0.005512103,-0.0143897906,0.0502031408,-0.1082900316,0.1398518384,-0.0746389255,0.0426737145,-0.0890360698,-0.0541358143,0.0370755643,-0.0007874985,-0.0928765461,0.0210944396,-0.0672871321,-0.0406397022,-0.0027793944,0.0620955527,-0.0665315688,0.0452473871,0.0150937038,0.0201596152,0.0988952145,0.0249591656,0.0816533789,0.1431504637,0.1230529323,-0.0068649421,0.0050015375,0.0542430393,0.0446309634,0.0523151904,0.117119804,-0.0483944938,-0.1674837172,0.0071127033,0.0686619803,-0.0332947709,0.0933007523],[0.1048414335,0.0670041963,0.1699726731,-0.065816246,-0.0153037142,-0.120744735,-0.2090577334,0.1075979993,-0.0258298032,0.3316272795,0.0609221868,-0.0679579824,-0.0823002532,-0.093389228,-0.0016413513,-0.1420833021,-0.0482094027,-0.0727237612,-0.1627554893,0.2420502901,0.0613478832,0.0907878727,0.0285265632,0.0541199222,-0.0494793616,0.0335382745,0.2392873913,0.0244061183,0.0504459701,-0.0214039404,0.1796392053,-0.0813120529,0.0589387231,-0.2420792133,-0.1313085258,-0.1157458574,-0.0948971733,-0.029782949,-0.0498116948,-0.1069525108,-0.0123019982,-0.04031495,-0.0581673682,-0.0847126171,0.0776141733,-0.0999521613,-0.1628380269,0.0711429864,0.1841938496,-0.0271994825,0.0446445122,0.2592559457,-0.0686742887,0.0745251328,0.0417036861,-0.1588065475,-0.1100860983,0.2518467009,0.0499028601,-0.0400915593,0.1222430244,0.0715678856,-0.0712423623,-0.0860407203],[0.0802738443,0.0544973128,-0.0303126797,0.0849569589,0.0371008255,0.0393245555,0.0469654165,-0.0151416846,-0.0735612735,0.0269602854,0.0868463442,-0.028445771,-0.0076828976,-0.0545900911,0.0093981745,-0.0375517942,-0.0203831214,0.0252475869,-0.0133901425,0.119867608,-0.103401497,0.0870360956,-0.0646532774,-0.0905432254,0.0623471662,-0.0234593581,0.0339342691,0.1374831051,0.0154590365,0.0354254209,-0.0838292763,0.0364411473,-0.0106628621,-0.0496583357,0.0794068947,-0.077429302,-0.0719644576,-0.0433191583,-0.095746465,0.0205208007,0.048793558,-0.0319988541,-0.0463387258,0.0458176583,-0.0239088722,0.0399578176,-0.0025030694,0.0851105899,0.0789020956,0.0005303034,-0.0379387848,-0.0342996642,0.0366612896,-0.1248250082,0.0440728031,0.0208855942,0.0146117667,0.0882704705,0.0065193232,0.0143850632,0.0237077884,-0.0043749884,-0.0867207721,0.1219433621]],[[0.0497672334,0.0165075865,0.1461143345,0.0502732992,-0.0340086967,0.0977862775,-0.0672794282,-0.0261429716,0.0897041634,0.0095130643,-0.0405451693,-0.1112805679,-0.1180476993,0.022750305,0.0561214797,-0.03260554,-0.0022480432,-0.1174398661,-0.1208048314,0.1475431472,0.0633899793,0.0843001381,0.0848095044,0.1922133118,-0.1287659258,0.0449886881,0.0903250724,0.0006181946,-0.0035648872,0.0224047452,0.0567068718,0.0283715427,0.05312052,-0.0389968902,-0.0853462517,-0.0101880701,0.0889173299,0.0192272738,0.0198225603,-0.0808210745,0.0135403648,0.0334453881,-0.0032348786,-0.0496287718,-0.0385726206,-0.0050213304,-0.0100951251,0.1396753341,-0.0367377065,-0.0247978196,-0.0040372689,0.1237644106,0.0780899003,0.0474125035,-0.0120639531,0.0470062867,-0.1188419759,0.1461562812,-0.0313704498,0.0834577233,0.020985188,0.0665794984,0.005809892,0.0355951265],[0.0912457108,-0.0414883718,-0.0553655773,0.1176873446,-0.0547465384,-0.0226229094,-0.0932323709,0.0401902795,0.0457524322,-0.0835693851,-0.0834057108,0.1936367005,0.0043147034,0.0759084225,-0.0275267661,-0.0046921992,0.0238516647,0.0067590312,-0.0690152198,0.0166916996,0.0837746263,-0.0855209306,0.0847696587,-0.0169618968,0.0818202421,0.0323982313,0.0163891446,0.1320325434,-0.0259543136,0.1874625981,-0.0016241346,-0.0509840474,0.0067325719,0.0883041471,-0.0057547125,0.0803677142,-0.0265516993,0.0117874797,0.1341334283,0.0668783113,0.081869401,-0.0448787995,0.0461670458,0.1332560033,-0.0229629837,0.0491880774,-0.0356563926,-0.0329030603,0.051056318,-0.0457295515,0.0407474861,0.0118203331,0.1021256074,0.0207631253,0.0289129615,0.0120656155,0.0479805805,-0.0964676216,0.0955895185,0.0519370399,-0.0154145593,0.0378144868,0.0069951662,0.029952623],[0.0769480988,0.0153186405,-0.0795572922,0.0044193617,0.0820473433,0.0703890771,-0.0897492617,0.0473439917,0.0445308164,-0.0297012124,-0.0121312123,0.1259374321,-0.0618251301,-0.0197112169,0.0526520051,-0.0434633717,0.0206932966,-0.0443643853,0.0620205067,0.0337841548,-0.0412965566,0.0680437535,0.0036885799,0.0027203527,-0.0073176078,0.0763278604,0.0004842313,0.0668236911,-0.0884508863,0.0620976612,-0.0970610604,-0.0559430048,0.037360128,0.0155873867,0.0313015692,-0.0366133265,-0.1318186373,0.0760760382,0.0930769816,0.0472783782,0.0970242023,-0.0197137184,-0.011351157,-0.0332289375,-0.0878422186,0.0009176881,-0.0199493524,0.0218816716,-0.0401975363,0.0335335284,0.0721774027,0.0932651684,-0.0189145617,-0.0962604061,0.1043117419,-0.0465171263,-0.1414216757,-0.0400561094,0.0634650812,0.0663378611,0.0464243926,-0.0469317511,-0.0177278128,-0.0411436036],[-0.135483101,-0.0082642063,0.0080655431,0.0359652564,-0.0151674543,-0.0666553974,-0.0280411877,0.0446603522,0.0758907869,0.0055812704,0.0057606623,-0.0850265622,0.0784497187,0.0149053847,0.144288063,-0.0606852919,-0.0167433918,-0.0223807786,-0.0834761932,-0.0266525988,-0.0050912206,0.0222866051,-0.1171679273,-0.0266706739,-0.0944242477,-0.0335471258,0.0223626848,-0.0311597213,0.0871922746,-0.101743795,-0.0714889988,-0.0806995183,-0.0736709386,-0.1192975342,-0.0611285493,-0.1170620024,-0.0886575356,0.0874802619,-0.1130077168,-0.1033921316,-0.0042699869,0.0686936006,0.0548565499,-0.1464405656,0.0947693139,-0.0300519187,0.0577714741,0.0371093005,-0.0086748479,0.048685357,0.2089822441,-0.0108581539,-0.0258518364,0.1328529865,0.0524961576,-0.0404765755,0.0244240742,0.1662158519,-0.0961285755,-0.0780753046,-0.020852128,0.0231815241,-0.0985525772,-0.0061651529],[0.1967268139,0.0556119494,-0.0885277987,0.0468514897,0.2020962089,0.0062261005,0.0092931399,0.0860415697,0.1193205416,0.0961503237,0.1720620692,0.091265291,-0.1184994578,0.0358640067,-0.0159840249,0.2633917332,-0.0092132986,0.0516937152,0.1332470924,0.1013676152,0.07493449,0.0223904029,-0.0444344506,-0.1232905686,0.0680465251,-0.0702825636,-0.1041608602,0.1450884789,-0.0774496198,0.0559630208,0.1725229621,-0.1282117814,0.018643856,0.1805490106,0.0757863149,0.1215423793,-0.1136776656,0.0479788706,0.196864754,0.1658243984,0.056540031,-0.0358360298,0.0701899305,-0.0365386531,-0.1213960797,0.0874912292,0.0577800572,0.1321557313,-0.0490157194,0.057515122,0.0847625956,0.0311709326,-0.0820170939,-0.0386087522,0.06314376,-0.0131266955,-0.1890073419,-0.0442582518,0.3043473661,0.0792168826,0.1444515586,0.0737651065,0.0916403383,0.0683080554],[0.1280536801,-0.0401595645,0.0105179707,-0.049486611,-0.0440941304,0.0036320558,-0.0319075771,-0.0075895092,0.009557615,-0.0150460247,0.0041077095,-0.0302219167,-0.0318749994,0.0657200962,0.0244830698,-0.0664083883,-0.0105950218,-0.0028330642,0.0684279129,0.0604368113,-0.0581434667,0.0327566117,0.1039749682,0.0086484076,-0.0942195579,-0.0251366924,-0.1241169274,-0.0294471346,0.0557232425,0.0666499659,0.0320557468,-0.0089468341,0.0543978214,0.0575516,0.1078415588,0.0274000615,0.0712074116,0.0610361435,-0.0324585438,0.0498629063,-0.0216661617,-0.020014422,-0.0650037602,0.0384785496,0.0010328592,-0.0110299401,0.0246742088,-0.0851731151,-0.027341241,0.1132512465,-0.0033246209,0.0895265862,0.1272117198,0.0540884249,0.0999499857,0.0921829939,0.0082757911,-0.0478480943,0.0155615602,0.0685609281,0.0587624982,0.0535881221,-0.0273205303,-0.0029521254],[0.1625835299,0.0274009816,-0.0411441475,-0.0562391914,0.1808597893,-0.1469161808,0.0903564692,0.1390974969,0.0585035719,0.2049837112,0.1274180859,-0.0255228374,-0.0675217286,-0.0318887345,-0.0248112734,0.2630416453,-0.1119562089,0.1520978212,0.245795846,0.00043673,0.0316311941,0.1728218198,-0.0481357798,-0.0705511272,0.0462720878,0.0135809528,-0.0020272112,0.1168073118,0.1066702232,0.01004312,0.2212757766,-0.0113679329,-0.1251168102,0.1127295643,0.1063407883,-0.0256789029,-0.19389081,-0.0534431338,0.2067743987,0.1237008423,0.0309930556,0.0353479721,-0.0871359482,-0.0072234375,-0.0954313651,-0.1130718365,-0.0135870827,0.0779533535,-0.1007910669,0.0476796702,-0.0097886361,-0.0432300605,-0.0173391216,0.0384614915,0.0687538311,0.0301735159,-0.1172161475,-0.0468766615,0.2789036632,-0.0321661904,0.1849322021,0.0174682345,0.0829515755,-0.017661579],[-0.0781795532,-0.0078704376,0.0367915183,-0.004853046,0.0295698028,-0.0345784165,0.1197669953,0.067397505,-0.0106809773,0.0792321637,-0.0637345463,-0.0881890059,-0.013152808,0.0559161529,-0.0161935836,0.0515376627,0.0090076653,0.0040620086,0.0265632328,0.0077136611,0.017211115,0.1237019747,-0.1239148155,0.0428169668,-0.1196718812,0.0334360078,0.0127739487,0.014230201,0.0045724697,-0.1082908437,0.031141391,-0.0306969285,0.1009599864,-0.1356282979,-0.0894303992,-0.0825028419,0.0148797864,0.0912050307,0.0330275632,0.0252030231,0.0254679751,0.0306237284,0.0385325998,-0.0558135621,0.0405315012,0.0274904687,-0.0454389267,0.0827532187,-0.0543891378,0.0583973788,-0.0062774643,-0.0468367599,-0.0450735651,-0.0267415736,0.0200639572,-0.0127069689,-0.0772586241,0.1797225326,0.0218780208,-0.027570609,-0.0440492779,-0.0540152304,0.041039601,0.0575854108],[0.1867197305,0.0057474445,0.003526317,-0.0306928325,-0.0083980514,0.0556081384,-0.0161353406,0.0109295761,-0.0434196368,-0.0942968726,0.1093256325,-0.024632832,0.0385552794,0.0450925417,-0.0072320718,0.2244539857,-0.075224176,0.089362748,0.1316355467,-0.0223015696,-0.0595869683,0.0052572023,0.0672056824,-0.1103897393,0.0735976174,-0.01987762,-0.1278164238,0.0644061044,0.0249874983,0.0064120898,0.0646881983,-0.0970384181,-0.0208762158,0.0741044953,0.1393016577,-0.022595536,-0.0088414485,-0.0970565379,0.0972844511,0.1332992911,0.0178573895,0.0300561599,0.0232321881,0.0795323551,-0.0964583904,-0.006114386,0.0731479228,0.0929950401,-0.1347018629,0.0660822913,0.0314584747,0.0537334271,0.0510635972,-0.0736718476,0.0442546047,-0.054523468,-0.1267382652,-0.0897151604,0.1072382554,-0.0282222647,0.0151593126,0.0164954271,0.1689870059,0.0549887456],[0.1039069891,-0.0064317114,-0.0669247508,0.0032272493,0.1273018271,0.0286274645,0.0484314933,0.0687449798,0.0395790152,0.2021018565,0.056578476,-0.0962295458,-0.0024920031,0.0361300707,-0.0078045819,0.0659322739,0.0428760983,0.1101951301,-0.0326076336,-0.0640276596,0.0700067058,-0.0120145343,-0.1286535859,-0.0124457628,-0.1215126216,0.1064712405,0.0815994292,0.0681444034,0.0595527925,-0.1013659462,0.0605684742,-0.0237327404,0.0962396488,0.0187441912,0.0381398387,-0.0552503467,-0.1610290855,-0.0204872452,0.0586553439,0.1148125753,0.0596706271,-0.0040104822,-0.1022105888,-0.0876855329,0.0805966407,-0.0717490315,-0.0480587669,-0.0805546939,-0.0240385476,0.1230624914,0.167175889,0.0742739961,0.039482601,0.0553136505,-0.0016030257,-0.0917016491,-0.0938793346,0.1812375188,0.000136262,-0.0235945694,0.0292711537,0.0170658063,-0.0571923591,-0.0130993258],[-0.0590312742,-0.0233898424,0.0354651622,-0.0074316496,-0.1475608051,-0.0766613781,-0.0177750122,0.0736542717,0.0607364774,-0.0010023466,-0.0320331194,0.0028477854,-0.0806743726,0.1033485234,-0.0202970486,0.0837060958,-0.0449375808,-0.0032826483,-0.0885580555,0.0245440267,0.0645941198,-0.0588346645,0.0604545176,-0.0910152271,0.0180882663,-0.0357046686,0.0464143232,-0.0070716958,0.0494969711,-0.0795399845,0.0576956831,-0.0267246552,-0.027668938,0.0098686237,-0.0441664755,-0.0096706916,0.0508598574,-0.0672465935,0.0964933336,0.0697335079,0.0632634908,0.1120179743,0.0106633902,-0.0132929292,0.0534834787,0.0778203309,-0.0023024844,0.0695710778,-0.0450662971,0.0164305586,0.0914261863,-0.0181104764,-0.0281095654,0.0461914465,-0.0567598231,0.1332242489,-0.0193397254,0.0754394606,-0.0402605198,-0.0047642021,-0.022706205,-0.0258806329,0.1028779298,0.0763632804],[-0.0017952181,-0.1147838682,-0.0667049438,0.0132962894,0.1048680097,-0.1778990477,0.0522791967,0.1290240586,-0.1362165213,0.1718892753,-0.042532254,-0.1043305695,0.0686272308,-0.0192742422,-0.1086586192,0.0308705326,0.0130057177,-0.1514120102,-0.0877234489,-0.0857053772,-0.2444190085,0.1062631607,-0.0331233032,-0.0127921226,-0.0699560344,-0.0596292801,0.1825724095,-0.0651879609,0.0476110429,-0.035343349,-0.1326099783,0.1669531614,-0.1446846873,0.0492371544,-0.0729786381,-0.1657832116,-0.2530872524,-0.0755767226,0.0163724069,-0.0146354446,-0.1173794419,0.0403229333,0.083631523,0.1446505338,0.0371005386,-0.0296172723,-0.049682457,-0.0649189129,-0.0206563063,-0.0223160088,-0.0118099041,-0.0938178673,-0.1180878431,-0.0056440514,0.0243811663,0.0391631089,0.0159904081,0.1529527903,-0.0041995239,-0.0469662845,-0.0071393647,0.1419108808,0.0097159026,-0.000013934],[0.0909769833,0.0656111389,-0.0112026744,0.1197898611,0.0343338437,0.0116381366,-0.0701655,0.0760636032,0.0623380393,-0.0207887143,0.0492085963,0.1902535856,-0.0756978318,0.0747881681,0.0066181505,0.0160805173,-0.0173198432,-0.0576850735,0.0449075028,-0.0082337363,0.0841750726,-0.0678960085,0.0225033984,-0.060076464,-0.0500977337,-0.0582893081,-0.0562366322,-0.0480717123,-0.1405455023,0.1250315309,0.1112577617,-0.0487257987,-0.0541493185,0.045594465,-0.055762127,0.011063695,-0.0781442001,-0.0449713431,0.1186159924,0.0092701511,0.1224296764,0.1086690351,0.0075769587,0.0498291254,0.0144528756,0.0770297125,0.0934871361,-0.0319428667,0.0720403045,0.0370215625,0.0963938236,0.058699917,0.0109701883,-0.0234740078,0.0162166264,0.0280570742,-0.0240614079,-0.1575682908,0.0934149474,0.0604347438,-0.021515673,0.0762413144,-0.0786861777,0.0183931831],[-0.1170453057,0.1736797243,0.0759059489,0.0513902381,-0.0991293341,-0.0955388322,0.0182621386,0.0593141839,-0.0771391541,-0.0416017361,0.0565509945,0.09417402,-0.1201222092,-0.0036756459,-0.0344360694,0.0382755101,0.09583994,-0.0995900705,-0.1989030242,-0.0211835355,0.0778533667,-0.0605266355,0.0177871585,-0.1878085583,-0.1334787309,-0.0263950136,0.0435762964,0.0628251955,-0.0051865787,0.0424334146,0.0984731093,-0.1624534428,-0.0186366532,-0.1129535139,-0.0354153477,-0.0141274352,-0.1158039123,-0.0226242691,-0.1038324907,-0.0926213562,-0.1060933024,0.0988914594,0.1386123747,0.0447812676,0.083130978,0.1812901348,0.1434189528,0.034551762,0.1571574807,-0.1054205,0.0704220757,0.0168694686,-0.0214474667,-0.0502320603,0.0147017799,0.0923924521,0.0195542015,-0.0532046966,-0.0274570845,0.046033565,-0.0567649007,-0.0256444234,-0.0331684984,-0.0385317504],[0.027794499,0.1333170235,0.0468889661,-0.1002930105,-0.0591717251,0.0405652933,0.1107776836,-0.0233805757,0.0135151101,-0.1735901982,0.0689696968,0.0053849262,-0.1108932495,-0.0684464425,0.0211365484,0.1061564162,-0.0100259446,-0.0229355749,-0.0190532822,-0.010915298,0.0338173956,-0.0515572727,0.0472589284,-0.0728181154,0.0758842006,0.0665341318,-0.0498175547,0.0504143201,0.0611267835,-0.0915496349,0.1373743713,0.0587642454,-0.0403295271,0.0264831111,0.0578002408,-0.0973568633,0.0838500708,-0.0174033679,0.024155654,-0.0202960763,-0.0977468193,0.0189105179,-0.0069903811,0.0718729272,0.1153166294,0.0424579456,-0.0245268289,0.1445325762,0.0357885659,0.0453191474,0.0223161839,-0.0295520257,-0.0357656069,-0.0154665662,0.1273782849,0.1034464836,0.0266306307,0.046041213,0.0947909355,-0.0389806181,-0.0028394526,-0.0226107258,0.10850849,-0.0914574191],[0.0901101455,0.000187838,0.1092493683,-0.0468789078,-0.0473904312,-0.0052150339,-0.1043042988,-0.0177521482,-0.0763571635,0.0384566747,-0.031139819,0.0597856045,-0.0283670854,-0.0507127643,-0.1170501411,0.0668291152,0.0411849804,-0.0697410405,-0.0142372744,0.1367672533,0.0906567201,-0.0454245657,0.074581638,0.0597988851,0.0373165719,-0.006787193,0.0386875086,0.0709361732,-0.0482207723,0.1040411144,0.0944036245,-0.0520985313,-0.0132375062,0.0623749644,-0.0142845185,0.0572760627,0.0286099222,-0.0406832434,0.0063399188,0.03733138,0.0674383715,0.0733985901,-0.0228854697,0.0590527207,-0.1133107468,-0.0142277824,0.0185434911,0.0637187734,-0.1227141991,-0.1374447197,-0.0719773695,0.122782506,-0.1211591363,-0.0592419021,-0.00239358,-0.0252615772,0.0153986588,-0.0503758341,0.0452160351,0.0686924681,-0.007465885,-0.1100747958,-0.0315531418,-0.0689125881],[0.0731366351,0.0394836739,0.137236312,0.0450925082,-0.0555923134,0.0167666115,-0.1043013334,0.1163858473,0.0776690394,0.0751562044,0.1794245094,0.0520246066,-0.1634603441,0.0794426054,0.0079678735,0.1142413616,0.0794100612,0.058355514,0.1220546812,0.0708774254,-0.0750148296,0.0497840866,0.0668356493,-0.0684114918,-0.106493175,-0.0513728969,-0.0494375043,0.0985997245,-0.018298015,0.0342109129,0.1754383296,-0.0771466121,0.1347059608,-0.0202347338,0.1029462367,0.0848770961,0.0033990736,0.082641311,0.0680481195,0.0793922246,0.058366999,0.0260649137,-0.0134456549,-0.0761213973,0.0024951547,0.0938713178,0.067041412,0.1246398315,0.0324470997,0.0999266133,0.0305731986,0.1643247157,0.0775012523,-0.1064901501,0.0604771338,-0.0326623954,-0.1829113662,-0.1520711333,0.1865859926,0.0007342905,0.1542734206,-0.0284386203,0.0700754523,0.0054238713],[-0.041257143,0.0043099099,-0.081501618,-0.0051874821,0.1693083942,0.0105504291,-0.0914090872,0.089601092,-0.0567101389,0.0948976651,0.0975695252,-0.0144051351,0.1526854038,0.0338103548,-0.0909576938,0.0626367852,0.0646643415,-0.1110487059,-0.081614852,0.0130757531,-0.0662235841,0.0916668698,0.0801719576,0.0852201283,-0.0193575397,-0.0631121546,0.0755462348,0.0219718684,-0.0076529155,-0.0667566732,-0.0202827826,-0.0001175209,0.0817450061,-0.0340954661,0.054402817,-0.0529310703,-0.1735325605,-0.0807074234,-0.022733029,-0.0782806575,0.1030258238,-0.0560414009,-0.0409832038,0.0232209992,0.0055296784,0.0713498443,0.0698375925,-0.1125103012,-0.0124341296,-0.0689348429,0.1145173684,-0.0107590677,-0.0861551762,-0.0418001302,0.0846767798,0.0120412568,-0.135008052,0.0659828782,0.0779616907,0.0322117284,0.0838022456,-0.0288160238,-0.1112188548,0.1000251845],[-0.0395481959,-0.015058036,-0.0383819044,-0.0261002425,0.0130572924,-0.0383960977,-0.0095659085,-0.0204431433,0.0801621452,0.2338510603,0.0520456508,-0.1197808534,0.0366290286,-0.0272320341,-0.0427919179,-0.0796958953,0.0191091336,-0.0258291345,0.0464469492,0.1026913896,-0.0004428994,-0.0019175536,-0.0217228718,-0.0536811352,-0.115647465,-0.0197629817,0.0270589609,0.0314112119,0.0088418638,-0.012822615,-0.0181873627,-0.0258505382,0.0426567979,-0.0835259482,-0.0850276873,-0.094818823,-0.000975991,0.0250633471,0.0024611959,-0.0514075682,-0.0155797331,0.0157742631,0.0082406886,-0.0522745028,0.0824164897,-0.001428201,-0.0104183108,0.0197264683,-0.0105545148,0.1412610859,0.0092625394,-0.0188178308,0.0733242631,-0.0033649462,0.0917080343,0.0162685849,-0.04523414,0.1174956933,-0.0216736533,-0.0224784184,0.0901750177,0.094238326,0.0331409983,0.0625046343],[-0.0729623735,0.0752105191,0.0017285281,0.0957922786,0.0339481831,0.0031673936,-0.0846635699,-0.0307245106,0.013610363,0.1214509979,0.0427453928,-0.0091588991,-0.0557828881,0.1026219279,-0.0770385563,-0.0446148328,0.022691844,0.0198658593,-0.0708962008,0.0653934851,0.0602733418,-0.0057608532,0.0072211539,0.1276940703,-0.0598431528,-0.0346352421,0.0755839497,0.0470055938,-0.1220697016,0.1196282804,-0.003756532,-0.0123383217,0.0775257647,-0.1273178309,-0.0838488042,0.0712110698,0.0919441506,0.0897512883,-0.0271494109,0.0212761723,0.0025760697,0.0112767769,-0.0109083569,-0.0077428864,-0.0216439068,0.032037776,0.0634909123,0.0196808074,0.0011431882,0.0855450481,-0.0387771651,-0.0310353376,0.0903562158,-0.0566865616,0.0953059494,-0.0157258231,0.0071910722,0.0155768283,-0.0141441235,0.0133577846,-0.003860323,-0.0605251752,-0.0795001313,0.0839622915],[0.1358121336,0.0385860056,0.0283975825,-0.0650754124,-0.0907518044,0.0234933943,-0.0654920936,-0.053521011,-0.0534826815,-0.1204814985,0.0873299092,-0.0658255219,0.0581245534,0.0761677548,0.0824679062,-0.0255588107,-0.0322015062,-0.0128942849,-0.0288466923,0.107770361,0.0185792837,0.0746012479,0.0131527819,-0.0670677647,0.0668886602,0.0652757958,0.051376909,0.0921249613,0.0613167584,-0.0316492319,0.0784273073,0.0144795934,-0.0380822569,-0.01988573,0.0184407961,0.0583958775,0.0562715121,0.0521059744,-0.0250277873,0.0396851525,0.0174085554,0.0273818076,-0.0434240066,0.0363822207,-0.0693344101,0.0724420696,-0.0026593197,0.0497150347,0.004924261,0.0987783,0.0702072382,0.0530819073,0.083551228,-0.0530763157,0.1208562627,0.0199305527,0.0804662034,0.0613585599,0.0483193994,-0.0339982472,0.0561438911,-0.0498422794,0.1022314876,0.0673281699],[0.1103444621,-0.0506745167,-0.02397497,0.0471138731,-0.0004389214,-0.0943456143,0.0286461897,0.1113384813,0.1149510816,-0.1052801162,0.1077775359,0.0646993816,-0.0948577374,0.0229295064,0.094303444,0.2380029559,-0.0326769091,0.0962407812,0.0622508787,-0.0430999771,-0.1034356803,-0.0169284847,0.0589611493,-0.0942410752,0.0288382657,-0.026901992,-0.1571002156,0.043699462,0.0074361614,-0.0458454899,0.197906509,-0.0009294511,-0.1471970379,0.0158647113,0.1265233457,0.053526897,-0.0330206454,0.0226026773,0.0041241902,-0.0141487429,-0.0260336064,0.1085579842,0.0542498045,0.0559755228,-0.0433072671,0.0294468403,0.0665709898,-0.0006187324,-0.0878154486,0.0391205326,-0.0291633327,-0.0981791914,-0.0579178929,0.0105516398,0.009428056,0.0054536695,-0.0091339396,-0.0554895513,0.1900987923,-0.0883199349,0.0502786525,0.0124178268,0.1878664792,0.0041910443],[-0.0153876459,-0.0838620067,0.0944882855,-0.0107990047,0.0431218818,-0.1470575482,0.0649640411,-0.0245761201,-0.0289668571,0.1218967438,-0.1568984538,-0.0783495679,0.0576870739,-0.0149383713,-0.1122401357,0.0697455406,0.0442318544,-0.1223584563,0.0321489722,-0.0842590258,0.0304357354,0.0663495213,-0.1052275971,0.1191775426,0.0013507564,-0.072018683,0.2321789116,-0.0161843877,-0.0584557131,-0.0265995152,-0.1251673549,0.1163569689,-0.1431910396,0.0014397273,-0.0438779183,0.0013266269,-0.1111644879,-0.1667681187,-0.1094422564,0.0229165386,0.0076341466,-0.0659798235,-0.0574232228,-0.0359176211,-0.0894338116,-0.04303772,-0.0171263143,0.0121514956,-0.039604038,-0.0348714292,-0.0045151301,-0.0147670098,0.0129229007,0.1026381701,-0.1417700499,0.0066907434,0.0651419461,0.0416760631,0.0296456367,-0.0783090591,0.0694804862,-0.0255825799,-0.0246196724,-0.0700013936],[0.0134283854,-0.0482352786,0.0043098214,-0.0388054736,0.1675530374,-0.1285615414,0.0853556767,0.1435207725,0.0024027319,-0.0027421401,0.0323996171,-0.0938047171,0.0170013104,0.0376353711,0.057912115,0.0462286286,-0.1196601093,0.0409580469,-0.0459859334,0.036288131,-0.0896304697,0.0082884105,0.0446294583,0.0193306506,-0.1120538041,-0.0217607785,0.0604218505,-0.0607934296,0.161217913,-0.1072635725,0.1092664823,-0.0315282568,0.0116534019,-0.0263758432,-0.059951853,-0.0249126144,-0.0656669214,-0.0257216115,-0.0898606628,0.0168724451,-0.0782648474,-0.0013350587,0.0443731658,0.0211752746,0.1056886241,0.0025715225,0.0548038036,-0.0186812915,0.0261060782,0.1039308831,0.0434670858,-0.0963779911,0.0269628111,0.068893373,0.0042092474,-0.0421710983,0.0411599874,0.1566646248,0.0308734253,-0.1454354674,0.0253359284,-0.0095642181,0.0058825053,0.038339559],[0.0324852169,0.0557121411,-0.0696651489,0.0394731052,0.0560722426,0.0152944634,-0.0447538942,0.0194874294,-0.0258761104,-0.0132815531,0.0150533803,-0.1070998311,0.0543633215,-0.0492176749,0.1194097251,0.002000116,-0.0357783325,0.0352934301,-0.026690999,0.1370040774,-0.1160307899,0.057613723,0.0903396159,0.0063519021,0.0214894544,0.0711207986,0.0802564695,0.0391658582,0.0718865097,0.0107237343,0.0181782842,0.0573089458,-0.0472970717,-0.0390325859,-0.093419835,-0.0577714443,-0.0080392128,-0.0041932128,-0.0365368053,-0.0943412036,-0.0368431471,-0.0660374612,-0.0567752384,0.0298563875,-0.098244518,0.0480313264,0.0216436442,-0.1106668264,-0.1057100073,-0.0094799558,0.1484442502,0.0001188105,0.0123856328,0.0891216621,0.0640458316,-0.0173709709,0.0454149507,0.088310346,0.0439006798,-0.0148403822,-0.0423233993,0.0990826339,0.0737124383,0.0684073642],[0.0326833427,-0.0148113854,0.0492024012,-0.0418590121,0.0637860224,0.0022555562,0.077233091,0.0549091212,0.0347702354,0.0451549366,-0.0297175907,-0.0587791465,-0.1105556935,0.0639984012,0.0330348276,-0.0368445292,-0.0631647557,0.0390530042,-0.0016960509,0.005122595,0.0086725289,-0.0324800611,-0.0429817364,-0.1277074963,-0.0404645465,-0.0721101612,-0.0089241061,-0.055710379,-0.0679974407,-0.0900902078,0.0462138392,-0.0254757684,-0.0016606366,-0.0794712752,0.0096234474,-0.0617542155,0.0026264316,0.0427589193,0.0109013012,-0.043473389,0.02089075,0.0773220286,0.1490201652,-0.0541242696,0.0796511322,0.0203699768,0.0612195097,0.0658388808,-0.0090227695,-0.0100415573,0.0300356429,-0.047390826,-0.0425418504,0.0279403217,-0.0041384031,0.010580753,-0.0092766602,0.065897651,0.0237984937,0.029262431,-0.0888453498,-0.0045954152,0.0582777485,0.063610591],[0.1148856804,-0.0509396493,-0.2099598348,0.065050669,0.0233013369,0.0538043194,-0.0737978965,-0.0463593081,0.068942368,-0.08437071,-0.0170922019,0.1427982152,0.0363062881,0.0707698017,-0.0525149219,0.061474096,0.0361200273,0.0422776677,-0.0495450012,-0.1179051623,0.0951404572,-0.053196203,0.1887091398,-0.0142082889,0.015729649,0.0490409061,-0.1221936718,0.1198590994,-0.0855841115,0.0835524872,-0.008507641,-0.0200888924,-0.0354984514,0.0768995807,0.0893983245,0.1663222313,-0.1516403407,0.1156424731,0.1237869859,0.0035127583,0.0263599847,-0.0707209781,0.0424880274,0.1623546928,-0.1911567748,-0.0589594021,-0.1004990786,-0.1044657901,-0.017129302,0.0185109209,-0.0406046771,0.0462222286,0.0264916886,-0.1372916847,-0.0622482523,-0.0489710942,-0.0244022068,-0.1023820341,-0.0237887185,0.057163097,0.079496257,0.0457685031,-0.073778294,0.0135401934],[-0.1245021522,-0.0407161824,-0.0031720509,0.0074452995,-0.0158823412,-0.0027499069,0.0043792832,-0.0203659553,0.0271397494,0.2002860904,0.08139465,-0.1406821907,0.0211473424,0.0037911795,0.1039053202,0.011424805,0.0559199639,-0.0477678142,-0.0098114684,0.0470017754,-0.1195734888,0.1098499298,-0.1146070138,0.0380862989,-0.1497409642,-0.0376972668,0.1422560811,-0.060204789,-0.0236570742,-0.0324970596,-0.1229248643,-0.0140700731,0.0404577591,-0.1614988148,0.0045413882,-0.0834879503,-0.0427694097,0.0589209013,-0.0939967632,-0.0504481308,-0.0176445618,-0.0260154791,0.0018527377,-0.155909881,-0.0346020535,0.018424198,0.0359680913,-0.0528334565,0.0286424421,0.0905729383,0.0272240806,-0.1245551109,0.0706731677,-0.0171982143,0.0935709551,0.0801209509,0.0011540878,0.2317002118,-0.0468919203,-0.0785917118,0.107446,-0.0636068881,-0.078992337,0.0328104831],[0.0153870033,0.0558714643,0.1295492649,-0.0115653062,0.0446838625,0.0022932743,-0.0896413922,0.167383194,0.1103571951,-0.0311891697,0.0582047403,-0.0590476133,-0.1639698297,0.0898413584,-0.0362942331,0.1781529188,0.0740110576,0.0942291394,0.0359351449,0.0498915724,-0.1258076727,0.0169512574,-0.0301198289,-0.1308643371,-0.105500184,-0.060650263,-0.0887212828,0.0837728307,-0.0787292197,-0.0661159828,0.2843746543,-0.1867774427,0.028017763,-0.0764954463,-0.0085297152,-0.0124629745,0.0923591778,-0.0432043262,0.125907734,0.0699832216,-0.0377833061,-0.0351159498,0.0112110283,-0.093697153,-0.0721916035,-0.0379007645,-0.0053992607,0.1486175358,-0.1710884124,0.0381065533,0.1254266798,0.0609146692,-0.041239962,0.1067529097,-0.0385931917,-0.02097103,-0.0628653467,-0.0283078458,0.0835940987,-0.0533119924,0.0483610034,-0.0727099031,0.0710536018,-0.0421731547],[0.0035657291,0.0865680203,-0.0672526807,-0.0062486161,0.0441194586,-0.0296526849,0.0812476575,0.0243133716,0.0078751426,0.0383059941,-0.0219546761,-0.0297496282,0.0117193358,0.1181873083,0.1566602141,0.0442874953,-0.0865295678,0.1113939285,-0.0863510594,-0.0803305507,-0.0559700429,0.0650396794,0.0362712257,-0.0707901195,-0.0123093175,-0.0174787231,-0.0541698113,0.0144437328,-0.0144292153,-0.0416013189,-0.060814973,-0.0778108314,-0.0723699033,-0.0293806791,0.016797984,0.044573307,0.0368330032,-0.0450356156,0.035335023,-0.0389833748,0.076950781,-0.0584973358,0.025393812,-0.1194805726,0.0602189638,0.0886666626,-0.0141079631,0.0703729168,-0.0070867441,0.008743858,0.1589280367,-0.0330329984,-0.0347500369,0.1159171909,-0.0166475661,0.1177321523,0.0622097738,0.096222356,-0.1146374717,-0.1084053069,-0.017258456,-0.0065959855,-0.0575853363,0.0107987477],[0.0312735476,0.0350069329,0.0509696193,-0.0873118192,-0.0910110474,-0.0751373097,-0.1180349439,-0.1504068375,-0.0310909487,0.2117485106,0.0056764307,-0.1353721768,-0.098616533,-0.0141522419,0.1182441562,-0.1062930524,0.0350211971,0.0196597259,-0.0224729683,0.1380662024,0.0429784693,0.1563325375,0.0721817091,0.1766644418,-0.0652822405,-0.0213523544,0.2187994868,-0.0639954954,-0.0407376438,0.0086019384,-0.0913772509,0.0507422909,0.0292382557,-0.1030718014,0.0013468054,0.0106556481,0.0048281648,-0.1037554517,-0.0491641499,-0.0988021046,-0.0024315545,-0.1112242043,0.003682114,0.0341245681,-0.061357297,-0.0411617309,-0.0875729397,0.0860337988,-0.0986425355,-0.0227934383,0.0128301,0.1005082279,-0.0014963445,-0.0084664058,-0.0036089094,-0.1123947427,-0.03459806,0.1908742636,0.1204603538,-0.0681915581,0.1571915299,-0.0072716703,-0.0223816205,-0.0240635071],[0.0808412135,-0.0161808636,0.0762913972,0.0048723165,0.0863806307,0.0031287894,0.0221968982,0.0339173451,0.0386700705,0.1660747379,0.0439820178,-0.0083482815,0.0066820923,0.004352313,-0.0297643282,-0.0258608796,0.0446054339,0.0416546576,-0.0058824113,0.0382741876,0.0337799639,0.0607212521,-0.0797834173,0.0022428536,-0.0107457843,-0.0748088062,-0.0199284684,0.0334638581,0.0547188297,0.0759698749,-0.0333712138,-0.1421797574,0.0730857179,-0.0087873638,-0.0666454583,-0.0783383176,-0.0832643285,0.0673791394,-0.0138387848,0.0622337349,-0.0145744691,0.0170545205,-0.0126845902,-0.1688233763,0.0581726655,0.0184777211,-0.0331081152,0.0419502482,-0.0481863394,-0.0113666104,0.0542906299,0.0477048382,-0.0271281656,0.055737026,0.1180306077,0.056278754,-0.1114295349,0.1708987206,0.0305234063,-0.0178783517,0.1337572336,0.0163722802,0.0738930777,0.0526852943]]],[[[0.027281085,-0.0980973765,-0.0540923998,-0.0352503061,-0.0112115722,0.040743988,-0.0039290097,0.1712244153,0.0115429396,0.1686027497,-0.0317803361,-0.1024868488,0.0075283893,-0.0640769452,-0.032950975,-0.0762667507,0.044776544,-0.0936681032,-0.0606948882,-0.1558564007,-0.1711914837,0.2015324086,0.0480941944,0.0104421116,-0.1391832232,0.0954657048,0.1210728809,-0.1489419192,0.0421022363,-0.0553641692,-0.0356084667,0.1796641648,-0.0875182003,-0.0045583528,0.057293158,-0.1668470502,-0.1489237845,-0.0429428965,0.0315072313,0.0681115016,-0.0167965163,-0.0435414836,-0.0807093307,0.0584274009,-0.1820868403,-0.0881114602,0.0183330663,0.0554293431,-0.0214896686,-0.0096538886,0.1219187453,-0.1674137264,0.0260623544,0.0861937404,0.0387196392,0.0010529605,0.113414444,0.1882765442,0.1215914562,0.0117536522,0.1517936885,0.2212902606,-0.1105288714,0.0484013706],[0.0670110509,-0.0577209219,-0.120111987,0.081502676,-0.0257963818,-0.0001847243,0.015750166,-0.014583366,0.1476824582,0.0984862968,-0.0432024226,0.0133024026,-0.1029303148,0.050853353,0.0824052766,-0.0044268179,0.002155148,0.1503346264,-0.0210107192,0.0097249132,-0.0691285878,-0.0275145769,0.0898651108,-0.0830049291,-0.0228946321,-0.0427042358,-0.0122013707,0.0302526206,-0.0245172121,0.1594290435,-0.0085523026,-0.0352641605,-0.0533317998,0.0524366423,-0.011206504,0.1603123695,-0.0813699737,0.0005583402,0.0851153657,-0.0404160023,0.0908490643,0.0210026763,-0.0051780413,-0.0651034191,0.0236639883,-0.0127686998,-0.0132151553,-0.0573572703,-0.0304875579,0.0581940673,0.0067131328,0.0854391828,0.0150479116,-0.1041945443,-0.0055528339,0.0220484361,0.0134270899,-0.1557160616,0.0618160069,0.1713232398,-0.0266319513,-0.1017694399,-0.0135315554,0.1329018474],[0.093417652,0.0629799441,-0.1112917215,0.0222251806,0.0997188464,0.0564665124,-0.0019389247,-0.0298032369,0.1299875081,-0.0388341881,-0.0398584306,0.0370661318,0.0370101631,0.0010110631,-0.0202452205,-0.038808208,-0.0315930322,-0.0296789669,-0.0186140481,-0.0323247276,0.0569975227,-0.0560455658,-0.08137054,-0.1164212078,0.0083624497,-0.013501524,-0.0308602247,0.0119019691,-0.1065929607,0.0558754578,0.0409367345,-0.0556880198,-0.0769913197,-0.0106396833,-0.0043610614,0.033388529,-0.0381828099,0.0556676872,0.0272509791,-0.0151816001,0.1702901572,-0.1063809395,-0.0764814541,-0.0190935824,-0.0430074781,0.0333759338,-0.1208929941,0.004721737,-0.0230618734,-0.0267386604,-0.0072584399,0.058430098,0.0277578384,0.0020588099,-0.0301428474,0.0140562775,-0.050436236,0.0726684481,0.0688175112,0.1200458184,0.0627068356,0.1002162173,-0.117045261,-0.0244549327],[0.0056823445,-0.0420196243,-0.0672058016,0.0438226201,0.0684476271,-0.0638875291,0.0440245308,0.0928156674,-0.0089764725,-0.0953824595,0.0448616557,0.1384405047,-0.0654232949,-0.0045289653,-0.0435852446,-0.0960393697,-0.0054335487,-0.1147944406,-0.0511636809,0.0084169097,-0.0124030812,0.0076384256,0.1242953911,0.0961083993,0.1122706458,0.0199956317,0.0831834823,-0.0432634391,0.1020953357,-0.0505466871,0.1057209969,-0.0160245225,0.0510474443,0.0916194618,0.1075575873,0.0450411029,-0.0562288091,0.0867351592,-0.0355374031,0.0753677636,-0.0695298314,0.0169524308,-0.0550634153,0.0990744978,-0.0401026197,-0.0667855889,-0.012439874,0.0074706147,0.0220090095,-0.1636564583,0.0427969471,-0.0007688159,0.030456204,0.0522063412,-0.0482505411,-0.0104844198,-0.029711714,0.1258790046,0.0644996092,-0.0456640795,0.0109192394,0.1155175492,-0.0112176947,-0.0320295207],[0.1746255308,-0.0841459557,0.0237247478,0.0395604298,0.0385642201,0.015664326,-0.0932274461,-0.0625024587,0.083125174,-0.1406658143,0.0712860376,-0.0420469046,0.0804236531,0.065915443,0.0269685462,0.3349335194,-0.079670459,0.0999242812,0.1904723197,-0.0125330267,0.0642273352,-0.0119697601,-0.0317066163,-0.0171086546,0.1900409013,0.0984425172,-0.0782291964,-0.0547598489,0.1003604978,0.0127491411,-0.0370078459,0.0296043716,-0.042809125,0.1720212698,0.2087361068,0.0265707653,-0.098983556,0.0453605503,0.0898140147,0.0639867187,-0.0591995455,0.0327637568,0.0113647571,0.2386420369,0.0800489187,-0.0575750396,0.0234191269,0.0934964418,0.282279253,-0.0178488716,-0.0560436659,-0.1505941898,0.0540558994,-0.0384062268,-0.0534633212,0.01618734,-0.0957596526,-0.1616206914,0.2103506625,-0.0478187762,0.0073968219,-0.0596195683,-0.0091001112,0.0539403558],[0.0952190682,-0.0568012036,-0.0505651869,-0.0481350049,0.0461547337,-0.0086197788,-0.0496351197,0.075301148,-0.0147411413,0.0818191618,0.0240602363,0.0336834155,-0.021279728,-0.0714978576,-0.0614260398,0.0458852425,-0.0822768956,0.0140547203,0.0228745062,-0.0587075762,-0.0766863525,0.0130208088,0.0011881453,-0.0209475886,-0.000172149,0.0621299073,-0.0216419734,-0.0384411849,-0.0045983638,0.0359243117,-0.0005530593,-0.0931937844,-0.0956313387,-0.0536658391,0.0727699324,-0.0586625263,-0.0646809712,-0.0708158091,-0.056223534,-0.0164402425,0.0177759249,-0.1177637801,-0.0923147351,0.0052084415,0.0369777121,-0.0464750901,0.0141860247,-0.0144818695,0.0273096766,0.0488046408,-0.052737616,-0.1039993316,0.0119374888,0.0167081282,-0.0263516549,0.0429583266,-0.0493931659,0.0544764027,0.0964844003,-0.0345511883,-0.0284294765,-0.0102952272,-0.0850081816,-0.0510920361],[0.2384867072,-0.0949997753,-0.0362649225,-0.0979671255,-0.0761949345,-0.0568623282,-0.0883883536,-0.1368483156,0.0799487978,-0.218748033,0.0145520549,0.0795565397,0.0009119519,0.0098248441,0.0142850429,0.3000817895,-0.0452103354,0.1063730866,0.1245320663,-0.0504872277,0.0383378863,0.1103973016,0.0058819288,-0.0538736284,0.1841131449,0.0245207716,-0.1067776829,-0.0370428264,0.0038592643,0.0418147817,0.0018022188,-0.0075578419,0.0701025426,0.2411606014,0.1358949691,0.1567104161,-0.116357401,0.0768195838,0.0543829314,0.0526999161,0.0223910306,0.0171400849,0.0829454958,0.1737605333,0.1276318431,