[[[[[0.0438992418,-0.1754141003,-0.0173236337,0.1088730544,-0.0936257988,-0.0537350774,-0.0249321125,-0.0643546805,0.1326617897,0.0837021098,0.0666391328,-0.075433664,-0.0198581424,-0.0403452143,0.105400376,-0.0358231217,0.0167150293,-0.1665781438,-0.0367634483,-0.1539468318,0.0294480585,-0.098388277,0.0603983775,-0.1690526009,0.1043267772,0.0698976666,0.0730077028,0.1323805302,0.0974830091,0.0595095009,-0.076412797,0.1301426291],[0.0523910411,0.1323949248,0.1258863658,0.152072072,-0.1347765177,-0.0200679637,-0.0807551891,0.0083225928,0.029969817,0.0065974994,-0.1024124771,-0.0369451158,0.0356941745,0.053640563,-0.0613910742,-0.0227679443,-0.0334135182,-0.1171930805,-0.1735188961,-0.0755467787,-0.1238002107,0.1225512624,-0.0910210907,0.0358500183,0.009231627,0.0607128069,0.1033192649,0.1661851704,0.0890986621,-0.0542575568,-0.1749520302,0.1227409244],[0.1068085432,0.1385642886,-0.0488896556,0.0352171399,-0.1414022893,-0.1657517254,-0.0610536337,0.0699429587,-0.0823897719,0.0490281768,0.0281470101,0.0802136958,-0.1567960531,0.1646871716,-0.12423338,-0.0785655379,-0.0626690239,-0.0722789913,0.0243245959,0.076715298,-0.1371261179,-0.0819172189,0.0269296765,0.0030499771,-0.0419865772,0.1434188038,0.1241748556,0.1135669723,-0.0142096961,0.0708922893,-0.0598305129,0.0963113159]],[[0.0093112672,-0.0091629773,0.011280789,-0.0828081742,-0.0971486196,0.061310295,-0.0650007129,-0.167602554,0.1517081857,-0.1034797952,-0.1628263295,-0.1402341574,-0.0116385734,-0.1054407135,0.1371947229,0.0585901886,0.0143596074,-0.0447840989,-0.1233408377,-0.0105549702,-0.0686386228,-0.0791473761,-0.1439568251,-0.0182505995,-0.0221534967,0.1396696419,-0.1227319241,-0.0895163864,0.0243553482,-0.0763227493,0.150246039,-0.0560240895],[-0.0447183996,0.125648126,0.1289168149,0.1719777882,-0.0594349131,-0.0924369246,-0.0934293568,0.0849553943,-0.0643667504,-0.0778913051,0.0719350278,0.0813213438,0.0713203177,0.076593399,-0.1255396008,-0.1698068529,0.0336525813,-0.0046309,-0.0216717031,0.101071924,-0.1616463363,0.0986487716,0.1006236747,0.0740470365,-0.0707506612,0.1612599641,0.0459284335,0.0433272347,-0.0916673467,-0.0646074116,-0.1178749055,0.1302418858],[-0.0665844157,0.0323819555,0.0309095271,0.0019968993,0.0489297882,-0.0457336307,0.1309737712,-0.1199338436,-0.087726295,0.0981444046,0.0281101074,0.1013049111,-0.1754980087,0.0082593262,-0.0525114946,0.0790580586,-0.0823175609,0.1499826312,0.067944482,0.1519666016,-0.1478798389,-0.0282282531,-0.0424609743,0.0569983013,-0.0879720449,0.1002992913,0.1450035721,-0.0266227722,0.0853902027,0.0666550845,-0.0208672322,0.0178380944]],[[-0.0068923351,-0.1702668667,-0.1199929714,-0.1660905033,0.0528862961,0.0409765542,0.1029656008,-0.1873028874,0.1107647195,0.1029998437,-0.1318936944,-0.1576182246,0.0479982048,-0.1447847635,0.0887619555,0.0857159942,0.1767737865,-0.0903570056,0.0588696972,-0.1067250594,-0.0997252315,0.1200870052,-0.0763669536,-0.1797843724,-0.1398894489,-0.0640816018,0.0552102141,-0.0389156677,0.0388003252,-0.1343722194,0.0375468954,-0.0640344694],[-0.163739115,0.1382521987,0.1268615425,0.0576844141,-0.0220982432,-0.0556921996,-0.0856494978,0.0543710142,-0.0372807346,-0.0821569636,0.1316062212,-0.0781728253,0.0558828935,-0.0530438572,-0.147102803,-0.1240037009,-0.1119681895,-0.0771449655,-0.095947884,0.0303799417,0.0384474173,-0.125246197,-0.0488348529,0.0492046252,-0.0103184348,-0.1446962208,-0.0819452927,0.0026301583,-0.057514403,0.0148120392,-0.1272919327,-0.1523014009],[-0.0542308167,0.1002612337,0.1327948123,-0.0986640528,-0.0083261095,-0.176369071,0.0596253388,-0.043857906,0.0602886565,0.0609582923,0.1102719605,0.1058521047,-0.0684521124,0.0681807548,-0.0295967255,-0.0280889682,-0.0156158144,-0.0009900688,-0.0120824398,-0.0268871933,0.0364571027,-0.0737939253,0.0337181054,-0.1528889239,0.0887961611,-0.1766721755,0.0619911104,-0.0099479677,0.128191933,0.1157855093,-0.0083948057,-0.0854012966]]],[[[-0.0672284737,-0.1901339591,-0.0349683315,-0.0004892782,-0.1616141051,-0.0844964683,0.040228866,-0.0778091624,0.0495775491,0.0532691069,-0.1875168085,-0.0722141117,-0.147950694,0.0490416922,0.0831662118,-0.0021174257,-0.0857961699,-0.1315248013,-0.0521084182,-0.0253294092,-0.0457277596,-0.0423973054,-0.0291564427,0.0507274717,0.117472209,0.0311206691,0.1447565556,-0.0098016923,-0.1923188865,-0.0053908406,0.0952793285,-0.0785229653],[0.086902827,0.0493925996,0.0660614818,-0.0890818909,-0.0460489243,0.0152997971,-0.1116425619,0.0676724389,-0.0237496104,0.0031954846,0.0201209206,-0.1209331974,0.1687747985,-0.0258731321,-0.0710774213,-0.0627298132,-0.1711943895,0.0655514374,0.0063632713,-0.0995149761,0.0135923605,-0.1085404977,0.0423488617,0.1189966053,0.1033332124,-0.018963011,0.0484781116,-0.0252270997,0.0609348156,-0.1173266545,-0.0991348922,0.1037663072],[0.1231733933,0.1437035948,-0.1035944819,0.0443619713,-0.0259801093,0.0143052796,0.059043467,0.1359447241,-0.1152800471,0.0419857278,0.0461178459,0.0279895198,0.031076761,0.1249454618,0.0558356866,0.0282933712,-0.1148340404,0.0503642336,0.1363000125,0.0586531833,-0.0806399658,-0.1987731606,-0.125470385,-0.1305964887,0.2005302459,-0.0079723373,-0.0590089448,-0.0704279542,-0.1355187446,-0.0407859012,0.1464442909,0.0409003682]],[[0.070423305,0.0841866732,0.0684765652,-0.1371460557,-0.1568616629,0.0066674948,-0.0554217026,-0.0864348188,0.098712258,0.1172648221,-0.1784899682,-0.0556971356,0.0975876823,0.1266768426,-0.0479402617,0.0388037637,0.1440966576,-0.1681028455,0.0882887468,-0.0283775907,0.1213025004,0.0457940549,0.1097003743,0.0816315264,-0.0763808712,0.07450369,0.0129325995,-0.0984139815,-0.0144928573,-0.0961575061,-0.0405632704,-0.0867170244],[0.0536814891,-0.0076488168,0.0132460529,-0.0746966302,-0.0832229704,-0.0407035165,-0.10860008,0.0206260066,0.0264956784,-0.0507441834,-0.0509764403,-0.0694119856,0.0825006813,0.11246261,-0.0162778385,-0.1751346886,0.0515970923,-0.0249153748,-0.1627805531,0.0343459174,0.1588259488,0.110289894,0.034071099,0.1440267563,-0.1074489355,0.0829375237,-0.0404183231,0.1064595729,0.1366207451,0.0196725354,0.0617763586,-0.038300842],[-0.0599848442,0.1374541372,0.0544705167,-0.1072315425,-0.1044582203,-0.1720600426,-0.0211780164,-0.1130948812,-0.0883925036,0.025574157,0.1417593062,0.1582143158,-0.0938713923,0.1390969604,-0.1240959316,0.1381078959,0.0408421904,0.0493978597,-0.0193194263,-0.0378068574,-0.0802186504,-0.1145239025,-0.0291559696,-0.0622999445,-0.0223702285,0.0756899267,0.0185544193,-0.1665872335,-0.0384109803,0.0026314692,0.1416598111,0.0147429015]],[[0.0133300284,-0.0228233617,-0.1575566977,-0.1326695085,-0.0183820352,0.1462230682,0.0892175809,0.0019771161,0.0127788428,-0.1195040718,-0.0639976114,0.0367438309,-0.167028591,0.0302440636,0.0558262318,-0.1197054088,0.1667569876,-0.1323691308,0.0479073636,0.0051276558,0.152418837,0.1625517011,-0.1115184575,-0.018850496,-0.057633698,0.1269892007,-0.0952482671,-0.0983241573,0.0191607084,-0.1535805017,-0.0092350394,-0.0824687779],[-0.031702321,-0.0073380875,-0.0981620029,0.0042152433,0.0900034308,0.0080424808,-0.0180713497,0.1366482228,0.0512152798,0.1067084745,0.0250543319,0.0597525984,0.0637676939,0.0918223113,-0.1201688051,-0.0125501743,-0.0352287553,-0.0822376385,-0.0050781928,-0.1686827987,0.0767106414,0.0485645011,0.1378811896,0.0182038881,-0.1643068194,-0.0298576299,-0.2144795656,-0.013928866,0.1602604389,0.1139975563,-0.0941396952,-0.1144490391],[0.0149274236,-0.0510811619,-0.0774359927,-0.0983875692,-0.1336794198,-0.0596828014,0.1246718615,0.0800566152,0.0306676403,0.1333843619,-0.092486389,0.0306070391,-0.1362561733,0.0680382624,-0.1032858044,0.1227011457,-0.0731316432,-0.0337962918,0.1300903112,0.1724108011,0.0757563785,0.1002802029,-0.1395741254,-0.0153935608,-0.1307308972,-0.0997668952,-0.0473391861,-0.1560092866,0.1329979599,0.1625212729,0.0751056373,-0.1566252857]]],[[[0.1043559834,-0.1722492427,-0.1245538145,-0.1453590989,-0.1161240116,0.1010844037,0.0953299627,-0.101727128,0.1587172449,-0.0268059857,-0.0738986358,-0.1565606743,-0.0173405353,0.0709183291,-0.0591613352,-0.0006928411,0.0300023053,-0.054832451,-0.063404493,0.1010209322,0.002739853,0.0722024292,0.0817615315,0.039583344,0.0361462869,-0.07643006,0.1355735213,-0.0572155006,-0.1657394171,-0.0059098615,0.064319171,0.1421377957],[0.1106193289,0.0047535948,0.0881913751,0.1001865417,0.1185183227,-0.0157241952,0.096699357,0.0267536771,0.0776897445,-0.0288247447,0.0703313872,0.0573099516,0.1702986062,-0.168909356,0.0871200562,-0.0632607937,-0.1664700657,-0.1303364187,-0.0442528613,-0.093484886,0.0775826052,-0.0419578403,0.1572816521,0.0754135996,0.0583137199,-0.0855694562,0.0109201558,0.1125049591,-0.117843084,0.0071500507,-0.0126734022,-0.0118513461],[0.1093640625,-0.1138183177,0.0807122141,-0.0587517694,-0.0292753614,0.0905800909,-0.0185765419,-0.0548040457,-0.0943655595,0.0411730744,0.159036234,0.0846157521,0.1030565202,-0.1043985933,0.0289782081,0.156576544,0.0640003756,0.1691229939,0.1856403649,0.0928919613,0.0316965692,-0.0339083783,0.0053193187,0.0878495425,0.0465136021,-0.1464054435,0.1418009102,-0.1500208676,-0.1927071959,0.1745446771,-0.0264754035,0.1186710075]],[[0.0545320548,-0.1127428114,-0.0931562185,-0.0001809431,-0.171687454,0.1722144634,-0.0721153468,-0.1823104173,-0.0078629535,-0.0460467711,-0.0041663204,-0.0962202772,-0.0916821361,0.0593871474,0.1924526989,-0.0387156792,0.1146524847,0.0133651905,0.0987396315,-0.0362981781,-0.0130199436,0.1384953111,0.1505520493,0.018221138,0.1133370921,0.0993898138,-0.1103567407,-0.1365478486,-0.1437071115,-0.1495744288,-0.0067101493,0.0409907326],[-0.0169716924,-0.0729745328,0.0163927525,0.1315150112,0.0263648089,-0.1135216132,0.0090898825,0.094043754,-0.1411491334,-0.1430767477,0.1043904051,0.1136014163,-0.0026900631,-0.0699225739,-0.0216497667,-0.0740348026,-0.0161251184,-0.0291825812,-0.0735851973,-0.0597443841,-0.0025223731,0.1024869829,0.1178195551,-0.0403196588,-0.0373209044,-0.1482332051,-0.0251411963,0.1482218802,-0.0725937411,-0.0516052544,0.0610601678,0.0014286222],[-0.0650886521,-0.0327335373,0.1324145049,0.0563016534,0.0184868388,0.1134337708,-0.0608712137,0.1044990867,-0.1422792822,-0.0303953476,0.1089851335,0.1651225984,0.0383184403,0.1196893677,-0.1381126344,0.1738812774,-0.1255839467,0.1647789925,0.1926461309,0.0992316082,0.1164300218,-0.0181842223,-0.0951653868,-0.0511990078,0.0306737982,0.0883635283,0.009505393,0.0357663408,0.003440005,0.1344275922,0.047677882,-0.1536271274]],[[-0.1902526617,0.0148326792,0.0763816759,-0.1519977599,-0.1299598813,0.1130179092,-0.02093447,0.0652688965,0.0416059904,0.1027703434,-0.1335650682,0.0515646562,-0.087425001,-0.0707436875,0.1744472831,0.026122801,0.148220852,-0.1372637749,0.0001044322,-0.0062944843,0.0415591188,0.0870729014,-0.0752839893,0.0201537646,0.007538904,-0.0369445831,-0.1573510319,0.0751106218,0.1140828654,-0.0364607424,-0.0087186573,0.05265861],[0.044473514,0.105912298,0.1436737031,0.0795951262,0.0910508707,-0.0597662479,-0.0417925008,0.1380796731,-0.0141294468,0.0911395028,0.1287071109,-0.1213276386,0.0626151711,-0.112184152,0.0180610064,0.0007854393,-0.1467713565,-0.0605936795,-0.1492816806,-0.1067592129,0.0515610613,0.0537275709,0.0187256075,0.0539727844,-0.1211089119,0.1092569828,-0.0885847509,0.1279730499,0.0548500493,-0.1467468739,-0.1401824355,0.0795845464],[-0.1938118935,0.0074474267,-0.0805508941,-0.1086705402,-0.0673946664,0.1096512303,0.1308306456,0.1586397886,-0.1793399304,0.0740924776,0.0150801148,-0.0039050893,0.0560258888,0.1465280056,-0.1269464344,0.077037476,0.0461713187,0.1647424549,-0.0621431656,0.1094033271,-0.0791607276,-0.1371948123,-0.0812533498,-0.0212550592,0.123516351,-0.1493562162,-0.0079177078,0.0024645103,0.0768481046,0.0506348051,0.1478307843,-0.0420867503]]]],[-0.0009162785,-0.0021846863,-0.0055933255,0.0062270174,0.0155612091,0.0004626379,-0.0003489108,-0.0021331627,-0.001345417,-0.0073539191,-0.0021041064,-0.0004022,-0.0002965619,-0.0094406083,0.003813216,-0.0015267736,0.0012475103,0.0106357168,-0.0007133138,-0.0011174735,0.0009709604,-0.0013677198,0.0001338205,-0.0015298638,-0.0003688413,-0.0033841101,-0.0023342033,0.0005529232,-0.0002633508,0.0011647964,-0.0013529405,-0.0002988495],[[[[-0.0511667989,0.0083722938,0.1494196355,-0.0605766848,0.1025489494,-0.0342207886,-0.0052193902,0.0377364866,0.0371920578,-0.0974688232,0.0434243493,-0.0654012859,0.1232468113,-0.0744067207,0.0267226622,0.1681008786,-0.0689812005,0.0045465678,0.0657940209,-0.1422625333,-0.0976820961,0.0533094667,-0.0541273952,-0.0404327177,-0.0360800326,0.0102549875,-0.0153738791,-0.1032137573,0.0560574271,-0.0034995733,0.0112267351,0.008307362,0.044662755,-0.0029596582,-0.0112726027,0.0003046821,-0.0476526842,0.0269338712,-0.1069327146,0.0293353871,0.2115585655,-0.0232109278,0.0951548144,-0.0571119897,-0.0049293702,-0.0223250277,0.01931924,-0.0123273619,0.1938432306,0.0960125029,-0.0892736092,0.012682545,0.0400802679,-0.0003248057,0.0733850971,-0.0166698825,0.0176571943,0.1197509989,0.0997049734,0.1688524336,0.0250790752,0.064933002,-0.0297453422,-0.0693693385],[-0.0993286818,-0.0348657593,0.0992830843,-0.0850880668,0.1113817096,0.0776248574,0.0161260087,-0.0015773694,0.0287742838,0.0753585175,0.0017292404,-0.0712651983,0.0817108974,0.0372292921,0.0320912674,0.0750765428,-0.0500229225,0.0516174361,-0.0781404898,-0.1183572039,-0.0630567893,-0.0892039984,0.0139028328,0.0128055774,-0.1659793258,0.093238689,-0.0161811598,0.1196230948,0.1512341946,0.0737686157,0.0947273597,-0.0231630262,0.0839568302,-0.0547742136,0.0374836437,-0.0583788641,-0.0212430581,0.0002283258,0.0242097452,0.1420745105,0.0315154605,-0.0220829062,-0.0845505819,-0.04263179,0.0826281533,0.0575212389,-0.0372217298,-0.1498013735,0.1783607751,0.1506642997,0.056154713,0.1503563374,-0.1105179042,0.001120423,0.1223930642,0.0517449304,0.1024359465,-0.0676066056,-0.0248071067,-0.0187159926,0.1149272993,-0.0167037342,0.0195571221,-0.0363414921],[-0.0407035425,-0.0085750083,0.0765012428,0.0108804638,0.1107880026,-0.0518156923,0.0185536295,-0.0406445526,-0.0525828674,0.0454062782,-0.0011344959,0.0299526844,0.0865307674,0.0190280639,-0.0309342276,0.0768603683,-0.0191480219,0.0527361296,0.0270941295,-0.1435264051,-0.0336726494,-0.0958836004,0.0132966163,0.0432629734,-0.0318719819,0.0474927686,0.1086268798,0.0813049003,0.0720109046,-0.0391114205,0.031120779,-0.0651832446,0.0749982893,-0.0153880334,-0.0560460053,-0.0712539554,-0.021154182,-0.0293211453,0.0222116876,0.0506427996,-0.0408717245,-0.0742301568,0.0055451794,0.024449734,0.0628501922,-0.0329371728,0.1146085113,-0.0524992757,0.1151415035,0.0322152935,-0.0010568895,0.0153970746,-0.121140644,0.0388571769,-0.0467985906,0.0453609563,-0.0618813112,-0.0028510925,0.02616987,0.0173680149,0.0044502364,-0.0157835539,-0.0010763825,-0.0764840618],[0.02017623,-0.0077237329,-0.0152365509,-0.0496710502,0.1116968468,0.0543281808,0.0688987449,-0.0088936817,-0.0763478801,0.0328364335,0.0463245325,0.1010197774,0.0581480525,0.0781568214,0.1469017714,0.0489518344,0.0415546149,-0.0212827045,-0.0941424742,0.1715303063,-0.1308883131,-0.0218113102,0.0607782155,-0.0494867079,-0.0314052142,-0.0235060137,-0.0603661463,0.0658044145,0.0596552677,0.0425578393,0.1283149123,0.0081465812,-0.0536301509,-0.0010945876,-0.1162354797,-0.0309303161,0.0051452974,-0.1047525182,0.0400126129,-0.0305336993,0.0930841267,0.0377455615,-0.1039958,-0.075305596,-0.0178566929,0.0958527923,-0.0513688736,0.0428962335,-0.0251194574,0.0728555322,0.0324127898,0.0895341039,-0.0696179569,0.0061988682,-0.0091442429,0.0135832541,-0.0064757909,-0.0186096523,-0.0351229273,0.0229106527,0.046831008,0.0453793518,0.0422963165,0.0117077958],[0.0452057049,0.0170382187,-0.0154939564,0.041193068,0.0769179016,-0.0070431819,-0.0454207845,-0.0876460299,-0.0643229187,0.1030895784,-0.0069571403,0.077081427,-0.0392212234,0.0966797844,0.0492859855,-0.08636491,0.0850257948,-0.0220985953,0.0172006004,0.0700842962,0.0024866783,0.0705305561,0.026754491,-0.102779381,-0.0075582447,0.0634681582,-0.071330674,0.082391791,-0.0441341698,0.0702868104,0.1189177707,0.072216019,-0.1203633323,-0.0406737924,-0.0726859123,-0.0510645434,0.0814004019,-0.0608845167,0.0579543374,-0.0214138627,-0.0507643148,-0.010226897,-0.037406493,0.0654613599,0.0341665335,0.065030776,-0.0106795989,0.0931740254,-0.0220188126,0.109384805,-0.0507562906,0.042644117,0.077236332,0.0436708108,0.0530842878,-0.0991212949,0.0135789001,0.0022608277,0.030061245,0.1177248657,-0.0458295532,-0.0049194521,-0.0625001937,-0.0640276223],[0.011887284,0.0278425794,0.029707808,-0.0102519765,-0.058011286,-0.0800205618,-0.0149827758,0.0312686116,0.0043184729,0.003062489,0.1056496426,0.1215712279,0.0231821258,-0.0046338947,0.0024168338,-0.0704362169,0.0748198405,-0.0990496501,0.0154631641,0.0020885472,0.1336251646,0.0416442677,-0.0125627061,-0.0080304006,0.0659724995,-0.1529786438,-0.0995309949,0.0985787734,-0.0747955889,-0.006448254,-0.0490374193,0.1325784773,0.1132780612,0.0584114715,0.0106748678,0.0053476044,0.1298696697,-0.0538980216,-0.0977299958,-0.1732605398,0.1056859419,0.1592690498,0.0527027659,-0.0772354677,-0.0850227252,-0.0499216616,0.0727786273,0.1261280328,0.0174796823,0.0316685997,-0.0475096032,-0.0257830415,0.114117153,-0.0643396899,0.0545349047,0.0506135225,0.0607602596,0.0771481171,-0.0009339727,0.1306129843,-0.1701006293,0.0808425918,0.0109090554,0.0695547312],[-0.0585619397,0.0182147902,0.0313089006,-0.0423565321,0.1040764078,-0.05147589,-0.014738922,-0.0024653873,-0.0063709728,0.0771699175,0.0758671612,-0.0275600255,0.0878651515,0.1002224982,-0.0929934606,0.0882461369,0.06806577,0.0032412938,0.0479298197,-0.1322880834,-0.0485230386,0.0985510349,0.0038144763,-0.0603295676,0.0013261174,-0.0339944735,-0.072703585,-0.0221185572,0.1039763913,-0.015402738,-0.0254905913,-0.0317114033,0.0869013071,0.1176441163,0.0982001349,-0.0061695422,-0.0487009138,-0.0575290397,-0.0785752907,-0.016308004,-0.0798377916,0.0157155246,0.050579302,-0.0431150198,-0.0620363168,0.0246930737,-0.0343612023,0.0074610296,0.0134542314,0.171157673,-0.0797080621,0.0044975542,-0.0793539509,0.0662820339,-0.0083983056,0.0434707329,0.1253644079,0.0083735269,0.0482456274,-0.018063521,0.0368342549,0.0008878232,0.1056352183,-0.0074066711],[-0.128291741,-0.0227110349,0.193427816,-0.1642516553,0.2221037149,0.0669643506,0.00880004,-0.0621262044,-0.0404268093,0.1308852285,0.078772679,0.0464826934,0.0663080737,0.1615294218,0.1215407997,0.0303293914,0.0333331488,-0.0743261352,-0.038981013,0.0817006007,-0.1925858706,-0.0249420628,-0.053748481,-0.1037346199,-0.0901717693,0.1164535061,0.0235284287,0.1076360568,0.0535162091,0.0084157558,0.1667479724,0.0060302848,0.1332646161,0.0985131189,-0.0817548111,-0.0128655089,0.1004469097,-0.0792657956,0.058083266,0.0782689303,-0.0599189177,-0.0265690666,-0.097997129,-0.1168190464,0.1055206656,0.0584793836,-0.0202514883,-0.1356508732,-0.008826647,0.1793363541,-0.0134827774,0.1099312603,-0.0202281326,0.0256334674,-0.0536545962,-0.0418779701,0.160705477,-0.0402745642,-0.0768243372,0.2194752842,0.0981108323,-0.0243072994,0.0620355867,0.0295221433],[-0.0168840475,0.0030286517,0.0577712655,0.0179753918,0.1266845614,-0.1795638651,-0.0091805728,0.044129435,0.1546382457,-0.0770813897,0.1479158252,-0.054525651,0.1244505718,-0.1067413613,-0.0581599884,0.1124181971,0.001884428,0.016828917,-0.0332367532,-0.0240492281,0.0949181318,-0.0638396889,-0.0791015849,0.0370463766,0.0805909485,-0.0703656375,-0.033143796,0.0329056978,-0.1017616838,-0.1235702783,0.0082485108,0.0460592955,-0.0329528712,-0.0788024887,-0.0147383474,0.0584760047,0.0417188816,0.0875331685,-0.0235709138,0.0546723343,0.1768543124,-0.0248943437,0.1852228642,0.1478499919,0.0198093597,-0.0604447946,0.0226216558,0.0832732916,0.1049244329,0.0573590584,0.1091983095,-0.0992032886,0.0741279274,0.0071574189,0.1934511214,-0.0053115515,-0.0872854441,0.0756672472,0.0795428157,-0.0197463781,0.0254580788,0.0356938913,0.086688593,0.1414354891],[-0.0020490983,0.0313604809,0.0591691136,-0.0524232127,0.0325057916,-0.0681087747,-0.066068463,0.0992964134,0.0247226804,0.0536074936,-0.0424933471,0.0208165385,0.0178223532,0.0315259285,-0.0354421437,0.0488834977,0.0423353016,-0.0483431928,-0.0714839026,-0.1209553629,-0.0786321461,-0.0199910831,-0.0481719375,0.1089902595,-0.0758815408,-0.0509772301,0.0593892224,0.0113267368,-0.0346706435,-0.0667637959,0.0782332197,0.082390815,0.1166519374,-0.0631679371,0.0529742613,-0.0452900715,-0.0527540073,-0.0405392461,-0.0867196992,0.0952654034,-0.034607444,0.0801202059,0.0277650487,0.0543620847,0.0423501469,-0.0704355314,0.1098906249,-0.1149241254,0.1423286945,-0.0094407052,-0.0626916587,-0.0429982357,0.0208702553,0.0470546149,0.0668737441,-0.0183799453,0.0323128775,-0.0206442531,0.0675230995,-0.0698078498,-0.0139389671,0.0351934433,0.0699876994,0.0483514629],[-0.0581844933,0.1005086228,0.1045628712,-0.1361542493,0.1029037461,0.0690438151,0.0824869871,0.0368336514,-0.0267761964,0.0501458049,0.0724264681,-0.0189017355,0.0448655672,0.174312979,0.0777148455,0.024780998,0.0704594031,0.0571850277,0.0265860613,-0.0342162363,-0.1522314101,-0.0694572851,0.0348533057,0.0415209904,-0.0681144372,0.1137100309,-0.0129146464,0.1194566414,0.1673089862,0.0770616308,0.0493769534,0.055345539,0.0752152205,-0.0534575731,0.0714148879,-0.0272526685,0.0548406616,0.0033585196,0.0310545769,0.1101303622,0.0315288715,0.032889612,-0.1568636596,-0.0646864623,0.0125025595,0.0857635215,0.0513870306,-0.1070477888,0.0910447836,0.0916098803,0.0248415675,0.1603433043,-0.0075545427,0.0083548445,-0.0551330261,0.0322405398,0.1583873034,-0.0082650427,-0.0203717891,0.0832704455,0.1229515001,-0.0818978101,-0.0844364464,0.0236499328],[-0.0833410919,0.1252005249,0.0976742432,-0.0576068535,-0.035063751,0.0643558875,-0.0480937883,0.1318602115,-0.0313148946,0.1330417842,-0.1347270459,0.0853756517,-0.1161001623,0.1716412753,0.1151947528,0.0133491931,0.0922200382,0.1076993942,0.0204077922,-0.0428765081,-0.0136770289,0.1020960286,0.1346901804,0.0200754292,-0.0059838258,0.0124394996,-0.024854213,0.0130956173,0.1733374,0.135687083,0.0962816551,-0.0563721396,-0.0478467681,0.2135953903,0.0330127329,0.1141000614,0.073400259,-0.0938909054,0.101724878,0.0011117127,-0.1488194466,0.0416948535,-0.0874649659,-0.1626840979,-0.1276940256,0.1409032792,0.0322134271,-0.0105289724,0.0249880441,0.0939521641,-0.0519285761,0.1140416712,-0.0849541128,0.1592884064,-0.0649085417,0.0382197425,0.0621734969,-0.0881115943,-0.0587266423,-0.1254704744,0.1174610481,-0.1459832191,-0.1350860894,-0.1086038351],[-0.0970019922,-0.0699041709,0.1331165582,-0.0592796504,0.2324868739,0.1361540407,0.0198446549,-0.1570667028,0.0421951674,-0.0204429738,0.1685385257,-0.0087245926,0.1204816326,0.1388436556,0.2120580077,0.0116434172,-0.232919246,-0.0199697707,-0.1524371803,0.2302370965,-0.1406925768,-0.098841548,-0.0751036704,-0.1188463196,-0.1169774905,0.1828726083,0.1531669497,0.0762283951,-0.0179687086,-0.0333832949,0.0620441586,-0.0893824548,0.0209609792,-0.1281505078,-0.1654090881,-0.030493943,0.117313005,-0.1268991232,0.1279195249,0.0666648075,0.2156942189,0.0688574836,-0.1023962498,-0.0539646968,0.164426282,0.0854500905,-0.1424686164,0.0443363748,0.1080682799,0.0263007917,-0.0639809966,0.1219396815,0.0100161787,-0.0910741836,0.0807736292,-0.0640074089,0.1119530648,0.1003421843,-0.0122584123,0.238220185,-0.0174959563,0.0839713663,-0.030123366,0.1281950921],[-0.001813374,0.0511343032,0.0278322939,0.0494562648,-0.0659896582,-0.0565603822,-0.0723479241,0.0109358635,0.0641876683,0.0160352979,0.0492285155,0.0072535197,-0.0640928447,0.0069867307,-0.0944969803,0.0322755799,0.0659714118,0.0413306728,-0.0115469536,-0.0879248232,0.0091713127,-0.0536615513,0.0806928873,-0.021365704,-0.0258329939,-0.0509933457,0.0519403927,0.0543413647,0.0247515198,-0.0432649851,0.0700817481,0.0681831241,0.0675292835,-0.0601330251,0.1147986278,0.0992219299,0.0734084472,0.0678966045,-0.0807958841,-0.0134124989,0.0433173738,0.061566364,-0.0176583715,-0.0806192979,0.0534746461,0.085376434,-0.0185296573,-0.0097616268,0.1125668734,0.0829309598,-0.0872494951,0.020362312,-0.0094883395,0.0225558635,0.0313901007,0.076252833,-0.0152089372,-0.0611607432,0.0206566714,0.0221512355,0.1175252125,-0.0382945128,0.0851063803,0.0264772214],[0.0910761952,0.0031774752,-0.051747378,0.1533848196,0.0918688774,-0.1487148702,0.1360526085,-0.0854642689,0.0684868395,-0.0536710918,0.1379844546,0.1059652269,-0.0666930079,-0.0735145137,-0.0744358972,0.0233891346,0.0384532362,-0.0118126087,-0.0216749832,0.183285892,0.1004592255,0.0019994304,-0.1112593263,-0.065447703,0.1395031959,-0.1056176201,-0.1108462289,0.0513605699,-0.0575168394,0.0096626366,-0.036240492,0.1537018269,-0.080487825,-0.0411387011,-0.0167223588,0.0403049104,-0.0192896668,0.0376148783,-0.0554518141,-0.0050554178,0.1932685375,0.178081736,0.2010923773,0.0416447222,-0.0085621895,-0.0455671586,-0.033721514,0.2105393708,0.0436824337,0.0173649974,0.1144491732,-0.0147746895,0.1526460201,0.0084043918,-0.0031758384,0.0471177399,-0.0539097004,0.1797790825,0.0973162055,0.0190575682,-0.1194926724,0.1444824785,-0.0429929197,0.0418617949],[0.0479043797,0.1884483397,0.1327911466,0.0260997079,-0.2551931143,-0.0013694412,-0.0080379155,0.089101024,0.0672090352,0.2497320771,-0.0349109843,-0.0055184392,-0.1897096336,0.162363857,0.0039944472,-0.0816849023,0.3249163926,0.0450432673,0.1784696132,-0.1683642715,0.1123579666,0.2424505055,0.1713234484,0.030882515,0.0960422158,-0.1549518853,-0.1895408779,0.0922414139,0.0838434249,0.187719956,0.042637039,0.1300767213,0.1053409353,0.2901630998,0.1487036645,0.2182141393,0.0507682152,0.0501629747,-0.1784008592,-0.0872507617,-0.0662709922,0.1249868646,0.0025705611,-0.0302265268,-0.1647322923,0.0973806828,-0.0286934562,0.140588522,0.0042928299,0.0188239105,-0.0028412687,0.1033531353,0.0620675087,0.1623433381,-0.1450047046,0.0796189159,0.1549502164,-0.0823644251,-0.031250868,-0.1743157953,-0.023805825,-0.0699394569,-0.11662855,-0.0470315851],[0.0315985493,0.0115303192,-0.0746681988,0.0977701545,-0.0252438094,-0.1656769365,0.0393836312,-0.028049957,0.0612944216,-0.0649787188,0.0163064804,0.0774278492,0.0156047512,-0.1052584574,0.0418214835,-0.0436094515,-0.0398306474,0.0873386636,0.0880119056,0.0715107098,0.0845835283,0.0217729434,0.0681191832,-0.1156159863,0.1379802376,-0.1880189925,-0.1086179018,0.1577914506,-0.1276542544,0.0051602507,0.125831902,0.0132173887,0.0910927877,-0.0251769852,0.0136195552,0.0418522842,0.0175202377,-0.0221736617,-0.1658151001,-0.1430955231,0.0068726027,0.1633193791,0.058056362,0.1265524477,-0.0428433903,-0.0090974206,0.0873831809,0.0815382227,-0.0273625851,0.0471880548,0.0659264103,-0.070761919,0.1284802854,-0.07175605,0.0185514167,-0.0467522815,-0.0620600432,-0.0158036184,0.050586924,-0.04295782,-0.0689223036,-0.040597342,0.0608201399,0.0863462016],[0.0332544446,0.0594641902,0.1238737553,0.0254630856,0.0844533741,0.0934264064,0.0191016011,0.0079023568,-0.0293732975,0.1604932696,-0.0269504283,-0.0004775782,-0.0991037413,0.0211469717,0.1557724774,-0.0788298026,0.0968796909,0.1075313538,0.0699290037,0.0010762669,-0.0887510478,0.0888071731,-0.0441066921,-0.0926130489,0.0815704092,-0.0548870489,-0.06373474,0.0524912998,0.1010194495,0.0742897615,0.0375864655,0.0337505899,-0.0371870659,0.1503428966,-0.0502667017,-0.006374782,0.0234739054,-0.0177993868,0.0322347023,0.0121083958,0.000684127,-0.0442174301,-0.1196762547,0.0510186851,0.0186219756,0.1092620865,-0.0895688683,0.1057370976,-0.0448244661,0.0992816463,0.0347739458,-0.0118124122,0.0330468863,0.0562953465,0.0281617194,-0.0469178818,0.1305366307,-0.0301348343,-0.0247387104,-0.0000140329,-0.0393574871,0.0332220681,-0.1101773381,-0.0027185702],[0.1371476054,0.1293729842,0.2112424076,0.0460821874,-0.1038311794,-0.0986794084,-0.033624012,-0.0232879221,-0.0185987577,0.1761585921,-0.138526395,0.0455803089,-0.2378224283,0.1473367512,0.0582471341,0.0487823226,0.3046641946,0.0951296389,0.0861927196,-0.0292754974,0.1076863408,0.2085568309,0.0920967907,-0.0040954086,-0.0043439716,-0.1216437891,-0.1894178689,0.0357845426,0.000742676,0.1073125675,0.1061855555,0.2127970457,0.03461143,0.3076658547,0.1558481455,0.1393827051,0.0494522713,0.085412018,-0.1558258235,-0.1598487645,-0.1127787754,0.1085126251,0.1398254186,0.017043924,-0.2259991467,0.0512225926,-0.0663745552,0.1858911365,-0.1150587946,-0.0067141806,0.0163117256,0.0908302292,0.1193724275,-0.0016991316,-0.0526514389,0.1787591279,0.0809466094,-0.0392728187,-0.0275893547,-0.0861533135,-0.0716954097,-0.0390829109,-0.0745013356,-0.0247705914],[-0.0511054248,0.0778887123,0.0491592512,-0.0440564081,-0.0647506639,0.0220622029,0.0555501543,0.0312926285,-0.0877867565,0.123593919,-0.1566809863,-0.0835202038,-0.1096404344,0.0765988827,-0.0731655955,-0.0309050083,0.0853270367,0.0504832864,0.1207545325,-0.1699935645,-0.0313864611,0.026124578,0.0925373733,0.0693392158,-0.0251311809,-0.0679892972,-0.1182149947,-0.0359613635,0.0779217929,0.0898536146,0.1135206595,0.1032164842,-0.0132693872,0.1261717528,0.0330301672,0.0069200117,0.0711862892,-0.0526581705,-0.0479211509,-0.0478442982,-0.055223614,0.0251288116,0.0291715283,-0.0268726461,-0.198261261,0.0434241481,-0.0118287718,0.0448660366,0.1155198812,0.0980105177,-0.0614634901,0.0809682235,0.035179209,0.0720229596,-0.0714264065,0.0770104676,0.0133039756,-0.1239368394,-0.0813813731,-0.0554995537,0.0872048661,-0.0550311543,-0.0211364478,0.0044641495],[0.0414387286,-0.0850762427,0.018221572,-0.0532938428,-0.0028775439,-0.0637336522,0.0329354294,-0.1147938818,-0.0366605148,-0.0275045894,0.0485865548,0.0237441789,0.0344926715,0.0214982498,0.0506288707,-0.0320644826,0.0416494682,0.0228719655,0.0792313516,0.0871064141,-0.0347287729,0.1352240741,-0.0061239665,-0.1539814323,-0.0519236065,-0.0174651016,0.0059671723,0.0659879148,-0.0762684643,-0.0855160207,-0.0916573107,0.0522473603,0.10112831,0.107945852,0.0692342743,0.0875938758,0.0443467423,0.041202046,-0.1882142723,-0.0412986614,0.0078682927,0.0787067339,-0.0567780025,-0.1033512205,-0.0649926066,-0.0607944354,0.0094966749,-0.0372759849,-0.0684576556,0.0412295274,-0.0709020272,0.0141372886,0.0725746825,-0.0696429908,0.0028660297,-0.014672935,0.0677835569,0.0355426706,0.0381042361,0.0726028681,0.0120980889,-0.0164309181,-0.0244822633,-0.030832896],[-0.044313591,-0.0741625056,0.081810154,-0.0705476701,0.0423926041,-0.0263020024,0.0183142368,-0.0133625995,0.0721932501,-0.0790906996,0.1293863654,0.1195639893,0.0871104971,0.0012858352,-0.0299215522,-0.0388861373,-0.1172723174,-0.0596133545,0.0299003404,-0.0582240224,0.023352297,0.0697814524,0.0070894826,-0.0797381699,-0.0623206049,-0.1459558457,0.0879002735,0.1045827791,-0.1177074611,-0.0134501439,0.012133278,-0.0383119881,0.1645728946,-0.0466641523,-0.1061217338,0.081377469,0.0678503364,0.0691688582,-0.1150107831,0.024078045,0.0949252844,0.0027281079,-0.0158856455,0.0722137466,0.0617522933,-0.0635848492,0.0875147656,0.0178910699,0.0589816608,0.1091502234,0.0175997317,-0.0510462299,0.0671704039,-0.0358824655,0.0200671386,-0.1105456874,-0.0005277167,0.0794835016,0.0712802485,0.0281199794,0.0026388227,-0.0111049982,0.0473314449,0.1226438805],[-0.1003869772,-0.0283108372,0.1398153305,0.0380939431,0.1010878682,0.0419637635,0.0296049621,-0.0172391608,-0.0378611796,0.0909796357,0.1676239371,0.089042142,0.0376945026,0.0299210865,0.0371584482,0.003224246,-0.0757377371,0.0342623666,-0.0272626895,0.0599970743,-0.0117735146,0.0326142162,-0.0368005671,-0.0078691263,0.0117332432,0.0716334507,0.0408126377,-0.012104216,-0.0860127136,0.0183676518,-0.0135053899,0.0702964962,-0.0014066232,0.0068405881,0.0245722961,0.0283499733,0.1001134142,-0.0100885611,0.0280354768,0.1006327271,0.0760665089,-0.0125174411,-0.0664962307,0.0817786157,0.0594343357,0.0819146931,0.02897566,-0.038812004,0.1221967265,0.0873764455,0.0252854172,-0.0076738824,-0.0624532998,0.0080494285,0.0722284541,-0.0262966994,-0.0582505502,0.114152424,0.0633330569,0.0905727819,-0.0778818578,0.0258379709,-0.0550474524,-0.0016450924],[0.0311280433,-0.039641384,0.1298192739,-0.0807593763,0.05261264,-0.0643324926,-0.0143583184,-0.079946883,-0.0589426756,0.0692535117,0.1009744555,0.0675956979,0.1205879003,-0.0091457032,0.1122318432,0.036574088,-0.1486997157,-0.1097493172,-0.0448168702,-0.0068852841,-0.1249619797,0.0010513382,-0.1105603278,0.0102143511,-0.0624397285,-0.029912075,0.0766308308,-0.0713034421,-0.0043378635,0.0536942706,-0.0527238511,-0.0756482035,0.0467259176,0.0356693603,0.0734007955,-0.0668677539,0.0390417352,0.0112913996,0.0073921294,0.0885343552,0.0323755816,0.043284867,-0.0783525556,-0.0288693849,0.1020354256,0.0338839963,-0.0113817053,0.0712726861,0.1473347843,0.1011184156,-0.0641017631,-0.0681519136,0.003039835,-0.0287456792,0.014600357,-0.0449933112,0.0806920975,0.0124555398,0.0831174999,0.1111183167,0.0322817639,0.1030336395,0.0041989833,0.007942779],[0.0080981869,0.1065152213,0.1876995564,0.0016316955,0.1154653281,0.0485869646,-0.0121057183,0.0664642602,-0.0355958268,0.0522027388,0.1428679079,0.0234230254,0.0735884905,0.0516394302,0.0565000884,0.0935746133,0.0532916598,0.1192951724,0.0986311883,-0.1156350896,-0.05188917,0.0094169192,-0.0821323618,-0.0892557576,0.0439227782,-0.0215272754,-0.034535341,-0.0224966798,0.0201577023,0.1071400344,0.1259551793,0.0580127463,0.1431856155,0.1505044699,0.1407267749,0.0948503315,0.1405415535,-0.0817668512,-0.0862140432,-0.0331922024,0.0855232775,0.0273779631,-0.0604393296,0.0570248216,-0.001854346,0.0952057838,0.0327537842,-0.0410780646,-0.0096294396,0.0609972179,-0.0673925504,-0.0409767926,0.1071068719,-0.0564706288,0.0949841812,0.0910125896,0.0335453376,0.1063145399,0.072756879,0.1030950174,0.113457039,0.0017436483,-0.0575308651,-0.0846505761],[-0.0214755982,0.0911865234,0.0744647905,-0.0352639221,0.1477666795,-0.0979119316,-0.0609486811,0.1454476565,0.1968761384,-0.1322576553,0.042626515,-0.0731547475,-0.0115379998,0.0218845345,-0.1137441993,0.0655026957,-0.0071602622,0.1141520813,-0.0357618295,-0.1650547832,-0.0280400719,-0.0518744625,-0.0680186301,-0.0808247998,-0.0680180565,0.0051761111,-0.065063633,0.0535955392,-0.1232903153,0.0478502624,0.1067901403,0.0453905426,0.0620688461,-0.0899649188,-0.06218943,0.0251125451,-0.0857815668,0.0347621739,-0.0303140488,0.0673410371,0.1673759818,0.0570479259,0.1200708374,0.0559922904,0.1198057309,-0.06365069,0.0704450011,-0.0592335835,0.1918962896,0.0401084609,0.0729150549,-0.044390671,0.0446285978,0.0065628854,0.0630520433,0.0056525078,0.1042276248,0.0416823514,-0.0067668166,0.0718457848,0.0406379923,0.0997157022,-0.0958478153,0.1120421439],[-0.0940355882,0.0887640342,0.0866353214,-0.0803998262,-0.0191471353,-0.0363293216,0.0135847237,0.1494797021,0.1374578774,0.0637922063,0.0995863527,-0.1030041799,0.0036865145,0.0095832637,-0.0584364161,0.1689008772,0.0781068802,0.1166603789,0.0935681984,-0.1882255971,-0.0974690914,0.0242872722,-0.0278899446,-0.0157109071,-0.0618688129,-0.0399538502,-0.0478621721,-0.0014261666,0.0427975915,-0.0180782713,0.0995388478,0.0002461355,0.0955395177,0.0060737543,0.0294061489,0.0139643857,-0.0569676049,0.0155178299,0.0105222994,-0.0577673353,0.0707128644,0.1396607459,0.0746669173,-0.0891329348,-0.059583351,0.0748351589,0.071150668,-0.0185830127,0.138853997,0.0308715254,-0.0432219207,-0.0049427156,0.0013026954,-0.0282485243,-0.0248073619,0.0733192563,-0.0079572005,0.0435133204,0.0445752479,0.1285516918,0.184533298,0.0208862294,-0.0154020693,-0.1209560409],[-0.1211781278,-0.1855021864,0.0790096223,-0.0637619495,0.3390404284,0.1379905045,0.0099443868,-0.1501887292,0.0294522177,-0.1287365109,0.1010818705,0.0176762026,0.2173141837,0.0375541896,0.1647596061,0.1367505938,-0.2503837049,-0.0702342242,-0.1247840971,0.1820913404,-0.1431422681,-0.0834156945,-0.1301366389,-0.1916933954,-0.0588484146,0.0593243875,0.1573607624,0.270051986,-0.0028551999,-0.1316897273,0.0648538247,-0.1397657394,0.0668330342,-0.0672085062,-0.1306996495,-0.0955713317,0.073981218,-0.1562613845,0.1329133958,0.1123426706,0.0824104697,0.091240406,-0.1464652568,-0.0382730141,0.1656543761,0.1086167321,-0.0666466504,0.0170991682,0.0599996559,0.1315381527,-0.0237352084,0.0253288466,-0.1165695339,-0.0371720083,0.0764765963,-0.1654961407,0.1321882457,0.040376205,0.0089778891,0.2297770232,-0.0174238309,-0.0275739133,-0.0374107882,0.1135151908],[-0.0093120849,-0.018228313,-0.0841994733,-0.0361211486,0.1950384825,-0.091380544,0.0912187845,-0.0378762521,0.069807142,0.0307152513,-0.0229722653,0.0142470766,0.1059677228,-0.0028486066,0.0024595091,-0.0503230765,-0.0370722413,0.05043073,0.028144896,-0.1017720699,-0.1113367602,0.1251791418,-0.0307412781,-0.1452920735,-0.1430187672,-0.0463459603,-0.0666524917,0.14659518,0.0157564767,0.0090977056,0.3622467518,0.0437541679,0.0744772553,0.0384146944,-0.1357137412,0.043999806,-0.0393096656,-0.1069887355,-0.0837031081,0.0024239819,-0.0527374037,0.0737977698,-0.0663788617,-0.0444633216,0.0843492001,-0.0120788589,0.1328186244,-0.1213231459,0.1467428505,0.2815705538,0.1000287682,0.0910665691,-0.040989764,0.060831096,0.1636359841,0.0592150651,0.0462008566,-0.0906447917,0.0136674074,0.0710563213,0.1330330372,-0.1484432817,-0.0181473233,0.0557927825],[-0.0661364645,0.1827562898,0.0566924289,-0.002408311,-0.0787253156,0.2395730466,0.0422108881,0.0709613562,-0.1935070157,0.2425851077,-0.110247083,0.0518375598,-0.1912622452,0.2672950625,0.1522761136,0.014593225,0.2016624659,0.1948010623,0.1603078991,-0.0675921366,-0.1374326199,0.1174142435,0.0113453409,-0.0248374846,0.0474617705,-0.0075991447,-0.1295468956,-0.0134069687,0.2391180545,0.1200807095,0.13959153,0.0268184263,-0.0188473426,0.2604187429,0.088948667,-0.0141335782,0.1488123387,0.0822905302,0.134164691,0.1431507319,-0.1802509725,-0.0674368292,-0.1006238237,-0.033719521,-0.0894482881,0.2079236954,-0.0143145202,-0.0657007545,-0.0687354878,0.0800310522,-0.0626206696,0.2073551267,0.0221965015,0.0966767818,-0.150948897,0.2035712451,0.2280730605,-0.1419456452,-0.1223070398,-0.1048131809,0.155418992,-0.1419048905,-0.1109373942,-0.0201669205],[0.0075990269,0.0784650519,0.0715975836,0.1096332595,-0.1192794368,-0.0189971663,0.0729098693,0.001205358,0.0099775316,0.1623968929,0.0665598661,0.0012178778,-0.0739835203,0.1428794265,-0.0563747697,0.1195405349,0.1565432996,0.0269955285,0.1226824373,-0.1821793467,0.08836817,0.2083032578,0.0843378231,0.0498211905,-0.0220686123,-0.2121197581,-0.1578362584,0.0553309955,0.0651546121,0.1043997407,-0.0534513257,0.0678891018,0.0668562502,0.1533470899,0.1807494313,0.1632747203,0.0054239021,-0.0014484628,-0.164878279,-0.0619475842,0.027255442,0.1610037684,0.116133295,-0.0710599273,-0.1937611401,-0.0663774014,0.0904401094,-0.0089950906,0.0187874138,0.0802482516,0.0078430753,-0.0841269717,0.0260800552,-0.0320570208,-0.0164304171,0.0699521303,0.1206698194,-0.086861603,-0.0381755158,0.0718182623,-0.05134473,-0.0514038466,-0.111591801,-0.0753003731],[-0.0790053159,0.0865573436,0.1712187827,0.0371608026,0.13855654,-0.1086530909,0.1056882143,0.0696991608,0.0744844154,-0.0438396744,0.0708206147,-0.0496530533,-0.003373638,0.062892653,-0.0327197127,0.1147543043,-0.1164264008,0.0317086913,-0.0206127521,-0.0406948812,-0.0794956535,0.0721790344,-0.0796148479,-0.0528207198,-0.0713160485,0.0151078645,-0.0992718861,-0.0312962718,-0.0879869834,-0.0168273263,-0.034792874,-0.0315814912,0.1204945818,0.0759492442,0.0174234416,-0.0289407279,0.0054322304,0.0212260652,-0.1099607646,0.059286952,0.1317296177,0.1392375976,-0.0676122233,0.0008843398,0.0894134492,0.0375799537,-0.0515115671,-0.0786264613,0.1772187352,0.0700461194,0.0726194605,0.0403379723,0.0854808167,0.0390154906,0.0878326073,0.0048454162,0.0416363738,0.0616446137,0.0430983491,0.1763193607,-0.0003233264,0.1035306528,-0.1342723072,-0.0574667864]],[[-0.0945628136,-0.0364804007,-0.017940795,0.0019893406,-0.0239409748,0.0221889317,-0.0770218,0.1246018186,0.103709735,-0.059897013,0.0321912281,0.0291604325,0.1147705615,0.0850094929,-0.0040651574,0.0703054368,0.0007473519,0.1095112637,0.0328043178,-0.1234300733,-0.0246920045,0.0503616482,-0.0094765332,-0.0751949921,-0.0868256241,0.0146617526,0.1177285835,0.1259035766,-0.016169453,0.0344566703,-0.0679397658,0.0472250879,0.109251827,-0.0822316259,0.0691441074,-0.0183723941,0.0062607252,-0.039793402,-0.0613298155,-0.0042769015,-0.0310103931,0.093675524,-0.0030691482,-0.0230010413,0.1038628668,0.0135302637,0.1275601387,-0.0462773144,0.1314870268,0.1193653345,-0.070941478,-0.0366814286,-0.0669726953,0.0879766122,0.1392402351,0.0488811955,-0.0325161517,0.0587970093,-0.0167321879,0.0649527237,0.1070664898,-0.0378401689,0.0969118476,0.0476662032],[-0.0761239305,0.1107310578,0.0876155719,-0.1374216825,0.0781290606,0.0509720035,0.0860038102,-0.0116481883,0.0859277323,0.0980042666,0.0557087325,-0.0264271349,-0.0015813228,0.1660361588,0.162659049,0.0795608386,-0.012376721,0.1539458334,0.0281700864,0.0043698708,-0.065248318,-0.124964118,0.072784096,0.0438349843,-0.13181521,0.0466226898,0.0874513686,0.0502805747,0.0942356735,0.0460036919,0.2127667367,-0.0779232159,0.0058662142,-0.0741049945,0.05155937,-0.0976776779,0.109420687,-0.0490358248,0.1765656322,0.0276633706,-0.0464039743,-0.0959074944,0.0148799717,-0.0594022162,0.0939478576,0.075357303,-0.0248556305,-0.0746875852,0.0975699723,0.0694001094,0.0649924949,0.1444782615,-0.1102600992,0.025968831,0.076011464,0.0023136938,0.1723884046,-0.0769106299,-0.0685607046,0.0963096023,0.1909062713,-0.0664253831,-0.039623253,-0.0280053839],[-0.0349922143,-0.0375099741,-0.0446742922,-0.0137923295,-0.0021299904,0.0428142585,0.0263946634,0.0019802086,0.0674803331,-0.1023806557,-0.0748531893,0.0247195177,0.054905355,-0.0616956912,0.082971327,0.1000464782,-0.036286816,-0.0002175245,-0.0542065389,-0.0801488832,-0.1047134325,-0.0935623869,0.0204433948,-0.0414102264,-0.0341558717,0.0988202989,0.0589329489,0.0252843034,-0.0064319032,0.0529862382,0.0535161346,0.0600964874,0.0768432468,-0.0208333582,0.0144315315,0.0359354094,0.0312771909,-0.0864182413,0.0501125753,0.0985341966,-0.057771422,-0.0738832876,0.0450365841,0.0461637862,-0.0114039667,0.0964598954,0.1081081778,-0.140823856,0.0775351897,0.119190298,-0.0041602273,-0.0510901883,-0.0393285118,0.0112184491,-0.0135087045,0.0319674462,0.0938918367,-0.0671310946,0.020515956,-0.0532811806,0.1153226271,0.047854647,0.0838367492,0.0413052179],[0.0009510218,-0.0732439607,0.1870212704,0.0541662127,0.061746683,-0.0010111672,0.1162158176,-0.0122068785,-0.0204948895,0.0300504584,0.0580107309,0.038286753,0.1318310797,0.0557885207,0.1042883545,0.1188556775,-0.1092885733,0.0627331436,-0.0620658398,0.0921153128,-0.0044363174,-0.1016199887,-0.0872285217,-0.1256220937,-0.0521794297,0.0836060643,-0.0031277176,0.1032968834,0.0091051115,-0.0450468846,0.0315870978,-0.0063722241,0.0513437092,0.0068322006,0.0189359747,-0.0744060129,0.1134503186,0.026435785,0.1103575826,0.0705231577,0.0482646711,0.0328300186,-0.0726492628,-0.0477640592,0.0591433458,0.1161849573,-0.1155978516,0.0954616964,0.0177871827,0.0657298341,0.0866576806,0.0871083587,-0.0600721352,-0.0581319332,0.0069849812,-0.0955395326,0.0179269612,0.0673820153,0.0171340294,0.1655163914,0.0093370238,0.0995696709,-0.0306331683,0.0683919266],[-0.0007128182,-0.0587762631,0.1292990893,-0.0059039732,0.0764816776,0.0843908861,0.0775379837,0.0111436862,-0.0683012456,0.0733402073,0.0008320354,0.1075554863,0.0918211862,0.1116077527,0.1163335741,0.0174599383,0.0157156233,0.0080027469,-0.0674605668,0.1014083028,-0.0374107882,0.0358763821,-0.0578226671,-0.0780197233,0.0548511557,-0.0535576418,-0.0635234714,0.1092373207,0.0205585305,0.0999778062,0.0460332222,0.0149921719,-0.0077851019,0.0224491991,-0.0476543009,-0.0214790292,0.0922712013,-0.0731981546,0.0240950398,-0.0135717336,-0.0435714945,0.0872048512,-0.0865072086,0.0760725737,-0.0428277552,0.0205964185,-0.0818296969,-0.0210993942,0.0788188577,0.0671894252,0.0650120005,0.0640935153,0.0541312695,-0.0453433655,-0.0212840848,0.0102740331,0.0853645205,0.0726063251,0.0096748443,0.0197211597,0.0576519556,-0.0007670505,-0.0980303809,0.0507561639],[0.1516578645,-0.0413902476,0.1545616984,0.0953391343,0.0730834007,-0.065957658,0.1875356287,0.0127943074,0.0655248091,0.1613401622,0.0962811261,0.0356210954,-0.0234692637,0.0461445563,0.0616060048,0.0591895841,-0.0156442542,-0.0948009044,0.0179153103,0.1363595575,0.0120306099,0.1453892589,-0.0696389675,-0.0928728357,0.1262208372,-0.1102465689,-0.0215687621,0.0371442288,-0.0531787314,-0.0027935752,0.0118644265,-0.0209091213,0.020302685,0.1734566092,-0.0439616926,0.1335105002,0.0399963893,0.0665000007,-0.1474141628,-0.0616594404,-0.0138657289,0.0600690953,0.0198051538,-0.0608685687,0.0560861751,0.0286397748,-0.0174148381,0.1389738172,0.0137756597,0.1578674018,0.0778166205,0.0162904114,0.1661951244,0.0560983904,0.0195922013,0.0725662559,-0.0759389326,0.1401905417,0.1628583074,0.0580716208,-0.2013531327,0.0871765837,0.0037441254,0.0698957071],[-0.0087707955,-0.0234441999,-0.0061810352,-0.0421864688,-0.006531971,-0.0577916093,-0.0374290794,0.1177250445,-0.006106596,0.0733326077,0.0414280146,-0.0267012883,-0.0219096541,0.0034867194,-0.098503314,0.0619166978,0.1725307703,0.0320396014,0.0804788768,0.0084226634,0.0392836705,0.0949873403,-0.0950211436,0.0392660387,-0.1030977443,-0.0269059371,-0.1812681109,0.0361495279,-0.0295006726,0.0288801845,0.1411956847,0.0173304528,-0.0082216244,0.0522152595,0.0456371196,0.1059775874,0.0006337934,0.101902619,0.0202311408,0.0278827734,-0.1128874794,0.0079568373,0.0360076018,-0.0256418288,0.0567661859,0.0636576712,-0.014680529,0.024931537,0.0115131866,0.1497013867,-0.009610286,0.0692346022,0.041474916,-0.0210287888,-0.0108208098,0.0455761887,0.0261797793,0.0406164154,-0.0446417518,0.0000602196,0.0057650781,-0.1231946796,0.0403319001,-0.0706453249],[-0.0688963085,0.0170975383,0.1959168613,-0.1899544299,0.1846923083,0.1323183924,0.0363234729,-0.018981792,-0.1389922351,0.160570085,-0.0140929334,0.0769154429,0.0367234945,0.0765129998,0.1584907174,0.0529079437,0.0344861932,0.027084915,-0.0016361681,0.1123235747,-0.2191566676,0.0334474556,0.0674477145,-0.0402938053,-0.0740491226,0.1321341097,0.0480105393,0.1571215242,0.1938414872,-0.0464206114,0.1460142434,-0.1012442559,-0.007949735,-0.0042709862,-0.1149235964,-0.0863391012,0.1499943882,0.0142731313,0.1965442896,0.0250341892,-0.0556573272,-0.0601405464,-0.1761017293,-0.0190082025,0.0254572332,0.2290130705,0.0192017388,-0.1139852777,0.0317851827,0.1250460148,-0.0287006944,0.137702316,-0.1045764759,0.0302729756,0.0695445761,0.0231865067,0.1795884818,-0.1849901974,-0.1775393784,0.2403079718,0.0452568308,-0.141748935,0.0318441764,-0.0546208322],[0.1537929028,-0.1127829254,-0.0416533388,0.1131206751,0.0756352171,-0.1265438944,0.0335874073,-0.0499674641,0.2520402372,-0.1477617919,0.0953763127,0.0342122093,0.07776279,-0.1216988713,-0.0349998102,0.081746459,-0.1338036656,0.0311975721,-0.1007846966,0.1002008319,0.0830286965,0.0382104218,-0.0562277064,-0.0798470229,0.0172156543,-0.0840705931,0.0540170707,-0.0515575111,-0.111267373,-0.0430844724,-0.0073539489,-0.0182177126,-0.0233752504,0.0046381028,0.0435886011,0.1038592458,-0.0443690568,-0.064241454,-0.0970427766,-0.1335674375,0.1778080463,0.1209457144,0.1310827434,0.1014023572,0.1014934555,0.0158000067,0.0087627368,0.0101282643,0.1811388731,0.0419659801,0.1517736465,-0.120645836,0.0555246435,-0.1296153069,0.0781645179,-0.0500765853,0.0104601271,0.0586408339,0.155814752,0.0225938335,-0.0564646386,0.0995537862,-0.0206787381,0.110086605],[-0.0566855669,0.0828135535,-0.005200543,0.0144915124,0.0695216134,-0.0533164628,-0.054652445,0.0001378745,0.071933724,0.0153642241,-0.0616059154,0.0476512238,0.0137383342,-0.0098294085,-0.0046894867,0.0467338935,0.0665551946,-0.019632984,0.0590388365,-0.1169725955,0.0698864907,0.0594665557,-0.0663812011,0.0017533192,-0.0377103053,0.0141500942,0.0267205182,-0.0172729082,-0.0127194989,0.0661037937,0.101667881,-0.024087565,0.0594565198,-0.0038801034,-0.0688111112,0.0252765361,-0.0792344883,0.056787964,0.0058355741,0.030634582,-0.0975496322,-0.039422255,0.0533235446,-0.0243292134,0.0586353876,-0.0357955024,0.0770608112,-0.0844467282,0.0441188365,-0.0139432587,0.0323931798,0.0534966253,-0.0899527222,-0.0231745597,0.055482924,-0.0173407253,0.0327722207,0.0364245176,-0.0183432847,-0.0725135803,0.0395733006,-0.0525921546,0.0754885748,-0.0275932979],[-0.0921703205,0.065401569,0.1202350631,-0.0358625874,0.020674685,0.1520289779,0.0049151271,0.094421044,0.0418756828,0.0007478625,0.0353609957,0.1150172651,-0.0527150445,0.1715500653,0.1348148882,-0.0084601883,0.0110202003,0.0254671611,0.0520870537,-0.0678828135,-0.0602224134,-0.0898809657,0.0726806372,-0.0471639819,-0.1399625987,0.0196877811,-0.0524239875,0.0159828421,0.0854430199,-0.0464777015,0.0865351483,0.0527236015,0.0055206874,0.0911007226,0.0334844887,-0.0885391831,0.1097749323,-0.0041642347,0.0887660384,0.1713877469,-0.1039717942,0.0178992227,-0.0322609283,-0.1461529583,-0.0898422748,0.1524991244,-0.0095609771,-0.1051781997,-0.0240857136,0.0168609079,-0.0653982237,0.0712376237,-0.1451506913,0.0801197067,-0.0901475474,0.0555625074,0.0520455316,-0.1052405834,-0.1636221856,-0.042741064,0.0920577869,-0.034466669,0.048979532,-0.1140144765],[-0.0331551358,0.0995888859,0.1383150965,-0.1071123853,0.0245643593,0.1817017347,-0.0327938236,0.1651144773,-0.0566351004,0.28829211,-0.2006932497,0.1049619392,-0.0992979482,0.2024914026,0.2153746933,0.0212602932,0.121483095,0.149430275,0.0539820939,-0.0497515686,-0.0979698598,0.0052261096,0.1434675753,0.0549245551,-0.0953278914,0.1286581755,-0.0800059885,0.0127523933,0.2843430638,0.1478577852,0.1449805498,-0.0112721995,-0.053566806,0.2120055407,0.0783852711,0.0770751238,0.1181797534,-0.0572613068,0.0899583399,0.0958196744,-0.2300043404,-0.0993410125,-0.042176187,-0.1720265299,-0.1533775032,0.1112978756,0.0108094187,-0.1068040207,-0.1344759315,0.0914666951,-0.0078114057,0.1885066777,-0.0324881151,0.0793593824,-0.1096381173,0.0175324734,0.2060475498,-0.2271490097,-0.0910423324,-0.0984518304,0.1952677071,-0.1456381679,-0.1301766634,-0.1183918118],[-0.0770126432,-0.0893517211,0.1574773639,-0.0790306553,0.2268688828,0.1215155795,0.1467542946,-0.1294758022,-0.10999313,-0.0341266915,0.2550694048,0.0908080339,0.1075066477,0.0482483357,0.3157486022,0.1517539769,-0.2366263568,-0.0628556386,-0.0802139565,0.1575697213,-0.1078872904,-0.1030855477,-0.0655271783,-0.0577069633,-0.1379505992,0.2102140635,0.2165166289,0.2457751483,-0.0564443357,-0.1502905488,-0.0947519168,-0.0809536651,0.0727608949,-0.1945326328,-0.0118266679,-0.0874437839,0.0956519917,-0.1913892031,0.2271500826,0.0197217111,0.105795987,-0.0214614552,-0.1506893933,-0.0649736449,0.0967445448,0.0726054683,-0.0490608849,0.0443951897,0.0513018668,0.1520117968,0.0075986506,0.0564881451,-0.017089732,-0.0671586692,0.07390894,-0.0841820911,0.088129133,-0.00447954,-0.0803274885,0.3420543075,-0.0196351968,0.0608858727,0.0620341226,0.010101893],[0.0184641834,0.1059071347,-0.0319054611,-0.0715508163,-0.0234237835,-0.0796102956,0.0167728793,0.0451843329,0.064921014,0.0755688027,0.0208062958,-0.0175576936,-0.0096959015,-0.0422342569,0.0606089309,0.0896848142,0.0253051575,-0.0111348042,-0.051127933,-0.1475212276,0.0745005608,0.0618058816,0.0097185811,-0.0181969106,-0.1182283834,-0.027335424,-0.0025507722,0.0459807068,0.0917943865,-0.0234936588,0.122646749,-0.0411637016,-0.0114696054,-0.0580225661,-0.0164410882,0.0975222066,0.037230961,0.014504727,-0.0245964341,0.0314438418,-0.0796571076,-0.0129006943,0.0332958251,-0.0406603925,-0.0065373741,0.0947584733,0.0547219589,-0.0735980272,-0.0120978616,0.0463390984,-0.0957997739,0.0676803067,-0.0970917121,0.0100853434,0.005279039,0.0695967451,0.0809164941,-0.1074014902,-0.0502215512,0.0554510318,-0.0126411533,-0.1111011729,-0.0137960687,-0.0026618552],[0.1270472854,-0.0955071226,0.0201067608,0.1412849277,-0.0167949963,-0.0055397232,0.1181434914,-0.1044069901,0.1624312103,-0.0296773203,0.0962639153,0.0094712218,0.1044735834,-0.1322771907,-0.0056067435,0.0573223718,-0.1188564897,0.0379452817,-0.027029315,0.0737669021,0.2144098133,-0.0419494621,-0.1238916069,-0.0034688441,0.1602933258,-0.0876103118,-0.0368722752,0.016263701,-0.0607189238,-0.0206488296,-0.0909197032,0.1288751811,-0.0497238152,0.0555696897,0.0341584757,0.0901959762,-0.0165569223,-0.0025725653,-0.0952535942,-0.1851095259,0.1060370505,0.0710014105,0.1555127054,0.189589411,-0.0652779192,-0.0607698373,-0.005160253,0.2263962477,0.1197752729,0.0708186179,0.0699665397,-0.1402330548,0.1963112056,-0.0376514159,0.0501205064,-0.0084037399,0.0270994958,0.2099771202,0.1425723135,0.0999014676,-0.0255495589,0.1131746769,0.031617213,0.0426092036],[0.1845775545,0.1135868281,0.1836973429,0.0317078717,-0.1154521927,-0.0795245022,-0.0403109118,0.0101170912,-0.0453266688,0.2566599548,-0.1515730768,0.0750596672,-0.2624510825,0.1306907237,0.0700367391,-0.0792106763,0.2534543276,0.075286217,0.1579180807,-0.0212535337,0.0358847864,0.2832106352,0.0327870697,-0.0579196028,0.1123267338,-0.2043290436,-0.3169302046,0.0269653015,0.1697048694,0.2859524786,0.1197206154,0.1241062284,0.0741263852,0.2553940117,0.1114073545,0.1877375394,0.1303561479,0.109709166,-0.0691845715,-0.005421544,-0.0684020519,0.0556362979,0.064505145,0.0003234497,-0.3210188448,0.0598664507,0.0338048898,0.1421862543,-0.1374145895,0.0522353351,-0.0004331294,0.067562215,0.2047219127,0.0897298306,-0.0768999532,0.1159250215,0.1366651803,-0.0688757226,-0.0890639275,-0.149018243,0.0671664551,-0.0587326102,-0.1526260078,-0.104772687],[0.1431446075,-0.0018907716,0.0011694559,0.0767276734,-0.016558392,-0.0882425979,0.088789314,-0.0512535609,0.0820245221,0.0351929665,0.0699941814,0.0721502602,-0.0494321436,-0.0440091416,-0.026294576,0.0098243104,-0.0229023397,-0.0303022787,0.0801132098,0.220663175,0.0924541801,0.0097381314,-0.01982251,-0.0201455653,0.1322912723,-0.086128369,-0.0610183589,-0.0282895397,-0.1467535198,-0.0074999728,0.1908815056,0.0313081704,0.0171932653,0.0317630209,-0.0380350612,0.1259589493,0.023407897,0.0916330442,-0.1601378173,-0.1388765723,0.0601524413,0.0327225924,0.0659956336,0.1574155986,0.0703005493,-0.0918686837,-0.0740893558,0.1651243269,0.0730004013,0.0105682956,0.0673596784,-0.0547442287,0.1406442821,0.0199733991,0.0921939835,0.0859918147,0.0823294297,0.1287533194,0.1170777604,-0.0197905246,-0.1160451323,0.039541211,-0.0175209548,0.1727447361],[0.0495063439,-0.021206554,0.1921149194,-0.0600411408,-0.0201929547,-0.002286535,-0.007874649,0.013192432,-0.0913164839,0.1521117389,-0.0092818979,0.0696914569,-0.0965535641,0.1472571343,0.1101498231,0.1088374257,0.0178698767,-0.0140564851,0.0954003781,0.051093664,0.0071303174,-0.0378208905,-0.0232490674,-0.105744876,0.0466439016,0.0738876835,-0.0459038951,0.0741501525,0.0210647359,0.0091156866,0.0373962969,-0.0463796705,-0.0765713602,0.1049697921,0.0474191867,0.0753146559,0.1009922922,-0.063432388,-0.0356550254,0.0485169813,0.0195557903,0.0676857829,0.0199921634,0.0198864341,-0.0284916908,0.1266935766,-0.0541892983,0.0124072656,0.0595052093,-0.0600152873,-0.0592548475,-0.0327773541,-0.0108832214,0.0440430231,-0.1109930426,-0.0110820262,0.0045223818,-0.1040972173,-0.0671974793,-0.005776043,0.039626345,-0.028373355,-0.1232360527,-0.1080776304],[0.1142060161,0.1066651568,0.1730886996,0.1412782669,-0.180315569,-0.0376749039,0.0230235923,0.1424461454,-0.137433961,0.382696867,-0.1215973124,0.1125888675,-0.1651872844,0.1064405292,0.0230028294,-0.0284212399,0.2082093656,0.014516402,0.0934978202,-0.0698287413,0.113805905,0.1520853788,0.0985773131,-0.0187898558,0.0695549399,-0.181276232,-0.1756512821,0.1452888399,0.0829828084,0.2795962393,0.0822061673,0.1614249349,0.0720600188,0.2997058034,0.0910680443,0.1700739264,0.0642594323,0.1355933249,-0.1165385023,-0.0271620825,-0.0438461602,0.1698269993,0.0355284363,-0.1021872982,-0.2303226143,-0.0538655929,0.0041289427,0.0928267688,-0.0847778693,0.0482846424,0.0017561519,0.0155977216,0.2269336581,0.0956926122,-0.1053828895,0.0985597447,0.0132245058,0.0319954865,0.0743862614,-0.1299944818,0.028552603,-0.1245987117,-0.1080256253,-0.0813533291],[0.1123924479,0.1581861675,0.1556794941,-0.0158275776,-0.0368269086,0.0399932191,-0.029098751,0.0802916065,-0.0006676459,0.2604018748,-0.091703169,0.0307581183,-0.108505927,0.153214708,0.0643810704,0.0138948699,0.1485774368,0.0855015144,0.0860407725,-0.1760310978,0.0170908365,0.0657788292,-0.0460276268,0.0255297385,-0.0409920216,-0.1207033694,-0.1537894309,0.0831823945,0.1391389519,0.1430716068,0.066382952,0.0505204201,0.0099827126,0.114768073,-0.011755134,0.046141725,0.0621129535,0.0329481065,-0.062638469,-0.0494739488,-0.1829778999,-0.0363864712,0.0087251598,0.0408437364,-0.166666463,0.0482807346,-0.0928875431,0.043199148,0.0891408026,0.1030744836,0.0047856406,0.0889756158,-0.0439539813,0.1576952636,-0.1133643538,0.1139974222,-0.0141936131,-0.0947745889,-0.0062768888,-0.1365274936,0.0414377898,-0.0652677417,-0.0369773731,-0.1194352135],[0.0515331887,0.0330955014,0.0031627929,0.0015829511,0.0533873402,-0.0557143353,0.0611699298,-0.0349321552,-0.0515936092,0.0360366292,0.0586056113,0.0393093303,0.0900859684,-0.0241630375,-0.0139587447,-0.0587188341,-0.0431429483,-0.0691089556,-0.0032671655,0.1906958669,0.0375329666,0.121144399,0.0685562715,-0.0704622567,0.0307136122,-0.070142813,-0.0213820115,0.0787259638,-0.0531255715,-0.0868351832,-0.0110683171,-0.066954203,0.065679796,-0.0040780632,-0.0878724605,0.04539961,0.0464321822,0.0254753046,-0.1538862586,-0.0902372301,-0.0291196126,-0.0509187952,0.0169661511,-0.0184882674,0.1107282043,0.0124182245,-0.0464014784,0.051384557,-0.1091365367,0.0804045796,0.071830079,-0.1025000215,-0.0333803631,-0.0623628385,0.0535043813,0.0225477032,-0.0676577613,0.0192700047,-0.0072163967,0.1434824616,-0.0584951602,0.0057565607,-0.1024546102,0.0059023434],[0.0850365832,-0.0587061979,-0.0085744541,0.0582656339,0.0040612128,-0.0913098305,0.0416406505,-0.0317125358,0.0177430809,-0.0016814189,-0.0056239478,0.055064559,-0.0365086682,0.0194270108,0.0086536789,0.0816451088,-0.1405719519,0.0407470986,0.0172013957,0.1261717826,0.0841788575,0.0277734883,-0.1135337055,-0.0814536735,-0.0351383239,-0.1218153238,0.0143611804,0.152834177,-0.0783597901,-0.0583811514,0.1435234845,-0.0178570449,0.0262794662,-0.1157511696,-0.0707287937,-0.0251892488,-0.0622208118,0.0650687665,-0.0730755627,-0.1269960105,0.157111302,-0.0008414315,-0.0300784465,0.0682215542,0.1840575635,0.0359485149,0.0436049737,-0.0204128046,0.0331676714,0.0757561699,0.0515164398,-0.0889929757,0.0740218088,0.0433581062,0.0010644257,-0.120080106,0.0617179535,-0.0027526864,0.0899780169,0.1379840821,-0.0065464536,-0.006776806,-0.0597869717,0.1119930968],[-0.0878007859,-0.0008722048,0.0316624641,0.0672721043,0.1143504083,-0.0532155819,0.0800700262,-0.0081160152,0.0329865143,0.0933598503,0.2061653137,-0.033356145,0.1645513624,0.0743628964,0.1057915911,0.0072563104,-0.1574834287,-0.0994490013,-0.0603328496,0.1037257686,-0.1008204594,0.0376812108,0.0316199772,-0.1373117268,-0.0128734736,0.0245995969,0.1000304371,0.0275819954,-0.0350378603,-0.0091885673,-0.0715318769,-0.0366156548,0.1228409559,-0.0959302634,0.0522951744,-0.0094104502,0.0185155775,-0.0901076496,-0.079260394,-0.0468199998,0.1534589529,-0.0431269072,-0.0225013588,0.0939149633,0.0594492517,-0.042169176,-0.0375653431,-0.0114412066,0.0338631719,-0.0118158907,-0.043002177,0.0491430163,-0.0771880075,-0.0249742288,0.0960764661,-0.0782288611,-0.0121933958,-0.02693161,0.0549971312,0.1345683038,-0.0637334734,0.0511860624,0.0721504018,-0.0107425721],[-0.0839623064,0.0113095902,-0.0140536027,0.0160194561,0.0166418534,-0.0050025135,0.0797159597,0.0360712036,0.0222470909,0.0508070588,0.0571771525,0.0413466506,0.1316141635,-0.01537045,0.0465457179,0.0196359679,-0.113146618,0.0232291482,-0.0830140337,-0.0262861419,-0.1056531146,-0.0679829866,-0.0384854637,-0.0614112616,-0.117258966,0.0387671031,0.1001133695,0.0683878139,-0.0477413312,0.0375144333,-0.0317099839,0.0078291222,0.067565687,0.0576095283,0.0520783588,0.0505920611,0.0367293507,0.0154271349,-0.0485831872,0.0827637538,0.0806268677,-0.0890347958,-0.0392173193,-0.0524535216,-0.0179204214,-0.0147751495,0.0342556089,-0.1085458696,-0.0037551695,0.0919189975,-0.0338073485,-0.0426370203,-0.0683067739,-0.0892521068,0.0128310854,0.0203910246,-0.0062151463,-0.0259373877,-0.0218159035,0.0482574366,-0.0849255696,-0.0096706804,0.0695394948,0.062882401],[0.0301774051,0.0831449553,0.2022678554,-0.0112203425,0.1260555685,-0.1219746619,0.0043867691,-0.0066390662,-0.0261823405,0.0758361891,0.1006683856,0.0864443555,0.1312106103,0.0072197421,-0.0009583624,0.1598671973,0.125113219,0.0233243648,0.0137318345,-0.1474257261,-0.0536323115,0.0502113067,-0.03220395,-0.1081081778,0.035830982,-0.0174212605,0.0196275599,0.0572648086,-0.0102343652,0.1463785768,-0.1336225122,0.0469774865,0.1938298643,0.1581256092,0.135944888,0.0573743805,0.0732408836,0.1030666307,-0.0249796361,-0.0289044138,-0.0108348634,0.0630657077,-0.0481630117,-0.0961496755,-0.0756451711,0.0102444636,-0.0687270239,-0.0080965366,0.1775305718,0.1520851105,0.0252102725,0.0668248162,0.1412833333,-0.0494766608,0.1489336789,0.0314073041,0.1156184152,-0.0108027337,0.0169212166,0.1988634467,0.1020015031,-0.035133075,0.0105727194,0.0085717067],[0.0281421002,0.0042476449,0.0724653527,0.0965657011,0.0485282578,-0.0478819497,0.0486141257,0.0813345313,0.0896019936,-0.0678707212,0.1172946766,-0.0002686901,-0.0355245881,-0.0629345849,0.0226223432,0.00675188,0.0218284205,0.008316502,-0.0551471189,-0.0796371251,0.0933610126,-0.0355545245,-0.0749963745,-0.0451843329,-0.0375454463,-0.1348026395,-0.0249487069,0.0089882733,-0.0833188593,0.0211730525,0.1176269054,0.0593234114,0.0477975756,-0.0599612594,0.0654710531,0.0918134525,0.0535973161,0.0075836638,-0.0530479513,-0.0434060767,0.0456809849,0.0040731188,0.0335879251,0.0390349589,0.0889818966,-0.038122002,-0.0249286983,0.0092817266,0.1028270721,0.0628537163,-0.0712481961,-0.0128582502,0.0201418828,-0.0236683227,0.0360345058,0.0787911639,0.0986484513,-0.0295789391,0.0065757139,0.1160887405,0.0904600695,-0.0016173061,-0.0593078695,0.1192139536],[-0.0466304421,-0.0128779393,0.0422572233,-0.0358131602,0.103641659,0.0297368672,0.0203530565,0.1649510115,0.1117128804,0.0728800967,-0.0080685299,-0.0502225235,0.0907024741,0.0112987412,0.0170049053,0.2302333713,0.0465521477,0.1799777746,-0.0573761277,-0.2128167897,-0.11617174,0.0659905598,-0.0842998996,0.0416371003,-0.0293163117,-0.092934981,0.0388162918,0.0881430805,0.0668680817,0.1176472306,0.0113560529,0.0450137332,0.2142904997,0.0273131207,0.1915243417,-0.0201910604,-0.0297222119,0.1633043736,-0.0070948517,-0.0211248714,-0.0858309492,0.0989065394,0.0913915932,-0.0595374443,-0.1167565361,0.0744099617,0.0446247794,-0.0296892934,0.1400931031,0.0804788843,-0.1026365459,0.1149295643,-0.045107536,-0.0232922919,0.1108021513,0.0437002592,0.0547587723,-0.0305620674,0.0209166668,0.0235925186,0.2019361556,-0.0376319066,0.0192051344,-0.0303781927],[-0.0444532409,-0.010845745,0.3066698313,-0.1084202304,0.3547179401,0.1060841531,0.1388840228,0.010997531,0.0366939232,-0.1614329368,0.1844960153,-0.0125511829,0.2548652589,0.0085696513,0.1770672351,0.2015791535,-0.2404438406,-0.0279475562,-0.0881088451,0.1258446425,-0.1769080162,-0.1629256606,-0.1244161725,-0.1480375677,-0.1605658382,0.0730585307,0.2760472298,0.2121074051,0.0035355915,-0.0862929821,0.023741385,-0.0643875897,0.0388920009,-0.1814282835,0.0483104438,-0.1865851134,0.1400492787,0.0062202392,0.1050975397,0.1348796934,0.2219374627,0.1296879649,-0.2009238601,0.0192200691,0.2043987513,0.2411022037,-0.1041101962,-0.0583494529,0.1865479499,0.0867168456,-0.0797080621,-0.0049139336,-0.1536552608,-0.1003839746,0.15407224,-0.1281283647,0.1453000754,0.0581180975,0.0154393455,0.302781105,0.2213438302,0.0900326893,-0.0695558563,0.0567512698],[-0.0079084495,0.0152374515,0.1147554815,-0.0309115071,0.2344482243,-0.0668278262,0.0835929438,0.1612945348,0.1608475745,-0.0487399362,0.079055652,0.1273572296,-0.0770331174,-0.0002568404,0.0382927321,0.0621307604,-0.0357209407,0.1976329386,-0.0411655307,0.0973643586,-0.092101343,-0.0484054945,-0.1545814872,-0.0898953453,-0.1682772636,-0.0168792624,-0.1477254331,0.0740270913,0.0100862561,0.0975181311,0.3434008658,0.0690913945,0.1071392,-0.0451353788,-0.0366176628,0.03822596,-0.0341894664,-0.0287383869,0.0044660862,0.0498138778,0.0530154817,0.0410181098,-0.0076542404,0.063154012,0.1545167863,0.1650266051,-0.165911153,-0.1580523849,-0.0210002922,0.1706748009,0.042990867,-0.0314607136,-0.0180668421,0.0623370521,0.0750177279,0.0608642437,0.1613620073,-0.1182949692,-0.0123062981,0.2392817289,0.2140347511,-0.1150543913,-0.1634273678,0.0591478422],[-0.0504619069,0.2156056166,0.226260677,-0.0661247969,-0.007233121,0.132224068,-0.0580284856,0.1967484206,-0.1388902664,0.3162940443,-0.1063567847,0.1565458924,-0.1499488801,0.2686218023,0.1117078438,0.0580099933,0.2190153301,0.0918058231,0.0186194647,-0.2226570696,-0.152335912,0.0347975381,0.1302789599,0.0286642388,0.0107226456,-0.0269916095,-0.1151897684,0.1188830733,0.2772755921,0.1989085227,0.0112092318,0.0168453287,-0.0194450654,0.1508923173,0.0722292885,0.0592323244,0.1145132333,0.1017296314,0.0742703602,0.1230734587,-0.0851617679,0.0583716594,-0.1341148764,-0.1136188135,-0.1461686194,0.1971129775,-0.0500589088,0.0370397381,-0.0171587281,0.019672174,-0.039335534,0.1776386648,-0.0356764309,0.1494823396,-0.1968531758,0.1661434323,0.1005134284,-0.113917239,-0.1345076412,0.0110955499,0.1874917597,-0.151804015,-0.165980801,-0.1483338922],[0.0953277424,0.1414490938,0.1353446394,0.0545449927,-0.0406752676,-0.0709126964,0.0938307941,0.0543808416,-0.0533097535,0.2494144291,0.0397581086,0.1402386725,-0.1493252069,0.0658622086,-0.0617631562,0.057222832,0.1647917926,0.1581403315,0.1115032211,-0.045820646,0.1501056701,0.2015999407,0.0029927599,-0.0907074437,-0.016119102,-0.1818730086,-0.1261439919,0.0622142777,-0.0286522191,0.1278351992,0.0668557361,0.118252486,0.0964110419,0.199379012,0.1625193655,0.1945868284,0.0551226996,0.1189567521,-0.0778377652,-0.0987537727,-0.0997117013,0.1593115628,0.0241974145,-0.047583852,-0.1079294831,-0.0389752798,0.0041163652,0.0164097883,-0.1257461607,0.1468887031,-0.0603645034,0.0486603715,0.1499424875,0.0171925668,-0.0193949584,0.0149807511,0.0841517597,0.0107710604,-0.0588871278,-0.1153907329,0.0036950184,-0.1250697821,-0.0793565288,-0.020502748],[-0.0018732828,-0.0414837226,0.1784884632,-0.0144739216,0.1070667878,-0.0761111081,0.0753743649,0.0851743296,-0.0003080652,0.0844404772,0.1314031184,0.0283351,0.1099468917,-0.0562173463,0.098898828,0.1831314713,-0.0545349568,0.0422957689,-0.0631203726,-0.0304541476,-0.0698421896,-0.0074781301,0.0197222773,-0.1792399883,0.0358990692,0.0038233842,0.0200850219,0.1548781991,0.0029963367,0.0483308323,-0.0496230312,0.0739162564,0.1475752592,0.1163910925,0.2137770206,-0.0293634459,0.1711840928,0.0385570303,-0.0912858695,0.0238026716,0.1210882738,0.0423359014,-0.0555050038,-0.0391063876,0.0296517853,0.1163409799,0.0244277287,-0.0585080795,0.2656633258,0.1555985063,-0.0339881629,-0.058192607,0.0579325743,0.01071095,0.1593220383,0.0460362621,0.0663549304,0.0135948174,0.0989335105,0.1362119764,0.0944536701,0.0569919236,-0.0606648177,-0.0341786109]],[[-0.0314168707,-0.0261555165,0.0522247069,0.0560819954,0.0523586571,-0.0273636766,-0.0244565457,-0.0089427019,0.0803002864,-0.0319911353,0.020896418,-0.0284445938,-0.0808474422,-0.0358690694,0.0301598646,0.0776923969,-0.0249379259,0.0121536059,0.024356734,-0.0527165048,-0.0991513804,-0.0440454856,-0.0215513725,0.0410951152,0.0006025457,-0.0413056538,0.0188306067,-0.0431599058,-0.0839625075,-0.0082676923,-0.0233720951,0.0328056663,0.1094626859,0.043169681,0.0971456543,-0.0317609273,-0.0654876381,0.1087537557,-0.0281404927,0.0756019056,-0.0115142316,0.0859615505,-0.1007876024,-0.0138263432,0.0520545505,0.0108451601,0.1446418762,-0.065981023,0.0254288055,0.2250504345,-0.088474825,-0.0061941068,-0.0491305888,0.02494682,0.0060121482,0.059822008,0.0527838245,-0.1164178029,-0.0028922828,-0.0141031453,-0.0247127432,-0.0182632394,0.0587182306,0.0445329286],[-0.1027562097,0.0182807054,0.0127840051,-0.0149009423,0.0832703114,0.1455109268,0.0321573056,0.0981776938,0.0548490807,0.0264983624,0.0507786721,-0.0428140648,-0.0119143073,0.1451194286,0.0141384918,0.1952258199,0.0652800128,0.1072145179,0.03157603,0.0361534096,-0.095914796,0.0016091312,-0.047971826,0.0280521642,-0.0114652505,0.0022957553,-0.0550657213,0.1393824816,0.0075435294,-0.0146759953,0.0662288219,0.0216684192,0.0699942783,0.0170692243,-0.0085380012,0.0257294234,-0.0427020378,0.0242853984,0.1025216728,0.1368650496,0.00915273,0.0789249465,-0.0822862312,0.0859663785,-0.0400339253,0.124756664,-0.0277390014,-0.1376957446,0.0725025833,-0.0157035124,-0.0478752516,0.0776333213,-0.162760675,0.0967576355,-0.0345276892,-0.0365355946,0.0027429298,-0.050084576,-0.0285156444,0.0153438821,0.1713508368,-0.10919559,-0.0936625004,-0.0062998878],[-0.1088092029,-0.0058221789,-0.025906641,-0.0185236353,-0.0429484919,-0.0608459078,0.0244606789,0.0659295097,0.1017761081,-0.1033578143,-0.0537643209,0.0134977028,-0.0596067384,0.0814060122,-0.0408985689,-0.0588620082,-0.0302527044,-0.0533304699,0.0498951636,0.0669708252,-0.1144544557,0.0498885401,-0.0729238316,0.0342470035,-0.0827919841,-0.0523763001,-0.0572540686,0.0172032937,0.0441455469,-0.0740116015,0.0182059798,-0.0114543382,-0.0703319833,0.0087664416,-0.1228121668,-0.0236854833,-0.0389973819,-0.008090484,0.0773174837,0.0950241014,0.0408329964,-0.0730177164,-0.0149844997,0.0704034418,0.0686764121,0.0402847417,-0.0665758774,-0.0661099628,-0.0499493368,0.1131464466,-0.0383782163,0.0946331322,0.0061646532,-0.0290710665,0.0992661268,0.0305405091,0.0851753801,-0.0749385208,-0.1080348864,0.0956250653,0.0036306912,0.0309765618,0.0551795028,-0.0536923707],[-0.0903057307,-0.0377605967,0.1579606533,-0.067051366,0.0892153233,0.0209807418,-0.0258555375,0.0530256107,0.0467319638,0.0484797023,0.1491095722,0.0737022832,0.121260941,0.0945330039,0.121419169,0.0729595646,-0.1369746029,-0.013018975,-0.1005223691,-0.1019180045,-0.0875246227,-0.0307565928,0.0577747039,-0.1085094437,-0.0780156925,0.0036193186,0.1600832641,0.0922989771,-0.0466772988,0.0511711165,-0.136803925,0.0575516857,0.0632121414,0.0795681924,0.0563765727,0.0736620724,0.1175979972,0.029273184,0.1345598102,0.0310449563,-0.0119501678,0.0997263789,-0.0733552352,-0.0636968091,0.0352434032,0.0374611951,0.066682741,0.0673725232,0.0976745486,-0.0246310234,0.0641083196,-0.0634923354,0.0433346219,-0.0632384643,0.0531508178,-0.0933570564,0.1251943409,0.0425583534,0.0216074474,0.091390878,-0.0014986515,0.0946111605,0.0222028736,-0.0351311602],[0.0018189944,0.0344065949,0.0649036393,-0.024674166,-0.008819852,-0.0344178751,0.1029408947,-0.071950525,-0.1199515089,0.0294424407,0.1072352976,0.0095899915,0.0338474736,0.0853332058,0.1183504388,0.06954436,-0.0861607343,-0.0750680566,-0.1018803269,0.0047688279,-0.0968429297,0.0314442702,0.0222739261,-0.0915690735,0.007362884,-0.007441442,-0.0054266844,0.0637794659,-0.0553528666,0.0469551161,-0.0361736193,0.0830224752,0.008283494,-0.0320362225,0.0911323354,-0.0006522973,0.1288924068,-0.0594404005,0.044576861,0.0569576062,-0.0019570305,0.0934763998,0.0289790481,0.0310680438,0.0058718752,0.0576705784,-0.0379382856,0.1006195098,0.1296078563,-0.0092249159,0.0878862292,-0.0363829695,0.0494289622,-0.0420098789,-0.0145719871,0.0592329316,0.0157429036,0.0042071478,-0.0064411014,0.0608674586,0.0418664366,0.1087532863,-0.0126433177,-0.0534871705],[-0.0054821265,0.0230429452,0.1684008986,0.0149170961,0.0160696805,-0.0611656532,0.2406849116,0.0291154757,0.0245759711,0.0473247804,0.0397015139,0.0699591488,0.0989698619,-0.0362884291,0.0588036738,0.0851968527,-0.0674231276,-0.0663406774,-0.0492678136,0.1081321537,0.126492992,0.0277657174,-0.0707074627,-0.0915502235,-0.013699594,-0.1187156588,0.016273614,0.0628431663,-0.0710887983,0.0622112639,-0.095308058,0.0525295846,0.0974058211,0.1097012758,-0.0326045826,0.0568626709,0.1371157914,-0.0295368396,-0.0838707462,-0.1389725059,0.0234481581,0.1343013644,-0.0507301465,-0.0508753099,0.0898213387,0.0029498539,0.0023651063,0.1401519924,-0.0557874627,0.1072329506,0.0135722402,0.0582902953,0.0455122776,0.0635792166,0.0518823974,0.0502724946,0.0790029168,0.1088620871,0.0407604016,0.0838580355,-0.0213180762,-0.0062721809,-0.0119222291,0.0937178582],[0.0084038349,0.056226138,0.0058287773,0.0470534824,-0.0559996329,0.0639969185,0.0147185614,0.0718748719,0.0647142902,-0.0237165987,0.0344609804,0.0708239153,-0.0503122583,0.022849353,0.0295014437,0.078931056,0.0762161985,0.0493420735,0.0099068275,0.1014796495,-0.0841156095,0.0560583435,-0.046259094,-0.0433860347,0.0059022671,-0.0203800052,-0.0275078043,0.064451769,-0.0050287498,-0.0343439616,-0.0450016446,-0.034313146,0.102542825,0.0647289529,-0.0512453653,-0.0011917653,0.0669524446,0.0451974459,-0.0691222474,-0.0465226062,-0.0718731284,0.0777306184,-0.0907029808,-0.0341905169,-0.0247954838,-0.0600203685,-0.0258742161,0.0001915569,-0.0983186513,0.1287978441,0.0590798855,-0.0451076515,0.0415013991,0.0401783213,0.0677877367,0.0117138904,-0.0083411802,-0.0425249152,-0.0507703982,0.0252317768,0.0742997378,-0.1325823814,0.07454855,-0.1005321965],[-0.0717812553,-0.0086826216,0.0583295263,-0.1331424415,0.1215969697,0.1913630515,0.1446644217,0.0188190266,-0.1148214415,0.1616987735,0.1046777815,0.044916857,-0.0188605674,0.0949679464,0.2654543519,0.1075056493,-0.0308860373,-0.0380999073,-0.0609707534,0.0927370936,-0.0737291947,-0.0996253341,0.0414570533,-0.0724846423,-0.0517440289,0.1934895664,0.0722889081,0.1666446626,0.1337246895,0.001419774,-0.0609856956,0.0640698969,-0.0082695372,-0.0371410623,0.0189314764,-0.1256125122,0.1682962328,-0.0733198598,0.187588796,0.1742285639,-0.0413902439,0.0490298234,-0.1446593553,-0.0718064904,0.0075606639,0.1405504048,-0.0579293109,-0.0765132904,0.0356965438,0.0746261701,-0.0399912894,0.1162917018,-0.0717021301,0.0218123775,-0.0727165565,-0.0852330029,0.1632132083,-0.1641924083,-0.1573279351,0.2224434167,0.1767309159,0.0204804577,-0.0497638211,-0.1070489734],[0.1225784793,0.0121168289,-0.0348489173,0.0311104339,0.0005022866,-0.1099995524,0.1612725407,-0.001319817,0.154047817,-0.0887098163,0.0195282269,-0.004497109,0.0492168516,-0.0442903489,-0.1224166155,0.0964919329,-0.1404958963,-0.0168064293,-0.0202702023,0.1191218197,0.0649033263,-0.0142689655,-0.1248908639,0.0305408202,0.1075069085,-0.1730773449,0.1172214448,-0.0346413255,0.0064256401,0.0096890051,-0.0151555277,-0.0562888496,-0.0308479927,-0.1599196494,0.0041910796,0.0256819241,-0.0920594856,0.0033494071,-0.1303972602,0.0062096543,0.1715789884,-0.0269999839,0.1488299519,0.0119516654,0.1306916326,-0.0979126468,-0.0614545904,-0.0040458916,0.1459016949,0.0574905574,0.1603615731,-0.1307695508,0.1102589369,-0.1021365821,0.1566244811,0.0054357117,-0.0522108525,0.1032179818,0.0379520021,0.105405122,-0.0020105166,0.2011398524,0.0680780709,0.0930556729],[-0.0746659189,0.0530209355,-0.0333080553,-0.0254346915,-0.0692098215,-0.0771821514,0.023881698,0.0430119894,0.0369323008,0.0464031324,-0.1024386734,0.0475626476,-0.0696523637,-0.0352127627,-0.0524282455,-0.0424950309,0.0631027073,0.0545638315,0.0687147751,0.1272699833,0.0742691159,0.0499526858,-0.0370700508,0.0387135521,-0.0811906457,-0.0488716252,-0.109523192,0.0189957377,0.0200110395,-0.0563976057,0.0416037962,0.0048429733,0.0418574028,0.0015895223,-0.0495553426,0.0379478037,0.0164867714,0.0874588415,-0.0529181696,-0.0805941224,-0.0183524452,-0.0602355935,-0.0380046479,0.0221816525,-0.072511293,0.0837611333,0.0194240417,-0.0335722752,-0.0480843,0.0513439886,-0.0275514927,-0.0602211952,-0.0010781866,0.07678096,0.0795453936,0.0460918657,0.0870431513,-0.0660749748,-0.0676892996,0.0343606733,-0.0448699743,-0.0729419738,-0.0587098561,-0.0275378823],[-0.0541652553,0.026850976,0.0080738002,0.0268515833,0.0983786061,0.0241014678,-0.0511368029,-0.0297118053,-0.0930321962,-0.0073265354,-0.1011675298,0.0520189777,-0.0389633402,0.1255523413,0.0933247954,0.0414598733,0.0275124833,0.09897957,0.0046604676,-0.064422816,-0.1157602742,0.0038343463,-0.0046093781,-0.0514982603,-0.0423624888,0.1103743687,-0.0928966925,-0.0038495788,0.0414039008,0.0168531742,-0.0566193983,0.0011669855,-0.0811658874,-0.0071463878,-0.0031474428,-0.084909223,0.086407952,-0.026697807,0.0272292439,0.0642447174,-0.0719681084,0.0467623286,-0.0283093117,-0.0717768073,-0.0878129303,0.1784927249,-0.0360114388,-0.1690178216,-0.0334905833,0.0890117064,-0.0644204915,0.14986296,-0.0790412128,0.0665980354,-0.0032788264,0.059015695,0.1220670044,-0.1228291169,-0.1526629925,-0.0416650996,0.1104415059,-0.1549872011,-0.0730078518,-0.0812142342],[-0.0659767687,0.0760808811,0.0352721959,0.0052204812,0.0037640037,0.1143350676,-0.1093232036,0.119502455,-0.1644881517,0.1484321803,-0.1538425088,0.0935080051,-0.0608278289,0.2557742,0.2263720185,0.0297571085,0.0983361304,0.1223559827,0.0001347139,-0.1227094904,-0.0664625168,0.0285559222,0.1265104264,-0.0305580236,-0.1133020073,0.011733124,-0.1124045923,-0.013633864,0.0965102613,0.070091702,0.0695629939,0.0143578844,0.002478827,0.0979511961,0.1397481412,-0.0041212542,0.0793788433,-0.0510088801,0.0727423206,0.0725691691,-0.1310430914,-0.0734972954,-0.0339490287,-0.0731848627,-0.1704510748,0.14103055,-0.0648058653,-0.1026869789,-0.0355645046,0.0853857622,-0.056318406,0.098875463,-0.0512870252,0.2025893927,-0.1307961494,0.0635509565,0.1491659284,-0.0883582979,-0.1785864681,-0.0578856915,0.1729419529,-0.1836938858,-0.0065816804,-0.1596793085],[-0.0598699115,-0.0947221443,0.1314885914,-0.0889077634,0.1623332053,0.0092891799,0.195475027,0.0281090271,-0.010881423,-0.0142435683,0.2190033197,-0.027314553,0.1203802526,0.1095024347,0.1346465349,0.0799985304,-0.2372599244,-0.0631383732,-0.0958254337,0.1156233698,-0.125190571,-0.1418677866,-0.1242447719,-0.1207616106,-0.1264494359,0.1376817524,0.1232897639,0.1338336915,-0.045793999,-0.1216532513,-0.1356969327,0.0499747992,0.0484156497,-0.0447047092,0.002102992,-0.0645106882,0.13906385,-0.1295906156,0.0789251328,0.0378017724,0.1188592389,-0.0153265493,-0.2112655938,0.0265980363,0.2221389413,0.1107504293,0.0388557091,-0.0533066168,0.0284077637,0.1108783856,-0.1033239216,0.0455013886,-0.1010780409,-0.0504138395,0.1344607323,-0.1051785722,0.1261963695,-0.0188097171,-0.0614502467,0.1814579964,-0.0305827502,0.0556974523,0.1339414269,0.0383726135],[-0.0148434397,0.0219190661,-0.0309310444,0.0251078065,-0.0274473093,-0.0886278301,0.0875978991,0.0179086216,0.1022952721,0.0081362231,-0.1103739291,0.0494336002,-0.0390755348,-0.0716475621,0.0396817252,0.0824234858,0.042850364,0.0846645534,0.0753965229,0.1005700305,-0.0185447764,0.1043887809,0.0356978737,-0.0185627081,-0.0200980529,-0.0288143847,-0.1159610301,-0.0493021496,-0.0209816769,-0.003616103,0.0998777002,-0.0686505437,-0.0337724946,0.0736083612,0.0513784401,0.0613283031,-0.0165588018,0.0868723989,-0.0265804566,-0.0434554107,-0.0264922846,-0.0372009985,0.0990685672,0.054075025,-0.0048303008,-0.0242546909,-0.0319060571,-0.0621948577,-0.0361276418,0.1500343531,-0.0347210839,-0.0611043721,-0.0166805349,-0.0320037715,0.0947405249,-0.0188665781,0.0681190193,0.0200365111,-0.0354237407,-0.0711259395,0.0995016173,-0.028778512,-0.0182868168,-0.0320417881],[0.1380858868,0.0174999032,0.0297335237,0.1751008928,-0.0902118608,-0.039387513,0.1738975346,-0.1125540435,0.0956618041,-0.0914789587,0.037548326,0.0775029883,0.0261683092,-0.0143748941,-0.0931994915,-0.0712088645,-0.1323697269,-0.0087962504,-0.1328276396,0.1262792051,0.1258041114,0.1057710424,-0.0473603904,-0.0405718833,0.0923555493,-0.1074254587,0.0998174325,0.0099744964,-0.0981418192,-0.0002057707,-0.064466849,0.0736123994,0.0251142066,-0.0191939212,-0.0053270194,0.0855077356,0.0159804299,0.0209127627,-0.0263270717,-0.0777579322,0.1747616827,0.108058013,0.1343428344,0.0191064551,-0.0560277849,-0.0604595542,0.0478896089,0.1588251591,0.0529882796,-0.0057297745,0.0585017465,-0.0682946444,0.103792347,-0.0262503196,0.0635709986,0.0180158596,-0.034795586,0.1713483036,0.1549056172,0.0646658093,-0.0843980685,0.1393430382,0.0464453474,0.1238935888],[0.0397028327,0.1131539717,0.1375352144,0.0829959363,-0.1640847474,-0.0375130288,0.0763304308,0.1009780541,-0.012364802,0.1653877497,-0.1285721213,0.0881700292,-0.1622057408,0.0549916662,-0.0147358645,-0.1280034333,0.2147274762,0.0887782648,0.1241960675,-0.0884129778,0.050494872,0.1566317827,0.0304707754,-0.0216134787,0.1222444475,-0.2366329283,-0.2495432794,0.0232795682,0.0692308396,0.2780347466,-0.0434483252,-0.013072894,-0.0450014286,0.3429135382,0.0581556298,0.0945022255,0.1467544585,0.18451114,-0.1557983011,-0.0252392478,-0.0909506306,0.0205743052,-0.0039052502,-0.0737301037,-0.2994363904,0.0780494511,0.0055524288,0.0554674678,-0.0544096865,0.0888133198,-0.0841761008,0.1052958295,0.1762389392,0.0870772824,-0.1870799065,0.0921468958,0.0294649657,-0.0772812814,-0.0203938242,-0.046669133,0.0751689449,-0.0509658791,-0.166331917,-0.0653155819],[0.0485142805,0.0356062017,0.041589532,0.0818662941,-0.0549399517,0.0216907822,0.1229238808,0.0880778581,0.0738656297,0.065718703,-0.0067463038,0.038619183,0.099084042,-0.0072702519,0.0332065113,-0.0048208823,0.0676424354,-0.0146467015,-0.0819324404,0.1795454472,0.0618963763,-0.0341675207,-0.0195460003,0.0411103927,0.0345578454,-0.1730106622,0.0584054925,0.0239692926,0.0317251123,0.02975576,0.011917592,-0.0634517148,0.1168810502,0.0475685596,0.117301181,0.0550265908,0.1019712016,0.1147761717,-0.1294045001,-0.130111143,0.0749440491,0.0301915333,0.0560425222,0.0829082206,-0.00385678,0.056967631,-0.105342932,0.0576440655,0.0166199077,0.088834621,0.069105953,0.0221234206,0.1967525035,0.0790313184,-0.0031962551,0.0096575301,0.0521235019,0.1497568935,0.0638806894,0.0223534666,0.0111953877,0.0684066787,-0.1146690175,0.1325171739],[0.0497058481,0.087250039,0.1624420136,-0.0694348887,-0.0335056111,0.083261773,0.0751588792,-0.0518893339,-0.0931795165,0.192954883,0.0305527057,0.0746330097,-0.0977029428,0.0822407827,0.167508468,-0.0134143746,-0.0025150259,0.0320300013,-0.0556198061,-0.1124896705,-0.0305022392,0.0269248262,0.001115863,-0.0396969542,0.0205881037,0.0952000841,-0.0022900929,0.1130587161,0.0563217923,0.1248326078,-0.1214236319,0.0277454928,0.0199457575,0.1861082464,0.023921961,0.1054854169,0.1360186636,0.0469515882,0.0452737771,0.0161066782,-0.0879200771,-0.0131705245,0.0149339912,-0.0317369886,-0.0379979387,0.0354871638,0.0549007058,-0.0077086017,-0.0379931107,-0.0142803146,0.0532283969,0.0133897448,0.0518312082,0.0791417956,-0.0071445676,0.0123907784,0.0188107621,0.01812548,-0.0854407474,0.0469477847,-0.0298670996,-0.0046791174,-0.076855436,-0.0786996856],[0.1757710576,0.112525031,0.1832725406,0.1032195613,-0.1994230449,-0.1054165661,0.1623766869,-0.0086927507,-0.0853917897,0.2527518868,-0.1653526425,0.1881292462,-0.2204692066,0.0921705365,0.040061336,-0.0021918383,0.2384746373,0.0496053807,0.0083161928,-0.1196858063,-0.0178242549,0.2163472325,0.0519055054,-0.0628234521,0.0268420707,-0.0791507438,-0.2198092192,0.0386695564,0.0694504827,0.1949118525,-0.0181359351,0.0336391889,0.1124888733,0.3353581131,0.1856483221,0.1357277185,0.0808494836,0.1344504058,-0.09750247,-0.0343617536,-0.1486044228,0.0519685708,-0.0500553958,-0.0636715218,-0.2471006215,0.0608474575,0.0799548477,0.0783579573,-0.0381232612,0.0652817637,-0.0636811256,0.0780941993,0.2061339617,0.1626651287,-0.0573973395,0.0269122496,0.0113032488,-0.0146615887,0.0207194947,-0.0423134975,-0.0344896428,-0.1827622056,-0.0211735312,-0.0908961222],[-0.0508529507,0.0939391628,0.0805426911,0.0872857869,-0.1482088715,-0.0697677881,0.0711445808,0.0203318484,-0.0137644382,0.1250670254,-0.0563698299,-0.0365117416,-0.184579432,0.1313157827,0.1075544655,-0.0145346541,0.109353289,0.0886284858,0.0848308131,-0.0007760961,-0.0168316048,0.0980262533,-0.008661937,0.0128503144,0.0377807505,0.0052461331,-0.1132393256,0.0055907234,0.0882759616,0.1944099665,0.0099297762,0.0997764543,0.0188753605,0.1854933649,0.0181988031,0.0522241741,-0.0325167291,0.0773702711,-0.0192713626,0.0106269652,-0.0443230905,-0.0008163485,-0.0254528057,-0.0040185531,-0.2125665098,0.0150015848,0.0199772753,0.0559932664,-0.0637930483,-0.0207124241,-0.0295925066,0.0789003,-0.0417443216,0.0714022294,-0.0859953836,0.0379338898,0.0240680072,-0.0762793645,-0.0852882713,-0.0214032698,0.0277609807,-0.1741143465,0.0095818657,-0.0782667398],[0.0099606141,0.0659979209,0.1225159466,0.0374012031,0.0791734681,0.0459011719,0.1383640617,-0.015477228,-0.004898679,0.0138191627,-0.0223168954,0.1395514011,0.077142559,0.0891086832,0.1111210361,0.0924316347,0.0110548399,-0.0492874645,0.0662961006,0.1533673406,0.03951874,0.0842378214,-0.0347090289,0.0030893341,0.1142907068,-0.0088198045,-0.0105360886,0.0855884627,0.0323075317,0.0122961849,-0.0507131815,-0.1278758198,-0.0959520116,0.0327365734,-0.0624515377,0.0340306386,0.1775968969,0.0309670605,-0.0528096296,-0.0193234477,0.1242378652,-0.042571485,0.001313381,-0.0373649299,0.0925653353,0.0247423984,-0.0142411916,0.0976487771,-0.0305710379,0.1105457246,-0.0209018365,0.0555091277,0.0967258066,0.0882857516,0.081751518,-0.0070721586,0.1222026795,0.0510673858,0.0926821008,0.1524984986,-0.0760785267,0.0293481983,-0.0887495354,0.0238881521],[0.0111680161,-0.0426709726,0.0642356798,-0.0375461206,0.0887287855,-0.0425258055,0.1759043932,-0.0298022646,0.0601822473,-0.0158887897,0.1128496975,0.1432880312,0.0884479433,0.0082554314,0.0930593088,0.0993148834,-0.0942209959,0.0134006273,0.0009595633,0.276468724,0.0743898079,-0.1041067988,-0.0029031746,-0.0232997891,0.0397433862,-0.0043405085,0.0878263116,0.0056767003,-0.0736012459,-0.0003197691,0.0724963769,-0.111412935,0.0847274587,-0.1093874872,0.0061195325,-0.0128760999,0.1430718899,-0.0553603582,-0.0108144796,-0.0319951586,0.1375228018,0.0641174242,0.0096095065,0.0191695262,0.130306676,0.0591433495,-0.0685674399,0.022038497,0.0442012176,0.0395642258,0.0906687602,-0.0067228526,0.075223282,0.029209407,0.1177589893,-0.0464510769,-0.0347812362,0.1152524501,0.0333211198,0.0562373437,0.0211157035,0.0380874649,-0.0040081623,0.1121670306],[-0.0892043784,0.0187183283,0.0953455493,0.0388441682,0.0544407107,-0.0430132709,0.1315220147,0.0228661336,0.0908328518,0.0476321317,0.0581651255,0.0879818052,-0.0102916155,-0.0178101081,0.0469869301,-0.0682859272,-0.1175329685,0.0648341477,-0.0138460957,0.0218748581,-0.0542461127,-0.0468966626,-0.0112120798,-0.0071524447,-0.0068055866,-0.0601192862,0.0012181662,-0.0070797051,-0.0120473718,-0.0875017196,-0.0372170508,-0.0320283696,-0.012520303,-0.0383752473,-0.0321659409,-0.0695262849,0.1742976457,-0.0918044746,-0.0695338175,-0.0203446373,0.0077048452,0.050359372,0.0233701281,0.0201425385,0.0335942507,-0.1040511429,0.1229136065,0.0826696604,0.0338921323,0.1129109934,0.0219717957,-0.0363629349,-0.0146386763,-0.0453556553,0.0347633883,-0.0066640913,0.012652914,-0.0364048965,0.0672199428,0.017579399,-0.1056091934,0.0583480336,-0.0525636151,0.0445316322],[-0.0195464101,-0.0959420651,0.1098896116,0.0507242568,0.0600503236,0.0301927533,0.1334158778,-0.0316615142,0.0427375883,0.0836125985,0.0529983155,0.1060364991,-0.0639724359,0.0016596959,0.0804516673,0.0524224117,-0.0434059873,-0.02308405,0.0157006774,0.1230775714,-0.025631737,0.0032477833,-0.0898201615,-0.0308839437,-0.0700545907,-0.0580708608,0.0831241161,0.0261604823,-0.0200835839,0.0477606244,0.0479132757,-0.0273783635,0.0327074602,-0.0315641575,-0.0257441569,-0.0280661508,0.056246303,0.0334382132,-0.0058370112,-0.0538770966,-0.0490733683,-0.0474077053,0.0380315147,0.0974009112,0.074485518,0.0669656768,-0.055868011,-0.1080633104,-0.0570270866,0.0846459195,-0.0702917799,0.0321737379,0.0523251817,-0.0433650613,0.0278884079,-0.0184788536,0.0573821552,-0.092743054,-0.0560145192,0.0606881157,-0.0598839633,0.044563435,-0.0923665985,0.0846997723],[-0.0200754572,-0.0188703109,0.113781698,-0.0347458087,-0.0428206436,-0.0570355467,0.1103982702,0.0639629811,0.0695016459,0.0507109389,0.079514578,0.0039031473,-0.0149877658,-0.0058630984,0.0653657243,0.1170037314,-0.0387352444,0.0487342887,0.0263663996,-0.1712786108,-0.029842345,-0.0008000884,0.0498209707,-0.1157097742,0.0541475564,-0.0998187736,0.0162450206,0.0631832704,-0.0528335124,0.0951055214,-0.186638698,-0.0025485768,0.2980010211,0.1748056561,0.0158576295,0.0531894825,0.1675580889,0.0762056559,-0.1229899675,-0.0999465585,-0.1164522916,0.1573102772,-0.049924802,-0.016186133,0.020824166,0.0483244546,0.1243420839,-0.0419836752,-0.0270728618,0.2134248018,-0.0484398268,-0.1004670188,0.073163271,-0.035461437,-0.020010585,-0.0608952269,0.0158018116,-0.0844039246,-0.0144011425,0.0097723268,-0.0227477793,-0.0736750588,0.0518174879,-0.0153354965],[-0.0462367013,0.0032153178,0.0293916799,-0.0153543754,0.0133368429,0.022344511,0.1000402421,0.1273911744,0.172113806,-0.0687984303,0.0079354374,0.0947330445,-0.0011723137,0.0227047093,-0.0514317304,0.1305757761,-0.0585250221,0.1061028764,-0.0405564085,0.0197646767,0.0995622501,0.063744992,-0.0726695806,-0.0647218153,-0.0740790665,-0.0654577836,0.0250020176,0.0608303286,-0.0054692929,-0.0350044593,0.1032629386,-0.0455002449,0.1604452133,-0.0841782764,0.0021473835,0.0867604241,0.0146781821,0.0468837507,-0.0370307714,-0.0873322561,0.0902281106,0.1023417339,0.1050679907,0.0312742181,0.0348100848,0.0770021006,-0.0103946812,0.0424494557,0.1276905537,0.0954790637,-0.0717208609,-0.0026851541,-0.0551674627,0.0221964028,0.0449946634,0.0042057633,0.1151288971,0.09349785,0.0276444182,0.0343773924,0.0492050834,-0.0717840493,-0.0550626814,0.1016079485],[-0.0477620438,0.015951531,0.0726847649,0.0591943413,-0.0299459212,-0.0396076292,0.0695587546,0.165097177,0.1462564021,0.0135520557,-0.052167818,-0.0399527438,-0.0407682694,-0.0250081159,-0.0945910588,0.0289867632,-0.0438244864,0.1342330724,0.0759792626,-0.0180365853,-0.0699592605,-0.0063010976,-0.0384744257,0.0505698696,-0.1389517039,-0.0593178496,0.0464003682,0.0142408637,0.0357464962,-0.0079771485,0.0663479641,0.1056517139,0.2202496976,0.0422066823,-0.01236967,0.0374311991,-0.0550499484,0.1032325327,-0.0022385702,0.0563757382,-0.1351309121,-0.0570165813,0.0505261719,-0.06334804,-0.056975957,0.0684297755,0.2010968328,-0.0201419406,0.008950416,0.157188341,0.0383224934,-0.0075539551,-0.0677156448,0.0980328918,-0.0249721333,0.0465485677,0.0332020223,0.0182891469,-0.0942265019,0.0057672043,0.1445447505,-0.0197590869,-0.0359617211,0.0181612074],[-0.0315269381,-0.1392787099,0.1182504669,-0.1249065921,0.2624740899,0.1615403742,0.1014280394,0.0295147151,0.0468833223,-0.0300582685,0.137912184,0.0114399251,0.2395584583,0.0520050675,0.1223951504,0.1780022681,-0.2824880481,0.0966921002,-0.1575475484,0.0529460721,-0.1526649594,-0.1582488865,-0.1481091976,-0.1073319614,-0.042216219,0.1002057567,0.2399039716,0.0999453366,-0.0601148307,0.0011123894,-0.0772473365,0.0226186812,0.1927037686,-0.1810876131,-0.0196378697,0.0185640864,0.0715108961,-0.1023444384,0.2137821615,0.0853203759,0.2130391002,0.0562386252,-0.0803499296,0.014321465,0.2425670922,0.1450332701,0.0641887635,-0.0944668129,0.1018059179,0.1546610594,0.0397532694,0.021589119,-0.0355098546,-0.1282440871,0.1433941871,-0.0838919729,0.0475911871,0.0026613418,-0.0210058838,0.2733972371,0.1552567333,0.1531834155,-0.0392605476,-0.0731246024],[0.0127863409,-0.0358466022,-0.0403413586,-0.0070731062,0.2239367366,-0.0463697612,0.0555054694,0.0419365503,0.3106510639,-0.012944934,0.1213056818,0.0879321843,0.0338258781,0.0780996233,0.123555772,0.2005591989,0.0047798883,0.084316209,-0.0530389883,0.1550962925,-0.0511255451,-0.0741153508,-0.0161788594,-0.1909736395,-0.0335380733,-0.1377418786,-0.0418068655,0.0430221073,-0.0324377976,0.0783487707,0.1830223799,-0.11657051,0.1233382225,0.0061289724,-0.0077081071,-0.0097900182,0.0082691377,0.0769374371,0.0762371719,-0.0220508855,0.2314180136,0.1058870628,0.1127782166,0.1058778912,-0.0263297204,0.1973502636,-0.1564086229,-0.1134771258,0.177489385,0.1727585942,0.0896961987,0.0627093613,0.0612059161,0.0164574292,0.1043924838,0.0664979666,0.0662935227,0.0908936113,0.0707376003,0.2603111863,0.1241235062,-0.0747914612,-0.1669137776,-0.0077191209],[-0.0518228151,0.0908382609,0.1148342118,0.0056511802,-0.0268727932,0.0921806991,-0.1074319631,0.1835710406,-0.2149886936,0.2126732618,-0.1354373991,0.0579310358,-0.2116128504,0.1811221391,0.1103300974,0.054882247,0.213563934,0.1293487251,0.0499532484,-0.1340128481,0.0009378055,0.0433588661,-0.006090607,-0.0781933218,0.0790167898,0.0015040734,-0.0703312978,0.0382452533,0.1136730015,0.1550296396,-0.049506586,0.1048862189,0.0087498836,0.238752529,0.0987397134,0.0288903899,0.080357492,0.057802666,0.0032042051,0.1564039588,-0.1760363132,0.0280907676,0.0165765025,-0.0238147434,-0.1719454229,0.1680161506,0.0361955389,-0.054125607,-0.0584077984,0.0190106202,-0.0770174339,0.2058349848,-0.0144980075,0.1682908088,-0.0585736334,0.0725022256,0.053500101,-0.1831295639,-0.1184700653,-0.0662660077,0.0583184697,-0.1838647574,-0.137806356,-0.1439871788],[0.0847933963,0.058130119,0.1357140541,-0.0071140472,-0.0046985159,-0.0831366107,0.1381912082,-0.0409419239,-0.0419029929,0.2234419733,-0.0110086696,0.0974533036,-0.0689817816,0.13548702,-0.0259138644,0.0407202542,0.1453781575,0.0378624126,0.0419433489,-0.0090941209,0.0878013596,0.169667244,0.0964745507,-0.0737503394,0.0415231958,-0.1349126548,-0.1875028461,0.0162757225,-0.0172149278,0.1760986149,-0.0359281115,-0.0355032086,0.0865111351,0.1601867825,0.1068125516,0.1211558729,0.047389131,0.1664174795,-0.1876702905,-0.1038483456,0.0042970576,0.1003707871,-0.0149195641,-0.047061976,-0.1747444123,-0.0150574883,0.0366926081,0.0447679982,-0.0124603929,0.1087419912,0.0314118266,-0.0244960412,0.0301126614,-0.0029486532,0.0218177978,0.0122304093,0.1186099723,-0.0083759231,-0.0202916153,-0.0674402714,-0.0846968517,-0.0832919404,-0.0882058367,-0.0501244776],[0.0044786376,-0.0196674727,0.0144708687,0.0421743505,0.0061669485,-0.0399730653,0.0791226476,-0.0030964336,0.1363638043,0.002344057,0.1123230532,-0.0251407605,-0.0362253636,0.0605860874,0.0473081172,0.0178455431,-0.1194203943,0.0118252719,0.0076920614,-0.0005322272,-0.0680888593,-0.0334097669,0.0188185647,-0.0392991975,-0.0293715298,-0.1193846241,0.1574170738,-0.0123988222,0.0230967794,0.0338047594,-0.0712103993,0.0552579947,0.1257871091,0.0297061019,0.0350737497,0.0934860557,-0.0018078111,-0.0428711325,-0.0544708632,0.00615572,0.0207365956,-0.0445192568,0.0153466556,-0.0245896019,0.0422765426,0.1290146708,0.1624417752,-0.0557467937,0.1396785378,0.1422261596,-0.053695634,0.092448771,-0.0019786377,-0.0053298185,-0.027592944,0.0395427644,0.0202311352,-0.0141050471,0.0872406811,0.1260123551,0.0492408425,-0.086072959,0.0564768873,-0.0963332653]]],[[[0.0140262246,-0.0408668332,0.026765896,-0.0014458792,0.0861767232,-0.0530724227,-0.0470401011,-0.0218811948,-0.0013196887,-0.0467052907,0.0339159518,0.024549501,-0.0406723097,0.0521058887,0.0598871484,0.0788028464,-0.0178906694,0.050428886,-0.0331217945,-0.0957958847,0.0296959914,0.0415112264,-0.0428799726,0.0626303703,-0.0839353204,-0.1052846014,-0.0652103871,0.0148968324,-0.0969569087,-0.0300503038,-0.0545986854,0.118944779,0.2421384007,-0.057057213,0.0653344244,0.094281368,0.0271863565,-0.0196459256,-0.1394855678,0.0764989033,0.116037488,0.0006229584,-0.045597434,-0.0475279018,-0.0647488758,-0.0320721567,0.0901969895,0.0519514941,0.107910879,0.0069097942,-0.0418110639,0.0598034486,0.0144466916,-0.0482552461,-0.0257390887,0.0765374005,0.0838140547,0.0319320932,0.0513316728,0.0809249729,0.0585559942,0.0706425458,-0.1270865202,-0.1206462234],[-0.093785435,0.0053804689,0.1144601032,-0.0915201753,0.0239123181,0.1531564742,0.0617198758,0.0856834576,0.03734456,-0.0692663565,0.0669649169,0.0950508192,0.0331882313,0.0834335163,0.0403351523,0.0624467246,0.0272757113,0.0719252601,0.0154732307,-0.0071111815,-0.2024460584,-0.0813247785,0.0815756842,0.0093690222,-0.2397838682,0.1003313214,0.1222464368,0.0610798225,0.0639704987,0.017796617,0.1446053088,-0.0916861892,0.1301288158,-0.0288791936,-0.0911792964,0.0130607802,-0.0407799408,-0.0750620291,0.1493434161,0.1365284175,-0.0785522088,-0.0158266798,-0.1695716381,-0.1539586633,-0.0306678042,0.1259556562,0.0718561262,-0.0245063454,0.085312441,0.0655138791,-0.0718821809,0.12251582,-0.0850775018,0.0155775258,0.0419223569,-0.0393320322,0.1430096775,0.0145145711,-0.0112707596,0.1090717167,0.0628398359,-0.0126357935,-0.0678333938,-0.0802181959],[-0.1044006273,0.0036112773,0.0771804154,-0.0024508091,0.1011638641,0.079182595,0.049563013,0.0688196197,-0.0146392183,-0.0811429098,-0.0419292748,0.0071349554,-0.0324775763,-0.0515758879,-0.0403297581,0.0677035078,-0.0809200108,-0.0183237009,-0.0185285397,-0.0541071594,-0.1065780446,0.0692944601,-0.0023203786,0.0048351986,-0.1204871684,-0.0228416231,-0.0227255896,-0.0004948846,0.0398623496,0.0479492992,0.019992087,-0.0624341443,0.0982649848,-0.1039273366,-0.0578606278,-0.0066441791,-0.0046531036,-0.0247717183,-0.0748277828,0.0235717781,0.0026378429,-0.0046483055,-0.0662326813,-0.1100324839,-0.0340005532,0.0083252657,0.0479497239,-0.0579691119,0.0076435488,0.062173266,-0.0605522022,-0.0488381945,-0.0674127787,0.0128950421,-0.0176575538,0.0106015736,0.079648532,-0.004450554,-0.0885630623,0.0720838383,-0.0697886199,0.092575103,0.0091813216,0.0060659782],[-0.0062361686,-0.0565581582,-0.0238008983,-0.0155505594,0.0034162751,0.0460597351,0.0813589469,-0.0489557758,0.0898012593,-0.1053678542,0.084414266,0.0535364635,-0.0513640605,0.0321655832,0.0320435874,-0.0194886699,-0.0307735279,-0.0380916744,0.0300899222,0.0434725918,-0.0209012013,-0.0520876609,-0.0642813817,0.0806095153,-0.0222990196,0.003898765,-0.0070658587,0.0658435225,0.0352080427,0.0645765662,0.112607494,-0.1187079847,0.0331814438,-0.0985101014,-0.0264546759,-0.04828972,0.0083891619,0.0594165288,0.0973895267,-0.0508248098,0.0619066507,0.0154835163,0.0150019992,0.0257310886,0.0631969422,0.0537794642,-0.065007098,-0.0544971749,0.0825793296,0.0954303816,-0.0068578897,0.0556459799,-0.0942435339,0.0426151827,0.1000727788,-0.0831329226,-0.0216820035,-0.0367522351,-0.044985909,0.0703634545,0.0866067931,0.0188631527,-0.0314052589,-0.0740454644],[-0.0484367535,-0.0054854439,0.0448456258,0.0219742451,0.0751699656,0.0797036663,-0.0252215546,-0.0661337972,0.0792183429,0.0497093797,-0.0497741587,0.1106320769,0.0267702024,0.0590273477,0.0599851795,-0.0188190378,0.0340683609,-0.0683498234,0.0432054736,0.1243944764,0.0231655259,-0.0484432578,-0.079006359,0.0448610932,-0.0129959937,0.0156407915,-0.0915877819,-0.0133465044,0.0736582503,-0.0855573937,0.1792440414,-0.0075629791,-0.0917757675,-0.0319149606,0.0065517388,-0.0153473224,0.0106430342,0.0201918706,-0.0122443531,-0.0289451331,0.0363454409,-0.0461711176,-0.0678827316,0.0800837651,0.0906643942,0.0191106275,-0.0670367479,-0.0335913152,-0.0327406228,0.1454183161,0.0435333848,0.0784335658,0.065788053,0.0477893092,-0.046959836,0.0435050428,-0.0210031476,-0.040885929,-0.0283892825,-0.038669683,-0.0431639999,0.0175870843,0.0688696131,0.0093046799],[0.0069223866,0.0754667372,-0.0260101482,0.1289599538,0.108138524,-0.0241396632,0.0536086932,0.0137917167,0.0294519309,0.0040693325,0.0092963725,0.0937798619,0.0132670216,-0.0942316875,0.0677329823,-0.0602533668,0.0469883755,-0.0712868795,-0.0434856042,0.1432062536,0.0045008925,0.0653961375,-0.0325667635,-0.158019498,0.0060475036,-0.1234411076,-0.1928896755,0.1294814348,-0.091340661,0.1159986928,-0.0118550621,-0.0773189515,-0.0037904116,0.0825817958,-0.0444887094,0.0279731229,0.0901826471,0.0880930126,-0.0406343974,-0.0457580127,0.1283743382,0.0635293573,0.0378384776,0.0870934129,0.0514404438,0.0013968323,-0.053478267,0.1223455146,-0.0540209338,0.0421255901,0.0673720688,-0.1091594324,0.029202709,0.0654242709,0.1090148613,0.0471335575,-0.0545559041,0.0152912186,0.1403218508,-0.0694457814,-0.104483977,-0.0203765295,-0.0068804198,0.1601097137],[-0.0541311614,0.0510782711,-0.0894540548,-0.023765428,0.0682798326,-0.090192236,-0.0306688342,-0.0043932833,-0.0186272766,-0.0170438047,0.0378394164,0.0582246855,-0.0484505259,-0.0116889086,-0.0098689869,0.0476960205,0.0785963759,-0.0418916456,0.0415497497,-0.0185315926,0.0537814461,-0.0130696017,-0.033322636,0.0393582508,-0.0548988655,-0.1264431328,-0.0126910154,0.0790933445,-0.0231020153,0.0229801089,0.0683298633,0.0607604012,0.0506081097,-0.0092146015,-0.013249537,0.1145411283,-0.0789560378,0.0148363607,-0.0699582845,-0.0624545775,-0.0735922605,-0.0033558859,-0.0300060287,0.0267947372,-0.052742403,-0.0282686986,-0.010527974,0.0377407521,0.0338641256,0.0923793986,0.061163649,0.1036343724,0.0579017028,0.0534237996,0.0530075915,