kern1:
-0.026026215 -0.14128932 0.11215529 0.04425322 0.0069032577 -0.014753999 -0.050789043 0.02969419 -0.003579754 0.019393105 -0.015040007 -0.019097531 -0.11160205 -0.14071445 -0.09208088 -0.08890087 0.06671378 -0.0875491 0.055988155 0.06472338 -0.10946716 0.11681334 -0.009380158 0.07944715 -0.103890836 -0.043482304 0.07252158 
0.09750536 -0.08662862 0.023016432 -0.12939091 -0.09059737 0.09307153 -0.13616578 -0.08167706 0.12468563 0.0986952 0.09300296 -0.030585466 0.08440845 0.08060949 0.088661216 0.078441724 0.062405422 0.058275215 -0.058508042 -0.0074772593 0.009495751 0.08372934 -0.06830261 0.11546522 -0.090833925 -0.1261386 -0.111821495 
0.14614508 -0.13416454 -0.17257388 0.06578557 -0.13922401 -0.043046154 0.10102948 0.013036944 -0.047693614 0.008752958 -0.012441822 -0.09867828 0.023005255 0.03978236 -0.17058745 0.12784833 0.011568569 -0.035820268 -0.061220817 -0.0670233 -0.057996146 0.056214638 -0.06462756 -0.099970944 0.0027320855 -0.07481537 0.04646566 
-0.067498505 0.016457865 0.11624951 -0.11134489 0.027472883 0.10054588 -0.043356713 0.026980288 0.0072193695 -0.078662634 0.09837207 0.042167377 0.10299577 0.07830387 0.09687351 -0.11919648 0.06354785 -0.011259765 0.054436278 -0.09553868 -0.13831225 -0.1639138 0.028512212 0.049659863 0.060434222 0.12697184 0.087691694 
0.03132949 0.12353228 -0.07929463 0.050458528 -0.119284436 -0.13353087 -0.038164675 -0.050519116 0.08785978 0.056505878 -0.0044826036 0.10955062 0.011197334 -0.119118884 -0.029622417 -0.08491305 -0.061866533 -0.00944391 -0.024234816 -0.13222457 0.09945537 0.05106167 -0.077068865 -0.14101401 -0.042096574 -0.15210262 0.038701694 
-0.06742165 -0.065215 0.11259102 -0.08509184 0.0027593083 -0.04759234 0.09328623 0.056805354 -0.044210277 -0.11071754 0.041173924 -0.009208539 0.06473944 -0.14330658 0.056009363 0.032457706 0.026073659 0.081103615 0.12483899 0.00527371 0.102045774 0.012033045 -0.0969067 0.09648161 -0.04195224 -0.11402748 -0.09648148 
-0.029012421 -0.11066713 0.014763464 0.111522205 0.108792424 0.02332591 0.03274569 -0.05227373 0.010801333 0.08834139 -0.05883762 0.094259195 0.0081936205 0.12222104 -0.094126 -0.098761685 0.007700011 -0.12737198 0.021383284 -0.09968284 0.03029028 -0.10470422 -0.0014513604 0.123653285 0.10034778 0.048579026 -0.05625283 
0.0722551 -0.13921313 -0.055035062 0.048364665 0.01802492 -0.14757425 0.13644019 0.069745496 -0.10059593 0.11101582 0.007824582 -0.094505236 0.027179422 0.13172263 -0.14868899 -0.10500079 -0.078350596 -0.037654024 -0.03350696 0.11944824 -0.080852926 -0.09767794 -0.030809723 -0.09278617 -0.044925056 0.030253459 0.0076517793 
0.05836477 0.03117537 -0.0091296835 0.06216952 0.09127718 0.041788697 0.04285781 -0.14907052 -0.00052729656 0.0865859 -0.02790787 -0.1801342 0.07119562 0.10341874 -0.08179269 0.0980021 -0.15100901 -0.13963884 -0.036387403 0.06607935 -0.12499858 0.06864002 -0.085913256 -0.18393998 -0.06713072 -0.15960023 -0.19463047 
0.10041783 -0.022794208 0.037144296 0.07942503 -0.027702322 -0.09996716 0.007029727 0.029436916 0.08944087 0.042819936 0.06014241 -0.12739268 -0.12427391 0.08085707 -0.07276348 0.09677435 0.030300405 0.042069472 0.06776112 0.019360991 -0.056872953 -0.026279137 -0.02024042 0.015257717 -0.14533731 0.06959946 -0.03599591 
0.06343025 -0.043066397 -0.0074092955 0.07238555 -0.006586016 -0.05612231 0.11645915 0.065486 -0.13540938 0.011638521 0.010432175 -0.13159356 0.013168541 0.002106863 -0.101387545 0.0015095429 -0.07478422 -0.017727703 0.03232821 0.059529908 -0.15432264 0.09403987 0.11332661 0.022602296 -0.02844039 -0.07702326 -0.060124088 
-0.08344418 -0.111964576 -0.017089892 0.08634666 -0.03603804 -0.09678342 -0.060768805 0.031755134 0.035933428 -0.004450765 0.0965844 -0.04859478 0.046554126 -0.13425048 -0.116098 -0.029659066 0.01329615 0.07302907 -0.02843448 0.075129606 0.10932894 0.07066571 -0.015174696 -0.10849305 -0.005261297 0.14755955 0.13965401 
-0.08227663 -0.062079333 0.04221938 0.02733022 -0.05779682 0.16053936 0.09244819 0.1162056 0.123728484 -0.016501283 -0.104992054 -0.04294752 0.14209509 -0.11133134 -0.03281917 -0.07924679 -0.13251206 -0.077429704 -0.06938419 -0.04844919 0.114899665 -0.069820866 -0.06684229 -0.05854505 -0.10317287 0.008633388 0.12130129 
-0.12141164 0.1295568 0.119968906 0.045123786 0.04217813 -0.09593419 0.105180524 -0.07542248 0.031344865 -0.019860614 0.022902051 0.071526505 -0.11564691 -0.045255255 0.029343128 0.017433843 -0.08977169 -0.09706393 0.11428013 0.021529574 0.021411866 0.07204297 -0.119687036 -0.0005402056 -0.083630875 0.114308335 -0.014502989 
-0.10956545 -0.008389578 -0.061774194 0.042751193 -0.1384535 0.07466354 -0.07167538 0.07439596 0.06239764 -0.094572 0.069533445 -0.052933075 -0.014220646 -0.058683146 0.14710899 0.050687704 -0.06586278 -0.0014613754 0.07675978 -0.010360854 0.006281929 0.12765928 -0.09587645 0.062751755 -0.14009658 0.1411101 0.16815363 
-0.10917193 0.08021732 -0.1007979 0.11432556 0.005514851 0.09979693 -0.075883955 -0.10238617 0.014639851 0.12778142 0.1114239 -0.114122674 -0.0397408 0.00802545 0.1081601 -0.11714016 0.078136966 -0.10889862 0.006988084 0.08603981 -0.030495284 -0.07399374 -0.1134592 0.016081233 -0.12017409 -0.0784768 0.12569156 
0.10594534 0.043796666 -0.008869674 0.03693583 0.11321222 0.11144553 -0.044895586 -0.07139439 0.060462676 -0.15694357 0.04969628 0.06427128 0.09511068 0.120256886 -0.12127518 -0.0037141577 0.047284596 -0.02840386 -0.15617713 -0.09521489 -0.08579628 -0.114861906 -0.0405322 -0.023995787 -0.1258871 0.10118999 0.0071720243 
0.11370228 0.08802776 -0.050718103 -0.010385317 -0.15432227 -0.120288394 0.09435315 0.021800473 0.10062542 -0.033383287 -0.12720232 -0.11650849 0.109777294 -0.1045953 -0.08120618 0.015164023 0.004838503 -0.0030780304 0.04933811 -0.021028174 0.030110428 0.02757849 -0.12224654 0.0526225 -0.060478512 -0.08128413 -0.010321714 
0.07318169 -0.095412135 -0.16324517 0.10980439 -0.04599837 -0.078459196 -0.0007889243 0.10487558 -0.17547987 0.008468434 -0.0626284 -0.023656465 0.07079894 -0.09975577 -0.104017936 -0.018423818 0.086907044 -0.11334668 0.06478078 0.009098672 0.014614321 -0.1269319 0.090305224 0.05242667 0.07037919 -0.12705648 -0.015043594 
0.018571502 -0.14581919 0.14825779 -0.04339997 0.0034977328 0.10121995 -0.022100667 -0.08062004 0.15275085 0.04574835 -0.0175787 0.14914939 -0.005581528 -0.14467737 0.13957416 -0.06462856 -0.032647524 0.051031232 0.09662471 0.019718232 0.04873046 -0.060378425 0.05198676 0.059027966 -0.116082944 -0.06057926 -0.02028765 
0.04986973 0.119461246 -0.08781503 -0.1060373 -0.04976508 -0.116028555 -0.0791386 0.08223624 0.061556023 -0.03566856 0.08582246 0.118506745 -0.0425439 0.12747961 -0.14581932 -0.08197363 -0.11797208 0.014557107 0.09975615 0.05372884 0.09313397 -0.12354818 0.11685613 -0.052318037 0.0062295888 -0.048489686 -0.13014676 
-0.006153047 0.1161804 -0.0711983 -0.06740504 0.024204116 -0.060996603 -0.023343552 -0.064274445 -0.09854918 0.032788943 -0.05351458 0.01981519 -0.14912917 -0.02281605 -0.03651565 0.07116124 0.013359057 0.040758632 0.068248585 0.0877815 0.0862308 -0.016986588 0.14833003 0.11709093 -0.11676468 0.015637686 -0.1265683 
-0.06828944 -0.073015794 -0.13773939 -0.12631568 0.12998374 0.06619481 -0.120053545 -0.00914819 -0.073868066 0.060250744 0.109825276 -0.057006292 -0.10852806 0.09316521 -0.1081724 -0.03162042 -0.046000265 0.10077167 0.039708372 -0.05073557 -0.11644821 0.0642301 0.109540835 0.07508286 -0.0074088513 0.15740621 -0.078049965 
0.028998222 0.11521917 0.0068234573 -0.076136105 -0.013524929 -0.10823931 -0.11173358 0.0014308305 -0.15938303 0.07767659 0.11960207 -0.09621349 0.06624407 0.11158046 -0.16327971 -0.0015962955 0.121313535 0.08893751 -0.04229203 0.11458871 -0.06416433 -0.052705407 0.055716507 -0.15602064 -0.13770717 0.11377987 0.022520656 
0.051175177 -0.0135091115 0.10199453 -0.0974824 0.12539676 -0.06980025 -0.10877483 0.07733335 -0.0006785201 -0.042114634 0.01972843 0.10783365 0.021817226 -0.0013647752 -0.04079811 -0.0075819 -0.07652078 0.042886462 0.103136845 -0.120391145 0.06218673 0.021694925 -0.072893165 -0.032785427 -0.09646223 -0.06287594 0.019363727 
-0.054786384 -0.03280375 -0.13565837 0.0618961 -0.03789875 0.03265048 0.066460945 -0.11105755 -0.14066802 0.102034174 0.106289014 -0.111256234 0.0654016 -0.1472042 0.05108078 0.041703362 0.083450854 -0.065507986 -0.10000871 -0.090077646 -0.14370325 0.11059567 0.03397613 0.029915469 0.118942626 -0.07819721 0.044834096 
0.11286401 -0.13292721 0.104244165 0.091160916 0.11437542 -0.0071700457 -0.13503598 -0.054661844 -0.037319697 0.12187945 0.009289024 0.1133291 -0.09028445 0.051540427 -0.08525718 -0.12797178 -0.16078024 0.048923776 0.07121182 -0.14382148 0.118545234 -0.03765087 0.0076943855 -0.10049383 -0.023822328 0.060864888 0.12738797 
-0.07418601 -0.07547277 0.04072182 -0.08085064 0.052692357 -0.097746044 -0.052003566 -0.07133038 -0.016943714 0.06458738 -0.06780887 -0.079260275 -0.0053771883 -0.044563048 -0.0037545576 -0.11697641 -0.025738254 -0.15416524 0.14632714 0.075184725 -0.16695894 0.14358579 -0.11048815 -0.07637769 0.12611857 -0.0209985 0.07630313 
0.05896399 -0.07630738 -0.0015998643 -0.07698626 0.031006092 -0.02606478 0.106090456 -0.007065025 -0.06279256 0.032552116 -0.10673405 0.07724136 0.004441717 -0.03577126 -0.0015197155 0.066287495 -0.14080738 -0.11655428 0.054304846 0.0883838 -0.10575545 0.10510192 0.010920914 -0.13327941 0.13097824 -0.061918247 0.09871419 
0.14369726 0.08139017 0.092316955 -0.12270597 -0.03324663 0.13884649 -0.12377819 0.032051083 0.14851741 0.10147064 -0.12901816 -0.05918547 0.13862526 -0.01723769 0.096064195 -0.1328411 -0.06209076 -0.008023879 -0.016906569 -0.024736531 -0.060209867 -0.05455022 -0.096698165 0.14137784 -0.01508054 -0.11504523 -0.0030923989 
-0.09801075 0.06375839 0.11730464 0.08966504 -0.1477165 -0.0071020303 0.0925045 0.030455988 0.012464755 0.030815674 -0.10469298 -0.063179575 0.028066602 -0.15066928 0.002632633 0.102442466 -0.03454571 -0.08589499 0.116668575 -0.08844588 0.024889763 0.011544634 -0.11037486 4.532619e-05 0.0067879185 0.009776711 0.055079028 
-0.12264012 -0.10323656 0.054830626 0.05283136 -0.036465786 0.03434838 0.04112848 -0.12408299 -0.008879763 -0.032268263 0.09859388 -0.013465796 0.048726857 0.054521106 -0.08209887 -0.08306847 -0.10556642 0.016054062 -0.06608339 -0.06597864 0.08385434 0.066090666 0.10214617 0.11224631 0.11022736 0.0725606 0.14739278 
bias1:
0.08903851 0.005564122 -0.013382611 -0.008011204 0.056520384 0.033599153 -0.08909575 -0.025429469 -0.033318073 -0.058749113 -0.066985935 -0.030522492 0.06537165 -0.036490977 0.039799724 0.08626313 0.047765706 -0.0029873394 -0.025085926 0.037165377 0.04354862 0.02305637 0.023957836 -0.0093081435 0.06048823 -0.06356099 0.037618097 0.028803699 -0.06010918 0.0348367 -0.013423355 -0.054843336 
kern2:
0.1159077 0.042998444 0.046175607 0.05370751 0.086424574 0.07255196 -0.012091167 -0.0058937585 -0.053434066 -0.039774653 -0.031469226 -0.030507386 0.047585685 0.11580727 -0.05225772 0.089855425 0.0068849986 0.07150705 0.025536455 -0.001103909 0.12061415 -0.0026908915 0.04886892 0.12607904 -0.0010941233 -0.0054800757 -0.026477732 0.07991037 -0.009633329 -0.032354105 0.07816724 -0.045423344 0.074851245 0.0910732 0.05100959 -0.060471307 0.07668338 0.04742333 -0.047710076 -0.059907332 0.042697683 0.0576182 0.073203616 -0.016484343 0.040068377 0.05226504 0.04943086 0.016750675 0.08717143 -0.012213016 0.013040229 0.0026100122 0.10562906 -0.0075783706 0.10525575 -0.021636728 0.06437905 -0.015387914 0.06873167 0.09273359 -0.026544658 0.064079955 0.025031818 -0.01393306 -0.027036555 -0.009280563 -0.038881537 -0.035873543 -0.059539158 0.01756301 -0.04949798 -0.057110988 -0.057060644 0.01066544 0.07151659 0.059583973 0.026786424 0.016996097 0.025789611 -0.011478411 0.072792165 0.07610359 0.014170571 -0.03379406 0.07379382 -0.07406518 0.00018631146 0.054320328 0.05168849 0.040966198 0.03687202 -0.0053284275 0.035098497 -0.071792 -0.0011668564 -0.008312095 -0.00037535233 0.09948252 -0.04201774 0.07784248 0.07268519 -0.0690517 0.09100519 -0.06117264 -0.07060667 -0.032781348 -0.062833965 0.018635925 0.07084756 0.023320584 -0.019942515 0.08239399 0.12194994 0.05467823 -0.050972383 -0.010785915 0.14369576 0.06489091 0.02574719 -0.01121504 0.12605995 -0.086285114 0.11977678 -0.06994735 0.010604464 0.021461548 -0.04379473 0.0022532942 0.016802868 0.048202094 -0.062977254 0.04374178 0.037077952 0.08238458 -0.07451628 0.063804284 0.070960395 -0.0056437547 -0.047414135 -0.0804761 0.06503355 0.072664745 0.043348446 0.12878092 0.16476315 0.016469777 -0.0033796774 0.07438546 0.16680181 -0.0320653 0.115871735 0.06716973 0.033298373 -0.012531744 -0.052039597 0.05440877 0.055772875 0.037685454 -0.05703967 -0.013769551 0.12298938 0.103085056 0.053700276 0.061406765 -0.025662009 0.07225104 0.004090911 -0.054703027 0.08152336 0.07808224 0.061608274 -0.06848159 0.12061156 0.059023898 0.09554274 0.18796186 0.029360423 -0.0040823924 -0.03540207 -0.05034257 0.11360408 0.004792272 0.09454897 0.11482377 0.014985122 -0.04723432 0.019539088 0.033458218 0.017562224 0.04540722 -0.081479885 -0.059235815 -0.0052308915 0.069805786 -0.036601275 0.09162531 0.0692147 0.052684393 -0.04508659 0.03410586 -0.09239678 0.060952764 0.07577908 0.06746783 0.06300105 0.090846665 -0.0019864864 0.061561517 0.1296445 -0.07611628 0.012544308 -0.051309675 0.07213445 0.136035 0.09360535 0.09651853 0.037015416 -0.023061574 0.10748204 -0.0020616394 -0.013773553 0.008271036 -0.0091600465 0.06281985 0.099754326 0.013407442 0.01986997 0.025493251 0.032074768 -0.046726607 -0.07039186 0.10460851 -0.00033719264 -0.0012269125 -0.009402213 0.09729632 -0.039374072 0.018846853 0.09752205 0.051321294 -0.010730014 -0.09744946 0.09283127 0.029216757 0.13836333 0.1286613 0.05529148 0.1397061 0.07455331 -0.04208481 -0.03211034 0.059177905 -0.07712824 0.03826974 -0.0863945 0.094418675 0.09085124 -0.018318577 -0.082900256 -0.041268155 0.06112513 -0.00096680294 -0.024622167 -0.011742767 0.025720112 -0.002729246 0.048180662 0.0709124 -0.01991732 -0.04498627 0.0045698327 0.11765258 0.061364815 -0.059724458 0.014525851 0.0031326457 0.02467051 0.122226305 0.07203734 0.090125114 0.03951041 0.05453522 -0.051246036 -0.03144535 -0.08534938 -0.037555534 -0.013833048 0.03235265 
0.04006225 0.02625713 -0.0238584 0.031798564 0.05011211 0.035965554 0.020571858 0.006714047 0.026891261 -0.03513925 0.07810865 -0.022102397 0.0385363 -0.087781295 0.10018052 -0.036737125 0.053071044 0.061557554 -0.028840287 0.028926924 -0.0070354366 -0.034758754 -0.059799753 -0.0026020412 0.020308975 0.054196704 -0.007838474 0.037747998 -0.049944453 0.023569327 0.055957757 0.09032636 0.0562628 -0.046148438 0.026127836 0.04003114 -0.07933473 -0.056498475 0.07817566 -0.005011107 -0.059850402 0.037265774 0.04993988 0.10085495 -0.038307264 -0.009387791 -0.020561777 -0.090852365 -0.060912054 -0.012873272 -0.040773712 0.081953 0.022881519 0.028245894 0.013633616 -0.1141162 0.06525417 -0.06411281 0.0540249 -0.0007011376 0.044682406 0.05287604 0.08485334 0.05848816 -0.043776862 -0.06166165 -0.018414153 -0.04289671 0.08731577 0.016514594 0.0067110625 0.042604443 0.10260861 0.036412597 0.06380766 -0.0034238144 -0.0083571235 0.022588875 -0.04850666 -0.018741785 -0.072344616 0.100638114 -0.024594402 -0.05543964 0.018927976 0.023280296 -0.09370763 -0.1198027 -0.00846266 0.09998504 -0.08266146 0.08421579 0.04709543 0.05801391 0.0906169 0.068717055 -0.08155578 0.053313244 0.050229654 0.026385183 -0.04410293 -0.004602067 -0.013525257 -0.08817752 0.030215342 -0.024052503 0.04462625 0.031609293 -0.047912408 0.0014371937 0.052077986 -0.06101762 -0.14248371 0.0526453 0.03029161 -0.057233166 -0.12332152 -0.113003515 0.015602436 -0.06226282 0.056294803 0.08739167 0.025131201 0.051060494 -0.042847626 -0.09055283 0.14483355 -0.018152788 -0.110982485 0.08011104 0.046859577 0.07718172 0.02104113 0.014923344 0.061773878 -0.09055582 0.042349912 -0.0025521528 0.06786991 0.069586866 -0.061286286 -0.05424049 0.037170876 3.9528124e-05 -0.067494266 0.060006984 -0.024075694 0.033893593 0.019640753 -0.027883796 -0.115165055 -0.060260657 0.06149314 -0.05618764 0.0027752663 0.03374722 0.09149919 -0.08561249 0.07481741 -0.033465773 0.05357257 -0.007698776 0.08478994 0.024733977 0.06073688 -0.0104464805 0.02511205 -0.067907855 -0.025502065 0.023892535 0.014245678 -0.043623663 0.053530328 -0.07482025 0.06528303 -0.03274075 -0.1074603 0.029945364 0.07214047 0.021272035 -0.12085929 -0.023838524 -0.0006488791 -0.0988737 0.005576024 0.05636571 0.05864596 0.076532595 0.06060979 -0.058182858 -0.017180214 -0.05398299 0.042457152 -0.08079069 0.054575864 0.09402981 -0.10267886 0.034466956 0.05970647 -0.10311478 0.05870679 0.09756717 0.043563828 0.045095213 -0.06982226 -0.102978155 0.037137132 -0.06869877 -0.09562496 -0.01678562 0.08288393 0.015518852 -0.08695259 -0.04206272 -0.13342811 0.013825081 -0.045765076 0.052607797 -0.029090278 0.029200032 0.01716464 0.06141667 -0.0034352066 -0.025314745 -0.02225069 -0.008836927 0.02266797 0.03156653 -0.021575965 -0.059845332 -0.046243798 0.0025709113 -0.09865142 0.039246235 -0.016921418 0.01712704 0.018127356 0.078732364 0.08026022 0.018799674 0.036950823 0.073518895 0.011526461 0.1095095 -0.013108316 0.087967224 -0.07531087 0.009241663 -0.06297159 -0.016146129 0.076740615 -0.008671927 -0.029368505 -0.06423792 -0.043985 0.0756349 -0.12710927 0.06663212 -0.029244637 -0.05695213 0.04792852 0.026301352 0.0685711 -0.028817533 0.00013097527 0.08707982 -0.038912445 -0.0034030378 -0.0003186278 -0.07381311 -0.0048566824 -0.10843517 -0.076782346 0.07041207 -0.05955159 -0.0035340134 -0.089965455 0.04532105 -0.07471323 -0.1265023 -0.05390411 0.01907432 0.01587918 0.014408856 0.1002981 -0.015758099 -0.0060613328 0.049892273 
0.0485679 0.057108328 -0.04569556 -0.08476903 0.047204386 -0.012728948 -0.050050747 0.05394285 -0.034611408 0.034024883 0.07043865 -0.060979962 0.036238145 0.028642736 -0.0684426 -0.00956305 0.046278924 -0.0454731 0.06704097 -0.07580176 0.07988863 -0.026454544 0.081139304 0.0925859 -0.07577437 -0.016757762 -0.033215627 -0.03726041 -0.022996105 0.03277137 -0.063869484 -0.043981027 0.046622124 -0.055334706 -0.090627685 0.015618824 0.051476043 -0.031281848 0.036331523 -0.028129289 -0.06471345 0.012993583 0.04399212 -0.029555643 0.03102744 -0.017102232 0.040936284 0.0931844 0.15976483 0.020804852 -0.0877402 0.008395063 0.027990332 0.059974346 0.12883647 0.07986318 0.07682255 0.02905526 -0.007215282 -0.052951694 -0.030721473 -0.06570654 0.009747733 -0.031082856 0.073674485 -0.034593027 -0.08065519 0.0537849 -0.033542026 0.01736288 -0.06943788 -0.04966449 0.035042755 0.042436693 0.040029734 -0.10166581 0.07505162 0.0653472 -0.02140082 0.012795027 0.00025767714 -0.04791209 0.059860505 0.0011268734 0.071456626 -0.061829492 0.04926562 0.008423857 0.0140697 0.041775063 0.05672299 0.05682459 -0.060562696 0.077586845 -0.04045218 -0.0067699826 -0.021761231 0.08448904 0.032442704 -0.0147018945 -0.026730942 0.016603567 -0.0731446 0.057129808 0.030857723 0.015928647 -0.07796228 -0.0030171685 0.10480231 -0.0149252275 -0.005551108 0.12639846 0.12890945 -0.021392997 0.014732888 -0.020519277 -0.0067806244 -0.071469635 0.14767843 0.0492703 0.011430883 -0.08005143 0.047889024 0.06932085 -0.07855853 0.0058188722 0.013800242 0.018357735 0.044269353 -0.024003554 0.051105384 0.060804103 -0.045437306 0.029839057 -0.0028778012 0.089651644 0.06679122 -0.03625737 -0.11018423 -0.0024536853 0.11257538 0.04365314 0.0037571685 0.09003929 0.0956373 -0.03994384 -0.067628756 0.015046766 0.10562241 0.005040357 0.031224318 0.060670614 0.06604901 0.038802397 0.010107231 0.022883782 -0.09348789 0.010197651 -0.04489717 -0.017783416 -0.00842654 0.015316123 -0.081172176 0.09027385 0.045225803 -0.064490624 -0.060424473 0.069526516 0.039525263 -0.07955114 0.0060854144 -0.016949516 0.03197779 -0.08898937 0.037769105 0.0894847 0.18922904 0.03768727 -0.0351851 0.057052594 0.09518917 -0.009221714 0.014008524 -0.008685356 -0.035412133 -0.02461619 0.067111365 0.027141199 -0.11276556 0.0678566 0.017487913 -0.011942083 0.0413549 0.008579521 0.02233626 0.07990166 0.0784636 0.06573137 -0.06225578 -0.010175957 0.035169907 0.0468996 -0.042467695 0.10419073 0.06111066 -0.0054390663 0.045629274 0.13511337 0.022892147 0.032339156 -0.01619279 0.0046156803 0.15407377 0.10809635 0.053947262 0.05682131 0.07222349 -0.089867115 0.074645475 0.00618691 0.007989916 0.0007980759 -0.09264991 -0.02892735 -0.0333679 0.031159103 -0.020759962 -0.019404761 0.0119921435 0.037275985 -0.10179074 -0.04754711 -0.0051355576 -0.041757714 -0.1127866 0.0039518834 -0.047834646 0.028027974 0.0131779695 0.066726394 0.13303944 0.047787994 -0.08082939 0.056336436 0.032545354 -0.03926657 0.19808875 0.030830301 -0.0022601741 -0.073394984 0.053481042 -0.020196617 0.0029574006 -0.01199854 -0.12826236 0.05354401 0.036844824 0.09087803 -0.09221594 -0.015070553 -0.05960641 -0.062079165 -0.068620205 -0.08042997 -0.09009608 0.002814136 -0.10604442 0.027835878 0.043881115 0.05457772 0.01908264 0.011835106 0.0055891154 0.02161916 -0.04904158 -0.042125203 0.10868409 0.109376416 0.11067789 -0.04382101 -0.039014727 0.045014262 0.07723631 0.055538286 0.044598527 -0.0029534376 -0.06820016 0.03508495 
0.012748696 -0.10255548 -0.059788097 -0.057022654 -0.05158699 0.021742007 -0.016053608 0.09439882 -0.061298236 0.044558723 -0.04902564 0.05205668 0.036572363 -0.0036124804 0.0026774514 0.09089804 -0.022934154 -0.057744693 -0.04636906 -0.12240423 -0.04938849 0.06057562 0.10446593 0.019488696 0.03553961 -0.011917567 -0.06477098 -0.020296007 0.033719677 -0.020931128 -0.11509023 -0.021231666 0.07844232 0.004165664 -0.004570062 0.06697047 -0.019510513 -0.0028893827 -0.029506017 0.051025677 0.054631494 -0.09130614 -0.041547064 0.021765318 -0.03390995 0.023029119 -0.07744034 -0.060421363 0.055586968 -0.038672205 -0.006681704 -0.060245823 0.042098224 -0.020107428 0.10646258 0.053032164 -0.021184152 -0.060391717 -0.08982922 0.09500642 -0.051263757 -0.09023702 -0.032465477 -0.044015568 0.060673248 -0.013223846 -0.051325116 0.027189426 0.039914057 -0.08042363 0.027390415 -0.04050227 0.04327545 0.0054912833 0.0138278585 0.03439203 -0.027488813 -0.016984602 -0.07789515 0.0034180232 0.027675724 -0.09885984 -0.02314793 -0.09608939 -0.048501592 0.07316875 0.042922616 0.020007081 -0.058120072 -0.0002880867 -0.04100389 -0.0022459095 0.027686154 -0.09444598 -0.131353 -0.028934315 -0.0668432 0.043683555 -0.035948493 0.0035580518 -0.005223074 -0.019603433 -0.08202334 -0.008524411 -0.098417066 0.015302529 0.06458845 -0.048099272 -0.066498384 -0.045367353 -0.06852169 -0.016119128 0.034304045 -0.0005984712 0.07550153 -0.03898583 -0.07603084 -0.07407281 0.09257033 0.042901892 -0.0061265174 -0.07018666 -0.08053775 -0.0051080245 0.034184184 -0.060062297 -0.010245033 0.032847032 -0.0510147 0.00026291877 -0.08973873 -0.0067020357 -0.030236648 0.0025106422 0.04244703 0.009235202 0.020977398 -0.04587269 -0.016432276 0.024066668 -0.044882644 -0.10977611 0.060620155 -0.002382297 -0.058089137 -0.033071034 -0.0109018 0.02394068 -0.044422813 0.034306504 -0.03681554 0.072526835 -0.010835286 -0.09430119 0.03937729 -0.02226491 -0.039345052 0.008362516 0.01930103 -0.00418886 0.05452745 -0.016903296 -0.096802875 -0.044548318 -0.054602496 -0.009768855 0.055967797 0.08163089 0.060780033 -0.08697723 -0.02169781 -0.0024237009 -0.08199518 -0.0053849663 -0.079394154 -0.009025155 -0.012324839 -0.072837465 0.0019501317 -0.09973995 0.08070799 0.005110617 0.03994269 -0.034815587 -0.05471893 -0.06774973 -0.073964655 0.02581148 -0.049830537 -0.07193263 -0.10343684 0.06925532 -0.08612496 -0.04374558 -0.041847285 -0.05303879 -0.028349025 -0.09194001 0.010444985 -0.07785094 -0.033894733 0.045032404 0.06279891 -0.060008176 -0.09494337 0.057207413 0.052365847 -0.031942338 0.01668004 -0.10854203 -0.024418473 -0.0858074 0.0010310602 -0.031650063 0.08558695 0.019667348 -0.043721084 -0.06261812 -0.044699606 -0.09812485 -0.051695235 -0.03939089 0.010636491 -0.09686619 0.05757602 0.040511586 -0.039642762 0.07392129 -0.047808643 -0.09036415 0.06504186 -0.0011276307 -0.054011866 0.027801935 -0.031657502 -0.11983407 0.012809642 -0.019296875 0.023897605 -0.06641683 -0.100302644 -0.0038200882 -0.024191195 -0.03847412 -0.0060323067 0.043946017 -0.021923892 0.10277854 -0.031183194 0.002898104 -0.11359192 -0.061126906 -0.08849794 0.011915582 0.009277966 0.004590364 -0.028687416 -0.055663116 -0.08912592 0.047286753 -0.092511915 -0.07037326 0.05174753 -0.018711202 0.0022045565 0.055624045 0.01397837 -0.06705138 0.011197938 0.033686 0.011147482 0.03226564 0.014693371 -0.06455162 -0.07814317 -0.0034734695 0.0069651594 -0.034589868 -0.03052494 -0.022696061 -0.034228172 -0.0044678655 0.027326465 -0.008860667 0.008085086 -0.043437228 0.02591145 0.017095875 
0.051981866 0.047616385 0.01820996 0.037340883 0.0091930935 0.02958288 -0.054428317 -0.051957905 0.07311632 0.008612818 0.083370775 0.07657522 0.061043635 -0.021305779 0.009169978 -0.036349535 -0.0034629025 0.06436544 0.05134336 0.057124954 -0.05219361 -0.07478027 0.059139617 -0.01393785 -0.04846998 0.01732172 0.007720943 0.12603655 0.08014844 0.06564364 -0.024559602 0.013514322 -0.06544731 0.07680431 -0.038765404 0.14828342 -0.05371094 0.020606356 -0.027152454 -0.07020268 0.035523675 -0.0060334615 0.047862917 0.09913933 -0.015881578 0.034563567 0.040048353 0.081238 0.114517644 0.05516813 -0.023164732 0.14082763 0.085725635 0.06028002 0.09131515 -0.014439613 0.11716821 -0.03711523 -0.01813676 0.041879464 0.085127205 0.04404191 -0.062308304 0.107720144 0.013286981 0.09459025 0.007522609 0.024468277 -0.05066473 -0.017740626 -0.06946105 0.006957398 -0.09582012 -0.046141595 -0.10306006 -0.014526212 0.065533414 0.032336704 0.07785356 -0.03527079 0.053965252 -0.08826813 0.020046555 0.17223772 -0.012109889 0.0008315439 0.08868723 -0.070164576 0.021265462 -0.09903313 0.04579189 -0.015243319 -0.055981137 0.06466602 -0.0955307 0.101225816 -0.037004624 -0.026684348 0.07743624 0.007845198 0.0019797066 -0.07526465 0.017922781 0.07981169 0.11432339 -0.022697415 0.030025227 0.0055355956 0.03545544 0.07146152 -0.053312603 0.013023119 -0.039714117 0.07536936 0.012356968 -0.026726624 -0.091055416 -0.008485654 0.014892375 -0.015313398 -0.11048652 0.067476615 -0.006903637 0.1329261 0.022533016 0.0027921814 0.115521565 -0.054329902 0.07536962 -0.08851115 0.011350947 -0.08161858 0.040257305 -0.06796552 -0.0018018738 0.083467215 -0.0075352895 -0.008598256 0.1120772 0.09891079 0.032437596 -0.04280676 -0.020828348 -0.03254806 -0.04375169 0.13970406 0.09734893 -0.100257955 0.007045615 -0.06394349 -0.047533415 0.07352859 0.037151046 0.12627447 -0.09060212 0.07054905 0.040152695 -0.019765258 0.054439567 -0.047958933 0.07825301 0.1247817 0.04141283 0.14906697 -0.05010942 -0.05628552 0.08120807 0.088779844 0.023852786 -0.02902994 0.087452315 -0.012731809 0.07153047 -0.029973343 -0.014798434 -0.04607001 -0.0015123282 0.00666405 0.02883227 0.1223702 0.00044935604 -0.041447934 0.050889738 0.019619813 -0.04700812 -0.010578568 -0.023838067 -0.0074521312 -0.024501132 0.12651776 0.029759943 0.02795745 -0.06696649 -0.06932945 0.0062413323 0.06545063 0.08579627 -0.06445707 0.02278197 0.061662305 -0.013585321 0.03581764 -0.0067799366 -0.0366477 -0.05405846 -0.065778546 -0.11231636 -0.07514088 -0.035327304 0.11457436 0.02492274 -0.019357147 0.034674693 0.08713302 -0.037983596 -0.041929998 -0.10559667 -0.037439335 -0.0049977433 -0.02652029 0.09903665 0.043285403 -0.015071368 -0.04057435 0.006672081 -0.10282749 0.04046004 -0.031654347 -0.028953068 -0.048008557 0.055181466 0.1432144 0.08619646 -0.01386077 0.0724262 0.024709573 0.010418874 0.011095895 -0.05038493 -0.009679208 0.02327063 0.10355499 0.06748379 -0.017239979 0.039752483 -0.115203254 0.049822465 0.06479431 -0.028930796 0.10641572 -0.008833191 -0.013072967 0.0052276794 -0.08758027 0.0030851448 -0.050365444 -0.012044757 0.068865955 -0.012643432 -0.011040578 -0.0018592759 0.031316303 -0.041865643 0.02753817 0.0013372744 -0.04546697 -0.012134393 -0.05395906 0.016790772 0.047733385 0.06979494 -0.028450513 -0.051629134 0.015932111 0.06254988 0.011505708 -0.057451155 0.015441272 0.0090237735 0.072768226 -0.082176566 0.009269636 -0.06998447 0.0603286 0.02086149 0.0114653185 0.029194538 -0.030168442 
0.08274719 -0.07606383 0.049230307 -0.0087306965 0.0521408 -0.04227097 0.16985087 0.03849201 -0.008541243 0.0038806295 -0.027576666 0.08308401 0.09969642 -0.045037244 0.046550967 -0.11080339 -0.004642818 -0.005850765 0.103842236 -0.017518582 0.024587901 0.0085175065 -0.0078171715 -0.013484543 0.02223924 0.025323218 0.03008271 0.061300505 0.050962217 0.07011599 -0.010583454 0.047813993 0.07892276 0.0319227 -0.040565632 -0.010476517 -0.052981608 0.01871974 0.03851178 -0.034312464 0.03454245 -0.026580611 0.07878472 0.11804207 0.058284678 0.052689817 -0.014795812 0.0031893156 0.011546014 0.04242577 -0.0117421355 0.028835723 -0.08413922 0.015548171 0.045171987 -0.08984943 -0.07599301 0.07828499 -0.017222218 0.099079184 0.022185668 0.03808197 0.09719688 0.16226085 0.047560047 0.07944954 -0.04681445 -0.03496273 0.006153979 0.026639799 0.051104985 -0.029567342 -0.05285386 -0.08179648 0.06787247 0.15310311 0.008887887 0.098864645 -9.5481984e-05 -0.09626777 0.029543687 0.035164367 0.053483948 0.008139985 -0.042430837 0.11997332 0.024518136 -0.07893011 -0.070947595 0.07565342 0.018034147 0.06518335 0.11073061 -0.06619273 0.080885105 0.13156074 -0.0135221 -0.044812705 -0.075103685 -0.02044813 0.06485306 -0.07430741 0.14684342 0.002184899 -0.051840737 0.019185541 -0.013709336 0.1543378 -0.021438073 0.016708435 0.028645497 -0.10706301 -0.056928053 -0.01974996 -0.043852214 0.03801003 -0.088396475 -0.032690346 -0.010117916 -0.00061499944 -0.11494777 0.045136783 -0.012746738 -0.036018826 -0.057856742 -0.09246371 -0.0014899494 0.009686776 -0.10224855 0.058553863 -0.016290804 -0.020832296 -0.045727935 -0.106996164 0.10172344 0.042494036 0.005027121 -0.041867286 0.056329507 0.12694946 -0.047749653 0.006578044 0.04242327 -0.0671475 -0.08730978 -0.028154245 -0.08715383 0.054884743 0.029665796 -0.08653434 0.07707407 -0.060104273 -0.06931986 0.0125632305 0.044778887 -0.09685801 -0.036360282 0.057336446 -0.076234244 0.0760498 -0.09809221 -0.015574519 -0.025845207 0.0123921 -0.027359048 0.04749181 0.1318324 -0.026591077 0.06391871 0.0010250269 -0.01414366 0.008515986 -0.06338135 0.032000925 0.018309312 0.05293257 -0.0005357244 0.026396768 0.029924296 -0.04587856 -0.047766007 0.060460135 -0.11402096 -0.04101128 -0.0060207797 -0.023865845 -0.08789424 -0.103018366 -0.006931262 0.10697701 -0.075594544 0.030899458 -0.09055347 0.026013313 -0.05209563 -0.03991868 -0.052279234 -0.12169924 0.15686014 0.081708826 0.077573046 -0.014000359 -0.048302848 0.015259394 -0.0051745726 0.013195046 0.0047357534 0.02683376 0.20255658 -0.052241515 -0.08340763 0.016008459 0.039141923 0.012159965 -0.04810968 0.07404594 -0.081849426 0.02179452 -0.027696492 -0.024890197 -0.05230052 0.00045434863 -0.04854598 -0.06989911 -0.011164158 -0.07007906 0.054434624 0.037781246 -0.033325695 -0.007344434 0.04519476 0.0108212605 0.073584415 0.010481202 -0.06582027 -0.008243171 0.085707344 -0.0060832035 -0.1273067 -0.08574116 0.17828298 0.004040599 0.0101133315 -0.07080933 0.03156009 0.018623553 -0.029050833 -0.038478643 0.01765862 -0.0897232 -0.08356988 -0.103589565 -0.1016605 0.009606187 -0.038203374 -0.080935694 -0.03938454 0.04518093 0.010329425 -0.0027501166 0.07474782 0.026922205 0.12025814 -0.03355951 0.0048587695 0.04688497 -0.05599382 -0.067499585 -0.017919147 0.05056207 -0.011636952 0.002486451 0.11882446 0.009927126 0.013291233 -0.0011089192 0.08232262 0.09121187 -0.051356707 -0.02261512 -0.07289465 0.017967442 -0.0143166995 -0.06281439 -0.0070805633 0.09268896 -0.045029856 0.03275719 
0.029777931 0.028430482 0.0067450283 -0.012835285 -0.009244717 0.04555332 0.107173264 -0.019128783 0.029268993 0.068598226 -0.042383086 0.07202435 0.10317371 0.05134257 0.04908985 0.0057498575 0.118465774 -0.04275404 0.0631595 0.11041899 0.113704205 0.0596166 0.017946305 -0.07055811 0.11876604 -0.044766344 0.12312337 0.009552565 0.09473371 -0.023971109 0.062391065 -0.0734134 0.088310674 -0.008051122 0.07673302 -0.06641792 0.040841017 0.047146685 -0.0049884017 -0.05302036 0.05094959 0.051368766 0.02940334 -0.04272784 0.008391774 -0.10330583 0.035601474 0.037625164 -0.019287344 -0.06249154 0.06957333 0.005086856 -0.049798097 0.02389399 0.051305104 0.06831405 -0.0069458117 0.08543527 -0.03433475 -0.017156068 0.00027105503 0.086881325 -0.05199533 -0.02547482 0.060379952 -0.047974344 -0.072449386 -0.021985631 -0.044356205 -0.00808273 0.06933983 0.08191151 -0.029494891 -0.03247709 0.009561794 0.01111777 -0.03168925 -0.10659955 -0.060929958 -0.08211026 -0.021582678 -0.0054105525 -0.072250284 0.014830349 0.059529044 0.051309988 -0.043140337 -0.010032265 -0.022362275 0.011968602 -0.097270414 -0.00013437026 -0.007141677 0.024012646 -0.049992222 0.02315191 0.07484056 -0.0009885663 -0.09128819 -0.016309742 0.08036343 0.11196539 -0.0361188 0.005188405 0.0018248627 -0.0076382225 -0.07654203 -0.07142057 0.116454974 0.09237664 0.005548081 0.09388487 0.13564004 0.041324154 -0.04620684 -0.0001256142 -0.009351921 0.056219917 0.021082312 -0.038320933 0.1440347 -0.07727708 0.050269034 -0.009577625 0.046390794 0.14477278 -0.019868778 0.07980284 0.13295516 -0.056938976 -0.028500902 0.06581215 0.07928932 0.0034624946 -0.025306214 0.04285343 0.04963072 0.08659161 0.0025593678 0.04905965 0.10504042 0.0758062 0.0648276 0.07490972 0.14918211 -0.022034517 0.07623713 -0.04041538 0.028279522 0.059036795 0.11405053 0.0019533706 0.06134276 0.015021268 0.041849162 0.04652796 0.07559755 -0.009276553 -0.0034008753 0.04450583 0.03966496 -0.006348437 0.09377937 -0.00083490036 -0.007328426 0.04966794 0.06721242 -0.011776425 0.097661495 0.10141107 -0.02302397 0.14094174 0.05966364 0.05324026 0.009450333 0.02341394 0.130124 0.102564946 -0.00449284 -0.055157032 0.09134058 0.062319633 0.14194559 0.0736005 0.010594096 -0.005685851 0.06036742 0.07525979 -0.031948853 0.025385946 0.0868707 0.055425085 0.05678491 0.10698546 0.013154185 0.008385416 -0.0074525066 0.09610078 0.015265929 -0.07644137 -0.07006735 -0.009715796 0.023624461 0.15906712 0.10878656 -0.035278164 0.1169605 0.13285518 0.053062778 0.06446896 -0.042509492 0.06942834 0.10923648 0.12502582 0.10460311 0.08872009 0.12581378 0.02809434 0.008557794 -0.016674552 -0.034846734 0.111644074 0.07548811 0.025673093 0.0883165 0.0897564 -0.06891317 0.0090589095 -0.011699344 0.095957495 -0.026415465 -0.06265971 0.03746049 -0.012051121 -0.01077511 0.17962393 0.033367552 -0.038967192 -0.008029401 -0.041186586 0.0077056186 0.05204087 -0.045213487 -0.03869952 -0.028071143 0.022816269 0.042614143 -0.010980163 0.038517788 0.0088093 -0.05212698 0.06727833 0.05563909 0.03861053 -0.056889758 0.12600271 -0.029932309 0.08999766 -0.05677208 -0.04745668 -0.075393654 0.028120825 0.0017363431 -0.02115919 -0.08813448 0.055078022 0.0448665 0.040986273 0.05423732 0.0074737268 0.026485642 -0.09687121 -0.041633397 -0.08900272 0.0364229 0.057295915 0.021999963 0.14072247 0.12974279 -3.1019925e-05 -0.037160184 0.061114956 -0.09385067 0.059888948 -0.042087223 -0.016667701 -0.046101946 0.04830553 
0.07896836 0.08007031 -0.039254073 -0.056540858 -0.030473968 0.059546705 0.05843985 0.011087295 0.039275028 0.06997364 0.07259487 0.030316899 0.11369515 0.042454563 -0.018816706 -0.00534812 0.11596685 -0.0009995248 -0.019164197 -0.030150319 -0.071622066 -0.088193014 -0.017464176 -0.008380603 -0.031837933 -0.07743592 0.07126338 -0.0036768569 0.06372506 0.107139885 0.0308743 -0.00795516 -0.022429742 -0.046781927 0.008048102 0.06251597 0.09248689 -0.059429508 -0.01910457 0.021652773 -0.05518761 -0.06746088 -0.03215465 0.012988329 0.009660451 0.009189057 0.06956899 -0.07739562 0.06697981 -0.029952746 -0.01576745 0.055230282 -0.04429331 -0.013552112 -0.0026605972 -0.0054395064 0.089658156 0.072749466 0.040646616 0.04334665 0.06432193 0.067928836 -0.023256911 0.065931104 0.08124523 0.08215225 0.0471924 -0.076399215 -0.00896991 -0.06726882 0.110794604 0.07098385 -0.04551461 -0.024253916 0.034475893 0.0006619309 -0.040362474 -0.04521412 -0.051362846 0.010929912 -0.0086046485 0.026029564 -0.063199185 -0.024274992 -0.09914908 -0.07050785 -0.07556129 -0.10170694 -0.021861715 -0.031432744 -0.054072976 0.02055284 0.01583629 0.03404044 0.068979435 0.06468045 0.005673201 -0.05300889 -0.010122054 0.07060063 -0.011440452 0.06467845 -0.029068582 0.055298388 -0.039234087 -0.049925927 0.03244 -0.049213834 -0.009752403 0.06939447 0.07763145 0.05467725 0.11433127 -0.067784145 -0.048813883 -0.04476693 0.046297617 0.09680775 0.12451099 -0.05189756 0.025252089 0.052532412 -0.047972854 -0.039895874 -0.06803188 -0.031993084 -0.08201573 -0.01927963 -0.041603465 -0.061042454 -0.04451143 -0.008928927 0.052233674 0.07119514 0.042832263 0.08791419 -0.08690656 -0.06777956 -0.037698142 0.08653277 0.09599629 0.048042864 0.01196715 0.12703297 0.065937005 0.07018216 0.033344224 0.062415052 0.11301229 0.04725363 -0.00500812 -0.050153103 0.02378877 0.0063129985 -0.056078147 -0.057737853 -0.014146168 0.059785537 -0.04433781 -0.064865544 0.01888487 -0.056401365 0.034274746 0.034409292 -0.043193065 0.012348524 -0.009431147 0.029356163 0.023456339 -0.040597107 -0.053806156 -0.043012578 -0.01027517 0.03498647 0.038896542 0.05930579 0.020178791 0.0060807033 0.010873425 0.013617874 0.0021452717 0.037846882 0.079717875 -0.09004616 0.084146574 -0.05213491 0.018662311 -0.051669892 0.0072087827 0.047125712 -0.020989286 0.08912609 0.061244484 -0.03858347 -0.096873745 0.046794113 0.08141384 0.08705263 0.044442337 -0.08559618 0.017773207 0.065380245 -0.018761374 0.023621302 0.023754481 0.03766587 0.077793635 0.11681092 0.08579625 -0.050276116 -0.05846026 0.06688649 0.04795325 -0.014282286 0.11647517 0.07515424 -0.009045104 -0.040670015 -0.038787484 0.003611608 -0.088830166 0.022387432 -0.118014455 0.034638897 0.05047863 -0.03647431 -0.098177485 0.021494223 -0.008282188 0.05098396 0.068691865 0.046781573 -0.100244954 0.029086227 -0.09982417 -0.016832203 0.119590856 -0.03749188 0.04027997 0.10778292 0.0972831 0.034802124 -0.058674842 0.06247225 0.13250016 -0.018826853 0.13216989 -0.05699838 0.05400481 0.036748663 0.0488151 0.07276308 -0.12758878 0.01900393 -0.05764589 0.007515764 0.09557909 0.07827681 0.0055002547 0.068161815 0.033639215 0.08620851 0.030514862 0.065900154 0.02814498 0.048219137 -0.05586247 -0.07277997 0.052909415 0.05680617 -0.03504989 -0.061711505 0.01865491 0.03555948 -0.06293512 0.013035753 -0.030571323 -0.029284663 0.06593713 0.06056913 0.05848218 0.011512514 0.05354744 0.06024612 -0.07815314 0.042954445 0.006712596 0.01019636 
-0.007889448 0.010900553 -0.042186804 0.058120973 -0.04055374 0.011430205 -0.06354072 0.07251851 0.050744172 0.007947007 -0.057533104 -0.06808799 -0.07088546 -0.04474219 -0.043043308 -0.06375029 0.04949529 -0.023368226 0.08389054 -0.058555145 0.012818834 -0.07597473 0.00876756 -0.017952431 0.018672355 -0.0592783 -0.018896833 0.028598178 -0.060990583 -0.109592564 -0.018940482 0.024845464 -0.009880256 -0.050710328 -0.040168628 -0.032845195 -0.0010403008 -0.06738737 -0.048870932 0.06532098 -0.06656743 0.043395612 0.016993696 0.021216001 -0.053137045 -0.028607495 -0.058156174 0.05932361 0.09627979 -0.06764252 0.04754043 -0.14058812 0.08475609 -0.05770771 -0.0097690085 0.043530747 0.04847471 0.019652335 -0.05623169 0.026142737 -0.059931405 -0.06916144 0.043018065 -0.08408188 0.010128588 -0.067855656 0.06804266 0.04462367 0.016678719 -0.0929628 0.05441591 -0.04627863 -0.077412605 0.061369184 0.04386023 -0.08981462 0.017774303 0.05548927 0.0085647255 0.029696368 -0.058267806 0.047349427 -0.06752416 -0.07168981 0.06840672 0.0017230209 0.08299277 0.045121983 0.064924076 0.012431003 0.034093007 0.062384255 0.06345064 -0.10489317 -0.029725261 0.031488355 -0.044521213 0.04993019 0.025930548 0.0100124525 0.07627994 -0.05464409 0.03798316 -0.06760459 -0.022689145 -0.0737832 0.054556284 0.08458395 -0.0142194 -0.02366585 -0.069495395 0.08141608 0.005624071 0.023604231 0.034450956 -0.07407126 -0.038152397 0.07213575 0.08955335 0.03920555 0.003510428 0.038553428 -0.048827905 0.002618925 0.028177517 -0.06212888 -0.06628004 -0.032469153 -0.056914803 -0.042624217 -0.030689236 -0.009003064 0.037481047 0.030835927 0.050768882 -0.015444946 0.0038067612 -0.07942931 -0.06039512 0.023395395 -0.057150368 0.07057015 0.019980775 0.04214295 0.039629273 -0.080848955 0.023462988 -0.09735293 0.07527231 0.070634454 0.048950966 0.05697048 -0.055710625 -0.039904896 -0.10392508 -0.06484604 0.07058548 -0.11873581 -0.08618724 0.018101612 0.06094648 -0.023661682 -0.04417684 -0.06953902 0.076111145 0.05025195 -0.10704854 -0.028162427 -0.0359801 0.050503507 0.038886957 0.06701783 0.05150567 -0.07275044 0.06398016 0.055851538 0.0045007784 -0.0127146095 -0.059213243 -0.061687507 -0.004189193 -0.06968454 -0.008861254 0.04049033 -0.06514838 -0.0695377 0.019394018 0.007282151 0.032323636 -0.08934294 -0.081535675 -0.031238265 -0.028557293 -0.06942694 0.0023605288 0.023267144 -0.056793958 -0.05124388 -0.07005339 -0.019137923 0.007903801 0.031049108 -0.057456974 -0.048877254 -0.06803215 0.042365346 -0.06242032 0.08130952 0.04820215 -0.011808831 0.013067399 -0.07866786 -0.023210479 -0.018291088 -0.040863354 -0.04074207 0.07831369 0.012151416 0.0777404 0.045117304 -0.07026754 -0.011251673 -0.01828898 0.034783017 0.027639331 0.054867808 -0.041755795 -0.07782709 -0.06914241 -0.018959377 0.008087011 -0.025175532 0.05901258 -0.08825816 -0.042829506 -0.08883254 0.021888664 -0.08213038 0.00769034 0.01857904 -0.023645157 -0.0060273134 -0.025613107 -0.0004371195 0.003984992 -0.027432121 0.058663093 0.09142288 0.049783703 -0.06618113 0.012636935 0.082426175 -0.026687102 -0.090250924 0.06292042 0.0017982647 -0.0647888 -0.03285122 0.01626818 0.046992287 0.0622098 0.025598507 -0.103384286 -0.063117504 -0.019779483 -0.010295464 -0.034311235 0.005113093 -0.066997 0.05856738 -0.06137934 0.062811814 -0.018721512 -0.08032442 0.07798968 -0.009710917 0.02588424 0.03718061 -0.041980088 -0.028330034 0.047607526 -0.07891808 0.00031106395 0.082411245 0.060955685 0.014564532 -0.06866117 0.030372946 
0.0982519 0.01657349 0.050008748 0.036341745 0.025168587 -0.070918545 0.075010516 -0.065503165 0.0807457 -0.040086247 0.06161058 0.028993057 0.054919817 0.0578403 0.041942596 0.018154865 0.05671654 0.080843255 0.01054338 0.09110165 0.11282691 -0.02360287 0.09131794 -0.06744227 -0.014253262 0.066768266 -0.03525308 0.059162643 -0.074607536 -0.04349408 0.06182108 0.0013258929 0.092270374 0.023362912 0.057159234 -0.078473836 -0.019768905 0.05128496 0.011846861 0.008901892 0.07845531 0.048518144 -0.025910832 0.056125637 0.007910776 -0.02637941 -0.022782534 -0.053519722 0.099426426 -0.028334867 0.04634961 0.053698875 -0.0074183107 0.0991548 0.051703528 -0.09201295 -0.05022661 0.023817966 0.011474656 0.048212264 0.04626625 0.07126784 0.072931625 -0.073639445 -0.042793646 0.0072994307 0.07827439 0.0730509 0.014202689 -0.014297749 -0.009772246 -0.03653629 -0.05279584 0.016110186 0.024040602 0.053424753 0.04894895 -0.02965018 -0.07595909 -0.05852005 0.037440952 0.05799822 -0.0063619604 0.0022776278 -0.08546894 -0.037774164 -0.014690804 -0.0525548 0.055883273 -0.040097453 -0.07306545 0.02448515 0.07912912 0.07910709 0.077357285 -0.031353194 0.048678096 -0.06681285 -0.08848467 0.060526844 -0.0770163 -0.014868922 0.0068073096 -0.09734771 -0.029694319 0.028913477 0.020849789 -0.015939482 0.036102094 0.04463798 0.008217012 0.0122329 -0.037100922 -0.0629243 -0.093862474 0.017714204 -0.029256549 0.022993647 -0.048162974 -0.04807035 -0.05857515 -0.007088665 0.013112771 -0.008207605 0.06788448 -0.05721085 0.07841805 -0.06511017 -0.0009081161 -0.031341568 -0.088325836 -0.042190894 0.018828388 0.016576314 -0.060147744 0.06366394 0.072839275 0.0027237479 -0.060625106 0.041189034 0.06792458 -0.06720552 0.028040443 -0.011290171 -0.018873248 0.04054828 0.06564456 0.09205469 0.0395228 0.031793408 -0.017039213 0.04054223 0.013155038 0.056264948 0.027005896 0.050901327 0.028266829 -0.06908007 0.006048134 -0.0073670866 0.07395395 0.036359053 -0.055435598 -0.02430197 0.055364627 0.027881036 -0.022757338 0.059185464 -0.045674555 0.049093723 -0.026196243 0.12736297 -0.047354233 -0.069977224 -0.03395976 0.018583333 0.03552108 -0.021650525 0.021612987 -0.038087387 0.022676304 0.083402425 -0.032019675 -0.00930602 -0.048357666 -0.016633218 0.018887904 0.004107241 -0.026235549 0.031854738 0.015909491 0.032438915 -0.049454894 -0.074854076 -0.044989903 0.086330585 0.05367564 -0.13414057 0.0708564 -0.03613551 -0.07227957 -0.06008818 -0.036958493 -0.0225571 -0.058328807 -0.070577964 -0.064397156 -0.07092014 -0.02554188 -0.01753561 -0.10986506 0.027759956 -0.06972398 0.07453618 -0.06795148 -0.059889488 -0.09979437 -0.030205444 -0.06425554 0.0105902385 -0.025812406 -0.0486726 0.03480548 0.060536403 -0.06306072 0.012059974 -0.035251908 -0.0397718 0.03488124 -0.10154868 0.07604884 -0.05892984 0.03105736 0.043470204 0.01884598 -0.021592904 -0.006730493 0.027664067 -0.056188025 0.031171672 0.0495959 0.013185191 -0.03305038 -0.06881868 -0.034547787 -0.029319266 0.028996184 -0.061948024 -0.00795009 -0.06575227 -0.059403144 -0.012211332 -0.07949172 0.051608678 0.05634934 -0.028293336 0.046427377 0.030365434 -0.035067983 -0.040382385 -0.030143915 -0.028741041 -0.014503992 0.04470876 -0.037098277 -0.073257916 -0.024681086 0.035561603 0.072198644 0.012202507 0.016780742 0.060457807 -0.05274187 -0.04838434 -0.003758387 0.08167169 -0.047095124 -0.05165714 0.039111506 -0.09060141 0.022883536 0.030759051 -0.104990736 -0.030227471 -0.0048409514 0.033166513 0.069414064 0.041158076 
0.082308225 0.04341824 0.0013540387 0.0471752 0.141263 0.0946962 0.014012075 -0.011622803 0.058962584 -0.059491675 0.032900613 0.032773726 0.03950594 0.075524785 0.012021958 0.06709437 0.071621254 0.0005079082 -0.044927035 -0.023877777 0.047852006 -0.011041715 0.051059585 -0.006749957 0.035895035 -0.0129815815 -0.03089888 0.055349253 -0.03643171 0.06703597 0.102990545 0.091066696 0.07984498 0.038974475 0.093403466 0.0076790806 -0.0021418375 0.032624185 -0.033991996 0.03446894 -0.0713219 -0.023037197 0.023155432 0.040271528 0.14037777 -0.02196674 -0.07441704 0.0136582535 -0.03314783 0.11788843 0.073784634 0.057156794 0.020530235 0.0029187726 -0.0179878 -0.045659985 0.040402878 -0.017457038 -0.0735842 0.11019081 -0.07539211 0.036030237 0.04306032 -0.013465048 0.08374025 0.0831714 0.02392372 -0.022157488 0.12635198 -0.043753188 0.070389844 0.021433955 0.012141904 -0.08455404 0.004573885 0.009443848 0.10587106 -0.008534879 0.017033694 -0.024260484 -0.027702723 0.095439695 -0.011044426 0.073599115 -0.057022557 0.051619556 -0.027236424 0.0015905609 0.06778686 0.059253972 -0.037143156 0.042118702 0.045451257 0.03043229 0.052954257 -0.067421705 0.12728195 0.0010254038 0.0037753978 -0.01446503 0.06559931 0.114549495 0.043711614 0.030648137 -0.03954728 0.0074814735 0.042258654 -0.07264591 0.02241313 0.07125981 -0.051266078 -0.00014037895 0.0864515 0.13372976 0.08466 0.024009693 0.01126129 -0.06288776 0.013221193 -0.1524029 0.03315002 -0.04983202 -0.046328794 0.052504458 0.034432318 0.14260522 0.03526903 -0.023376811 0.031652022 0.06823438 0.048700865 0.022512315 0.128078 0.06725057 0.06191017 -0.016469616 0.0068923025 -0.09733334 -0.02549506 0.043454025 0.002454847 0.059052594 0.005311615 0.035749312 -7.1458708e-06 0.10184538 0.008541794 0.0894906 0.042163163 0.024131604 0.044270176 -0.0753827 0.029692885 0.08004473 0.07177644 0.08083657 0.025423069 0.08045211 -0.048519716 0.1027634 -0.03524509 0.07708718 0.012815515 0.04634961 0.13220449 0.04340367 0.056726024 -0.03981171 0.027707277 -0.081395656 -0.039417006 -0.067903064 0.09411816 0.0528657 -0.03389997 -0.044866297 0.014773833 0.053973984 -0.055458333 -0.01653052 0.003367476 -0.061674662 0.049093686 0.00038531196 0.0054149786 0.07753221 0.029435264 0.115561105 -0.02689069 0.1126131 0.07345779 -0.055331063 0.13394737 -0.018373376 0.048028372 -0.06538663 0.12995309 0.07694986 -0.100947656 0.075237624 -0.05546956 0.046079 0.0633991 -0.022375533 0.069285505 0.005638306 -0.09697756 0.0041814772 -0.037616577 0.068511896 -0.035442486 0.08539534 -0.077433474 -0.06816319 -0.062371105 -0.10163363 -0.0023996457 0.0021073925 0.018011259 0.06864432 0.0360797 0.05872521 -0.008988064 -0.0076263654 -0.0035358928 0.002061467 0.11702784 0.036812644 0.12696661 0.03292974 0.023010816 -0.07937476 0.04656261 -0.02928891 0.020249894 -0.004362915 0.111170456 -0.04521873 0.052307963 0.06859064 -0.0065435898 0.01421093 -0.00403273 -0.034234203 -0.03686758 0.027502723 0.027024493 -0.13357326 0.030911187 0.056329597 -0.023744982 -0.044962924 0.06091548 0.06649972 -0.00032607975 0.08334577 -0.033623703 0.06583087 -0.027791735 -0.046079483 0.046697997 -0.005469953 -0.035713613 -0.049694456 0.06542469 0.06566997 -0.062275037 0.026583532 0.12913014 -0.012541009 0.029690096 0.08956616 0.045274004 0.07209579 0.02240366 0.08695062 -0.00045515998 -0.036036875 -0.092876546 -0.04025193 0.09540054 0.027359437 -0.006246139 0.025533028 0.037034933 0.066299796 0.11109409 -0.079145595 
0.07916925 0.015782699 -0.0028569445 0.0033791931 -0.010181036 0.027459146 0.0014136008 -0.031920433 0.06387095 0.012922748 -0.08176173 0.012765658 -0.05226765 -0.010090573 -0.063234515 0.049476597 0.12650141 -0.0126537755 0.07955261 0.045515127 0.08164028 0.05011789 -0.011019063 0.070207305 0.055690624 -0.038450904 -0.07440104 -0.0072349184 -0.053261943 -0.0583141 0.00088405464 -0.078113385 0.035954405 -0.03897991 0.003997197 -0.056341916 0.023640221 -0.08169594 -0.012783006 0.10455746 -0.051045343 -0.025539517 -0.021386273 -0.0059529953 -0.016327698 0.06911323 -0.074324355 0.114210024 0.15545134 0.008338656 0.076716445 0.050199647 -0.012721057 0.06647236 0.057934422 -0.03005722 0.034162756 0.080766276 0.0019796733 -0.0432204 -0.07610335 -0.087592185 -0.043583233 -0.078852825 -0.04703242 -0.06951094 -0.04680433 0.041189916 -0.05692047 -0.07233746 -0.055389326 0.026876116 -0.06665857 0.04945291 -0.05895453 0.0795807 -0.028795874 0.0009317099 -0.07481116 0.07735641 0.0643762 0.06675626 0.058625318 0.020347051 0.007363936 -0.012528523 0.0793504 0.054272376 0.04318335 -0.06820728 0.068401374 -0.060030345 -0.04457645 -0.06843131 -0.008225984 -0.021303538 -0.0021591806 -0.06316766 0.008005375 -0.013598574 0.068692006 -0.07334619 0.0006466625 0.09405025 -9.231499e-05 0.06603499 -0.019411692 0.06266106 0.057606094 -0.070173986 -0.07255903 0.08239916 0.11586186 -0.09505177 -0.0035282797 0.019668063 0.034192197 0.096864834 0.061055865 0.056413613 0.084285654 -0.028917456 -0.06577888 0.060404114 -0.04559516 -0.054290406 -0.12960911 -0.035387587 0.07383077 0.040908378 -0.05538256 -0.048620414 0.06792615 0.04128047 -0.112353206 -0.03200056 0.0634007 0.032951497 0.044798844 -0.08123671 0.0715981 -0.05559929 -0.032435365 0.05246296 0.12942988 0.03168263 -0.06986198 -0.05372144 0.1544171 0.007098575 0.0836813 0.12777671 0.026416132 -0.06196487 -0.024936032 0.07637339 -0.06920575 -0.06601645 0.008110696 -0.103723794 0.08642721 -0.031547327 0.00080475316 -0.04369331 0.046404846 -0.07861651 -0.08793495 0.0049665403 0.046850227 -0.058825996 -0.0736877 0.023410069 0.091394514 0.04852107 0.010849884 0.10352778 0.10680975 -0.0865493 0.043882597 -0.093708776 0.093733296 0.044411074 0.12495081 0.121326715 0.006852669 -0.03613875 -0.06374634 0.045563657 -0.06532418 -0.03215984 -0.06075705 0.052746266 -0.039242286 -0.03379512 -0.109439425 0.030537188 -0.041860122 0.058302954 0.037621707 0.05355734 -0.07531604 -0.055031326 -0.084186114 -0.034076106 0.021587439 0.056067947 -0.077381685 0.04216125 0.025272919 0.0029673562 -0.040521543 0.0522966 0.16104446 0.024096597 0.108930014 0.11357069 -0.02650771 0.015558714 -0.06205761 0.080260366 -0.060166374 -0.015119467 -0.14168233 0.07112772 0.013493543 -0.07554555 -0.110178165 0.07680726 0.05887065 -0.059069976 -0.045024913 -0.027318798 -0.03831973 -0.08330727 -0.065808296 -0.032062165 0.019116266 -0.0041680103 0.061943825 0.15363704 0.1458452 -0.01734018 0.025955515 -0.10716538 0.16606328 0.108283244 0.20416656 0.065337546 0.017742531 -0.059309207 -0.10057833 0.09268917 -0.051510915 0.009495143 -0.14747868 0.07938851 0.08698087 -0.08472437 0.019680003 -0.0013485777 0.009894553 -0.0241954 0.046249554 -0.047563165 -0.04019839 0.05838799 -0.021620734 0.021206684 0.056927666 -0.086528614 0.061774544 0.10354268 0.15046996 -0.03681729 -0.08250755 -0.05529423 0.06622483 -0.027359616 0.16117361 0.13520588 0.023971763 -0.088141255 0.04382433 0.048060477 -0.013587523 -0.010621652 -0.00956972 0.07022208 
-0.10160939 -0.07551235 0.0026022627 -0.051932056 0.06054017 0.021173181 -0.039923165 -0.079536654 -0.060932297 0.051900018 -0.07568837 0.0055162366 0.017989114 -0.07969582 0.042446915 -0.012385732 -0.09930813 0.011488756 0.0563435 0.061827887 -0.063938305 -0.047653396 -0.008644277 -0.0071918974 -0.028598327 0.010992739 0.03736827 0.0024067461 0.068764344 -0.021900855 -0.041812204 0.015110254 -0.043152172 -0.09311992 0.08768433 -0.005782213 0.051519886 -0.015353764 0.021793341 -0.061113797 0.039785232 0.0076499954 -0.07091561 -0.007816979 0.01967581 0.016396495 -0.10806829 -0.08622768 -0.1069891 0.029022615 -0.06541372 -0.012644122 -0.07067448 -0.06660753 -0.07036393 -0.02591294 -0.096040115 -0.043473028 -0.079472244 -0.017943474 0.0083169285 0.042754292 -0.0003832223 0.051616542 -0.08916909 0.0025396468 0.07158222 -0.057177752 0.033245977 -0.025501788 -0.031656872 -0.029217264 -0.08287131 0.04747023 0.024008144 0.020705435 -0.051949568 -0.019761438 -0.0893772 -0.07516665 -0.120811135 -0.051575705 0.08098326 0.03521768 -0.052341912 0.026820613 -0.12050621 0.025182083 -0.12042267 0.032912068 0.047267385 0.0068116463 0.027616905 -0.02171881 0.0074979626 0.05824635 -0.052340157 0.00020295614 -0.09025157 -0.014270168 -0.06954 0.035247482 -0.005059545 0.0392265 0.0019596068 0.012241419 -0.046021868 -0.0407025 -0.044223506 -0.03538288 0.026218697 -0.01927758 0.07368942 -0.014855864 -0.062411625 0.0047668824 -0.124082215 -0.094068415 0.057690646 -0.039661426 0.016091403 0.024859145 0.049863506 -0.076618865 -0.064858034 -0.05243972 0.089073196 -0.0053117024 -0.023402203 0.051722877 0.020822577 -0.031593177 0.027440991 -0.08421503 -0.028342573 -0.103087194 0.009295816 0.0020565118 0.0154576795 0.010573414 0.009327542 0.0103619285 0.010633068 -0.034742914 -0.00074257824 -0.0005724209 0.029272942 0.021218557 -0.09399722 0.061084006 -0.018437902 -0.07335242 -0.009460879 -0.045294125 -0.003935891 -0.08388591 -0.07225999 -0.037418485 -0.037814707 0.05387229 -0.026479488 -0.07293146 0.012038233 -0.009791111 0.02773954 -0.07952391 0.08444465 -0.029375114 -0.05880986 0.049317043 -0.076794885 -0.095794536 -0.05447917 -0.012634679 0.025337927 0.02856737 -0.0062783994 -0.07541481 -0.029346444 0.053635295 0.014902065 0.016922738 -0.0058179707 -0.05298847 -0.012716407 -0.03844585 -0.091008574 -0.0031626485 -0.09342511 -0.005312831 -0.062471062 0.060518634 -0.04250316 0.006144284 0.035228442 0.0040897084 0.067148365 -0.046069 0.049494434 -0.048850026 -0.06775974 -0.048397224 0.05820761 0.0788332 0.07200397 0.029245066 -0.03330165 -0.07484022 0.045914065 0.048144385 0.015862236 0.065896586 -0.12657525 0.046845943 -0.078874975 0.009891929 0.008891318 -0.017302994 0.03051221 -0.02188439 0.055278286 0.09975909 0.07974898 0.0639967 0.028547026 -0.06264463 -0.06546548 -0.04107445 -0.050597165 0.06599569 0.018675705 0.013158151 0.0006842549 0.045179855 -0.090568125 -0.007518735 -0.030767793 0.08247685 0.04482557 0.07477661 0.039897397 -0.06089332 0.024429062 -0.041881997 0.029795032 -0.06370862 0.07155836 -0.11870959 0.003228766 -0.018477254 -0.069416285 0.00262751 0.035079025 -0.00890406 -0.02897051 -0.012546907 -0.023262106 -0.054243535 -0.110394135 0.095792465 0.071346 -0.01579285 -0.030378671 -0.041309018 0.022911957 0.01991479 -0.1092383 -0.061739463 -0.05967688 0.10573064 -0.030367682 -0.02331115 0.045217253 0.029689737 -0.03012683 -0.015782047 -0.050473835 -0.063244544 -0.05609212 0.036932204 0.03354666 0.05229719 0.01564556 -0.0643038 -0.07818266 0.061183922 0.012029919 0.005524634 
0.023698863 -0.10644433 0.060943365 -0.039407857 0.052561145 -0.07264596 0.022985207 -0.018318346 0.059890594 0.025954684 -0.07496373 0.001368429 -0.06576405 -0.011791201 -0.0492535 0.007509061 0.011880334 -0.049943473 0.0152264945 -0.017694866 0.06027814 -0.050792966 -0.023009442 -0.050551992 -0.10747747 -0.053080577 -0.052724738 0.07121587 -0.023935184 -0.03709389 0.091053106 -0.018269137 -0.03364697 0.0071859662 -0.05436695 0.025813967 -0.06833692 -0.02010379 0.0142235635 0.006656336 -0.0630122 0.0036184806 0.0697859 0.034381263 0.007608003 -0.06239475 0.009377085 -0.017937185 -0.047059204 0.07627058 0.07145694 0.017560864 -0.08447324 -0.0003998599 -0.024570014 -0.05287187 0.0046348744 0.08264309 -0.10092295 0.07604952 -0.058962565 -0.040744007 0.07547614 -0.023580119 -0.027787406 -0.010157375 0.050631523 -0.031182557 0.0677359 -0.05228488 0.056120086 -0.025960835 -0.036859293 -0.08347747 0.06335294 0.042469822 -0.06640528 0.0003811855 -0.10026498 0.03741101 0.01814395 -0.017125348 0.098807454 0.002225406 -0.10804064 0.0707453 0.0039474694 -0.021659797 0.015808195 -0.0461351 0.04116828 0.077294625 0.0407833 -0.0547408 0.077799216 -0.042995457 0.03840035 -0.033039074 -0.009916385 0.01074991 -0.07061481 -0.016831355 0.101161964 -8.1646634e-05 0.0024028243 -0.0114760315 -0.009952358 0.008873705 0.08078527 0.07355884 0.06581731 -0.025701102 0.0008661902 0.041432865 0.04444376 0.07338374 -0.060617447 -0.07964406 0.029047715 0.0415342 -0.057149604 0.0451118 0.020579934 -0.08688286 -0.057564355 0.016414404 -0.07443039 -0.07217067 -0.0025158387 -0.037589952 -0.045707818 0.0066251247 -0.0050014583 0.030598529 -0.017890047 0.04120609 0.020205002 0.004940803 0.020169828 -0.0613556 -0.04520787 -0.040684428 0.01221692 0.033615384 -0.050175454 -0.023338491 -0.038868252 -0.002415884 -0.09598104 -0.036350973 -0.024718592 -0.035198007 -0.06448867 0.04283875 0.026376154 0.036096793 -0.05495739 -0.027295642 0.06758871 0.046335977 0.007161233 0.04780486 -0.02575807 0.05397382 -0.07513085 -0.016689664 0.05644752 0.029394902 -0.0044580945 -0.06364428 -0.052206174 0.034527674 0.035177033 -0.011937967 8.839104e-05 0.03430145 -0.048810523 -0.07034498 -0.060852703 -0.01953103 -0.09464222 -0.09179314 -0.06281133 0.018776685 -0.041980967 -0.07934014 -0.06773959 0.00411523 -0.05480647 -0.025248904 0.042391717 -0.074867606 -0.08244975 -0.0064291945 -0.056036573 -0.04827406 -0.013870421 -0.029362433 -0.06820737 -0.02685928 -0.060780488 0.06088746 0.05033571 0.027394684 0.027471416 0.008346819 0.009077471 -0.04833592 0.096850686 -0.06818594 0.015367109 -0.047490343 -0.025731547 -0.06229835 -0.04361707 -0.082823426 0.029338725 -0.012974886 0.044802412 -0.10165403 0.055657513 0.07627682 0.031384647 -0.057011478 0.029735934 0.056907576 -0.0054988842 0.040552545 0.006879188 -0.06286406 0.037229285 -0.08265122 -0.032853175 -0.028148226 -0.1092387 -0.058122568 -0.05205297 -0.07308315 -0.08486094 -0.06318796 0.027460417 -0.06727069 0.016892472 0.048507392 -0.011370843 -0.05542264 0.0197238 0.0064342287 -0.05636732 -0.06885459 0.021839347 -0.048308767 -0.025530139 0.036319837 -0.096063666 -0.04058633 -0.09716347 -0.025579732 -0.10190074 -0.022509968 -0.06571322 -0.061794143 -0.031583916 -0.015282131 0.02544658 0.061005954 -0.06376386 -0.085339606 0.045431964 -0.025651725 -0.0499088 -0.032395802 -0.026782406 0.039376307 0.035185374 0.0013961457 -0.007623726 0.0153289605 -0.08563428 0.041732326 -0.0821315 -0.09985717 0.015432109 -0.09348155 0.020479156 0.07153208 0.013673466 -0.08000534 
-0.02171423 -0.0070663546 -0.07093608 -0.0049664653 0.03162572 0.08359 0.040839605 0.008447002 -0.078362904 -0.020939777 -0.11011907 0.010136922 0.0044434546 0.016070995 0.03967641 0.07248384 0.00994441 -0.030672505 -0.04446319 0.045832194 0.10679568 0.067769796 0.10715442 -0.03269001 0.034613326 0.024266882 0.069738895 0.059449673 -0.11146239 0.02445545 -0.08489251 0.02833114 -0.010064967 -0.015168184 -0.008322074 -0.037671197 0.03990738 0.03719942 0.08844043 -0.047265783 -0.06986179 -0.0042801723 0.05093116 0.018069038 0.08931227 -0.029510183 -0.039816264 0.10965033 0.1191982 0.01049554 0.058165736 0.024187557 0.13217208 0.07935723 -0.014771875 0.06941828 0.022113137 -0.06186929 0.099623874 0.013375595 -0.0133031355 0.024274733 -0.010096623 0.06787603 0.081415266 0.030038249 0.07712854 0.07826101 0.0005996984 0.053616267 -0.024290789 -0.058918703 0.053878922 -0.076580614 0.063990414 -0.048190664 -0.012697524 0.033637777 -0.022570621 0.10331314 0.06806982 -0.029570034 0.009413194 0.09499474 0.08462485 0.061631072 0.06896262 0.040907256 0.014353461 0.039620582 0.039736267 0.09467854 -0.025658712 0.13241827 -0.05865206 -0.078205526 -0.016061278 0.09072698 -0.061282143 -0.0022181722 0.015615809 0.109572835 -0.0702059 0.025035907 -0.09231087 -0.058594197 -0.083807595 0.040911138 -0.039666407 0.023207774 0.087610476 0.00024294792 0.01002619 -0.0046351044 -0.03263265 0.102795936 0.074972704 0.1207035 0.08455403 0.031006623 0.15385886 0.010832427 0.09497076 0.03577597 -0.0548787 0.11722196 0.044792954 0.058069017 0.009888999 0.09078041 -0.039326098 0.08546399 -0.01861496 -0.0008251328 -0.033336196 0.03461877 -0.0018515289 0.0010237837 -0.0030211117 -0.105748825 0.081033036 0.011750265 0.047499925 0.1139181 0.023980869 -0.072578184 -0.040919237 -0.0512761 0.041070785 -0.05075727 0.055255324 0.10441766 -0.033205632 -0.017622136 -0.06392884 0.10014069 -0.045848068 0.016809588 0.028721962 0.05821018 -0.02628156 -0.0068752393 0.100866154 -0.07620578 -0.061669063 -0.052638933 0.0724106 0.054549765 -0.0043062894 -0.0031154184 0.050868552 0.056050792 -0.030123936 -0.05310458 0.026472501 -0.045472622 0.04301856 0.003944217 0.05873404 -0.07747702 0.060262874 0.04890698 0.11474135 0.0888978 -0.07200093 0.027863227 0.06538916 0.08412956 0.03084474 -0.08964163 0.02310149 0.05631104 0.06104802 0.10395329 0.049492512 0.09322037 0.05225962 -0.0071694935 0.054130428 0.048892353 0.09775099 -0.06506495 -0.011707911 -0.0874037 -0.0021842446 0.10156015 0.06912799 0.13628456 0.05972934 0.04359735 -0.05253158 0.10439608 0.09445496 0.05924528 0.041812886 0.108569354 0.012361119 -0.052061263 0.0066852677 -0.011363131 0.035203185 0.12610126 -0.0047646137 0.020420644 -0.0067587444 -0.06419204 0.08191578 -0.06290306 0.06907991 0.10200823 0.06453041 0.1392641 0.05977047 -0.03194943 0.09984053 -0.038770154 0.017259078 0.04435403 0.0007559941 0.044155966 0.107635096 -0.032238103 0.054308455 0.04956479 0.012759032 0.061597813 0.06266659 0.13048606 0.08798208 0.0015127695 -0.057007533 0.061989255 0.008513049 0.046493083 0.09942852 -0.06729143 0.03618691 -0.04128626 0.059962716 0.06386531 -0.012952953 -0.04286983 -0.0075476686 0.14929312 0.047924086 -0.0057436135 -0.00853182 -0.058295738 -0.040978912 -0.052669905 0.020366594 0.09613841 0.044268724 0.042395074 0.06595794 -0.00794883 0.06671755 -0.017969808 -0.024672396 0.05987206 0.066518396 0.05817552 0.009628085 0.0843901 0.047186404 -0.07324841 0.049776793 -0.060498964 
-0.045347605 -0.00477261 0.087198175 0.0028677816 0.041135855 0.026231177 0.0637002 0.013920288 -0.06184014 -0.06413442 -0.017824242 0.060277715 0.029970825 0.030618055 -0.059686147 -0.075784855 -0.034388434 -0.046439953 -0.0015559378 -0.07749544 -0.031415112 0.020027908 -0.104707964 0.015419593 -4.140567e-05 0.04217011 0.04689785 -0.0466682 0.020083357 -0.044961415 0.081732266 -0.0032161102 -0.051160127 0.017471353 -0.0024115392 -0.06895609 0.0076365424 -0.056723204 -0.06537769 0.01690581 -0.06484826 0.07605019 0.0875391 0.06573451 -0.062489916 -0.042325824 0.039420065 -0.05031288 0.026027348 -0.037698913 0.003142144 -0.06512411 -0.10001696 0.03954614 -0.10319297 -0.047778793 -0.056742914 -0.027419204 0.033586983 -0.025033036 0.015862986 -0.03438549 0.009133249 0.0019088686 0.016826361 -0.07262282 -0.043379966 -0.018817458 0.036009375 0.050712172 0.05285436 -0.07686012 0.026702676 0.0117056295 0.034636736 0.014215555 -0.042891536 -0.038820732 0.04879426 0.025025774 -0.04104232 0.108255975 -0.050610535 0.048925426 -0.049392436 0.07609765 -0.09904845 -0.10104795 0.059475176 0.09454263 -0.0030937833 -0.08380789 0.073585995 -0.003800047 0.06854083 0.014748995 -0.014784051 -0.050941374 -0.038658492 -0.08231592 0.007982549 -0.06251399 -0.030537646 -0.036658652 -0.0256488 -0.0784082 -0.07717919 -0.039584126 -0.07352701 -0.053796686 -0.09890183 0.037411407 -0.048472077 0.04177547 -0.06127715 0.05844015 -0.09226781 -0.034477077 -0.07902096 -0.097065136 -0.108283214 -0.059644435 -0.090729915 -0.01628271 0.045807805 0.04470461 0.06264498 -0.06329697 -0.04872381 -0.015178911 0.05807428 0.04207185 0.035523254 -0.016252473 -0.07284499 -0.056661814 -0.062026665 0.07002783 0.052564222 -0.0051983744 0.06101335 -0.017178822 -0.08687888 -0.039000295 -0.12984708 0.06780052 0.055270102 -0.06761437 -0.035060126 -0.015660122 -0.11711927 -0.022719083 -0.06308094 -0.025961503 0.011042319 -0.038626328 0.06080992 0.046878792 -0.053369913 -0.0697674 -0.08702651 -0.056913093 -0.08127841 -0.044890005 0.050231524 0.052851547 0.042021696 0.05542449 0.004420556 0.008430958 -0.059394654 -0.10491331 0.036282826 0.043574866 -0.066423975 -0.0661294 -0.092265435 -0.05455635 0.053849522 -0.036018472 -0.13291544 -0.053683937 -0.11116122 -0.10145133 -0.075510345 0.0059044 -0.06772809 0.024842551 -0.03998594 -0.0072435075 0.0832476 -0.05761397 0.024268702 0.06065884 -0.053428076 -0.06946361 0.047705427 -0.06832701 -0.033712827 0.012586512 -0.05502702 -0.031135388 0.04172643 0.038891684 -0.045156427 -0.04566623 -0.025364464 -0.027864717 -0.02802641 -0.039998725 -0.06839912 -0.072012365 -0.07635445 -0.11192094 -0.071777895 -0.13533458 -0.009994624 -0.031017432 -0.076305404 0.060695402 -0.033549737 0.0070780646 -0.021372657 -0.038538232 0.06152472 0.062378354 0.04010686 -0.082449496 0.03805791 -0.036336854 0.016829524 -0.03951163 0.06429487 0.042412963 0.04277492 -0.07131887 -0.050698247 -0.064666204 -0.0066368496 0.014197624 0.009565594 -0.04456979 -0.066802226 0.07869486 -0.03199767 -0.03981552 -0.043715626 -0.16264425 -0.0153801935 -0.08353935 -0.018789459 -0.05024499 0.0073448718 2.4966197e-05 0.051202685 -0.038101953 0.059043366 -0.08871046 -0.027473427 -0.004481614 -0.038263556 -0.00344242 -0.03661419 -0.0271939 -0.05167366 0.032369185 -0.09401317 -0.02027223 0.037117124 -0.10547502 -0.039560895 -0.071089886 -0.03615557 0.04725407 0.06651545 0.06255321 -0.09211534 -0.11784942 -0.03811911 -0.15938497 -0.03038281 -0.00074446516 0.046395496 -0.025139788 0.021928255 0.07129111 -0.0026124646 -0.03895951 
-0.08139508 0.02059077 0.0415279 0.03618637 -0.037539814 0.0829304 -0.069954745 0.03222379 -0.06045921 0.0320747 -0.0054575824 0.07168373 0.019425211 0.08277613 -0.0545079 -0.09547748 -0.005685315 -0.08758057 0.0075419554 -0.03495233 -0.092063256 -0.026587144 0.014506455 -0.027584177 0.053260684 -0.05964664 -0.057003632 -0.09803831 0.06988751 -0.019704834 0.03242977 0.09759634 -0.12009228 0.012797342 0.02798957 -0.006769775 -0.022213256 -0.046928216 -0.080676146 0.01797681 -0.05555245 0.07657362 -0.008364484 -0.026046809 0.01873468 0.047426328 -0.065594666 -0.027686615 -0.009932194 -0.03859275 0.03434482 -0.120023735 -0.09206201 -0.023337506 -0.07635186 -0.07539486 -0.09204708 -0.01460624 0.02665295 -0.04011082 0.0036000228 -0.08159487 -0.0006673517 0.08087766 -0.10585705 -0.0774391 -0.049751133 -0.067627124 -0.055017218 -0.09443122 0.01082279 -0.00826628 0.0338232 -0.023582915 0.092366464 0.04842179 -0.008152787 -0.022985809 0.029508343 -0.06954139 -0.06067145 -0.044483326 -0.016596332 -0.10434827 0.014228704 -0.08169909 -0.004623907 0.055586807 -0.09304017 0.04330631 0.03980471 0.04845261 -0.0011037167 0.03901453 -0.030371368 -0.021377219 -0.041858904 -0.0014084949 -0.026719237 0.08506359 0.0012264581 -0.04236981 0.06064366 -0.03443012 0.016359607 -0.04605478 0.021880522 -0.0016996848 0.007703933 0.035813693 0.07766726 -0.13329747 -0.11424997 0.0653258 -0.015100046 -0.013363683 -0.08410559 0.02991653 -0.07516569 -0.0326995 -0.0176439 0.0016225418 0.02536013 -0.058884356 -0.035757612 -0.08379846 -0.007210332 -0.037825134 -0.036420945 0.016695725 0.005978782 -0.041555263 -0.100100964 0.032643124 0.043976557 0.049104787 0.08876735 0.06650545 0.09185554 -0.07821598 -0.06862092 0.041471764 -0.0644757 -0.055163756 -0.035407897 0.008950589 -0.038134463 -0.098829105 -0.10058871 -0.08492068 -0.11779098 -0.022122761 -0.036735974 0.092044994 -0.01757028 -0.057325907 0.065932624 -0.13331357 0.026442032 0.016975434 -0.098980635 -0.036518943 0.03372725 -0.004142487 0.048626114 -0.013283312 0.04572394 -0.05773557 -0.055690497 -0.01761747 0.113752015 -0.07382149 -0.13919574 0.02505496 -0.019091386 -0.08459484 -0.060735177 -0.007989242 -0.059394762 0.0050918013 -0.13977875 -0.031693917 -0.12562627 0.06398621 -0.098590806 0.04577732 -0.026756544 0.025559908 -0.014787406 -0.08405604 0.091345884 -0.08088741 -0.050072804 0.07876472 -0.061983727 0.033480436 -0.05509031 0.019233966 -0.06257398 0.0038845432 -0.017360415 0.08731264 0.07006664 -0.015899602 -0.016095491 0.026151678 -0.006364804 -0.03440464 0.008191343 0.008495617 -0.008646044 -0.08940803 -0.042941354 -0.07328973 -0.09310014 0.025258206 -0.10678749 -0.053171296 0.05984461 -0.11760912 -0.013620343 -0.0028691161 0.016465561 0.018569943 0.007684768 -0.0522289 0.03569058 -0.0541276 -0.058370393 0.0065339436 0.081733786 0.053783022 -0.03465079 -0.030397546 -0.021395257 -0.07286486 -0.10242895 0.041966863 0.005156361 -0.11719133 -0.11619531 0.099564575 -0.02213555 -0.031669438 -0.022914836 -0.08145247 -0.034857802 0.019206565 0.02662086 0.09380984 -0.045174096 0.009306709 0.065372825 0.042611644 0.08086638 -0.04653917 -0.06854013 0.008082909 0.055502024 -0.09209263 -0.074056946 -0.061196603 -0.024484204 0.06504866 0.08707258 -0.04882553 0.09455843 -0.06895191 -0.099761486 0.016761083 -0.056842316 -0.060105104 -0.1356575 0.034061763 0.0013056856 0.018712044 -0.035591807 -0.046838973 -0.12202972 -0.04424341 -0.08901568 0.024012983 -0.08212177 -0.052010734 0.082549214 0.029542608 0.102332726 0.033462074 
-0.025171235 0.075630546 -0.1013337 0.06162432 0.0189091 0.1253526 0.05050236 -0.03910805 0.009955857 -0.08537006 -0.039533697 -0.06729822 0.028821953 -0.019603945 0.0880814 -0.054374058 0.123010695 0.0026544547 0.026542619 0.065008126 -0.02216833 0.03832322 0.04491174 -0.03579442 0.080495805 -0.053109635 0.037867445 0.0068617556 -0.013229196 0.05148541 0.08057121 0.08592502 0.024752919 0.033068493 0.07516088 -0.031575203 -0.03936769 0.10596212 0.060783293 0.0021908549 0.01978859 0.05871275 -0.017513333 0.0063537825 -0.0030224053 0.08205355 -0.039214328 0.053848844 0.03237451 -0.05892159 0.089041665 0.081875004 -0.037913427 -0.010679484 0.02032126 0.00061856175 -0.023145722 0.08514219 -0.03854509 -0.027433557 0.102203295 0.017074797 0.039851267 0.084686145 0.049036328 0.027134063 -0.010374676 -0.05752717 -0.058750845 0.010941327 0.07088698 0.06311279 0.09899165 0.008015871 0.0932136 0.012601811 0.03494818 -0.002637165 -0.07433706 -0.061443023 0.09666766 0.061004132 -0.007244797 -0.07012272 0.06407842 -0.06324927 -0.061622083 0.0030299115 0.01864697 0.0014483655 -0.04242947 -0.033841573 0.0978767 -0.06994583 0.049619157 -0.02825003 0.07038376 0.07035206 -0.029346475 0.009434987 0.037183285 0.041338354 -0.037492495 -0.04909017 0.012963036 -0.0052318764 -0.060160097 0.035412166 0.07472836 0.06373089 0.09300102 0.13159998 0.14303085 0.04824232 -0.04986396 0.059943046 0.043773506 0.049045138 0.107918486 -0.007013968 0.02683985 -0.110766865 0.08077329 -0.031208757 0.0024939112 0.02970324 -0.020285094 -0.0072048046 0.1235358 0.020346476 0.009410427 -0.060297426 -0.06710662 -0.021137122 0.075555846 -0.03596434 -0.056177855 0.06217982 0.056399822 0.03623888 0.112452954 -0.0143341 0.021235963 0.071769305 0.18200414 0.015796857 0.021916011 0.013878336 0.06373749 0.11115183 0.033138935 -0.0087706 0.008391291 -0.019183794 -0.022217605 0.0504641 0.04531052 -0.009987808 -0.053078912 -0.052698523 0.01927036 -0.019865552 -0.009908793 -0.012057207 -0.042189203 -0.059290137 -0.016751798 0.12003395 0.022088302 -0.060090948 -0.00567868 0.008632498 0.091153026 -0.059046425 -0.061442755 0.032442052 0.16584532 0.009226202 0.038983047 -0.088362254 0.084726095 0.08024917 0.09236134 -0.0064200684 0.06798767 -0.058372766 -0.013244636 -0.018333651 -0.05837492 0.046002794 -0.050997786 0.059005797 -0.03892781 0.058837008 0.019428566 -0.044107273 -0.078148715 -0.03592298 0.029867996 0.040877335 -0.035105832 0.05008169 0.027118083 -0.010672725 0.06542211 -0.046849113 0.090210825 0.12398597 0.071189746 -0.0877009 -0.011197444 0.080112 0.05332183 -0.025695844 0.067168236 0.1308849 0.09758411 -0.016330058 0.06251461 -0.017480388 -0.11225255 0.05090122 -0.019926392 -0.045862515 0.018572293 0.024721755 -0.06536948 0.10411588 -0.03960121 -0.01989405 0.0058320863 0.027106073 0.041103337 -0.08475025 -0.08366515 -0.082705155 -0.02519153 0.028157212 0.015401571 0.088382035 0.16279247 -0.10056521 -0.08150875 -0.03893701 0.16599312 0.04223667 0.15403925 0.10968119 0.065224394 -0.095944 0.009676325 -0.03272658 -0.07353544 -0.05538866 -0.029639341 0.07811924 -0.017634278 -0.06322488 0.06674314 -0.062464762 0.077393875 0.015096548 0.06818897 0.09376059 -0.0644431 -0.02326624 0.07860469 0.05486578 -0.0024369853 0.038136426 -0.03398989 0.053408433 0.06184766 0.046594746 -0.0032645995 -0.05330126 0.12057042 0.040813245 0.03693722 0.075899735 0.1217914 0.04918195 -0.040368635 -0.04407639 -0.023380272 0.011337864 0.0016178754 -0.07514282 
0.05506426 0.024253195 0.009411742 0.05098681 -0.04049107 0.08307575 0.09029871 -0.10424768 -0.010377399 0.019533591 -0.053813603 0.005272087 -0.013861204 0.073214695 -0.083283655 -0.020170093 0.06203519 0.12054726 0.07340833 -0.041777857 -0.04198458 -0.012951686 -0.04389365 -0.1525407 0.049909852 0.014317136 0.07255423 0.041886378 -0.05534477 0.06644887 0.029546075 0.052090462 0.020305268 -0.07314851 0.0050027734 -0.03264433 0.07024984 0.026838874 -0.03966854 0.043473218 -0.030669572 0.06096256 0.031384435 -0.059567366 0.01661638 0.011649442 -0.05990463 0.047055814 -0.08452341 -0.021392684 0.03044509 0.09790597 -0.053976066 0.055630207 -0.005001221 -0.1530308 0.018952621 -0.010377157 0.06604576 -0.03076027 0.011422003 -0.016064472 0.11798204 -0.06906953 0.021098819 0.06270389 0.056067776 0.0049126744 -0.005698294 -0.056238387 -0.07144106 -0.07812997 -0.0033114897 0.0034481396 -0.060848385 -0.04628315 -0.024090733 0.037013877 -0.042306058 -0.03661967 -0.0055404864 -0.0040512835 0.022781912 0.047600836 0.0029757144 -0.064348266 -0.039533686 -0.13953017 -0.033217534 -0.014849716 -0.033931244 0.052384075 -0.007801998 0.078576826 0.08511939 -0.018992493 0.045418825 0.053649753 0.090345696 0.02768302 -0.013067254 0.005566066 -0.052381597 -0.022831531 -0.018315159 0.00929198 -0.030842468 0.059688024 -0.020665923 0.08054418 -0.002737495 0.009126049 0.036349565 0.09802382 0.09174642 0.057336412 -0.09828279 -0.06947722 -0.12618512 -0.16891004 0.07109929 0.0017230423 -0.06759296 0.018272223 -0.046026964 -0.03202191 0.11454124 -0.060091585 0.007092373 0.013720163 0.031590406 -0.04037535 0.009898117 0.08425867 -0.0401757 -0.0028347238 -0.055128496 -0.06472444 0.06707227 -0.045437645 0.050319187 0.014762267 -0.042853698 -0.01694976 -0.11662417 0.0855282 0.026163762 0.052681826 -0.06912914 -0.047227204 -0.11137062 -0.15436131 0.065095656 0.057246137 0.0065864394 0.085070014 0.020461494 0.0228437 0.08131488 -0.042261105 4.79031e-05 0.066170506 0.028059594 0.027317857 0.06971368 -0.027509592 0.0319301 -0.055614494 0.03621313 -0.0511134 -0.08314426 -0.06456701 0.02584145 -0.08681102 -0.03832074 -0.022086762 -0.08164321 0.099528074 0.0068385033 0.040918775 -0.09565684 -0.0005469741 -0.014864894 -0.14207327 0.062570296 -0.05941126 0.057869546 0.017600788 0.051658615 0.013241736 0.08330947 -0.008367861 0.016896037 0.019520052 -0.04826888 -0.003148312 0.010702692 0.010333944 0.08557302 0.0034987296 0.074607216 -0.027335113 0.013326378 -0.059862692 0.0056241336 -0.016129853 -0.018491168 -0.05879757 -0.10802425 -0.024485199 -0.03691922 0.014187973 0.0034542247 -0.07896605 -0.07323568 -0.18189035 -0.046233132 0.08112554 0.056915313 -0.009063648 -0.027323801 0.09076642 0.07388404 -0.033243462 -0.056797408 0.06709047 -0.023998575 -0.025361534 -0.0047589135 -0.020503795 -0.04047232 0.050135504 0.026840428 -0.01669409 -0.06636728 -0.012169311 0.101005055 0.07055889 -0.08004117 0.02856846 -0.07313789 0.066660926 -0.015180439 0.021435635 -0.097150676 -0.061574746 -0.06756967 -0.020997692 -0.074255064 -0.038394604 -0.005972049 0.08392091 0.05796595 0.027099641 0.06708852 0.012431456 -0.006061656 0.019749343 -0.050759144 -0.053137634 -0.032651644 0.00037832127 0.089073226 -0.00036650104 0.014106827 0.03951451 0.009333727 0.07971206 0.07111095 -0.032447837 0.065121345 -0.008101175 -0.036219407 0.08460045 -0.022594545 0.041580778 0.031450264 -0.060602013 -0.047559142 -0.038357392 -0.032347508 0.058768675 0.030660715 -0.023766061 0.088514894 0.08843157 0.026459377 0.09849409 
-0.05725545 0.059353314 0.022419885 0.023134528 -0.0515428 -0.07583201 0.036593426 0.17708363 -0.034911964 -0.034102704 0.011425039 0.04622402 0.019706314 0.009101532 -0.09237803 0.043879796 -0.010502841 0.030475384 0.095756985 -0.113249205 0.0406668 -0.040998753 -0.023123747 0.015999649 0.05013414 0.05298049 0.046140734 0.07216778 0.053464707 -0.0625552 -0.004431507 -0.10057405 0.06184199 -0.040547542 -0.028364837 -0.0038148086 0.080165714 0.0059441472 0.0036101202 0.17409314 0.074837655 -0.04606819 -0.041727398 -0.038733497 -0.03254592 -0.04591686 0.050396655 -0.06985908 -0.03386704 0.07724239 0.027417159 -0.035055246 0.05689573 -0.07829826 0.033772666 0.08372477 -0.09429204 0.06363865 -0.015219952 0.017399264 0.08015063 -0.07154646 0.024635406 0.026236124 0.048476562 -0.05539226 0.07330008 -0.02727742 0.042295605 -0.049489606 0.022825258 0.06420518 0.043210305 -0.06263207 0.034135584 0.062318817 0.060500503 0.010133766 0.023503825 0.048472766 -0.043827802 -0.03209587 0.03909686 -0.06587257 -0.025814198 0.027569262 0.11767682 0.095550776 -0.058219444 0.022332462 0.07018084 -0.040408652 -0.063963234 -0.007574899 -0.0396512 -0.011240968 0.06300625 -0.11944861 -0.019635476 -0.041730616 -0.045444965 -0.0022020382 0.04273699 0.07912489 0.109837346 -0.005274805 0.11847951 0.050287556 -0.05323732 -0.033031933 -0.13052422 0.029005513 -0.0710287 -0.028531939 0.13426182 -0.09361236 0.088028535 0.017753288 -0.024249345 0.044025842 -0.052254353 0.02178858 -0.06431929 0.13283448 0.024977924 -0.1442325 0.009578855 -0.028252756 0.009461673 0.009162832 0.08046027 -0.06822278 -0.026848424 -0.07538647 -0.0082962345 0.17501226 0.09647077 -0.00036321278 0.031137161 0.0039679264 0.054299083 -0.07648161 -0.041078668 0.008660556 -0.05821915 0.07364772 0.0136280805 -0.11376997 -0.019274948 -0.0290622 0.09721132 0.08068902 0.03206298 0.1042804 -0.09379007 0.11572638 0.046324465 -0.06193536 -0.033956148 -0.064971596 -0.03194956 0.06559902 0.015016731 0.07779366 -0.05524368 0.00261736 0.010830599 0.14517398 0.0036606267 0.07005641 -0.027204014 -0.015265972 -0.0073382584 -0.06391279 -0.065186605 0.039077498 0.0061088526 0.029870264 0.013198872 0.056359336 0.045480583 0.080815606 0.07637419 0.06307937 -0.024380969 0.0057338206 -0.07577524 0.103561744 0.08139504 -0.015601798 0.016868182 -0.06755382 -0.039553046 -0.0018595931 0.04439458 -0.019448658 -0.044016108 0.08178612 -0.034674015 0.029953053 -0.005591797 3.6881538e-06 0.08308232 -0.08161304 -0.01663114 -0.061217595 0.010054888 -0.022796735 0.057368863 0.009020747 0.14758566 -0.073921345 0.010922176 -0.033347774 -0.019363558 0.09937559 0.014799275 -0.0041587064 0.010658827 -0.0022007804 0.023378868 -0.013235023 0.015719766 0.075575255 0.033625454 -0.032089707 0.03384164 0.047008198 -0.041910376 0.011172762 0.04912924 0.064242855 -0.009147665 0.014551867 -0.02615266 -0.01361736 -0.056961082 -0.08459662 0.03697943 -0.014053979 -0.026587743 0.033361245 0.16071504 -0.110633984 0.093078665 -0.043312036 -0.040792592 0.05935299 -0.053023774 -0.031463385 -0.06996948 -0.015449468 0.079608016 -0.07416016 0.08644392 -0.059647772 0.05497518 0.063756384 0.040972445 -0.04554051 -0.06370029 -0.016163034 -0.091031484 -0.0047829747 -0.024896476 -0.07985836 0.044483904 0.015711218 -0.04872193 -0.07465611 0.041227043 0.03879368 -0.047121327 -0.01853161 0.027585087 0.012267173 0.027170563 0.043038927 0.088835225 0.03579967 0.041037917 0.06169929 -0.07515953 0.07523802 0.0024418086 -0.025984645 0.036876813 -0.055218212 
-0.03706975 -0.019233009 -0.039375518 -0.00996706 -0.0016215341 -0.020593004 0.01747872 0.02727497 -0.003012261 -0.054273795 0.030659609 -0.043322593 -0.034534432 -0.04640885 0.0470304 -0.028740678 0.02769538 -0.088224605 -0.01493557 -0.049957965 0.0037084264 -0.031350195 -0.043186158 0.09050059 0.040273044 -0.0021067576 -0.027299521 0.015958348 -0.007265024 0.0062060654 0.03180265 0.055838462 -0.05230419 -0.02391573 -0.014771315 -0.054281298 0.04576926 0.016181938 0.06390528 0.040155843 -0.018011767 0.029597744 -0.019788137 -0.08164574 -0.07871212 0.016139822 -0.06414362 -0.046804816 0.03890313 -0.06830866 -0.02567012 -0.03444453 -0.011364412 0.052836817 0.08811964 0.05256583 -0.010380488 -0.03202226 -0.05249073 0.06805663 -0.05114986 -0.04520979 -0.01544002 0.04520217 -0.07270909 0.05714674 -0.028489536 -0.037861414 -0.0029157565 -0.054509923 0.054762326 0.006668293 0.002662501 0.08037085 0.06086772 -0.0061910693 -0.08387646 0.023576027 -0.07426325 -0.019310152 -0.056360696 -0.011313811 -0.0061039436 0.053332765 -0.06520672 0.05601223 -0.03949731 0.03453444 -0.0830083 0.008364965 -0.08644838 0.015984824 -0.02726979 -0.060008258 -0.010267841 -0.06057267 0.011208667 0.0078021344 0.055343006 0.01030794 -0.046948396 -0.06258658 -0.047003068 0.061799478 -0.009076193 0.08033616 0.06344899 0.03262285 0.02584837 -0.05938221 0.014249086 0.049650513 0.037138656 0.06681819 0.11892608 -0.13135803 -0.04707978 0.057914987 0.021237507 0.02546201 0.0029390827 -0.062448397 -0.023738937 -0.028544055 0.05028528 -0.02421885 -0.06293982 -0.054431994 -0.035649564 -0.08806758 0.026728975 -0.08910303 0.038394306 -0.015984364 0.033175368 0.07655519 0.101821244 0.042759035 -0.0033188607 0.090146184 -0.026429253 -0.005358207 -0.061471373 -0.015251964 0.063026756 0.068750605 -0.016524613 -0.05060263 0.0128323585 0.06989801 0.009294684 0.1480267 -0.11432876 0.016389437 -0.101566106 0.045503918 -0.05448554 -0.039040376 -0.06366727 -0.04566905 -0.010202938 -0.07949568 -0.004284753 0.0063366788 -0.10408471 -0.012255605 -0.041658036 0.1388088 0.055442423 0.053248294 0.0036363937 0.04079566 -0.050237566 -0.077560134 0.040669397 0.016351506 0.017317807 -0.021018472 -0.041158635 -0.12644167 0.063583486 0.06735291 -0.0434255 0.09043278 0.04834559 -0.024609344 -0.068345964 -0.05549812 -0.016573109 -0.12679343 -0.08241804 0.008911459 -0.0006126576 -0.0006715066 -0.034945797 -0.02110657 -3.0282143e-05 0.09268722 0.0011912846 0.026343701 -0.007226986 0.00949321 0.0745792 -0.06568955 0.011963337 0.028919091 -0.002264365 -0.04480136 0.052957464 0.08038523 0.103759505 -0.06684589 -0.0537525 0.0399458 0.025278872 0.040002964 0.041666497 0.024115821 -0.05857505 -0.026890071 0.088469625 0.040104207 -0.04287038 0.056790773 0.0051495843 -0.07173722 0.070015185 -0.05796764 -0.036607917 -0.0166719 0.028324662 0.09760708 -0.011983387 -0.03721063 -0.029005459 0.05910929 -0.0827333 0.01799564 0.0086684115 -0.053796705 -0.036794633 0.003259024 0.040518995 -0.078797914 -0.013717848 -0.021290414 0.034170326 0.046648484 0.023795944 -0.016232055 -0.005017902 -0.04965463 -0.0039818566 -0.13260576 -0.010157718 0.013871845 0.009760019 0.057414938 0.069753036 -0.005577639 0.026765287 -0.056828823 0.062406454 0.059332494 0.06612744 0.00594816 0.055806506 0.037436437 -0.106932804 -0.04175587 -0.0587793 -0.008036092 -0.033365387 0.066841304 0.06730558 -0.014031591 0.021713262 -0.082733534 0.054491743 0.14542049 0.040736295 0.035101563 -0.020471938 -0.016659794 0.0024156515 0.027686266 0.03400336 -0.08446196 
0.08776078 -0.03702817 -0.03453018 -0.06983475 -0.025239278 0.043834902 -0.021882981 -0.061564382 -0.04834968 -0.018966889 -0.057521306 -0.10404558 0.020716852 -0.008140988 0.016984394 0.038407505 -0.006211825 0.07641404 -0.07584018 0.102296084 0.085118145 0.02754069 -0.066644065 -0.04177245 -0.0505368 0.002293148 0.059259966 -0.07965392 -0.022565598 0.07482347 -0.07582031 0.013725399 0.04392937 -0.035878863 0.06215499 0.052777693 0.04227065 -0.073556155 0.008553603 0.082204536 -0.071590446 0.010366548 0.020566193 -0.055802442 0.09676472 0.007907909 -0.009387527 0.08100723 0.08517404 0.0034278112 0.04190189 -0.0059465393 0.048193794 0.06779882 -0.05399052 -0.016911669 0.0452513 -0.07496645 -0.058360048 -0.06469145 -0.08884282 -0.042813607 0.011029232 0.06156968 -0.04339386 -0.06224851 -0.0506511 -0.08189225 0.09120434 -0.05108015 0.038269415 0.039084513 -0.03333526 0.03049636 -0.017781585 -0.026012344 0.08103794 -0.008285624 -0.0068275435 0.061073504 0.10384025 -0.05366175 -0.035005696 0.043484733 0.10556487 0.037729938 -0.032880086 0.020153282 0.09084137 -0.047606908 0.089399844 0.0031320706 -0.08574323 0.0726144 0.021678558 -0.077258445 0.106436186 -0.082570575 -0.061042465 0.01784986 0.019905508 0.035685472 0.074602194 0.026502125 0.039807554 0.044876892 -0.00674583 -0.09622937 0.06425404 -0.03508149 -0.029070517 0.15443857 0.17198405 -0.060354047 -0.07307799 -0.034888018 -0.0035020635 -0.014869588 0.044886246 0.014760167 0.11793994 0.054664183 0.072939076 0.053744506 -0.013292255 0.11833637 -0.027596211 -0.04017874 0.025535299 -0.088273704 0.054708958 -0.05205692 -0.021470573 -0.068934456 -0.06439493 0.07490379 -0.034227848 -0.07274131 -0.08697912 -0.04664617 -0.032261927 -0.022074582 -0.0652699 0.1601133 0.15907237 0.06993481 -0.052513972 0.09170226 0.05075231 -0.051796205 -0.016102092 0.062706165 0.118853085 -0.054908533 -0.0038075778 0.04431158 -0.038898025 0.09196031 -0.010116631 -0.093194276 0.08663954 0.030292084 -0.027557582 -0.062095284 0.051641796 0.011268038 -0.05455183 0.07820974 -0.04182693 -0.07522739 -0.069642104 -0.05872022 0.019550044 -0.097656794 0.03279659 0.04238031 0.059766617 -0.03868262 0.0018294725 -0.03296141 0.012676198 0.033017986 -0.02703654 0.06092604 -0.010038793 0.028938485 -0.025012154 -0.037331834 0.016936267 0.053230368 0.051063422 -0.0706715 0.06852957 -0.06561506 0.049207043 0.049398877 0.068182774 -0.012736016 -0.06627947 -0.04036274 0.011649581 -0.09417635 -0.018542804 -0.07093426 0.13534684 0.005562896 -0.021660283 0.04970073 0.108462006 -0.059709787 -0.044926275 0.0061678877 0.0029802965 -0.05930856 0.028304674 0.057726882 0.035962407 0.016266907 0.09018281 0.021866418 -0.0864475 -0.007981771 -0.018070614 -0.11108107 0.0075814114 0.02177463 0.010462131 -0.04282935 0.098008364 0.07977288 0.022632437 0.06855717 0.023928136 0.019030824 0.00665347 -0.114040345 0.12425725 -0.07749242 0.009586565 0.16762191 0.057147622 -0.015542344 -0.0131335035 0.012552048 0.11696765 0.0636505 0.12122494 0.03736007 0.08408495 0.011862597 -0.045863375 -0.042981207 -0.09358916 0.084368706 0.058516946 -0.11926302 0.04075543 -0.043012742 -0.05773354 0.04509273 -0.03298432 0.022589168 -0.10674011 -0.06637812 -0.0035959072 0.022318803 -0.06857208 0.03640859 0.016645947 0.046339933 -0.011851114 0.16065124 0.07768251 0.020480959 -0.045612887 -0.012018632 0.0013081888 -0.07360739 0.09607768 0.022828145 0.12606944 -0.0955076 0.067974836 -0.03007582 -0.02610262 0.10780907 0.05339414 0.020162268 
-0.016055943 0.06836714 -0.048421692 -0.033922303 -0.07626502 0.020215955 0.04307244 0.042274054 -0.035824597 0.01230489 -0.082570076 -0.013833948 -0.04423484 -0.06272135 -0.0645166 0.025422696 0.01898988 -0.07620701 0.06967049 0.038624395 0.043800347 -0.008079065 0.0377103 0.08452141 0.071384385 -0.015070116 0.06083812 -0.0019418729 -0.043842006 -0.09660998 0.049632203 0.108142555 -0.023820598 -0.065306306 -0.059706487 -0.019896237 -0.039236844 -0.054857083 -0.03241375 -0.012439234 0.047433678 0.016996287 -0.011716873 0.035533063 0.0065150857 -0.04418947 -0.030742168 -0.053457618 0.08670927 0.054897424 -0.061370313 -0.06329173 -0.01972799 0.07694962 0.03731221 0.10907009 0.030795671 0.021451626 0.050773453 0.039725207 0.05318337 0.0054049585 0.047314316 0.095390186 -0.0075187115 -0.046905108 0.010823854 0.0040148553 0.01144321 -2.3007626e-05 0.03761035 0.01852241 -0.07067683 -0.04080654 -0.07371096 -0.038304973 0.08177926 -0.06368441 0.06668193 -0.05741387 0.025531862 0.07836897 0.011082289 -0.09735546 0.018428966 -0.032747924 0.036661927 0.11152899 0.01403111 -0.011731444 -0.005353164 -0.053700596 0.07688781 0.025643192 0.06967478 -0.044544864 -0.06325988 -0.099744685 -0.087399304 -0.010510116 -0.06216246 -0.04797894 0.032592744 0.07043046 0.03338228 -0.05234088 0.010300347 0.02801272 0.048025593 -0.00033584505 0.008474918 0.027851632 0.108817354 -0.03045277 -0.0134469215 -0.06164161 0.06610595 -0.008461866 0.10207534 0.1182833 0.0064485157 -0.05104825 -0.044059996 -0.0016731967 -0.065076865 -0.07546817 -0.00093381514 0.038646728 -0.054360345 -0.0013743461 -0.08027895 0.041561108 -0.07648113 0.017891638 -0.060320448 0.07685425 0.061341748 0.06933324 0.0264287 0.017022906 -0.023911 -0.0027775853 -0.04543804 0.052916016 0.06360389 0.033144478 -0.060610633 -0.050179016 -0.0060264794 0.031310465 0.021726638 0.0053674197 0.028839067 0.0519825 -0.04696376 -0.05883538 -0.10033607 -0.015928214 -0.057693027 -0.08762626 0.033597626 0.014637096 -0.07856167 -0.04866753 0.0772842 0.029131899 -0.02418234 0.013617342 0.07403155 0.027840292 -0.07153722 0.0061016814 -0.03852298 -0.058294922 -0.0838187 0.11738139 -0.030354308 0.03655715 0.024953224 -0.09764569 0.0075067175 0.033349793 0.016539978 0.12619597 0.07357056 -0.07994935 0.057664208 -0.054337237 0.0025737458 0.053584587 -0.07232098 -0.027654357 0.10975753 -0.033119228 0.020539498 0.009623222 -0.024169853 -0.024928143 -0.046813287 0.01259692 0.07023262 -0.06834779 -0.05875657 -0.09915608 0.008000207 -0.07026273 -0.02425165 0.044269737 0.051655177 -0.030358117 0.06551629 -0.017482718 0.0039171004 -0.07781574 0.12736912 0.068785876 -0.021109568 -0.047040995 -0.031553548 0.037308242 -0.095935 -0.035237398 -0.07156604 0.0417928 0.017568292 -0.09672768 0.055471238 -0.023699427 0.07173425 0.020974513 -0.0069770846 0.04293242 0.043422855 -0.014419474 -0.0155446995 0.010241538 0.004799209 0.023818476 -0.03048122 0.10628615 0.05874681 -0.025401032 -0.028187595 -0.10885176 0.07695948 0.033485245 0.06874826 -0.0056294915 -0.040382337 -0.083868474 -0.08916205 0.09348995 -0.053553246 -0.04116876 -0.02658775 0.02525583 0.12083901 0.051625524 0.07044922 -0.06458591 -0.005684646 -0.05282465 -0.06438574 -0.013922135 0.05951576 0.0042579523 0.0027423184 -0.08508355 0.01891788 -0.066849284 0.06620262 -0.011954419 0.072641715 0.043217376 -0.028814176 0.011357574 0.025000663 0.045607373 0.09587979 0.0715712 0.015299756 -0.07742054 0.027769458 0.074807405 0.01601354 0.018532595 -0.010381294 -0.012008199 
0.09926153 0.018232774 0.02369465 -0.09391828 0.15199476 0.064453974 -0.10401575 0.00974722 0.098998524 -0.08837451 -0.094994806 0.04383736 0.116212524 0.05818332 -0.052346945 0.116711974 -0.0662838 0.061956927 -0.042249028 0.06609206 -0.02034322 0.014081452 0.020755308 -0.014952438 -0.03617539 -0.007805195 0.06458514 0.0381807 0.028942352 0.025644127 0.10241124 0.010647087 0.11395284 -0.038394254 -0.025473947 -0.022817003 0.081273146 0.011617295 0.047276 -0.028059687 -0.00850131 0.006956786 0.032015786 -0.040537726 0.097767204 -0.022820551 0.02113641 0.028242964 0.03489065 -0.016389586 -0.006712104 0.100828424 0.0101048285 -0.04927321 -0.06910323 0.015190316 0.031451717 0.06480646 0.008670727 -0.008180876 0.026410727 0.016880129 0.063833214 0.005994 -0.0029875375 0.08647112 0.07361407 0.06943056 0.09801419 0.063579574 0.08367508 0.03679418 0.0614954 -0.08025367 0.016882006 -0.114045665 0.11288676 0.024499848 0.036466047 0.08602208 0.047015805 0.09430698 0.060638268 -0.0015498413 -0.00023153955 -0.04792073 -0.059317973 -0.08241266 0.029528787 -0.006801947 0.094995014 0.047893506 -0.045105383 0.1150162 -0.01736802 -0.017956002 0.13810205 0.045889508 0.107096225 0.04645596 0.0789146 0.014587076 0.011254996 0.035742506 0.07325273 -0.0802571 -0.030943945 -0.026961526 0.1451245 0.028059317 0.06996715 0.043737456 0.023256091 -0.028822979 -0.03678306 0.11288379 0.043067195 -0.014247288 -0.025398865 0.017152717 0.11627023 0.024262032 0.09411963 0.08761024 -0.02689566 0.0035984179 -0.0055159493 0.032685768 0.006572607 -0.06832822 0.03018706 -0.09551017 0.028969742 -0.042127747 -0.0376568 -0.0028893806 0.06507236 0.050775565 0.009963457 0.0038928792 0.18512751 -0.06687497 -0.08900507 0.09799981 0.018391337 0.060717955 -0.03268401 0.045488793 0.01644383 -0.08065885 -0.04489895 -0.049616612 -0.000517476 -0.06209909 0.019580714 -0.007152861 -0.024040403 -0.012391707 -0.044079702 -0.0028144233 0.10487873 -0.0010279245 0.0501356 -0.015305153 0.10215758 0.05924604 -0.11218163 -0.02178579 -0.04050718 -0.039950147 -0.075961314 0.0012781266 0.06621963 0.026360758 -0.039585497 -0.021024283 -0.013780864 0.09771279 0.01559 0.037090782 0.0022796253 -0.023363208 0.052237734 -0.14401916 -0.058125094 -0.065232635 0.09162849 0.08892498 0.07502627 0.097469024 0.056382563 -0.06585331 0.14279538 -0.020034533 -0.01396923 -0.07322916 0.10781235 0.028834753 0.032141674 0.057118643 0.08510047 -0.009443705 -0.10146374 0.05877999 0.07913873 0.053152088 -0.0089238025 -0.012819756 0.017551051 0.112876125 0.061347082 0.06820987 0.010061617 0.11689755 0.05184082 -0.11332786 0.11005845 -0.04747786 0.012197448 0.09092451 0.02475307 -0.04573523 0.081068195 -0.04003937 0.07182164 -0.021159746 -0.022452237 -0.02506039 0.061751265 -0.056679167 0.038938083 0.002904142 -0.047585703 -0.07052952 -0.020044444 -0.089966945 0.035798803 -0.04301834 -0.08129961 0.009546714 0.019982643 -0.008726827 0.07462284 0.060686458 0.06659041 -0.057514805 -0.04041329 -0.03845072 0.01770884 -0.046415478 0.03851251 -0.010793469 -0.07263947 0.04009634 0.008662431 -0.038148742 0.10613869 0.006388081 0.05081687 0.04877305 0.14250383 0.064908884 -0.07726789 -0.015166889 0.0027058232 -0.05961239 -0.0907382 -0.058657542 0.15420158 -0.027326135 -0.02631713 0.042445544 -0.048751466 0.032651618 0.061955836 -0.04298967 -0.043693617 -0.039684847 -0.0447229 -0.12964602 0.0047743954 -0.06730432 0.046214998 0.091819696 0.008778433 -0.080197975 -0.040051706 -0.034928996 
0.0148187615 0.012081728 0.013788568 -0.0036730403 -0.027123919 -0.04218273 0.011913109 -0.009409809 0.11121379 -0.0069242464 0.05009148 0.070366785 0.07741167 0.09265025 -0.07719507 0.112263836 -0.0005325823 0.037084278 0.039278783 0.016321722 0.0070570535 0.07254082 0.01723276 0.009712301 0.054165676 0.01743962 0.0391491 -0.01076083 -0.024107836 0.013552881 0.027090654 -0.054382816 -0.04112499 0.021830576 0.072263926 0.02182053 -0.040406253 0.048527822 0.11328879 0.009833586 0.07598138 0.07795959 0.016283995 -0.0044772937 -0.069603644 0.064933024 0.03293147 0.098996684 0.002368386 -0.07353743 -0.03150202 -0.07304142 0.062790215 0.11177215 -0.048689965 0.03173024 -0.07142416 0.040543113 0.006452924 -0.003671206 -0.04412339 0.055905305 -0.043102704 -0.053878054 0.026884686 0.018254077 0.0038312674 -0.077708565 0.0765404 -0.09619151 -0.01448334 0.015212331 -0.04591838 -0.05315832 -0.014909528 -0.084097795 0.066297926 0.04092007 0.041469265 0.059495717 0.14045513 0.06559974 -0.0009075077 -0.057574403 -0.0050577824 0.08776928 0.010491955 0.061904278 -0.07876696 -0.059732888 0.025640693 -0.08461089 0.061299853 0.023610953 0.00598765 -0.034529444 -0.0034465955 0.020586416 0.003405699 -0.0533083 0.09006152 0.045846578 -0.0010430937 0.06736815 0.103210606 0.08963787 -0.042470656 0.058736674 0.0681545 -0.044397224 0.035292633 0.061608694 0.03516801 -0.017029986 -0.008311032 -0.029169964 0.15034704 0.0826295 0.08409716 0.11506093 0.09161692 -0.021114038 0.06776606 -0.051454596 -0.050171822 0.04329045 0.07874494 -0.015512357 -0.011834278 -0.046932094 -0.06459249 0.05077446 -0.015022735 -0.061921824 -0.025471557 -0.033101518 0.015247224 0.0053023202 0.0075019496 -0.10257862 0.051581062 0.054583386 -0.026929414 0.0058015483 0.14198065 -0.07778216 0.06702738 0.043076683 0.054158803 0.06180872 0.08576537 0.08116014 -0.03128811 -0.06439907 0.027312288 0.076541536 -0.09219332 -0.035214946 -0.09385684 -0.062244058 0.11068455 -0.016751252 0.058570467 0.047471445 0.08302864 0.06254577 0.06287129 0.027977463 0.01442025 -0.00029695104 -0.0036672852 -0.022721136 0.043883946 0.022075173 0.078987785 0.015155389 -0.0027255903 0.06609459 0.02151082 0.06968493 -0.043890275 0.06665444 -0.037227947 -0.008761393 0.06451313 -0.07663639 -0.005197005 0.03526169 0.010169517 0.05689314 0.020292684 -0.026399428 0.08290067 0.026583198 -0.01457699 0.079338804 0.05912137 0.02902958 -0.004873886 0.07672415 -0.011726409 -0.068314776 -0.00049543974 -0.072190374 0.06942705 -0.02322666 0.05214832 0.08940439 0.14875737 0.06638307 -0.042922325 -0.03813346 0.18033889 0.0053572254 0.083297536 0.110075526 0.070104085 0.07163459 0.01980595 -0.008378146 -0.0069861156 0.019191539 -0.047487043 0.047875136 0.08687242 0.066293515 0.089420706 0.046298116 0.057538018 0.030291617 0.0015854023 0.026101083 0.014083467 0.0017689974 -0.06813577 0.050181914 -0.013270901 0.027979882 0.029611615 0.01782575 0.13189821 0.095582455 0.076710925 -0.048857242 0.06610546 -0.03916566 0.043757766 -0.0043209093 -0.061167676 -0.064479075 0.092180334 0.03908219 0.020318788 0.045169763 -0.028466592 0.11171135 0.066057906 -0.00023443042 -0.028844867 0.034922868 0.022632163 0.04824086 0.050054424 0.010739828 -0.038670637 0.017198212 0.014825605 0.09709591 0.047218945 0.094738536 0.019244062 0.06440471 0.102371484 0.0027294136 0.03333647 0.09167398 0.14043704 0.065164864 0.07944027 0.07169632 -0.021521932 -0.007451644 0.055694096 -0.024371933 0.07514539 0.06551168 -0.017388629 0.015570001 
